
\data\
ngram 1=97
ngram 2=1494
ngram 3=5257
ngram 4=12328
ngram 5=16859
ngram 6=17286

\1-grams:
-4.114389	!	-1.631526
-3.341735	"	-2.403216
-4.935575	#	-0.736029
-3.631839	$	-2.11442
-3.208237	%	-2.377481
-4.724721	&	-1.030027
-2.295715	'	-2.224915
-3.605669	(	-2.140434
-3.608216	)	-2.137902
-4.361543	*	-1.222093
-4.935575	+	-0.3048382
-2.039117	,	-3.022917
-2.616729	-	-1.180677
-1.977549	.	-2.27482
-3.924851	/	-0.4904987
-2.84877	0	-2.032101
-2.960143	1	-2.696163
-3.238781	2	-1.563921
-3.402502	3	-1.58125
-3.535469	4	-1.038241
-3.348706	5	-2.242497
-3.49822	6	-1.513415
-3.453058	7	-1.560452
-3.351526	8	-1.962457
-3.178748	9	-2.135406
-3.529034	:	-1.840547
-3.909246	;	-1.839404
-0.7063089	</s>
-99	<s>	-3.655487
-5.236605	=	-0.5832353
-3.209255	?	-2.495376
-5.361543	@	-0.3990873
-2.851893	A	-1.353725
-3.200175	B	-1.873849
-3.275183	C	-1.099276
-3.432124	D	-1.473706
-3.456648	E	-1.198721
-3.433831	F	-1.490995
-3.54863	G	-1.325065
-3.202177	H	-1.891388
-2.537852	I	-2.024063
-3.708331	J	-1.291472
-4.046273	K	-0.7691035
-3.674312	L	-0.9737206
-3.040705	M	-1.342449
-3.428731	N	-0.9871157
-3.326781	O	-0.9106687
-3.288436	P	-0.9569207
-4.608216	Q	-1.221419
-3.526911	R	-0.852012
-2.974154	S	-1.439994
-2.647214	T	-1.876703
-3.585812	U	-1.490374
-3.879623	V	-1.136413
-3.073742	W	-1.563238
-5.236605	X	-0.4052232
-3.533313	Y	-1.342631
-4.993567	Z	-0.1916076
-5.537635	[	-0.1345627
-5.537635	]	-0.1345627
-5.838665	^	-0.300761
-4.724721	_	-0.4288739
-2.867389	`	-2.875912
-1.223156	a	-3.082314
-1.975639	b	-2.367902
-1.662342	c	-2.590628
-1.543516	d	-2.13293
-1.028721	e	-3.514079
-1.790689	f	-3.097576
-1.817889	g	-2.530292
-1.410028	h	-3.342062
-1.269806	i	-3.241427
-2.955003	j	-2.727973
-2.237692	k	-1.729683
-1.510305	l	-2.866823
-1.748477	m	-2.417914
-1.270087	n	-3.11283
-1.228526	o	-3.219571
-1.825617	p	-1.843891
-3.271638	q	-2.056229
-1.336606	r	-3.142917
-1.304169	s	-3.160886
-1.14456	t	-3.010583
-1.677716	u	-2.55333
-2.084775	v	-2.472565
-1.851938	w	-2.448117
-2.859572	x	-1.773852
-1.815659	y	-2.20907
-3.204187	z	-1.570228
-5.236605	{	-0.6038755
-5.236605	}	-0.6038755
-5.838665	ˆ	-0.2948794
-5.838665	‰	-0.2059355
-5.537635	·	-0.1345627
-5.537635	¼	-0.47712
-5.537635	Â	-0.229656
-5.537635	ï	-0.229656

\2-grams:
-1.033424	! !	0.3931741
-1.033424	! .	0.6320907
-0.09892531	! </s>
-0.001380906	" </s>
-0.9885443	# 1	-0.5537075
-0.20412	# </s>
-0.90309	# ^
-0.002689139	$ </s>
-0.4139598	% </s>
-1.455353	% a	-1.200707
-1.20008	% e	-1.44633
-1.590051	% h	-0.7119794
-1.21647	% m	-1.419633
-1.786346	% p	-0.8905811
-0.3859311	% u	-2.223428
-1.146128	& #
-0.243038	& </s>
-1.146128	& L
-1.146128	& P
-1.146128	& f
-1.146128	& u
-0.8764319	' '	-2.592259
-3.54295	' 3
-3.54295	' 4
-3.738199	' 6	-0.5420761
-2.63986	' 7	-0.4699933
-3.738199	' 8	-0.2502414
-0.7986569	' </s>
-3.628404	' S	-0.5246046
-3.54295	' a
-3.54295	' b
-2.181222	' d	-1.024032
-1.662136	' l	-1.818513
-1.478492	' m	-1.990667
-3.738199	' n
-1.287677	' r	-2.131654
-0.3839846	' s	-2.889541
-0.8178553	' t	-2.597655
-3.54295	' u
-1.63986	' v	-1.392139
-0.002532337	( </s>
-0.002547189	) </s>
-1.477121	* $
-0.4771213	* *	-0.1854138
-1.477121	* 1
-1.477121	* 2
-1.477121	* 3
-1.477121	* 4
-0.5740313	* </s>
-1.477121	* c
-1.477121	* l
-1.477121	* m
-1.562576	* p	-0.5240947
-1.477121	* r
-1.477121	* w
-0.9885443	+ </s>
-0.90309	+ A
-0.9885443	+ a
-0.90309	+ h
-0.90309	+ o
-0.90309	+ s
-3.799547	, ,
-1.845305	, 0	-1.765027
-3.885002	, 1
-3.799547	, 2
-3.994797	, 3	-0.196057
-3.885002	, 4
-2.845305	, 5	-0.3655568
-3.799547	, 6
-3.799547	, 7
-0.007646227	, </s>
-0.8069623	- -	-1.395368
-2.267693	- 1	-0.785264
-3.221936	- 2
-0.127814	- </s>
-3.221936	- A
-3.221936	- D
-3.221936	- H
-3.221936	- J
-3.30739	- S
-2.142754	- a	-0.272365
-3.30739	- b
-2.045844	- c	-0.2999257
-3.417185	- d	-0.2209264
-2.221936	- e	-0.3876293
-3.30739	- g
-1.823996	- h	-1.156522
-3.30739	- i	-0.4300086
-3.30739	- l
-2.376837	- m	-0.1071621
-2.376837	- n	-0.5231119
-2.045844	- o	-0.6483583
-2.522966	- p	-0.6111309
-2.619876	- r	-0.2108818
-1.823996	- s	-1.007005
-3.30739	- t
-3.417185	- v	-0.4579431
-2.318846	- w	-0.4487537
-1.839927	. .	-0.5774894
-2.958026	. 0	-0.1900146
-2.582362	. 1	-0.1667726
-2.413958	. 2	-0.4859166
-2.747173	. 3	-0.4816928
-2.630667	. 4	-0.2736058
-2.342602	. 5	-0.6315839
-2.630667	. 6	-0.4018882
-2.518693	. 7	-0.3071867
-2.429752	. 8	-0.4158112
-2.630667	. 9	-0.3644965
-0.0223299	. </s>
-3.861116	. A
-3.861116	. C
-3.162146	. S	-0.6649473
-3.259056	. a	-0.1893739
-4.056365	. b	-0.2896271
-2.605844	. c	-1.161124
-3.861116	. f
-3.861116	. g
-3.259056	. h	-0.6880045
-4.056365	. j	-0.5492623
-3.861116	. k
-3.861116	. l
-3.94657	. m
-3.94657	. n
-4.056365	. o	-0.2316592
-3.94657	. p
-3.94657	. t
-3.94657	. u	-0.5746582
-3.861116	. v
-3.861116	. z
-0.8346326	/ /	-0.3850795
-1.913814	/ 0
-1.135663	/ 2	-0.2444794
-1.311754	/ 3	-0.6811087
-1.214844	/ 4	-0.2490984
-1.913814	/ 6
-1.913814	/ 7
-1.999268	/ 8
-0.7096938	/ </s>
-1.999268	/ R	-0.3803855
-1.999268	/ _	-0.5465227
-1.913814	/ a
-1.913814	/ d
-2.109063	/ i	-0.2792799
-1.999268	/ j	-0.572024
-1.311754	/ m	-0.3756044
-1.311754	/ n	-0.6662067
-1.999268	/ o	-0.5244942
-1.999268	/ p	-0.5563572
-1.999268	/ t	-0.5558723
-1.913814	/ v
-1.135663	/ w	-0.7621008
-1.913814	/ y
-1.913814	/ z
-3.075349	0 '	-0.3434602
-1.249532	0 ,	-1.433087
-1.484745	0 .	-0.921336
-3.185144	0 /	-0.2874034
-0.4433519	0 0	-0.6725632
-2.086805	0 1	-0.5726995
-3.185144	0 2	-0.1646489
-2.035652	0 3	-0.336774
-2.290925	0 4	-0.4410969
-2.211743	0 5	-0.4878826
-1.989895	0 6	-0.9864724
-2.035652	0 7	-0.6620579
-2.989895	0 8
-2.290925	0 9	-0.0472979
-0.3594667	0 </s>
-2.989895	0 _
-1.512773	0 s	-1.221637
-1.734622	0 t	-1.133775
-2.989895	0 z
-1.648647	1 ,	-0.5146458
-1.335028	1 .	-0.626906
-1.976006	1 /	-0.2680297
-0.9013723	1 0	-0.2272784
-1.373946	1 1	-0.676578
-1.216338	1 2	-0.4903926
-1.387734	1 3	-0.7929216
-1.578066	1 4	-0.2646443
-1.322793	1 5	-0.1284598
-1.347617	1 6	-0.189771
-1.431938	1 7	-0.3136756
-1.373946	1 8	-0.4607646
-0.491706	1 9	-0.6419738
-0.9496769	1 </s>
-1.799915	1 s	-1.051809
-2.879096	1 t
-1.997823	2 ,	-0.3306603
-1.137485	2 .	-0.5642682
-2.795132	2 /	-0.2700563
-0.5955617	2 0	0.0779072
-1.599883	2 1	-0.2687243
-1.754785	2 2	-0.1452394
-1.321129	2 3	-0.3185649
-1.344611	2 4	-0.4068495
-0.9186418	2 5	-0.3065396
-1.55849	2 6	-0.03358928
-1.696793	2 7	0.1190469
-1.423792	2 8	-0.5502881
-1.395763	2 9	-1.071834
-2.599883	2 :
-0.5955617	2 </s>
-2.685338	2 _	-0.5465227
-2.795132	2 n	-0.4842478
-2.685338	2 t	-0.4298892
-1.737193	3 ,	-0.692724
-1.18089	3 .	-0.3733928
-2.631412	3 /	-0.5247833
-0.7037689	3 0	-0.5745114
-1.113943	3 1	-0.8003281
-1.39477	3 2	-0.8087508
-1.436163	3 3	-0.2667074
-1.356981	3 4	-0.0731203
-1.436163	3 5	-0.05859171
-1.591065	3 6	-0.1110132
-1.48192	3 7	-0.05295379
-2.631412	3 8
-1.39477	3 9	-0.636749
-0.5223488	3 </s>
-1.533073	3 r	-0.9454892
-1.48192	3 t	-0.8550211
-2.498446	4 ,	-0.5458604
-1.224015	4 .	-0.2361688
-0.7468936	4 0	-0.268208
-1.189253	4 1	-0.6077562
-1.348954	4 2	-0.02028288
-2.38865	4 3
-2.498446	4 4	-0.2942333
-1.224015	4 5	-0.7975593
-1.604226	4 6	-0.4414231
-1.604226	4 7	-0.1382173
-2.498446	4 8	-0.1430937
-2.38865	4 9	-0.4712544
-0.3489535	4 </s>
-2.303196	4 C
-2.38865	4 _
-2.498446	4 t	-0.4071275
-1.586869	5 ,	-0.9479966
-1.25951	5 .	-0.3420075
-2.489959	5 /
-0.5978639	5 0	-0.2401201
-2.575413	5 1
-1.711807	5 2	-0.06653239
-2.489959	5 3
-1.887898	5 4	-0.07903314
-1.535716	5 5	0.05475356
-1.586869	5 6	-0.01870384
-1.790988	5 7	-0.2048459
-1.489959	5 8	-0.1492747
-1.790988	5 9	-0.5643102
-0.3285905	5 </s>
-2.489959	5 _
-2.489959	5 b
-2.489959	5 d
-1.64486	5 t	-0.746066
-1.340444	6 ,	-1.266963
-2.340444	6 -
-1.109995	6 .	-0.4421135
-0.7069756	6 0	0.06017856
-1.641474	6 1	-0.1937073
-1.495346	6 2	-0.4849627
-1.641474	6 3	-0.3849772
-1.641474	6 4	-0.2831782
-1.340444	6 5	-0.02284196
-1.738384	6 6	-0.4724692
-2.535693	6 7
-2.535693	6 8
-1.641474	6 9	-0.4287821
-0.3910541	6 </s>
-2.340444	6 _
-1.299051	6 t	-0.9342023
-2.580856	7 ,	-0.291155
-1.155157	7 .	-0.4349159
-2.471061	7 /
-1.023878	7 0	0.2781917
-1.686636	7 1	-0.09918499
-1.540508	7 2	-0.3598479
-1.540508	7 3	-0.133678
-1.540508	7 4	-0.1101037
-1.239478	7 5	-0.1371319
-1.607455	7 6	-0.2506205
-1.239478	7 7	-0.334289
-1.431364	7 8	-0.2930687
-1.482516	7 9	-0.5208124
-0.3100593	7 </s>
-2.471061	7 t	-0.4298892
-2.682388	8 ,	-0.5458604
-1.532896	8 .	-0.1684393
-0.9957767	8 0	-0.4181033
-1.584048	8 1	-0.3691318
-1.311047	8 2	-0.7479346
-1.487138	8 3	-0.275426
-1.64204	8 4	-0.2785518
-1.487138	8 5	-0.05859171
-1.186108	8 6	-0.3546172
-0.8243805	8 7	-1.069543
-1.164919	8 8	-0.8725075
-1.03998	8 9	-0.5884036
-1.788168	8 :
-0.5377484	8 </s>
-1.788168	8 t	-0.522945
-2.659916	9 ,
-1.298188	9 .	-0.6190614
-1.006704	9 0	0.09766932
-1.756826	9 1	-0.4170521
-1.545973	9 2	-0.4028001
-1.618523	9 3	-0.4091422
-1.659916	9 4	-0.2335093
-1.513788	9 5	-0.05060746
-1.337697	9 6	-0.1724135
-1.279705	9 7	-0.05482238
-0.5700111	9 8	-0.7393328
-0.8605757	9 9	0.1833117
-0.6731445	9 </s>
-2.659916	9 _
-2.855166	9 t	-0.4071275
-1.230449	: /	-1.045228
-2.30963	: 1
-2.395085	: 2
-2.30963	: 3
-2.30963	: 4
-2.395085	: 5
-0.04245844	: </s>
-0.005079526	; </s>
-3.460258	<s> !	-0.2135428
-2.635426	<s> "	0
-4.354205	<s> #	-0.4870803
-2.959169	<s> $	0.03342376
-2.502946	<s> %	-0.04391984
-4.132356	<s> &	-0.3309932
-1.736331	<s> '	-1.775008
-2.89936	<s> (	0
-2.901907	<s> )	0
-4.018413	<s> *	0.1651764
-4.354205	<s> +	-0.07478277
-1.340455	<s> ,	-2.033746
-2.065285	<s> -	-2.062995
-1.316446	<s> .	-2.368159
-3.956264	<s> /	-1.10985
-3.831326	<s> 0	-1.098918
-2.348452	<s> 1	-0.2517822
-2.765	<s> 2	-0.1249894
-2.97702	<s> 3	-0.1103326
-3.234729	<s> 4	-0.0520533
-3.163873	<s> 5	0.4784265
-3.287258	<s> 6	0.001121272
-3.361504	<s> 7	0.2002314
-3.399962	<s> 8	-0.3668484
-3.416353	<s> 9	-0.5810552
-2.872284	<s> :	-1.231575
-3.202937	<s> ;	0
-5.132356	<s> =
-2.506015	<s> ?	-0.3938525
-5.132356	<s> @
-2.165276	<s> A	-0.5271361
-2.517458	<s> B	-0.4967249
-2.611218	<s> C	-0.5719008
-2.782108	<s> D	-0.7299936
-2.855894	<s> E	-0.6669974
-2.736156	<s> F	-0.169224
-2.872284	<s> G	-0.3113341
-2.50499	<s> H	-0.2209869
-1.845675	<s> I	-0.6244112
-3.015085	<s> J	-0.1832698
-3.433386	<s> K	-0.5084717
-3.06417	<s> L	-1.148715
-2.344895	<s> M	-0.4915471
-2.784051	<s> N	-0.852346
-2.666973	<s> O	-0.5498518
-2.608609	<s> P	-0.3983544
-3.928236	<s> Q	-0.2188313
-2.917512	<s> R	-0.8007935
-2.343481	<s> S	-0.7727783
-1.948232	<s> T	-0.6221069
-2.907047	<s> U	-0.3877609
-3.319443	<s> V	-0.952015
-2.370428	<s> W	-0.6054565
-5.327605	<s> X	-0.1919538
-2.8401	<s> Y	-0.3926068
-4.287258	<s> Z	-0.2422002
-5.21781	<s> [	-0.3452109
-5.21781	<s> ]	-0.3452109
-2.459335	<s> `	0.3138733
-1.047101	<s> a	-2.318595
-1.445809	<s> b	-1.920648
-1.431652	<s> c	-2.612538
-1.652493	<s> d	-1.798444
-1.728035	<s> e	-2.355868
-1.48841	<s> f	-2.901096
-1.873958	<s> g	-2.826665
-1.488607	<s> h	-2.342267
-1.284536	<s> i	-2.228256
-2.392783	<s> j	-0.7084793
-2.250401	<s> k	-1.913947
-1.731472	<s> l	-3.070678
-1.542295	<s> m	-2.50474
-1.702765	<s> n	-3.601723
-1.27112	<s> o	-2.352213
-1.521164	<s> p	-2.690509
-2.914872	<s> q	-0.5561717
-1.666973	<s> r	-3.20287
-1.286452	<s> s	-3.284252
-0.8833532	<s> t	-3.435969
-2.021093	<s> u	-2.25871
-2.231443	<s> v	-0.1154642
-1.325091	<s> w	-2.873443
-4.530296	<s> x	-0.2732131
-1.844107	<s> y	-3.177046
-3.669958	<s> z	-0.6796769
-4.530296	<s> {	0
-4.530296	<s> }	0
-5.21781	<s> Â	-0.3452109
-5.132356	<s> ï
-0.69897	= 6
-0.69897	= </s>
-0.69897	= c
-0.69897	= g
-2.630428	? !
-0.005115424	? </s>
-2.630428	? ?
-2.630428	? f
-2.630428	? i
-0.4771213	@ #
-0.5625756	@ g	-0.5744539
-3.072226	A +	-0.5278189
-2.986772	A .
-2.986772	A :
-0.8020803	A </s>
-3.072226	A A	-0.5003184
-3.182021	A B
-2.986772	A G
-3.182021	A I	-0.5508009
-1.872828	A L	-0.3680828
-2.986772	A M
-2.208621	A N	-0.1115726
-2.384712	A P	-0.1848738
-2.141674	A R	-0.2843955
-3.072226	A S	-0.5712937
-2.986772	A T
-2.986772	A V
-3.072226	A Y	-0.5730985
-1.625044	A b	-0.2495069
-1.50965	A c	-1.122672
-2.083682	A d	-0.2591898
-1.287802	A f	-1.618861
-2.287802	A g	-0.3268603
-1.840644	A h	-1.090074
-2.032529	A i	-0.7611885
-2.986772	A k
-0.9697384	A l	-0.98638
-1.60656	A m	-0.4565471
-0.6157039	A n	-1.347593
-1.468258	A p	-1.06697
-1.41857	A r	-0.7727621
-1.047253	A s	-1.112939
-1.19438	A t	-1.444916
-1.49541	A u	-1.219372
-1.945379	A v	-0.5628356
-3.072226	A w
-2.986772	A y
-2.638489	B .
-2.723944	B :	0.4560085
-1.383217	B </s>
-2.638489	B A
-2.036429	B B	-0.694958
-1.860338	B C	-0.7448233
-2.638489	B I
-2.723944	B L	-0.5628036
-2.638489	B O
-2.638489	B R
-2.036429	B S	-0.6487065
-2.638489	B U
-1.058706	B a	-0.4425265
-0.8750613	B e	-0.3360424
-1.359736	B i	-0.7442294
-1.860338	B l	-0.3529999
-1.223516	B o	-0.6795578
-1.559308	B r	-1.17755
-0.2921363	B u	-1.468435
-1.559308	B y	-0.6252179
-2.563481	C .
-1.38739	C </s>
-2.648936	C D
-1.78533	C E	-0.4522158
-2.648936	C H
-2.75873	C I	-0.290034
-2.563481	C L
-2.563481	C N
-1.961421	C O	-0.190451
-2.75873	C P	-0.5459461
-1.78533	C R	-0.4306003
-2.563481	C S
-2.563481	C T
-2.75873	C U	-0.2769686
-0.8645111	C a	-0.8371263
-1.4843	C e	-0.8406509
-0.6603911	C h	-0.5952039
-1.449538	C i	-0.7807848
-1.718383	C l	-0.2420149
-0.473576	C o	-1.212952
-1.449538	C r	-0.2635383
-1.333032	C u	-0.612468
-2.648936	C y
-1.260412	D </s>
-2.491995	D A	-0.5745002
-1.80448	D E
-2.40654	D G
-1.80448	D I	-0.571159
-2.491995	D J	-0.5722176
-2.40654	D N
-2.40654	D O
-1.70757	D P	-0.654254
-1.80448	D S	-0.6487065
-2.40654	D V
-0.9593822	D a	-0.706389
-0.6905369	D e	-0.828037
-0.7344423	D i	-0.7842276
-0.6283889	D o	-0.7364809
-1.327359	D r	-0.7753127
-2.491995	D s	-0.305143
-1.230449	D u	-0.4179199
-1.340624	E </s>
-1.779957	E A	-0.3337608
-2.382017	E C
-1.382017	E D	-0.3844559
-2.382017	E E
-2.467471	E F
-2.382017	E L
-2.577266	E N
-1.683047	E O	-0.6557276
-1.603866	E R	-0.1629385
-1.478927	E S	-0.5741626
-2.382017	E T
-2.382017	E V
-2.382017	E X
-0.9506533	E a	-1.000278
-1.683047	E c	-0.5737759
-1.603866	E d	-0.184975
-1.603866	E i	-0.4797592
-2.577266	E l
-1.478927	E m	-0.2639835
-0.7192592	E n	-0.9954902
-2.382017	E q
-1.603866	E r	-0.3678789
-1.779957	E s	-0.274772
-1.080987	E u	-1.241829
-0.8138153	E v	-0.7508261
-1.177897	E x	-0.7403851
-2.382017	E y
-2.404834	F 1
-1.626683	F </s>
-2.490288	F A
-2.490288	F E
-2.404834	F F
-2.404834	F I
-2.404834	F P
-2.490288	F R	-0.5735146
-2.404834	F S
-1.149561	F a	-0.169938
-1.12608	F e	-0.5626305
-0.7235925	F i	-0.6959723
-1.705864	F l	-0.6679992
-0.518343	F o	-1.430744
-0.612442	F r	-1.772492
-1.501744	F u	-0.3802152
-2.290035	G .
-1.444937	G </s>
-1.591065	G D	-0.6593238
-2.375489	G E	-0.5545789
-2.290035	G H
-1.591065	G I	-0.3044922
-2.290035	G N
-2.290035	G O
-2.375489	G R
-2.290035	G S
-1.386945	G a	-0.4431818
-0.8920946	G e	-1.029504
-1.591065	G h	-0.6628608
-1.059586	G i	-0.6267977
-2.375489	G l	-0.5438973
-0.3606157	G o	-1.090015
-0.9476119	G r	-0.6392187
-1.591065	G u	-0.1387508
-2.636488	H </s>
-2.636488	H A
-1.937518	H E	-0.3562227
-2.831737	H I	-0.2904701
-1.858337	H K	-0.9671679
-2.636488	H O
-2.636488	H S
-2.636488	H T
-1.056704	H a	-0.7274025
-0.2544709	H e	-2.186984
-0.9832754	H i	-0.7454385
-2.636488	H m
-0.7443933	H o	-0.9712103
-2.636488	H s
-1.682245	H u	-0.4312843
-2.636488	H y
-0.2241724	I </s>
-2.397723	I A	-0.4055316
-2.34657	I C	-0.4407348
-2.522661	I D	-0.5203146
-2.455715	I E	-0.3389745
-3.386267	I G
-2.154685	I I	-0.4506203
-3.300813	I L
-3.496062	I M
-2.34657	I N	-0.3346104
-3.496062	I O	-0.2836829
-3.300813	I P
-3.496062	I R
-2.522661	I S	-0.4110574
-3.386267	I T
-3.300813	I c
-1.397723	I f	-1.712929
-3.300813	I g
-2.698753	I m	-0.3078318
-0.8222463	I n	-1.621804
-2.455715	I r	-0.3369912
-1.65736	I s	-1.369076
-0.8324655	I t	-2.323148
-2.215788	J </s>
-2.130334	J C
-2.215788	J I	-0.5731266
-2.215788	J U	-0.5728706
-0.69897	J a	-0.7860281
-2.130334	J e
-1.352183	J i	-0.3322618
-0.8515801	J o	-0.5403833
-0.2552725	J u	-1.384219
-1.190332	K $	1.510545
-0.9472936	K </s>
-1.792392	K N
-1.792392	K a
-1.987641	K e
-0.7923917	K i	-0.2241004
-1.987641	K n	-0.5284656
-0.4701724	K o	-0.9917206
-0.750999	K u	-1.027254
-1.792392	K w
-1.319255	L </s>
-2.359602	L A
-2.164353	L D
-1.562293	L E	-0.1838826
-2.359602	L I	-0.2898158
-1.386202	L L	-0.172321
-2.164353	L O
-2.164353	L R
-2.164353	L S
-2.164353	L T
-2.164353	L Y
-0.492255	L a	-0.6919335
-1.018225	L e	-0.6563589
-0.6872316	L i	-0.440515
-0.8219302	L o	-0.7761631
-2.164353	L s
-2.359602	L u
-2.1959	M </s>
-1.89487	M B	-0.9358893
-2.79796	M E
-2.993209	M I	-0.2898158
-2.79796	M M
-2.883414	M O
-2.79796	M P
-2.993209	M S	-0.5517278
-0.7487416	M a	-0.8486364
-2.883414	M c	-0.5748443
-1.253892	M e	-0.296811
-1.89487	M h	-0.9531891
-1.034532	M i	-0.8097016
-0.8736804	M m	-1.8519
-0.9784157	M o	-0.8802271
-0.4969296	M r	-2.272767
-2.1959	M s	-0.6986527
-1.567511	M t	-1.254956
-2.019808	M u	-0.1019254
-1.684016	M y	-0.6574026
-1.564835	N </s>
-2.495388	N A
-2.605183	N B	-0.5460744
-2.495388	N D
-2.605183	N E	-0.2714864
-1.506843	N G	-0.4049817
-2.605183	N I
-2.409933	N N
-2.495388	N O	-0.5737691
-2.409933	N P
-2.409933	N Q
-2.495388	N S
-1.631782	N T	-0.5485601
-1.179484	N a	-0.5824801
-0.7378353	N e	-1.047398
-2.409933	N g
-1.179484	N i	-0.8295689
-0.2893592	N o	-1.31676
-2.495388	N u
-2.511883	O '
-1.557641	O </s>
-2.597338	O F
-2.511883	O G
-1.733732	O K	-0.4092918
-2.511883	O L
-2.597338	O M	-0.572093
-1.733732	O N	-1.038887
-2.597338	O O
-2.511883	O P
-2.707133	O R	-0.290032
-1.812913	O T	-0.2420673
-2.511883	O U
-2.597338	O V	-0.571813
-2.597338	O W	-0.5742548
-2.511883	O a
-1.733732	O b	-0.45983
-0.8586708	O c	-1.496417
-2.511883	O d
-1.08052	O f	-1.197103
-1.256611	O h	-1.2227
-2.597338	O i	-0.5478134
-2.597338	O k
-2.511883	O l
-0.4704907	O n	-1.8434
-1.812913	O p	-0.6741687
-1.210853	O r	-0.4769385
-1.557641	O t	-0.8550211
-1.169461	O u	-0.9816827
-1.511883	O v	-0.4836544
-2.597338	O w	-0.559927
-2.550228	P .
-1.508836	P </s>
-2.550228	P A
-2.745478	P E	-0.2808264
-2.745478	P H
-1.851258	P I	-0.3044922
-2.635683	P L	-0.5729665
-2.550228	P M
-2.635683	P O
-2.550228	P P
-2.745478	P R	-0.2610551
-2.635683	P S	-0.5246046
-2.550228	P V
-1.00616	P a	-0.2991336
-1.031714	P e	-1.102164
-2.745478	P h
-1.772077	P i	-0.1271005
-1.249198	P l	-0.8858115
-1.188501	P o	-0.7322525
-0.2624266	P r	-1.748194
-2.550228	P s
-1.948168	P u	-0.2690991
-1.255273	Q U
-0.5563025	Q i	-0.5230644
-0.2138798	Q u	-1.086791
-2.311754	R '
-1.165626	R </s>
-1.709694	R A	-0.1926839
-2.397208	R C	-0.5566941
-2.311754	R D
-2.507003	R E
-1.612784	R I	-0.1493881
-1.466656	R M	-0.885477
-2.507003	R O	-0.2906766
-2.397208	R S	-0.5246046
-2.397208	R T	-0.5737488
-2.311754	R U
-2.311754	R V
-2.507003	R Y	-0.2904019
-1.107634	R a	-0.3449719
-0.4425221	R e	-0.7879444
-0.6127838	R i	-0.9323678
-1.232573	R o	-0.6655051
-2.311754	R s
-2.507003	R u
-2.262451	S $	1.510545
-2.949965	S &
-2.165541	S .	0.6320907
-0.9614211	S </s>
-2.08636	S A	-0.5639875
-2.949965	S B
-2.262451	S E	-0.316617
-2.864511	S I
-3.059761	S N	-0.5510271
-2.864511	S P
-1.634062	S S	-1.180185
-2.949965	S U
-2.864511	S W
-1.320443	S a	-0.3879292
-2.262451	S c	-0.2793109
-0.724632	S e	-1.053046
-0.966884	S h	-0.7002482
-1.296309	S i	-0.4811012
-2.864511	S k
-3.059761	S m	-0.2174924
-0.5949981	S o	-1.268141
-1.750568	S p	-0.4728188
-1.051598	S t	-1.325832
-1.273446	S u	-0.9966677
-2.262451	S y	-0.1973476
-3.3867	T $	1.657409
-3.191451	T 3
-2.11227	T </s>
-3.191451	T A
-2.589391	T C	-0.3187322
-3.276905	T H	-0.569824
-2.589391	T I	-0.196584
-3.191451	T J
-3.3867	T O
-2.589391	T R	-0.1878198
-3.191451	T S
-1.961002	T V	-1.153564
-3.191451	T W
-1.623249	T a	-0.5568225
-1.987331	T e	-0.6237144
-0.07617342	T h	-2.327931
-2.01536	T i	-0.4028858
-1.358942	T o	-0.7368432
-1.776478	T r	-0.5533525
-3.191451	T s
-2.150058	T u	-0.6395649
-1.890421	T w	-0.9117609
-3.276905	T y	-0.5701886
-1.553883	U .	-0.6676248
-2.338307	U </s>
-2.252853	U B
-2.338307	U D
-2.252853	U E
-2.252853	U I
-2.252853	U L
-2.338307	U N
-2.252853	U P
-2.252853	U R
-0.553883	U S	-1.643088
-2.252853	U V
-0.805695	U h	-1.40581
-0.6846513	U m	-1.502265
-0.708785	U n	-0.5526701
-1.553883	U p	-0.6656525
-1.474702	U s	-0.2259995
-1.959041	V :
-0.6802878	V </s>
-1.18089	V C	-0.4541422
-1.959041	V D
-2.154291	V E	-0.2808264
-2.044496	V I
-1.004799	V a	-0.6941235
-0.845098	V e	-0.7569521
-0.4405274	V i	-0.88596
-1.356981	V o	-0.3174208
-2.850377	W </s>
-2.850377	W A
-2.850377	W E	-0.5545789
-2.764923	W I
-2.764923	W O
-2.960172	W T	-0.5509871
-1.141674	W a	-0.2833509
-0.3482825	W e	-1.571245
-0.5120699	W h	-1.508766
-1.057353	W i	-1.591181
-1.20862	W o	-0.8403114
-2.850377	W r
-0.6875144	X </s>
-0.60206	X C
-0.60206	X i
-2.500601	Y </s>
-2.305351	Y E
-2.305351	Y O
-2.390806	Y S	-0.5246046
-1.606381	Y a
-0.5200216	Y e	-1.281736
-2.305351	Y i
-0.2049808	Y o	-2.255715
-2.390806	Y u
-0.9305524	Z T	-0.5715014
-0.9305524	Z a	-0.5714547
-0.845098	Z e
-0.9305524	Z o
-0.3864844	[ </s>
-0.3864844	] </s>
-0.30103	^ %
-1.199398	_ 2	-0.5420114
-1.199398	_ 4	-0.5458299
-1.113943	_ 5
-1.113943	_ 8
-1.113943	_ 9
-1.113943	_ A
-1.199398	_ B	-0.5740473
-1.113943	_ f
-1.199398	_ k	-0.5686191
-0.2987187	` </s>
-0.3042866	` `	-2.365032
-4.615508	a '
-3.536327	a -	0.01329806
-3.916538	a .	-0.1498339
-4.700963	a /	-0.5714764
-4.615508	a 5
-1.139547	a </s>
-3.837357	a a	-0.1217688
-1.680001	a b	-0.2958048
-1.407336	a c	-1.969249
-1.435956	a d	-0.5010932
-3.536327	a e	-0.07712913
-2.118578	a f	-2.072463
-1.735266	a g	-1.399415
-2.106306	a h	-1.340529
-1.387365	a i	-1.889472
-2.789433	a j	-1.713203
-1.888781	a k	-0.5172945
-1.004104	a l	-0.9366559
-1.666118	a m	-0.7090897
-0.7420713	a n	-1.646453
-3.336755	a o	-0.4665128
-1.787493	a p	-1.577973
-3.661266	a q	1.60038
-0.9702824	a r	-1.661898
-1.064302	a s	-1.06418
-0.8343993	a t	-1.598765
-1.885534	a u	-1.589633
-1.643769	a v	-0.1314684
-2.177758	a w	-1.110556
-2.916538	a x	-0.8285931
-1.428552	a y	-1.075738
-2.934267	a z	-0.154637
-3.863025	b *
-4.058275	b -	0.04144027
-3.863025	b .
-3.863025	b 7
-1.943947	b </s>
-1.047448	b a	-1.43728
-2.306723	b b	-0.2319074
-3.164055	b c	-0.2891558
-4.058275	b d
-0.4928825	b e	-1.78137
-3.863025	b g
-1.167544	b i	-1.073893
-2.561995	b j	-1.262767
-3.863025	b k
-0.9937935	b l	-2.508011
-3.164055	b m	-0.4318746
-0.8726864	b o	-1.744011
-3.863025	b p
-1.348478	b r	-2.208564
-1.755815	b s	-1.448142
-2.294824	b t	-0.8635479
-0.961567	b u	-1.267562
-2.465085	b v	-1.303777
-3.164055	b w	-0.5809628
-1.083429	b y	-1.784938
-4.261777	c -	0.01867857
-2.814595	c .	0.2254659
-4.176323	c 5
-1.562481	c </s>
-4.261777	c C	-0.5542125
-0.9082131	c a	-1.610104
-1.751441	c c	-2.048563
-4.261777	c d	-0.5514677
-0.8142175	c e	-1.81658
-0.9058769	c h	-0.3270149
-1.145723	c i	-1.743731
-1.362075	c k	0.3451284
-1.404735	c l	-2.516387
-3.574263	c n	-0.3041429
-0.710197	c o	-0.9541984
-4.261777	c p	-0.560123
-3.030195	c q	0.4878451
-1.36141	c r	-2.475568
-2.226933	c s	-1.684517
-1.00871	c t	-2.415722
-1.421975	c u	-1.861056
-4.176323	c x
-1.801574	c y	-1.910509
-4.176323	c z
-4.295149	d '
-2.994119	d -	-0.450184
-4.380603	d .
-0.2521014	d </s>
-4.295149	d T
-1.422993	d a	-1.176991
-3.516998	d b	-0.08104014
-2.994119	d c	-1.243765
-1.987653	d d	-1.3315
-0.8223926	d e	-1.268689
-3.091029	d f	-0.8599405
-2.219602	d g	-1.492818
-2.994119	d h	-1.175746
-1.0546	d i	-0.934486
-3.215968	d j	-0.9386126
-2.219602	d l	-1.650404
-2.437817	d m	-1.324622
-3.0647	d n	-0.9181582
-1.280209	d o	-1.703172
-4.490398	d p	-0.501333
-3.253757	d q	0.5847551
-1.820933	d r	-2.209181
-1.600544	d s	-1.451698
-4.490398	d t	-0.1467967
-1.645814	d u	-1.606096
-2.475605	d v	0.4904568
-2.952726	d w	-1.195027
-1.939123	d y	-1.339289
-4.80995	e &
-4.80995	e *
-3.318588	e -	-0.03411553
-0.4627958	e </s>
-4.80995	e =
-1.263037	e a	-1.801654
-2.776526	e b	-0.5672069
-1.515484	e c	-1.164265
-1.134997	e d	-1.836927
-1.577462	e e	-1.713037
-2.083223	e f	0.2444008
-2.115345	e g	-1.069418
-2.720045	e h	-0.4273132
-1.954431	e i	-1.686288
-3.80995	e j	-0.6395177
-2.660731	e k	-1.387982
-1.495872	e l	-1.23981
-1.686425	e m	-1.403287
-1.079168	e n	-1.839309
-2.168476	e o	-1.571865
-1.990406	e p	-0.6861947
-2.797113	e q	-0.353097
-0.9175771	e r	-1.300913
-1.099748	e s	-0.7418272
-1.542075	e t	-0.2212807
-3.20789	e u	-0.5663684
-1.761897	e v	-0.6921049
-2.072757	e w	-0.5929433
-1.91508	e x	-0.3733788
-1.829492	e y	-1.182825
-3.531196	e z	-0.2277903
-4.047976	f '
-4.047976	f *
-4.243225	f -	0.04144027
-0.4406276	f </s>
-1.248635	f a	-2.066813
-1.170028	f e	-1.216497
-1.264787	f f	-2.081758
-0.958777	f i	-1.784854
-1.729912	f l	-1.989963
-0.7334762	f o	-2.356285
-1.151449	f r	-2.55707
-2.901847	f s	-0.3992817
-1.44052	f t	-1.161838
-1.464777	f u	-2.030992
-4.047976	f w
-2.542825	f y	-1.03161
-4.10623	g -	0.01867857
-4.10623	g .	-0.5748299
-3.418715	g /	-0.5660793
-0.395463	g </s>
-1.218002	g a	-1.539639
-4.020775	g b
-4.020775	g c
-0.8920532	g e	-1.68686
-1.987352	g g	-1.430175
-0.9971116	g h	-0.6884242
-1.308126	g i	-0.9527928
-4.020775	g j
-1.934416	g l	-1.77653
-3.020776	g m	-0.3006705
-1.562894	g n	-1.867862
-1.095463	g o	-1.728616
-4.020775	g p
-4.10623	g q	-0.5741166
-1.200574	g r	-2.494805
-1.66475	g s	-1.461198
-2.605802	g t	-1.286385
-1.486749	g u	-1.763957
-2.128681	g y	-1.093104
-4.020775	g z
-2.966255	h -	-0.3548039
-0.9169033	h </s>
-4.428653	h =
-0.7526915	h a	-1.697177
-3.106434	h b	-1.486079
-4.428653	h c
-3.38726	h d	-0.6936036
-0.3432911	h e	-2.00545
-3.826593	h f	-0.321751
-3.729683	h h	-0.2354661
-0.9522562	h i	-1.229283
-4.428653	h j
-2.897174	h l	-1.155381
-2.61574	h m	-1.381136
-2.657801	h n	-1.166164
-1.131549	h o	-1.810833
-3.826593	h p	-0.3221612
-4.428653	h q
-1.935893	h r	-2.000107
-2.622473	h s	-1.235425
-1.603227	h t	-1.258282
-2.022113	h u	-1.054913
-3.030713	h w	-1.167892
-2.311382	h y	-1.084841
-3.063709	i -	0.283141
-4.654313	i .
-2.93539	i </s>
-4.568859	i =
-1.602248	i a	-1.31923
-2.185043	i b	-1.398265
-1.210924	i c	-1.41889
-1.330562	i d	-1.3622
-1.413522	i e	-2.091627
-1.772284	i f	-1.043212
-1.495507	i g	-1.498202
-3.665769	i h	-0.1184258
-4.568859	i i
-3.869889	i j	-0.5437174
-2.087416	i k	-1.709849
-1.218998	i l	-0.7733303
-1.547256	i m	-1.049754
-0.5472558	i n	-1.358163
-1.123254	i o	-2.487472
-2.022316	i p	-1.244086
-3.106461	i q	0.1868151
-1.452915	i r	-1.127885
-0.9444733	i s	-0.7806802
-0.9280791	i t	-1.21549
-2.861288	i u	-1.227717
-1.569728	i v	-0.3421513
-3.568859	i w	-0.9544315
-2.73635	i x	-1.586613
-2.162318	i z	-1.372047
-1.522501	j a	-0.5671961
-0.8930027	j e	-1.39669
-2.039131	j i	-0.1890785
-0.6194109	j o	-1.753419
-2.185259	j p	-0.6676288
-0.2329508	j u	-2.203984
-3.686427	k -	0.01867857
-3.796222	k .
-3.686427	k /	-0.5531489
-0.5160393	k </s>
-3.600973	k V
-1.845098	k a	-0.6274492
-2.755875	k b	-0.8101045
-2.64673	k d	-0.9765996
-0.5054548	k e	-2.349798
-2.902003	k f	-0.3164774
-2.822822	k g	-0.7347311
-2.822822	k h	-0.3085406
-0.8512366	k i	-1.455837
-1.928875	k l	-1.013317
-2.998913	k m	-0.2626231
-0.9344549	k n	-2.284204
-2.998913	k o	-0.2699683
-2.902003	k p	-0.2269231
-2.600973	k r	-0.6921232
-1.128217	k s	-1.42488
-2.822822	k t	-0.1926442
-2.600973	k u	-0.3447319
-3.686427	k w	-0.4879069
-2.322219	k y	-0.4504391
-3.726299	l -	-0.1054233
-4.413814	l .	-0.5737904
-4.413814	l /	-0.5704959
-0.7634565	l </s>
-1.047099	l a	-1.552965
-3.483261	l b	-0.3957363
-2.851238	l c	-0.7025419
-1.208114	l d	-2.047853
-0.8082689	l e	-1.124434
-2.198025	l f	-0.9216802
-3.374117	l g	-0.9271237
-0.9187642	l i	-1.703117
-2.140838	l k	-0.9608877
-0.8389633	l l	-2.127325
-2.436265	l m	-0.792573
-3.550208	l n	-0.8801053
-1.162225	l o	-1.901412
-2.48951	l p	-0.6806258
-4.328359	l q
-2.378969	l r	-1.77392
-1.457955	l s	-1.621922
-1.74516	l t	-1.018919
-1.733967	l u	-1.365859
-2.315522	l v	-1.056934
-2.508815	l w	-1.732583
-1.100216	l y	-2.296529
-4.328359	l z
-4.090188	m -
-4.175642	m .
-3.488127	m /
-0.7865595	m </s>
-0.8035065	m a	-1.456743
-1.495795	m b	-1.573643
-4.175642	m c
-0.5720685	m e	-1.746591
-3.135945	m f	-0.9113045
-4.285437	m g	-0.2917415
-2.72846	m h	-1.379158
-0.9995768	m i	-1.687538
-3.312036	m l	-0.230152
-1.574314	m m	-1.781934
-2.446735	m n	-1.121987
-0.9696136	m o	-1.555076
-1.188729	m p	-1.754708
-3.048795	m r	-1.048196
-1.632306	m s	-1.664835
-4.090188	m t
-1.502477	m u	-1.177781
-1.759774	m y	-1.363613
-1.843494	n '	-2.654253
-4.568589	n *
-3.33814	n -	0.2698388
-3.137225	n .	-0.1471433
-0.5948609	n </s>
-1.520147	n a	-1.12368
-3.454646	n b	-0.1843772
-1.431235	n c	-2.192236
-0.8396673	n d	-1.297768
-1.138675	n e	-1.21106
-2.236151	n f	-1.995153
-0.8879815	n g	-1.040539
-3.226166	n h	-0.8988816
-1.518209	n i	-1.080095
-2.905831	n j	0.03254291
-1.951589	n k	-0.3862044
-2.100242	n l	-1.656907
-2.276333	n m	-1.855812
-2.155289	n n	-2.585962
-1.27589	n o	-1.187424
-3.392498	n p	-1.208322
-3.614347	n q	0.6639364
-3.226166	n r	-0.4420073
-1.340959	n s	-1.233819
-0.9408135	n t	-1.663034
-2.106191	n u	-1.201266
-2.058044	n v	-0.1559326
-2.966529	n w	-0.9167354
-3.790438	n x	-0.7386291
-1.859319	n y	-1.548964
-3.364469	n z	-0.2492416
-4.568589	n ï
-3.178785	o -	-0.04406079
-3.610149	o .	0.6240039
-0.8451513	o </s>
-2.198529	o a	-1.472572
-2.106358	o b	-1.425925
-1.918184	o c	-1.390187
-1.740331	o d	-0.6411788
-2.434058	o e	-1.204466
-1.01875	o f	-2.380385
-2.103644	o g	-1.196011
-2.545691	o h	-0.8154716
-1.918184	o i	-1.825595
-2.928908	o j	-1.630744
-2.063606	o k	-1.2552
-1.456334	o l	-0.9521286
-1.211515	o m	-1.449124
-0.8101196	o n	-1.409165
-1.610583	o o	-1.698171
-1.556303	o p	-0.8732939
-0.8885031	o r	-1.404948
-1.581578	o s	-0.5228299
-1.357781	o t	-1.305543
-0.9605221	o u	-2.869284
-1.671629	o v	-0.1982323
-1.379189	o w	-1.987432
-3.406029	o x	-0.4291472
-2.483044	o y	-0.9073766
-3.229938	o z	-1.087745
-4.013048	p -
-2.734294	p .	0.02126106
-4.098502	p 4	-0.5458299
-2.933867	p :	-1.087614
-1.131663	p </s>
-4.013048	p ?
-0.9572875	p a	-1.300703
-4.208297	p b	-0.2292611
-4.208297	p c	-0.1976275
-3.410988	p d	-0.6822544
-0.7405102	p e	-1.729043
-4.013048	p f
-3.16795	p g	-0.2927668
-1.882714	p h	-0.1202169
-1.37958	p i	-1.189419
-0.9489645	p l	-2.734273
-2.257173	p m	-1.62046
-4.208297	p n	-0.5193431
-0.8753775	p o	-1.923574
-1.255652	p p	-2.126758
-0.7372761	p r	-2.78312
-1.690829	p s	-1.006364
-1.596408	p t	-1.314964
-1.47649	p u	-1.204088
-2.971655	p w	-0.9152597
-2.433264	p y	-0.8095932
-4.013048	p z
-1.868056	q </s>
-2.762276	q i
-0.009519164	q u	-2.513966
-4.502072	r *
-3.502072	r -	0.1008562
-2.186101	r .	-1.018049
-0.7131262	r </s>
-1.162025	r a	-0.1380241
-2.533589	r b	-0.8336019
-1.866588	r c	-2.201499
-1.699983	r d	-0.8839674
-0.5988191	r e	-1.667026
-2.5153	r f	-1.100703
-1.998281	r g	-1.779613
-2.889288	r h	-1.045458
-1.094171	r i	-1.808409
-1.774531	r k	-0.6086823
-1.959247	r l	-1.28221
-1.723197	r m	-1.44574
-1.646553	r n	-2.261003
-1.044341	r o	-1.04196
-2.419286	r p	-0.9742008
-1.80659	r r	-2.076803
-1.213599	r s	-1.574578
-1.345826	r t	-0.8828893
-1.805716	r u	-0.5912148
-2.04419	r v	0.1767303
-2.753884	r w	-0.6570027
-1.446694	r y	-1.594424
-3.154284	s -	-0.1544373
-3.136556	s .	-0.1218472
-3.756345	s /	-0.2597948
-4.534496	s 3
-0.3347679	s </s>
-4.61995	s _	-0.5465227
-1.429667	s a	-0.9015335
-3.689398	s b	-0.3165877
-1.852351	s c	-2.008876
-3.029346	s d	-1.419811
-1.008156	s e	-1.349321
-2.818492	s f	-1.017411
-3.932436	s g	-0.1841487
-1.486443	s h	-1.127667
-1.218316	s i	-1.111365
-4.534496	s j
-2.434125	s k	-0.7485025
-2.24224	s l	-2.037052
-2.224865	s m	-1.456597
-2.954712	s n	-0.9525
-1.335564	s o	-1.84429
-1.698805	s p	-1.628727
-3.154284	s q	0.2659963
-3.631406	s r	-0.294834
-1.413922	s s	-1.693663
-0.8751501	s t	-1.711754
-1.537109	s u	-2.388982
-2.683237	s w	-1.398979
-2.417224	s y	-1.538322
-3.694105	t -	-0.2388253
-3.137802	t .	-0.2562878
-4.779559	t /
-0.5922547	t </s>
-1.368589	t a	-1.482183
-3.438832	t b	-1.142524
-2.580162	t c	-1.16998
-3.739862	t d	-0.9765996
-1.053822	t e	-1.668168
-3.438832	t f	-0.4519903
-3.915954	t g	-0.434202
-0.5469543	t h	-0.2545528
-1.029181	t i	-1.115935
-2.08451	t l	-2.297285
-2.614923	t m	-1.057364
-3.188955	t n	-1.471312
-1.001346	t o	-1.984203
-3.188955	t p	-0.7214782
-1.460601	t r	-2.856204
-1.509982	t s	-1.587761
-1.844072	t t	-2.004681
-1.769309	t u	-0.6185721
-4.779559	t v	-0.5748193
-2.127079	t w	-2.145796
-1.826637	t y	-1.756285
-3.547977	t z	-0.5064178
-4.356198	u -	0.04144027
-1.149378	u </s>
-4.246403	u @	-0.4359277
-1.494431	u a	-1.56892
-1.879915	u b	-0.8539219
-1.348704	u c	-2.236521
-1.623129	u d	-0.932936
-1.440789	u e	-1.821905
-2.382797	u f	-1.734347
-1.439963	u g	-1.511476
-1.697055	u h	-2.408794
-1.558888	u i	-1.420392
-3.31585	u k	-0.07335997
-1.040704	u l	-0.9418314
-1.457657	u m	-0.7298084
-0.9474307	u n	-0.9358412
-2.69855	u o	-1.089051
-1.367158	u p	-1.143666
-0.8947168	u r	-1.247859
-0.8984974	u s	-1.284312
-0.8399718	u t	-0.7460318
-3.558888	u v	-0.1826244
-3.31585	u x	-0.3554395
-2.165313	u y	-1.196644
-3.382797	u z	-0.7558858
-2.975738	v .	0.8386939
-3.949139	v </s>
-1.218595	v a	-1.049384
-0.1577322	v e	-2.746623
-0.7101342	v i	-1.475588
-1.349056	v o	-2.171104
-3.949139	v s	-0.2914583
-3.949139	v u	-0.5106447
-3.839344	v v	-0.5742553
-2.850799	v y	0.06786697
-4.072181	w -	0.01867857
-2.986727	w .	-0.0686943
-3.986727	w /
-0.8365848	w </s>
-3.986727	w ?
-0.7412143	w a	-1.736571
-4.181976	w b	-0.2509837
-3.986727	w c
-2.810636	w d	0.1151386
-0.7653127	w e	-2.007546
-3.287757	w f	-0.6527687
-0.8197052	w h	-2.420788
-0.8123764	w i	-1.72037
-3.384667	w k	-0.3678212
-2.384667	w l	-1.138224
-3.032485	w m	-0.8799594
-1.470853	w n	-1.469207
-0.9441515	w o	-2.26764
-1.953303	w r	-1.743688
-1.710265	w s	-1.000419
-2.555363	w t	-1.302179
-2.685697	w w	-1.320874
-2.481577	w y	-1.463057
-3.174342	x -
-2.979093	x .
-0.8651496	x </s>
-2.979093	x _
-1.098279	x a	-1.853611
-1.01061	x c	-1.448499
-0.9298749	x e	-1.95366
-1.9377	x h	-0.4059408
-1.26309	x i	-0.6336632
-2.280123	x o	-0.09079524
-0.5288438	x p	-2.099494
-2.979093	x r
-0.748644	x t	-1.140912
-1.865149	x u	-0.5849635
-3.174342	x y	-0.2916108
-4.10846	y *	-0.3987768
-4.023005	y -
-4.023005	y .
-0.1704034	y </s>
-2.661278	y a	-0.4430158
-2.177907	y b	-1.587242
-2.661278	y c	-0.7310271
-2.981613	y d	-0.4293181
-1.034446	y e	-1.527687
-4.10846	y f
-3.420945	y g	-0.4826933
-4.218255	y h	-0.5187798
-1.65379	y i	-1.935263
-2.680583	y l	-0.9192114
-2.165673	y m	-0.8273934
-2.560607	y n	-0.2180609
-0.9745636	y o	-2.12914
-1.969927	y p	-1.528351
-2.680583	y r	-0.4182301
-1.291417	y s	-1.681036
-2.02737	y t	-2.063736
-2.504492	y u	-1.48467
-2.700786	y w	-0.9537403
-3.244854	y z	-0.4528024
-2.634477	z 1
-1.379205	z </s>
-0.8282973	z a	-0.9407803
-0.2920546	z e	-1.232862
-2.829727	z h
-0.8019683	z i	-1.210528
-2.032417	z l	-0.4345651
-1.143116	z o	-0.8162411
-2.719932	z u
-2.719932	z v
-2.634477	z w
-1.634477	z y	-0.5112746
-1.789379	z z	-0.3639274
-0.09691001	{ </s>
-0.09691001	} </s>
-0.30103	ˆ w
-0.30103	‰ </s>
-0.3864844	· </s>
-0.4771213	¼ ˆ
-0.4771213	¼ ‰
-0.3864844	Â ·	-0.3452109
-0.3864844	ï ¼

\3-grams:
-0.3648027	! ! !	-0.1577867
-0.5323347	! ! </s>
-1.505463	<s> ! !	-0.3800496
-1.070038	<s> ! .	-0.3510494
-0.059314	<s> ! </s>
-0.001380906	<s> " </s>
-0.6115159	<s> # 1	-0.05061547
-0.1760913	<s> # </s>
-0.002904991	<s> $ </s>
-0.09691001	K $ </s>
-0.09691001	S $ </s>
-0.1429539	T $ </s>
-0.4145657	<s> % </s>
-1.453318	<s> % a	0
-1.198046	<s> % e	0
-1.588017	<s> % h	0.0705492
-1.214436	<s> % m	0
-1.844052	<s> % p	-0.3811498
-0.3838969	<s> % u	0
-0.09691001	<s> & </s>
-0.0009349723	' ' </s>
-0.1343947	0 ' s	2.533783
-0.7295069	<s> ' '	0
-3.061857	<s> ' 6	-0.8009773
-2.492935	<s> ' 7	0.05234043
-3.061857	<s> ' 8	-0.01692278
-1.436983	<s> ' </s>
-2.034297	<s> ' d	0
-1.515211	<s> ' l	0
-1.331567	<s> ' m	0
-3.061857	<s> ' n
-1.140752	<s> ' r	0
-0.238266	<s> ' s	0.001205526
-1.492935	<s> ' v	0
-0.0008171112	n ' t	0
-0.002532337	<s> ( </s>
-0.002547189	<s> ) </s>
-0.4060611	* * </s>
-0.8333647	* * p	-0.05061547
-0.5200045	<s> * *	-0.08923827
-0.947308	<s> * </s>
-0.1343947	y * *	-0.4089657
-0.6115159	<s> + a
-0.1343947	A + </s>
-0.01608682	0 , 0	0.2266476
-0.4450912	1 , 0	0.6868466
-1.063814	1 , 1
-0.8962815	1 , 3	-0.01692278
-0.8962815	1 , 5	-0.8611804
-0.2678926	2 , 0	0.6059577
-0.09691001	3 , 0	0.9400681
-0.1429539	4 , 0	0.6059577
-0.05115252	5 , 0	1.004799
-0.09691001	6 , 0	1.004799
-0.8333647	6 , 5
-0.3104859	7 , 5	-0.1335803
-0.1429539	8 , 0	0.6059577
-7.013234e-05	<s> , </s>
-1.719099	- - -	1.046735
-0.01013963	- - </s>
-0.6626091	<s> - -	-0.8809774
-0.1069721	<s> - </s>
-0.2938235	a - </s>
-0.9125459	a - h	-0.5992081
-0.9125459	a - v	-0.07337718
-0.1429539	b - </s>
-0.1343947	c - </s>
-0.39794	d - 1	0
-1.134395	d - a	-0.5393602
-1.134395	d - c	-0.5807641
-0.9668626	d - w	-1.216512
-0.5371192	e - </s>
-0.8974229	e - c	-0.3850175
-0.7060039	e - e	-0.02177993
-1.324726	e - m
-1.324726	e - p	0.07348644
-1.324726	e - s
-1.324726	e - w	-0.3244536
-0.1429539	f - </s>
-0.1343947	g - </s>
-0.8684592	h - </s>
-0.1199753	h - h	-0.4409091
-0.7197922	i - </s>
-0.9112111	i - a	-0.2532316
-1.338515	i - c	-0.5807641
-0.7197922	i - n	0.04529358
-0.1343947	k - </s>
-0.09691001	l - </s>
-0.6365101	n - </s>
-0.8962815	n - a	-0.2520406
-1.063814	n - r	-0.2885773
-0.8962815	n - s	-0.8582337
-0.5282738	o - </s>
-0.3174204	o - o	-0.2229652
-0.8333647	r - </s>
-0.39794	r - c	0.01801569
-0.8333647	r - p
-0.6843365	s - </s>
-0.20412	s - s	-1.256173
-0.8333647	t - c	-0.5807641
-0.8333647	t - e	-0.4089657
-0.8333647	t - s	-0.5862667
-0.1429539	u - </s>
-0.1343947	w - </s>
-0.1050311	! . </s>
-0.2929121	. . .	0.284943
-0.3177357	. . </s>
-0.90309	0 . 0
-1.338515	0 . 1
-0.9112111	0 . 2
-0.90309	0 . 4	-0.4874944
-0.60206	0 . 5	0.1630344
-0.9112111	0 . 7	-0.1699987
-1.338515	0 . 8	-0.370211
-1.338515	0 . 9	-0.4324455
-0.9501292	1 . 1	0.01000529
-0.9501292	1 . 2	-0.07874774
-1.377433	1 . 3	0.01133854
-1.377433	1 . 4
-0.9501292	1 . 5	0.1286248
-1.209901	1 . 6	0.3196906
-1.209901	1 . 7	-0.9649035
-0.9420081	1 . 8	0.0465678
-0.9501292	1 . 9	-0.1769295
-1.128231	2 . 1
-0.8684592	2 . 2	-0.6402391
-1.295763	2 . 3
-0.8684592	2 . 4	0.1615114
-0.860338	2 . 5	-0.2786106
-1.128231	2 . 6	0.3196906
-1.128231	2 . 8
-1.295763	2 . h	0.07348644
-0.6532125	3 . 3	0.4281174
-0.9211051	3 . 5
-0.9211051	3 . 6	-0.7246948
-0.9211051	3 . 8	-0.05342583
-0.7450139	4 . 3	-0.7162616
-0.9125459	4 . 5
-0.9125459	4 . 9
-1.063814	5 . 1	-0.4573064
-0.5345742	5 . 5	0.06232768
-1.063814	5 . 6
-1.063814	5 . 8	-0.370211
-0.8962815	6 . 1	-0.1405212
-1.063814	6 . 2
-1.063814	6 . 3	0.01133854
-1.063814	6 . 4
-1.063814	6 . 7
-1.063814	6 . 8
-1.063814	6 . j	-0.07337718
-1.063814	7 . 2
-1.063814	7 . 5	0.1148791
-0.8962815	7 . 6	-0.7246948
-1.063814	7 . 7	-0.2373034
-0.8962815	7 . 8	-0.2844246
-0.8962815	7 . 9	-0.1921928
-0.7876072	8 . 2
-0.7876072	8 . 7
-0.7596679	9 . 2	-0.1738631
-1.195093	9 . 6
-0.6658531	9 . 7	-0.2465037
-0.6658531	9 . 8	-0.05784392
-1.02756	9 . 9
-2.108406	<s> . .	0.3093023
-0.003463717	<s> . </s>
-0.1050311	S . </s>
-0.1050311	U . S	0.05618604
-0.5323347	a . c
-0.08297423	c . </s>
-1.02756	c . c	-0.09781118
-0.1343947	g . b	-0.333708
-0.1343947	l . c	0.6297889
-0.01579427	n . </s>
-0.3041253	o . </s>
-0.8333647	o . o	-0.333708
-0.8333647	o . u	-0.05061547
-0.0234811	p . </s>
-0.002092989	r . </s>
-0.1426675	s . </s>
-0.6125822	s . c	-0.01692227
-0.01223446	t . </s>
-0.1842124	v . </s>
-0.8333647	w . a	-0.4269398
-0.9125459	/ / m	-0.4269398
-0.9125459	/ / n	0.07348644
-0.3833065	/ / w	0.08496223
-0.3104859	0 / j	-0.05061547
-0.30103	1 / 2	-0.3541493
-0.3104859	2 / 3	0.07348644
-0.1429539	3 / 4	-1.10765
-0.03476211	: / /	0.01115054
-0.02802872	<s> / </s>
-0.1343947	a / i	-0.333708
-0.4354247	g / R	-0.05061547
-0.4354247	g / _	-0.05061547
-0.1343947	k / m	-0.4269398
-0.1343947	l / t	-0.05061547
-0.6115159	s / 4	-0.4745719
-0.6115159	s / p	-0.05061547
-0.004798883	, 0 0	-1.80695
-0.7364547	. 0 3
-0.7364547	. 0 6
-1.316094	0 0 ,	0.1840602
-2.379907	0 0 /	-0.333708
-0.5295093	0 0 0	-1.476803
-2.379907	0 0 1	-0.001057455
-2.379907	0 0 2	-0.333708
-2.212375	0 0 3	-0.8611804
-1.944483	0 0 4	-0.3200033
-2.212375	0 0 5	-0.5900865
-1.761185	0 0 6	-0.5732248
-1.952604	0 0 7	0.3960637
-0.2433466	0 0 </s>
-0.8637803	1 0 ,	0.3253893
-1.281849	1 0 .	-0.0694879
-0.386659	1 0 0	-0.6375265
-1.643556	1 0 3	-0.8611804
-0.5006024	1 0 </s>
-1.308447	2 0 ,	0.7612977
-1.670154	2 0 .	-0.2518543
-0.3053514	2 0 0	0.5994923
-0.5272001	2 0 </s>
-1.670154	2 0 s	0.138278
-1.410383	2 0 t	0.6670157
-0.5563025	3 0 0	-0.7024016
-1.565758	3 0 1	-0.001057455
-0.2410321	3 0 </s>
-1.130334	3 0 t	0.2597803
-1.222135	4 0 ,	0.08624899
-0.5149098	4 0 0	0.5340948
-0.2552725	4 0 </s>
-1.106737	5 0 ,	0.1671379
-0.5910646	5 0 0	-0.9334643
-0.2486419	5 0 </s>
-1.557927	5 0 t	-0.07433008
-1.299301	6 0 ,	1.130634
-0.9375938	6 0 0	0.4439379
-1.466833	6 0 5	0.1375137
-0.3112492	6 0 </s>
-0.7303784	6 0 s	0.5371192
-0.767789	7 0 ,	0.8275948
-0.7596679	7 0 0	-0.1802425
-0.5763701	7 0 </s>
-0.767789	7 0 s	0.8796238
-0.795487	8 0 0	-0.06375298
-0.3152704	8 0 </s>
-0.5371192	8 0 s	0.4913617
-1.319045	9 0 .	-1.228145
-0.8678547	9 0 0	-0.9046291
-0.2218488	9 0 </s>
-1.486577	9 0 s	0.8658782
-1.486577	9 0 t	0.6532701
-0.07058107	<s> 0 .	0.2389637
-1.134395	<s> 0 9
-0.1343947	# 1 5	-0.3479347
-0.05115252	- 1 9	0.009494109
-1.112118	. 1 0
-1.112118	. 1 2
-1.112118	. 1 6	-0.2700959
-0.4933958	. 1 </s>
-0.1177322	0 1 </s>
-0.9112111	1 1 .	-0.3182981
-0.90309	1 1 3	-0.3988692
-0.8092753	1 1 8	-0.5706478
-0.3590219	1 1 </s>
-0.39794	2 1 .
-0.8333647	2 1 </s>
-0.243038	3 1 </s>
-0.5368615	3 1 s	-0.1582514
-0.5118834	4 1 1	-0.9457579
-0.947308	4 1 6	-0.5969971
-0.4180686	4 1 </s>
-0.3648027	6 1 </s>
-0.5323347	7 1 </s>
-0.2072153	8 1 </s>
-0.7364547	9 1 2	-0.342937
-0.30103	9 1 </s>
-1.637776	<s> 1 ,	-0.1868616
-1.403692	<s> 1 .	-0.3247438
-1.998546	<s> 1 /	-0.01477873
-0.8296611	<s> 1 0	-0.215173
-1.36893	<s> 1 1	0.009108426
-1.227601	<s> 1 2	-0.07118474
-1.385964	<s> 1 3	0.1776598
-1.528631	<s> 1 4	-0.1835643
-1.278754	<s> 1 5	-0.01572369
-1.35254	<s> 1 6	-0.0694972
-1.36893	<s> 1 7	-0.1283926
-1.385964	<s> 1 8	-0.2436176
-0.4146877	<s> 1 9	0.04564649
-1.482874	<s> 1 </s>
-2.181844	<s> 1 s	0.09497007
-1.112991	. 2 5	-0.9940618
-1.112991	. 2 6	-0.1124037
-0.845098	. 2 8	-0.3200033
-0.8532192	. 2 9	-0.1065879
-0.4057654	. 2 </s>
-0.4439839	/ 2 0	-0.01194715
-0.4439839	/ 2 </s>
-0.3104859	0 2 </s>
-1.496122	1 2 ,	-0.2885773
-1.060698	1 2 .	-0.1751123
-1.496122	1 2 /	-0.333708
-0.7596679	1 2 0	-0.2626894
-1.328591	1 2 9	-1.228145
-0.3203351	1 2 </s>
-1.496122	1 2 t	-0.05061547
-0.6784627	2 2 .
-0.5109307	2 2 </s>
-0.7072253	3 2 0	-1.200021
-0.1383027	3 2 </s>
-0.7876072	4 2 5
-0.6200752	4 2 </s>
-0.4439839	5 2 </s>
-0.6784627	6 2 4	-0.5885445
-0.2511592	6 2 </s>
-0.6784627	7 2 5	-0.2664616
-0.5109307	7 2 </s>
-0.6784627	7 2 _	-0.05061547
-0.06214791	8 2 </s>
-0.947308	9 2 0	-0.6161011
-0.1597008	9 2 </s>
-1.088602	<s> 2 .	-0.3727259
-0.4642659	<s> 2 0	-0.2765063
-1.413113	<s> 2 1	0.05283793
-1.773417	<s> 2 2	-0.2098426
-1.088602	<s> 2 3	-0.1045573
-1.221228	<s> 2 4	-0.2103987
-0.7652959	<s> 2 5	-0.0003250533
-1.464266	<s> 2 6	0.08978174
-1.581998	<s> 2 7	-0.1667517
-1.581998	<s> 2 8	0.3831613
-1.581998	<s> 2 9	0.1682385
-1.221228	<s> 2 </s>
-2.200721	<s> 2 n	-0.07337718
-0.1343947	_ 2 .	-0.6029282
-0.3104859	, 3 0	-0.4841544
-0.1139434	. 3 </s>
-0.09691001	/ 3 2	-0.4547018
-0.1688847	0 3 </s>
-0.8893017	1 3 .	-0.1532264
-0.3152704	1 3 </s>
-0.5371192	1 3 t	0
-1.112118	2 3 ,	0.07348644
-0.9445862	2 3 .
-0.6848148	2 3 </s>
-0.4933958	2 3 r	-0.3179523
-0.8333647	3 3 9	0.1148791
-0.3041253	3 3 </s>
-0.5323347	6 3 7	-0.3766004
-0.3648027	6 3 </s>
-0.6784627	7 3 4
-0.5109307	7 3 </s>
-0.6658326	8 3 0	-1.211755
-0.8333647	8 3 9	0.1148791
-0.4060611	8 3 </s>
-0.1383027	9 3 </s>
-1.988701	<s> 3 ,	0.07348644
-1.155336	<s> 3 .	0.00336812
-1.821169	<s> 3 /	-0.8009773
-0.5118834	<s> 3 0	-0.0458454
-0.854306	<s> 3 1	-0.06566432
-1.821169	<s> 3 2	-0.2138279
-1.369978	<s> 3 3	-0.1287709
-1.369978	<s> 3 4	-0.083923
-1.252246	<s> 3 5	0.01900845
-1.459461	<s> 3 6	-0.2552008
-1.459461	<s> 3 7	0.08846902
-1.821169	<s> 3 8
-1.369978	<s> 3 9	0.4034512
-0.951216	<s> 3 </s>
-0.1512677	. 4 </s>
-0.5323347	/ 4 1	-0.4657827
-0.3648027	/ 4 </s>
-0.09691001	0 4 </s>
-0.69897	1 4 0	-0.1818508
-1.134395	1 4 5	0.1526677
-0.3467875	1 4 </s>
-0.9668626	1 4 t	-0.8009773
-1.088637	2 4 .
-1.088637	2 4 1	-0.4165536
-1.088637	2 4 5	0.1526677
-0.2138798	2 4 </s>
-0.9125459	3 4 ,	-0.07337718
-0.3833065	3 4 </s>
-0.1429539	4 4 </s>
-0.2678926	5 4 </s>
-0.5323347	6 4 7	-0.4745719
-0.3648027	6 4 </s>
-0.243038	7 4 </s>
-0.1492233	8 4 </s>
-0.6658326	9 4 5	-0.5749325
-0.3041253	9 4 </s>
-0.9945371	<s> 4 .	-0.03527651
-0.450469	<s> 4 0	-0.2887955
-1.295567	<s> 4 1	-0.3388783
-1.112269	<s> 4 2	-0.2050231
-1.730992	<s> 4 4	-0.07337718
-1.730992	<s> 4 5
-1.56346	<s> 4 6	-0.6851598
-1.730992	<s> 4 7
-1.56346	<s> 4 8	-0.01692278
-0.6423546	<s> 4 </s>
-0.1343947	_ 4 1	-0.4657827
-0.1343947	p 4 1	-0.5734564
-0.1688847	, 5 0	-1.143528
-1.184347	. 5 8	-1.055127
-0.08715018	. 5 </s>
-0.08227655	0 5 </s>
-1.222135	1 5 .
-0.5563025	1 5 0	-0.877957
-0.3258536	1 5 </s>
-1.389667	1 5 t	0.2655614
-1.514606	2 5 ,	0.328759
-1.079181	2 5 .
-0.6812412	2 5 0	-0.6393843
-1.514606	2 5 6	-0.5374601
-0.2498775	2 5 </s>
-0.8333647	3 5 0
-0.2146422	3 5 </s>
-0.9125459	4 5 0	-0.2648679
-0.07918125	4 5 </s>
-0.6200752	5 5 0	-0.992468
-0.3521825	5 5 </s>
-0.3041253	6 5 </s>
-0.8119607	7 5 0	-0.992468
-0.1918855	7 5 </s>
-0.8333647	8 5 0
-0.2146422	8 5 </s>
-0.9794927	9 5 0
-0.9794927	9 5 8	-0.327527
-0.243038	9 5 </s>
-1.366423	<s> 5 ,	-0.06473078
-1.183125	<s> 5 .	-0.1658243
-0.4121805	<s> 5 0	0.1339246
-1.366423	<s> 5 2
-1.634316	<s> 5 4	0.02820787
-1.374544	<s> 5 5	-0.2508715
-1.366423	<s> 5 6	-0.411237
-1.634316	<s> 5 7	-0.1577867
-1.634316	<s> 5 8
-1.634316	<s> 5 9	-0.6851598
-0.764363	<s> 5 </s>
-1.366423	<s> 5 t	-0.1279283
-0.1429539	' 6 9	-1.10765
-0.1165056	. 6 </s>
-0.8333647	0 6 .
-0.09691001	0 6 </s>
-1.197312	1 6 .	-0.2694854
-1.197312	1 6 0	-0.2863308
-1.364844	1 6 2	-0.5232918
-0.2527253	1 6 </s>
-0.9294189	1 6 t	0.06020795
-0.4393327	2 6 </s>
-0.8747573	2 6 t	0.4536977
-0.5109307	3 6 0	-1.062038
-0.6784627	3 6 5	-0.327527
-0.6784627	3 6 </s>
-0.1050311	4 6 </s>
-0.7364547	5 6 9	-0.4745719
-0.5689226	5 6 </s>
-0.09691001	6 6 </s>
-0.1760913	7 6 </s>
-0.9668626	8 6 ,	0.3902717
-1.134395	8 6 0	-0.5722044
-1.134395	8 6 4	-0.4745719
-0.2218488	8 6 </s>
-0.3679768	9 6 0	-0.4893564
-1.155584	9 6 7
-0.6263446	9 6 </s>
-1.243038	<s> 6 ,	0.1511617
-0.8908556	<s> 6 .	-0.1540166
-0.4833702	<s> 6 0	-0.2570873
-1.243038	<s> 6 1	-0.3023743
-1.243038	<s> 6 2	-0.6615937
-1.678463	<s> 6 3	-0.3800496
-1.510931	<s> 6 4	-1.10765
-1.243038	<s> 6 5	-0.2498517
-0.8908556	<s> 6 </s>
-1.251159	<s> 6 t	0.4674433
-0.7364547	' 7 4	-0.2575068
-0.30103	' 7 8	-0.6706291
-1.175787	. 7 1
-1.175787	. 7 2	-0.5232918
-1.175787	. 7 8	-0.548169
-0.2284793	. 7 </s>
-0.05115252	0 7 </s>
-1.280523	1 7 ,	-0.333708
-1.112991	1 7 .	-0.249725
-0.2167091	1 7 </s>
-1.280523	1 7 t	-0.05061547
-0.7364547	2 7 0	-0.4916323
-0.5689226	2 7 </s>
-0.7876072	3 7 5	-0.1783255
-0.3603037	3 7 </s>
-0.5323347	4 7 2	-0.5232918
-0.5323347	5 7 .
-0.3648027	5 7 </s>
-0.4502533	7 7 7	-0.6745812
-0.3607703	7 7 </s>
-0.01930515	8 7 </s>
-0.7781513	9 7 0	-0.9376896
-1.213576	9 7 3	-0.4653586
-1.213576	9 7 6	-0.1483623
-0.7781513	9 7 9	-0.3945472
-0.5948535	9 7 </s>
-0.8166095	<s> 7 .	-0.07571213
-0.7294593	<s> 7 0	-0.1809646
-1.604217	<s> 7 3
-1.436685	<s> 7 4
-0.867762	<s> 7 5	0.2202541
-1.436685	<s> 7 6
-1.074977	<s> 7 7	0.1063142
-1.604217	<s> 7 8
-1.604217	<s> 7 9	-0.001057455
-0.770852	<s> 7 </s>
-0.3104859	' 8 9	-0.02342356
-1.097196	. 8 1
-1.264728	. 8 2	0.2495777
-1.264728	. 8 5
-0.8293038	. 8 7	1.153023
-1.097196	. 8 9	0.2933617
-0.3521825	. 8 </s>
-1.338515	1 8 .
-0.90309	1 8 6	-0.55655
-0.90309	1 8 9
-0.9112111	1 8 :
-0.4637573	1 8 </s>
-1.170983	1 8 t	-0.6851598
-0.09691001	2 8 </s>
-0.3104859	4 8 </s>
-0.3041253	5 8 </s>
-0.7876072	7 8 7	0.7362443
-0.2583678	7 8 </s>
-0.04346569	8 8 </s>
-1.048512	9 8 0	-0.7195825
-1.487845	9 8 1	-0.5981148
-1.089905	9 8 2	-0.1663314
-1.487845	9 8 3	-0.8024555
-1.92327	9 8 4	-0.08905862
-1.487845	9 8 5	-0.6099942
-1.089905	9 8 6	-0.6434527
-0.4988405	9 8 7	-0.2403321
-0.8111515	9 8 8	-0.2798407
-0.9138138	9 8 9	-0.60206
-1.495966	9 8 </s>
-1.565758	<s> 8 .
-0.5862657	<s> 8 0	-0.6103265
-1.565758	<s> 8 2
-1.036519	<s> 8 3	-0.3765821
-1.398226	<s> 8 4	0.2277266
-1.398226	<s> 8 5
-1.138455	<s> 8 6	-0.3814103
-0.5862657	<s> 8 </s>
-1.565758	<s> 8 t	0.04244036
-1.063814	. 9 1
-0.6283889	. 9 5	-0.6509965
-0.4450912	. 9 </s>
-0.5323347	0 9 </s>
-1.433147	1 9 0	0.01320708
-2.220754	1 9 1
-1.78533	1 9 2	-0.1566775
-2.053222	1 9 3
-1.78533	1 9 4	-0.4422032
-1.691515	1 9 5	-0.2065066
-1.345997	1 9 6	-0.3212334
-1.156941	1 9 7	-0.1393984
-0.3155078	1 9 8	-0.5147108
-0.6470271	1 9 9	-0.372072
-1.241262	1 9 </s>
-0.60206	2 9 .	-0.1031053
-0.1627273	2 9 </s>
-0.08715018	3 9 </s>
-0.1343947	4 9 </s>
-0.1050311	5 9 </s>
-0.5323347	6 9 .	-0.5425093
-0.3648027	6 9 </s>
-0.1177322	7 9 </s>
-1.280523	8 9 4	-0.327527
-0.1249387	8 9 </s>
-0.4771213	9 9 0	-1.211794
-1.103466	9 9 2	-0.1661516
-1.103466	9 9 3	-0.1137636
-1.197281	9 9 4	-0.7210167
-1.465173	9 9 5	-0.9851069
-1.465173	9 9 6	-1.235947
-1.197281	9 9 7	-0.8916056
-1.465173	9 9 8	-1.338996
-1.205402	9 9 9	-0.5675066
-1.013983	9 9 </s>
-0.5399121	<s> 9 .	-0.275343
-0.5698753	<s> 9 0	0.08591772
-1.381836	<s> 9 1	-0.007668363
-1.549368	<s> 9 2	-0.1136002
-1.549368	<s> 9 6
-1.381836	<s> 9 7	-1.225716
-0.7617608	<s> 9 </s>
-0.002379702	<s> : </s>
-0.1343947	B : </s>
-0.03476211	p : /	0
-0.005079526	<s> ; </s>
-0.002058272	<s> ? </s>
-0.1343947	u @ g	-0.05061547
-2.800444	<s> A +	-0.05061547
-0.8027269	<s> A </s>
-2.800444	<s> A A	-0.05061547
-2.800444	<s> A B
-2.632912	<s> A I	-0.8009773
-2.800444	<s> A L	-0.4693439
-2.800444	<s> A N
-2.800444	<s> A S	-0.05061547
-1.605352	<s> A b	-0.08093529
-1.489959	<s> A c	0
-2.06399	<s> A d	-0.08372948
-1.26811	<s> A f	0.05618614
-2.373141	<s> A g	-0.02536258
-1.820952	<s> A h	0
-2.012837	<s> A i	-0.2276368
-0.9500464	<s> A l	-0.003910853
-1.586869	<s> A m	-0.03425521
-0.5960119	<s> A n	-0.01692269
-1.46193	<s> A p	-0.1975379
-1.398878	<s> A r	-0.03844866
-1.02756	<s> A s	-0.09263224
-1.18175	<s> A t	-0.265992
-1.475718	<s> A u	-0.01692269
-1.925687	<s> A v	0
-2.800444	<s> A w
-0.1343947	A A </s>
-0.1343947	D A Y	-0.05061547
-0.2678926	E A R	-0.1485734
-0.7364547	I A </s>
-0.3091511	I A L	-0.2102667
-0.4354247	R A L
-0.6115159	S A L
-0.6115159	S A P	-0.4269398
-0.6115159	S A R
-1.614897	<s> B </s>
-2.012837	<s> B B	-0.3200033
-1.035114	<s> B a	-0.02698826
-0.8514692	<s> B e	0.01037203
-1.336144	<s> B i	0.06922942
-1.919023	<s> B l	-0.1694686
-1.199924	<s> B o	-0.02091211
-1.535716	<s> B r	-0.0506154
-0.2685442	<s> B u	0.02221316
-1.535716	<s> B y	0
-0.09691001	B B S	-0.3200033
-0.05115252	M B </s>
-0.1429539	N B C	-0.5900865
-0.1343947	_ B :	-0.05061547
-2.354503	<s> C D
-1.927199	<s> C E	-0.150417
-2.354503	<s> C O
-2.186971	<s> C P	-0.8009773
-0.8221681	<s> C a	-0.005647882
-1.441957	<s> C e	-0.01692275
-0.6180481	<s> C h	-0.05764346
-1.407195	<s> C i	-0.210902
-1.73578	<s> C l	-0.112002
-0.431233	<s> C o	-0.08852398
-1.407195	<s> C r	-0.08098935
-1.345047	<s> C u	0.03743496
-2.354503	<s> C y
-0.08227655	B C </s>
-0.6200752	I C I	-0.01692278
-0.7876072	I C O	-0.4269398
-0.6200752	I C U	-0.01692278
-0.1343947	R C </s>
-0.2678926	T C </s>
-0.1842124	V C R	-0.150417
-0.1343947	c C u	-0.1731859
-2.183613	<s> D A	-0.05061547
-2.183613	<s> D E
-2.183613	<s> D I	-0.4269398
-2.183613	<s> D J	-0.05061547
-0.90309	<s> D a	-0.0126978
-0.6426778	<s> D e	0.08251844
-0.6781502	<s> D i	-0.04319266
-0.5720968	<s> D o	0.02385565
-1.271067	<s> D r	0
-1.174157	<s> D u	0
-0.2146422	E D </s>
-0.1050311	G D P	0.05618604
-0.4439839	I D </s>
-0.4439839	I D S	-0.6541137
-0.845098	<s> E a	0.08496217
-1.682523	<s> E c	0.05618604
-1.580587	<s> E d	-0.05061558
-1.580587	<s> E i	-0.05061558
-1.942294	<s> E l
-1.373372	<s> E m	0.01553276
-0.613704	<s> E n	-0.1245337
-1.580587	<s> E r	0.03000213
-1.674402	<s> E s	-0.2109021
-0.9754318	<s> E u	0
-0.7082601	<s> E v	0
-1.072342	<s> E x	0.08338377
-0.1842124	C E O	0.05618604
-0.1343947	G E </s>
-0.5323347	H E </s>
-0.5323347	H E A	-0.2885773
-0.2511592	I E D	-0.1491997
-0.4354247	L E S	-0.001057455
-0.3104859	N E </s>
-0.3104859	P E R	-0.4318245
-0.2678926	S E </s>
-0.3104859	V E R
-0.1343947	W E </s>
-1.802261	<s> F </s>
-2.229564	<s> F A
-2.229564	<s> F R	-0.05061547
-1.140927	<s> F a	0.01068029
-1.117446	<s> F e	0.003264844
-0.7149581	<s> F i	0.02348864
-1.802261	<s> F l	0.1407912
-0.5097086	<s> F o	0.09903638
-0.6038076	<s> F r	-0.05061564
-1.493109	<s> F u	0.05234043
-1.666133	<s> G D	0.05618604
-1.666133	<s> G I	0.1407912
-1.356981	<s> G a	0.05234043
-0.8621314	<s> G e	0.03000211
-1.666133	<s> G h	0.05618604
-1.029622	<s> G i	-0.02174702
-2.093436	<s> G l	-0.05061547
-0.3306525	<s> G o	0.007076633
-0.9176487	<s> G r	-0.0589137
-1.666133	<s> G u	-0.007260211
-0.2072153	N G </s>
-2.460731	<s> H E	-0.4745719
-2.460731	<s> H I	-0.333708
-1.931491	<s> H K	0.2066405
-1.047582	<s> H a	0.1006954
-0.2453488	<s> H e	0.3671023
-0.9839132	<s> H i	-0.02511923
-0.7352713	<s> H o	-0.1221117
-1.673123	<s> H u	-0.05283264
-0.1343947	T H E	-0.4745719
-0.2181241	<s> I </s>
-2.692742	<s> I C	-0.691955
-2.952514	<s> I D	-1.159425
-2.684621	<s> I E	-0.6615937
-2.140553	<s> I I	0
-2.684621	<s> I S	-0.08648743
-1.383591	<s> I f	0
-2.684621	<s> I m	-0.2109021
-0.8081145	<s> I n	-0.1245335
-2.501323	<s> I r	0.05216808
-1.653213	<s> I s	0.009983669
-0.8183336	<s> I t	0
-0.1429539	A I D	-1.159425
-0.3104859	C I A	-0.3324256
-0.4354247	D I A
-0.4354247	D I C	-0.5063875
-0.09691001	G I </s>
-0.3104859	H I S	-0.1641627
-0.06694679	I I </s>
-0.1343947	J I A	-0.5374601
-0.3104859	L I N	-0.2771394
-0.3104859	M I N
-0.09691001	P I </s>
-0.5323347	R I E
-0.4354247	T I N	-0.2771394
-1.950636	<s> J U	-0.05061547
-0.6859075	<s> J a	-0.1120021
-1.421397	<s> J i	0.07607605
-0.8385177	<s> J o	-0.1611501
-0.2480396	<s> J u	0.005829594
-0.1343947	D J I	-0.05061547
-1.364803	<s> K e
-0.7447275	<s> K i	-0.1463294
-1.364803	<s> K n	-0.8009773
-0.3767507	<s> K o	-0.01692281
-0.6575773	<s> K u	0
-0.1760913	H K $	-0.3200033
-0.6115159	H K </s>
-0.1842124	O K </s>
-0.396088	<s> L a	0.0196566
-0.9220578	<s> L e	0
-0.5910646	<s> L i	-0.1226628
-0.7257632	<s> L o	-0.05248201
-1.734019	<s> L u
-0.5118834	A L </s>
-0.5200045	A L L	-0.1763085
-0.1343947	B L E	-0.4269398
-0.4439839	L L </s>
-0.1343947	P L A
-2.453293	<s> M S	-0.8009773
-0.7382424	<s> M a	0.007503511
-2.620825	<s> M c	-0.05061547
-1.243392	<s> M e	-0.01870404
-1.88437	<s> M h	0
-1.024032	<s> M i	0.06257088
-0.8631812	<s> M m	0
-0.9679165	<s> M o	-0.1309265
-0.4864305	<s> M r	0
-2.1854	<s> M s	-0.3200033
-1.557012	<s> M t	0
-2.091586	<s> M u	-0.005647884
-1.673517	<s> M y	0
-0.1343947	O M </s>
-0.05974026	R M B	-0.3179523
-1.746245	<s> N T	-0.3541493
-1.117856	<s> N a	0.01470934
-0.676207	<s> N e	-0.003245298
-1.117856	<s> N i	0.04350587
-0.2277309	<s> N o	0.02962011
-2.181669	<s> N u
-0.6115159	A N T	-0.4318245
-0.2583678	I N G	-0.2571766
-0.1760913	O N </s>
-0.6115159	O N E
-0.1429539	S N B	-0.8009773
-2.298748	<s> O F
-1.769508	<s> O K	0.03000213
-2.298748	<s> O T	-0.3800496
-1.769508	<s> O b	0.03000213
-0.8121703	<s> O c	0.05618616
-1.034019	<s> O f	0
-1.21011	<s> O h	0
-2.298748	<s> O i	-0.05061547
-2.298748	<s> O k
-0.4239902	<s> O n	0
-1.871444	<s> O p	0.1407912
-1.164353	<s> O r	-0.06870171
-1.51114	<s> O t	0
-1.12296	<s> O u	0.04350586
-1.465383	<s> O v	0
-2.298748	<s> O w	-0.05061547
-0.4354247	C O N	-0.1483623
-0.1050311	E O </s>
-0.3104859	I O N	-0.1483623
-0.1343947	N O W	-0.05061547
-0.3104859	R O M	-0.05061547
-2.357111	<s> P O
-2.189579	<s> P R	-0.01692278
-0.9796785	<s> P a	-0.1072073
-1.005233	<s> P e	-0.1501856
-2.189579	<s> P h
-1.827872	<s> P i	-0.01692281
-1.222716	<s> P l	-0.1501857
-1.162019	<s> P o	0.03970164
-0.2359447	<s> P r	0
-1.921687	<s> P u	-0.2109021
-0.4354247	A P </s>
-0.1429539	C P I	-0.6541137
-0.1050311	D P </s>
-0.6101812	<s> Q i	0.05618604
-0.1627273	<s> Q u	0.028677
-0.1343947	/ R e	-0.6013499
-1.429486	<s> R M	-0.3811498
-1.010724	<s> R a	-0.02364399
-0.3575113	<s> R e	0.003229772
-0.5158738	<s> R i	-0.08852392
-1.135663	<s> R o	0.02931068
-1.880677	<s> R u
-0.5109307	A R </s>
-0.6784627	A R S	-0.05061547
-0.1842124	C R </s>
-0.4439839	E R </s>
-0.1343947	F R O	-0.333708
-0.3104859	O R T	-0.05061547
-0.3104859	P R </s>
-0.4354247	T R I
-0.1343947	' S </s>
-0.1050311	. S .	0.05618604
-2.62224	<s> S &
-2.62224	<s> S </s>
-2.186815	<s> S A	-0.333708
-2.454708	<s> S E	0.02820787
-1.244807	<s> S a	-0.06221199
-2.186815	<s> S c	-0.2109021
-0.6521546	<s> S e	-0.1241595
-0.891248	<s> S h	-0.2509294
-1.220673	<s> S i	-0.02354021
-2.454708	<s> S m	-0.01692278
-0.5193622	<s> S o	-0.1430994
-1.674932	<s> S p	-0.02721849
-0.9826952	<s> S t	-0.1434515
-1.197811	<s> S u	0.1069683
-2.186815	<s> S y	-0.01016101
-0.1343947	A S A	-0.5036516
-0.09691001	B S </s>
-0.09691001	D S </s>
-0.1177322	E S </s>
-0.1842124	I S </s>
-0.1429539	M S N	-0.8009773
-0.1343947	P S </s>
-0.1343947	R S </s>
-0.02632894	S S </s>
-1.10551	U S $	-0.3200033
-0.2304489	U S </s>
-0.5034502	U S S	0
-0.1343947	Y S </s>
-3.017488	<s> T H	-0.05061547
-2.582063	<s> T R	-0.01016101
-1.953674	<s> T V	0
-1.615922	<s> T a	0.0446449
-1.980003	<s> T e	-0.04514625
-0.06884576	<s> T h	0
-2.008032	<s> T i	-0.01593739
-1.358049	<s> T o	-0.13544
-1.76915	<s> T r	-0.08098932
-2.142731	<s> T u	0.0705492
-1.883093	<s> T w	-0.354853
-3.017488	<s> T y	-0.05061547
-0.4439839	N T $	-0.8009773
-0.4439839	N T </s>
-0.3648027	O T </s>
-0.1343947	R T I
-0.1429539	W T C	-1.016178
-0.1343947	Z T </s>
-1.63137	<s> U .	0.05618604
-2.058674	<s> U N
-0.5263393	<s> U S	-0.4083136
-0.7781513	<s> U h	-0.4016736
-0.6571075	<s> U m	0
-0.6812412	<s> U n	-0.07936054
-1.63137	<s> U p	0.1407912
-1.623249	<s> U s	-0.333708
-0.3104859	C U s	-0.5036516
-0.1343947	J U D
-1.218974	<s> V C	-0.150417
-0.8586708	<s> V a	-0.1423958
-0.69897	<s> V e	0
-0.2943994	<s> V i	-0.112002
-1.210853	<s> V o	-0.2109021
-0.1343947	O V E
-0.02482358	T V </s>
-2.595293	<s> W A
-2.595293	<s> W E	-0.05061547
-2.427761	<s> W T	-0.8009773
-1.138679	<s> W a	-0.006146313
-0.3452873	<s> W e	-0.02536286
-0.5090748	<s> W h	0
-1.054358	<s> W i	0.05618574
-1.205625	<s> W o	-0.1738224
-2.595293	<s> W r
-0.1343947	O W </s>
-0.3104859	<s> X </s>
-1.698317	<s> Y a
-0.5069262	<s> Y e	0.0270773
-0.1918855	<s> Y o	-0.05061558
-2.125621	<s> Y u
-0.1343947	A Y S	-0.05061547
-0.3104859	R Y </s>
-0.6784627	<s> Z T	-0.05061547
-0.6784627	<s> Z a	-0.05061547
-0.6784627	<s> Z o
-0.1343947	<s> [ </s>
-0.1343947	<s> ] </s>
-0.1343947	/ _ 4	-0.05061547
-0.1343947	2 _ k	-0.05061547
-0.1343947	s _ 2	-0.05061547
-1.977146	<s> ` </s>
-0.005567954	<s> ` `	0
-0.0009329638	` ` </s>
-0.02802872	% a h	-0.1098908
-0.7450139	- a b	-0.04621198
-0.9125459	- a i	-0.5607995
-0.9125459	- a n	-0.612744
-0.7450139	- a p	-0.3077502
-0.4354247	. a b	-0.3629972
-3.751087	<s> a -	-1.044726
-0.6689473	<s> a </s>
-1.412234	<s> a b	-0.9928659
-1.485372	<s> a c	-1.501701
-1.655503	<s> a d	-1.590251
-3.751087	<s> a e	-0.2520406
-1.733072	<s> a f	-1.243132
-1.565427	<s> a g	-1.67161
-2.705044	<s> a h	-0.2011959
-1.974665	<s> a i	-1.587454
-1.156859	<s> a l	-2.142123
-1.948534	<s> a m	-0.3216614
-0.4983302	<s> a n	-1.444564
-1.784225	<s> a p	-1.428025
-3.91862	<s> a q	-0.5063875
-1.118175	<s> a r	-2.125842
-1.19316	<s> a s	-1.484317
-1.216023	<s> a t	-2.060517
-2.150756	<s> a u	-0.9258608
-2.395059	<s> a v	0.5906241
-2.210194	<s> a w	-1.447585
-0.6766936	B a c	-0.8606809
-0.6766936	B a l	-0.6070508
-1.245616	B a n	-1.345284
-0.9777236	B a r
-0.6766936	B a s	-0.607655
-1.413148	B a v	-0.5867248
-1.532335	C a </s>
-0.4202164	C a n	-0.4010495
-0.6197888	C a p	-0.9543106
-0.5850267	C a r	-0.3224857
-0.447158	D a d	-0.5114066
-1.280523	D a n
-1.280523	D a w	-0.6109788
-0.4057654	D a y	-0.6419612
-0.7354891	E a c	-0.6113122
-0.7354891	E a r	-0.7851324
-0.2552725	E a s	-1.149705
-0.6613337	F a i	-0.7915817
-0.6613337	F a l	-0.509186
-1.088637	F a n
-1.088637	F a s	-0.5710689
-0.30103	G a l	-0.5446087
-0.7364547	G a v	0.1878935
-0.9777236	H a </s>
-0.9777236	H a l	-0.5426775
-0.8839089	H a n	-0.3689825
-1.413148	H a p	-0.3597614
-0.5006024	H a r	-0.8001809
-0.6766936	H a v	0.5012705
-1.264728	J a c	-0.531922
-0.1303338	J a n	-1.22964
-1.097196	J a p	-1.327842
-1.505463	L a l	-0.6222839
-0.7690079	L a n	-0.3555717
-0.7690079	L a r	-0.628017
-0.7690079	L a s	-0.8998279
-0.5581545	L a t	-1.30605
-0.9762232	L a w	-0.07996086
-1.715051	M a i	-0.1021575
-1.882583	M a j	1.207025
-1.447158	M a k	-0.05660948
-0.5177391	M a n	-1.046923
-1.447158	M a o	-0.8874478
-0.5578563	M a r	-0.75164
-1.455279	M a s	-0.8683702
-0.6874902	M a y	-0.7561075
-1.063814	N a n
-0.6365101	N a s	-0.8778709
-0.2762064	N a t	-0.6883596
-1.209901	P a c	-0.2955948
-1.377433	P a l	-0.6079186
-1.377433	P a n
-0.2653144	P a r	-0.9591715
-1.377433	P a t
-1.209901	P a u	-0.2888414
-0.6101812	R a i	-0.3190718
-0.8699526	R a n	-0.295839
-1.037485	R a p	-0.3597614
-0.60206	R a t	-1.009084
-1.209901	S a l
-1.377433	S a m
-1.377433	S a n
-1.377433	S a r
-0.544068	S a t	-0.9932621
-0.9501292	S a v	-0.5194201
-0.5898255	S a y	-0.8369543
-0.4890205	T a i	-0.9071478
-0.6139592	T a k	-0.1968621
-0.9661418	T a m	-0.1841107
-0.9661418	T a n	-0.1959651
-1.401566	T a r
-0.7876072	V a c	-0.6203439
-0.3521825	V a l	-0.4046032
-0.6200752	V a r	-0.2895049
-1.289082	W a </s>
-1.02931	W a i	-0.5939128
-0.6690068	W a l	-0.5847352
-1.456614	W a n
-0.9273746	W a r	-0.3293873
-0.6232493	W a s	-0.6476435
-1.021189	W a t	-0.5439087
-1.456614	W a y	-0.1882635
-0.1343947	Z a h
-0.6115159	a a a
-1.15282	b a b	-0.9837179
-0.6033902	b a c	-1.413369
-1.284099	b a d	-1.290671
-1.45385	b a g	-1.392414
-2.221639	b a i	-0.5608421
-1.030248	b a l	-0.4097834
-2.481411	b a m	-0.2983281
-0.828806	b a n	-0.9244348
-2.648942	b a p	-0.6097132
-1.083184	b a r	-0.5103484
-0.7292179	b a s	-1.722753
-1.192328	b a t	-0.5963873
-1.605352	c a </s>
-1.96708	c a b	-0.9622378
-2.933942	c a c
-1.820952	c a d	-1.328304
-3.101475	c a g	-0.3548362
-0.6387001	c a l	-1.327869
-1.222787	c a m	-1.799667
-0.8027269	c a n	-1.118016
-1.25951	c a p	-1.26086
-0.9584796	c a r	-0.8768327
-1.086266	c a s	-1.662552
-0.9893561	c a t	-0.1014556
-0.8383574	c a u	-1.471133
-2.572235	c a v	0.5933712
-1.696065	d a </s>
-2.537989	d a b	-0.1174841
-2.278217	d a d	-0.4343522
-1.571126	d a i	-0.9491042
-1.367006	d a l	-0.7409065
-1.200058	d a m	-0.5935909
-1.033307	d a n	-1.290654
-2.270096	d a p	-0.5320379
-2.705521	d a q	-0.3766004
-1.328088	d a r	-0.4528426
-2.705521	d a s
-1.046081	d a t	-1.189541
-1.641707	d a u	-0.8896407
-0.2447904	d a y	-1.738098
-1.555687	e a </s>
-2.944853	e a b	-0.356594
-1.230942	e a c	-1.947479
-0.9448527	e a d	-1.410627
-2.851038	e a f	-0.4015946
-2.432969	e a g	-0.7738423
-1.11716	e a h	-1.337135
-1.517529	e a k	0.2298738
-1.014158	e a l	-1.199169
-1.798725	e a m	-1.500421
-1.279741	e a n	-1.643702
-2.115549	e a p	-0.9964363
-0.5756368	e a r	-2.128443
-0.9257364	e a s	-0.9229867
-1.001606	e a t	-1.092818
-1.955848	e a u	-1.1283
-1.754521	e a v	0.1177013
-2.197281	f a b	-0.5391577
-0.5321688	f a c	-2.315925
-2.197281	f a d	-0.08985077
-0.8855267	f a i	-1.303303
-0.9732658	f a l	-1.924193
-0.8598213	f a m	-1.578218
-1.544068	f a n	-0.4723709
-0.8962505	f a r	-2.485625
-1.419129	f a s	-1.181914
-1.109144	f a t	-1.075792
-1.685397	f a u	-1.094086
-1.595221	f a v	-1.216795
-2.468606	g a -	-0.2520406
-1.656646	g a g	-0.8754807
-0.5697776	g a i	-2.328437
-1.169305	g a l	-0.8665411
-1.422562	g a m	-0.9057655
-0.7733899	g a n	-0.56506
-2.017416	g a p	-0.5286707
-1.054586	g a r	-1.012849
-1.52402	g a s	-0.8850044
-0.6444112	g a t	-1.904784
-1.355616	g a v	-0.6490209
-1.598654	g a z	-0.8502377
-3.341794	h a -	-1.044726
-2.562018	h a </s>
-2.562018	h a b	-1.186837
-2.529834	h a c	-1.08253
-1.21808	h a d	-1.871747
-3.509326	h a e
-1.675961	h a i	-0.7731419
-2.721719	h a k	0.2194511
-1.721719	h a l	-0.8308429
-2.170812	h a m	0.05953583
-0.962471	h a n	-1.819078
-2.890604	h a o	-0.962343
-1.589602	h a p	-1.584682
-1.39266	h a r	-1.334252
-0.9427643	h a s	-1.568841
-0.352091	h a t	-2.26946
-2.980087	h a u	-0.06901096
-0.8460149	h a v	-1.665027
-2.890604	h a w	-0.5535912
-2.799976	i a /	-0.05061547
-1.012368	i a </s>
-2.063521	i a b	-0.5738803
-1.925218	i a g	-0.7707453
-2.632444	i a i	-1.339254
-0.279082	i a l	-1.363258
-1.79052	i a m	-1.002676
-0.917393	i a n	-1.232576
-2.270736	i a p	-0.6020684
-1.736162	i a r	-0.4456819
-2.063521	i a s	-0.04053156
-0.7597851	i a t	-2.837349
-0.6658531	j a </s>
-0.6658531	j a c	-0.6558768
-0.767789	j a i	-0.5608421
-0.7596679	j a m	-0.5394325
-1.589239	k a </s>
-0.8016323	k a b	-0.8087857
-1.589239	k a d	-0.5066296
-0.9705171	k a g	-1.001547
-1.161936	k a n	-0.5454392
-1.589239	k a r	-0.6253393
-1.589239	k a t
-0.3245111	k a y	-1.009938
-1.938838	l a </s>
-1.668477	l a b	-0.7622504
-1.110999	l a c	-2.836313
-2.20208	l a d	-0.3664068
-1.849897	l a g	-0.4394473
-1.389166	l a i	-1.864765
-1.713059	l a m	-0.6764817
-0.7037689	l a n	-1.357103
-2.050812	l a p	-1.014328
-0.8547494	l a r	-1.488694
-0.9214252	l a s	-0.8778176
-0.7213541	l a t	-0.7650487
-1.628048	l a u	-0.9696594
-2.687322	l a v	0.7560657
-1.220563	l a w	-1.073139
-2.947093	l a x	-0.1895119
-1.220563	l a y	-0.3700556
-2.687322	l a z
-2.286681	m a </s>
-3.120046	m a b	-0.4342693
-1.824283	m a c	-0.904533
-1.237463	m a d	-1.432883
-2.684621	m a e	-0.842882
-3.120046	m a f	-0.6199156
-1.447832	m a g	-1.714082
-1.043643	m a i	-1.951409
-1.473768	m a j	0.01296499
-1.061372	m a k	-1.398787
-1.233603	m a l	-0.6697827
-0.5903246	m a n	-0.7398694
-2.590806	m a p	-0.3846052
-0.8318361	m a r	-1.626774
-1.554287	m a s	-0.9391807
-0.9686176	m a t	0.1760466
-2.952514	m a x	-1.296574
-1.203896	m a y	-1.522842
-2.286681	m a z	-0.6611814
-1.902314	n a </s>
-1.726223	n a b	-1.131005
-2.094199	n a c	-0.1804806
-2.145352	n a d	-0.5951927
-1.414973	n a g	-0.9523013
-2.145352	n a i	-0.2765157
-2.881806	n a k
-0.4409868	n a l	-1.521381
-1.300254	n a m	-1.906793
-0.9765598	n a n	-1.221714
-2.094199	n a p	-0.3130346
-1.385684	n a r	-0.91641
-1.902314	n a s	-1.121677
-0.5081123	n a t	-2.289289
-2.048442	n a u	-0.9602218
-2.881806	n a v	-0.6118298
-2.714274	n a w	-1.214186
-1.2075	o a c	-0.8363672
-0.525129	o a d	-0.8169624
-2.244984	o a k	-0.1342848
-1.031408	o a l	-1.343166
-0.9492217	o a n	-1.053749
-0.6334684	o a r	-1.149386
-1.265492	o a s	-1.121677
-0.8801408	o a t	-0.8008674
-2.461822	p a b	-0.3669645
-1.216911	p a c	-1.469678
-1.879669	p a g	-0.6168574
-1.216911	p a i	-1.212452
-1.825312	p a l	-0.008485767
-2.889125	p a m	-0.6171078
-0.8102478	p a n	-0.7767498
-1.499458	p a p	-1.492235
-0.4083775	p a r	-1.726881
-1.064534	p a s	-1.898054
-0.9519567	p a t	-1.518656
-2.461822	p a u	-0.2797036
-2.721593	p a v	0.5046788
-1.236217	p a y	0.1613987
-3.173412	r a -	-0.5688258
-1.892889	r a </s>
-1.658806	r a b	-0.892952
-1.084775	r a c	-1.019786
-1.02618	r a d	-1.647533
-1.783745	r a f	-0.7702421
-1.36692	r a g	-1.276994
-2.746109	r a h	0.7099703
-1.047791	r a i	-1.31812
-3.00588	r a k	-0.8618849
-0.8944431	r a l	-1.278205
-1.275589	r a m	-0.6211329
-0.9386468	r a n	-0.7274906
-2.746109	r a o	-0.8239473
-1.540707	r a p	-0.4675652
-2.737987	r a q	-0.2989251
-1.727263	r a r	-2.008617
-1.569195	r a s	-0.1875682
-0.6744663	r a t	-1.759883
-2.644173	r a u	-0.4181821
-1.748983	r a v	-0.5420275
-1.892889	r a w	-0.4096592
-2.017828	r a y	0.2647285
-2.226104	r a z	-0.7498335
-2.51089	s a </s>
-1.990885	s a b	0.1472523
-1.613467	s a c	-0.7582382
-1.826075	s a d	-0.4689376
-1.586314	s a f	-1.672374
-1.900708	s a g	-1.150759
-0.5644989	s a i	-2.05843
-2.51089	s a k	-0.1205391
-1.071405	s a l	-0.7567474
-1.196343	s a m	-2.534896
-1.265979	s a n	-0.5151801
-1.849556	s a p	-0.9895503
-1.65767	s a r	-1.40334
-2.201738	s a s	-0.08583862
-1.573349	s a t	-0.2641107
-2.063436	s a u	-0.4942457
-1.826075	s a v	0.2336385
-1.599678	s a w	-1.302928
-0.5071332	s a y	-1.480019
-2.179388	t a </s>
-1.198411	t a b	-1.374056
-1.406438	t a c	-0.7220241
-2.179388	t a d	-1.132626
-2.284123	t a f	-0.9731867
-1.512602	t a g	-0.8953771
-1.001233	t a i	-1.731622
-1.009545	t a k	-1.48687
-0.7851862	t a l	-1.066425
-2.540158	t a m	-0.3268161
-0.8616227	t a n	-1.222141
-1.945304	t a p	-0.8271233
-0.8661232	t a r	-1.06013
-2.095067	t a s	-0.7888507
-0.8383773	t a t	-0.8706399
-2.046762	t a u	-0.7952056
-1.723456	t a x	-0.1552989
-1.781448	t a y	0.1118797
-2.072579	u a b	-0.3669645
-2.072579	u a d	-0.4393249
-1.625125	u a g	-0.8085338
-2.499883	u a i	-0.4189427
-2.499883	u a k	-0.1342848
-0.293606	u a l	-2.469337
-1.013305	u a n	-1.609047
-0.7220353	u a r	-1.682744
-0.8276689	u a t	-1.620291
-1.839419	v a b	-0.4868207
-1.137354	v a c	-1.252063
-1.535294	v a d	-0.6084124
-1.933234	v a g	0.06194266
-2.201127	v a h	0.7855309
-1.234264	v a i	-1.271324
-0.6214803	v a l	-0.7414641
-2.201127	v a m	-1.303514
-0.7157502	v a n	-1.273097
-0.9442295	v a r	-1.378824
-1.389166	v a s	-0.9334182
-0.7157502	v a t	-1.480147
-2.201127	v a u	-1.333227
-3.078877	w a d	-0.6208634
-2.245513	w a g	-0.7293527
-1.726999	w a i	-1.500689
-2.20412	w a k	-0.536746
-1.847573	w a l	-1.211703
-1.015064	w a n	-1.688915
-2.911345	w a p	-1.336644
-0.9191768	w a r	-1.278213
-0.2779647	w a s	-2.252858
-1.38818	w a t	-1.769423
-2.549638	w a v	0.3820584
-2.911345	w a x	-0.1895119
-0.7952636	w a y	-1.561493
-0.6503647	x a c	-1.092684
-0.1173856	x a m	-1.3897
-1.02756	y a c	-1.286361
-0.3617278	y a l	-0.1744505
-1.02756	y a n
-0.767789	y a r	-0.5814094
-1.110305	z a </s>
-1.472013	z a b	-1.161869
-0.10721	z a t	-1.594194
-1.639545	z a v	-0.6118298
-0.3104859	. b b	-0.6074066
-3.35238	<s> b -	-0.8009773
-1.000805	<s> b a	0.04322713
-0.3985214	<s> b e	-0.05046993
-1.20798	<s> b i	-0.3372495
-1.562695	<s> b l	-0.8844379
-1.05409	<s> b o	-0.2986335
-1.263301	<s> b r	0.1798573
-0.829818	<s> b u	-0.3382499
-0.9223708	<s> b y	-1.184975
-1.02756	A b e	-1.346929
-1.02756	A b o	-0.3001781
-0.6658531	A b r	-0.4967923
-0.767789	A b s	-0.5173651
-0.6658531	A b u	-0.6753213
-0.1842124	O b v	0.7862021
-2.15015	a b </s>
-1.935507	a b a	-0.6295806
-2.341568	a b b	-0.2851259
-2.768872	a b d
-2.341568	a b e	-0.337284
-1.078175	a b i	-1.080336
-0.4483689	a b l	-1.686093
-0.3433305	a b o	-1.4456
-1.705058	a b r	-0.391167
-1.473109	a b s	-1.096453
-2.032417	a b u	-0.7026761
-2.15015	a b y	1.288465
-1.389667	b b c	-0.4745719
-1.222135	b b e
-0.9542425	b b i	-0.1546971
-0.8604278	b b l	-0.2409349
-0.9542425	b b o	-0.4934802
-0.9542425	b b s	-1.005185
-0.6532125	b b u	-0.5918603
-0.9623637	b b y	-0.5552835
-0.6115159	d b a	-0.5829605
-1.699256	e b </s>
-0.6910011	e b a	-1.410596
-1.248066	e b e	-1.239511
-1.431364	e b i	-0.2043359
-0.7781513	e b o	-0.9867442
-0.5710257	e b r	-0.9394978
-1.439485	e b s	-0.5576063
-1.079181	e b t	-0.8467716
-1.130334	e b u	-0.06726862
-1.155584	h b a
-0.04346569	h b o	-1.246702
-1.687941	i b </s>
-2.21718	i b a	-0.5829605
-1.342423	i b b	-0.4551269
-0.7210575	i b e	-1.479945
-0.7306029	i b i	-1.57444
-0.4015441	i b l	-1.534643
-2.049648	i b r	-1.271779
-0.8653014	i b u	-0.5480314
-0.5109307	k b a	-0.1842021
-0.243038	k b o	-0.9938361
-0.6784627	l b e	-0.6082946
-0.243038	l b o	-0.9886293
-1.25197	m b </s>
-1.179419	m b a	-0.6970888
-0.2141813	m b e	-1.59733
-0.9923326	m b i	-1.153917
-1.163029	m b l	0.08202115
-1.515211	m b o	-0.653573
-2.000454	m b r	-0.5304329
-1.480449	m b s	-1.002706
-1.691303	m b u	-0.750127
-0.779776	n b a	-0.2661753
-0.5200045	n b e	-0.5254952
-0.947308	n b i	-0.3597541
-0.779776	n b o	-0.2783543
-1.041393	o b </s>
-0.8316928	o b a	-1.052589
-1.807916	o b b	-0.3811707
-0.8703222	o b e	-1.047568
-1.462398	o b i	-0.4746333
-1.462398	o b j	0.2430381
-0.6061636	o b l	-1.298676
-1.248518	o b o	-1.064756
-0.9127261	o b s	-1.055836
-1.327699	o b t	-0.9696174
-2.337155	o b u	-0.5653847
-1.225037	o b v	0.09691001
-0.3104859	p b o
-1.634316	r b </s>
-0.437004	r b a	-0.6653668
-1.366423	r b e	-0.2023618
-0.8545396	r b i	-0.3730996
-0.4913617	r b o	-1.388241
-1.634316	r b s	-1.209662
-1.374544	r b y	1.167859
-0.2511592	s b a	-0.5420153
-0.30103	t b a	-0.5665624
-0.6532125	t b b	-0.9678208
-0.6532125	t b o	-1.016256
-1.201852	u b </s>
-1.377943	u b b	-0.4234403
-2.114398	u b c	-0.4745719
-1.678973	u b e	-0.4032331
-1.946866	u b i	-0.3016365
-1.326791	u b j	0.3222193
-0.321992	u b l	-1.359373
-1.687095	u b m	-0.3548532
-0.8186353	u b s	-0.834502
-1.16709	u b t	-0.4866092
-1.678973	u b u	-0.5294433
-1.687095	u b w	0.05618604
-0.3104859	w b a
-0.2714747	y b e	-1.446489
-0.3461084	y b o	-1.475118
-0.3907335	- c h	-0.9709406
-1.009456	- c l	-0.521349
-1.009456	- c o	-0.4801269
-1.009456	- c r	-0.5510574
-0.02482358	. c o	-1.409098
-3.534068	<s> c </s>
-0.7072675	<s> c a	-0.8456335
-1.477987	<s> c e	-1.567455
-1.002603	<s> c h	-2.34986
-1.435886	<s> c i	-1.799115
-1.238306	<s> c l	-0.1694287
-0.335403	<s> c o	-0.6118621
-3.534068	<s> c p	-0.05061547
-1.157878	<s> c r	0.2715153
-1.560825	<s> c u	-0.4927789
-1.776424	<s> c y	-2.000971
-0.2218488	A c c	-1.105095
-0.4771213	A c t	-0.4073033
-0.1050311	E c o	-0.3887182
-0.1343947	M c C	-0.05061547
-1.059274	O c e	-0.6088987
-0.05115252	O c t	-1.559114
-0.2678926	S c h
-1.929419	a c a	-0.7231764
-0.9751764	a c c	-0.5079856
-0.7965528	a c e	-0.6143019
-0.8464447	a c h	-1.377165
-1.526931	a c i	-0.7824461
-0.7126282	a c k	-0.2727163
-2.062044	a c l	-1.016227
-2.062044	a c q	0
-1.536075	a c r	-0.9765118
-0.565708	a c t	-1.349917
-2.062044	a c u	-0.9317338
-1.56472	a c y	-1.242252
-0.5323347	b c .	-0.5826831
-0.5323347	b c o	-0.4801269
-1.824451	c c a	-0.9818231
-0.502232	c c e	-1.828875
-1.011538	c c i	-1.257136
-0.4820286	c c o	-1.524036
-0.6203313	c c u	-1.440271
-0.02227639	d c a	-1.26388
-3.127831	e c -	-0.05061547
-2.960299	e c .	-0.5934159
-3.127831	e c </s>
-0.8335684	e c a	-1.777341
-3.127831	e c d	-0.05061547
-1.018004	e c e	-1.556194
-1.340224	e c h	-1.365143
-1.039194	e c i	-1.191931
-1.789316	e c k	0.1221019
-1.726264	e c l	-1.415651
-0.7879612	e c o	-0.737034
-1.509136	e c r	-1.120276
-0.5119936	e c t	-0.870133
-1.130113	e c u	-1.645534
-2.340224	e c y	0.7258506
-0.7646488	i c </s>
-0.826456	i c a	-1.373243
-0.6812412	i c e	-1.449362
-0.9429615	i c h	-2.07087
-0.9201843	i c i	-1.459489
-1.30103	i c k	-0.7605819
-1.658965	i c l	-2.41277
-2.243992	i c o	-1.814037
-3.023767	i c r	-1.296418
-1.44945	i c s	0.04042868
-1.127486	i c t	-0.3427172
-1.454845	i c u	-1.489186
-1.926571	i c y	-1.036197
-0.8750613	l c h	-0.9340695
-0.2730013	l c o	-0.6295132
-1.310486	l c r
-0.7812465	l c u	-0.5651608
-0.2491746	n c e	-1.192447
-1.292256	n c h	-0.2356134
-0.9414545	n c i	-1.185877
-1.069168	n c l	-1.474529
-1.331174	n c o	-0.536707
-1.207935	n c r	-1.705508
-2.351996	n c s	0.6820477
-1.605875	n c t	-0.8583381
-2.535294	n c u	-0.9031142
-1.359203	n c y	-1.374369
-2.357798	o c </s>
-0.7574667	o c a	-1.458079
-1.186815	o c c	-1.794405
-0.8926246	o c e	-1.24254
-1.99609	o c h	-0.228085
-0.7524459	o c i	-0.8977415
-0.5681134	o c k	-0.6771436
-2.52533	o c l	-0.521349
-1.229567	o c r	-1.402695
-1.515874	o c t	-1.127074
-1.160486	o c u	-1.286647
-0.3104859	p c o	-0.4801269
-2.468848	r c a
-0.447963	r c e	-1.049024
-0.4565068	r c h	-1.331776
-1.237544	r c i	-0.7535815
-0.9920311	r c l	-1.437122
-1.52154	r c o	-0.3665267
-1.489356	r c r	-1.071702
-1.237544	r c u	-0.6960754
-2.033424	r c y	-0.1368477
-0.8317887	s c a	-0.9489033
-1.164533	s c e	-0.7301331
-0.4983556	s c h	-1.3803
-0.9426844	s c i	-1.721426
-1.603866	s c l	-1.039585
-0.9670437	s c o	-0.6861079
-0.9426844	s c r	-0.7658103
-0.984077	s c u	-1.121677
-0.9098234	t c .	-0.4707811
-1.072551	t c </s>
-1.947308	t c a	-0.5883334
-0.1744241	t c h	-1.14329
-1.520005	t c o	-0.4128222
-1.328586	t c y	-0.8612342
-1.307095	u c a	-1.471557
-1.168792	u c c	-1.479393
-0.9609864	u c e	-2.057079
-0.400625	u c h	-1.692031
-1.533491	u c i	-0.7666679
-1.041393	u c k	-0.1929637
-2.218306	u c l	-0.4518737
-2.210185	u c r	-0.9445471
-0.616345	u c t	-1.153768
-0.506085	x c e	-1.482878
-0.4771213	x c h	-1.420246
-0.7923917	x c i	-0.981889
-0.968483	x c l	-0.9363232
-1.183125	x c u	-0.402364
-0.2825466	y c h	-0.8937816
-0.5763701	y c l	-0.3476064
-1.02756	y c o	-0.308115
-0.01848341	' d </s>
-0.3104859	- d e	-0.6119688
-2.694505	<s> d </s>
-1.01597	<s> d a	-0.7428851
-0.5463758	<s> d e	-0.5813882
-0.6304437	<s> d i	-1.650502
-0.5251383	<s> d o	-1.351428
-1.306677	<s> d r	-0.499965
-1.520822	<s> d u	-0.4811569
-2.783988	<s> d w	-0.2047506
-2.576773	<s> d y	-1.013537
-0.7364547	A d m	0.6297889
-0.5689226	A d v	-1.257816
-0.6115159	E d </s>
-0.6115159	E d d	-0.4162239
-0.6115159	E d u	-0.3927892
-3.012917	a d .
-0.4745438	a d </s>
-1.975432	a d a	-0.2001089
-1.900798	a d c	0
-1.188326	a d d	-1.047526
-0.6208432	a d e	-1.705413
-1.021189	a d i	-1.119788
-2.100371	a d j	-0.0506154
-1.857332	a d l	0.454344
-1.360008	a d m	-0.5708023
-2.577492	a d n	0.08058067
-1.635484	a d o	-1.531797
-2.138159	a d q	0
-3.012917	a d r
-1.674402	a d s	-0.287666
-1.732394	a d u	-1.781223
-1.380211	a d v	-0.3609467
-3.012917	a d w
-1.250133	a d y	-0.692416
-0.1343947	c d o	-0.6233954
-1.268237	d d </s>
-1.70757	d d a	-0.5195074
-0.6468723	d d e	-1.808921
-1.30963	d d h	-0.6946052
-0.4175356	d d i	-1.967668
-1.0086	d d l	-1.138767
-1.079181	d d r	-0.9483736
-1.195687	d d s	0.0713559
-1.70757	d d y	0.2231092
-0.05774285	e d </s>
-2.212555	e d a	-1.593235
-2.11865	e d d	-0.756407
-1.65792	e d e	-0.895644
-2.197832	e d g	-0.4313873
-1.346573	e d i	-1.886278
-2.259979	e d l	-1.145606
-2.771863	e d n	-0.3258536
-2.373923	e d o	-0.6623966
-2.062169	e d s	-0.3952999
-1.829855	e d u	-1.360464
-2.674953	e d y	0.2420825
-0.345518	h d a	-0.06566747
-0.4474538	h d r	-0.483098
-2.062206	i d -	-0.2518478
-0.4253837	i d </s>
-1.374974	i d a	-0.5448355
-1.706818	i d d	-0.9127678
-0.3379299	i d e	-1.768718
-1.775899	i d g	-0.3410936
-1.694229	i d i	-0.4072835
-2.644358	i d l	-0.1006006
-2.90413	i d n	-1.29411
-1.557056	i d s	-0.200434
-1.647232	i d u	-1.529441
-0.04575749	k d o	-0.9397845
-2.518185	l d -	-0.55655
-0.09248759	l d </s>
-1.457487	l d e	-1.108762
-2.334887	l d h	-1.050346
-1.217155	l d i	-1.947466
-2.334887	l d l	-0.7003891
-1.287736	l d r	-1.53195
-1.552043	l d s	-0.3622997
-2.518185	l d w	-0.3515136
-0.1203956	n d </s>
-1.639017	n d a	-0.2270208
-3.562286	n d b
-1.082518	n d e	-1.420583
-2.524802	n d f	-0.210902
-3.394754	n d g	-1.345134
-1.299169	n d i	-1.51796
-2.223772	n d l	0.1933919
-3.562286	n d m	-0.6165391
-2.210408	n d o	-0.3693112
-3.562286	n d p	-0.07337718
-2.021352	n d r	-1.073531
-1.388478	n d s	0.2446468
-1.755794	n d u	-1.148084
-3.394754	n d w
-0.4257734	o d </s>
-0.7729082	o d a	-1.461165
-1.966728	o d d	-0.3127991
-1.02472	o d e	-1.424989
-1.471878	o d i	-0.6026776
-2.275879	o d o	-0.3873421
-1.591065	o d s	-0.06126967
-0.790637	o d u	-1.846487
-2.535651	o d w	-1.156789
-0.9507401	o d y	-0.6821968
-0.09691001	p d a	-0.9780467
-0.3675204	r d </s>
-1.17884	r d a	-1.162713
-2.467922	r d b	-0.1868664
-0.7017187	r d e	-1.19556
-0.8936042	r d i	-1.987134
-2.016732	r d l	0.09819811
-1.847847	r d o	-0.7003424
-0.9044622	r d s	-0.6856061
-2.467922	r d w	-0.2215482
-1.847847	r d y	0.2420825
-0.1434221	s d a	-1.31854
-0.90309	s d i	-0.9922073
-0.90309	s d o	-0.9934828
-0.04575749	t d o	-0.6747456
-1.282547	u d </s>
-1.195396	u d d	-1.22236
-0.4924961	u d e	-1.758591
-0.7974564	u d g	-0.2017522
-0.5292189	u d i	-1.524424
-2.203652	u d o	-0.3077917
-1.841944	u d s	0.7861652
-1.122846	u d y	-0.314685
-0.4802166	w d </s>
-0.5821524	w d e	-0.5196719
-1.009456	w d o	-0.565268
-0.345518	y d a	-0.3123838
-0.7072253	y d r	-0.2376026
-0.01579427	% e h	-1.286672
-0.4060611	- e l	-0.5463686
-0.6658326	- e x	-0.1281585
-3.237685	<s> e -
-1.067861	<s> e a	-2.317575
-1.30741	<s> e c	-1.941038
-1.633469	<s> e d	-2.158038
-1.640893	<s> e f	-1.720818
-3.070153	<s> e g	-0.3052402
-2.40432	<s> e h	-0.8809065
-1.640893	<s> e i	-1.623754
-1.125567	<s> e l	-2.277145
-1.435838	<s> e m	-1.056934
-0.8066253	<s> e n	-1.711659
-2.450078	<s> e p	-0.9818597
-1.836119	<s> e q	0.4372498
-1.899171	<s> e r	-0.9971936
-1.228229	<s> e s	-1.992001
-1.770852	<s> e t	-2.262332
-0.7831442	<s> e v	0.5141087
-0.617569	<s> e x	-1.268722
-2.061898	<s> e y	-1.331381
-1.596793	B e </s>
-1.429261	B e a	-0.2631189
-0.365488	B e c	-1.346075
-1.067553	B e f	-0.535639
-1.596793	B e h	-0.4220692
-1.169489	B e i	-0.08080391
-1.161368	B e l	-0.4778357
-1.596793	B e r
-1.161368	B e s	-0.5188475
-1.596793	B e y	-0.6236964
-0.9125459	C e l	-0.5601143
-0.1249387	C e n	-0.7658707
-1.020129	D e a	-0.4772156
-0.4372497	D e c	-2.110387
-1.113943	D e f	-0.500509
-0.7160034	D e s	-0.9878115
-1.113943	D e t	-0.5189819
-1.113943	D e v	-0.1597821
-0.3756636	F e b	-0.629298
-0.6848148	F e d	-0.6020844
-1.112118	F e r
-1.112118	F e w	-0.1601325
-0.1191864	G e n	-1.256987
-0.8040012	G e t	-0.3961541
-0.131597	H e </s>
-1.427775	H e a	-0.5211083
-1.427775	H e l	-0.8390964
-1.779957	H e n	-0.5206612
-1.779957	H e p	-0.9613572
-0.837949	H e r	-1.200576
-2.215382	H e y	0.5556338
-0.1047354	L e t	-0.9171565
-1.377433	M e </s>
-0.3679768	M e a	-1.180694
-0.9501292	M e d	-0.5917311
-0.9420081	M e m	-0.9842929
-1.377433	M e n	-0.4864335
-1.209901	M e t	-1.344802
-1.505463	N e a	-0.4913673
-1.505463	N e g
-1.505463	N e t
-0.6307052	N e v	-0.4938842
-0.2918866	N e w	-0.5240703
-1.078159	N e x	-0.5155188
-1.184347	P e a	-0.2953036
-0.9245751	P e n	-0.1358382
-0.5642715	P e o	-0.4823775
-0.314394	P e r	-0.8047133
-0.9661418	R e a	-0.2333127
-1.275293	R e c	-0.5143765
-1.275293	R e d	0.2930998
-1.535064	R e f	-1.210688
-1.267172	R e g	-0.4070861
-1.702596	R e l
-1.173357	R e m	-0.2696317
-0.3921105	R e p	-0.6281289
-1.267172	R e s	-0.2047937
-1.702596	R e v
-1.535064	R e w	-1.340986
-1.354521	S e a	-0.5468418
-0.6213651	S e c	-0.7854072
-1.537819	S e e	-0.1145195
-1.805712	S e l	-0.2908466
-1.973244	S e m	-0.6054202
-0.6084002	S e n	-1.136863
-0.5958111	S e p	-1.730219
-1.444004	S e r	-0.663954
-1.805712	S e s	-1.291534
-1.54594	S e v	0.118252
-1.444004	S e x	-0.6506328
-1.037485	T e a	-0.5991854
-0.8699526	T e e	-0.2723867
-0.60206	T e l	-0.4230041
-1.037485	T e m	-0.5900947
-0.6101812	T e n	-0.7528713
-0.07255067	V e r	-1.282494
-0.3374593	W e </s>
-1.462398	W e d	-0.5780218
-2.250005	W e e	-0.5880647
-0.4672505	W e l	-2.153724
-2.250005	W e r	-0.5378633
-0.9395192	W e s	-1.404306
-1.513551	W e t	-0.9507126
-0.423602	Y e a	-1.596842
-1.618695	Y e l	-0.5103374
-0.3229318	Y e s	-0.8936208
-1.089455	Y e t	-0.5160103
-0.9125459	a e </s>
-0.4771213	a e c	-1.016985
-0.9125459	a e r
-0.5479748	b e </s>
-1.599291	b e a	-1.081248
-0.9107503	b e c	-2.299969
-1.838664	b e d	0.08144803
-0.9183564	b e e	-1.932098
-1.32875	b e f	-1.898997
-1.4159	b e g	-1.373582
-1.698045	b e h	-2.130254
-1.411101	b e i	-2.177712
-1.139694	b e l	-1.134881
-1.851629	b e n	-1.029987
-0.90476	b e r	-1.660665
-1.671173	b e s	-0.5779989
-1.269772	b e t	-1.511968
-3.203507	b e v	0.1045063
-2.768083	b e y	-0.5460211
-2.407863	c e -	-0.3034741
-0.3029207	c e </s>
-2.186014	c e a	-0.5863749
-1.136796	c e d	-0.8981428
-1.856955	c e e	-1.469296
-2.576748	c e f	-0.9122612
-1.690007	c e i	-1.96189
-1.718653	c e l	-1.670444
-1.637829	c e m	-1.202268
-1.00227	c e n	-1.444872
-1.680864	c e p	-1.611434
-1.141997	c e r	-1.024964
-0.8435914	c e s	-2.421248
-2.760045	c e t	-0.5065327
-3.19547	c e w
-0.8205101	d e </s>
-1.265931	d e a	-1.340022
-2.074816	d e b	-0.6978464
-1.329742	d e c	-1.971297
-1.071356	d e d	-0.8056671
-1.800659	d e e	-1.414429
-1.591943	d e f	-1.129016
-2.431364	d e g	-1.056674
-3.306121	d e h
-3.306121	d e i	-0.6018342
-1.640248	d e l	-1.028485
-1.513715	d e m	-1.169418
-0.7444026	d e n	-0.9853144
-2.057783	d e o	-0.970317
-1.538258	d e p	-0.7696028
-0.6888528	d e r	-0.9915231
-1.144377	d e s	-1.02835
-1.756753	d e t	-1.651193
-3.138589	d e u	-1.281218
-1.468435	d e v	1.130964
-2.194003	d e x	-0.7742302
-3.306121	d e z
-0.7100436	e e </s>
-3.065853	e e b	-0.6090931
-1.953734	e e c	-1.280722
-0.9700368	e e d	-0.9117824
-2.153307	e e e	-1.076119
-3.065853	e e f
-2.028368	e e i	-1.153081
-1.083269	e e k	-0.3811486
-1.393639	e e l	-1.192762
-1.207182	e e m	-1.941399
-0.6082058	e e n	-1.7066
-1.175583	e e p	-1.519938
-1.476613	e e r	-0.8257896
-1.351674	e e s	-1.334229
-1.095767	e e t	-1.147591
-2.89832	e e w	-1.340986
-2.056397	e e z	-0.2525485
-0.8609136	f e </s>
-1.346468	f e a	-1.568614
-1.153671	f e c	-1.572742
-1.170377	f e d	-0.7267922
-1.051872	f e e	-1.25986
-2.182072	f e g	-0.6168982
-1.092617	f e l	-1.375855
-2.284008	f e m	-0.5217251
-1.020615	f e n	-1.556172
-0.6299737	f e r	-1.023786
-1.244478	f e s	-1.479917
-1.462974	f e t	-0.8089229
-1.145553	f e w	-1.267043
-2.962087	g e -	-0.4765446
-0.4640803	g e </s>
-2.432847	g e a	-0.5482414
-1.049541	g e d	-0.6178316
-2.17448	g e e	-0.629793
-2.014779	g e l	-0.6346366
-1.806503	g e m	-1.211009
-0.9643694	g e n	-0.4375057
-2.014779	g e o	-0.617527
-0.9673543	g e r	-0.9129637
-0.903413	g e s	-1.574333
-0.7521453	g e t	-1.431349
-3.918727	h e -	-0.4765446
-0.1848856	h e </s>
-1.682241	h e a	-2.278056
-2.608241	h e c	-1.628668
-1.854913	h e d	-1.273211
-2.422604	h e e	-1.07167
-3.389487	h e f	-0.3821985
-1.568166	h e i	-1.559345
-1.951823	h e l	-1.159584
-1.71245	h e m	-1.610587
-1.455952	h e n	-1.881101
-2.622964	h e o	-1.43553
-0.9049493	h e r	-1.490748
-1.675429	h e s	-1.487225
-2.404121	h e t	-1.655785
-3.918727	h e v	0.1045063
-3.918727	h e w
-1.221445	h e y	-1.6828
-1.502123	i e </s>
-2.009208	i e c	-1.132289
-0.8881643	i e d	-1.364675
-1.43106	i e f	-1.302655
-1.355996	i e l	-1.782804
-0.892885	i e n	-1.613737
-1.110013	i e r	-0.8982647
-0.4486183	i e s	-1.712053
-1.439333	i e t	-0.8356535
-2.553276	i e u	-0.4759429
-1.08715	i e v	1.209344
-1.191548	i e w	-0.5447263
-0.08813609	j e c	-1.748833
-1.295351	j e e	-0.4274878
-1.824591	j e o	-0.1078611
-1.088136	j e t	-0.7922178
-0.3922267	k e </s>
-0.8913981	k e d	-1.299282
-1.405322	k e e	-1.358583
-1.840245	k e l	-0.9543294
-1.232195	k e n	-1.2429
-2.095518	k e o	-1.025231
-2.016337	k e p	-1.044136
-1.099883	k e r	-1.113426
-1.171239	k e s	-1.235784
-0.7816508	k e t	-1.290366
-1.63312	k e y	-0.2960039
-0.4145801	l e </s>
-0.9301407	l e a	-1.712663
-2.264818	l e b	-1.142957
-1.338247	l e c	-2.02504
-0.9797608	l e d	-1.614039
-2.139879	l e e	-0.4014913
-1.787697	l e f	-2.505911
-1.396239	l e g	-0.9827709
-2.91803	l e l	-0.1515849
-1.409501	l e m	-1.144985
-1.51149	l e n	-0.810095
-2.197871	l e p	-0.9104286
-1.764215	l e r	-0.9742491
-1.037217	l e s	-1.035023
-1.321433	l e t	-0.8851129
-2.926152	l e u	-0.4612688
-1.482664	l e v	-0.4807346
-2.824216	l e w	-0.212684
-2.52009	l e x	-0.6317307
-2.478698	l e y	-0.5901091
-0.4593135	m e </s>
-1.28767	m e a	-1.369026
-2.342028	m e b	-0.8750601
-2.438938	m e c	-1.093635
-1.175696	m e d	-1.094983
-1.654796	m e e	-1.827011
-3.183952	m e g	-1.212362
-3.183952	m e h	-1.330992
-2.012969	m e l	-0.7588451
-1.424697	m e m	-1.992085
-0.5677541	m e n	-1.671485
-1.949917	m e o	-2.403664
-1.258048	m e r	-0.9495348
-1.272606	m e s	-1.240747
-1.230317	m e t	-1.359987
-2.313999	m e w	-1.603917
-0.5468203	n e </s>
-1.617	n e a	-1.349126
-1.681726	n e c	-1.243837
-0.8311232	n e d	-1.695045
-1.505634	n e e	-1.692535
-2.128884	n e f	-1.27492
-1.796445	n e g	-1.352739
-2.01494	n e i	-1.694972
-1.952792	n e l	-0.8528408
-2.350733	n e m	-0.3945092
-1.967516	n e n	-0.6262087
-2.835975	n e o	-0.6017075
-1.062558	n e r	-1.133991
-1.044307	n e s	-1.301818
-1.475671	n e t	-0.3891142
-2.526824	n e u	-0.4078379
-1.591065	n e v	-0.5993948
-0.9660207	n e w	-1.079591
-1.505634	n e x	-1.419695
-1.283786	n e y	-0.5845925
-1.582152	o e d	0.2930998
-2.009456	o e r
-0.05223962	o e s	-1.832779
-1.480217	o e v	0.05195485
-1.200656	p e </s>
-1.055054	p e a	-2.612108
-0.8763384	p e c	-2.119673
-1.129523	p e d	-0.4625639
-1.72847	p e e	-1.576197
-2.369448	p e f	-0.8996131
-2.096447	p e l	-0.6197213
-0.8253797	p e n	-0.730087
-0.8101398	p e o	-1.94627
-3.105902	p e p
-0.5832289	p e r	-1.112994
-1.704336	p e s	-1.277129
-1.639069	p e t	-0.6840881
-2.78931	r e -	-0.306847
-0.4562499	r e </s>
-0.9597583	r e a	-1.571714
-2.48828	r e b	-0.5231872
-1.383425	r e c	-0.9128584
-1.207771	r e d	-1.286696
-1.353024	r e e	-0.9673185
-1.850174	r e f	-1.32482
-1.680536	r e g	-1.653376
-2.757125	r e h	-0.5519432
-1.854035	r e i	-1.39584
-2.903253	r e j	0
-1.572839	r e l	-1.695965
-1.626791	r e m	-2.006027
-1.351803	r e n	-0.9658836
-2.824072	r e o	0.02835302
-1.519437	r e p	-1.979245
-2.204283	r e q	0.3094632
-2.323469	r e r	-0.590548
-0.8226264	r e s	-0.88392
-1.585189	r e t	-1.398035
-2.78931	r e u	-0.9432471
-1.838795	r e v	0.9798673
-2.269784	r e w	0.1315313
-3.736618	r e y	0.5556338
-0.4187902	s e </s>
-1.409068	s e a	-1.655673
-3.192172	s e b	-1.254158
-1.324942	s e c	-1.65995
-0.9664326	s e d	-2.511424
-1.151591	s e e	-1.281775
-3.359704	s e g
-2.830465	s e i	-0.4289342
-1.322219	s e l	-1.269856
-2.079181	s e m	-1.619374
-1.162727	s e n	-1.244566
-2.225309	s e p	-1.062026
-2.412396	s e q	0.8709053
-1.101458	s e r	-1.575582
-1.193901	s e s	-1.487911
-1.469434	s e t	-2.192748
-3.192172	s e u	-0.2117883
-1.567298	s e v	-1.233798
-2.924279	s e w	-0.5357102
-2.034978	s e x	-1.458624
-0.8001766	t e </s>
-1.587204	t e a	-0.9959384
-1.59889	t e c	-1.852095
-0.6982746	t e d	-2.017563
-1.614977	t e e	-1.03176
-2.640283	t e f	-0.9867634
-2.339253	t e g	-1.082229
-1.29786	t e l	-1.615889
-1.37077	t e m	-1.61137
-1.148921	t e n	-1.019997
-3.473647	t e o
-2.135133	t e p	-1.324983
-0.4849466	t e r	-0.4812284
-1.2881	t e s	-1.393516
-3.473647	t e t	-0.5842081
-2.361529	t e v	-0.5710402
-2.526339	t e x	-1.017724
-0.3603238	u e </s>
-0.9877656	u e d	-0.835525
-1.934802	u e e	-0.3330806
-1.544068	u e l	-0.6674314
-1.021189	u e n	-1.417203
-1.765917	u e r	-0.4997729
-0.5160393	u e s	-1.407987
-0.4359888	v e </s>
-2.641915	v e a	-0.9557875
-1.336086	v e d	-1.357613
-2.810799	v e g	-1.230802
-2.420066	v e h	-1.000706
-2.693067	v e i	-0.9481428
-1.225089	v e l	-1.652431
-2.064678	v e m	-1.210384
-1.022126	v e n	-1.285317
-0.501686	v e r	-1.052669
-1.043489	v e s	-2.071124
-2.234429	v e t	-1.013976
-2.516976	v e y	0.5706515
-0.5711067	w e </s>
-1.415234	w e a	-1.417794
-2.318324	w e b	-0.7458038
-1.257626	w e d	-1.036255
-0.8950784	w e e	-1.830255
-2.180022	w e i	-0.8701625
-1.022757	w e l	-1.667642
-1.196108	w e n	-1.791177
-0.540173	w e r	-1.667264
-1.641631	w e s	-1.492727
-2.627476	w e t	-0.5546489
-1.587946	w e v	-0.9134628
-0.2231432	x e c	-1.799067
-0.845098	x e d	-1.160241
-1.715051	x e m	-1.317695
-0.9352747	x e r	-1.046644
-0.9352747	x e s	-0.8550553
-1.784439	y e </s>
-0.1366894	y e a	-2.67068
-1.36531	y e d	-0.7286308
-1.842431	y e e	-0.9400171
-1.66634	y e l	-1.227277
-2.821924	y e n	-0.4864335
-1.102068	y e r	-1.598949
-1.256165	y e s	-1.258817
-1.470045	y e t	-1.369454
-0.550031	z e </s>
-0.3601514	z e d	-1.081934
-0.6611814	z e n	-1.527146
-2.008255	z e r	-1.15663
-1.439333	z e s	-0.6631698
-3.477311	<s> f -	-0.07337718
-0.9067532	<s> f a	-0.2252372
-1.212582	<s> f e	-1.284457
-0.7614214	<s> f i	-0.5306394
-1.536736	<s> f l	0.209559
-0.4076606	<s> f o	-0.1617406
-0.7717896	<s> f r	-0.6740487
-1.289837	<s> f u	-0.3530673
-1.105031	A f r	-0.5821283
-0.04575749	A f t	-1.237146
-0.005395032	I f </s>
-0.2852357	O f </s>
-0.3521825	O f f	-0.1556568
-0.9654507	a f e	-0.6940424
-0.6644207	a f f	0.4330783
-1.89487	a f l	-0.4022473
-1.49693	a f r	-1.012372
-0.2046736	a f t	-1.479403
-0.8699526	d f a	-1.317919
-0.1249387	d f i	-1.077823
-1.045486	e f </s>
-2.030853	e f a	-0.7702842
-0.8754689	e f e	-1.541274
-0.9632992	e f f	-1.118317
-0.9863645	e f i	-1.368174
-1.522607	e f l	-1.10669
-0.5535409	e f o	-1.332903
-2.132788	e f r	0.4670636
-2.132788	e f s	0.0572689
-0.9708524	e f t	-1.353264
-0.9273866	e f u	-1.421961
-0.6659174	f f </s>
-1.482159	f f a	-1.261659
-0.5183709	f f e	-1.587892
-0.4387964	f f i	-1.712932
-1.880099	f f l	-0.6582761
-1.25171	f f o	-0.7037851
-1.880099	f f s	0.3914816
-0.2678926	h f u	-1.122067
-0.5413018	i f </s>
-2.629939	i f a
-0.7358765	i f e	-1.401131
-0.7512513	i f f	-1.117288
-0.8188508	i f i	-1.822518
-2.629939	i f l	-0.5280538
-2.1007	i f o	0.1622479
-1.018423	i f t	0.4712512
-1.398634	i f u	-1.166924
-1.349416	i f y	0.2040551
-0.5323347	k f i	-0.525735
-0.5323347	k f u	-0.3944673
-0.07725532	l f </s>
-1.796166	l f a	-1.294106
-1.536395	l f i	-0.5220589
-1.536395	l f r	-0.8839486
-1.344976	l f t	-1.255804
-0.04575749	m f o	-0.1597171
-1.188326	n f a	-0.216658
-0.9727259	n f e	-0.8980983
-0.8430921	n f i	-1.082952
-0.6812412	n f l	-1.311094
-0.4423591	n f o	-0.5622171
-1.188326	n f r	-1.031124
-1.334454	n f u	-0.1877079
-0.04969453	o f </s>
-2.176425	o f e	-1.405897
-1.088971	o f f	-1.519939
-2.086249	o f i	-1.529429
-2.989339	o f o	-0.5175141
-2.000334	o f t	-0.3166333
-1.032529	r f a	-0.7889146
-0.6857417	r f e	-1.315813
-1.820136	r f i
-1.820136	r f l
-0.3635224	r f o	-0.7829663
-0.7080181	r f u	-1.070014
-1.381836	s f a	-1.202103
-0.6746107	s f e	-0.9631621
-1.020129	s f i	-0.4039496
-0.7617608	s f o	-0.1597171
-0.4149733	s f u	-0.5255494
-1.381836	s f y	0.3513536
-1.088637	t f a	-0.5766514
-0.3521825	t f o	0.2884823
-0.6613337	t f u	-0.3807216
-0.4842998	u f a	-1.171239
-0.1832698	u f f	-0.6416357
-0.1050311	w f u	-0.3807216
-3.091763	<s> g -	-0.05061547
-1.079421	<s> g a	-0.6688093
-0.8351519	<s> g e	-1.796712
-1.131293	<s> g i	-1.808773
-1.860458	<s> g l	-1.299261
-0.4022734	<s> g o	-0.06809178
-0.6961049	<s> g r	-0.5583388
-1.118519	<s> g u	-1.338084
-2.11227	<s> g y	-0.7725474
-0.1343947	@ g m	-0.327527
-0.5323347	A g a	-0.4892278
-0.5323347	A g r
-1.704151	a g </s>
-0.7012649	a g a	-1.562125
-0.3336991	a g e	-2.17364
-1.649793	a g g	-0.3466637
-1.361728	a g i	-0.6516432
-2.546074	a g m	-1.055127
-1.880242	a g n	-0.4294474
-1.060698	a g o	-1.768857
-0.9308518	a g r	-1.806174
-2.094884	a g s	0.1295886
-1.734114	a g u	-0.7719698
-1.74138	d g a	-1.312989
-0.03415428	d g e	-0.8669503
-1.481608	d g i	-0.4254274
-2.360438	e g </s>
-0.5578846	e g a	-1.280078
-1.041393	e g e	-0.3986881
-2.100666	e g g	-0.05924651
-0.4824176	e g i	-1.10998
-1.998731	e g l	-0.3542508
-2.52797	e g m
-2.092545	e g n	-0.9659251
-1.138303	e g o	-1.341457
-1.296665	e g r	-0.6083329
-0.8816918	e g u	-1.263377
-2.360438	e g y	-0.6071171
-0.3091479	g g e	-1.563666
-0.6910011	g g i	-1.175417
-0.7112045	g g l	-1.84864
-1.079181	g g r	-0.2506895
-1.374382	i g </s>
-1.11431	i g a	-1.325309
-1.658378	i g e	-1.726005
-1.610954	i g g	-1.364401
-0.2644658	i g h	-1.276582
-1.429899	i g i	-0.9602371
-0.6754117	i g n	0.2720315
-2.287994	i g o	-0.4843738
-2.170262	i g r	-0.2151915
-2.471292	i g s	0.3828101
-1.58199	i g u	-1.456845
-0.08227655	k g r	-0.5462534
-0.05115252	l g a	-0.6534024
-0.3104859	m g .	-0.05061547
-0.06581564	n g </s>
-2.639215	n g a	-0.7306805
-1.272367	n g e	-1.222378
-3.34644	n g h	-1.352195
-1.948214	n g i	-1.546083
-1.861063	n g l	-1.144612
-3.34644	n g n	-0.2504902
-3.513972	n g o
-3.513972	n g q	-0.05061547
-2.175457	n g r	-0.9902999
-1.392806	n g s	-0.2940199
-2.265634	n g t	0
-2.401854	n g u	-0.7696735
-1.360377	o g </s>
-1.330414	o g a	-1.384745
-1.044107	o g e	-1.175608
-1.164082	o g g	-0.5040632
-0.9502025	o g i	-1.314558
-1.251233	o g n	-1.166606
-0.442047	o g r	-1.566476
-1.392562	o g s	0.2556553
-1.81063	o g u	-0.6049067
-0.816309	o g y	-0.9530035
-0.6784627	p g /	-0.4269398
-0.5109307	p g </s>
-0.6784627	p g r	-0.4507044
-2.337155	r g /	-0.4269398
-0.7329386	r g a	-1.361487
-0.2607526	r g e	-0.1858789
-1.142063	r g i	-0.5674235
-1.549548	r g o	-0.5557534
-2.337155	r g r	-0.4937019
-0.9597226	r g u	-1.22183
-1.424609	r g y	-0.3679768
-0.4354247	s g u	-0.5842178
-0.1842124	t g a	-0.6020557
-1.607042	u g </s>
-1.273828	u g e	-1.159831
-1.189507	u g g	-1.029534
-0.1124597	u g h	-0.6195201
-2.386818	u g l	-1.236306
-1.935628	u g s	1.035046
-1.215836	u g u	-1.82737
-0.4354247	y g e	-0.5755805
-0.4354247	y g r	-0.4937019
-0.345518	% h m	-0.2453329
-0.4474538	% h u	-0.5631325
-1.231305	- h i	-0.6152126
-0.05551733	- h u	-1.313123
-0.09691001	. h t	-1.016369
-0.3911383	<s> h a	-0.3299555
-0.5887528	<s> h e	-1.170079
-0.754447	<s> h i	-1.504534
-0.9089488	<s> h o	-1.617036
-2.564567	<s> h t	-1.106083
-1.497621	<s> h u	-1.040343
-2.858391	<s> h y	-0.7460393
-0.03218468	A h </s>
-0.2903061	C h a	-1.018793
-1.309151	C h e	-0.3683232
-0.5228788	C h i	-1.063401
-1.736455	C h o
-1.117732	C h r	-1.231221
-0.1050311	G h r	-0.5960987
-0.05115252	M h m	-0.5215404
-0.0234811	O h </s>
-1.56346	S h a
-0.1494391	S h e	-1.229127
-1.201752	S h i	-1.237629
-0.8562344	S h o	-0.105685
-1.56346	S h r	-0.2930592
-1.047425	T h a	-1.721641
-0.1143096	T h e	-1.598083
-1.001667	T h i	-1.47964
-1.717671	T h o	-1.25332
-2.001667	T h r	-0.03136903
-1.911491	T h u	-0.7336478
-0.860338	U h -	-0.4016733
-0.08218676	U h </s>
-0.4699427	W h a	-1.529984
-0.4699427	W h e	-2.032298
-0.8935447	W h i	-1.135606
-1.30103	W h o	-0.8788139
-0.8573325	W h y	-0.7126754
-0.03644607	a h </s>
-2.342567	a h a
-1.25393	a h e	-1.24615
-2.342567	a h m	-0.6108162
-2.342567	a h n	-0.6092965
-0.3839552	c h </s>
-0.7506179	c h a	-1.412649
-0.8725059	c h e	-0.8406652
-0.8759942	c h i	-1.522766
-3.103811	c h l
-2.485088	c h m	-0.9630228
-1.607688	c h n	-0.6793969
-1.0324	c h o	-1.60439
-3.103811	c h r	-0.3879957
-2.668386	c h t	0.05490139
-1.855473	c h u	-0.8113179
-3.103811	c h y	0.0768144
-0.2596373	d h a	-1.311891
-0.39794	d h o	-0.7247087
-0.5101215	e h </s>
-0.7888751	e h a	-1.017522
-1.089905	e h e	-0.8719859
-0.4271473	e h i	-1.491067
-1.304547	e h o	-0.5974934
-0.5494477	g h </s>
-2.689497	g h a	-0.3057577
-1.74491	g h b	-0.2798407
-1.455462	g h e	-1.817169
-2.689497	g h i	-0.1936515
-1.819544	g h l	-1.019618
-1.819544	g h o	-1.128968
-2.689497	g h p	-1.016178
-2.857028	g h s	0.8796664
-0.2134314	g h t	-0.7486407
-2.069421	g h w	-0.6812412
-0.5323347	h h e
-0.3648027	h h o	-1.322447
-0.7364547	i h </s>
-0.7364547	i h a
-0.7364547	i h i	-0.6251704
-0.4439839	k h </s>
-0.6115159	k h o
-0.01848341	m h m	-0.9475091
-0.4393327	n h a	-0.2273903
-0.7403627	n h e	-0.1509777
-0.3881802	n h u	-0.5500915
-0.07323191	o h </s>
-1.730291	o h e	-0.30259
-1.161368	o h i	-0.9519162
-1.897823	o h n
-1.730291	o h o
-1.796166	p h </s>
-0.8515801	p h a	-0.8124728
-0.9262138	p h e	-0.8107948
-0.8998848	p h i	-0.3684537
-0.3821457	p h o	-1.119237
-1.796166	p h r	-1.337445
-1.796166	p h s	0.1520663
-0.9262138	p h y	-0.02523883
-0.2325726	r h a	-1.38662
-1.010724	r h e	-0.6146089
-0.7096938	r h o	-0.9138566
-1.018845	r h y	-0.5949595
-0.8690763	s h </s>
-1.035216	s h a	-1.161065
-0.5709319	s h e	-0.9195407
-0.7299898	s h i	-1.530695
-2.881418	s h l	-0.1731859
-1.93411	s h m	-1.014456
-2.881418	s h n	-0.6145433
-0.5580947	s h o	-1.838091
-2.048053	s h r	-0.4224343
-1.843933	s h u	-0.7952222
-2.881418	s h y	0.0768144
-3.553212	t h -	-0.5485653
-1.046435	t h </s>
-0.8670276	t h a	-2.520735
-3.147151	t h d	0.1054521
-0.1980046	t h e	-1.30399
-3.812983	t h f	-1.016178
-3.54509	t h h	-0.3023743
-1.087966	t h i	-2.203443
-3.033207	t h l	0.02764642
-3.553212	t h m	-0.1254767
-3.361793	t h n	-1.124592
-1.539696	t h o	-1.700682
-1.720639	t h r	-0.7788495
-2.398962	t h s	-0.2430381
-3.812983	t h t	-0.3077445
-2.943031	t h u	-0.5046462
-2.943031	t h w	-0.01858049
-3.105758	t h y	-0.3390947
-1.186629	u h -	-0.6614537
-0.03081395	u h </s>
-0.6974953	w h a	-2.074167
-0.6026513	w h e	-2.132517
-0.6232493	w h i	-2.123334
-0.5707203	w h o	-2.288536
-1.374926	w h y	-1.097043
-0.4393327	x h a	-1.018518
-0.4474538	x h i	-0.6094115
-0.1429539	y h o	-1.301246
-0.1343947	- i n	-0.6118419
-0.3104859	/ i m	-0.5933307
-3.513652	<s> i -	-1.261227
-2.944729	<s> i c	-0.288513
-2.041639	<s> i d	-1.062037
-1.590141	<s> i f	-2.110439
-3.062462	<s> i g	-1.16919
-2.486092	<s> i l	-1.123072
-1.441279	<s> i m	-2.557575
-0.2671224	<s> i n	-1.641233
-3.681184	<s> i o	-0.6209458
-3.151945	<s> i r	-0.8335169
-0.7007617	<s> i s	-3.574722
-0.7399313	<s> i t	-2.516336
-0.7876072	A i d	-0.3584623
-0.1688847	A i r	-0.4088382
-0.3756636	B i b	-0.73478
-0.6766936	B i l	-0.7618338
-0.6848148	B i r	-0.5439827
-0.1597008	C i t	-0.7085491
-0.779776	C i v	-1.262974
-0.7178553	D i d	-0.7955287
-1.337931	D i e	-0.2485317
-1.078159	D i r	-0.4760614
-0.2571245	D i s	-0.7574359
-0.6115159	E i d
-0.6115159	E i g	-0.2845256
-0.6115159	E i t	-0.5265328
-1.514606	F i e	-0.605916
