
\data\
ngram 1=76
ngram 2=1137
ngram 3=3585
ngram 4=5481
ngram 5=5195
ngram 6=4121

\1-grams:
-3.437734	"	-1.405411
-3.356064	&	-1.718333
-2.616831	'	-2.108149
-4.423011	(	-0.5303493
-4.423011	)	-0.5303493
-3.820951	,	-1.042233
-2.685288	-	-2.843669
-2.175038	.	-2.702202
-4.055034	/	-1.165578
-3.519921	0	-1.557415
-3.34383	1	-2.188664
-3.577913	2	-1.736117
-3.997042	3	-1.6997
-4.055034	4	-1.345586
-3.786189	5	-2.023782
-3.858739	6	-1.701
-4.055034	7	-0.8313341
-4.055034	8	-1.883465
-3.997042	9	-1.39491
-3.64486	:	-1.912408
-0.8175622	</s>
-99	<s>	-3.285594
-4.599102	?	-1.040639
-1.998674	A	-4.682969
-2.076006	B	-2.459535
-1.774001	C	-2.908072
-2.273792	D	-3.003916
-2.521734	E	-2.22228
-2.349904	F	-2.228873
-2.316933	G	-2.669814
-2.206405	H	-2.354188
-2.234551	I	-2.452038
-2.358553	J	-2.239445
-2.33193	K	-2.508246
-2.34383	L	-2.225492
-2.123431	M	-2.712893
-2.213496	N	-2.667693
-2.625974	O	-2.062648
-2.188325	P	-3.218699
-3.080588	Q	-2.041474
-2.289472	R	-3.073064
-1.822038	S	-2.744042
-2.021036	T	-2.891926
-2.403203	U	-2.51948
-2.950742	V	-2.324038
-2.369932	W	-3.145694
-3.093952	X	-1.970957
-2.485159	Y	-2.459382
-2.813772	Z	-2.545369
-3.997042	`	-1.603138
-1.077376	a	-3.576841
-2.233614	b	-2.451517
-1.755869	c	-3.118619
-1.814128	d	-2.480076
-1.123068	e	-3.217054
-2.313545	f	-2.159626
-1.696555	g	-2.726611
-1.519017	h	-2.852137
-1.180387	i	-3.385837
-2.870748	j	-2.159973
-2.223439	k	-2.726386
-1.549884	l	-3.338811
-1.797356	m	-2.838861
-1.126711	n	-3.019843
-1.294719	o	-2.987441
-2.072117	p	-2.398544
-2.729871	q	-2.419493
-1.349659	r	-2.957561
-1.397432	s	-3.118037
-1.356188	t	-3.820074
-1.631554	u	-2.6885
-2.304636	v	-2.44032
-2.060654	w	-3.142975
-2.750913	x	-2.555596
-1.954664	y	-2.887011
-2.696012	z	-1.899183

\2-grams:
-0.01472326	" </s>
-0.2703612	& </s>
-0.744589	& E	-0.3222521
-0.6127838	& P	-1.019572
-1.612784	& o
-1.861335	' '	-0.5732337
-1.192328	' </s>
-1.470262	' B	-0.2893661
-1.338457	' C	-0.8999653
-2.338456	' L
-2.338456	' R
-1.160241	' a	-0.7146134
-1.143616	' c	-0.6962472
-1.861335	' e	-0.1410373
-2.338456	' n
-0.1741036	' s	-1.9957
-0.1249387	( </s>
-0.1249387	) </s>
-0.03476211	, </s>
-1.410559	- -	0.1146154
-0.1818436	- </s>
-1.801632	- A
-2.278754	- C
-2.278754	- I
-2.278754	- K
-2.278754	- M
-0.9761935	- S	-0.1489265
-2.278754	- U
-2.278754	- W
-1.500602	- c	-0.7769936
-1.199572	- h	-1.062411
-1.410559	- k	-0.3440314
-2.278754	- l
-2.278754	- o
-2.278754	- s
-0.209545	. </s>
-1.860338	. A	-0.9481754
-1.895233	. B	-0.3436387
-1.895233	. C	-0.3493046
-2.763428	. D
-2.763428	. E
-1.568587	. J	-0.5945287
-1.460868	. N	-0.7672409
-2.763428	. P
-0.6596243	. S	-2.059469
-1.985277	. T	-0.8336037
-2.763428	. W
-1.895233	. Y	-0.3390013
-2.763428	. a
-1.895233	. b
-1.809186	. m	-0.9515761
-2.763428	. p
-0.02590503	/ </s>
-0.2994999	0 0	-0.607455
-1.60206	0 4
-1.60206	0 7
-1.124939	0 :	-0.4713572
-0.4881167	0 </s>
-1.60206	0 p
-0.9090803	1 0	-0.7323937
-0.6851079	1 1	-0.7446523
-1.863323	1 2
-1.386202	1 5	-0.3370408
-1.863323	1 6
-1.863323	1 7
-0.5607628	1 9	0.04306671
-0.995128	1 :
-0.6851079	1 </s>
-1.544068	2 0
-0.6758732	2 1
-1.066947	2 4	-0.1743848
-0.640978	2 :	-0.2415168
-0.3658531	2 </s>
-1.30103	3 0
-1.30103	3 5
-1.30103	3 8
-1.30103	3 :
-0.1061893	3 </s>
-1.39794	4 0
-0.5297452	4 5	-0.08620567
-0.2030993	4 </s>
-0.3236732	5 2	-0.4543324
-1.518514	5 3
-1.518514	5 6
-0.340299	5 </s>
-1.054358	6 3	0.06165688
-0.6632841	6 7	0.2508352
-0.6632841	6 :	-0.220522
-0.3366382	6 </s>
-0.90309	7 8
-0.1249387	7 </s>
-0.7781513	8 6	-0.5619428
-0.3870777	8 7	0.2508352
-0.3870777	8 :
-1.39794	9 1
-0.5297452	9 6	-0.2449156
-1.39794	9 8
-0.5297452	9 9
-0.5297452	9 </s>
-0.5852131	: 0	-0.2415026
-0.8952332	: 1
-0.8952332	: 3
-0.8952332	: 4	-0.1992327
-0.4608679	: 5	-0.419461
-2.622714	<s> "	0
-2.723384	<s> &	-1.027698
-1.891988	<s> '	-1.597806
-3.607991	<s> (	0
-3.607991	<s> )	0
-3.005931	<s> ,	0
-1.99169	<s> -	-1.625418
-3.04372	<s> .	-0.6621062
-2.906897	<s> /	0.3341984
-2.704901	<s> 1	-0.6284177
-2.971169	<s> 2	-0.5137874
-3.216917	<s> 3
-4.085112	<s> 4
-3.216917	<s> 5
-2.890271	<s> 6	-0.3339386
-4.085112	<s> 7
-2.890271	<s> 8	-0.5228788
-4.085112	<s> 9
-3.216917	<s> ?	0.7611248
-1.255808	<s> A	-1.198214
-1.331529	<s> B	-1.676002
-1.024414	<s> C	-1.36638
-1.472328	<s> D	-0.4654458
-1.744668	<s> E	-0.7327351
-1.551086	<s> F	-1.076229
-1.51691	<s> G	-0.3600735
-1.393147	<s> H	-0.2983914
-1.46083	<s> I	-0.5119226
-1.558773	<s> J	-1.024905
-1.541044	<s> K	-0.613523
-1.558773	<s> L	-1.179794
-1.339257	<s> M	-0.8809709
-1.474452	<s> N	-1.087789
-1.998752	<s> O	-0.7085169
-1.410251	<s> P	-1.460704
-2.265568	<s> Q	0.2979195
-1.527605	<s> R	-1.638105
-1.112909	<s> S	-1.331935
-1.226575	<s> T	-0.9550719
-1.59375	<s> U	-0.05372901
-2.198621	<s> V	-0.6276492
-1.567916	<s> W	-0.9517971
-2.285772	<s> X	-0.0954963
-1.678572	<s> Y	-1.024752
-1.998752	<s> Z	0.6557217
-2.890271	<s> `	-0.4070252
-2.089477	<s> a	-0.8415412
-2.784082	<s> b	-0.658518
-2.653748	<s> c	-1.030397
-2.854663	<s> d	-1.134861
-2.607991	<s> e	-1.116582
-2.670139	<s> f	-1.219487
-3.607991	<s> g
-2.272199	<s> h	-1.695004
-2.909021	<s> i	-1.079927
-3.182022	<s> j	-0.3585385
-3.216917	<s> k	-0.3440314
-2.622714	<s> l	-0.8259557
-2.306961	<s> m	-1.425562
-2.403871	<s> n	-1.614667
-2.039789	<s> o	-1.577702
-2.59375	<s> p	-0.6949248
-4.085112	<s> r
-2.938984	<s> s	-0.7540221
-1.32469	<s> t	-2.029182
-3.216917	<s> u
-3.085112	<s> w	-0.6977569
-3.607991	<s> y
-0.03489518	? </s>
-2.068821	A &	-0.2650083
-1.857835	A .	-0.6849692
-1.293563	A </s>
-1.732896	A B	-1.205272
-1.634456	A C	-0.3969809
-1.758801	A D	-0.8953171
-2.158865	A F	-0.7674859
-1.742175	A G	-0.598749
-2.033926	A L	-0.9437207
-2.068821	A M	-0.3460975
-1.539076	A N	-1.377579
-2.937016	A P
-1.732896	A R	-1.212053
-1.614797	A S	-0.7193135
-1.742175	A T	-0.5935165
-2.068821	A a	-0.3169563
-1.575288	A b	-1.025408
-1.937016	A c	-0.4183627
-1.937016	A d	-0.6649534
-2.158865	A e	-0.7856714
-1.445654	A f	-1.420452
-1.324232	A g	-1.5519
-1.732896	A i	-1.223202
-2.068821	A k
-1.124103	A l	-0.866226
-0.8298061	A m	-1.205029
-1.144624	A n	-0.7088553
-1.895623	A p	-0.7067434
-0.9076324	A r	-1.252451
-1.196653	A s	-1.401422
-1.823073	A t	-0.6008729
-1.635986	A u	-0.7214848
-2.033926	A v	-0.6794279
-1.823073	A x	-1.082011
-2.937016	A z
-2.840733	B '
-1.761552	B .	-0.6809292
-1.972538	B </s>
-1.840733	B A	-1.010672
-1.937643	B B	-0.9121599
-1.034553	B C	-1.767511
-1.664642	B I	-1.175302
-2.840733	B O
-1.645893	B S	-0.6684682
-0.7543734	B a	-0.8523121
-0.7762752	B e	-1.443977
-2.840733	B h
-1.335583	B i	-1.04233
-1.662518	B l	-0.4846432
-1.041393	B o	-0.6497279
-0.8769454	B r	-1.371453
-0.7838284	B u	-0.9966958
-2.363612	B y	-0.1888433
-2.355388	C .	-0.06004626
-1.003205	C </s>
-3.133539	C A
-1.938698	C B	-0.6890423
-1.957448	C C	-1.127486
-3.133539	C D
-3.133539	C F
-2.265344	C I	-0.344942
-1.987411	C N	-1.16433
-2.656418	C O	-0.1693643
-2.179296	C P	-0.9324222
-2.656418	C R	-0.5847063
-3.133539	C S
-2.265344	C T
-1.084321	C a	-1.063922
-1.642177	C e	-1.441748
-0.469838	C h	-2.013654
-1.771811	C i	-1.00479
-1.417536	C l	-1.131493
-0.5560471	C o	-1.230943
-1.434569	C r	-1.403846
-1.702175	C u	-0.7673607
-2.355388	C z	-0.8041931
-1.508049	D .	-0.7645603
-1.751087	D </s>
-2.654176	D A
-1.785982	D C	-0.305822
-1.785982	D L	-0.3477458
-2.654176	D O
-1.876025	D P	-0.8330516
-1.785982	D T	-0.3397305
-0.6088536	D a	-0.8600587
-0.5303249	D e	-1.26884
-0.9729353	D i	-0.5210803
-0.8281018	D o	-0.9438205
-1.574995	D r	-1.031794
-1.612784	D u	-0.4907748
-2.654176	D w
-1.459336	D y	-0.593861
-1.314545	E .	-0.486015
-1.1902	E </s>
-2.49276	E A
-1.538518	E C	-0.9545972
-2.49276	E D
-2.49276	E G
-2.49276	E L
-1.624566	E N	-0.3299941
-2.49276	E R
-2.49276	E S
-2.49276	E U
-2.49276	E X
-2.49276	E Y
-1.237488	E a	-1.225913
-1.1902	E c	-0.7510865
-1.346632	E d	-0.6327678
-1.237488	E g	-1.255862
-1.714609	E h	-0.8183893
-1.112549	E l	-0.9925077
-1.314545	E m	-0.7868687
-1.015639	E n	-0.7220144
-1.58967	E q	-0.908485
-1.378817	E r	-1.02924
-1.314545	E s	-0.3343439
-1.29792	E t	-0.6035326
-1.077787	E u	-1.319621
-1.538518	E v	-0.7615519
-1.237488	E x	-0.6837989
-2.569374	F .
-1.615131	F </s>
-2.569374	F A
-1.338925	F B	-1.266385
-1.266814	F C	-0.7733346
-2.569374	F T
-0.9895903	F a	-0.4627572
-1.064224	F e	-1.351672
-0.7432991	F i	-1.598238
-0.9161614	F l	-1.319538
-0.7985219	F o	-1.058351
-0.736865	F r	-1.584965
-1.490193	F u	-0.9652826
-2.119476	G .	0.2166111
-2.596597	G </s>
-1.818446	G A	-0.7751283
-2.596597	G E
-2.119476	G F	-0.5913947
-1.517416	G M	-1.101334
-2.596597	G O
-0.8112673	G a	-0.8160089
-0.757748	G e	-1.438297
-1.401756	G h	-0.08260822
-1.482654	G i	-0.9567413
-1.392477	G l	-1.045095
-0.7392646	G o	-0.9077303
-0.7045025	G r	-1.394927
-0.9733478	G u	-0.9823563
-2.596597	G y
-1.791515	H .	-0.5371675
-2.694605	H </s>
-2.694605	H B
-2.694605	H H
-2.694605	H L
-2.694605	H S
-0.7078335	H a	-1.087001
-1.176091	H e	-1.368137
-1.203243	H i	-0.9649285
-0.3703227	H o	-0.943859
-1.314394	H s	-1.367497
-0.7807913	H u	-1.170253
-2.217484	H y	-0.5909299
-2.710963	I .
-1.192449	I </s>
-1.842768	I A	-0.3285519
-1.59702	I I	-1.105411
-1.842768	I N
-1.564835	I R	-1.158738
-2.710963	I S
-1.842768	I T
-1.516122	I b	-0.6852868
-1.842768	I c
-2.710963	I d
-1.842768	I g	-0.3327876
-2.233842	I k	-0.5377803
-1.807873	I l	-0.3267295
-1.66957	I m	-1.071045
-0.5774242	I n	-1.767331
-2.710963	I o
-0.6695704	I r	-1.884639
-0.7153279	I s	-1.97134
-1.564835	I t	-1.141565
-1.516122	I v	-0.6662839
-1.764674	J .	-0.3965835
-1.588583	J </s>
-0.4600401	J a	-1.60292
-0.9865229	J e	-1.068061
-0.7434849	J i	-1.020218
-0.6677642	J o	-1.182212
-2.542825	J r
-0.9746237	J u	-1.482713
-2.603144	K .
-1.324391	K </s>
-2.603144	K L
-1.561752	K M	-1.071519
-2.603144	K R
-0.9903605	K a	-0.3794816
-0.9499319	K e	-0.6241466
-1.408304	K h	-0.640544
-1.648902	K i	-0.2092147
-1.73495	K l
-0.2829981	K o	-1.045827
-2.126023	K r	-0.5429156
-1.427053	K u	-0.5627808
-1.424929	K w	-0.6098637
-1.73495	K y	-0.3341724
-1.272628	L .	0.01913501
-1.620945	L </s>
-1.797037	L A	-0.7554783
-2.098067	L C	-0.5566572
-2.575188	L M
-2.575188	L O
-2.575188	L P
-0.8117598	L a	-0.4953785
-0.7827961	L e	-0.9606089
-0.5623506	L i	-0.8668231
-2.575188	L l
-0.7622745	L o	-0.7913775
-1.533795	L t	-1.077827
-1.177248	L u	-0.6242386
-1.620945	L y	-0.9336978
-1.930456	M .	0.06585019
-1.543378	M </s>
-2.798651	M A
-2.321529	M C	-0.1995048
-1.60381	M G	-0.6855717
-2.321529	M I	-0.5732419
-2.020499	M M	-0.8324363
-1.930456	M R	-0.3328284
-1.620436	M S	-0.8667952
-1.757258	M T	-1.067687
-0.5506774	M a	-0.6687189
-1.436923	M c	-0.900163
-1.207586	M e	-0.7671469
-0.5999936	M i	-1.425795
-2.798651	M l
-0.8301677	M o	-0.5552507
-1.126553	M u	-0.7006777
-2.321529	M y
-1.524491	N '	-0.6701437
-1.605388	N .	-0.6994669
-1.321391	N </s>
-1.416771	N A	-0.7303564
-1.096082	N B	-1.591386
-1.33912	N C	-1.352537
-2.719331	N H
-1.573203	N N	-1.15486
-2.719331	N P
-2.24221	N S	-0.1699621
-1.851136	N T
-1.851136	N Y
-0.7748486	N a	-1.444628
-0.4592599	N e	-1.429572
-1.22797	N i	-0.5705764
-1.096082	N o	-0.9389669
-1.94118	N u	-0.6905463
-2.719331	N y
-1.244807	O '	-0.6490149
-1.612784	O </s>
-1.160486	O A	-1.2326
-1.068716	O C	-1.29702
-2.390935	O I
-2.390935	O J
-1.135663	O K	-1.257673
-2.390935	O N
-1.913814	O P	-0.1946058
-2.390935	O R
-1.196094	O S	-0.5951307
-1.52274	O a	-0.3472341
-1.52274	O b
-1.088375	O c	-0.6807075
-2.390935	O d
-1.186815	O f	-1.184926
-1.487845	O h	-0.8564831
-1.913814	O k	-0.5912247
-1.276992	O l	-0.536323
-1.913814	O n
-1.487845	O p	-0.8234149
-1.214844	O r	-0.8472273
-1.196094	O s	-0.5922849
-2.390935	O t
-1.21272	O v	0.03798408
-1.276992	O x	-1.117531
-2.741152	P .
-1.309788	P </s>
-1.510703	P A	-1.219775
-1.872957	P C
-1.872957	P E	-0.3407914
-2.741152	P I
-1.546311	P L	-0.1340481
-2.26403	P M	-0.5894505
-1.562937	P P	-0.8232777
-2.26403	P R	-0.193013
-2.741152	P S
-0.3627537	P a	-1.487062
-0.9630004	P e	-1.247436
-1.309788	P h	-1.340298
-1.699759	P i	-0.3649146
-1.627208	P l	-1.046675
-1.150087	P o	-0.3940556
-1.087939	P r	-1.399684
-1.699759	P u	-0.5193083
-1.872957	P y	-0.3391132
-0.7594018	Q a	-0.5942406
-0.1908145	Q i	-1.190588
-0.7594018	Q u
-1.33493	R .	-0.3610762
-1.382217	R </s>
-2.63749	R B
-1.769295	R C	-0.305822
-2.63749	R E
-2.63749	R M
-1.257278	R O	-1.028589
-1.407041	R S	-1.224771
-2.63749	R T
-0.9299195	R a	-0.5840614
-0.5511299	R e	-1.153319
-1.769295	R h	-0.3279223
-1.057706	R i	-0.7133651
-0.7986407	R o	-0.865386
-0.8893017	R u	-0.9195578
-2.103119	S &	-0.9199705
-0.9825453	S .	-1.226534
-1.168621	S </s>
-1.7809	S A	-1.311202
-3.103119	S C
-2.103119	S E	-1.007575
-3.103119	S F
-3.103119	S L
-1.908279	S N	-0.6626858
-1.898999	S O	-1.197449
-3.103119	S P
-1.800559	S S	-0.7476495
-1.908279	S T	-0.3380634
-0.9993156	S a	-0.630624
-1.802089	S c	-0.7048591
-1.002749	S e	-1.400131
-1.103119	S h	-0.9850588
-1.534917	S i	-0.4757923
-2.625998	S j	-0.5812098
-1.800559	S k	-0.3468989
-1.824366	S l	-1.268385
-2.103119	S m	-0.9247019
-2.234925	S n
-0.9358019	S o	-1.045907
-1.47987	S p	-1.27303
-0.8675908	S t	-1.946842
-1.296939	S u	-0.7740414
-3.103119	S w
-1.688146	S y	-0.9290417
-1.908279	S z	-0.4689113
-2.037061	T .	0.06585019
-1.583037	T </s>
-2.428135	T A
-1.727041	T B	-0.8967775
-2.905256	T C
-2.428135	T E
-2.037061	T F	-0.3308542
-1.727041	T J	-0.8917435
-2.905256	T N
-1.710415	T O	-0.5913361
-2.905256	T U
-1.826075	T V	-1.032605
-2.905256	T W
-0.3489535	T a	-1.449658
-1.261803	T e	-1.181116
-0.8758723	T h	-1.727904
-1.314191	T i	-0.8945385
-1.252043	T o	-0.7635777
-1.079181	T r	-1.561549
-1.905256	T s	-0.9737702
-1.826075	T u	-1.057293
-1.727041	T w	-0.8277981
-2.905256	T y
-0.4037783	U .	-1.996841
-2.050509	U </s>
-1.448449	U A	-1.087018
-2.52763	U K
-1.62454	U N	-0.8818592
-2.52763	U P
-0.7952362	U S	-1.702076
-2.52763	U k
-1.332789	U m	-0.5968244
-0.5733874	U n	-1.454023
-2.52763	U p
-1.659435	U r
-2.52763	U s
-2.52763	U t
-1.659435	U z
-0.9927008	V </s>
-0.8770413	V A	-0.5918643
-1.203687	V I
-0.8957908	V O	-1.17302
-0.8957908	V a	-0.9823517
-1.071882	V e	-0.9503865
-0.9927008	V i	-0.4613634
-0.8770413	V l	-0.6317015
-0.8957908	V o	-0.5511023
-1.46812	W .	-0.6968684
-2.104942	W 2	-0.3574224
-1.279503	W </s>
-2.582063	W A
-1.387223	W I	-0.5909346
-2.582063	W R
-1.403848	W W	-0.8813376
-0.4614894	W a	-1.076474
-0.7827228	W e	-1.257297
-1.326791	W h	-1.180994
-1.259844	W i	-0.7148342
-0.8338754	W o	-0.9926993
-1.403848	W r	-0.8377474
-1.678973	W u	-0.8578788
-1.845098	X A
-1.845098	X e
-0.06694679	X i	-1.566527
-0.9769033	X u
-1.556687	Y .	0.06585019
-2.424882	Y P
-2.424882	Y S
-2.424882	Y U
-0.8016323	Y a	-0.926941
-0.4610938	Y e	-1.312149
-1.470639	Y i	-0.7851984
-0.6053377	Y o	-1.531288
-0.7621238	Y u	-1.013484
-1.218944	Z a	-0.9432434
-0.6680363	Z e	-1.474763
-0.3878564	Z h	-1.160955
-1.270096	Z i	-0.9481695
-0.8706262	Z o	-0.6297551
-0.9783456	Z s	-0.6891949
-1.696065	Z u	-0.1948368
-0.3103093	` </s>
-0.3103093	` `	-0.4070252
-2.62922	a '	-0.5709422
-3.824061	a -
-2.744879	a .	-0.6943278
-0.8756477	a </s>
-3.34694	a a	-0.1689349
-1.832835	a b	-0.95108
-1.734156	a c	-0.840632
-1.510193	a d	-0.9113497
-1.748514	a e	-1.560696
-2.200811	a f	-0.7621703
-1.874671	a g	-1.491101
-2.255859	a h	-0.8072177
-1.112254	a i	-1.536723
-2.645846	a j	-0.5050439
-2.038731	a k	-0.6744663
-1.074324	a l	-1.506266
-1.485604	a m	-0.7086753
-0.5721793	a n	-0.7460088
-1.926434	a o	-0.9671917
-1.730639	a p	-1.034202
-1.850933	a q	-0.7313355
-1.11991	a r	0.0387872
-1.412441	a s	-1.054183
-1.154744	a t	-1.546978
-1.879578	a u	-0.9191568
-1.899781	a v	-0.327359
-2.523031	a w	-0.451266
-2.782668	a x	-0.4677291
-1.778738	a y	-1.151216
-2.267758	a z	-1.0804
-0.9964402	b </s>
-0.8293038	b a	-0.7938628
-1.540508	b b	-0.5204104
-1.818442	b d	-0.1382535
-0.7835463	b e	-0.9709687
-2.686636	b h
-0.7521378	b i	-1.270856
-1.073852	b l	-1.13939
-2.686636	b m
-1.508421	b n	-0.395106
-1.053168	b o	-1.467645
-1.572693	b r	-1.041736
-1.508421	b s	-0.5610498
-1.239478	b u	-0.9387753
-1.783546	b w	-0.929312
-1.607455	b y	-0.5686792
-1.626884	c .	-1.126993
-1.090177	c </s>
-2.158362	c C	-0.6616457
-1.963522	c G	-0.1939604
-2.290168	c L	-0.2687974
-1.963522	c M	-0.6294841
-2.290168	c N	-0.27138
-3.158362	c S
-0.6698118	c a	-1.906446
-1.963522	c b	-0.6208597
-2.20412	c c	-0.8341877
-3.158362	c d
-0.9253664	c e	-1.53193
-0.8382162	c h	-0.1487527
-0.9940096	c i	-1.831269
-1.239284	c k	-1.016879
-2.20412	c l	-0.387586
-3.158362	c m
-1.218843	c o	-0.8079189
-1.50515	c r	-1.466621
-1.796635	c s	-1.190111
-1.567298	c t	-1.301318
-1.667001	c u	-1.345815
-1.425969	c y	-1.246586
-2.145783	d .	-0.582925
-0.4116059	d </s>
-0.8496057	d a	-0.8930287
-2.231831	d b
-2.321874	d c	-0.740582
-1.456573	d d	-0.8665757
-0.9210488	d e	-1.581151
-2.321874	d g	-0.7419044
-2.196936	d h	-0.4541654
-1.145783	d i	-0.9449601
-1.797466	d l	-0.6377413
-2.321874	d m	-0.4196512
-1.921811	d n	-0.810736
-1.213535	d o	-1.060085
-3.100026	d p
-1.466557	d r	-1.053088
-1.757603	d s	-1.191734
-2.622905	d t
-1.622904	d u	-0.6576204
-2.231831	d v	-0.1275627
-2.058633	d w	-0.7083178
-1.652868	d y	-0.6603206
-2.231831	d z	-0.3209129
-2.911474	e '	-0.3452068
-3.779669	e .
-0.5406196	e </s>
-2.477108	e C	-0.6367238
-3.302547	e L	-0.5292993
-1.414181	e a	-1.478288
-2.364695	e b	-0.5193691
-1.801945	e c	-1.270094
-1.512497	e d	-0.7449632
-1.581012	e e	-1.480441
-2.54922	e f	-0.7571956
-2.156419	e g	-0.6551581
-2.665725	e h	-0.4549225
-1.63045	e i	-1.039077
-2.477108	e j	-0.3241538
-2.417941	e k	-0.3540303
-1.279981	e l	-0.9361869
-1.575549	e m	-0.5667332
-0.9667553	e n	-0.7671866
-1.953594	e o	-0.7382165
-1.84517	e p	-1.28009
-3.779669	e q
-0.8931779	e r	-0.9222459
-0.9674239	e s	-1.448089
-1.539119	e t	-0.4181835
-2.437246	e u	-0.6048625
-1.865855	e v	-0.7096938
-1.457449	e w	-0.9010135
-2.211467	e x	-0.4903474
-2.031481	e y	-0.9613506
-2.417941	e z	-0.9286689
-1.436682	f .	-0.486015
-0.5214756	f </s>
-1.123536	f a	-0.5743761
-2.614897	f c
-1.096383	f e	-0.6311253
-1.002113	f f	-0.6717564
-1.711807	f g	-0.9174182
-1.096383	f i	-0.7620408
-2.614897	f k
-1.420056	f l	-0.5111853
-2.614897	f m
-1.746702	f n	-0.3168628
-0.8590224	f o	-1.151677
-1.234686	f r	-0.8256524
-1.336144	f t	-1.126534
-2.067655	g -	-1.134045
-0.3730501	g </s>
-1.289504	g a	-0.491014
-2.345588	g b
-2.259541	g c	-0.9318956
-2.134602	g d	-0.7168794
-1.096512	g e	-0.9802847
-3.213783	g f
-1.657481	g g	-1.179471
-1.089932	g h	-1.307236
-1.766625	g i	-0.3864784
-2.259541	g j	-0.5794263
-2.018943	g k	-0.115318
-1.611723	g l	-1.304631
-2.009663	g m	-1.078627
-1.891564	g n	-0.767492
-1.381274	g o	-0.8421165
-3.213783	g p
-1.669715	g q	-1.347818
-1.294705	g r	-1.620555
-1.93503	g s	-0.5799274
-1.435632	g t	-1.755583
-1.48139	g u	-1.202441
-2.345588	g w
-2.172391	g x	-0.9922675
-1.78242	g y	-0.1660564
-1.911223	g z	-0.697993
-0.8792799	h </s>
-0.9000635	h a	-1.01336
-2.190944	h b	-0.5618275
-2.271842	h d	-1.079928
-0.4854178	h e	-1.444732
-0.6955889	h i	-1.007432
-2.181665	h l	-0.2268496
-2.431542	h m	-0.8524874
-1.829482	h n	-1.01801
-1.281981	h o	-0.6855918
-3.385785	h q
-1.987845	h r	-0.8402895
-2.20757	h s	-0.6935561
-1.451287	h t	-1.533722
-1.224417	h u	-1.193165
-2.51759	h w	-0.05799854
-2.043362	h y	-0.7843015
-2.525897	i '	-0.6678522
-3.243617	i -
-1.103738	i </s>
-0.9595622	i a	-1.540159
-2.152536	i b	-0.7662762
-0.9787989	i c	-1.358078
-1.695432	i d	-0.8117709
-1.533217	i e	-0.7421611
-1.980375	i f	-0.8484888
-1.603467	i g	-1.318461
-2.679345	i h	-0.6351869
-2.817648	i i	-0.881767
-2.04864	i j	-0.9962516
-2.322798	i k	-0.2868118
-1.372433	i l	-0.6869182
-1.857415	i m	-0.778782
-0.6131889	i n	-0.6149896
-1.25984	i o	-2.142673
-1.988344	i p	-0.5672052
-3.720738	i q
-1.781219	i r	-0.7910874
-1.20619	i s	-0.6470944
-1.125242	i t	-0.7632647
-2.465466	i u	-1.155521
-2.107954	i v	-0.539703
-1.252391	i w	-2.175121
-2.817648	i x	-0.3184605
-2.766495	i y	-0.9749233
-2.378315	i z	-0.3648137
-0.8046499	j a	-0.1016361
-1.20412	j e	-0.2894813
-0.2379782	j i	-1.296391
-2.10721	j n
-1.329059	j o	-0.293387
-1.239015	j p	-0.2287467
-1.065817	j u	-0.5861691
-0.4064956	k </s>
-2.687529	k A
-1.240371	k a	-0.5652379
-0.8614541	k e	-1.166487
-1.408775	k h	-0.5122085
-0.9551352	k i	-1.080372
-1.492688	k k	-0.115318
-1.608348	k l	-0.9953837
-1.272556	k o	-0.5310615
-2.687529	k p
-2.687529	k r
-1.15605	k s	-1.016581
-1.784439	k u	-0.5994463
-1.225131	k y	-0.9531262
-2.484181	l -
-0.7059718	l </s>
-0.843173	l a	-1.08894
-2.238432	l b	-1.02157
-1.35674	l d	-1.051584
-0.8810838	l e	-0.8701888
-2.148256	l f	-0.4608824
-1.972164	l g	-1.016227
-2.484181	l h
-0.7239866	l i	-1.286874
-2.273194	l k	-0.3635336
-1.047024	l l	-1.329532
-1.972164	l m	-0.7833261
-2.449286	l n	-0.7362149
-1.140188	l o	-1.608632
-2.310983	l p	-1.019069
-1.833862	l s	-0.8985013
-1.954435	l t	-0.7336075
-1.833862	l u	-0.8063152
-2.238432	l v	-0.08032406
-3.352376	l w
-1.495043	l y	-1.142805
-2.213186	m .	-0.486015
-0.9315842	m </s>
-2.248081	m C	-0.3342937
-0.9067606	m a	-1.176618
-1.493026	m b	-0.938631
-0.5709684	m e	-1.342486
-0.8961675	m i	-1.592927
-1.921435	m k	-0.5847769
-1.921435	m l	-0.6080953
-1.063197	m m	-1.631437
-2.338124	m n	-0.4394386
-1.070953	m o	-0.9822007
-1.392	m p	-0.541513
-3.116276	m r
-2.074883	m s	-0.3926544
-1.383882	m u	-1.145085
-2.248081	m w	-0.3313963
-1.773853	m y	-0.8759204
-2.248081	m z	-0.2180761
-2.473269	n -
-3.775829	n .
-0.4961619	n </s>
-2.907634	n D	-0.2285272
-1.177038	n a	-0.9660966
-2.872739	n b	-0.5637838
-1.417894	n c	-1.993359
-1.354225	n d	-0.806673
-1.118773	n e	-1.136228
-2.775829	n f	-0.5946466
-0.7488872	n g	-0.8803224
-2.019954	n h	-0.8720335
-1.080347	n i	-1.165512
-2.629701	n j	0.008314997
-1.962915	n k	-0.5969152
-2.497075	n l	-0.7305388
-2.433406	n m	-0.905575
-1.798105	n n	-1.611998
-1.997678	n o	-0.8338248
-2.580988	n q	-0.5563025
-2.821586	n r	-0.8957112
-1.423646	n s	-0.7643779
-1.219526	n t	-1.466589
-2.377889	n u	-0.9508741
-2.377889	n v	-0.84171
-3.775829	n w
-2.661885	n x	-1.059214
-1.84133	n y	-0.9058439
-2.433406	n z	-0.6352983
-2.414754	o '	-0.6665915
-2.655352	o -	-0.3238489
-2.247867	o .	-0.9631362
-1.128152	o </s>
-2.414754	o R	-0.6446791
-2.053292	o a	-1.097095
-1.902024	o b	-0.8965647
-1.479261	o c	-1.270386
-1.758336	o d	-0.1461363
-2.405474	o e	-0.2719026
-1.596757	o f	-1.790637
-2.118233	o g	-0.4873514
-2.09108	o h	-0.7672274
-2.530413	o i	-0.5699642
-2.495651	o j	-0.3928339
-2.078115	o k	-0.43358
-1.427751	o l	-0.4271633
-1.324037	o m	-0.7302686
-0.5384491	o n	-1.08583
-1.7175	o o	-0.7790241
-1.877201	o p	-0.8628895
-3.609594	o q
-0.8081907	o r	-0.6456425
-1.203054	o s	-1.417802
-1.770745	o t	-0.6955393
-1.055711	o u	-1.604926
-1.695781	o v	-0.6339731
-1.810254	o w	0.06364196
-2.655352	o x	-0.5964354
-2.247867	o y	-1.338114
-2.307034	o z	-0.5991154
-1.303505	p .	-1.121254
-1.069421	p </s>
-0.6095266	p a	-1.156177
-2.847573	p b
-0.90309	p e	-1.106822
-1.485845	p h	-0.2925716
-1.279371	p i	-0.3887736
-2.847573	p k
-1.568819	p l	-0.9164948
-1.768391	p m	-0.8199584
-1.015064	p o	-1.009666
-1.370451	p p	-0.8235256
-1.084145	p r	-1.591165
-1.545013	p s	-0.5273529
-1.485845	p t	-1.067595
-1.316094	p u	-0.8964712
-1.545013	p y	-0.2377589
-2.847573	p z
-0.3912066	q </s>
-2.20412	q a
-1.009279	q e	-0.6874213
-0.4187902	q i	-1.622238
-2.20412	q t
-1	q u	-1.19032
-3.551206	r .
-1.004663	r </s>
-0.7553259	r a	-0.8970745
-1.994903	r b	-0.9659209
-1.818812	r c	-1.235393
-1.611687	r d	-0.9536553
-0.8951077	r e	-0.9206699
-2.509813	r f	-0.7733555
-1.86101	r g	-1.027771
-3.551206	r h
-0.8548496	r i	-1.168046
-1.538369	r k	-1.021779
-1.534173	r l	-1.605671
-1.632128	r m	-1.268084
-1.325897	r n	-1.569231
-1.218768	r o	-0.9352329
-1.852236	r p	-1.107473
-1.835203	r r	-1.381754
-1.389838	r s	-0.9199863
-1.153266	r t	-0.6982501
-1.869965	r u	-0.6517972
-1.994903	r v	-0.2219215
-2.596963	r w	-0.1212803
-2.683011	r x	-0.2643111
-1.472025	r y	-1.538919
-3.551206	r z
-3.509874	s -
-3.032753	s .	-0.184985
-0.4862104	s </s>
-1.652542	s a	-1.372164
-2.207314	s b	-0.3721692
-1.953572	s c	-0.8622721
-2.315034	s d	-0.219682
-0.933533	s e	-0.8056533
-3.509874	s f
-1.138806	s h	-1.257124
-1.345521	s i	-0.743558
-2.032753	s k	-1.041184
-1.585595	s l	-1.590605
-2.430693	s m	-0.8172399
-2.208844	s n	-1.225732
-1.395931	s o	-1.091686
-2.094901	s p	-1.146512
-2.64168	s q	-0.3054673
-1.546086	s r	-1.849454
-1.084993	s s	-1.378992
-0.8135179	s t	-1.723275
-1.646551	s u	-1.019899
-3.509874	s v
-2.207314	s w	-0.3730095
-2.731723	s y	-0.3592906
-2.64168	s z	-0.3103198
-2.679949	t -
-2.369929	t .	-0.486015
-0.7721693	t </s>
-1.11678	t a	-1.197816
-2.679949	t b	-0.325454
-2.468962	t c	-0.5182191
-2.506751	t d	-0.8611104
-0.8988088	t e	-1.291269
-3.548144	t f
-3.548144	t g
-0.7049109	t h	-1.497522
-0.8535385	t i	-1.310679
-3.548144	t k
-2.150204	t l	-1.275318
-2.042994	t m	-1.012038
-2.245584	t n	-0.6823514
-1.108811	t o	-1.175867
-1.374957	t r	-1.829007
-1.440934	t s	-1.32243
-1.53111	t t	-1.07642
-1.66733	t u	-1.07722
-2.26939	t w	-1.21352
-1.447773	t y	-1.617996
-2.292871	t z	-0.6349412
-1.004948	u </s>
-1.985689	u S	-0.7326981
-1.14837	u a	-1.069257
-1.482069	u b	-0.9666176
-1.890309	u c	-1.14321
-1.468705	u d	-0.4383737
-1.665	u e	-0.7657868
-2.420054	u f
-1.572246	u g	-1.109448
-2.0578	u h	-1.172023
-1.436991	u i	-0.9389752
-3.288249	u j
-1.985689	u k	-0.0446457
-1.369171	u l	-0.9652211
-1.731947	u m	-0.6154892
-0.8800092	u n	-0.6019912
-1.75677	u o	-0.8877686
-1.495857	u p	-1.132153
-3.288249	u q
-0.8536803	u r	-1.171166
-0.8395429	u s	-1.639531
-1.184446	u t	-0.6488371
-2.110034	u u	-0.8450721
-2.093409	u w	-0.4057437
-1.985689	u x	-0.7213741
-2.811128	u y	-0.194208
-1.985689	u z	-0.6601128
-1.033858	v </s>
-1.139662	v a	-0.7865617
-0.455932	v e	-1.635781
-0.3952341	v i	-1.249774
-2.60206	v m
-1.733865	v n
-1.522879	v o	-0.710136
-2.60206	v r
-1.560667	v y	-0.5933738
-0.7586091	w </s>
-0.3089765	w a	-1.577244
-1.253459	w e	-0.5890962
-2.855519	w h
-1.350369	w i	-1.194682
-1.552959	w l	-0.3070653
-2.855519	w m
-1.62507	w n	-1.063662
-1.408361	w o	-1.372912
-1.987324	w p	-0.3071093
-0.9261003	w s	-1.752786
-2.855519	w t
-1.987324	w y	-0.3396042
-2.30963	x -
-0.9116902	x </s>
-0.8624721	x a	-1.365272
-1.131415	x c	-0.8349856
-1.114789	x e	-0.320519
-1.195687	x f	-1.081459
-2.30963	x h
-0.7414284	x i	-0.6625081
-1.114789	x l	-0.6377413
-1.114789	x o	-0.5505739
-1.131415	x p	-0.8009825
-2.30963	x s
-1.114789	x t	-0.1992805
-1.832509	x u	-0.1325843
-2.30963	x w
-2.30963	x x
-0.1718125	y </s>
-2.958564	y D
-1.37878	y a	-0.5111079
-1.656004	y d	-0.5276186
-1.578353	y e	-0.5038677
-2.958564	y h
-1.481443	y i	-1.03142
-2.958564	y k
-1.917171	y l	-0.6817161
-1.596836	y m	-0.7858211
-1.728115	y n	-0.4614901
-1.560624	y o	-0.7287204
-1.812436	y p	-1.166976
-1.728115	y r	-0.8640763
-1.414496	y s	-0.6943995
-1.763723	y t	-0.5668674
-1.844621	y u	-0.5501897
-1.917171	y w	-1.061881
-0.9079973	z </s>
-0.5783222	z a	-0.8193392
-1.055579	z b	-0.5618275
-1.0463	z e	-0.5390719
-2.25042	z g
-0.7732987	z h	-0.6677685
-1.171239	z i	-0.134026
-2.25042	z m
-1.171239	z o	-0.379321
-2.25042	z s
-1.296178	z u	-0.9447469
-1.382225	z w	-0.3262943
-1.773299	z z	-0.5717481

\3-grams:
-0.01472326	<s> " </s>
-0.01930515	<s> & </s>
-0.2560402	A & E	-0.4425822
-0.04139268	S & P	0
-0.1249387	' ' </s>
-1.718778	<s> ' '	-0.0534114
-1.350802	<s> ' </s>
-0.0315468	<s> ' s	0
-0.09691001	N ' </s>
-1.101138	O ' B	-0.4425822
-0.146128	O ' C	0
-0.1249387	a ' a	-0.4513514
-0.2560402	e ' e	-0.5933431
-0.09691001	i ' a	-0.3032031
-0.09691001	o ' c	0.09473688
-0.1249387	<s> ( </s>
-0.1249387	<s> ) </s>
-0.03476211	<s> , </s>
-0.2560402	- - </s>
-2.048432	<s> - -	-0.4425822
-0.007061854	<s> - </s>
-0.447158	g - c	-0.2032043
-0.30103	g - h	0.4884866
-1.101138	g - k	-0.4425822
-0.2552725	o - h	-0.536419
-0.03778856	<s> . </s>
-0.3357921	A . </s>
-0.3357921	A . T	0.2852632
-0.3357921	B . </s>
-0.3357921	B . A	0.3944077
-0.1760913	C . </s>
-0.06694679	D . </s>
-1.101138	D . C	-0.4425822
-0.05799195	E . </s>
-0.4321314	G . </s>
-0.05115252	H . </s>
-0.1760913	J . </s>
-0.7331614	J . B	-0.4425822
-0.2218488	L . </s>
-0.2560402	M . </s>
-0.2108534	N . </s>
-0.6368221	N . J	0.2460161
-1.068954	N . Y	-0.4425822
-0.07918125	R . </s>
-0.01336396	S . </s>
-2.075584	S . A	0.1604355
-0.2560402	T . </s>
-1.424882	U . N	-0.2701511
-0.02004792	U . S	0
-0.03476211	W . </s>
-0.2560402	Y . </s>
-0.07918125	a . </s>
-1.034191	a . m	0.1604355
-0.01258913	c . </s>
-0.04575749	d . </s>
-0.05799195	f . </s>
-0.05799195	m . </s>
-0.01848341	o . </s>
-0.0939045	p . </s>
-0.7781513	p . m	0.3366711
-0.1249387	s . </s>
-0.05799195	t . </s>
-0.05799195	<s> / </s>
-0.07918125	0 0 </s>
-0.4771213	1 0 :	-0.0534114
-0.2552725	1 0 </s>
-0.146128	: 0 0	-0.2701511
-0.06694679	1 1 </s>
-0.4771213	<s> 1 0	0.09670197
-0.60206	<s> 1 1	0.2275266
-0.90309	<s> 1 5	-0.0534114
-0.6812412	<s> 1 9	-0.0687063
-0.09691001	5 2 </s>
-1.068954	<s> 2 1
-0.6368221	<s> 2 4	-0.0534114
-0.2688453	<s> 2 :	0.1823884
-0.1249387	W 2 </s>
-0.1249387	6 3 </s>
-0.1249387	2 4 </s>
-0.2560402	: 4 5	-0.4425822
-0.1249387	1 5 </s>
-0.2560402	4 5 </s>
-0.09691001	: 5 2	0.09473688
-0.1249387	8 6 3	-0.0534114
-0.2560402	9 6 7	-0.4425822
-0.1249387	<s> 6 </s>
-0.2560402	6 7 </s>
-0.2560402	8 7 </s>
-0.1249387	<s> 8 6	-0.0534114
-0.6539802	1 9 6	-0.4425822
-0.1249387	0 : 0	-0.1114033
-0.20412	2 : 5	0.2999448
-0.2560402	6 : 0
-0.2560402	<s> ? </s>
-0.05115252	. A .	0.5063539
-2.784314	<s> A &	-0.4425822
-2.227244	<s> A .	-0.3353878
-1.625184	<s> A B	-0.4425822
-2.227244	<s> A G	0.2209466
-2.784314	<s> A M	-0.4425822
-1.449093	<s> A N	0
-2.784314	<s> A a	-0.4425822
-1.467576	<s> A b	0.02104611
-1.829304	<s> A c	0.1349994
-1.829304	<s> A d	0.1063093
-2.051152	<s> A e	0.2852632
-1.337942	<s> A f	0.05270314
-1.21652	<s> A g	0.2999449
-1.625184	<s> A i	0
-1.01639	<s> A l	0.4417534
-0.7289332	<s> A m	0.01719476
-1.036912	<s> A n	0.1458699
-1.787911	<s> A p	-0.15558
-0.8039979	<s> A r	0.3765801
-1.088941	<s> A s	-0.006894417
-1.71536	<s> A t	0.1146135
-1.528274	<s> A u	0.06036671
-1.926214	<s> A v	0.3209237
-1.71536	<s> A x	0
-0.5642715	B A </s>
-0.1962947	B A D	0.09690775
-0.07918125	G A F	-0.2701511
-0.2560402	I A </s>
-0.07918125	L A </s>
-0.6539802	N A S	-0.7702411
-0.2218488	N A T	-0.0534114
-0.02482358	O A </s>
-0.02632894	P A S	-0.6071996
-0.5642715	S A </s>
-0.1663314	S A R	0.02632894
-0.5118834	U A </s>
-0.2108534	U A L	0
-0.1249387	V A C	-0.2575314
-0.2560402	' B r	-0.502117
-0.2560402	. B .	-0.5249617
-1.753583	<s> B .	0.53689
-1.850493	<s> B B	0
-0.6672232	<s> B a	-0.04073342
-0.6891251	<s> B e	0.4210143
-1.248433	<s> B i	0.3209235
-1.908485	<s> B l	0.08818243
-0.9542425	<s> B o	0.2384931
-0.7993405	<s> B r	0.09772768
-0.6966782	<s> B u	-0.15558
-2.276462	<s> B y	-0.15558
-1.15913	A B A	-0.6555043
-0.05799195	A B C	0.6368221
-0.05115252	B B C	0.8586709
-0.09691001	C B S	0.09473688
-1.185459	F B </s>
-0.05435766	F B I	0
-0.01021917	N B C	0.1794449
-0.05799195	T B A	-0.3668495
-0.04139268	' C o	-0.9292837
-0.2560402	. C .	-0.3166857
-2.458638	<s> C .	0.2408358
-2.458638	<s> C B	0.09473688
-2.106455	<s> C C	-0.6232493
-3.015708	<s> C I	-0.4425822
-1.91457	<s> C N	0
-1.043664	<s> C a	0.3789324
-1.569336	<s> C e	0
-0.3969969	<s> C h	0.03985379
-1.69897	<s> C i	0.1918113
-1.370502	<s> C l	-0.1397178
-0.5019892	<s> C o	0.2076855
-1.361728	<s> C r	0.25336
-1.645725	<s> C u	0.01198704
-2.282547	<s> C z	0.2852632
-0.2218488	A C R	-0.0534114
-0.006733383	B C </s>
-0.39794	C C </s>
-0.2730013	C C P	0
-0.2560402	D C </s>
-0.04575749	E C </s>
-0.07918125	F C C	-0.8264536
-0.1249387	L C </s>
-0.4321314	M C O	-0.5933431
-0.01772877	N C </s>
-0.02020339	O C </s>
-0.2560402	R C </s>
-0.09691001	c C a	-0.5372697
-0.07918125	e C o	-0.9361934
-0.2560402	m C l	-0.7844434
-1.49884	<s> D .	-0.4103975
-2.567794	<s> D C	-0.4425822
-2.567794	<s> D L	-0.4425822
-1.834633	<s> D P	0.2852632
-0.5753574	<s> D a	-0.0884333
-0.4922099	<s> D e	0.6580768
-0.9315426	<s> D i	0.1010462
-0.7867091	<s> D o	0.3594784
-1.533603	<s> D r	0.5229082
-1.571391	<s> D u	0.1388298
-2.010724	<s> D y	0.2209466
-0.05799195	A D </s>
-0.2560402	n D a	-0.7894456
-0.2560402	& E </s>
-1.562293	<s> E .	0.3432551
-1.085172	<s> E a	-0.154869
-1.641474	<s> E c	-0.2701511
-1.194316	<s> E d	0.2576312
-1.085172	<s> E g	0.1461609
-1.562293	<s> E h	0.2852632
-0.9602329	<s> E l	0.5068095
-1.495346	<s> E m	0.3666874
-0.8633229	<s> E n	0.0565659
-1.437354	<s> E q	0
-1.226501	<s> E r	-0.4425822
-1.495346	<s> E s	0.01388066
-1.738384	<s> E t	0.09473688
-0.9254708	<s> E u	-0.4425823
-1.386202	<s> E v	0.4105661
-1.085172	<s> E x	0.1930564
-0.2560402	P E N	-0.4425822
-0.9550102	S E </s>
-0.09691001	S E C	0.04575749
-1.357935	<s> F B	-0.2747011
-1.835056	<s> F C	-0.2701511
-0.9542425	<s> F a	0.1195016
-1.028876	<s> F e	0.2671382
-0.7079513	<s> F i	0.6110615
-0.8808136	<s> F l	0
-0.7631741	<s> F o	-0.06870626
-0.7015172	<s> F r	0.004166997
-1.454845	<s> F u	0.4897831
-0.07918125	A F </s>
-0.1249387	G F </s>
-0.2560402	T F B	-0.7645053
-2.09108	<s> G .	-0.15558
-1.869232	<s> G A	-0.2701511
-1.665112	<s> G M	0.1597008
-0.7828719	<s> G a	0.1682189
-0.7293527	<s> G e	-0.1555798
-1.966142	<s> G h	-0.09525124
-1.454258	<s> G i	-0.1461654
-1.364082	<s> G l	0.5590984
-0.7108693	<s> G o	-0.04339458
-0.6873881	<s> G r	0.0112808
-0.9661418	<s> G u	0.1639404
-0.1249387	A G F	-0.0534114
-0.09691001	M G M	0.5097103
-0.5570702	c G r	-0.7146258
-0.5570702	c G u	-0.7146258
-1.788875	<s> H .	0
-0.7051933	<s> H a	0.2145244
-1.173451	<s> H e	0.7817726
-1.200603	<s> H i	0.07453549
-0.3676826	<s> H o	0.1765776
-1.311754	<s> H s	0
-0.7781513	<s> H u	0.4061608
-2.214844	<s> H y	-0.0534114
-2.147161	<s> I </s>
-1.779184	<s> I I	0.5206714
-1.478154	<s> I R	0
-2.022222	<s> I b	0.09473688
-2.579292	<s> I c
-2.579292	<s> I g	-0.4425822
-2.147161	<s> I k	-0.0534114
-1.721192	<s> I l	0.05965947
-1.582889	<s> I m	-0.4425821
-0.4907432	<s> I n	-0.1555797
-0.5868556	<s> I r	0.4277306
-0.6286469	<s> I s	0
-1.478154	<s> I t	0
-2.022222	<s> I v	0.09473688
-0.02802872	B I </s>
-0.2560402	C I A	-0.4425822
-0.146128	I I </s>
-0.6690068	I I I	-0.1114033
-0.1249387	M I </s>
-0.1249387	W I I	-0.1114033
-0.1249387	. J .	0.1210774
-2.049218	<s> J .	0.1210774
-0.4435539	<s> J a	0.1753681
-0.9700368	<s> J e	0.2847967
-0.7269987	<s> J i	-0.15558
-0.651278	<s> J o	0.4733005
-0.9581376	<s> J u	0.16058
-0.05799195	T J </s>
-1.502675	<s> K M	0
-0.9420081	<s> K a	0.08054306
-0.8908556	<s> K e	-0.1419473
-1.942008	<s> K h	0.09473688
-1.589826	<s> K i	-0.05834897
-2.499078	<s> K l
-0.2239218	<s> K o	-0.09093716
-2.066947	<s> K r	-0.0534114
-1.367977	<s> K u	0.06662479
-1.69897	<s> K w	0.09690775
-2.499078	<s> K y	-0.4425822
-0.0234811	O K </s>
-1.827369	<s> L .	0.1243751
-2.049218	<s> L A	0.1226799
-0.7859766	<s> L a	0.0742164
-0.7339476	<s> L e	0.3030356
-0.5135021	<s> L i	0.2439228
-0.7339476	<s> L o	-0.04729122
-1.484947	<s> L t	0
-1.128399	<s> L u	0.292572
-1.572097	<s> L y	0.4756738
-0.05115252	A L </s>
-0.2560402	D L C	-0.191747
-0.5570702	P L A	-0.01565577
-0.2560402	c L o	-0.7367685
-0.1249387	e L a	-0.6324061
-2.700865	<s> M .	-0.4425822
-2.700865	<s> M </s>
-2.268734	<s> M C	-0.15558
-2.143795	<s> M G	0.09473688
-1.967704	<s> M M	0.1896267
-2.143795	<s> M S	-0.3032031
-0.4978819	<s> M a	0.230587
-1.384127	<s> M c	0.1159642
-1.154791	<s> M e	0.02542082
-0.5471981	<s> M i	0.389527
-0.8013725	<s> M o	-0.05061937
-1.073757	<s> M u	0.3508902
-2.268734	<s> M y
-0.2560402	A M R	-0.4425822
-0.03476211	G M </s>
-0.03778856	K M T	0
-0.3679768	M M I	-0.0534114
-0.3679768	M M S	-0.4513514
-0.1249387	P M </s>
-0.09691001	c M o	-0.5851402
-0.07918125	. N .	-0.633329
-2.0086	<s> N '	0.09473688
-1.70757	<s> N .	0.4779916
-1.91169	<s> N A	0.04351609
-1.030877	<s> N B	0.04240386
-2.56567	<s> N Y
-0.6761617	<s> N a	0.1546128
-0.3505888	<s> N e	0.04424804
-1.119298	<s> N i	-0.05257702
-0.9874108	<s> N o	0.06662479
-1.832509	<s> N u	0.1696288
-0.01772877	A N C	0
-0.02996322	C N N	0
-0.2560402	E N </s>
-0.02996322	N N </s>
-0.09691001	S N B	1.029235
-0.05799195	U N </s>
-0.2560402	c N a	-0.7736036
-0.9402318	<s> O '	-0.09525122
-2.04137	<s> O P	-0.5933431
-1.609239	<s> O S	-0.0534114
-2.04137	<s> O a	-0.4425822
-2.04137	<s> O b
-1.38739	<s> O c	0.04351609
-0.8822398	<s> O f	0
-1.18327	<s> O h	0
-1.609239	<s> O k	-0.0534114
-0.9724165	<s> O l	0.1146135
-1.609239	<s> O n
-1.18327	<s> O p	0.4245903
-0.9102685	<s> O r	0.1801104
-1.4843	<s> O s	0.2209466
-1.241262	<s> O v	0.08818243
-0.9724165	<s> O x	0
-0.4321314	C O A	0.4614655
-0.05799195	R O C	0
-1.335221	R O K	0.4849466
-0.02632894	S O K	0.04830468
-0.1249387	T O </s>
-0.02802872	V O A	0.05115251
-0.04139268	& P </s>
-1.444412	<s> P A	0
-2.072801	<s> P L	-0.09525124
-2.19774	<s> P M	-0.0534114
-2.629871	<s> P R	-0.5933431
-0.2964633	<s> P a	0.2900964
-0.8967099	<s> P e	0.42459
-1.243497	<s> P h	0.04351605
-1.633469	<s> P i	0.1388298
-1.560918	<s> P l	0
-1.083797	<s> P o	0.01388067
-1.021649	<s> P r	-0.4425822
-1.633469	<s> P u	0.1367817
-2.629871	<s> P y	-0.4425822
-0.05115252	C P </s>
-0.06694679	D P P	0.2852632
-0.4321314	O P E	-0.4425822
-0.06694679	P P </s>
-1.224015	<s> Q a	0.2209466
-0.06264681	<s> Q i	0.02104612
-1.224015	<s> Q u
-1.858537	<s> R .	-0.2701511
-1.195779	<s> R O	-0.7509508
-0.8854094	<s> R a	0.04230335
-0.4711474	<s> R e	0.2325764
-2.512517	<s> R h	-0.4425822
-0.9777236	<s> R i	0.1181871
-0.7249983	<s> R o	0.1461622
-0.8093192	<s> R u	0.3741716
-0.02632894	A R </s>
-0.1249387	C R S	0.5998011
-0.02996322	I R S	0.07918125
-0.2560402	M R </s>
-0.4321314	P R C	-0.4425822
-0.09691001	o R a	-0.5687608
-0.6539802	- S a
-0.6539802	- S o
-0.003406249	. S .	-0.5852898
-1.972203	<s> S &	0
-2.273233	<s> S .	1.176232
-1.796112	<s> S A	-0.7067953
-2.01796	<s> S E	-0.2552725
-2.927213	<s> S S	-0.01565577
-0.8752928	<s> S a	0.09814587
-1.671173	<s> S c	0.427789
-0.8894175	<s> S e	0.244489
-0.9722028	<s> S h	-0.09525113
-1.404001	<s> S i	0.07210038
-2.495082	<s> S j	-0.0534114
-2.273233	<s> S k	0.1243751
-1.693449	<s> S l	0
-1.972203	<s> S m	-0.4425821
-2.927213	<s> S n
-0.8108348	<s> S o	-0.07387459
-1.348954	<s> S p	0.7729139
-0.7392067	<s> S t	0.4285735
-1.166023	<s> S u	-0.1895652
-1.55723	<s> S y	-0.1240745
-2.370143	<s> S z	0.2209466
-1.277229	A S A	-0.6555043
-0.1180993	A S O	0
-0.09691001	B S </s>
-0.4259687	M S </s>
-0.30103	M S N	0.09473688
-0.4321314	N S </s>
-0.1249387	O S S	0.1226799
-0.02482358	R S </s>
-0.07918125	S S </s>
-0.04139268	U S </s>
-1.138303	U S A	-0.4659304
-0.07918125	u S e	-1.01239
-0.06694679	. T </s>
-2.813547	<s> T .	-0.4425822
-2.013439	<s> T B	0.09690775
-2.813547	<s> T F	-0.4425822
-2.013439	<s> T J	0.09690775
-1.858537	<s> T V	0.07918123
-0.3022347	<s> T a	0.06691043
-1.215085	<s> T e	0.2358287
-0.8291534	<s> T h	0.001866295
-1.267473	<s> T i	0.2002075
-1.205325	<s> T o	0.3815415
-1.032462	<s> T r	0
-1.858537	<s> T s	0.2061711
-1.779356	<s> T u	-0.4425821
-2.013439	<s> T w	0.4237644
-0.1249387	A T O	-0.0534114
-0.2560402	D T </s>
-0.03778856	M T </s>
-0.5570702	S T </s>
-0.5570702	S T A
-0.3707878	<s> U .	0.1638577
-1.41218	<s> U A	0.03258886
-1.588272	<s> U N	0.3209237
-0.7589679	<s> U S	0.005796022
-1.889302	<s> U m	0.2209466
-0.5371192	<s> U n	-0.0952512
-2.446372	<s> U r
-2.446372	<s> U z
-1.409369	<s> V A	-0.0534114
-1.841501	<s> V I
-0.7103994	<s> V O	0
-0.7103994	<s> V a	0.4882134
-0.8864907	<s> V e	0
-0.8073095	<s> V i	0.0554
-1.284431	<s> V l	0.09473688
-0.7103994	<s> V o	-0.15558
-0.03778856	T V </s>
-1.438015	<s> W .	0.03476212
-1.915136	<s> W </s>
-1.672098	<s> W W	0.2776332
-0.396622	<s> W a	-0.04548122
-0.7178553	<s> W e	0.4989085
-1.261923	<s> W h	0
-1.194977	<s> W i	-0.0952512
-0.7768332	<s> W o	-0.1162491
-1.672098	<s> W r	0.09690775
-1.614106	<s> W u	0.3209237
-0.4259687	W W 2	-0.0534114
-0.30103	W W I	0.2209466
-0.0211893	<s> X i	0.4245901
-1.754351	<s> X u
-0.2560402	. Y .	-0.4425822
-0.7849907	<s> Y a	0.0867403
-0.4444521	<s> Y e	0.0596595
-1.453997	<s> Y i	0.3244016
-0.588696	<s> Y o	0.1696284
-0.7454821	<s> Y u	0.1277477
-1.135663	<s> Z a	0.3445284
-0.5847551	<s> Z e	0
-0.3045753	<s> Z h	0.4300084
-1.186815	<s> Z i	0
-1.390935	<s> Z o	-0.2701511
-1.487845	<s> Z s	0.09473688
-1.612784	<s> Z u	-0.15558
-0.09691001	<s> ` `	0.09473688
-0.09691001	` ` </s>
-0.4259687	' a l	-0.4559634
-0.30103	' a n	-0.2848254
-1.950645	<s> a .	-0.7516876
-0.819544	<s> a </s>
-1.041393	<s> a b	-0.9172589
-1.950645	<s> a c
-1.092545	<s> a f	-0.8361432
-1.950645	<s> a g	-0.6368087
-0.8495072	<s> a l	-0.4694988
-0.3621667	<s> a n	-0.9396954
-1.950645	<s> a t
-0.2560402	A a r	-0.7851382
-1.38739	B a d	-0.3000018
-0.8559109	B a g	-1.089412
-2.04137	B a i
-2.04137	B a k	-0.6986732
-1.18327	B a l	-0.5496811
-0.423602	B a n	-1.60478
-2.04137	B a o
-0.7061486	B a r	-0.3073984
-1.132117	B a s	-0.3498834
-1.609239	B a x	-0.5171687
-2.004228	C a d	-0.7000479
-1.007825	C a i	-0.6551206
-0.58682	C a l	-1.354136
-0.9700368	C a m	-0.4717983
-1.146128	C a n	-0.9468856
-1.271067	C a p	-0.2802135
-0.6178542	C a r	-0.4236556
-1.447158	C a s	-0.287557
-1.350248	C a t	-0.4565228
-1.350248	C a u	-0.6690655
-2.004228	C a w	-0.723226
-1.346353	D a d	-0.3000018
-1.00393	D a i	-0.6551206
-2.000333	D a k	-0.7719052
-1.045323	D a l	-0.6389722
-0.7231037	D a n	-0.5219653
-2.000333	D a o	-0.1749335
-1.200225	D a r	-0.3316221
-1.346353	D a s	-0.347241
-2.000333	D a t	-0.7767737
-0.899195	D a v	-1.028528
-0.5682017	D a y	-0.9219024
-0.8016323	E a r	-0.6140787
-0.1026623	E a s	-1.110564
-1.534794	F a i
-0.7346855	F a n	-0.3757383
-0.9777236	F a q	-0.5853478
-0.3756636	F a r	-1.188389
-1.102662	F a s	-0.6469722
-1.18327	G a l	-0.5804085
-0.7853298	G a m	-1.010432
-1.007179	G a o	0.05903864
-0.7853298	G a r	-0.5602658
-1.308209	G a s	-0.5063028
-0.4631105	G a z	-0.7403627
-1.032529	H a d	-0.9062409
-1.141674	H a g	-0.3170417
-0.9867718	H a i	-0.3887056
-1.941782	H a k	-0.7858377
-1.50965	H a l	-0.6316467
-0.8106804	H a m	-0.7779774
-0.8728284	H a n	-0.4988005
-1.941782	H a o
-1.50965	H a p	-0.6412309
-0.5554079	H a r	-0.3763877
-1.941782	H a s	-0.6832173
-1.384712	H a w	-0.4493312
-0.667812	J a c	-1.314587
-0.8275129	J a m	-1.183335
-1.480725	J a n	-0.2143417
-0.231527	J a p	-1.376695
-1.010724	K a i	-0.328271
-1.135663	K a l	-0.6523693
-1.567794	K a n
-1.567794	K a o	-0.7769935
-1.135663	K a r	-0.3127588
-0.4988405	K a t	-0.899504
-0.6585413	K a y	-0.92316
-1.718438	L a .	-0.01565577
-0.91833	L a b	-0.7234412
-0.91833	L a d	-0.6655012
-1.718438	L a f	-0.5684977
-1.718438	L a i	-0.7409647
-1.718438	L a k	-0.6986732
-1.286307	L a n	-0.3224353
-0.91833	L a r	-0.7877734
-0.860338	L a t	-0.2993103
-1.161368	L a u	-0.3557088
-1.161368	L a w	-0.04919885
-1.286307	L a y	-0.4489975
-1.286307	L a z	-0.0534114
-1.770852	M a </s>
-0.9055506	M a c	-0.6675647
-1.344883	M a d	-0.3789455
-2.202983	M a g
-1.770852	M a h	-0.6187486
-1.770852	M a i	-0.6045296
-2.202983	M a j
-1.402875	M a l	-0.4414618
-0.9055506	M a n	0.001877904
-0.9055506	M a o	-1.190204
-0.4997852	M a r	-0.7265491
-1.645913	M a s	-0.5524489
-1.206581	M a t	-0.5803155
-1.549003	M a x	-0.1357838
-1.770852	M a y	-0.5786313
-1.342423	N a g	-0.3662218
-1.342423	N a m	-0.678067
-0.9444827	N a n	-0.6598613
-0.2120889	N a t	-1.174945
-0.8305393	N a v	-0.6762309
-1.899493	N a z	-0.6999025
-0.2560402	O a k
-1.901277	P a c	-0.6224712
-1.901277	P a k	-0.5603377
-0.2992167	P a l	-2.027622
-1.776338	P a m	-0.4589012
-1.424155	P a n	-0.05607165
-1.264455	P a p	-0.6333055
-0.6541221	P a r	-0.893896
-2.333408	P a s
-1.776338	P a t	-0.2025275
-0.9634246	P a u	-1.211157
-0.1249387	Q a e	-0.6443824
-1.230449	R a c	-0.5612015
-0.4771213	R a d	-1.13669
-1.10551	R a f	-0.5491856
-0.8624721	R a m	-0.5325129
-1.10551	R a n	-0.2848254
-1.66258	R a s	-0.6832173
-1.10551	R a t	-0.3707837
-1.10551	R a y	-0.0298116
-2.058814	S a a	-0.5933431
-1.626683	S a c	-0.3416857
-0.6888304	S a d	-1.358785
-2.058814	S a f	-0.5684977
-2.058814	S a h	-0.7027265
-1.501744	S a i	-0.3301716
-1.149561	S a l	-0.3043578
-0.8250501	S a m	-0.4156594
-0.7058637	S a n	-0.6351972
-2.058814	S a r	-0.7066568
-1.626683	S a t	-0.3726154
-0.9277124	S a u	-0.8358418
-1.325652	S a v	-0.1933557
-1.501744	S a y	-0.5273931
-2.079181	T a '	-0.0534114
-2.511313	T a c	-0.7720878
-2.511313	T a f	-0.7268602
-0.04709998	T a i	-1.748413
-1.653213	T a l	-0.3935878
-2.511313	T a m
-1.653213	T a n	-0.3184769
-2.079181	T a o	-0.6386579
-2.079181	T a s	-0.6486854
-2.079181	T a y	-0.3516824
-0.69897	V a .	0.1226799
-0.69897	V a l	-0.2690654
-0.3309932	V a n	-0.4867745
-1.131101	V a r
-1.166331	W a h	-0.5139534
-1.643453	W a k	-0.6335695
-1.120574	W a l	-0.8077779
-0.7781513	W a n	-0.9258906
-0.615424	W a r	-0.9570414
-0.4303778	W a s	-1.58838
-2.075584	W a t
-2.075584	W a y	-0.7819078
-1.146128	Y a h	-0.3428259
-0.5818566	Y a l	-0.9922028
-0.4771213	Y a n	-0.5072524
-0.5818566	Y a s	-0.9896085
-0.5228788	Z a h	-0.319321
-0.5228788	Z a l	-0.5472092
-0.5228788	Z a m	-0.3538286
-0.4321314	a a t	-0.7882031
-0.7433891	b a </s>
-0.9542425	b a b	-0.9172589
-1.255273	b a c	-0.5099632
-1.812343	b a d	-0.6947836
-1.255273	b a l	-0.4047252
-0.5785789	b a n	-0.07736901
-0.9542425	b a r	-0.5388813
-0.8159398	b a s	-0.4151028
-0.6207268	c a </s>
-1.64486	c a d	-0.6655012
-1.211205	c a g	-1.144032
-1.410777	c a l	-0.8796732
-0.3256056	c a n	-1.018075
-1.535716	c a o	-0.3811265
-1.489959	c a r	-0.9981077
-1.535716	c a s	-0.1929376
-1.211205	c a t	-0.9958976
-2.012837	c a u	-0.325375
-0.4580283	d a </s>
-0.9951475	d a d	-1.17973
-0.85248	d a m	-1.269642
-0.94939	d a n	-0.8134325
-1.405322	d a p	-0.7696654
-2.20543	d a r
-0.9951475	d a t	-1.188394
-2.20543	d a v
-0.9951475	d a y	-1.07228
-0.9505146	e a </s>
-1.666518	e a c	-0.9540324
-1.666518	e a d	-0.1745415
-1.324095	e a g	-1.340654
-2.320498	e a k	-0.5766789
-1.110215	e a l	-0.4204353
-0.6096131	e a n	-0.9090725
-0.90309	e a r	-0.6500009
-0.91833	e a s	-0.5640712
-0.8883668	e a t	-0.8682676
-1.064458	e a u	-1.189056
-1.01424	f a </s>
-0.6462637	f a i	-0.7924755
-0.3774183	f a t	-1.11237
-1.446372	f a w	-0.7690285
-1.446372	f a y	-0.716967
-1.87929	g a </s>
-1.146128	g a b	-0.5031072
-1.87929	g a l
-0.509306	g a n	-0.4696147
-1.146128	g a p	-0.5308712
-0.509306	g a r	-0.8620904
-1.87929	g a s
-1.225309	g a t	-0.1459926
-1.447158	g a v	-0.2119548
-1.87929	g a z	-0.6999025
-0.9805714	h a </s>
-1.582631	h a d	-0.4831429
-1.10551	h a e	-0.1005443
-1.640623	h a f	-0.2030937
-0.9175197	h a i	-1.2835
-1.444329	h a l	-0.3158755
-1.184691	h a m	-0.1767484
-0.4645321	h a n	-1.013128
-1.786751	h a o	-0.06065263
-1.786751	h a p	-0.3847848
-1.0086	h a r	-0.8633557
-1.883661	h a s	-0.3293292
-1.339593	h a t	-0.7939854
-0.5083228	i a </s>
-2.716186	i a c	-0.6995371
-2.284055	i a g	-0.4984731
-2.062206	i a j	-0.5042343
-1.229697	i a l	-0.842268
-1.256026	i a m	-0.7961676
-0.3395719	i a n	-0.8374385
-1.719783	i a o	0.1370291
-2.716186	i a p	-0.7572902
-1.148392	i a t	-1.198038
-0.6539802	j a y	-0.5873331
-0.4057654	k a </s>
-1.402168	k a m	-0.7341041
-0.4057654	k a n	-0.1743801
-1.402168	k a t	-0.760049
-2.464213	l a .	-0.01565577
-0.7457745	l a </s>
-1.509202	l a c	-0.3713159
-1.46781	l a d	-0.4450649
-2.464213	l a g	-0.7309077
-1.606112	l a h	-0.3705759
-1.46781	l a i	-0.3485812
-1.664104	l a k	-0.7110485
-1.509202	l a m	-0.3635965
-0.5454147	l a n	-0.8965046
-1.731051	l a r	-0.5980194
-0.9906886	l a s	-1.001462
-1.278754	l a t	-0.1505751
-2.032081	l a u	-0.2866225
-0.9071425	l a v	-1.114729
-1.55496	l a y	-0.741066
-2.464213	l a z	-0.191747
-0.7945417	m a </s>
-1.607455	m a c	-0.3593941
-1.732394	m a g	-0.2874674
-0.2650324	m a n	-1.084395
-1.607455	m a o	0.01464038
-1.209515	m a r	-0.3960849
-0.9790661	m a s	-1.08128
-1.431364	m a t	-0.09906115
-0.3021253	n a </s>
-1.695701	n a d	-0.7423304
-2.121669	n a h	-0.2028155
-2.553801	n a i
-0.6797124	n a l	-1.38945
-1.557398	n a m	-0.2981485
-1.237063	n a n	-0.889136
-1.89982	n a r	-0.2312271
-1.996731	n a s	-0.506039
-0.8745146	n a t	-1.060709
-1.09108	o a </s>
-0.7900504	o a d	-0.5469976
-0.7900504	o a l	-0.5093092
-0.9661418	o a n	-0.06170569
-0.4220737	o a r	-1.133753
-1.09108	o a t	-0.3726154
-2.193056	p a </s>
-1.539076	p a c	-0.4308374
-1.061955	p a i	-1.153178
-1.539076	p a k	-0.8311743
-1.635986	p a l	-0.3572887
-0.2127402	p a n	-1.274439
-1.760925	p a o	0.2628296
-0.7609249	p a r	-0.9134135
-1.540608	r a </s>
-1.142668	r a b	-1.113138
-1.649752	r a c	-0.3362743
-1.123782	r a d	-0.8101687
-0.8416375	r a e	-0.6568468
-1.619789	r a f	-1.22171
-1.754487	r a g	-0.9371007
-2.75089	r a h	-0.6405786
-1.251812	r a i	-1.642056
-1.619789	r a k	-1.402052
-0.9208187	r a l	-0.4759747
-1.79588	r a m	-0.1829992
-0.8513973	r a n	-1.094369
-2.19382	r a p	-0.5899927
-0.8716007	r a q	-0.7344421
-2.017729	r a r	-0.2904496
-2.09691	r a s	-0.2498566
-1.114639	r a t	-0.4225797
-2.19382	r a v	-0.3381852
-2.75089	r a w	-0.6067204
-2.09691	r a y	-0.8418285
-2.75089	r a z	-0.6999025
-0.6812412	s a </s>
-1.158363	s a c	-0.3047553
-1.380211	s a d	-0.2570205
-1.380211	s a i	-0.3032015
-1.380211	s a k	-0.3265889
-0.8159398	s a l	-0.873127
-1.380211	s a m	-0.6070495
-0.5785789	s a n	-0.42739
-1.255273	s a s	-0.2319448
-1.255273	s a u	-0.3840263
-1.812343	s a w	-0.6067204
-0.8185799	t a </s>
-1.829304	t a b	-0.3037012
-1.431364	t a c	-0.4616267
-1.732394	t a g	-0.1165666
-1.130334	t a i	-1.271278
-1.954242	t a k	-0.5603377
-0.863162	t a l	-0.4439192
-0.863162	t a n	-0.18398
-2.386374	t a o	-0.1749335
-1.051152	t a r	-1.296197
-1.653213	t a s	-0.4106662
-0.5563025	t a t	-1.321158
-1.829304	t a y	-0.584216
-0.5064107	u a </s>
-1.662758	u a l	-0.1565359
-0.2104602	u a n	-0.9130165
-2.094889	u a q	-0.6719375
-0.9852768	v a </s>
-0.860338	v a d	-0.5913959
-0.6842467	v a k	-0.5224377
-0.763428	v a l	-0.1995173
-0.559308	v a n	-0.5320015
-1.417408	v a r	-0.7514692
-1.944483	w a </s>
-1.701445	w a i	-0.5866704
-0.06797617	w a n	-1.966845
-1.131569	w a r	-0.7908491
-1.546543	w a y	-0.2193434
-0.3332147	x a </s>
-0.30103	x a s	-1.026923
-0.3493347	y a </s>
-0.7346855	y a l	-0.2218257
-0.7346855	y a n	0.05046009
-1.534794	y a o	-0.1749335
-0.2918866	z a </s>
-0.8269998	z a b	-0.364606
-1.627108	z a m	-0.6484751
-1.194977	z a n	-0.3442122
-1.194977	z a r	-0.6131335
-0.8939466	z a t	-0.2769788
-1.25604	<s> b e
-0.09691001	<s> b i	-0.7032443
-0.4586379	A b b	-0.001044341
-1.316738	A b d	-0.4425822
-0.8846066	A b r	-0.541528
-0.4074853	A b u	-0.8315955
-0.09691001	I b n	-0.2362563
-0.4860761	a b </s>
-1.146128	a b a	-0.2843404
-0.9120448	a b e	-0.4348961
-0.7871061	a b i	0.3034465
-0.7607772	a b o	-0.9835318
-1.514105	a b s	-0.4124334
-1.088136	a b w	0
-0.6690068	b b a	-0.5834687
-0.30103	b b e	-0.3297747
-1.101138	b b i	-0.7783867
-1.101138	b b o	-0.7824578
-0.09691001	c b e	-0.5336521
-0.7160034	e b </s>
-0.5698753	e b a	-0.288277
-0.6368221	e b e	-0.0245158
-1.369984	e b i	-0.7731224
-0.9378521	e b s	-0.4124334
-1.369984	e b y	-0.5829536
-0.1249387	h b o	-0.624063
-1.523212	i b </s>
-0.7900504	i b a	-0.424634
-1.09108	i b b	-0.3544414
-0.7231037	i b e	-0.4711105
-1.09108	i b i	0.2167268
-0.6651117	i b u	-0.8081145
-0.7231037	i b y	-0.4703901
-0.6368221	l b e	-0.2838603
-1.068954	l b o	-0.7623985
-0.2108534	l b r	-0.4423591
-0.5818566	m b a	-0.5131189
-0.6690068	m b e	-0.6283889
-0.3679768	m b i	-0.705983
-1.578259	m b l	-0.7818965
-1.578259	m b u
-0.1249387	n b l	-0.4911191
-0.9294189	o b </s>
-0.8624721	o b a	-0.2187567
-1.66258	o b b	-0.7579606
-0.4288166	o b e	-0.9294189
-1.10551	o b i	-0.3497049
-0.6283889	o b o	-0.9718366
-1.079181	r b </s>
-0.7781513	r b a	-0.2769296
-0.1760913	r b i	-0.8074406
-1.511313	r b o	-0.6654885
-0.2218488	s b u	-0.5093434
-0.2560402	t b u	-0.647679
-0.4637573	u b a	-0.4708937
-1.20412	u b e	-0.009502311
-0.30103	u b l	-0.8599726
-1.76119	u b n	-0.718887
-1.76119	u b y	-0.5829536
-0.1249387	z b o	-0.624063
-0.09691001	' c l	-0.2520506
-0.06694679	- c h	-0.5784585
-0.3899711	<s> c h	-0.2565329
-0.2852357	<s> c o	-0.4504714
-0.154902	A c a	-0.7962307
-0.07918125	E c o	-0.9476322
-0.3617278	M c C	0
-0.7596679	M c G	-0.4425822
-1.316738	M c L	-0.4425822
-0.7596679	M c M	0.09473688
-1.316738	M c N	-0.4425822
-0.2218488	O c e	-0.6477846
-0.6539802	O c t	-0.7078924
-1.25604	S c a
-0.455932	S c h	-0.1424621
-0.69897	S c i	-0.543684
-0.5228788	S c o	-0.5288006
-1.244807	a c </s>
-1.048512	a c a	-0.7275255
-1.487845	a c b	0.09473688
-1.311754	a c c	-0.2155897
-1.244807	a c e	-0.05030736
-0.7096938	a c h	-0.7395858
-1.311754	a c i	-0.3332135
-0.6275071	a c k	-0.5800118
-1.487845	a c r	0.5233824
-1.135663	a c t	-0.1079607
-0.9759617	a c y	0.5862657
-0.9092527	c c e	-0.7909809
-0.4771213	c c h	-0.6163585
-0.3521825	c c o
-0.06694679	d c a	-0.5469976
-1.932734	e c </s>
-0.8016323	e c e	-0.4482451
-0.8016323	e c h	-0.4106585
-1.199572	e c i	-0.3453132
-1.074634	e c k	-0.2342559
-1.932734	e c l	-0.7366884
-0.8985423	e c o	-0.2335904
-1.500602	e c r	-0.6159629
-0.8016323	e c t	-0.06434624
-0.7472747	e c u	-1.231864
-0.04575749	g c h	-0.6568602
-0.7551674	i c </s>
-0.3203351	i c a	-1.395687
-1.009545	i c e	-0.6754887
-0.9637879	i c h	-0.5165875
-1.963788	i c i	-0.3453132
-1.41972	i c k	-0.3595912
-1.787697	i c o	-0.6420335
-1.399516	i c s	0.01930515
-1.838849	i c t	-0.4622616
-1.896841	i c u	-0.4765177
-2.696949	i c y	0.9385868
-0.826456	n c .	0
-1.658965	n c </s>
-0.572605	n c e	-0.7305979
-1.035716	n c h	-0.5276601
-0.5797836	n c i	0.4095734
-1.454845	n c o	-0.5457371
-0.7781513	n c y	0.1413292
-1.285236	o c a	-0.3557878
-2.085344	o c c	-0.5385345
-0.9842057	o c h	-0.3130063
-0.3594818	o c i	-1.38465
-0.8998848	o c k	-0.5755033
-2.085344	o c o
-0.6118198	o c r	-0.7718111
-0.9542425	r c </s>
-0.3706659	r c e	-0.05069023
-0.5282738	r c h	-1.068665
-1.687404	r c r	-0.03413916
-0.9542425	r c u	-0.5411831
-1.511313	s c a
-0.8573325	s c e	-1.035414
-1.511313	s c h
-0.9542425	s c i	-0.5262401
-0.1945747	s c o	-0.5928723
-0.1760913	t c h	-0.3351249
-1.034191	t c o	-0.7681016
-0.552842	u c a	-0.9179749
-0.69897	u c h
-0.552842	u c k	-0.1374156
-0.69897	u c t	-0.3072247
-0.05799195	x c h	-0.6982235
-0.2762064	<s> d a	-0.6970313
-0.4522977	<s> d e	-0.4272093
-1.185459	<s> d u	-0.7774461
-0.154902	A d e	-0.6774171
-0.9550102	A d v	-0.4425822
-1.101138	E d </s>
-0.447158	E d u	-0.8722111
-0.3679768	E d w	-0.2174122
-0.6906179	a d </s>
-1.410777	a d a	-0.1544586
-1.535716	a d c	0.2852632
-0.9159272	a d d	-1.00197
-0.5579923	a d e	-0.2797301
-1.836746	a d h	0.06992488
-0.7118073	a d i	-0.5019181
-1.535716	a d o	-0.2413373
-2.268878	a d r
-1.167739	a d y	-0.02996322
-2.268878	a d z	-0.4425822
-0.2560402	b d </s>
-1.041393	d d </s>
-0.2120889	d d a	-1.064605
-1.166331	d d h	-0.2912267
-1.166331	d d i	-0.6357273
-1.041393	d d l	0.09473688
-1.598463	d d o
-0.163368	e d </s>
-1.790051	e d a	-0.4695094
-1.568202	e d d	-0.2428961
-1.036723	e d e	-0.8276587
-1.665112	e d i	-0.2165414
-2.222182	e d m
-2.222182	e d n	0.05129103
-1.063052	e d o	-0.8491082
-2.222182	e d r	-0.7401221
-1.48902	e d y	0.5862932
-1.034191	g d a
-0.1760913	g d o	-0.2008256
-1.034191	g d u	-0.7774461
-0.03218468	h d a	-1.099828
-0.7465523	i d </s>
-0.3818532	i d a	-1.018484
-1.180208	i d d	-0.2021876
-0.6103325	i d e	-0.456426
-1.247155	i d i	-0.5369837
-0.1695604	l d </s>
-1.296665	l d e	-0.3348961
-1.950645	l d i	-0.7203781
-1.518514	l d m	-0.1783501
-1.041393	l d o	-0.6410659
-1.150537	l d s	0.6635525
-1.393575	l d w	-0.4079385
-0.3316988	n d </s>
-0.8653014	n d a	-0.8202727
-1.120574	n d e	-0.556517
-1.467361	n d i	-0.4740404
-1.079181	n d o	-1.084018
-0.90309	n d r	0.05524062
-2.376614	n d s	-0.6274756
-1.275476	n d u	-0.6232493
-0.5088357	o d </s>
-0.5502284	o d a	-0.9784215
-1.806269	o d d	-0.7524143
-1.806269	o d e
-1.249198	o d g	0.3970379
-1.806269	o d h	-0.3678383
-1.249198	o d i	-0.3076845
-1.374137	o d o
-1.374137	o d r	-0.566071
-1.249198	o d u	-0.4281419
-1.374137	o d y	0.4906566
-0.1333393	r d </s>
-1.462398	r d a	-0.6037085
-1.462398	r d i
-1.036429	r d o	-0.1360722
-1.240549	r d s	0.335744
-1.894529	r d y
-0.5570702	s d a	-0.747507
-0.5570702	s d e	-0.6650419
-0.1760913	t d .	0.04575749
-0.60206	t d </s>
-0.819544	u d </s>
-0.819544	u d a	-0.5455903
-1.120574	u d d	-0.6303977
-0.916454	u d e	-0.5586852
-0.5407903	u d i	-0.3583686
-0.916454	u d s	-0.5660623
-1.774554	u d u	-0.7774461
-0.2218488	y d </s>
-0.6539802	y d n	0.05129103
-0.4321314	' e r	-0.7718274
-0.39794	<s> e a	-0.835654
-0.8750613	<s> e i	-0.5484357
-0.8750613	<s> e l	-0.5639385
-0.5740313	<s> e v	-0.7393987
-0.06694679	A e r	-0.6299173
-1.365488	B e a	-0.3895631
-1.587337	B e b	-0.541528
-1.365488	B e c	-1.010098
-1.462398	B e e	-0.3497736
-0.3923601	B e i	-1.500602
-0.7422387	B e l	-0.8181674
-1.110215	B e n	-0.3083679
-1.365488	B e r	-1.043196
-1.587337	B e s	-0.6013813
-1.023065	B e t	-0.6015303
-2.019468	B e v	-0.5789632
-0.01424044	C e n	-1.376549
-1.64673	D e </s>
-1.424882	D e C	-0.2701511
-1.64673	D e L	-0.0534114
-1.278754	D e a	-0.355047
-2.078862	D e b	-0.7748734
-2.078862	D e c	-0.7887067
-1.3457	D e e	-0.5862316
-1.3457	D e f	-0.4663038
-1.424882	D e l	-0.01239834
-0.6053377	D e m	-1.431163
-0.8934027	D e n	-1.155825
-0.6924879	D e p	-1.229259
-1.278754	D e r	-0.2806981
-1.424882	D e t	-0.3653018
-1.424882	D e v	-0.1841814
-0.1249387	F e d	-0.7435523
-1.028029	F e n	-0.6119354
-1.46016	F e r	-0.7841113
-1.028029	F e s	-0.5575565
-1.793859	G e '	-0.4425822
-0.7596679	G e n	-1.059359
-0.4771213	G e o	-1.179106
-0.3474874	G e r	-1.789894
-0.6734159	H e a	-0.9138854
-1.473524	H e c
-0.916454	H e i	-0.2328557
-1.041393	H e l
-0.615424	H e n	-0.3576598
-0.7403627	H e r	-0.1958553
-1.041393	H e z	-0.5947736
-1.079181	J e b	-0.5627174
-0.9542425	J e f	-0.4151769
-1.079181	J e n	-0.3383151
-0.4423591	J e r	-0.5776873
-1.511313	J e s	-0.7397169
-0.5563025	J e w	-1.01364
-0.3309932	K e a	-1.262083
-1.608223	K e g	-0.6619194
-1.608223	K e i	-0.7813085
-1.608223	K e l	-0.735029
-0.7501225	K e n	-0.3478732
-1.608223	K e r	-0.7841113
-0.9542425	K e t	-0.2634646
-1.190332	L e a	-0.2151898
-1.01424	L e b	-0.4236151
-0.6784483	L e e	-0.8717502
-1.190332	L e f	-0.2967925
-1.747402	L e i
-1.190332	L e m	-0.5554492
-0.8381492	L e n	-0.7693627
-0.8381492	L e o	-0.4085353
-1.747402	L e v
-1.31527	L e w	-0.6277183
-1.31527	L e x	-0.3428259
-1.113943	M e d	-0.3465507
-1.546075	M e e
-1.546075	M e i
-1.113943	M e j	0.0434986
-1.113943	M e l	-0.2972659
-0.4449366	M e r	-0.9688758
-1.546075	M e t
-0.6879746	M e x	-0.8331988
-1.78295	N e d	-0.613609
-2.215081	N e l	-0.7854816
-2.215081	N e m	-0.589687
-2.215081	N e u	-0.7713405
-1.48192	N e v	-0.344991
-0.04522754	N e w	-1.217008
-1.30103	P e i	-0.352614
-0.6642079	P e n	-0.2691854
-0.8239087	P e o	-0.9373532
-1.176091	P e r
-1.30103	P e s	-0.6527864
-0.4357286	P e t	-0.7606081
-1.176091	P e u	-0.5170829
-1.08636	R e a	-0.9789043
-1.241262	R e c	-0.5508231
-0.6239618	R e d	-0.9733775
-1.4843	R e e	-0.5699289
-1.609239	R e h	-0.3173134
-2.04137	R e l	-0.7609876
-1.609239	R e n	-0.3125078
-0.5422918	R e p	-1.130342
-0.8822398	R e s	-0.584061
-2.04137	R e t	-0.7837067
-1.609239	R e u	-0.2923748
-1.38739	R e v	-0.2518456
-1.100371	S e a	-0.3797169
-0.8962505	S e c	-1.118491
-1.623249	S e l	-0.5966934
-2.055381	S e m	-0.7450231
-0.6853972	S e n	-1.870083
-1.498311	S e o	-0.4857285
-1.401401	S e p	-0.3783406
-0.4014005	S e r	-2.067185
-1.197281	S e t	-0.292996
-0.9444827	T e c	-0.9736688
-0.6434527	T e l	-0.5145983
-0.6892102	T e n	-0.9107065
-1.041393	T e r	-0.3714176
-0.4973246	T e x	-0.9503122
-0.04575749	V e n	-0.9344208
-1.197281	W e b	-0.3278679
-1.322219	W e d	-0.3534322
-1.322219	W e e	-0.6151768
-1.197281	W e i	-0.1552522
-1.754351	W e n
-1.322219	W e r	-0.637037
-0.1972806	W e s	-1.514869
-1.322219	W e t	-0.5910134
-0.178458	Y e </s>
-1.361728	Y e a	-0.5462412
-1.918798	Y e h	-0.3788337
-0.60206	Y e m	-1.176091
-0.615424	Z e a	-0.9191683
-0.314394	Z e d	-1.191164
-0.615424	Z e m	-0.9054586
-1.598426	a e d	-0.648371
-0.02246852	a e l	-1.761338
-1	b e </s>
-1.124939	b e a	-0.4543362
-1.425969	b e l
-0.2403322	b e r	-0.8450677
-0.8239087	b e t	-0.7136933
-1.8581	b e y	0.653351
-0.083777	c e </s>
-1.755875	c e a	-0.5330215
-1.630936	c e l	-0.6121833
-1.534026	c e n	-0.9334896
-1.056905	c e s	-1.447688
-2.188006	c e t	-0.7176106
-0.5797836	d e </s>
-1.278754	d e a	-0.5430142
-0.8201157	d e l	-0.3863608
-1.336746	d e m	-0.5612158
-0.590779	d e n	-1.072047
-0.7194456	d e r	-0.8843933
-1.482874	d e s	-0.1297061
-0.3294254	e e </s>
-0.9945371	e e c	-1.129486
-1.119476	e e d	-0.4069355
-1.052529	e e k	-0.3416049
-1.084714	e e n	-1.290844
-1.157264	e e p	-0.4825568
-1.157264	e e r	-0.194644
-1.499687	e e t	-0.3107643
-0.819544	f e </s>
-0.916454	f e l	-0.2158801
-0.5642715	f e n	-0.6777613
-0.615424	f e r	-0.4415308
-0.916454	f e w	-0.3312318
-0.5374877	g e </s>
-0.8162413	g e l	-0.7239009
-0.5044875	g e n	-1.047938
-1.515211	g e o	-0.57055
-0.7748486	g e r	-0.444118
-2.072281	g e s	-0.6499482
-2.072281	g e t
-0.1429711	h e </s>
-2.423246	h e a	-0.3465817
-2.855377	h e d	-0.7911954
-1.997277	h e e	-0.5478621
-2.122216	h e i	-0.5409495
-2.423246	h e k	-0.2479861
-1.502427	h e l	-1.294087
-0.8034571	h e n	-1.23748
-2.423246	h e o
-1.356299	h e r	-0.5687704
-2.855377	h e u	-0.7713405
-2.201397	h e v	-0.377306
-0.5964561	i e </s>
-2.142531	i e a	-0.7421862
-1.342423	i e g	-0.8273395
-1.187521	i e l	-0.1501566
-1.585461	i e m	-0.4001131
-1.011429	i e n	-0.6057931
-1.187521	i e r	-0.47348
-0.845098	i e s	-1.217869
-0.6434527	i e t	-0.7248719
-1.488551	i e u	-0.311875
-0.30103	j e e	-0.3298553
-0.5708023	k e </s>
-1.224015	k e n	-0.2384459
-0.5708023	k e r	-0.6405836
-0.8718323	k e t	-0.3993545
-0.6219548	k e y	0.2167091
-0.6139592	l e </s>
-1.568202	l e a	-0.4597164
-1.429899	l e c	-0.6492844
-1.429899	l e e	-0.7670149
-1.568202	l e g	-0.3105544
-1.772322	l e i	-0.9404759
-1.024134	l e m	-1.058913
-1.267172	l e n	-0.2328907
-1.267172	l e r	-0.6925457
-0.5219017	l e s	-1.728795
-1.693141	l e t	-0.2680298
-1.869232	l e u	-0.4922594
-1.693141	l e v	0.2550966
-1.517049	l e y	0.447158
-0.8463371	m e </s>
-2.068186	m e d	-0.1517276
-2.500317	m e h	-0.3788337
-0.4922287	m e n	-1.361264
-0.3692158	m e r	-1.478916
-1.130334	m e s	-1.287505
-2.068186	m e t	-0.2915859
-0.7175366	n e </s>
-2.612066	n e a
-1.958086	n e c	-0.5852576
-1.878905	n e d	-0.2874345
-1.753966	n e g	-0.3460681
-1.958086	n e l	-0.4514743
-1.958086	n e n	-0.2842124
-1.065991	n e r	-1.03012
-0.2591158	n e s	-1.214487
-1.452936	n e t	-0.70726
-2.612066	n e w
-2.612066	n e x	-0.780589
-1.426607	n e y	0.1918855
-1.753966	n e z	-0.7686059
-0.2498775	o e </s>
-1.15913	o e i	-0.6859806
-0.6892102	p e </s>
-0.7983546	p e a	-0.810392
-1.166331	p e c	-0.5315012
-0.7983546	p e i	-1.095058
-1.099385	p e n	-0.2219203
-0.6434527	p e r	-0.08322687
-1.099385	p e s	-0.7082673
-0.09691001	q e e	-0.5728934
-0.7987657	r e </s>
-0.716579	r e a	-1.085344
-1.576917	r e d	-0.3153388
-0.8852462	r e e	-0.6457333
-1.811	r e g	-0.2654563
-1.451978	r e i	-0.9167396
-2.178977	r e k	-0.3345787
-1.957128	r e l	-1.015483
-1.137584	r e m	-0.9437755
-1.313676	r e n	-0.5021751
-1.576917	r e o	-0.9954387
-2.611108	r e p
-2.611108	r e r
-0.7530082	r e s	0.3317071
-1.50997	r e t	-0.6271629
-1.614706	r e w	-0.8061799
-2.178977	r e x	-0.3428259
-1.877947	r e y	0.8295866
-1.877947	r e z	-0.3120504
-0.1664082	s e </s>
-1.673251	s e a	-0.7350906
-1.877371	s e c	-0.9896569
-1.974281	s e e	-0.3298553
-2.531352	s e h	-0.3788337
-1.49716	s e i	-1.006117
-1.974281	s e l	-0.5930967
-2.531352	s e m	-0.7715306
-1.233919	s e n	-0.2380781
-2.531352	s e p	-0.7677936
-1.40025	s e r	-1.363209
-2.531352	s e s
-2.531352	s e t
-1.00814	s e v	-1.147165
-0.6199511	t e </s>
-2.172214	t e c	-0.2814102
-0.8569432	t e d	-1.295597
-1.217971	t e e	-0.9749521
-1.950365	t e g	-0.1416773
-1.607942	t e i	-0.9713548
-2.047275	t e l	-0.5396326
-1.695092	t e m	-0.2906568
-1.445215	t e n	-0.4153828
-0.6001168	t e r	-0.7357734
-0.8297909	t e s	-1.682216
-1.950365	t e v	-0.8334585
-1.607942	t e w	-1.055815
-1.950365	t e x	-0.9852506
-0.5818566	u e </s>
-1.146128	u e i	-0.5744382
-0.447158	u e l	-0.9272535
-1.146128	u e n	-0.3348211
-1.021189	u e s	-0.5501431
-1.146128	u e z	-0.4076869
-0.6868211	v e </s>
-1.149219	v e l	-0.2066135
-0.8269998	v e n	-0.3300376
-0.31037	v e r	-0.7797608
-1.246129	v e s	-0.8563276
-1.672098	v e y	0.7916866
-0.4881167	w e </s>
-1	w e e	-0.3408188
-1.55707	w e g	-0.6619194
-1.55707	w e i	-0.7127737
-0.6478175	w e l	-0.7268396
-1.124939	w e n
-0.90309	w e r	-0.9981357
-0.5570702	x e c	-0.708178
-0.5570702	x e l	-0.6285737
-0.4259687	y e </s>
-1.335221	y e l	-0.7826707
-0.4259687	y e r	-0.5835333
-1.335221	y e t	-0.7176106
-0.4259687	z e c	-0.4852012
-0.50515	z e n	-1.02708
-1.15913	z e w	-0.5753914
-1.369984	<s> f a
-0.6368221	<s> f e	-0.4412333
-0.8129134	<s> f i	-0.2214377
-0.4149733	<s> f o	-0.575175
-0.8129134	<s> f r	-0.7516876
-0.6600519	A f f	-0.7119123
-0.60206	A f g	0
-0.30103	A f r	-0.7533277
-0.02632894	O f f	-0.9978763
-1.578259	a f </s>
-0.3928004	a f a	-1.128988
-0.845098	a f f	-0.2982437
-0.9242793	a f i	-0.3429093
-0.6232493	a f t	-0.9698982
-0.5314789	e f e	-0.9099997
-0.4522977	e f f	-0.2204482
-1.185459	e f o	0.05897786
-0.7533277	e f t	-0.5005695
-0.7676858	f f </s>
-0.7096938	f f a	-0.4710159
-1.010724	f f e	-0.1157116
-0.3823349	f f i	-0.7533277
-1.567794	f f n	-0.4425822
-0.8952646	i f .	0.09690775
-1.695373	i f </s>
-1.263241	i f a	-0.6112677
-0.6611814	i f e	0.01632454
-0.9622114	i f i	-0.08271358
-0.4616091	i f o	-0.4482451
-1.041393	i f t	-0.9233636
-0.1627273	l f </s>
-1.15913	l f o
-1.15913	l f r	-0.7146258
-0.9550102	n f e
-0.5228788	n f l	-0.0534114
-0.39794	n f o	0.2485518
-0.02606549	o f </s>
-1.313867	o f f	-0.19226
-0.4393327	r f </s>
-0.9964029	r f e
-0.3424227	r f o	-0.3674262
-0.03218468	x f o	-0.2933432
-0.05648136	A g e	-1.405173
-1.010724	A g r	-0.5830438
-0.8016323	E g g	-0.6176828
-0.8016323	E g n	-0.5885246
-0.1995724	E g y	-0.8586708
-0.2560402	I g o	-0.7606387
-0.8354467	a g a	-0.578932
-0.8702087	a g e	-0.363623
-0.8354467	a g h	-1.101458
-0.5180262	a g o	-0.9689728
-0.6706364	a g u	-0.4494498
-1.472269	a g y	-0.3378264
-0.07918125	d g e	-0.4758988
-1.146128	e g </s>
-1.578259	e g a
-0.9242793	e g e	-0.899514
-0.5818566	e g i	-0.1555488
-0.9242793	e g l	-0.3077087
-0.845098	e g o	-0.2277225
-0.7201593	e g r	-0.3993136
-0.05115252	f g h	-0.8757138
-0.8573325	g g a	-0.8874511
-1.079181	g g e	-0.5756266
-1.511313	g g o
-0.1583625	g g u	-1.074345
-1.075879	i g </s>
-1.214181	i g a	-0.2784961
-1.515211	i g e	-0.3012686
-0.1630288	i g h	-0.9978585
-1.03809	i g n	-0.7459666
-1.515211	i g u	-0.4846232
-1.335221	l g a
-0.7781513	l g e	-0.5243883
-0.1497623	l g r	-1.094421
-1.880814	n g -	0.320325
-0.2008668	n g </s>
-1.521792	n g a	-0.6717628
-2.981952	n g b
-2.072699	n g c	0
-1.94776	n g d	-0.4425821
-1.54982	n g e	0.1729193
-1.53558	n g g	-0.5526306
-1.796493	n g h	-0.9190744
-2.981952	n g i	-0.5770979
-2.072699	n g j	0
-2.424882	n g k	-0.09525124
-1.564544	n g l	0.4864673
-1.85085	n g m	0.2463453
-2.981952	n g n	-0.7702411
-1.482874	n g q	0
-1.373729	n g r	-1.297135
-1.822822	n g s	-0.1386882
-1.24879	n g t	-0.4425823
-2.54982	n g u	-0.3470306
-1.985549	n g x	0
-2.181844	n g y	-0.3692662
-2.327972	n g z	-0.2701511
-1.446372	o g </s>
-0.8893017	o g e	-0.3012686
-0.7923917	o g i	-0.2914304
-1.01424	o g l	-0.5158094
-0.8893017	o g n	-0.3141666
-0.5371192	o g r	0.2934527
-1.446372	o g y	-0.7241711
-0.9120448	r g </s>
-0.7871061	r g a	-0.1795693
-0.3284682	r g e	-0.9746374
-0.7359536	r g i	-0.7832909
-1.645206	r g y	-0.7241711
-0.7160034	u g a	-0.1924201
-1.113943	u g e	-0.5907655
-1.113943	u g h	-0.3712051
-1.671013	u g l	-0.654145
-0.2536053	u g o	-1.235677
-1.671013	u g u
-0.6368221	- h o	-0.3150957
-0.1597008	- h u	-0.8556653
-1.034762	<s> h a	-0.5439354
-0.1139434	<s> h o	-1.206483
-0.9098234	<s> h u	-0.2060198
-0.916454	C h a	-0.7411832
-0.8385672	C h e	-1.149722
-0.1789206	C h i	-1.26045
-1.819544	C h o	-0.08095793
-1.434193	C h r	-0.9139489
-1.761552	C h u	-0.3316265
-0.06694679	E h u	-0.5383459
-0.5570702	G h a
-0.09691001	K h a	-0.4217077
-0.05115252	O h i	-0.9470935
-0.3174204	P h i	-1.581166
-1.386374	P h n	-0.7426545
-0.9542425	P h o	-0.3522343
-0.4771213	P h y	-0.7715207
-0.2560402	R h o
-0.3279021	S h a	-0.9939674
-0.7212464	S h e	-0.5192614
-0.9586073	S h i	0.1866391
-1.95501	S h l	-0.7626066
-0.7212464	S h u	-0.8767927
-1.033424	T h a	-0.3898144
-0.06494081	T h e	-1.850926
-1.431364	T h o	-0.5832148
-0.0234811	W h i	-1.253199
-1.01424	Z h a	-0.4652519
-0.5136381	Z h e	-0.9034313
-1.190332	Z h i	-0.2336184
-0.7132105	Z h o	-0.3786071
-0.4913617	Z h u	-0.7496237
-0.526809	a h </s>
-0.7231037	a h a	-0.3542922
-0.7231037	a h l	-0.5563048
-1.09108	a h m	-0.3032889
-1.09108	a h n	-0.2752602
-1.523212	a h o	-0.7727886
-1.523212	a h y	-0.7713405
-0.5719582	c h </s>
-0.6573884	c h a	-1.815942
-1.843025	c h b	-0.0534114
-0.7403627	c h e	0.3653392
-1.064874	c h i	-0.4465387
-1.718086	c h m	0.115897
-1.541995	c h n	-0.3865432
-1.240965	c h o	-0.4967211
-2.275156	c h t
-1.041393	c h u	-0.2922275
-2.275156	c h y	-0.492777
-0.20412	d h a	-0.4024283
-0.8581002	d h i	-0.7775529
-0.2108534	e h </s>
-1.068954	e h n	-0.7802161
-1.424882	g h </s>
-0.7814289	g h a	-1.071545
-1.009908	g h d	0
-2.078862	g h i	-0.7766318
-1.64673	g h l	-0.5652948
-1.64673	g h o	-0.01566812
-0.2047735	g h t	-0.2877828
-0.1383027	i h </s>
-0.9964029	i h a	-0.7823018
-1.233764	k h a
-0.3756636	k h e	-0.5777739
-0.4336556	k h o	-0.3746069
-1.710885	n h </s>
-0.8527849	n h a	-0.3993183
-1.710885	n h e	-0.7905169
-1.710885	n h s	-0.2497389
-0.1224064	n h u	-1.260236
-0.916454	o h a	-0.5748777
-1.473524	o h e	-0.7195147
-0.1567861	o h n	-1.154757
-1.473524	o h o
-1.473524	o h s	-0.2497389
-0.6627578	p h </s>
-1.316738	p h a
-0.6627578	p h e	-1.028749
-0.5166298	p h i	-0.4447206
-0.8846066	p h o	-0.2856639
-0.2472162	s h </s>
-1.329675	s h a	-0.3683451
-1.52597	s h e	-0.404017
-0.4960066	s h i	-0.998152
-1.52597	s h u	-0.276999
-0.8841914	t h </s>
-1.19002	t h a	-0.7951534
-0.1314255	t h e	-1.468457
-1.542203	t h i	-0.4169342
-2.366112	t h l	-0.3248434
-1.998135	t h o	-0.4281415
-2.144263	t h r	-0.9513924
-1.940143	t h y	-0.6532125
-0.02632894	u h a	-0.8471208
-1.432131	z h a
-0.2466723	z h e	-1.156157
-1	z h i	-0.6382962
-0.6320232	z h o	-0.1127176
-1.131101	<s> i l	-0.7310595
-0.06214791	<s> i n	-1.040622
-0.02632894	A i r	-0.4127731
-0.6600519	B i g	-0.7680922
-0.30103	B i l	-0.7101212
-0.6600519	B i n	-0.7328603
-0.8846066	C i e	-0.229221
-0.6627578	C i r	-1.011873
-0.2477845	C i t	-1.151642
-0.5672979	D i a	-0.1762508
-1.636251	D i c	-0.7769625
-1.20412	D i e	-0.3358405
-1.079181	D i l	-0.5389238
-1.636251	D i n	-0.6302468
-0.4771213	D i s	-0.61955
-1.079181	D i v	-0.3376477
-1.224015	F i d	-0.4820172
-1.224015	F i f	-0.5628404
-0.7846821	F i l	-0.4276774
-0.4836521	F i n	-1.266685
-0.5708023	F i r	-0.582185
-0.9809768	F i t	-0.3674167
-0.146128	G i a	-0.7757612
-0.6690068	G i n	-0.345752
-1.01424	H i g	-0.150984
-0.2126081	H i l	-1.108061
-1.446372	H i p	-0.7847938
-0.7923917	H i s	-0.39368
-0.3079789	J i a	-1.058157
-1.754351	J i h	-0.747648
-0.8962505	J i m	-0.4431193
-0.544068	J i n	-0.4839436
-1.754351	J i y	-0.492777
-0.4771213	K i m	-0.5164244
-0.9092527	K i n	-0.6302468
-0.9092527	K i s
-0.7118073	L i </s>
-1.167739	L i a	-0.1990894
-0.933656	L i b	-0.6848723
-1.535716	L i e	-0.3115379
-1.410777	L i f	-0.4973389
-1.967847	L i g	-0.2893196
-1.967847	L i m	-0.7298247
-0.5656792	L i n	-0.7441037
-1.410777	L i s	-0.5907446
-0.8667092	L i t	-1.092211
-1.410777	L i u	-0.2520506
-1.499687	M i a	-0.3742459
-0.5965971	M i c	-1.233197
-1.353559	M i d	-0.5686338
-1.295567	M i k	-0.1872934
-0.4582944	M i l	-0.8132868
-0.7362591	M i n	-0.4206297
-1.721536	M i r	-0.3141517
-1.499687	M i s	-1.006511
-1.721536	M i t	-0.6186838
-2.153667	M i x	-0.7289899
-0.4121805	N i c	-0.4956047
-1.446372	N i g	-0.7803394
-1.01424	N i k	-0.2368574
-0.6462637	N i n	-0.2814859
-1.446372	N i p	-0.7048659
-1.446372	N i s	-0.7520157
-1.446372	N i x	-0.7289899
-0.5642715	P i c	-0.3497037
-0.9964029	P i l	-0.7819619
-0.4393327	P i n	-0.4406728
-1.286307	Q i </s>
-0.860338	Q i a	-0.3264207
-0.1199753	Q i n	-1.285948
-1.718438	Q i s	-0.7923315
-0.2373609	R i c	-0.8709044
-1.102662	R i e	-0.635268
-1.534794	R i g	-0.2893196
-1.534794	R i n	-0.6302468
-1.102662	R i t	-0.6052823
-0.9777236	R i v	-0.09492719
-1.523212	S i d
-0.9661418	S i e	-0.5928037
-1.523212	S i f	-0.7694477
-1.523212	S i k
-0.9661418	S i m	-0.2180607
-0.526809	S i n	-0.4007639
-0.7900504	S i s	-0.5517921
-1.523212	S i z	-0.7713405
-0.7459666	T i a	-0.5405508
-1.113943	T i e	-0.6109655
-0.5118834	T i m	-0.9495905
-0.4449366	T i n	-0.9825678
-1.034191	V i e	-0.6818333
-1.034191	V i l	-0.6008382
-0.30103	V i r	-0.5288006
-0.09177037	W i l	-0.6028669
-1.277229	W i n
-1.176091	X i '	0.09473688
-0.69897	X i a	-0.2752138
-1.30103	X i e	-0.5286485
-0.1760913	X i n	-0.8597249
-0.4771213	Y i </s>
-0.2552725	Y i n	-0.2082758
-0.05115252	Z i m	-0.8970996
-0.9409552	a i </s>
-2.234686	a i b	-0.3428259
-2.109747	a i i	-0.3489606
-2.666817	a i k	-0.6746206
-1.565679	a i l	-0.7425367
-2.109747	a i m	-0.2420664
-0.9559324	a i n	-0.7586314
-1.565679	a i p	-1.045758
-1.507687	a i r	-0.2504857
-2.234686	a i s
-1.109747	a i t	-1.148126
-0.2449396	a i w	0
-2.666817	a i y	-0.492777
-1.332438	b i </s>
-0.1351579	b i a	-1.172109
-1.457377	b i e	-0.229221
-1.156347	b i l	-0.5615227
-1.235528	b i n	-0.9749805
-1.457377	b i s	-0.6460736
-2.119363	c i </s>
-0.3318439	c i a	-0.7227508
-1.018225	c i d	-1.053875
-0.8855993	c i e	-0.8166571
-0.7841416	c i l	-1.434317
-1.21011	c i n	-0.735278
-1.164353	c i s	-1.016803
-0.7501225	d i </s>
-1.109144	d i a	-0.3251561
-1.352183	d i c	0.04626111
-1.352183	d i e	-0.2542905
-1.909253	d i l	-0.6008382
-1.352183	d i m	-0.5402508
-0.8081145	d i n	-0.3072262
-0.6532125	d i o	-1.264442
-1.176091	d i s	-0.3907816
-0.8750613	d i t	-0.6230605
-0.7690079	e i </s>
-2.104229	e i d
-1.672098	e i f	-0.5485772
-0.9187702	e i g	-0.9249079
-0.4864613	e i j	-0.29169
-2.104229	e i k	-0.7382897
-1.371068	e i m	-0.2692697
-0.6578574	e i n	-0.8612033
-1.547159	e i t	-0.2136609
-2.104229	e i y
-0.1760913	f i c	-0.751383
-0.916454	f i d	-0.1481992
-1.473524	f i e	-0.7646488
-1.473524	f i v	-0.2845011
-1.402168	g i a	-0.5281755
-0.845098	g i c	-0.3329013
-0.6690068	g i e	-0.5276853
-0.4057654	g i n	-0.2930416
-1.411443	h i </s>
-1.576253	h i a	-0.8292045
-1.328468	h i c	-0.6192653
-2.645206	h i d	-0.7080204
-2.213075	h i e	-0.6109655
-2.645206	h i g	-0.7664408
-1.787106	h i h	-0.3899711
-2.088136	h i i	-0.3489606
-1.514105	h i l	-0.08935052
-0.1823402	h i n	-1.607011
-1.787106	h i o	-0.8964652
-1.576253	h i p	-0.6222
-2.213075	h i r	-0.2490335
-1.434924	h i s	-0.602837
-1.243038	h i t	-0.8515509
-1.991226	h i u	-0.04684271
-0.3521825	i i </s>
-0.3521825	i i t	-0.4958753
-1.824242	j i </s>
-0.827839	j i a	0.03310761
-0.1616616	j i n	-1.552443
-0.9149892	j i s	-0.9851393
-0.5019448	k i </s>
-1.033424	k i a	-0.8870096
-1.130334	k i e	-0.4774102
-0.4771213	k i n	-0.2595585
-1.687404	k i o	-0.7360297
-0.8872957	k i s	-0.3387957
-0.5949652	l i </s>
-0.9562911	l i a	-0.9195227
-2.583399	l i b	-0.716967
-1.015605	l i c	-0.7531777
-2.151268	l i d	-0.4225572
-1.373116	l i e	-0.6220212
-1.137027	l i f	-0.5149021
-2.583399	l i k
-1.850238	l i m	-0.5526032
-0.7093108	l i n	-0.8829734
-2.026329	l i p	-0.1473444
-1.109875	l i s	-0.3706032
-1.09691	l i t	-0.3437283
-2.151268	l i v	0.1532621
-1.783291	l i z	-0.4637595
-1.265866	m i </s>
-1.618048	m i a	-0.4429404
-2.175118	m i b	-0.7570842
-1.07398	m i c	-1.219027
-1.742987	m i d
-1.618048	m i e	-0.5898986
-1.265866	m i l	-0.5789483
-0.4797454	m i n	-0.2982567
-1.37501	m i r	-0.4183312
-0.8776854	m i s	-1.120083
-0.6519064	m i t	-1.356896
-1.465033	n i </s>
-0.6784483	n i a	-1.387118
-0.90309	n i c	-0.6035085
-2.650492	n i d	-0.7685012
-1.91733	n i e	-0.4891399
-1.741239	n i f	-0.4172729
-0.9173304	n i g	-1.280842
-0.9320537	n i n	-0.8870207
-1.353059	n i o	1.111798
-0.8825683	n i s	-1.140938
-0.8759378	n i t	-0.8855938
-1.549354	n i v	-0.6667854
-1.91733	n i z	-0.2751487
-0.60206	o i n	-0.6328558
-0.60206	o i s	-0.1936786
-0.4771213	o i t	-0.5850782
-1.09108	p i </s>
-1.09108	p i a	-0.1947511
-0.5682017	p i c	-0.9428512
-0.6651117	p i n	-0.1381785
-1.523212	p i o	0.06503084
-1.523212	p i r	-0.6867967
-0.7900504	p i t	-0.5947
-0.6092386	q i </s>
-0.2055462	q i n	-1.427504
-1.007179	q i s	-0.4782564
-1.74034	q i u	-0.4416245
-1.918205	r i </s>
-0.9255044	r i a	-0.9707606
-1.465907	r i b	-0.4795807
-0.4922364	r i c	-0.9010059
-1.094296	r i d	-0.8920246
-1.441084	r i e	-0.2891874
-1.353934	r i g	-0.367948
-1.851258	r i l	-0.6640007
-1.793266	r i m	-0.2012491
-1.105292	r i n	-0.04727314
-2.094296	r i o	-0.1785082
-1.696356	r i p	-0.8275129
-1.177842	r i s	-0.2996856
-0.8768125	r i t	-1.166756
-2.094296	r i z	-0.3174443
-1.687232	s i </s>
-0.4653828	s i a	-1.554065
-1.164353	s i c	-0.3780882
-1.465383	s i e	-0.146742
-0.8855993	s i n	-0.2103984
-0.802625	s i o	-0.50289
-1.465383	s i p	-0.6056196
-1.465383	s i s	-0.2317736
-0.9602329	s i t	-0.8377935
-1.562293	s i u	-0.6812634
-1.653213	t i </s>
-1.415852	t i a	-0.709325
-1.061137	t i c	-0.5233353
-1.653213	t i e	-0.3965526
-2.217484	t i l
-2.217484	t i m	-0.4911186
-0.5484772	t i n	-1.110387
-0.3914091	t i o	-1.446514
-2.649615	t i r	-0.6867967
-1.176091	t i s	-0.9531684
-1.439333	t i t	-1.258445
-1.791515	t i v	-0.1373812
-0.2078057	u i </s>
-1.806269	u i g	-0.7664408
-1.374137	u i l	-0.3441987
-1.152288	u i n	-0.4688382
-1.806269	u i p	-0.7847938
-1.00616	u i s	-0.3021703
-1.073107	u i t	-0.5984166
-0.8088859	v i a	-0.6119258
-0.4359739	v i c	-1.632057
-1.092883	v i d	-1.366744
-0.8644032	v i e	-1.230449
-2.161836	v i g	-0.7664408
-2.161836	v i k	-0.7382897
-1.507856	v i l	-0.08059606
-0.8644032	v i n	-0.5865501
-2.161836	v i o	0.06503084
-1.428675	v i s	-0.6410992
-1.729705	v i v	-0.6232867
-1.028029	w i c	-0.3060699
-1.028029	w i g	-0.6173813
-0.60206	w i n	-0.5220562
-0.4637573	w i s	-0.967754
-0.7269987	w i t	-0.2076252
-0.3377528	x i </s>
-0.9661418	x i a	-0.4429404
-0.6651117	x i c	-0.5750271
-1.523212	x i n	-0.6302468
-1.09108	x i o	0.2033665
-1.523212	x i s	-0.6314418
-1.432131	y i </s>
-0.04575749	y i n	-1.283598
-0.4771213	z i </s>
-1.034191	z i c	-0.7098793
-1.034191	z i l
-1.034191	z i n	-0.7401043
-0.8581002	<s> j e
-0.8581002	<s> j p	-0.4425822
-0.4259687	<s> j u	-0.3098848
-0.1249387	S j o	-0.3544414
-0.146128	a j u	-0.6089697
-0.09691001	e j i	-0.5343419
-0.05115252	g j i	-0.5122752
-0.01888534	i j i	-1.155254
-1.101138	n j a	-0.6848816
-0.6690068	n j e	-0.3544414
-0.30103	n j i	0.05110561
-1.068954	o j e
-0.1139434	o j i	-0.9436817
-0.2560402	- k u	-0.3678383
-0.2560402	<s> k u	-0.3678383
-0.1249387	I k e	-0.6287372
-0.1249387	O k l	-0.3544414
-0.2218488	S k i	-0.4793801
-0.4051186	a k </s>
-1.18327	a k a	-0.5477961
-0.7061486	a k e	-1.237245
-0.7061486	a k i	-0.4785999
-1.74034	a k k	-0.6527728
-1.308209	a k o	-0.1715194
-1.308209	a k s	-0.6011137
-0.4566801	c k </s>
-0.6638056	c k e	-0.7638593
-0.9190781	c k h	-0.4616091
-1.441957	c k i	-0.6220477
-0.5968588	c k s	-0.4478142
-0.2155998	e k </s>
-1.316738	e k a	-0.7762535
-0.8846066	e k s	-0.5042037
-0.5570702	g k a	-0.5770979
-1.35295	i k </s>
-0.6197888	i k a	0.01028949
-0.6197888	i k e	-0.4816927
-0.9208187	i k i	-0.4912794
-0.9208187	i k l	-0.05501387
-0.9208187	i k o	-0.1715194
-0.5570702	k k a	-0.5770979
-0.3802112	l k </s>
-1.034191	l k a	-0.5770979
-1.034191	l k e	-0.6579283
-0.60206	l k s	-0.5042037
-0.1249387	m k h	-0.455899
-0.1896641	n k </s>
-1.767923	n k e
-1.210853	n k i	-0.07209345
-1.113943	n k o	-0.08904047
-1.767923	n k u
-0.9098234	n k y	-0.6232493
-0.6283889	o k </s>
-1.486489	o k a
-1.054358	o k i
-0.9294189	o k l	-0.3701499
-1.486489	o k o
-0.4175356	o k y	-0.8994557
-0.2066572	r k </s>
-1.535716	r k a	-0.4387623
-0.7118073	r k e	-0.3817237
-1.535716	r k h	-0.455899
-1.012837	r k i	-0.8653014
-1.967847	r k s
-1	s k </s>
-1.432131	s k a	-0.5770979
-0.4771213	s k i	-0.835808
-0.5228788	s k o	-0.07755052
-0.69897	s k y	-0.2288416
-0.6539802	u k e
-0.06445799	<s> l a	-1.003976
-1.417408	<s> l i
-0.4704907	A l </s>
-1.335792	A l a	-0.2104533
-0.9098234	A l b	-0.5392691
-0.9678153	A l e	-0.2222729
-1.335792	A l f	-0.3248434
-1.335792	A l g	-0.5762901
-0.7337321	A l i	-0.5168611
-1.113943	A l l	-0.3189831
-0.243038	B l a	-0.3660654
-0.8001082	B l y	-0.7755822
-0.8709053	C l a	-0.7013052
-1.671013	C l e
-0.1032195	C l i	-1.528886
-1.671013	C l o	-0.7605963
-0.79588	E l </s>
-0.552842	E l e	-0.4514464
-0.4436975	E l i	-0.4217848
-0.79588	E l l	-0.3112905
-0.01974406	F l o	-1.812006
-0.7533277	G l a	-0.3092393
-0.3853509	G l e	-0.7820485
-0.4522977	G l o	-0.4551298
-0.30103	I l a	-0.4586426
-0.8581002	I l l
-1.068954	O l i	-0.7907305
-0.4149733	O l s	-0.9099997
-0.5118834	O l y	-0.5402508
-0.03476211	P l a	-0.1991072
-0.02227639	S l o	-1.164371
-0.09691001	V l a	-0.5891852
-0.433766	a l </s>
-1.470983	a l a	-0.3797171
-1.388008	a l d	-0.08137084
-0.7411361	a l e	-0.8271002
-1.971585	a l f	-0.05468487
-0.6563146	a l i	-1.022993
-1.904638	a l k	-0.4812225
-1.272615	a l l	-0.7787051
-2.050766	a l m	-0.03948168
-2.147676	a l p	-0.2050221
-2.147676	a l s	-0.2318472
-1.846646	a l t	-0.3358321
-2.147676	a l v	-0.4445323
-1.519287	a l y	-0.3050895
-0.8346326	b l a	-0.5363538
-0.1076339	b l i	-1.474456
-1.567794	b l y	-0.4489981
-0.9092527	c l a	-0.6482165
-0.2552725	c l o	-0.3827373
-0.09691001	d l e	-0.6609718
-0.4996871	e l </s>
-1.137959	e l a	-0.9245725
-1.596597	e l d	0.1554078
-1.052529	e l e	-0.5777184
-1.220933	e l g	-0.4426104
-0.7514991	e l i	-1.129039
-0.8976271	e l l	-0.3149806
-1.458294	e l m	-0.8129134
-1.596597	e l o	-0.4851698
-1.721536	e l p	-0.2373602
-1.721536	e l s	0.3390961
-1.721536	e l v	-0.3487261
-2.022566	e l y	-0.6309977
-0.1249387	f l i	-0.6114137
-0.5606673	g l a	-0.707778
-0.5606673	g l e	-0.920349
-0.4881167	g l i	-0.2850496
-1.124939	g l o	-0.6222607
-1.55707	g l u	-0.7224511
-0.3590219	h l </s>
-1.15913	h l a	-0.6482165
-0.7269987	h l i	-0.5611086
-1.15913	h l o	-0.7857394
-0.8711836	i l </s>
-1.069551	i l a	-0.8440667
-1.871184	i l b	-0.541528
-1.570154	i l d	0.08382369
-2.303315	i l e
-0.9169411	i l i	-0.56819
-0.4452149	i l l	-1.470725
-1.570154	i l m	-0.3257516
-0.7801031	i l o	-1.913249
-1.348305	i l y	-0.6551911
-0.30103	k l a	-0.2970904
-0.3802112	k l y	-0.3745514
-0.6063814	l l </s>
-0.6241101	l l a	-0.4915015
-2.260361	l l b	-0.7550766
-0.7738724	l l e	-0.7689367
-0.8282301	l l i	-0.6234635
-1.460253	l l o	-0.5686051
-1.351109	l l s	-0.6276141
-1.606381	l l u	-0.3429093
-1.101231	l l y	-1.032552
-0.09691001	m l i	-0.5098703
-0.1995724	n l a	-0.9335907
-1.233764	n l e	-0.7803972
-1.233764	n l i	-0.7876321
-0.8016323	n l y	-0.3106625
-1.336746	o l </s>
-0.9513947	o l a	-0.3966231
-0.8394209	o l d	0.05079883
-1.403692	o l e	-0.2958443
-1.704722	o l f	-0.1503214
-0.8808136	o l i	-0.2284456
-1.482874	o l k	-0.8142191
-0.6766936	o l l	-0.2751531
-1.336746	o l n	0.09690775
-1.181844	o l o	-0.3934411
-1.704722	o l s	-0.6140787
-1.005752	o l u	-0.4222732
-0.04830468	p l e	-1.109405
-1.171935	r l a	-0.3543003
-0.4149733	r l d	-1.111575
-0.7865844	r l e	-0.7970108
-0.60206	r l i	-1.190148
-1.238882	r l o	-0.4881692
-1.171935	r l y	-0.4613733
-0.2253093	s l a	-1.488646
-0.6690068	s l e	-1.363732
-1.021189	s l i	-0.3764499
-1.079181	s l o	-0.4050457
-0.5698753	t l a	-0.6605917
-0.1597008	t l e	-1.594821
-0.7429869	u l </s>
-0.5968588	u l a	-0.9352326
-1.441957	u l f	0.1491061
-1.441957	u l i	-0.261681
-0.9648356	u l l	-0.58441
-1.220108	u l s	-0.02663931
-0.7729501	u l t	-1.09752
-0.9190781	u l u	-1.352495
-0.2218488	w l i	-0.5611086
-0.09691001	x l e	-0.3677036
-0.1962947	y l a	-0.7966668
-0.9964029	y l o	-0.6535014
-0.9964029	y l v	-0.7550766
-0.05115252	. m .	0.3209237
-1.079181	<s> m a	-0.4641327
-1.733161	<s> m e
-0.4771213	<s> m i	-1.607123
-0.2596373	<s> m o	-1.338687
-2.06222	A m </s>
-0.02802872	A m e	-1.840674
-1.630089	A m i	-0.631263
-0.3679768	E m o	-0.4966392
-0.3679768	E m p	-0.2228326
-0.9964029	I m C	-0.4425822
-0.08715018	I m p	-0.2880028
-0.9550102	S m a	-0.7661356
-0.09691001	S m i	-0.8447241
-0.1249387	U m k	-0.0534114
-0.5460648	a m </s>
-0.9767287	a m a	0.2605365
-1.162365	a m b	-0.5079867
-0.7049881	a m e	-0.9838892
-0.8912985	a m i	-0.905785
-1.338457	a m m	-0.5462261
-1.861335	a m n	-0.1783501
-1.192328	a m o	-0.3816839
-1.259275	a m p	-0.2507079
-1.736397	a m u	-0.3562898
-2.293467	a m z	-0.4425822
-0.1760913	d m a	-0.2639498
-0.80618	e m </s>
-2.15913	e m a	-0.4535237
-1.30103	e m b	-0.4880064
-0.4259687	e m e	-1.992793
-0.9736711	e m i	-0.8035368
-2.15913	e m l	-0.09483702
-2.15913	e m m	-0.7577619
-0.6856061	e m o	-1.372647
-2.15913	e m p
-1.60206	e m s	-0.03996168
-1.50515	e m y	0.3134255
-0.4259687	g m a	-0.2195516
-0.2498775	g m i	-0.8252149
-0.4771213	h m a	-0.01576057
-0.2552725	h m o	-0.5741396
-0.5622929	i m </s>
-1.261263	i m a	0.1039978
-0.9090803	i m b	-0.8681124
-0.501595	i m e	-0.4903842
-0.8633229	i m i	-0.2420637
-1.386202	i m o	-0.5691898
-1.818333	i m s	-0.2295356
-0.3802112	l m </s>
-0.3388186	l m a	-1.003205
-1.274927	m m a	0.03853011
-1.098836	m m e	-0.7121314
-0.4402946	m m i	-1.432525
-1.011686	m m o	-0.9551111
-0.4096258	m m u	-0.7659168
-2.008089	m m y	0.5679208
-0.04139268	n m e	-1.153489
-1.081437	o m </s>
-0.8876173	o m a	-1.172564
-2.240567	o m b
-1.109466	o m e	-0.228531
-1.139429	o m i	-1.262124
-0.2943312	o m m	0.3612539
-1.586587	o m o	-0.2953255
-1.244165	o m p	-0.7145534
-1.808436	o m s	0.2082276
-2.240567	o m w	-0.4425822
-1.034191	p m </s>
-0.4771213	p m a	-0.2639498
-0.30103	p m e	-0.3911047
-0.2658656	r m a	-0.952174
-0.7429869	r m e	-0.962009
-1.220108	r m i	-0.3372796
-1.874088	r m u	-0.7847938
-0.7429869	r m y	0.1576079
-0.2340832	s m </s>
-1.034191	s m e	-0.6250769
-0.60206	s m i	-0.2465255
-1.46016	t m a
-0.04275198	t m e	-1.308391
-0.6532125	u m </s>
-0.6532125	u m a	-0.2909692
-0.7112045	u m b	-0.1782956
-0.8573325	u m e	-0.2302951
-1.511313	u m m	-0.7577619
-0.9542425	u m p	-0.2271004
-0.5166298	y m a	-0.4350961
-1.316738	y m l	-0.09483702
-1.316738	y m o
-0.3203351	y m p	-0.9081814
-1.636251	<s> n a
-1.20412	<s> n e	-0.3549815
-0.1014576	<s> n i	-1.473075
-0.9822713	<s> n o	-0.3021152
-1.190332	A n </s>
-1.747402	A n a
-0.5136381	A n d	-1.020852
-0.5619428	A n g	-0.9847267
-0.7923917	A n h	-0.4316459
-1.747402	A n o
-1.01424	A n t	-0.5236669
-1.432131	E n e	-0.7547992
-0.2466723	E n g	-1.218448
-1	E n r	-0.4793801
-0.7781513	E n t	-0.9691211
-0.4175356	I n c	-1.81799
-0.8547853	I n d	-0.8309063
-2.088549	I n f	-0.5719582
-0.7185656	I n s	-1.657636
-0.6863809	I n t	-1.383217
-1.230449	I n v	0.1426675
-0.01974406	U n i	-1.606161
-1.909253	U n l	-0.7676844
-0.2833985	a n </s>
-3.206892	a n D	-0.4425822
-1.77476	a n a	-0.4295373
-1.519488	a n c	-0.8475335
-1.12803	a n d	-0.761356
-1.13461	a n e	-1.528401
-3.206892	a n f	-0.5719582
-1.001462	a n g	-0.4756109
-2.406783	a n h	-0.7405034
-1.552911	a n i	-0.3822812
-2.406783	a n j	-0.5832772
-1.527606	a n k	-0.4853937
-3.206892	a n l	-0.7676844
-2.77476	a n m
-1.973128	a n n	0.3357471
-2.1727	a n o	-0.5514852
-1.307399	a n s	-0.4791857
-1.57064	a n t	-1.009988
-2.1727	a n x	0.0321847
-1.996609	a n y	-0.09682059
-2.649822	a n z	0.3592493
-0.243038	b n </s>
-0.8001082	b n o	-0.7715306
-0.06694679	d n e	-0.09523351
-0.552842	e n </s>
-1.321552	e n a	-0.7668223
-2.034762	e n b	0.04222515
-1.057039	e n c	-1.438917
-2.034762	e n d	-0.1765011
-1.350515	e n e	-0.866742
-1.020522	e n g	-0.2675865
-2.034762	e n h	-0.7676843
-1.451185	e n i	-0.6999732
-2.034762	e n k	-0.2669911
-1.39794	e n n	0.261232
-2.113943	e n r	-0.1437527
-1.321552	e n s	-0.4057923
-0.6339364	e n t	-0.5776889
-1.771521	e n v	0.01772879
-2.767924	e n y	-0.7677936
-1.69897	e n z	-0.3735807
-0.2560402	f n e	-0.7547992
-0.243038	g n </s>
-1.277229	g n a	-0.7678881
-0.845098	g n i	-0.5934582
-0.845098	g n u	-0.5999541
-0.2340832	h n </s>
-1.079181	h n i	-0.5974795
-0.9542425	h n o	-0.6591085
-1.511313	h n q	-0.191747
-0.8573325	h n s	-0.3787721
-0.808696	i n </s>
-0.8197474	i n a	-1.489621
-1.57607	i n c	-0.7223637
-2.153307	i n d	-0.8905734
-0.9343629	i n e	-0.7939996
-0.5033231	i n g	-0.5948511
-1.602399	i n h	-0.9087672
-1.107549	i n i	-1.287039
-3.062559	i n j
-2.408579	i n k	-0.1500482
-2.066156	i n l	-0.6455257
-2.505489	i n m	0.4371596
-2.028368	i n n	-0.8938493
-2.329398	i n o	-0.5718139
-1.630428	i n s	-0.2925187
-1.294636	i n t	-0.8230404
-1.852277	i n u	-0.7259116
-3.062559	i n y
-2.630428	i n z	0.08489127
-0.05799195	l n </s>
-0.1760913	m n i	-0.3231214
-0.6159958	n n </s>
-1.199572	n n a	-0.1271699
-0.4592097	n n e	0.07709295
-0.6766936	n n i	-0.2892177
-1.375664	n n o	-0.5503578
-1.074634	n n y	0.02601344
-2.469085	o n -
-0.4208378	o n </s>
-1.141726	o n a	-0.4589206
-2.372175	o n c	-0.9156768
-1.389904	o n d	-0.7341793
-1.458361	o n e	-0.7987362
-2.372175	o n f	-0.4758268
-0.5320692	o n g	-0.8752107
-1.491362	o n i	-0.9380034
-2.594024	o n j	-0.5507361
-2.594024	o n l	-0.5808378
-1.656172	o n n	-0.4075038
-2.116903	o n o	-0.3461012
-1.527077	o n s	-0.2058655
-1.770115	o n t	-0.5447058
-2.372175	o n v	0.6978848
-1.338752	o n y	-0.7521378
-0.6342447	r n </s>
-0.7339476	r n a	-0.8187273
-0.8635814	r n e	-0.8691518
-0.5532115	r n i	-1.500363
-1.079181	r n m	-0.1346986
-1.146128	r n o	-0.7135519
-0.3467875	s n e	-0.9834256
-0.30103	s n i	-0.6337896
-0.6539802	t n a	-0.7816038
-0.2218488	t n e	-0.6164637
-1.086021	u n </s>
-1.630089	u n a	-0.457974
-1.10721	u n c	-1.168404
-0.945842	u n d	-1.061983
-1.329059	u n e	-0.4924845
-0.80618	u n g	-1.144551
-0.5631419	u n i	-1.716642
-1.366847	u n n	-0.4573422
-1.80618	u n s	-0.1512747
-0.8400382	u n t	-0.7177106
-2.36325	u n u	-0.7740986
-0.2138798	w n </s>
-0.4771213	w n s	-0.5236227
-0.6283889	y n </s>
-0.7533277	y n a	-0.6432682
-0.6283889	y n c	-0.5622686
-0.7533277	y n e	-0.5630816
-1.185459	y n g	-0.3623616
-1.443263	<s> o '	0.09473688
-0.06305175	<s> o f	-0.7520857
-1.09108	<s> o n	-0.423444
-0.6532125	B o a	-0.9696174
-1.021189	B o b	-0.5054772
-1.322219	B o e	-0.3248434
-0.7993405	B o n	-0.4789826
-1.754351	B o o
-1.322219	B o r	-0.314308
-0.6853972	B o s	-0.5856801
-1.754351	B o u
-1.197281	B o w	-0.3141666
-1.322219	B o y	-0.295346
-1.215764	C o .	0
-2.532502	C o </s>
-2.100371	C o a	-0.5786313
-1.975432	C o c
-2.532502	C o h	-0.7789592
-1.215764	C o l	-0.2763702
-0.5688916	C o m	-1.651559
-0.6429933	C o n	-0.9298643
-1.732394	C o o	-0.879316
-0.9440234	C o r	-1.562592
-1.878522	C o s	-0.9471136
-0.6966782	C o u	-1.585462
-1.224015	D o d	-0.7613738
-1.348954	D o g	-0.3402205
-0.9809768	D o m	-0.773478
-0.2578731	D o n	-1.370377
-1.127105	D o r	-0.2666492
-1.781085	D o u	-0.7876987
-0.9809768	D o w	-0.6403102
-0.2523381	F o r	-1.004432
-0.4486327	F o u	-1.370522
-1.725862	F o x
-1.812343	G o d	-0.6327447
-1.812343	G o g	-0.7174187
-1.079181	G o l	-0.4919346
-1.812343	G o o	-0.7767737
-0.2340832	G o r	-1.286941
-0.7433891	G o v	-0.9957422
-1.812343	G o y	-0.6873517
-2.279293	H o d	-0.7686235
-0.8771244	H o l	-0.7210614
-1.546131	H o m	-0.5824341
-0.2789595	H o n	-1.625541
-1.847161	H o o
-2.279293	H o p
-2.279293	H o r	-0.7868913
-1.722222	H o s	-0.3637393
-1.847161	H o t	-0.2414706
-0.7332178	H o u	-1.819483
-2.279293	H o w	-0.7268602
-1.479184	H o y	-0.6485744
-1.830071	J o a	-0.7441192
-1.09691	J o e	-0.2585495
-0.5133334	J o h	-0.8616973
-0.69897	J o n	-0.5870633
-0.6197888	J o r	-0.9963502
-1.273001	J o s	-0.2947195
-1.09691	J o u	-0.3986488
-2.275156	K o </s>
-2.275156	K o b	-0.7583347
-1.621176	K o c	-1.000754
-2.275156	K o d	-0.6501188
-0.3073091	K o n	-1.866011
-0.604143	K o r	-1.638039
-0.7290817	K o s	-1.030437
-1.767923	L o a	-0.7441192
-0.9098234	L o c	-0.8957908
-0.9098234	L o m	-0.8939945
-0.4704907	L o n	-0.8446698
-0.7337321	L o s	-1.074759
-0.9098234	L o u	-0.8452367
-1.767923	L o w	-0.7268602
-1.366423	M o R	0.09473688
-1.491362	M o h	-0.5993555
-1.269513	M o m	-1.010718
-0.738034	M o n	-0.5625954
-0.968483	M o o	-0.2606647
-1.01424	M o r	-0.2218536
-0.6260602	M o s	-0.8131481
-0.9270903	M o t	-0.4962744
-1.366423	M o u	-0.2896284
-0.07918125	N o r	-0.9585325
-1.146128	N o t	-0.3301081
-1.546075	P o </s>
-0.4149733	P o l	-0.6311811
-1.546075	P o n	-0.7863703
-1.113943	P o p	-0.03862345
-1.113943	P o r	-0.3059193
-0.5910646	P o s	-0.9402039
-0.5378191	R o b	-0.9622124
-1.060698	R o d	-0.4545561
-1.361728	R o g	-0.5954735
-1.793859	R o l
-0.7249057	R o m	-1.191428
-1.139879	R o n	-0.507824
-0.7249057	R o s	-0.3181599
-1.361728	R o y	-0.5490161
-0.8248947	S o c	-1.112208
-2.122328	S o l	-0.7325373
-0.4114425	S o n	-1.138001
-2.122328	S o o	-0.6725644
-0.5875337	S o u	-1.52714
-0.845098	S o v	-1.019673
-1.608223	T o d	-0.6501188
-0.5070845	T o k	-0.9368684
-0.7501225	T o m	-0.3280179
-1.176091	T o n	-0.6350924
-1.176091	T o r	-0.3525998
-1.176091	T o u	-0.4942853
-0.8750613	T o w	-0.4232521
-1.051152	T o y	-0.7083307
-0.2218488	V o j	-0.3631779
-1.131101	V o l	-0.748684
-1.131101	V o s	-0.7217206
-1.703198	W o m	-0.7586697
-1.703198	W o n	-0.7757401
-1.049218	W o o	-0.9120826
-0.0854302	W o r	-1.368949
-1.774554	Y o k	-0.7794032
-1.217484	Y o n	-0.4532112
-0.1035406	Y o r	-1.680268
-0.916454	Y o u	-0.4357236
-0.07918125	Z o n	-1.032917
-0.1194758	a o </s>
-1.852637	a o b	-0.7296895
-1.420506	a o h	-0.341196
-1.852637	a o i	-0.6688683
-1.852637	a o j
-1.852637	a o p	-0.7689834
-1.420506	a o y	-0.5947736
-1.852637	a o z	-0.6848816
-1.156347	b o </s>
-0.5542872	b o d	-0.9702552
-1.156347	b o l	-0.5528091
-0.5920758	b o r	-1.45786
-1.588479	b o t	-0.6792338
-0.6792259	b o u	-0.9360754
-1.156347	b o x	-0.002258893
-0.5970966	c o </s>
-1.462398	c o a	-0.2792038
-1.894529	c o f	-0.7721959
-1.462398	c o g	-0.5954735
-1.094421	c o l	-0.7857066
-1.161368	c o m	-0.2520011
-0.6842467	c o n	-0.5243079
-1.240549	c o r	-0.3684735
-1.161368	c o t	-0.5849023
-1.462398	c o u
-1.337459	c o v	-0.4538473
-1.161368	c o w	-0.3939628
-0.7725474	d o </s>
-1.108339	d o c	-0.5122864
-0.2332782	d o n	-1.296976
-0.8864907	d o r	-0.3595493
-1.781085	e o l
-0.9229848	e o n	-0.3466768
-0.8718323	e o p	-0.9208187
-0.464347	e o r	-1.344941
-1.127105	e o t	-0.284452
-0.6219548	e o u	-1.13671
-1.153815	f o l	-0.5897068
-0.06567878	f o r	-0.8960752
-1.710885	f o u	-0.6326209
-0.4345689	g o </s>
-1.230449	g o n	-0.1738855
-1.133539	g o r	-0.6654208
-0.3701109	g o s	-1.384448
-1.787519	g o v
-1.626683	h o </s>
-2.058814	h o d
-1.501744	h o l	-0.2067302
-1.325652	h o m	-0.5573234
-0.8250501	h o n	-0.6123711
-1.501744	h o o	-0.3582505
-2.058814	h o p	-0.7847938
-1.200714	h o r	-0.8089532
-1.325652	h o s	-0.5248985
-2.058814	h o t	-0.7258099
-0.2649546	h o u	-1.358186
-0.9045953	i o </s>
-0.06469849	i o n	-1.926652
-1.983777	i o r	-0.6219653
-0.30103	j o d	-0.6302878
-0.4607309	k o </s>
-1.369984	k o k
-0.4607309	k o t	-0.8143634
-1.513218	l o </s>
-1.008068	l o b	-1.003873
-1.434036	l o c	-0.5737064
-1.513218	l o g	-0.387994
-1.735066	l o m	-0.3446444
-1.133006	l o n	0.09734652
-1.212188	l o o	-0.347043
-1.610128	l o p	-0.5708094
-0.5589751	l o r	-1.151422
-0.5889383	l o s	-1.270234
-1.434036	l o v	-0.5788189
-1.309098	l o w	-0.7114124
-1.346353	m o </s>
-2.000333	m o a	-0.7570842
-0.5138441	m o c	-1.409745
-1.443263	m o m	-0.5690958
-0.744293	m o n	-0.7110854
-0.5138441	m o r	-1.183651
-2.000333	m o s
-1.09108	m o u	-0.4982012
-1	n o </s>
-0.8750613	n o l	-0.528103
-0.8750613	n o m	-0.5820165
-0.69897	n o n	-0.3797872
-0.8239087	n o o	-0.8787574
-0.9330532	n o r	-0.3878276
-1.176091	n o v	-0.3593941
-1.30103	n o w	-0.4895993
-0.5698753	o o d	-1.312069
-1.414973	o o g	-0.6112677
-0.8129134	o o k	-0.2425094
-1.290035	o o l	-0.5837575
-0.613341	o o n	-0.4272946
-1.847105	o o p	-0.4763866
-1.193125	o o r	-0.3558542
-1.046997	o o t	-0.691609
-1.355388	p o e	-0.2964495
-1.133539	p o l	-0.9870327
-1.054358	p o n	-0.2863683
-0.1604111	p o r	-0.7763276
-1.230449	p o s	-0.683932
-2.287449	r o -
-1.010219	r o </s>
-1.378196	r o a	-0.4683901
-1.633469	r o d	-0.3738417
-1.554287	r o g	-0.4108959
-1.730379	r o i	-0.4281419
-1.156347	r o l	-0.5627711
-1.730379	r o m	-0.753493
-1.156347	r o n	-0.170369
-1.633469	r o o	-0.9757517
-0.9522272	r o p	-0.7617608
-0.7303784	r o s	-1.097427
-1.730379	r o t	-0.334656
-1.053685	r o u	-1.25507
-1.031408	r o v	-0.4422301
-1.156347	r o w	-0.6533565
-2.287449	r o z	-0.395867
-1.511883	s o </s>
-0.5457416	s o c	-1.330263
-1.636822	s o l	-0.2947742
-0.3505154	s o n	-1.5562
-1.414973	s o r	-0.1441256
-1.210853	s o t	-0.8143634
-1.335792	s o u	-0.3986488
-1.335792	s o v	-0.1229364
-1.059121	t o </s>
-2.394343	t o b	-0.5913868
-1.837273	t o c	-0.5457814
-1.837273	t o d	-0.4605449
-2.394343	t o g	-0.644868
-1.962211	t o l	-0.3355683
-1.837273	t o m	-0.2294818
-0.1698197	t o n	-1.535494
-1.837273	t o p	-0.5708094
-1.077605	t o r	-0.396212
-1.837273	t o s	-0.5903899
-1.325389	t o u	-1.083607
-2.394343	t o w	-0.6572243
-0.8325089	u o -	-0.6961198
-0.1697511	u o </s>
-1.486489	u o m
-1.486489	u o t
-0.60206	v o </s>
-0.60206	v o c	-0.6323476
-0.4771213	v o l	-0.3359904
-0.3332147	w o </s>
-0.3332147	w o o	-0.9777236
-1.402168	w o r
-0.09691001	x o n	-0.3970052
-0.251812	y o </s>
-0.552842	y o n	-0.3087237
-1.35295	y o t	-0.6539279
-0.60206	z o </s>
-0.60206	z o l	-0.5942017
-0.60206	z o n	-0.6229463
-0.7132105	<s> p .	-0.4806536
-0.8893017	<s> p a	-0.2984033
-1.446372	<s> p i
-1.01424	<s> p o	-0.3297149
-0.3774183	<s> p r	-1.013273
-1.446372	<s> p y	-0.6848816
-0.1383027	A p p	-0.2250272
-0.9964029	A p r	-0.7205751
-0.30103	O p e	-0.4922594
-0.4259687	O p p	-0.2406504
-0.2808266	S p a	-0.5659766
-0.845098	S p e	-0.529166
-1.578259	S p i
-0.845098	S p o	-0.04954524
-0.845098	S p r	-0.4866029
-0.1743436	a p a	-1.512308
-1.093422	a p e	-0.4578805
-1.491362	a p h	-0.1298302
-1.31527	a p i	-0.2249131
-1.491362	a p m	-0.4281419
-1.190332	a p o	0.02079933
-1.491362	a p p	-0.3353559
-2.048432	a p u
-0.4293485	e p a	-1.246403
-1.235528	e p h	-0.3492397
-0.980256	e p o	-0.4439529
-1.889509	e p p	-0.6784136
-1.332438	e p r	-0.1832278
-1.332438	e p t	-0.5250519
-0.4721005	e p u	-0.6446123
-0.4101745	i p </s>
-1.687404	i p a	-0.7862098
-0.5862657	i p e	-1.10084
-1.687404	i p m	-0.492777
-1.687404	i p o	-0.7606387
-0.7323937	i p p	-0.5012959
-0.2560402	j p a	-0.7810702
-0.2340832	l p h	-0.2637258
-0.4771213	l p o	-0.3615178
-1.679286	m p </s>
-0.7242759	m p a	0.024092
-0.7700334	m p e	-0.583074
-0.5781478	m p i	-0.7564034
-0.7242759	m p o	-0.8363593
-1.247155	m p t	-0.5305327
-1.679286	m p u
-1.687404	o p </s>
-0.2852357	o p e	-0.8380313
-1.130334	o p h	-0.4977778
-1.255273	o p i	-0.2502401
-0.7781513	o p l	-0.0222764
-1.130334	o p m	-0.3032031
-0.6320232	p p e	-0.2110388
-0.7781513	p p i	-0.5524203
-0.6320232	p p l	0.5563899
-0.8750613	p p o	-0.1961683
-1.432131	p p s	-0.09483702
-1	p p y	-0.2575314
-0.236572	r p .	-0.7659168
-0.6575773	r p </s>
-0.8538719	r p o	0.08895595
-0.2688453	s p a	-1.193251
-0.8129134	s p e	-0.5682355
-1.369984	s p i	-0.716967
-0.6368221	s p o	-0.1072818
-0.4701724	u p </s>
-1.093422	u p e	-0.2870515
-1.747402	u p p
-0.3299937	u p r	-1.056116
-1.31527	u p t	-0.5305327
-0.2560402	w p o	-0.2835174
-0.06694679	x p o	-0.04954524
-1.101138	y p h
-0.06694679	y p t	-0.2210163
-0.05115252	E q u	-0.3523905
-0.1602145	a q </s>
-1.371068	a q e	0.09473688
-0.6114	a q i	0.5960148
-0.01223446	g q i	-1.120466
-0.1249387	n q u	-0.4513514
-0.2560402	s q u	-0.7626066
-0.2735089	A r a	-1.719597
-1.126294	A r i	-0.4999216
-1.552263	A r k	-0.6426342
-0.7283538	A r m	-0.8813477
-1.184286	A r n	-0.5239991
-1.251233	A r t	-0.4069053
-1.552263	A r u	-0.6076986
-0.7333389	B r a	-1.68844
-1.361728	B r e
-0.3105753	B r i	-0.8288628
-0.60206	B r o	-0.7550721
-1.918798	B r u	-0.7836539
-0.8624721	C r a	-0.4102899
-0.8044802	C r e	-0.5543824
-1.230449	C r i	-0.3489963
-0.2024202	C r o	-1.171873
-0.4771213	D r e	-0.7059106
-1.034191	D r o	-0.7915608
-0.30103	D r u	-0.5697986
-1.068954	E r e	-0.7909213
-0.07255067	E r i	-0.4969223
-0.3764511	F r a	-1.411216
-0.2947811	F r e	-0.8816029
-1.236789	F r i	-0.7467855
-0.7781513	G r a	-0.6862969
-0.2688453	G r e	-1.285193
-0.5698753	G r o	-0.8049157
-0.02855546	I r a	-1.877251
-1.263241	I r e	-0.6127512
-0.1249387	K r e	-0.323195
-0.4771213	O r g	-0.9708902
-0.3309932	O r l	-0.8452837
-1.131101	O r t
-1.608223	P r a
-0.69897	P r e	-0.379796
-0.5070845	P r i	-0.7935033
-0.3521825	P r o	-0.5661269
-0.5473212	T r a	-1.01043
-0.5038555	T r e	-1.229602
-0.6799468	T r i	-1.096383
-0.7468936	T r u	-0.4266708
-0.05799195	W r i	-0.874594
-1.022909	a r </s>
-1.022909	a r a	-0.6951595
-2.102091	a r b	-0.2226945
-1.528059	a r c	-0.621962
