
\data\
ngram 1=88
ngram 2=1922
ngram 3=8526
ngram 4=18415
ngram 5=21316
ngram 6=18338

\1-grams:
-3.352447	"	-2.389141
-2.580834	%	-3.229597
-3.311054	&	-2.972999
-2.629019	'	-3.254458
-4.270777	(	-1.48155
-4.296331	)	-1.456727
-5.115875	+	-1.102856
-3.297649	,	-2.935641
-2.478785	-	-3.130329
-2.147578	.	-3.945755
-3.656482	/	-2.083859
-2.629019	0	-3.242051
-2.76757	1	-3.040194
-2.948557	2	-2.779161
-3.051417	3	-2.598048
-3.129103	4	-2.811964
-2.943856	5	-3.228522
-3.161632	6	-2.586237
-3.144599	7	-4.216501
-3.062028	8	-2.870478
-3.247818	9	-2.601115
-3.644583	:	-2.222353
-5.814845	;	-0.2262779
-0.8010009	</s>
-99	<s>	-4.297694
-4.911755	?	-0.8794904
-5.212785	@	-1.148398
-2.020148	A	-2.360547
-2.081487	B	-3.533285
-1.802134	C	-4.00274
-2.338013	D	-4.024521
-2.468883	E	-3.096223
-2.429954	F	-2.978794
-2.37425	G	-3.101436
-2.289023	H	-3.299524
-2.208141	I	-3.104435
-2.329549	J	-3.424732
-2.454441	K	-2.935619
-2.296068	L	-3.644934
-2.151238	M	-3.024343
-2.187889	N	-3.400306
-2.668406	O	-2.936115
-2.140811	P	-3.06541
-3.263395	Q	-2.473182
-2.281454	R	-3.154456
-1.865552	S	-4.078548
-2.059504	T	-3.200088
-2.34326	U	-3.334639
-2.805819	V	-2.71628
-2.349611	W	-3.210615
-3.121998	X	-2.713945
-2.576297	Y	-3.802512
-3.036693	Z	-2.750605
-5.814845	[	-0.2262779
-5.513814	]	-1.007542
-5.513814	_	-1.078128
-3.369241	`	-2.372188
-1.093719	a	-3.975633
-2.196587	b	-3.058762
-1.769639	c	-3.595068
-1.815105	d	-3.343625
-1.111356	e	-3.715614
-2.22456	f	-2.983503
-1.754373	g	-3.51246
-1.50887	h	-3.83719
-1.193658	i	-3.816613
-2.859638	j	-2.888945
-2.214634	k	-3.488096
-1.524476	l	-3.512449
-1.781863	m	-3.239314
-1.164858	n	-3.923102
-1.324788	o	-3.77629
-2.056766	p	-3.017172
-2.77702	q	-2.80433
-1.347399	r	-3.662269
-1.408287	s	-3.981716
-1.361848	t	-3.624266
-1.631803	u	-3.445569
-2.263395	v	-3.443672
-2.143857	w	-3.536588
-2.759084	x	-2.97614
-1.994709	y	-3.415752
-2.597098	z	-2.961399
-5.212785	{	-0.6242179
-5.212785	}	-0.6242179
-5.814845	Å	-0.3010293
-5.814845	Æ	-0.283727
-5.814845	„	-0.3010293

\2-grams:
-0.001494991	" </s>
-2.27354	% -
-0.002783138	% </s>
-3.236033	% u
-0.1508554	& </s>
-1.700003	& B	-0.2935014
-2.545307	& D
-2.545307	& E
-1.165096	& G	-1.386388
-1.642217	& L	-0.9415538
-1.700003	& M	-0.2885189
-1.629098	& P	-0.8275166
-1.582814	& Q	-0.7803981
-2.545307	& S
-1.369216	& T	-1.190179
-2.545307	& Y
-1.582814	& i	-0.6833808
-1.582814	& o	-0.7736881
-2.545307	& t
-2.545307	& v
-1.130334	' '	-2.015721
-0.8904619	' </s>
-2.503246	' A	-0.09993529
-2.056088	' B	-1.117848
-2.503246	' C	-0.3837367
-2.503246	' D	-0.6551547
-3.202216	' E
-2.356912	' G	-0.2775094
-2.239722	' H	-0.6821908
-3.202216	' M
-2.356912	' N	-0.1649678
-2.239722	' O	-0.7265908
-1.738777	' S	-0.3214254
-1.710854	' a	-0.9302557
-3.202216	' b
-2.202216	' c	-1.037804
-3.202216	' d
-2.239722	' e	-0.7251409
-3.202216	' g
-2.503246	' i	-0.1159909
-3.202216	' m
-2.239722	' n
-3.202216	' r
-0.1596403	' s	-2.851189
-2.600156	' t	-0.6204365
-3.202216	' v
-0.01223446	( </s>
-0.01296498	) </s>
-0.15145	+ </s>
-1.113943	+ B
-1.113943	+ F
-1.113943	+ u
-0.5334978	, 0	-1.875454
-1.575326	, 1
-1.62161	, 2	-0.3178962
-2.537819	, 4
-1.692515	, 5	-0.2646142
-2.537819	, 7
-1.62161	, 8	-0.09812825
-0.2176728	, </s>
-2.303589	- -	-0.01523317
-3.344981	- 0
-3.344981	- 3
-3.344981	- 9
-0.03920026	- </s>
-2.066228	- A	-0.4212077
-2.382488	- B	-0.6723483
-2.303589	- C	0.1994647
-3.344981	- D
-2.382488	- F
-3.344981	- G
-2.499677	- H	-0.247348
-2.428773	- I	-0.05946341
-2.390739	- J	-0.7723084
-3.344981	- K
-2.382488	- L	-0.7059946
-2.646011	- M	0.01281452
-2.646011	- N	-0.1283032
-3.344981	- P
-2.742921	- R	-0.07151423
-2.16889	- S	-0.419178
-2.382488	- T
-2.742921	- U	-0.4173311
-3.344981	- V
-2.428773	- W	-0.1851187
-3.344981	- Z
-3.344981	- c
-2.382488	- d
-3.344981	- e
-2.390739	- h	-0.7716873
-3.344981	- m
-2.646011	- n	-0.6925646
-2.303589	- o	-1.513087
-3.344981	- s
-3.670617	. .
-2.068557	. 0	0.4362521
-1.838108	. 1	-0.5771908
-1.801385	. 2	-0.6719543
-1.762132	. 3	-0.3845511
-1.864437	. 4	-0.7657718
-1.566813	. 5	-0.4642219
-1.801385	. 6	-0.5236333
-1.789803	. 7	-0.8312421
-1.851073	. 8	-0.5483387
-1.77299	. 9	-0.437016
-0.239897	. </s>
-2.179255	. A	-1.466922
-2.708123	. B	-0.7879408
-2.047368	. C	-0.9209
-2.754408	. D	-0.830443
-2.825313	. E	-0.2946489
-3.670617	. F
-2.825313	. G	-0.2963027
-2.754408	. H	-0.3870282
-2.825313	. I	-0.3520691
-2.415344	. J	-1.247766
-2.193496	. K	-1.470924
-2.825313	. L	-0.2950144
-3.068557	. M	-0.2006543
-2.239253	. N	-1.423336
-3.068557	. P	-0.6974256
-2.670617	. R	-1.467919
-0.7286088	. S	-2.664997
-2.290406	. T	-1.204114
-2.716374	. V	-0.7820639
-2.825313	. W	-0.2912708
-2.494526	. Y	-0.9918562
-2.971647	. b	-0.3100442
-2.591436	. c	-1.522471
-1.930254	. m	-1.680941
-2.767527	. o	-0.8798827
-2.825313	. p	-0.3195834
-0.6298891	/ 1	-1.027932
-0.7463946	/ 2	-1.259345
-2.161368	/ 3
-0.7463946	/ 4	-1.245024
-1.047425	/ 8	-0.8796297
-0.5179153	/ </s>
-3.190051	0 %
-3.190051	0 +
-1.404722	0 ,	-1.641962
-1.265772	0 .	-1.265387
-0.5783281	0 0	-0.763638
-1.911298	0 1	-0.8907028
-2.286961	0 2	-0.7822237
-1.985931	0 3	-0.7243746
-2.190051	0 4	-0.8136606
-1.911298	0 5	-0.9571092
-2.148659	0 6	-0.7824935
-2.286961	0 7	-1.204728
-2.227558	0 8	-0.5234451
-2.148659	0 9	-0.6266154
-2.11087	0 :	-0.05916338
-0.2580853	0 </s>
-2.227558	0 s	-0.5981638
-2.491081	0 t	-0.4414276
-1.934498	1 ,	-0.6565962
-1.124163	1 .	-0.5839728
-1.414973	1 /	-1.06464
-0.7324715	1 0	-0.1354095
-1.070718	1 1	-0.7301963
-1.249101	1 2	-0.498134
-1.242262	1 3	-1.954163
-1.414973	1 4	-0.6601649
-1.027253	1 5	-0.6383593
-1.228898	1 6	-0.4847855
-1.446382	1 7	-0.4181116
-1.516963	1 8	-0.3540419
-1.543292	1 9	-0.4278552
-1.817993	1 :	-0.2291701
-0.7628845	1 </s>
-2.048442	1 s	-0.9745253
-2.132233	1 t	-0.7475033
-2.870989	2 %
-1.916746	2 ,	-0.03813064
-1.01973	2 .	-0.7385793
-0.8295961	2 0	-0.4599611
-1.326921	2 1	-1.012279
-1.423831	2 2	-0.7315053
-1.473049	2 3	-0.407062
-1.268929	2 4	-0.457381
-1.051445	2 5	-0.9415969
-1.615716	2 6	-0.5331448
-1.548769	2 7	-0.1129401
-1.379627	2 8	-1.049688
-1.64054	2 9	0.001198469
-1.791808	2 :	-0.2014296
-0.4853825	2 </s>
-2.172019	2 n	-0.5171807
-2.870989	2 s
-1.908495	2 t	-0.6923487
-2.162116	3 ,
-0.8296777	3 .	-1.240298
-1.349203	3 /	-1.100598
-0.7307523	3 0	-0.2420222
-1.722783	3 1	-0.1285476
-1.533727	3 2	-0.4563701
-1.402448	3 3	-0.1837205
-1.684995	3 4	-0.246532
-1.508904	3 5	-0.6103216
-1.764176	3 6	0.04538115
-1.441957	3 7	-0.4702516
-1.764176	3 8	0.100931
-1.684995	3 9	-0.3742619
-1.722783	3 :	0.03373662
-0.4719201	3 </s>
-2.764176	3 B
-2.764176	3 M
-2.764176	3 a
-1.684995	3 r	-1.101694
-1.265726	4 ,	-0.2175475
-0.9298242	4 .	-0.7745532
-0.8840668	4 0	-0.1974478
-1.615221	4 1	-0.6572757
-1.348954	4 2	-0.5092224
-1.615221	4 3	-0.4261642
-1.265726	4 4	-0.3939866
-1.282007	4 5	-0.8022072
-1.450411	4 6	-0.5705842
-1.406945	4 7	-0.7131505
-1.615221	4 8	-0.03915044
-1.729165	4 9	-0.7722019
-1.812956	4 :	-0.4411591
-0.4573232	4 </s>
-2.729165	4 s
-1.883861	4 t	-0.2012138
-1.798766	5 ,	-0.9635141
-1.187751	5 .	-0.8548967
-1.923704	5 /	-0.9134485
-0.7256586	5 0	-0.6695203
-1.836554	5 1	-0.3805242
-1.701856	5 2	-0.7030424
-1.877947	5 3	-0.5202546
-1.923704	5 4	-0.7679031
-1.576917	5 5	-0.9571092
-1.836554	5 6	-0.4814635
-1.764004	5 7	0.1104919
-1.764004	5 8	-0.546415
-1.961738	5 9	-0.1620271
-1.961738	5 :	-0.9010011
-0.2619969	5 </s>
-2.877947	5 B
-2.877947	5 m
-1.915454	5 t	-0.6923487
-1.983175	6 ,	-0.5485407
-1.019387	6 .	-0.6887768
-0.7956544	6 0	-1.5356
-1.602964	6 1	-0.4690524
-1.602964	6 2	-1.257012
-1.218706	6 3	-0.1892614
-1.836841	6 4	-0.1124692
-1.359926	6 5	-0.6772684
-1.682145	6 6	-0.1390408
-1.640752	6 7	-0.8701812
-1.727903	6 8	0.07793844
-1.983175	6 9	-0.3112243
-1.602964	6 :	0.09030875
-0.3476913	6 </s>
-2.682145	6 s
-1.836841	6 t	-0.257506
-1.762601	7 ,
-0.5979897	7 .	-1.873121
-1.261655	7 /	-0.4270639
-1.017524	7 0	-0.9526108
-2.123034	7 1	-0.61667
-2.026124	7 2	-0.1743237
-1.261655	7 3	0.02684335
-1.808886	7 4	-1.053774
-1.181026	7 5	-0.8991172
-2.123034	7 6	-0.4400708
-1.770852	7 7	-0.3059098
-1.770852	7 8	0.07793844
-1.762601	7 9	-0.5621454
-1.611151	7 :	-0.3198561
-0.4870484	7 </s>
-2.725095	7 B
-1.808886	7 t	-0.7475033
-2.064458	8 ,	-0.3885931
-0.718105	8 .	-0.9463611
-2.763428	8 /
-1.01524	8 0	-0.1785488
-1.847219	8 1	-0.2314549
-1.809186	8 2	-0.1939972
-2.064458	8 3	0.001459227
-1.763428	8 4	-0.3608896
-1.809186	8 5	-0.4211426
-1.763428	8 6	0.0933319
-1.722035	8 7	-0.7107498
-1.332064	8 8	-0.8638355
-1.684247	8 9	-0.2493232
-1.4017	8 :	-0.6106173
-0.3385464	8 </s>
-1.918124	8 s	-0.1070289
-1.800935	8 t	-0.6923487
-1.630793	9 ,	-0.6395142
-1.231558	9 .	-0.4543747
-1.479343	9 /	-1.030083
-0.9120448	9 0	-1.108825
-1.991226	9 1	-0.1534483
-1.747982	9 2	-0.1830819
-1.593286	9 3	-0.09533834
-1.690196	9 4	-0.2532177
-1.338014	9 5	-0.4342304
-1.231558	9 6	-0.9413775
-1.639044	9 7	-0.0173484
-1.514105	9 8	-0.4323152
-1.389166	9 9	-0.3129548
-1.447158	9 :	0.02582198
-0.3891661	9 </s>
-2.593286	9 a
-1.630793	9 s	-0.5981638
-1.747982	9 t	-0.2012138
-0.4547011	: 0	-1.053849
-1.262768	: 1	-0.05330153
-1.224734	: 2	-0.1682536
-0.660463	: 3	-0.82796
-1.065034	: 4	-0.4330085
-1.099796	: 5	-0.2145303
-0.8365543	: </s>
-0.30103	; </s>
-2.551496	<s> "	0
-1.780391	<s> %	-1.038863
-2.609061	<s> &	-1.364127
-1.896292	<s> '	-1.235014
-3.469826	<s> (	0
-3.49538	<s> )	0
-4.16859	<s> +
-2.693748	<s> ,	-1.917939
-1.708113	<s> -	-2.216071
-3.027122	<s> .	-1.313541
-3.370442	<s> /	-1.496166
-3.235743	<s> 0	-0.9230805
-2.119025	<s> 1	-0.8730795
-2.385505	<s> 2	-0.2221653
-2.563645	<s> 3	0.6149094
-2.654059	<s> 4	0.1727511
-2.595593	<s> 5	0.2088731
-2.728337	<s> 6	0.232859
-2.657868	<s> 7	0.3032748
-2.508744	<s> 8	-0.2507859
-2.807068	<s> 9	-0.1252509
-3.671472	<s> :	-1.293341
-5.013894	<s> ;
-4.110804	<s> ?	0
-4.411834	<s> @	0.3920486
-1.278535	<s> A	-0.5167528
-1.335194	<s> B	-0.9630965
-1.04841	<s> C	-0.4570601
-1.575352	<s> D	-0.698655
-1.726316	<s> E	-0.9770795
-1.645793	<s> F	-0.9273646
-1.595427	<s> G	-0.564168
-1.499346	<s> H	-0.4205405
-1.461226	<s> I	-0.8166066
-1.536628	<s> J	-0.9531672
-1.67924	<s> K	-0.8197511
-1.520157	<s> L	-0.565441
-1.376805	<s> M	-0.5942932
-1.461835	<s> N	-1.05223
-2.040766	<s> O	-0.9079045
-1.37982	<s> P	-0.6402025
-2.479868	<s> Q	-1.098514
-1.531592	<s> R	-1.218935
-1.183948	<s> S	-1.03848
-1.294978	<s> T	-1.137437
-1.559659	<s> U	-0.1751111
-2.096914	<s> V	-1.241331
-1.559202	<s> W	-0.001657645
-2.341796	<s> X	-0.5834866
-1.783701	<s> Y	-1.033607
-2.245997	<s> Z	-0.7331108
-5.013894	<s> [
-4.051401	<s> ]	0.292351
-2.864675	<s> `	0.4762544
-1.890369	<s> a	-2.20037
-2.708543	<s> b	-0.8292657
-2.542603	<s> c	-1.160483
-2.719428	<s> d	-1.705712
-2.677434	<s> e	-0.972804
-2.443351	<s> f	-2.285278
-3.207714	<s> g	-1.679024
-2.284729	<s> h	-2.076825
-2.829203	<s> i	-0.9655102
-3.069412	<s> j	-0.9330528
-2.890043	<s> k	-1.260919
-2.630079	<s> l	-2.067633
-2.151167	<s> m	-1.139135
-2.551496	<s> n	-2.336284
-1.940176	<s> o	-1.929609
-2.508744	<s> p	-2.019625
-4.411834	<s> q	-0.5989866
-3.064504	<s> r	-1.493153
-2.502011	<s> s	-0.8218659
-1.313104	<s> t	-2.680071
-3.434111	<s> u	-0.553917
-3.671472	<s> v	0.491166
-2.996861	<s> w	-1.234953
-4.411834	<s> x	-0.09708311
-2.942012	<s> y	-2.014879
-3.691675	<s> z	-0.5352873
-4.411834	<s> {	0
-4.411834	<s> }	0
-0.05115252	? </s>
-1.079181	@ A
-1.079181	@ N
-0.1166879	@ S	-0.7894978
-2.954174	A &	-0.2900557
-1.973404	A .	-0.8061682
-2.836985	A 1	-0.7076434
-2.836985	A 3
-1.13296	A </s>
-2.623387	A A	-0.7722291
-1.782445	A B	-1.395574
-2.03605	A C	-0.7685575
-2.845236	A D	-0.1810084
-2.88327	A E	-0.3237793
-2.419267	A F	-1.370316
-2.243176	A G	-0.9474638
-2.336039	A I	-0.2599773
-3.100508	A K	-0.4715787
-2.294328	A L	-1.013727
-2.56903	A M	-1.095671
-2.267999	A N	-0.5409843
-2.623387	A O	-0.9594427
-2.457056	A P	-0.9513887
-2.836985	A Q	-0.7803981
-2.308117	A R	-0.4574085
-2.109282	A S	-0.8906564
-2.059116	A T	-0.9905382
-3.799478	A U
-2.836985	A V
-2.56903	A W	-1.247586
-3.799478	A X
-3.799478	A Y
-2.836985	A Z	-0.7834912
-2.720297	A a	-1.040439
-1.432122	A b	-1.152743
-1.738781	A c	-0.7744694
-1.558929	A d	-0.7549237
-2.219695	A e	-1.041308
-1.329656	A f	-2.367055
-1.292973	A g	-1.665132
-2.075202	A h	-1.175729
-1.509444	A i	-1.387759
-2.401538	A k	-0.8371252
-1.060698	A l	-0.7307699
-0.7828628	A m	-0.6137335
-1.183528	A n	-0.9477471
-2.520725	A o	-1.689069
-2.083475	A p	-0.8638816
-2.954174	A q
-0.9320109	A r	-1.561047
-1.137666	A s	-0.7896061
-1.821755	A t	-0.5845248
-1.432122	A u	-1.252475
-2.267999	A v	-0.459535
-2.758086	A w	-0.6411393
-2.720297	A x	-1.044116
-3.100508	A y	-0.4034742
-2.33708	A z	-0.6454143
-2.772626	B &	-0.7784432
-2.33718	B .	-0.5417927
-3.73512	B 9
-1.915576	B </s>
-2.257998	B A	-0.7122422
-1.871797	B B	-1.253641
-1.308608	B C	-2.883259
-3.73512	B D
-2.504671	B E	-1.232283
-3.13306	B H	-0.6959178
-1.896271	B I	-1.688931
-3.73512	B J
-3.73512	B L
-2.019116	B M	-1.705335
-2.655938	B N	-0.7771304
-2.693727	B O	-0.8826758
-2.772626	B P	-0.772362
-3.73512	B R
-1.73512	B S	-1.952691
-3.73512	B T
-3.13306	B U
-3.73512	B W
-0.6248667	B a	-1.473517
-0.8342066	B e	-1.923592
-2.772626	B h
-1.20492	B i	-0.7613993
-1.595241	B l	-1.137945
-1.00112	B o	-0.5429939
-0.9013352	B r	-2.511201
-0.7956004	B u	-1.760657
-2.621176	B y	-1.096716
-4.015024	C &
-2.299021	C .	-1.343803
-4.015024	C 6
-4.015024	C 8
-1.168687	C </s>
-2.290748	C A	-1.027783
-2.037301	C B	-1.84674
-2.446823	C C	-1.090161
-2.935843	C D	-0.6255811
-4.015024	C E
-2.868896	C H	-0.2675703
-1.954326	C I	-1.365683
-3.111934	C K	-0.5966052
-2.551585	C L	-0.546786
-3.052531	C M
-1.865805	C N	-1.367025
-2.446823	C O	-0.8309711
-2.617084	C P	-0.873515
-4.015024	C Q
-3.015024	C R	-0.6125619
-3.412964	C S	-0.1562343
-2.470956	C T	-1.160656
-3.052531	C U
-3.052531	C V	-0.7136035
-3.052531	C W	-0.7887697
-0.988491	C a	-1.176545
-1.688688	C e	-1.675011
-0.4744445	C h	-2.694198
-1.640276	C i	-1.042387
-1.358926	C l	-2.338126
-3.16972	C n	-0.3238752
-0.5219847	C o	-1.289914
-1.887919	C r	-1.625565
-1.660916	C u	-1.467579
-2.901081	C y	-0.2685185
-2.935843	C z	-1.024007
-2.6424	D &	-0.2900557
-2.885644	D '	-0.6976047
-1.479104	D .	-2.107929
-3.487704	D 1
-1.896639	D </s>
-1.885644	D A	-0.9168882
-2.487704	D C	-1.010896
-2.584614	D E	-0.4526861
-2.525211	D F	-0.7828988
-3.487704	D H
-2.533461	D I	-0.696012
-3.487704	D K
-2.024265	D L	-0.2491891
-2.525211	D M	-0.7892956
-2.37376	D N	-0.5963462
-2.040546	D O	-0.9531718
-1.695312	D P	-1.590028
-2.533461	D R	-0.9386252
-2.408523	D S	-1.067392
-2.885644	D T	-0.6850293
-2.6424	D U	-0.2283329
-2.525211	D V	-0.7810497
-3.487704	D X
-3.487704	D Y
-3.487704	D Z
-0.6953122	D a	-0.9681304
-0.4447348	D e	-1.137597
-2.584614	D h	-0.8921935
-1.037455	D i	-1.329175
-2.024265	D j	0.2413961
-2.788734	D m	-0.4759131
-1.017882	D o	-0.7891245
-1.36713	D r	-0.9604391
-1.294579	D u	-0.267607
-2.571495	D w	-0.2634851
-2.232431	D y	-0.937492
-3.363236	E -
-2.020813	E .	-0.4931009
-1.380965	E </s>
-2.084482	E A	-0.4156154
-2.517932	E B
-1.399448	E C	-1.533476
-2.284055	E D	-0.6294875
-2.400743	E E
-2.400743	E F	-0.7828988
-2.761176	E G	-0.1912334
-2.761176	E I	-0.233978
-2.460146	E L	-0.2883412
-2.020813	E M	-0.6352232
-1.899797	E N	-0.1178061
-2.400743	E O
-2.321843	E P	-1.039302
-2.001508	E R	-0.3491504
-2.159116	E S	-0.728092
-2.460146	E T	-0.3517969
-1.858086	E U	-1.50609
-2.447027	E V	-0.276757
-3.363236	E W
-2.400743	E X
-2.400743	E Z	-0.7786257
-1.022792	E a	-1.900548
-2.400743	E b	-0.7084737
-1.273331	E c	-1.438576
-1.151048	E d	-1.521278
-3.363236	E f
-1.394753	E g	-1.251712
-1.363236	E h	-1.786364
-1.655666	E i	-0.9057506
-2.400743	E k	-0.7801886
-1.073201	E l	-0.3923647
-1.710023	E m	-1.190558
-1.140519	E n	-1.541545
-2.408993	E p	-0.6437389
-2.132787	E q	-1.155289
-1.438956	E r	-1.058336
-1.750452	E s	-0.7006491
-1.783452	E t	-0.8909608
-1.187145	E u	-1.924446
-1.599808	E v	-0.5346981
-2.400743	E w	-0.7681794
-0.9533027	E x	-1.526753
-3.363236	E y
-2.517932	E z	-0.3461567
-2.31632	F .	-0.7069807
-2.433008	F 1
-1.793441	F </s>
-1.851433	F A	-1.142155
-1.582588	F B	-1.813994
-1.890351	F D	-1.985791
-2.492411	F E	-0.4263874
-2.479292	F H	-0.8434474
-2.479292	F I	-0.345213
-2.441259	F K	-0.9915266
-2.354108	F L	-1.066492
-3.395501	F N
-2.550197	F O	-0.2930562
-2.191381	F P	-1.212867
-2.433008	F R
-1.932062	F T	-0.5708911
-3.395501	F W
-2.433008	F X	-0.7690933
-1.008111	F a	-0.9005777
-0.9391351	F e	-1.145883
-0.8640222	F i	-1.015061
-0.9993018	F l	-1.585525
-2.433008	F m	-0.7895763
-0.7570119	F o	-1.670969
-0.7280481	F r	-2.372096
-3.395501	F s
-2.696531	F t	-0.5384257
-1.246282	F u	-0.7072952
-3.444201	G &
-2.240081	G .	-0.4204607
-1.580878	G </s>
-1.76296	G A	-0.91583
-2.444201	G B	-1.035762
-2.842141	G D	-0.234475
-1.900133	G E	-1.399057
-2.444201	G I	-0.5364164
-2.165447	G M	-1.268464
-1.810732	G O	-0.9656922
-2.842141	G P	-0.6968792
-2.745231	G R	-0.6968272
-2.481708	G S
-2.36502	G T	-1.078036
-2.481708	G Y
-0.8168351	G a	-0.9989491
-2.598897	G b	-0.2173388
-0.6332967	G e	-1.047742
-2.330258	G h	-0.1764494
-1.387296	G i	-0.640299
-1.76296	G l	-1.19682
-0.8057117	G o	-1.307196
-0.7861896	G r	-2.362677
-3.444201	G s
-0.9296532	G u	-0.4707735
-2.598897	G w	-0.3542728
-2.842141	G y	-0.6943631
-2.192492	H .	-0.6691922
-2.154703	H </s>
-2.420971	H A	-0.5583452
-2.631824	H B	-0.9533625
-2.68961	H C	-0.2983888
-2.580672	H E	-0.1549066
-3.534914	H H
-2.071475	H I
-2.68961	H K	-0.2903351
-3.534914	H L
-3.534914	H N
-2.580672	H O	-0.2974257
-2.572421	H Q	-0.7803981
-2.68961	H R	-0.3542192
-2.835944	H S	-0.3887128
-2.932854	H T	-0.7750573
-2.835944	H U	-0.1523606
-2.932854	H V	-0.62263
-3.534914	H W
-0.6581191	H a	-0.8473391
-0.9883714	H e	-0.4921827
-1.167558	H i	-1.068915
-3.534914	H m
-2.572421	H n	-0.7497993
-0.528448	H o	-1.413896
-1.075522	H s	-2.419573
-0.7906211	H u	-0.9441792
-2.071475	H w	-0.3752651
-2.154703	H y	-0.9279169
-3.534914	H z
-3.621072	I '
-2.157633	I .	0.004223715
-1.219672	I </s>
-1.701994	I A	-1.757926
-1.808159	I B	-1.500957
-1.997823	I C	-0.6269583
-2.658579	I D	-0.7882448
-2.717982	I E	-0.4066755
-2.157633	I F	-0.4987513
-2.775768	I G	-0.2872562
-2.775768	I H	-0.2957564
-1.888679	I I	-1.707338
-2.775768	I L	-0.3545793
-2.704864	I M	-0.3530461
-2.390623	I N	-0.2298322
-2.444981	I O	-0.4850668
-2.621072	I P	-0.6107862
-2.775768	I Q	-0.2904639
-1.872884	I R	-1.324075
-2.621072	I S	-0.1152031
-2.416952	I T	-0.4026764
-2.658579	I V
-2.775768	I W	-0.2911217
-2.775768	I a	-0.2190602
-2.3658	I b	-0.554383
-2.922102	I c	-0.2889993
-2.390623	I d	-0.9858081
-2.658579	I f	-0.7735744
-2.717982	I g	-0.5791155
-3.019012	I h	-0.2330181
-2.658579	I i	-0.7873387
-3.621072	I j
-2.157633	I k	-0.1864306
-1.987604	I l	-1.384023
-1.634301	I m	-1.289539
-0.5664593	I n	-1.384381
-2.444981	I o	-1.167051
-0.6470215	I r	-2.280112
-0.6320677	I s	-1.519965
-1.746011	I t	-1.133552
-2.27865	I v	-0.9115201
-2.658579	I w	-0.5974653
-3.621072	I y
-2.658579	I z
-2.527887	J &	-0.7799305
-3.49038	J '
-1.766104	J .	-0.7500154
-2.344252	J </s>
-2.574171	J A	-0.3514328
-2.448987	J D	-1.522897
-2.536137	J F	-0.9984249
-2.58729	J I	-0.9474344
-3.49038	J N
-2.645076	J P	-0.3540111
-2.026941	J R	-0.2462605
-2.79141	J S	-0.5384879
-0.3893206	J a	-1.463478
-0.8692036	J e	-1.096965
-0.9049192	J i	-1.295915
-0.6767989	J o	-1.152937
-1.934077	J r	-1.32286
-1.223208	J u	-0.650918
-1.848656	K .	-1.159278
-1.713957	K </s>
-3.367169	K B
-3.367169	K C
-2.76511	K E	-0.7669535
-2.6682	K G	-0.5374579
-2.521865	K H
-2.6682	K I	-0.4293191
-1.969229	K K	-1.410098
-3.367169	K L
-1.515911	K M	-1.843987
-3.367169	K O
-3.367169	K P
-1.952196	K R	-1.399356
-1.903731	K S	-0.2613239
-3.367169	K T
-3.367169	K U
-0.8013217	K a	-0.7607965
-3.367169	K b
-1.022777	K e	-0.8491639
-1.685928	K h	-1.000957
-1.074913	K i	-1.270003
-2.024747	K l	-0.9693788
-2.76511	K m	-0.6399136
-2.005442	K n	-0.8160743
-0.4602959	K o	-0.9001309
-1.263366	K r	-2.269492
-2.404676	K s	-0.5981638
-1.107098	K u	-1.012236
-2.450961	K w	-0.07167032
-1.626807	K y	-1.552918
-2.677661	L '	-0.3525928
-2.060568	L .	-0.6825408
-1.540694	L </s>
-2.443784	L A	-0.7449369
-2.560472	L B
-2.125026	L C	-1.384476
-2.125026	L D	-1.871028
-2.606757	L E	-0.1237743
-3.522966	L F
-3.522966	L G
-2.443784	L I	-0.3629091
-3.522966	L J
-3.522966	L K
-2.920906	L L	-0.190097
-2.560472	L M	-0.78874
-2.125026	L O	-0.4454196
-3.522966	L P
-2.481573	L S	-0.5032949
-2.823996	L T	-0.6869924
-2.677661	L U	-0.2863846
-2.920906	L Y	-0.2334944
-2.560472	L _	0.292351
-0.7054002	L a	-1.327808
-0.755068	L e	-1.205216
-3.522966	L h
-0.5429623	L i	-0.8700707
-1.774778	L l	-1.725835
-0.8905083	L o	-1.2667
-1.545242	L t	-1.980801
-1.224113	L u	-0.5884393
-3.522966	L v
-1.806962	L y	-1.18032
-2.310185	M .	-0.5124061
-3.671913	M /
-2.826609	M 1	-0.2165084
-1.63052	M </s>
-2.273973	M A	-0.560182
-2.467793	M B	-0.7245945
-2.349694	M C	-0.5612578
-2.208474	M D	-0.2563327
-2.55797	M E	-0.9657467
-2.70942	M F	-0.7828988
-2.70942	M G	-0.7869661
-2.671913	M I	-0.3172612
-2.768823	M J	-0.9531177
-3.671913	M L
-2.826609	M M
-2.70942	M N	-0.7886158
-2.32949	M O	-1.348909
-3.069853	M P	-0.2181669
-2.55797	M R	-1.126188
-2.370883	M S	-1.274965
-1.779818	M T	-2.354693
-2.70942	M U
-2.826609	M V	-0.2787607
-3.069853	M W	-0.1950989
-2.70942	M X	-0.7690933
-2.70942	M Y
-0.4964012	M a	-1.173203
-3.671913	M b
-1.409462	M c	-1.038025
-2.671913	M d	-0.3139652
-0.9799479	M e	-1.029346
-2.70942	M f
-0.6360832	M i	-1.666145
-3.671913	M n
-0.8725725	M o	-0.9581717
-2.826609	M r	-0.3543896
-3.671913	M s
-3.671913	M t
-1.275714	M u	-0.585883
-1.93155	M y	-0.59715
-3.629308	N '
-1.737213	N .	-0.8671665
-1.050668	N </s>
-1.809764	N A	-1.332979
-1.539402	N B	-1.337619
-2.425188	N C	-0.1898283
-2.515364	N D	-0.5199238
-2.629308	N E	-0.5507734
-2.550126	N F	-0.9537855
-2.629308	N G	-0.1578847
-2.726218	N H	-0.2175577
-2.629308	N I	-0.3941607
-2.666814	N K
-2.629308	N L	-1.028704
-3.629308	N M
-1.508734	N N	-2.080098
-2.930338	N O	-0.4274648
-1.843978	N P	-1.76119
-3.629308	N R
-2.08524	N S	-0.7099356
-1.948066	N T	-0.8778037
-2.930338	N U	-0.1415246
-2.784003	N Y	-0.3533809
-2.666814	N Z
-0.655718	N a	-1.39921
-0.4503307	N e	-1.613398
-2.784003	N g	-0.3273537
-1.260092	N i	-1.019871
-3.629308	N j
-0.9722518	N o	-1.054884
-1.873433	N u	-0.6904148
-2.930338	N y	-0.4259552
-3.159567	O &
-1.628088	O '	-0.7374033
-1.696128	O .	-0.2906347
-1.134261	O </s>
-1.066146	O A	-1.252045
-3.159567	O B
-1.235288	O C	-1.429997
-3.159567	O D
-2.118175	O E	-0.3694069
-2.080386	O F	-1.107786
-3.159567	O G
-2.197074	O K	-0.7891969
-1.955447	O L	-0.8904012
-2.243359	O M	-0.1229936
-1.654417	O N	-1.026011
-1.296244	O P	-1.539773
-1.880814	O R	-0.5492518
-3.159567	O S
-1.797839	O T	-1.224821
-2.314263	O U	-0.2283329
-2.197074	O V	-0.7848837
-1.955447	O a	-0.7518407
-2.205325	O b	-0.2465418
-2.045624	O c	-0.2910505
-1.073207	O f	-1.854554
-1.682446	O g	-1.422447
-1.396139	O h	-1.298811
-1.858537	O i	-1.299992
-1.837348	O k	-1.010769
-1.191084	O l	-0.9640448
-1.654417	O m	-0.8361399
-1.744594	O n	-0.8179029
-1.516114	O p	-1.232123
-0.8673111	O r	-0.7109535
-1.381416	O s	-0.7128504
-2.118175	O t	-0.1267007
-1.728203	O u	-0.4854993
-1.591365	O v	-0.3968076
-1.817145	O w	-1.309448
-2.460597	O z	-0.3863843
-2.300034	P &	-1.367181
-2.449796	P .	-0.7322776
-3.680245	P 1
-2.717752	P 4	-0.7792804
-1.401491	P </s>
-2.318517	P A	-0.7809554
-3.680245	P B
-2.504153	P C	-0.7446517
-3.680245	P D
-1.964242	P E	-1.698337
-2.764036	P F	-0.8422939
-2.401491	P G	-0.6691322
-2.834941	P H	-0.3514011
-2.601063	P I	-0.3635358
-3.680245	P J
-2.056996	P L	-1.23749
-2.601063	P M	-1.493657
-2.726002	P N	-0.7398285
-1.932057	P P	-1.141754
-1.576441	P R	-2.073631
-2.764036	P S	-0.7985466
-2.717752	P T
-3.680245	P U
-3.680245	P V
-3.680245	P W
-2.717752	P X
-0.4685904	P a	-1.01395
-0.8000031	P e	-1.484579
-2.834941	P f	-0.2555061
-1.444716	P h	-0.8493067
-1.394688	P i	-1.084727
-1.638852	P l	-1.735878
-2.717752	P n	-0.7190821
-1.034823	P o	-0.9733605
-1.007224	P r	-2.376735
-2.834941	P s	-0.2975987
-1.195945	P u	-1.182562
-2.216806	P y	-0.6466879
-2.565848	Q 0
-2.565848	Q 4
-1.720544	Q 9	-0.2887212
-1.662758	Q </s>
-1.603354	Q U
-0.5166298	Q a	-1.317534
-0.3897566	Q i	-0.9647425
-0.6682207	Q u	-1.173371
-1.925538	R .	-0.4504806
-1.451962	R </s>
-2.334202	R A	-0.2851624
-2.693018	R B	-0.3526964
-1.569839	R C	-1.937986
-2.936262	R D	-0.2344505
-2.307873	R E	-0.5741634
-2.693018	R G	-0.3369227
-1.915073	R I	-0.9844154
-2.074883	R J	-0.2577769
-3.538322	R L
-2.334202	R M	-0.8015981
-2.839352	R N	-0.1529276
-1.646228	R O	-1.388945
-2.58408	R P	-0.9344838
-2.693018	R R	-0.2934952
-1.805929	R S	-1.872427
-2.019808	R T	-0.6606961
-2.693018	R Y	-0.2961042
-1.103753	R a	-0.6354908
-0.5835975	R e	-1.662977
-2.362231	R h	-1.149627
-0.9483727	R i	-1.324506
-0.7445319	R o	-1.452089
-0.7348652	R u	-0.6749295
-2.216103	R w	-1.149945
-2.58408	R y	-0.3804672
-2.872302	S &	-1.093363
-0.9929193	S .	-1.493619
-3.951483	S 4
-0.9929193	S </s>
-2.118974	S A	-1.205621
-2.805355	S B	-0.940351
-2.13857	S C	-1.40921
-3.349423	S D	-0.7786365
-2.328234	S E	-0.868345
-2.98899	S F
-2.805355	S H	-0.6855654
-3.048393	S I	-0.2281808
-2.488044	S J	-0.2599076
-3.349423	S K	-0.2018524
-3.349423	S M	-0.2338027
-2.83754	S N	-1.54839
-3.035275	S O	-0.2647735
-2.91009	S P	-0.4857378
-3.106179	S Q	-0.3441384
-2.872302	S R	-1.063564
-1.983	S S	-1.798815
-2.318015	S T	-0.8945556
-2.951483	S U	-1.475265
-2.98899	S W	-0.7886227
-2.997241	S X	-0.9791499
-0.9510491	S a	-1.268606
-1.450424	S c	-1.682423
-1.034503	S e	-0.6323034
-0.9112766	S h	-1.89353
-1.458723	S i	-0.9788598
-2.775392	S k	-0.4373626
-1.926177	S l	-2.208113
-2.203295	S m	-1.43493
-2.696211	S n	-1.13622
-1.043535	S o	-0.9362428
-1.546649	S p	-2.147309
-2.460122	S q	-1.405167
-2.997241	S r	-0.5333707
-0.8784985	S t	-2.296298
-1.357091	S u	-1.345367
-3.035275	S v	-0.6306431
-2.106385	S w	-1.250276
-1.847679	S y	-1.293068
-3.349423	S z	-0.6625679
-2.551602	T &	-1.185152
-2.308564	T .	-0.7739275
-1.50045	T </s>
-2.852633	T A	-0.501177
-2.910418	T B	-0.3497936
-1.963331	T C	-1.221646
-3.755723	T D
-2.579631	T E	-1.033258
-3.056752	T G	-0.531461
-3.153662	T H	-0.2016437
-2.092965	T I	-0.97093
-3.755723	T K
-3.755723	T L
-2.609594	T M	-0.8350857
-2.641779	T N	-0.4911908
-2.10251	T O	-1.210314
-3.056752	T R	-0.4743172
-2.676541	T S	-0.2900191
-2.852633	T T	-0.2051851
-2.187521	T U	-1.123687
-1.565391	T V	-2.596866
-3.153662	T W	-0.1950989
-3.755723	T Y
-3.153662	T Z	-0.6876522
-0.4797204	T a	-1.156111
-3.755723	T b
-0.9893096	T e	-1.719305
-0.7618455	T h	-2.333871
-1.121245	T i	-1.084803
-1.096758	T o	-1.084651
-1.152578	T r	-1.918528
-1.782595	T s	-1.134763
-1.606503	T u	-1.055524
-2.393995	T w	-0.9032786
-2.755723	T y	-0.3041483
-2.755723	T z	-1.361538
-0.5139415	U .	-1.918975
-1.549724	U </s>
-2.178113	U A	-0.7605562
-2.51665	U B	-0.7818768
-2.51665	U C	-0.7887222
-2.437751	U D	-0.4507631
-3.479143	U E
-3.479143	U F
-3.479143	U I
-2.098932	U K	-1.389467
-2.633839	U L	-0.3535347
-3.479143	U M
-1.214325	U N	-1.456498
-2.333015	U P	-1.174365
-2.562935	U R	-0.1413435
-0.5966187	U S	-2.455652
-3.479143	U T
-2.51665	U V	-0.7848837
-2.780173	U d	-0.4815115
-2.51665	U g	-0.7621965
-3.479143	U h
-2.51665	U i	-0.7792061
-2.562935	U k	-0.8420526
-2.576053	U l	-0.2922456
-3.479143	U m
-0.5690527	U n	-1.869095
-2.399962	U p	-0.2195372
-1.89936	U r	-1.074892
-3.479143	U s
-2.04778	U t	-0.4630125
-2.51665	U z	-0.7759199
-2.061117	V .	-0.6277995
-0.7926433	V </s>
-1.936179	V A	-1.045967
-3.01536	V B
-3.01536	V C
-1.693141	V D	-1.801563
-3.01536	V E
-2.052866	V F
-2.052866	V H	-0.7868913
-1.936179	V I	-0.7694388
-3.01536	V L
-0.9622813	V O	-2.017912
-2.4133	V R	-0.7809231
-0.9983264	V a	-0.6916093
-1.037636	V e	-0.8980938
-0.5088547	V i	-1.033643
-1.538239	V l	-1.42576
-0.9434777	V o	-1.074351
-2.4133	V r	-0.1216701
-3.01536	V s
-3.01536	V t
-3.01536	V y
-1.764308	W .	-1.211379
-1.755875	W </s>
-2.568788	W A	-0.5012517
-2.509385	W B
-2.509385	W C
-3.471878	W E
-2.626574	W F	-0.3522965
-2.869818	W G	-0.6974055
-2.626574	W H	-0.3539586
-2.517636	W I	-0.3692194
-3.471878	W L
-2.471878	W P	-0.9948916
-2.008439	W S	-0.2604639
-2.32575	W T	-1.172648
-3.471878	W U
-2.471878	W W	-0.5299911
-0.424993	W a	-1.718087
-0.744337	W e	-2.541611
-1.082712	W h	-1.59506
-1.040514	W i	-1.28898
-0.9095854	W o	-1.516783
-2.091667	W r	-1.336036
-3.471878	W s
-1.221458	W u	-1.874263
-2.471878	W y	-0.6157795
-1.329059	X </s>
-2.70927	X B
-2.70927	X E
-1.746777	X I
-1.746777	X X	-0.7690933
-1.863966	X e	-0.234006
-0.09648611	X i	-1.14932
-1.0103	X u	-0.8755915
-2.28597	Y '	-0.7819451
-2.13452	Y .	-0.7417428
-2.207071	Y </s>
-2.28597	Y E	-0.7855939
-2.28597	Y L	-0.7888681
-2.28597	Y N	-0.7883089
-3.248464	Y O
-3.248464	Y P
-3.248464	Y R
-2.40316	Y S	-0.3530563
-0.7997574	Y a	-0.8297837
-3.248464	Y b
-0.6119758	Y e	-1.249648
-1.403366	Y i	-0.5900533
-3.248464	Y k
-0.4903091	Y o	-1.502597
-0.7260195	Y u	-0.6829476
-2.28597	Y v	-0.5754885
-1.58967	Z </s>
-2.79379	Z D
-2.79379	Z E
-2.79379	Z I
-1.831297	Z T	-0.7760027
-1.831297	Z X	-0.7690933
-1.225589	Z a	-0.1644481
-2.79379	Z b
-0.7726011	Z e	-0.8185809
-0.3195741	Z h	-1.848171
-1.160322	Z i	-0.7705775
-0.9876104	Z o	-1.085405
-1.831297	Z s	-0.7790188
-1.39585	Z u	-0.4709894
-2.79379	Z v
-2.79379	Z w
-0.30103	[ </s>
-0.03750664	] </s>
-0.03750664	_ A	-0.7672389
-0.2979389	` </s>
-0.3072789	` `	-1.838872
-3.767214	a '	-0.3257869
-3.876152	a -
-3.03126	a .	-1.314585
-0.9145303	a </s>
-3.258017	a B	-0.4883299
-4.721456	a G
-3.758963	a L	-0.730124
-3.805248	a N	-0.6549652
-4.119396	a P	-0.6569148
-4.721456	a R
-3.876152	a S	-0.348889
-4.721456	a T
-4.721456	a V
-4.721456	a W
-2.692072	a a	-0.9419401
-1.892796	a b	-0.9257466
-1.72626	a c	-0.5935036
-1.576571	a d	-0.3942666
-1.711156	a e	-1.493856
-2.157975	a f	-0.7844674
-1.782436	a g	-1.223589
-2.046595	a h	-0.481214
-1.248407	a i	-1.377655
-2.950604	a j	-0.3978404
-1.949134	a k	-1.194478
-1.03913	a l	-0.9018186
-1.47619	a m	-0.8614227
-0.5703622	a n	-0.9287606
-2.026851	a o	-0.9984837
-1.692885	a p	-1.448349
-1.879471	a q	-1.087888
-1.068823	a r	-0.8381156
-1.42721	a s	-0.9513758
-1.112716	a t	-1.138013
-1.779448	a u	-0.7615919
-1.8493	a v	-0.3197966
-2.214951	a w	-0.06003326
-2.870198	a x	-0.2255734
-1.872037	a y	-0.7948053
-2.16155	a z	-0.6746482
-2.922829	b .	-0.1668219
-1.092883	b </s>
-2.15836	b H	-0.1851482
-0.7668862	b a	-0.9925315
-1.68228	b b	-0.7307159
-2.580406	b c	-0.8072917
-1.978347	b d	-1.183077
-0.8075516	b e	-1.163708
-2.776495	b h	-0.2930517
-0.8472822	b i	-1.125251
-3.621799	b j
-0.9074695	b l	-2.213965
-2.718709	b m	-0.3724417
-2.507856	b n	-0.9782135
-0.9049615	b o	-1.277782
-1.454482	b r	-1.287807
-1.524889	b s	-1.166344
-2.659306	b t	-0.71141
-1.245222	b u	-0.8141695
-2.718709	b w	-1.137631
-1.568721	b y	-0.7719207
-1.64708	c .	-2.03092
-1.098116	c </s>
-3.446421	c A	-0.1632772
-3.203176	c B	-0.2405653
-2.197222	c C	-1.292904
-2.24914	c D	-1.737274
-3.085987	c E	-0.7516071
-3.145391	c G	-0.05939756
-3.349511	c I	-0.4015373
-3.145391	c K	-0.3471511
-3.349511	c L	-0.6036528
-2.585042	c M	-0.1411123
-2.585042	c N	-0.1994441
-4.048481	c V
-0.6846807	c a	-1.465711
-2.415012	c c	-1.810059
-3.203176	c d	-0.2944719
-0.9223492	c e	-1.547794
-3.349511	c f	-0.4839329
-0.7757111	c h	-0.6118138
-1.119062	c i	-1.421112
-1.202144	c k	-0.8778945
-2.084693	c l	-1.027289
-2.585042	c m	-0.1022522
-4.048481	c n
-1.11247	c o	-1.154527
-2.844361	c q	-0.6563872
-1.411993	c r	-1.728796
-2.019097	c s	-1.813165
-1.43148	c t	-2.116992
-1.476772	c u	-1.185984
-4.048481	c v
-1.528653	c y	-1.947826
-3.132272	c z	-0.7646652
-3.400279	d '	-0.175922
-3.157035	d -	-0.3513559
-2.052949	d .	-1.582042
-3.039845	d 2	-0.7203583
-0.4027833	d </s>
-2.960946	d C	-0.9238955
-0.9064724	d a	-1.230358
-2.434137	d b	-0.8130007
-2.555181	d c	-0.9115189
-1.493136	d d	-1.55453
-0.8850676	d e	-0.8564101
-2.5389	d f	-0.2495034
-1.960946	d g	-1.314663
-2.099249	d h	-1.071413
-1.027827	d i	-1.076781
-2.5389	d j	-0.2017855
-3.303369	d k	-0.6858769
-2.07292	d l	-0.8792242
-1.865618	d m	-1.300964
-2.303369	d n	-1.582739
-1.248756	d o	-1.378177
-3.157035	d q	-0.2551172
-1.754366	d r	-1.448376
-1.590719	d s	-0.9988803
-2.555181	d t	-0.411793
-1.665879	d u	-1.473096
-2.659916	d v	0.209293
-2.182795	d w	-1.125987
-1.747066	d y	-0.9252694
-2.68012	d z	-0.4182373
-4.703661	e '
-3.662268	e -	-0.515736
-3.858357	e .	-0.3539866
-0.5625249	e </s>
-3.703661	e B	-0.07696398
-3.741168	e C	-0.6346577
-3.858357	e F	-0.2457301
-4.703661	e K
-3.703661	e L	-0.9460755
-4.703661	e P
-4.703661	e S
-3.858357	e T	-0.2625831
-4.703661	e V
-3.589718	e W	-0.7982062
-1.456916	e a	-1.812782
-2.1182	e b	-1.280664
-1.778349	e c	-1.099736
-1.560022	e d	-0.8511438
-1.59442	e e	-1.460449
-2.369207	e f	-0.6160955
-1.951613	e g	-1.097371
-2.26591	e h	-1.053123
-1.596112	e i	-2.41306
-2.858563	e j	-0.6091308
-2.573327	e k	-0.2299704
-1.230758	e l	-0.3149436
-1.571401	e m	-1.284293
-0.9464169	e n	-0.2039006
-2.155886	e o	-1.26999
-1.823419	e p	-1.329529
-3.703661	e q	0.07195082
-0.8581909	e r	-0.4835204
-0.9969432	e s	-1.573473
-1.515014	e t	-0.425311
-2.51897	e u	-0.8669495
-1.823992	e v	-0.1028719
-1.480425	e w	-1.216827
-2.093001	e x	-1.198587
-2.041848	e y	-0.7811321
-2.51614	e z	-0.8351957
-4.703661	e „
-2.271067	f .	-0.9702222
-0.4988149	f </s>
-1.092227	f a	-0.8482165
-2.894316	f c	-0.5041372
-3.593286	f d
-0.9239692	f e	-1.031125
-0.9944956	f f	-1.29095
-1.503381	f g	-1.738708
-1.022743	f i	-1.19511
-2.129847	f k	-0.8039762
-2.002221	f l	-0.9644131
-2.271067	f m	-1.283366
-2.991226	f n	-0.2045228
-0.9004391	f o	-1.753492
-1.431918	f r	-1.169353
-2.447158	f s	-0.0509121
-1.38646	f t	-0.9477317
-1.815135	f u	-0.4431586
-2.747982	f y	0.2708424
-3.14464	g '	-0.8365633
-3.098356	g .
-0.3873672	g </s>
-1.208369	g a	-1.236515
-2.718426	g b	-0.5538076
-2.353279	g c	-1.50394
-1.963939	g d	-1.26064
-0.9698858	g e	-1.413723
-2.856729	g f	-0.1612168
-2.136569	g g	-1.532899
-0.9622052	g h	-0.8191188
-1.476518	g i	-1.55112
-2.458789	g j	-0.9954168
-2.699121	g k	-0.5428131
-1.761996	g l	-2.14632
-2.583728	g m	-1.359188
-1.876157	g n	-1.29905
-1.288527	g o	-1.392194
-2.73863	g p	-0.538204
-2.106606	g q	-1.011266
-1.361879	g r	-2.864641
-1.83554	g s	-1.032502
-1.428392	g t	-2.342607
-1.708666	g u	-1.182224
-2.884758	g w	-1.075445
-2.234774	g x	-1.726806
-1.671683	g y	-0.978928
-2.097061	g z	-1.668256
-3.192803	h .	-0.5616251
-0.8986763	h </s>
-3.704687	h D	-0.1972406
-3.344253	h K	-0.7858216
-0.8757046	h a	-1.833805
-3.265354	h b	-0.154332
-3.076298	h c	-1.665858
-2.142394	h d	-1.83998
-0.4915675	h e	-1.201709
-3.076298	h f	-0.6765103
-3.461442	h h
-0.708613	h i	-1.605756
-4.306746	h j
-2.643989	h k	-0.916051
-2.342959	h l	-0.3489737
-2.157527	h m	-1.142609
-1.674289	h n	-1.498507
-1.22829	h o	-0.6488747
-3.390538	h p	-0.8121931
-2.891773	h q	-1.33138
-1.763921	h r	-1.764778
-2.202943	h s	-0.7956526
-1.530045	h t	-1.342782
-1.268126	h u	-1.040542
-2.843307	h v	-0.6441761
-2.461648	h w	-1.250276
-2.420256	h y	-0.3571116
-4.306746	h z
-3.542089	i '	-0.6699799
-3.008486	i -	-0.6608441
-4.62127	i 2
-1.077326	i </s>
-4.01921	i C	-0.04750006
-4.01921	i G	-0.1912334
-4.62127	i L
-3.658777	i P	-0.7478883
-0.9486179	i a	-1.538284
-2.1883	i b	-0.4910764
-1.017368	i c	-2.32913
-1.673346	i d	-0.6069461
-1.395702	i e	-1.446117
-2.057789	i f	-0.7379041
-1.612244	i g	-1.428347
-2.342516	i h	-1.604464
-3.041486	i i	-1.204778
-2.22333	i j	-0.8219596
-2.202969	i k	-1.011611
-1.301955	i l	-0.7924532
-1.723093	i m	-1.497068
-0.6623716	i n	-0.7864861
-1.241602	i o	-1.93489
-1.854857	i p	-1.548031
-3.064967	i q	0.1171463
-1.609277	i r	-0.5808773
-1.178633	i s	-1.299731
-1.137112	i t	-1.439023
-2.128509	i u	-1.341098
-1.81713	i v	-1.407251
-1.539203	i w	-2.889589
-2.481391	i x	-1.3857
-2.776172	i y	-1.432185
-2.083451	i z	-0.9039003
-2.266702	j </s>
-1.249669	j a	-0.4123558
-2.363612	j b	-0.6175002
-2.965672	j d
-1.217484	j e	-0.5015505
-0.1635827	j i	-1.48179
-2.003179	j n	-0.783538
-1.079181	j o	-0.6526924
-2.003179	j r	-0.7088279
-1.139597	j u	-0.8440145
-2.003179	j y
-0.3333064	k </s>
-3.602819	k A
-1.194579	k a	-0.9144658
-2.640326	k b	-0.7645214
-3.602819	k c
-0.7973185	k e	-1.152822
-2.561427	k f	-0.1734057
-2.903849	k g	-0.3099793
-1.653429	k h	-0.769949
-1.044111	k i	-1.212044
-1.969351	k k	-1.346808
-1.625096	k l	-1.71208
-2.204879	k m	-1.06992
-2.561427	k n	-0.4200604
-1.527272	k o	-0.6323724
-2.640326	k p
-2.155661	k r	-0.4265243
-1.450531	k s	-1.074044
-2.640326	k t	-0.7562744
-1.542122	k u	-0.5798922
-2.686611	k v	-0.6441761
-2.171456	k w	-1.142834
-1.450531	k y	-1.514638
-3.445331	l -	-0.2978262
-3.688576	l .	-0.3267695
-0.635305	l </s>
-4.290636	l B
-3.328142	l M	-0.6231804
-3.249243	l T	-0.9043838
-0.9525777	l a	-1.103086
-2.317508	l b	-2.095276
-2.583065	l c	-0.7348964
-1.441831	l d	-0.874162
-0.8155457	l e	-1.098608
-2.129267	l f	-0.8581451
-2.286314	l g	-1.197778
-2.928908	l h	-1.026558
-0.7581359	l i	-1.852538
-2.387546	l k	0.003525405
-0.9721548	l l	-1.696253
-2.111659	l m	-1.186238
-2.746567	l n	-0.873138
-1.175025	l o	-0.9650729
-2.550273	l p	-0.7240939
-2.875662	l q	-1.404575
-3.176692	l r	-0.9121705
-1.879016	l s	-0.9270587
-1.698459	l t	-0.7337846
-1.875662	l u	-0.5922754
-2.215089	l v	-0.992458
-2.928908	l w	-1.628701
-1.615774	l y	-1.047938
-3.336393	l z	-0.236048
-2.33662	m .	-1.147363
-0.8574766	m </s>
-4.03559	m B
-3.081347	m C	-0.980567
-3.073097	m H	-0.7882929
-3.190286	m J	-0.2410773
-0.8957107	m a	-1.375529
-1.499031	m b	-1.101339
-2.956409	m c	-0.8352283
-2.889462	m d	-0.8519975
-0.5781621	m e	-1.176429
-3.119381	m f	-0.06582502
-3.073097	m g
-3.073097	m h
-0.8688638	m i	-1.174669
-3.073097	m k
-2.573192	m l	-1.290126
-1.166945	m m	-2.166889
-2.73456	m n	0.0719502
-1.027842	m o	-1.707952
-1.352543	m p	-1.199104
-3.073097	m q	-0.7863035
-3.33662	m r
-1.501564	m s	-1.242184
-2.994197	m t	-0.6504678
-1.642893	m u	-1.132534
-3.43353	m v	0.01166921
-2.572151	m w	0.1659511
-1.70721	m y	-1.726911
-4.03559	m z
-3.503888	n '	-0.8354498
-4.650016	n +
-3.218652	n -	-0.2371741
-3.570835	n .	-0.7069807
-4.650016	n 1
-3.733807	n 2	-0.7755129
-4.650016	n 9
-0.4939516	n </s>
-3.951046	n K	-0.4957235
-4.650016	n P
-1.112701	n a	-0.9446071
-2.672292	n b	-1.471867
-1.381438	n c	-2.067914
-1.309374	n d	-1.809134
-1.158794	n e	-1.192202
-2.465325	n f	-1.361036
-0.8223237	n g	0.04588231
-2.08299	n h	-1.720253
-1.054079	n i	-1.323476
-2.397163	n j	-1.355875
-1.949312	n k	-0.9294392
-2.488648	n l	-1.836419
-2.700626	n m	-2.017715
-1.789079	n n	-1.689109
-1.834438	n o	-0.5096132
-3.536072	n p	-0.5790214
-3.202858	n q	-1.087401
-2.879164	n r	-1.468179
-1.323271	n s	-1.674652
-1.212107	n t	-1.491823
-2.315562	n u	-0.2958913
-2.473925	n v	-0.801614
-3.081814	n w	-0.6120254
-2.934013	n x	-1.318883
-1.971498	n y	-0.6206297
-2.334046	n z	-1.174506
-3.490268	o '	-1.038658
-3.12854	o -	-0.601611
-2.030875	o .	-2.088697
-1.156216	o </s>
-4.490268	o D
-3.411086	o S	-0.9441972
-3.527774	o T	-0.7557843
-4.490268	o V
-3.527774	o Z	-0.7834912
-2.094068	o a	-1.28469
-1.817247	o b	-0.7104504
-1.562897	o c	-1.378699
-1.77846	o d	-0.3850166
-2.299936	o e	-0.5433905
-1.434889	o f	-2.057758
-2.076968	o g	-0.7724921
-1.792167	o h	-1.700216
-2.163932	o i	-1.592542
-2.512544	o j	-1.398118
-2.076968	o k	-0.63253
-1.272784	o l	-0.279694
-1.275424	o m	-0.6018379
-0.5836632	o n	-1.152494
-1.61405	o o	-1.648396
-1.738219	o p	-0.7252492
-3.888208	o q	-0.04355535
-0.8030955	o r	-1.052864
-1.371672	o s	-1.015662
-1.744412	o t	-0.6821567
-1.058582	o u	-1.377213
-1.662253	o v	-1.133506
-1.686128	o w	0.04772495
-2.664193	o x	-1.4205
-2.209234	o y	-0.4727914
-2.998906	o z	-0.5877319
-1.236374	p .	-2.13936
-1.104982	p </s>
-2.805878	p A	-0.9671575
-3.760121	p Q
-0.6105938	p a	-1.700938
-2.646178	p b	-0.8318186
-3.158061	p c	-0.2008632
-3.760121	p d
-0.7823972	p e	-1.931791
-2.296682	p f	-0.6794603
-3.760121	p g
-1.417698	p h	-0.8371485
-1.302239	p i	-0.9628603
-2.914817	p j	-0.2610199
-2.805878	p k	-0.9588782
-1.522075	p l	-1.17026
-1.656317	p m	-1.060559
-3.760121	p n
-1.081602	p o	-1.1913
-1.522075	p p	-0.8958274
-1.238983	p r	-2.237312
-1.6234	p s	-0.8528311
-1.534811	p t	-1.041448
-1.136871	p u	-2.033597
-2.584029	p y	-0.4531874
-3.158061	p z	-0.653733
-3.040998	q .
-0.4146573	q </s>
-1.961816	q a	-0.1305557
-3.040998	q b
-3.040998	q d
-1.626024	q e	-1.368875
-0.4466051	q i	-1.319049
-3.040998	q s
-2.342028	q t	-0.5045099
-0.6868892	q u	-1.524075
-2.078504	q v	-0.5890214
-4.46749	r '
-3.86543	r -	-0.2320035
-2.786248	r .	-1.309041
-0.9296706	r </s>
-3.551281	r C	-0.3427699
-4.46749	r J
-4.46749	r L
-4.46749	r S
-0.7686066	r a	-0.9158479
-1.980351	r b	-1.414477
-1.85683	r c	-1.160452
-1.5558	r d	-1.118361
-0.9387015	r e	-0.7002038
-2.616231	r f	-0.8350479
-1.613791	r g	-2.008508
-3.06955	r h	-1.201823
-0.8766479	r i	-1.804658
-1.560616	r k	-1.016841
-1.61807	r l	-1.47352
-1.621153	r m	-1.642968
-1.445061	r n	-1.991061
-1.211735	r o	-0.4563464
-1.74733	r p	-1.415374
-3.353546	r q	-0.2103036
-1.72398	r r	-1.819675
-1.310638	r s	-1.042589
-1.177232	r t	-0.6027037
-1.832006	r u	-0.9673546
-2.181932	r v	-1.216945
-2.586676	r w	-1.548939
-3.426097	r x	-0.6346601
-1.517125	r y	-1.308343
-2.711615	r z	-0.308037
-3.561611	s -
-2.944517	s .	-1.576481
-3.444421	s 2	-0.6179246
-0.4473487	s </s>
-3.444421	s N	-0.5998105
-1.604825	s a	-0.9046088
-2.526101	s b	-0.9649369
-1.929793	s c	-1.747258
-2.734817	s d	-1.137466
-0.9464679	s e	-1.743251
-2.462432	s f	-0.9615879
-3.490706	s g	-0.4623772
-1.186545	s h	-0.9573715
-1.14589	s i	-1.640053
-4.406915	s j
-2.144464	s k	-1.927421
-1.733894	s l	-2.065882
-2.49843	s m	-1.107283
-2.447873	s n	-1.875793
-1.453638	s o	-1.821953
-2.205518	s p	-1.496182
-2.574406	s q	-1.732525
-1.474441	s r	-2.573285
-1.142806	s s	-1.750651
-0.8455747	s t	-1.710398
-1.792017	s u	-0.8632824
-3.202795	s v	-0.4058766
-3.176466	s w	-0.8864876
-2.555656	s y	-0.4633558
-2.959757	s z	-0.7093243
-3.339467	t -	-0.1860152
-2.862345	t .	-1.229859
-0.7814046	t </s>
-4.45341	t C
-4.45341	t E
-4.45341	t N
-1.11695	t a	-1.243316
-2.934896	t b	-0.8086107
-2.230694	t c	-2.086011
-2.471139	t d	-1.757214
-0.8499409	t e	-1.058348
-3.307282	t f	-1.526767
-3.05547	t g	-0.7788413
-0.6962419	t h	-2.132859
-0.8411562	t i	-1.561105
-2.989971	t k	-0.8039762
-2.188592	t l	-1.396307
-2.01566	t m	-2.149494
-2.544925	t n	-1.839678
-1.127279	t o	-1.332194
-3.608106	t p
-1.404968	t r	-2.725607
-1.65407	t s	-1.413161
-1.562431	t t	-1.077565
-1.674536	t u	-1.19256
-3.174656	t v	-1.077832
-2.313531	t w	-2.296914
-1.365984	t y	-1.607036
-2.374229	t z	-1.186301
-3.22089	u '	-0.7874355
-0.9593689	u </s>
-3.33808	u C	-0.199815
-1.085433	u a	-1.193268
-1.36187	u b	-0.5134716
-1.788932	u c	-1.150532
-1.398054	u d	-0.9503043
-1.518742	u e	-0.9825824
-2.384043	u f	-0.6771632
-1.631934	u g	-1.489964
-2.285757	u h	-0.1997976
-1.575929	u i	-1.28865
-2.196612	u j	-0.9205554
-2.201113	u k	-0.2321144
-1.446191	u l	-0.2078063
-1.435196	u m	-1.286273
-0.9300457	u n	-0.9305748
-2.025021	u o	-0.8534366
-1.57166	u p	-1.292468
-3.007293	u q	0.9931746
-0.8793243	u r	-0.3445442
-0.798135	u s	-1.739478
-1.12686	u t	-0.7649111
-4.183384	u u
-2.952935	u v	0.396652
-2.549915	u w	-1.379096
-2.821656	u x	-0.9062712
-2.678234	u y	0.2240283
-2.357309	u z	-0.4918554
-3.552912	v .
-1.202663	v </s>
-1.037038	v a	-1.187328
-2.853941	v c	-0.4593514
-2.636703	v d	-0.3323143
-0.4092722	v e	-1.67373
-3.552912	v f
-0.4313516	v i	-1.746645
-2.590418	v k
-2.636703	v l	-1.181742
-3.552912	v n
-1.561685	v o	-0.9101744
-2.511519	v r	-0.1249321
-2.37682	v s	-1.645693
-3.552912	v t
-2.552912	v u	-0.1040715
-1.419373	v y	-1.56707
-3.674494	w .
-0.601142	w </s>
-0.4460934	w a	-1.632194
-2.82919	w b	-0.2973754
-2.633101	w c	-0.7627188
-2.771404	w d	0.121308
-1.069189	w e	-1.495485
-2.758285	w f	-0.1540319
-2.674494	w h	-0.0632687
-1.310882	w i	-1.365122
-2.975524	w k	-0.1018089
-1.882102	w l	-0.4088276
-2.758285	w m	-1.051479
-1.550642	w n	-1.79783
-1.375641	w o	-1.611441
-2.312766	w p	-1.324159
-2.276554	w r	-0.8676839
-0.8629187	w s	-1.687076
-2.373464	w t	-0.7241725
-2.211055	w u	-0.7945821
-2.712	w w
-2.720251	w y	-0.318078
-3.073718	x -
-2.170628	x .	-0.9535001
-0.7904171	x </s>
-0.8282057	x a	-1.308088
-1.10059	x c	-1.426831
-1.028395	x e	-1.22635
-2.374748	x h	-0.44449
-0.6654784	x i	-0.9730121
-3.073718	x l
-2.111225	x m	-0.730887
-1.192905	x o	-1.916587
-1.134199	x p	-0.8345867
-2.228414	x q	-0.1988251
-2.111225	x s	-0.7743874
-1.210395	x t	-1.567551
-1.92759	x u	-0.3422261
-2.111225	x v	-0.5890214
-1.610279	x w	-0.2231694
-1.658745	x x	-1.125312
-3.073718	x y
-3.122805	y .	-0.1668219
-0.1363024	y </s>
-2.905567	y S	-0.7834765
-1.291576	y a	-1.224925
-2.374617	y b	-0.885604
-2.645684	y c	-0.2179672
-1.887277	y d	-0.9117966
-1.675647	y e	-0.5031438
-3.122805	y f	-0.6922712
-3.821775	y g
-2.976471	y h	-0.2367595
-1.929681	y i	-0.8374692
-2.859282	y j	-0.764788
-2.859282	y k
-1.717972	y l	-0.6758642
-1.976677	y m	-0.6187834
-1.728354	y n	-0.147264
-1.672556	y o	-0.839152
-1.817454	y p	-1.143305
-3.821775	y q
-1.694671	y r	-0.6812137
-1.620378	y s	-1.168251
-2.441564	y t	-0.5799609
-1.749893	y u	-0.8061976
-2.976471	y v	-0.09788653
-2.390412	y w	-1.412681
-3.821775	y x
-2.479353	y z	-1.035627
-2.305987	z .	-0.4728975
-0.771947	z </s>
-0.7523741	z a	-0.7517748
-1.49792	z b	-0.8617756
-3.222196	z c
-2.222196	z d	-0.4115709
-0.7280415	z e	-1.217436
-2.523226	z g	-0.4897862
-0.812263	z h	-1.784117
-1.004712	z i	-0.5676783
-2.620136	z k	-0.6578482
-2.259703	z l	-0.759904
-2.620136	z m	-0.6399136
-2.259703	z n	-0.7550776
-1.481833	z o	-0.5908303
-3.222196	z r
-1.879773	z s	-0.9745253
-1.172978	z u	-1.181607
-3.222196	z v
-2.267954	z w	-0.1029475
-1.943442	z y	-0.5134357
-1.690717	z z	-0.4915455
-0.09691001	{ </s>
-0.09691001	} </s>
-0.30103	Å Æ
-0.30103	Æ s
-0.30103	„ Å

\3-grams:
-0.001494991	<s> " </s>
-0.0002537508	<s> % </s>
-0.01038204	<s> & </s>
-2.180665	<s> & i	0.04182308
-2.180665	<s> & o	0.04182308
-0.3032629	A & M	-0.3364435
-0.07686075	B & Q	0.04182308
-0.3032629	D & B	-0.3364435
-0.07686075	J & L	0.2061221
-0.01772877	P & G	0
-0.3357921	S & L	-0.1799029
-0.3357921	S & P	-0.2890473
-0.02802872	T & T	0
-0.003664954	' ' </s>
-1.045721	<s> ' '	0
-1.198525	<s> ' </s>
-0.07542109	<s> ' s	0.0003935788
-0.09691001	D ' A	-0.07571531
-0.252952	L ' O	0.04182308
-0.3853509	O ' B	0
-0.9294189	O ' C	-0.1169805
-0.9806718	O ' D	0.2748955
-1.357621	O ' G	0.01062278
-1.30731	O ' H	0.04182308
-1.30731	O ' N	-0.3930197
-1.30731	O ' S
-0.07686075	Y ' S	-0.3801436
-0.4532091	a ' a	-0.406951
-0.7300733	a ' i
-0.3778907	d ' </s>
-0.06694679	g ' a	-0.1191045
-0.1760913	i ' a	-0.5768241
-0.9053228	i ' i	-0.1905294
-0.243038	n ' a	-0.0005878487
-0.544068	n ' t	0.04296716
-0.04139268	o ' c	0
-0.07686075	u ' e	0.04182308
-0.01223446	<s> ( </s>
-0.01296498	<s> ) </s>
-0.007061854	0 , 0	0.2162085
-0.5118834	1 , 0	1.352597
-0.5118834	1 , 2
-0.8897741	1 , 5
-0.940085	1 , 8
-0.4532091	2 , 0	0.2098734
-0.243038	4 , 0	1.352597
-0.03476211	5 , 0	0.8946568
-0.09691001	6 , 0	1.352597
-0.1481628	8 , 0	1.341843
-0.07686075	9 , 0	1.26048
-0.002073009	<s> , </s>
-0.03778856	- - </s>
-2.264389	<s> - -	0
-0.002585094	<s> - </s>
-0.252952	d - A
-0.8172234	e - C	-0.6004999
-0.2632414	e - h	-0.6570241
-0.6585413	i - A	-0.5785789
-1.438926	i - C	-0.2811603
-1.388615	i - I	-0.6239234
-0.6585413	i - J	0
-1.388615	i - N
-0.7096938	i - S	-0.08609341
-1.438926	i - U	-0.1087296
-0.3032629	l - M	-0.4813035
-1.257505	n - A	-0.3043826
-1.207195	n - C
-1.257505	n - H	0.01062278
-1.207195	n - S
-1.257505	n - h	-0.5565159
-0.8293038	n - n	0.04296716
-1.137559	o - I	-0.6058954
-1.137559	o - N
-1.137559	o - R	-0.5453346
-1.137559	o - S
-1.137559	o - W	-0.3582952
-0.4074853	o - o	-0.2596373
-0.3778907	r - A	-0.3724568
-0.8897741	t - C	-0.6004999
-0.940085	t - S	-0.2097793
-0.940085	t - W	0.04534731
-1.423246	0 . 0	-0.07574143
-0.8103359	0 . 1	-0.2356769
-0.845098	0 . 2	-0.6249229
-1.021189	0 . 3	-0.1511834
-1.146128	0 . 4	-0.1169344
-0.9700368	0 . 5	-0.4524988
-1.146128	0 . 6	-0.4690337
-0.9700368	0 . 7	-0.1802493
-1.322219	0 . 8	-0.2343989
-0.9242793	0 . 9	-0.03471867
-1.322219	1 . 0
-1.423246	1 . 1	0.1452364
-0.845098	1 . 2	-0.1478016
-1.423246	1 . 3	-0.3221495
-1.750421	1 . 4
-0.9700368	1 . 5	-0.4982563
-0.845098	1 . 6	-0.4140695
-0.8103359	1 . 7	-0.1873723
-1.423246	1 . 8	-0.2649625
-1.423246	1 . 9	-0.03912814
-1.750421	1 . c	0.1428993
-1.350225	2 . 1	0.04417352
-1.350225	2 . 2	-0.2323081
-0.9481683	2 . 3	0.07166689
-0.6471384	2 . 4	-0.3099567
-0.6208094	2 . 5	-0.7535288
-0.9481683	2 . 6	0.1495114
-1.6774	2 . 7	0.1049719
-1.6774	2 . 8	-0.2136481
-1.627089	2 . 9	-0.4302769
-1.710329	3 . 0
-1.332438	3 . 1	-0.2548577
-0.980256	3 . 2	-0.56046
-1.433465	3 . 3	-1.43431
-1.156347	3 . 4	-0.7903634
-0.7584072	3 . 5	-0.1441952
-1.031408	3 . 6	-0.2891308
-1.031408	3 . 7	-0.4078213
-0.8931057	3 . 8	-0.6575773
-0.7303784	3 . 9	-0.5852465
-0.7579479	4 . 1	-0.6402475
-1.021189	4 . 2	-0.006457998
-1.197281	4 . 3	-0.008520667
-1.575171	4 . 4	-0.4043384
-0.6853972	4 . 5	-0.3111696
-1.298307	4 . 6	-1.133615
-1.298307	4 . 7	0.09247819
-0.8962505	4 . 8	0.09728982
-1.197281	4 . 9	-0.3381594
-0.6488034	5 . 3	-0.1998544
-1.088136	5 . 4	-0.02915568
-0.5762527	5 . 5	-0.3111696
-0.9120448	5 . 6	0.2043954
-0.9120448	5 . 7	-0.6846955
-1.516338	5 . 8	-0.2136481
-1.516338	5 . 9	-0.3174085
-1.060698	6 . 0
-1.111951	6 . 1	-0.1231933
-0.8846066	6 . 2	0.08785166
-1.161724	6 . 3	-0.3221495
-1.060698	6 . 4	-0.02915568
-0.7596679	6 . 5	-0.3555274
-1.438589	6 . 6	-0.08300864
-1.060698	6 . 7	0.07651217
-1.111951	6 . 9	0.04940247
-1.953246	7 . 0	-0.304059
-1.085712	7 . 1	0.1758678
-1.224015	7 . 2	0.1757096
-1.172862	7 . 3	0.124553
-1.172862	7 . 4	0.315574
-0.8260748	7 . 5	0.02283648
-0.8966559	7 . 6	0.2187354
-1.013161	7 . 7	0.1216378
-0.8966559	7 . 8	0.3621343
-0.6957411	7 . 9	0.2099659
-0.7900504	8 . 0	-0.4333632
-1.54429	8 . 1	-0.09284241
-0.9313796	8 . 2	0.5745625
-0.841203	8 . 3	-0.2122457
-0.9661418	8 . 4	-0.2850733
-0.744293	8 . 5	0.3060969
-1.494516	8 . 6	0.29614
-1.142233	8 . 7	-0.2970084
-1.54429	8 . 8	0.0646323
-1.494516	8 . 9	-0.2506561
-1.137559	9 . 1
-0.7596679	9 . 3	0.1347532
-1.187869	9 . 5	0.1572658
-1.187869	9 . 6	0.02985975
-0.8109207	9 . 7	-0.1521894
-0.8109207	9 . 8
-0.009048129	<s> . </s>
-0.07788678	A . </s>
-1.601906	A . C	-0.0791136
-1.652216	A . H	-0.2454268
-1.275268	A . T	-0.3544559
-0.1426675	B . </s>
-0.79588	B . A	0.004049087
-0.008433168	C . </s>
-0.2304489	D . </s>
-0.6468723	D . C	-0.5581042
-0.7781513	D . T	-0.5492077
-1.784431	D . c	-0.6828041
-0.06366908	E . </s>
-0.03778856	F . </s>
-0.1249387	G . </s>
-1.030262	G . m	0.267838
-0.04139268	H . </s>
-0.243038	I . </s>
-0.03407979	J . </s>
-0.01296498	K . </s>
-0.1836444	L . </s>
-0.6842467	L . A	0.1993356
-1.28854	L . L	-0.3364435
-0.06069784	M . </s>
-0.3869446	N . </s>
-0.9890046	N . C	-0.1436515
-1.718236	N . H	0.04534731
-0.8129134	N . J	0.1760913
-1.667925	N . M
-1.341287	N . V	0.05304682
-0.7160034	N . Y	-0.3364435
-0.243038	O . </s>
-0.6712397	O . J	0.6200205
-0.08432089	P . </s>
-1.00628	P . J	0.5071521
-0.1076339	R . </s>
-1.438926	R . C	0.0337548
-1.438926	R . I	0.01062278
-0.02255309	S . </s>
-1.703291	S . A	0.2820899
-2.784705	S . C	0.3245289
-2.055474	S . R	0.4876953
-2.004321	S . S	1.464887
-2.734395	S . b	-0.5708642
-2.784705	S . p	0.01062278
-0.03218468	T . </s>
-2.791343	U . </s>
-1.518044	U . K	0.02996323
-1.533838	U . N	0
-0.02868796	U . S	-0.3309492
-0.04575749	V . </s>
-0.02632894	W . </s>
-1.483401	W . V	-0.6586502
-0.03476211	Y . </s>
-0.2676062	a . </s>
-0.3565473	a . m	-0.4393327
-0.1481628	b . </s>
-0.00171998	c . </s>
-0.004852503	d . </s>
-0.252952	e . c	0.03003088
-0.02020339	f . </s>
-0.1139434	h . </s>
-0.940085	h . D	0.2098461
-0.09691001	l . </s>
-0.02687215	m . </s>
-1.525112	m . b	-0.4813035
-0.03778856	n . </s>
-0.001505355	o . </s>
-0.04230384	p . </s>
-1.046625	p . m	0.3032793
-0.00914338	r . </s>
-0.03103423	s . </s>
-1.238229	s . c	0.03003088
-0.01099538	t . </s>
-0.05115252	x . o	0
-0.1481628	y . </s>
-0.06694679	z . </s>
-0.4873404	1 / 1	-0.1217336
-0.2184951	1 / 2	0
-1.45961	1 / 4	0.7961118
-0.05324551	3 / 4	0.05115251
-1.241115	3 / 8	0.5108761
-0.05115252	5 / 8	0.1918855
-0.2942909	7 / 1	0.3876003
-0.6209288	7 / 8	0.3980077
-0.03218468	9 / 1	0.2414443
-0.009759837	<s> / </s>
-0.004278798	, 0 0	-1.859275
-1.428202	. 0 0	-0.2166533
-1.051253	. 0 1	-0.1661551
-1.051253	. 0 2	0.2874851
-1.377891	. 0 4	0.2518796
-1.101027	. 0 5	-0.4976968
-1.101027	. 0 6	-0.7573341
-1.377891	. 0 7	-0.1460604
-0.8239087	. 0 9	-0.7917227
-1.377891	. 0 </s>
-1.33297	0 0 ,	0.4913617
-0.5361763	0 0 0	-1.656948
-2.387554	0 0 1	-0.247518
-2.387554	0 0 2	0.2061221
-2.11069	0 0 5	-0.4976968
-2.387554	0 0 6
-2.437865	0 0 :
-0.2086028	0 0 </s>
-2.387554	0 0 s	0.04182308
-1.202027	1 0 ,	0.6462637
-1.01494	1 0 .	-0.01168923
-0.8108203	1 0 0	-0.9087189
-1.814937	1 0 1	0.3307356
-1.361728	1 0 3	-0.09691001
-1.537819	1 0 4	-0.1341454
-2.142112	1 0 7	-0.03319198
-1.361728	1 0 :	-0.274284
-0.2906645	1 0 </s>
-1.263241	2 0 ,	0.6582463
-1.439333	2 0 .	-0.1804458
-0.550031	2 0 0	0.3645014
-0.2352127	2 0 </s>
-1.817223	2 0 t	-0.209098
-1.431364	3 0 ,	1.136389
-1.809255	3 0 .
-0.8029748	3 0 0	-0.295572
-1.859565	3 0 5	0.665778
-0.1357967	3 0 </s>
-1.67124	4 0 ,	1.15714
-1.67124	4 0 .	-0.3122932
-0.8037053	4 0 0	-0.1456727
-0.1290947	4 0 </s>
-1.110896	5 0 ,	0.7132105
-1.928119	5 0 .
-0.7543483	5 0 0	-0.3708099
-0.1522883	5 0 </s>
-1.928119	5 0 t	-0.209098
-1.662321	6 0 ,	1.044271
-0.7403627	6 0 0	-0.7250682
-0.1011609	6 0 </s>
-1.483401	7 0 ,	1.044271
-0.03547232	7 0 </s>
-1.247155	8 0 0	-0.2679677
-0.0854302	8 0 </s>
-1.457072	9 0 0	-0.5987951
-1.457072	9 0 3	0.1549696
-0.03778856	9 0 </s>
-0.09080742	: 0 0	-1.21487
-1.500107	: 0 1	-0.247518
-1.500107	: 0 6	0.2932723
-1.500107	: 0 7
-1.500107	: 0 9	-0.5786079
-0.06214791	<s> 0 .	0.149513
-1.553982	<s> 0 0	-0.7465329
-1.604293	<s> 0 9	-0.4657395
-1.230449	. 1 0	-0.3443539
-1.281702	. 1 2	-0.3325701
-0.9294189	. 1 5	-0.4645321
-1.658651	. 1 6	0.1428993
-1.60834	. 1 7	-0.424814
-1.60834	. 1 8	-0.3627695
-0.2197251	. 1 </s>
-0.04011722	/ 1 6	-0.7269987
-0.1648103	0 1 </s>
-0.6766936	0 1 s	0.3853899
-1.023481	1 1 .	-0.1642777
-0.8315955	1 1 /	-1.005021
-1.426916	1 1 0	-0.1124255
-1.199572	1 1 1	-0.3477245
-1.023481	1 1 :	-0.1675148
-0.3756636	1 1 </s>
-1.199572	1 1 t	-0.2890473
-0.5026754	2 1 .	-0.151114
-1.37021	2 1 :	-0.2994126
-0.243038	2 1 </s>
-0.8172234	3 1 .	-0.7314147
-0.5403593	3 1 </s>
-0.8897741	4 1 :	-0.471914
-0.1597008	4 1 </s>
-0.4905855	5 1 .	-0.2606562
-0.4393327	5 1 </s>
-0.855012	6 1 .
-0.9053228	6 1 3	-0.6072233
-0.30103	6 1 </s>
-0.09691001	7 1 </s>
-0.553982	8 1 .
-0.553982	8 1 </s>
-0.3778907	9 1 </s>
-0.553982	: 1 0
-1.853477	<s> 1 ,	0.1698941
-1.178866	<s> 1 .	-0.46604
-1.432472	<s> 1 /	-1.177607
-0.6093124	<s> 1 0	-0.4836242
-0.9654507	<s> 1 1	0.03450233
-1.138995	<s> 1 2	-0.1351171
-1.131442	<s> 1 3	-1.040264
-1.315086	<s> 1 4	-0.1224063
-0.9217418	<s> 1 5	0.01050356
-1.432472	<s> 1 6	0.1667324
-1.326668	<s> 1 7	-0.02850201
-1.447712	<s> 1 8	-0.1798707
-1.432472	<s> 1 9	0.1549246
-1.303805	<s> 1 </s>
-2.344063	<s> 1 s	0.3746353
-0.07686075	A 1 </s>
-0.3032629	M 1 </s>
-0.553982	, 2 4
-0.553982	, 2 7
-1.09108	. 2 0	-0.7555105
-0.7900504	. 2 5	-0.2943994
-1.695373	. 2 9	-0.2548571
-0.1879905	. 2 </s>
-0.01639042	/ 2 </s>
-0.05115252	0 2 </s>
-0.7201593	1 2 .	0.04286467
-1.248533	1 2 0	-0.02552592
-1.625482	1 2 5	0.475066
-1.625482	1 2 9	-0.5953502
-1.197281	1 2 :	0.07136615
-0.2808266	1 2 </s>
-1.575171	1 2 t	0.04182308
-0.6690068	2 2 .	-0.1297184
-0.1684044	2 2 </s>
-0.1165056	3 2 </s>
-0.1014576	4 2 </s>
-0.06214791	5 2 </s>
-0.4771213	6 2 .	-0.262042
-0.855012	6 2 5	0.07142356
-0.30103	6 2 </s>
-0.4748008	7 2 n	-0.209098
-0.7300733	8 2 .
-0.3521825	8 2 </s>
-0.252952	9 2 </s>
-0.7300733	: 2 1	-0.3801436
-0.7300733	: 2 7	-0.4259011
-1.850238	<s> 2 ,	-0.1297172
-0.9949205	<s> 2 .	-0.1973358
-0.6938905	<s> 2 0	0.1688284
-1.137027	<s> 2 1	-0.1174456
-1.230449	<s> 2 2	0.1087261
-1.230449	<s> 2 3	0.04720994
-1.084321	<s> 2 4	-0.2035484
-0.9562911	<s> 2 5	-0.1077651
-1.424269	<s> 2 6	0.1954388
-1.452298	<s> 2 7	-0.6010428
-1.181231	<s> 2 8	-0.5249064
-1.628389	<s> 2 9	-0.3440504
-2.127356	<s> 2 :	0.04512127
-0.9381928	<s> 2 </s>
-0.07686075	d 2 0	-0.6043548
-0.06694679	n 2 0	-0.9903798
-0.07686075	s 2 </s>
-1.130334	. 3 0	-0.5631196
-1.407452	. 3 2	-0.05817752
-1.357678	. 3 3	-0.06234661
-1.306425	. 3 4	-0.07190767
-1.306425	. 3 5	0.2982396
-1.734627	. 3 7	0.1326434
-1.684316	. 3 8	-0.5825531
-1.684316	. 3 9	-0.1460604
-0.2457272	. 3 </s>
-0.05799195	0 3 </s>
-0.50515	1 3 .	-0.104578
-1.20412	1 3 3	-0.3000237
-1.582011	1 3 :
-0.2263964	1 3 </s>
-1.173771	2 3 ,
-0.8471329	2 3 .	-0.3692093
-0.3565473	2 3 </s>
-0.79588	2 3 r	0.4579405
-1.187869	3 3 .
-0.8109207	3 3 0	-0.2623982
-0.2477845	3 3 </s>
-0.940085	4 3 .
-0.1597008	4 3 </s>
-0.09691001	5 3 </s>
-0.243038	6 3 </s>
-0.6209288	7 3 .
-0.6712397	7 3 </s>
-0.4748008	8 3 </s>
-0.7758307	9 3 4
-0.4989666	9 3 </s>
-0.1962947	: 3 0	-0.7713969
-1.294345	: 3 3	-0.3863925
-1.294345	: 3 4	-0.6828041
-0.9677068	: 3 7	0.05304682
-1.294345	: 3 9
-0.7426789	<s> 3 .	0.1571566
-1.035276	<s> 3 /	-0.3364436
-0.6051511	<s> 3 0	-0.1863319
-1.496007	<s> 3 1	-0.4473176
-1.547159	<s> 3 2	0.1127886
-1.408856	<s> 3 3	-0.113187
-2.276391	<s> 3 4	-0.04344792
-1.304121	<s> 3 5	0.1091445
-1.547159	<s> 3 6	-0.1952237
-1.408856	<s> 3 7	0.1698961
-1.949216	<s> 3 8	-0.0903414
-1.672098	<s> 3 9	0.1413436
-1.949216	<s> 3 :	-0.08026984
-0.8374652	<s> 3 </s>
-1.949216	<s> 3 r	-0.6847834
-1.20412	. 4 0	-0.06617729
-1.582011	. 4 1	-0.236237
-1.028029	. 4 2	-0.4529041
-1.582011	. 4 3	-0.236237
-0.8519375	. 4 5	0.146128
-1.632322	. 4 7	0.1326434
-1.582011	. 4 9	0.2518796
-0.2621119	. 4 </s>
-0.01639042	/ 4 </s>
-0.04575749	0 4 </s>
-1.45961	1 4 ,	-0.2672752
-0.4873404	1 4 .	-0.2229111
-0.2717406	1 4 </s>
-1.051253	2 4 .	-0.1445044
-0.139662	2 4 </s>
-0.855012	3 4 :	-0.2709991
-0.30103	3 4 </s>
-0.6712397	4 4 .	-0.2855
-0.243038	4 4 </s>
-0.05115252	5 4 </s>
-0.3032629	6 4 </s>
-0.1760913	7 4 7	-0.1788816
-0.553982	7 4 </s>
-0.7758307	8 4 .
-0.2218488	8 4 </s>
-0.6789207	9 4 0
-0.30103	9 4 </s>
-0.8897741	: 4 1	-0.6881924
-0.5631362	: 4 2	0.2571668
-0.5631362	: 4 5	0.4793707
-2.135666	<s> 4 ,
-0.803533	<s> 4 .	-0.1691183
-0.5745056	<s> 4 0	-0.4010595
-1.405593	<s> 4 1	-0.1178157
-1.318443	<s> 4 2	0.1169698
-1.405593	<s> 4 3	-0.1844337
-1.581684	<s> 4 4	0.03153329
-1.245892	<s> 4 5	0.3332147
-1.081082	<s> 4 6	-0.3364436
-1.280654	<s> 4 7	0.3465737
-1.405593	<s> 4 8	-0.1504934
-1.858802	<s> 4 9	0.3134336
-2.135666	<s> 4 :
-0.8546855	<s> 4 </s>
-0.07686075	P 4 8	-0.5884196
-0.252952	, 5 0
-0.8027737	. 5 0	-0.7931803
-1.325652	. 5 2	-0.2590841
-1.929945	. 5 3	0.06371802
-1.552997	. 5 5	0.6342726
-0.1642845	. 5 </s>
-0.02227639	0 5 </s>
-1.470382	1 5 ,	0.4471859
-0.9420081	1 5 .	0.04468326
-0.8750613	1 5 0	0.5718021
-0.1699309	1 5 </s>
-0.916454	2 5 0	0.6745132
-0.07135591	2 5 </s>
-0.05115252	3 5 </s>
-0.03218468	4 5 </s>
-0.02227639	5 5 </s>
-0.04346569	6 5 </s>
-0.0255541	7 5 </s>
-0.7300733	8 5 .
-0.1760913	8 5 </s>
-0.07918125	9 5 </s>
-0.855012	: 5 3
-0.855012	: 5 7	-0.6881924
-0.855012	: 5 8
-2.244443	<s> 5 ,	0.4786914
-0.9131513	<s> 5 .	-0.09333668
-1.464059	<s> 5 /	0
-0.4451734	<s> 5 0	0.07241471
-1.464059	<s> 5 1	-0.007309461
-1.515211	<s> 5 2	0.3594609
-1.816241	<s> 5 3	0.04296716
-1.64015	<s> 5 4	0.4935261
-1.24221	<s> 5 5	0.1249387
-1.515211	<s> 5 6	-0.1169084
-1.464059	<s> 5 7	-1.090676
-1.464059	<s> 5 8	-0.1413292
-2.244443	<s> 5 9	0.04534731
-1.867494	<s> 5 :	0.05304682
-0.7555435	<s> 5 </s>
-1.368198	. 6 0	-1.116356
-1.645062	. 6 1	-0.4470904
-1.645062	. 6 2
-1.645062	. 6 5	0.2730689
-1.645062	. 6 6
-0.1058037	. 6 </s>
-0.04139268	0 6 </s>
-1.595375	1 6 ,	-0.04915037
-1.595375	1 6 .
-1.645686	1 6 0	-0.5481018
-0.07918125	1 6 </s>
-0.6532125	2 6 .
-0.2552725	2 6 </s>
-1.031103	2 6 t	-0.3930197
-0.4491929	3 6 .
-0.7758307	3 6 0
-0.8261416	3 6 </s>
-1.104895	4 6 .
-0.3756636	4 6 0	-0.2718718
-0.3756636	4 6 </s>
-0.08715018	5 6 </s>
-0.2218488	6 6 </s>
-0.09691001	7 6 </s>
-0.4989666	8 6 </s>
-1.137559	9 6 2	-0.4470904
-0.4074853	9 6 7	0.0413927
-0.3203351	9 6 </s>
-0.808436	<s> 6 .	-0.08463446
-0.5531635	<s> 6 0	-0.154902
-1.382467	<s> 6 1	0.1058582
-1.784524	<s> 6 2	0.2833777
-1.73475	<s> 6 3	0.09953577
-2.111699	<s> 6 4	-0.3364435
-1.081437	<s> 6 5	-0.1829307
-1.382467	<s> 6 6	0.1051899
-2.061388	<s> 6 7
-1.382467	<s> 6 8	-0.6687112
-1.73475	<s> 6 9	-0.127735
-1.244165	<s> 6 :	-0.4243691
-0.7414893	<s> 6 </s>
-1.278754	. 7 0	0.4495074
-1.656644	. 7 1	-0.04915037
-0.8394209	. 7 5	0.1638568
-1.706955	. 7 7	-0.1581307
-1.330006	. 7 8	-0.4781975
-0.1906175	. 7 </s>
-0.6789207	0 7 :
-0.1249387	0 7 </s>
-0.60206	1 7 .	-0.1316242
-1.377891	1 7 :
-0.2798407	1 7 </s>
-1.428202	1 7 t	0.2098461
-0.8211859	2 7 .	-0.1734108
-0.2808266	2 7 </s>
-0.7201593	3 7 .	-0.1707449
-0.1760913	3 7 </s>
-0.7201593	4 7 .	-0.1853444
-1.09805	4 7 0
-0.1760913	4 7 </s>
-0.940085	5 7 .
-0.8897741	5 7 :
-0.6129099	5 7 </s>
-0.04139268	6 7 </s>
-0.1760913	7 7 </s>
-0.08715018	8 7 5	0.2430381
-0.4532091	9 7 </s>
-0.3431886	<s> 7 .	0.1552073
-1.854992	<s> 7 /	-0.0912853
-0.7225574	<s> 7 0	-0.7393003
-1.753966	<s> 7 2
-1.805219	<s> 7 3	-0.05416598
-1.805219	<s> 7 4	0.05304682
-1.314633	<s> 7 5	0.2016454
-2.131857	<s> 7 6	-0.04915037
-1.753966	<s> 7 7	0.2474574
-2.182168	<s> 7 8	-0.155918
-2.131857	<s> 7 9	0.04182308
-1.577875	<s> 7 :	-0.2202787
-0.9246621	<s> 7 </s>
-2.131857	<s> 7 t	0.09697767
-0.553982	, 8 0	-0.7228145
-1.595375	. 8 0	6.764784e-05
-1.645686	. 8 2	-0.3799795
-1.595375	. 8 4	-0.3501804
-1.645686	. 8 5	-0.1581307
-0.916454	. 8 7	-0.2138798
-1.217484	. 8 9	-0.1788816
-0.2067601	. 8 </s>
-0.03218468	/ 8 </s>
-0.07686075	0 8 </s>
-1.30731	1 8 ,	-0.209098
-0.9806718	1 8 0	0.3241136
-1.357621	1 8 :	0.1141599
-0.2304489	1 8 </s>
-1.357621	1 8 s	-0.3364435
-0.3452336	2 8 8	-0.04575749
-0.3452336	2 8 </s>
-1.267192	2 8 t	0.04182308
-0.4989666	3 8 </s>
-0.940085	4 8 .	-0.290381
-0.5118834	4 8 6	-0.2073703
-0.5631362	4 8 </s>
-0.07255067	5 8 </s>
-0.4532091	6 8 </s>
-0.4532091	7 8 </s>
-0.03342376	8 8 </s>
-0.855012	9 8 6	-0.5825531
-0.1760913	9 8 </s>
-0.4839607	<s> 8 .	-0.5286501
-0.8616973	<s> 8 0	-0.4548018
-1.954343	<s> 8 1	-0.109758
-1.90309	<s> 8 2	-0.1401936
-2.331292	<s> 8 3
-1.726999	<s> 8 4	0.1677173
-1.954343	<s> 8 5	0.1552733
-2.280981	<s> 8 6
-2.280981	<s> 8 7
-1.463757	<s> 8 8	0.08894107
-1.726999	<s> 8 9	0.3381774
-1.226396	<s> 8 :	-0.3602207
-0.4798441	<s> 8 </s>
-1.396594	. 9 0	0.3926148
-1.119476	. 9 3	-0.9685781
-1.723769	. 9 4	-0.334222
-1.295567	. 9 5	0.4052136
-0.9945371	. 9 6	-0.6533553
-1.673458	. 9 7	-0.5595605
-1.119476	. 9 8	0.0164049
-0.2848432	. 9 </s>
-0.4905855	0 9 :	-0.1176309
-0.2632414	0 9 </s>
-1.280981	1 9 .
-1.280981	1 9 4
-0.5509075	1 9 6	-0.7844002
-1.280981	1 9 7
-1.280981	1 9 8
-0.90309	1 9 9	-0.1871422
-0.60206	1 9 </s>
-1.00628	2 9 ,	0.04182308
-0.7294155	2 9 </s>
-1.00628	2 9 s	0.04182308
-1.056591	2 9 t	-0.3364435
-0.1249387	3 9 </s>
-0.04575749	4 9 </s>
-0.2273441	5 9 </s>
-0.1481628	6 9 </s>
-0.07686075	7 9 </s>
-0.1760913	8 9 </s>
-0.9799507	9 9 .
-1.030262	9 9 9	-0.27623
-0.2498775	9 9 </s>
-1.002706	<s> 9 .	-0.0851807
-1.092883	<s> 9 /	0
-0.6047659	<s> 9 0	-0.1544872
-1.982657	<s> 9 1
-1.982657	<s> 9 3
-1.982657	<s> 9 4
-1.127645	<s> 9 5	-0.30103
-1.604766	<s> 9 6	-0.3734562
-1.982657	<s> 9 7	-0.5595605
-2.032968	<s> 9 8	0.1326434
-1.705792	<s> 9 9	-0.01692452
-1.705792	<s> 9 :	-0.3391126
-0.4992557	<s> 9 </s>
-0.3032629	Q 9 7	-0.4466921
-0.30103	0 : 0	0.4059988
-0.9053228	0 : 3	0.09485479
-0.3273589	1 : 0	0.50989
-1.00628	1 : 1
-0.6796418	1 : 3	0.01525823
-0.30103	2 : 0	0.2635595
-0.855012	2 : 3	-0.3087877
-0.855012	2 : 5	-0.6828041
-0.8172234	3 : 0	-0.02384451
-0.8172234	3 : 3
-0.4905855	3 : 4	-0.1297119
-0.1760913	4 : 5
-0.1760913	5 : 0	0.06827302
-0.553982	5 : 3
-0.855012	6 : 0
-0.855012	6 : 2
-0.5781478	6 : 3	0.09712712
-0.5118834	7 : 0	0.494612
-0.5118834	7 : 3	0.06639504
-0.8897741	7 : 4
-0.8897741	7 : 5
-0.1856366	8 : 0	-0.4798441
-1.137559	8 : 1
-1.137559	8 : 2
-1.137559	8 : 3	-0.3087877
-1.137559	8 : 4	-0.6093912
-0.5953209	9 : 0	0.05751846
-0.5953209	9 : 3	0.01525823
-0.9219588	9 : 5
-0.01930515	<s> : </s>
-0.05115252	<s> ? </s>
-0.3778907	<s> @ S	0.04182308
-0.5251116	' A r	-0.3361487
-0.2373609	- A m	-0.09194947
-1.054584	- A r	-0.4717175
-1.054584	- A s	-0.5776694
-0.10721	. A .	-0.4976882
-0.7269987	. A </s>
-3.561501	<s> A &	-0.3364435
-2.11211	<s> A .	-0.206466
-3.51119	<s> A 1	0.04182308
-3.51119	<s> A 3
-2.167158	<s> A </s>
-3.51119	<s> A A
-1.718326	<s> A B	-0.5865379
-2.957208	<s> A C	-0.1262125
-3.561501	<s> A D	-0.5565159
-3.561501	<s> A E	-0.511055
-3.561501	<s> A F	-0.1683866
-2.258238	<s> A G	-0.7604862
-3.184552	<s> A I	-0.415287
-3.133299	<s> A K	-0.2663206
-2.656178	<s> A M	0.07512508
-3.184552	<s> A N	-0.3397536
-2.656178	<s> A O	-0.4149733
-2.50491	<s> A P	-0.5440291
-3.561501	<s> A R	-0.3230515
-2.693967	<s> A S	-0.6037452
-2.531239	<s> A T	-1.065817
-3.51119	<s> A Z	0.04182308
-2.656178	<s> A a	0
-1.368003	<s> A b	-0.9478458
-1.674662	<s> A c	-0.2345335
-1.49481	<s> A d	-0.1744969
-2.155576	<s> A e	-0.1399278
-1.265537	<s> A f	0.2748951
-1.232932	<s> A g	-0.005723051
-2.011083	<s> A h	0.1870552
-1.447558	<s> A i	0.06875765
-2.337419	<s> A k	0.004263182
-0.9997604	<s> A l	-0.2188656
-0.724212	<s> A m	-0.4149473
-1.119409	<s> A n	-0.01809813
-2.456606	<s> A o	0.5824729
-2.019356	<s> A p	-0.08607377
-3.561501	<s> A q
-0.871442	<s> A r	0.1349368
-1.085052	<s> A s	-0.1607314
-1.762231	<s> A t	-0.2425793
-1.369871	<s> A u	-0.2582724
-2.20388	<s> A v	-0.1701519
-2.693967	<s> A w	-0.3364435
-2.656178	<s> A x	0
-3.184552	<s> A y	-0.240927
-2.272961	<s> A z	0.006084481
-0.1346986	A A </s>
-0.951922	A A C
-0.2218488	B A </s>
-1.252952	B A C	-0.735389
-1.303263	B A N
-0.9263141	B A R	-0.6199118
-0.7242759	C A </s>
-0.2057619	C A C	-0.8819942
-1.550418	C A L	-0.57726
-1.122216	C A N
-0.1706962	D A </s>
-1.377891	D A L
-1.377891	D A M	-0.471914
-1.377891	D A Q	0.04182308
-1.051253	D A R	-0.3640765
-0.7279465	E A </s>
-0.7777202	E A N	-1.52252
-0.6766936	E A S	-0.6946568
-1.054584	E A T
-0.39794	F A </s>
-1.319899	F A A	-0.1740891
-0.3136191	F A W	0
-0.3590219	G A </s>
-0.50515	G A F	-0.7781513
-1.130434	G A G	-0.6216062
-1.457072	G A O	-0.7026103
-1.507383	G A T	-0.6233055
-0.2108534	H A </s>
-0.8897741	H A D
-0.04984637	I A </s>
-1.140927	I A F	-0.9580541
-1.694909	I A T	-0.6979538
-0.553982	J A P	-0.7137155
-0.553982	J A R	-0.7239879
-0.07918125	L A </s>
-0.3187588	M A </s>
-0.8969066	M A C	-1.149242
-0.8471329	M A N
-1.268737	N A </s>
-1.595375	N A D
-1.217484	N A L	0.004049087
-0.4393327	N A S	-1.124169
-0.3424227	N A T	-1.237312
-0.04034324	O A </s>
-1.919563	O A N	-0.3590456
-1.592388	O A S	-1.721315
-0.1064553	P A </s>
-1.187869	P A N	-0.06827149
-0.7030866	R A </s>
-0.6533128	R A L	-0.006705477
-0.9799507	R A N
-0.1423128	S A </s>
-1.658651	S A A	-0.0612207
-1.230449	S A C	-0.3616172
-1.60834	S A L
-0.9294189	S A R	-0.8053035
-0.30103	T A </s>
-0.6789207	T A L	-0.08806844
-0.7502229	U A A	-0.09272613
-0.1870866	U A L	-0.4860761
-0.03778856	V A </s>
-0.30103	W A </s>
-0.6789207	W A R
-0.07686075	_ A g	0.2020822
-0.4282016	c A l	-0.2950062
-0.04575749	p A s	-0.829549
-0.3032629	& B </s>
-0.02996322	' B r	-0.8979731
-0.07686075	- B a
-0.07686075	. B .	-0.1952784
-3.454531	<s> B &	0.04182308
-2.316972	<s> B .	0.1482802
-2.724458	<s> B </s>
-2.77561	<s> B A	-0.4367361
-1.87252	<s> B B	-0.903833
-3.504842	<s> B C	-0.3417438
-3.127893	<s> B M	-0.3893124
-2.637308	<s> B N	-0.2632414
-3.454531	<s> B P	0.04182308
-3.127893	<s> B S	-0.4063457
-3.07664	<s> B U
-0.5731903	<s> B a	0.2330516
-0.7777874	<s> B e	0.04488378
-3.454531	<s> B h
-1.149784	<s> B i	-0.2485676
-1.538821	<s> B l	-0.638144
-0.9479182	<s> B o	-0.2249073
-0.858499	<s> B r	0.01357346
-0.7391812	<s> B u	-0.06833156
-2.564757	<s> B y	0.2748955
-1.238882	A B </s>
-1.238882	A B B	-0.4336835
-0.08761442	A B C	0.1909828
-1.516	A B M	-0.7816934
-1.312516	B B </s>
-0.05714289	B B C	0.3125679
-1.639154	B B I	-0.7374438
-1.753554	C B O	-0.6763488
-0.01393578	C B S	-0.6674529
-0.006630579	F B I	-0.4578161
-0.2632414	G B </s>
-0.4393327	G B H	0.04296716
-0.05115252	H B O	-0.3899711
-0.7715207	I B </s>
-0.69897	I B E	-0.5898256
-0.2218488	I B M	-0.5850266
-0.09017663	M B A	-0.7160034
-1.588872	N B </s>
-1.539098	N B A	-0.2688174
-0.04458213	N B C	0.07626325
-0.252952	R B A	-0.7231599
-0.1047354	S B </s>
-0.9722697	S B C	1.490229
-0.252952	T B </s>
-0.07686075	U B S	0.5529096
-0.6712397	a B a	-0.4826064
-0.243038	a B o	-0.6201041
-0.3032629	c B r	-0.3571338
-0.4989666	e B a	-0.6777169
-0.8261416	e B r	-0.5049818
-0.1481628	' C o	-0.5817881
-0.8675343	- C h	0.08416753
-0.5403593	- C o	-0.4501746
-0.1047354	. C .	0.1845244
-1.122216	. C </s>
-1.39908	. C a
-2.710212	<s> C .	0.4607308
-3.062394	<s> C </s>
-3.464451	<s> C A	-0.3129996
-1.992356	<s> C B	0.01521853
-2.585273	<s> C C	-0.6234776
-3.062394	<s> C D	-0.2681216
-3.741315	<s> C H	-0.6927583
-2.166143	<s> C I	-1.03653
-3.414677	<s> C K	-0.06469741
-3.741315	<s> C L	-0.6292934
-1.828763	<s> C N	-0.5044993
-2.924091	<s> C O	-0.2714712
-3.062394	<s> C P	-0.4276901
-3.414677	<s> C R	-0.0432603
-3.363424	<s> C S	-0.1701519
-2.503086	<s> C T	-0.3280852
-3.741315	<s> C W	0.04182308
-0.959446	<s> C a	-0.345354
-1.641201	<s> C e	-0.1378742
-0.4255301	<s> C h	-0.3358276
-1.590736	<s> C i	0.03400324
-1.33404	<s> C l	0.02465227
-3.791625	<s> C n	0.01062278
-0.4789118	<s> C o	-0.2677248
-1.841632	<s> C r	-0.3331915
-1.615236	<s> C u	0.1336333
-2.851541	<s> C y	-0.1158346
-2.886303	<s> C z	0
-0.1102155	A C </s>
-1.539259	A C H	-0.6927583
-1.539259	A C L	-0.6292934
-1.58957	A C a	-0.6315593
-0.003265387	B C </s>
-2.202342	B C C	-0.5601299
-0.4542584	C C </s>
-1.344033	C C A	-0.657313
-0.3640817	C C P	-0.7355989
-1.017395	C C T	-0.5850874
-0.04139268	D C </s>
-0.01930515	E C </s>
-1.78993	E C D	-0.4591607
-0.3032629	H C R	-0.237312
-1.072442	I C </s>
-1.449391	I C A	-0.3103981
-1.122216	I C C	-1.610736
-1.39908	I C H
-0.2615215	I C O	-0.8911908
-0.01703334	L C </s>
-1.148361	M C </s>
-0.7714121	M C A	-0.57595
-0.3679768	M C I	-0.7588461
-1.09805	M C V	0.04182308
-0.7030866	N C </s>
-0.9799507	N C H	-0.6366283
-0.9799507	N C N	-0.7382456
-0.03218468	O C </s>
-1.750421	O C I	-0.02414274
-1.70011	O C N	-0.7429284
-0.1346986	P C </s>
-1.002233	P C C	-0.4472615
-0.004695121	R C </s>
-0.4704907	S C </s>
-0.2218488	S C I	-1.360906
-1.588744	S C O	-0.2590999
-0.449969	T C </s>
-0.2738777	T C A	-1.108233
-1.241585	T C H	-0.5552654
-0.07686075	U C L	-0.6292934
-0.2714747	c C a	-0.5882919
-0.6471384	c C l	-1.10069
-0.6751671	c C o	-0.7900919
-0.03778856	d C o	-0.9599728
-0.07686075	e C o
-0.4282016	i C o	-0.3388595
-0.04575749	m C l	-0.9773703
-0.2273441	r C a	-0.5706638
-0.252952	u C o	-0.7478865
-0.09691001	' D o	-0.4242269
-0.06694679	. D .	-0.7487945
-3.264684	<s> D &	-0.3364435
-2.836482	<s> D '	0.04296716
-1.456271	<s> D .	0.06815048
-2.836482	<s> D </s>
-2.438542	<s> D A	-0.2923262
-2.535452	<s> D C	0.08715019
-3.214373	<s> D E	-0.64605
-3.214373	<s> D I
-3.214373	<s> D M	0.04182308
-3.214373	<s> D O
-1.825758	<s> D P	-1.311117
-3.264684	<s> D R	0.6097646
-3.214373	<s> D V	0.04182308
-0.6461506	<s> D a	-0.3239042
-0.3959668	<s> D e	0.00571777
-2.535452	<s> D h	0
-0.989836	<s> D i	0.008265425
-2.937509	<s> D j	-1.536849
-2.887735	<s> D m	-0.127735
-1.054727	<s> D o	-0.3242998
-1.317968	<s> D r	-0.6590581
-1.286254	<s> D u	-0.1304202
-2.887735	<s> D w	-0.3509054
-2.18327	<s> D y	0
-0.7300733	A D </s>
-0.7803841	A D N	0.001570114
-0.4771213	C D </s>
-0.855012	C D C	0.2932723
-0.5283741	C D L	-0.4048795
-0.855012	E D </s>
-0.5283741	E D E	-0.4115651
-0.4771213	E D T	0.04296716
-0.09017663	F D A	-0.9432471
-1.280981	F D I	-0.6586502
-0.90309	F D R	0.2982396
-0.3778907	G D R	0.2061221
-0.07686075	I D S	0.365823
-0.8172234	J D A
-0.08715018	J D S	0.1139434
-1.173771	L D </s>
-0.79588	L D I	-0.4007303
-0.1191864	L D P	-1.131888
-0.3440646	M D </s>
-0.940085	N D </s>
-0.3357921	N D O	-1.02941
-0.8897741	N D U	-0.3930197
-0.3778907	R D F	0.04182308
-0.3778907	S D </s>
-0.3778907	S D A	-0.7295358
-0.4393327	U D </s>
-0.5403593	U D N	-1.161905
-1.09805	V D </s>
-0.04346569	V D O	-0.8081145
-0.1159839	c D o	-1.15739
-0.6600519	c D u	-1.1133
-0.4282016	h D </s>
-0.3032629	. E .	0.5208235
-2.008824	<s> E .	-0.1124222
-3.063409	<s> E A	-0.645458
-2.384488	<s> E C	0.4074853
-2.736771	<s> E D	-0.2479832
-3.063409	<s> E I	-0.512372
-2.032305	<s> E M	-0.3968026
-2.685518	<s> E N	-0.1108368
-2.287578	<s> E P	0
-2.736771	<s> E S	-0.2991357
-2.509427	<s> E T	-0.2470166
-1.782428	<s> E U	0
-3.113719	<s> E V	-0.2022529
-3.063409	<s> E Z	0.04182308
-0.9471337	<s> E a	0.006084569
-3.063409	<s> E b	0.04182308
-1.197673	<s> E c	-0.2218408
-1.07539	<s> E d	0.228304
-1.319095	<s> E g	-0.6381451
-1.287578	<s> E h	0.01979746
-1.580008	<s> E i	-0.03041264
-3.063409	<s> E k	0.04182308
-1.00202	<s> E l	-0.1183923
-1.634365	<s> E m	0.2283039
-1.064861	<s> E n	0.01201053
-2.333335	<s> E p	0.0237797
-2.057129	<s> E q	0
-1.363299	<s> E r	0.007737229
-1.674794	<s> E s	-0.1623604
-1.707794	<s> E t	-0.1144925
-1.111487	<s> E u	-0.3364435
-1.52415	<s> E v	-0.1701519
-3.063409	<s> E w	0.04182308
-0.8810377	<s> E x	-0.1507658
-3.113719	<s> E z	0.01062278
-0.6042929	A E G	-0.4324662
-0.553982	A E L	-0.4470904
-0.1413292	B E </s>
-0.6532125	B E R	-0.3438036
-0.6789207	D E A	-0.6581622
-0.3522828	D E R	-0.5938435
-0.3522828	F E D	-0.5141895
-0.7292316	F E M	-0.6047461
-0.03891807	G E </s>
-1.319899	G E R	-0.7189863
-0.7803841	H E </s>
-0.7803841	H E V	-0.2022529
-0.6789207	I E </s>
-0.6789207	I E S	-0.5440004
-0.6789207	I E T
-0.3778907	K E </s>
-0.3778907	K E R	-0.6752064
-0.553982	L E </s>
-0.3357921	M E </s>
-0.5118834	M E R	-0.1968129
-0.8897741	M E S	-0.5440004
-0.7758307	N E </s>
-0.7758307	N E R
-0.39794	N E S	-0.64605
-0.4905855	O E </s>
-0.8172234	O E A	-0.6581622
-0.8675343	O E C	-0.6281496
-0.008433168	P E C	-0.3542755
-0.4522977	R E </s>
-0.6796418	R E A	-0.3107528
-1.00628	R E C	0.6136075
-1.00628	R E S
-0.845098	S E </s>
-1.122216	S E A	-1.719459
-0.2082759	S E C	-0.06963591
-1.39908	S E F	0.04182308
-0.09691001	T E </s>
-0.951922	T E D	-0.6828041
-0.07686075	Y E R
-0.07686075	c E l	-0.7443724
-2.326708	<s> F .	0.03778853
-3.143932	<s> F 1
-2.163981	<s> F </s>
-2.089347	<s> F A	-0.6889281
-1.561921	<s> F B	0.006630567
-1.862951	<s> F D	0.5824735
-2.465011	<s> F E	-0.2218407
-2.58995	<s> F H	-0.2890473
-2.766041	<s> F I	-0.08743887
-3.143932	<s> F R
-2.817294	<s> F T	-0.3588821
-3.143932	<s> F X	0.04182308
-0.980711	<s> F a	-0.1454486
-0.9163144	<s> F e	-0.03113678
-0.8366219	<s> F i	-0.3290354
-0.9719015	<s> F l	-0.2218406
-3.143932	<s> F m	0.04182308
-0.7296116	<s> F o	0.05781366
-0.7025198	<s> F r	-0.05114663
-2.817294	<s> F t	-0.127735
-1.218882	<s> F u	-0.1062238
-0.20412	A F </s>
-0.4771213	A F P	0.2762064
-0.07686075	D F </s>
-0.07686075	E F </s>
-0.6209288	I F A	-0.5262716
-0.6712397	I F O	-0.3364435
-0.6209288	I F T	-0.6292934
-0.04575749	J F K	0
-0.07686075	M F </s>
-0.855012	N F I	-0.6058954
-0.1249387	N F L	0.07918123
-0.03476211	O F A	-0.8920946
-0.06694679	P F P	0.09630355
-0.252952	W F P	0.4823286
-0.3032629	e F e	-0.3607295
-0.01772877	& G </s>
-0.252952	' G r	-0.561912
-0.3032629	. G .	-0.03319198
-2.304524	<s> G .	-0.07997533
-2.377074	<s> G </s>
-2.003494	<s> G A	-0.5058598
-2.816407	<s> G D	0.006084504
-1.956069	<s> G E	-0.4874409
-2.86766	<s> G I	-0.4759982
-2.214347	<s> G M	0.07463362
-1.816407	<s> G O	-0.4804388
-2.816407	<s> G P	0.04296716
-3.244609	<s> G R	0.06371802
-2.377074	<s> G T	0
-0.7921267	<s> G a	0.1069388
-3.244609	<s> G b	-0.3364435
-0.6089073	<s> G e	-0.2989411
-2.304524	<s> G h	-0.6590586
-1.369249	<s> G i	-0.2230874
-1.746369	<s> G l	-0.3272997
-0.7809773	<s> G o	0.08277906
-0.7652545	<s> G r	0.004787717
-0.9092645	<s> G u	-0.2649485
-3.244609	<s> G w	0.01062278
-2.816407	<s> G y	0.04296716
-0.1583625	A G </s>
-1.005495	A G E	0.4001894
-1.005495	A G I	-0.4759982
-0.4282016	E G </s>
-0.3032629	I G </s>
-0.1481628	K G B	-0.3243347
-0.07686075	M G M	0.5306333
-0.8261416	N G O	-0.6199121
-0.7758307	N G R
-0.1026623	P G A	-0.9542425
-0.252952	R G i	-0.6502569
-0.1481628	T G A	-0.6333417
-0.09691001	W G B	-0.4597082
-0.7292316	c G r	-0.5215942
-0.7292316	c G u	-0.5831022
-0.4282016	i G </s>
-0.07686075	' H a	-0.6264377
-0.252952	- H a
-0.2273441	. H .	0.3746353
-2.284099	<s> H .	0.1119738
-3.290379	<s> H </s>
-3.290379	<s> H A
-2.611458	<s> H B	0
-3.290379	<s> H I
-3.290379	<s> H K	-0.4493119
-2.736397	<s> H O	-0.2775532
-3.290379	<s> H Q	0.04182308
-3.290379	<s> H R	-0.3930197
-3.340689	<s> H S	-0.4813035
-2.963741	<s> H U	-0.1144925
-0.6400659	<s> H a	-0.4083458
-0.9680051	<s> H e	-0.1619838
-1.14906	<s> H i	-0.1086987
-3.290379	<s> H n	0.04182308
-0.5080817	<s> H o	-0.07755904
-1.055155	<s> H s	0
-0.7757672	<s> H u	-0.1007418
-3.013514	<s> H w	-0.0912853
-2.134336	<s> H y	0.07594287
-0.09691001	B H </s>
-0.6450946	C H </s>
-0.9219588	C H E	-0.6693843
-0.9219588	C H T	-0.512372
-0.06694679	F H A	-0.7191721
-0.3032629	I H </s>
-0.7292316	N H C	-0.3364435
-0.6789207	N H T	-0.512372
-0.252952	P H I
-0.544068	S H </s>
-0.9219588	S H E
-0.9722697	S H I
-0.544068	S H V	0.04296716
-0.4282016	T H E	-0.5565159
-0.07686075	V H </s>
-0.252952	W H O	-0.6586502
-0.3440646	b H u	-1.779528
-0.07686075	m H A	-0.333147
-0.553982	- I r	0.2130933
-0.6042929	- I s	0.4983987
-0.252952	. I .	-0.3801436
-3.001861	<s> I .	0.1949838
-2.047518	<s> I </s>
-2.774517	<s> I A	-1.101558
-1.950608	<s> I B	-1.20412
-3.328499	<s> I G	-0.4493119
-1.929419	<s> I I	0.06317073
-3.37881	<s> I M	-0.2022529
-2.950608	<s> I N	-0.1845985
-3.328499	<s> I O	-0.6966769
-3.37881	<s> I Q	-0.3364435
-1.836665	<s> I R	-0.9258696
-2.950608	<s> I S
-2.598426	<s> I T	-0.455691
-3.37881	<s> I a	0.01062278
-2.297396	<s> I b	-0.6381451
-3.001861	<s> I c	-0.240927
-2.322219	<s> I d	-0.3364435
-3.328499	<s> I f	0.04182308
-2.649578	<s> I g	0.08645964
-2.950608	<s> I h	0.006084504
-3.328499	<s> I i	0.04182308
-3.051635	<s> I k	-1.536849
-1.9192	<s> I l	-0.04395922
-1.565897	<s> I m	0.1588442
-0.5003591	<s> I n	-0.1235171
-2.376577	<s> I o	0
-0.5795404	<s> I r	0.01357616
-0.565002	<s> I s	-0.0113591
-1.677607	<s> I t	-0.04047902
-2.210246	<s> I v	0.01062278
-3.328499	<s> I w	0.04182308
-3.328499	<s> I z
-0.6209288	A I D	0.04182308
-0.6712397	A I W	-0.3364435
-0.01930515	B I </s>
-1.61468	B I E	-0.64605
-0.3705018	C I </s>
-0.2825466	C I A	-1.170936
-1.88684	C I C	-0.3060715
-0.3521825	D I </s>
-0.7300733	D I A
-0.7300733	D I C	-0.7097139
-0.3778907	E I N	-0.6584995
-0.553982	F I B	-0.6676008
-0.553982	F I F	-0.6292934
-0.4491929	G I O	-0.4449086
-0.4491929	G I P	-0.2688174
-0.04139268	I I </s>
-1.138303	I I I	0.3853899
-0.05115252	J I B	-0.8737229
-0.5251116	K I I	0.4061407
-0.4748008	K I P	-0.6684735
-0.855012	L I </s>
-0.9053228	L I F	-0.5311236
-0.4771213	L I N	-0.5663821
-0.39794	M I </s>
-0.8261416	M I T	-0.3019563
-0.7758307	N I </s>
-0.8261416	N I A	0.3295836
-0.7758307	N I C
-0.8261416	N I H	-0.3364435
-0.4771213	P I </s>
-0.5781478	P I C	-1.764647
-0.7201593	R I </s>
-0.2253093	R I C	-1.46501
-1.39908	R I E	-0.64605
-1.39908	R I L	-0.3930197
-1.39908	R I R	-0.7363901
-0.3522828	S I </s>
-0.3405385	T I </s>
-0.5488145	T I B	-1.049218
-1.488899	T I N
-0.8846066	T I O	-1.031046
-0.07918125	V I A	-0.07655712
-0.7300733	W I F	-0.6292934
-0.4034353	W I I	0.3746353
-0.1481628	c I n	-0.5592664
-0.04575749	- J a	-0.5961699
-0.02482358	. J .	-0.1330566
-3.253097	<s> J &	0.04182308
-1.920964	<s> J .	0.1679734
-2.875206	<s> J </s>
-2.699115	<s> J A	0.01062278
-2.435873	<s> J D	0.041823
-2.523023	<s> J F	0
-3.303408	<s> J P	0.01062278
-2.926459	<s> J S	-0.127735
-0.3796617	<s> J a	-0.3908364
-0.8560897	<s> J e	-0.4885098
-0.8952026	<s> J i	-0.01075362
-0.663685	<s> J o	-0.4204995
-1.920964	<s> J r	-0.3364435
-1.210094	<s> J u	-0.4681324
-0.05115252	M J I	0
-0.3440646	R J R	-1.536849
-0.3440646	S J </s>
-0.3032629	m J i	-0.6203342
-0.01472326	. K .	0.05435768
-2.732595	<s> K .	0.8754761
-3.160796	<s> K </s>
-2.783848	<s> K G	-0.127735
-3.160796	<s> K H
-3.110486	<s> K I	-0.5708642
-1.936715	<s> K K	0
-1.489557	<s> K M	0.006160303
-0.7688069	<s> K a	-0.1549569
-1.010372	<s> K e	-0.2173441
-1.653414	<s> K h	0.006084481
-1.049097	<s> K i	-0.02172184
-2.055901	<s> K l	0.2919729
-2.732595	<s> K m	0.04296716
-1.972927	<s> K n	0.02149293
-0.4277812	<s> K o	-0.3008232
-1.230851	<s> K r	0.7144709
-1.074583	<s> K u	-0.139928
-2.556504	<s> K w	-0.1399278
-1.594292	<s> K y	0.1323501
-0.4748008	A K </s>
-0.4748008	A K s	0.04182308
-0.1249387	C K S	-0.152841
-0.04575749	F K </s>
-0.3032629	H K </s>
-0.01703334	K K R	0
-0.07686075	O K E	-0.512372
-0.4282016	S K I	-0.4813035
-0.01772877	U K </s>
-0.3522828	c K e	-0.206787
-0.7292316	c K i	-0.1053003
-0.07686075	h K l	-0.6098177
-0.1481628	n K e	-0.596523
-0.05115252	& L </s>
-0.07686075	- L e
-0.3032629	. L .	-0.172854
-3.319878	<s> L '	0.01062278
-2.078763	<s> L .	-0.0223752
-2.539494	<s> L </s>
-2.992703	<s> L A	0.09158481
-2.132009	<s> L D	-0.3187608
-3.269567	<s> L E
-2.891677	<s> L I	-0.05357258
-3.269567	<s> L M	0.04182308
-2.452344	<s> L O	-0.4554687
-2.493737	<s> L S	-0.02451072
-3.319878	<s> L T	0.3544921
-3.319878	<s> L Y	-0.1087296
-3.269567	<s> L _	0.04182308
-0.6855258	<s> L a	0.1536393
-0.7280682	<s> L e	-0.1820995
-0.5141884	<s> L i	-0.1823456
-1.745549	<s> L l	0
-0.8643272	<s> L o	-0.6569029
-1.516013	<s> L t	0
-1.194884	<s> L u	-0.2748606
-1.777733	<s> L y	0.004263242
-0.10721	A L </s>
-0.90309	A L I	-0.3152637
-0.6209288	C L A	0.03003088
-0.6209288	C L T	-0.04915037
-0.6209288	C L U	-0.4493119
-0.3440646	D L </s>
-0.30103	E L </s>
-0.03778856	F L </s>
-0.252952	I L L	-0.5453346
-0.4282016	L L </s>
-0.04139268	N L </s>
-0.05799195	O L </s>
-1.39908	P L </s>
-0.2253093	P L C	0
-0.509306	P L O	-0.8273693
-0.252952	U L I	-0.6828041
-0.07686075	Y L E	-0.6058954
-0.07686075	a L o	-0.550232
-0.09691001	c L a	-0.6151386
-0.04139268	e L a	-1.032038
-0.3032629	& M </s>
-0.5251116	- M a	-0.4784407
-0.4282016	. M .	0.2493546
-2.336059	<s> M .	0.06069783
-3.463231	<s> M 1	-0.3364435
-2.40664	<s> M </s>
-2.682847	<s> M A	-0.3587308
-2.858938	<s> M B	0.2662824
-2.381817	<s> M C	-0.2277962
-3.463231	<s> M E	-0.1847771
-3.41292	<s> M G	0.04182308
-3.086282	<s> M I	-0.1028048
-2.733999	<s> M J	0
-3.41292	<s> M N	0.04182308
-2.294667	<s> M O	0.1411138
-3.463231	<s> M P
-3.035029	<s> M R	-0.5098748
-2.595697	<s> M S	-0.7569619
-3.41292	<s> M T	-0.7386892
-3.41292	<s> M X	0.04182308
-0.4650705	<s> M a	-0.2202821
-1.374638	<s> M c	-0.2521945
-2.637089	<s> M d	-0.1277351
-0.9460078	<s> M e	-0.03075527
-3.41292	<s> M f
-0.6016595	<s> M i	-0.02564398
-0.8398218	<s> M o	-0.1147124
-3.463231	<s> M r	0.01062278
-1.244392	<s> M u	-0.2281912
-1.896727	<s> M y	-0.2409267
-0.3273589	A M </s>
-1.00628	A M E
-0.4522977	A M R	-0.6869873
-0.04390549	B M </s>
-1.113943	B M W	-0.1701519
-0.07686075	D M V	-0.3930197
-1.168564	E M A	-0.3512553
-0.4393327	E M B	-0.2272438
-1.168564	E M R	-0.188094
-0.5642715	E M S	-0.8911073
-0.0234811	G M </s>
-0.553982	I M E
-0.553982	I M F	0.04182308
-0.006160309	K M T	-0.2601938
-0.07686075	L M E	-0.479275
-0.6042929	O M E	-0.3664066
-0.07918125	P M </s>
-0.855012	P M o	-0.6460091
-0.1249387	R M A	-0.7103984
-1.030262	R M I	-0.4134032
-0.3778907	S M C	-0.716107
-0.3679768	T M D	-0.8722675
-0.3679768	T M T	0.4569192
-0.2942909	c M a	-0.6553009
-0.07686075	l M a	-0.7264234
-0.252952	' N e
-0.4748008	- N o	-0.1738499
-0.01639042	. N .	-1.202027
-1.836056	<s> N .	0.09753083
-3.001252	<s> N </s>
-1.796185	<s> N A	-0.5880489
-1.55206	<s> N B	-0.8044955
-3.001252	<s> N C	-0.3081923
-2.510667	<s> N F	-0.5313224
-3.378201	<s> N G	-0.5650638
-3.378201	<s> N H	-0.2424075
-2.95	<s> N I	-0.3027494
-3.001252	<s> N O	-0.240927
-1.773908	<s> N P	0.00706234
-2.060698	<s> N S	-0.7420685
-1.95	<s> N T	-0.6711811
-3.32789	<s> N U
-3.32789	<s> N Y	-0.3930197
-0.5807837	<s> N a	-0.3279684
-0.3768377	<s> N e	-0.4440348
-3.378201	<s> N g	0.01062278
-1.182844	<s> N i	-0.1744969
-0.8969211	<s> N o	-0.1464013
-1.811697	<s> N u	0.06814277
-3.001252	<s> N y	-0.240927
-0.3273589	A N </s>
-0.7533277	A N C	-0.2223901
-1.357621	A N E	-0.1226292
-1.30731	A N K
-0.07918125	B N L	0
-1.92505	C N </s>
-1.648186	C N B	0.455444
-0.03194782	C N N	0.00330263
-0.1139434	D N </s>
-0.6209288	E N I	-0.6684735
-0.7294155	I N </s>
-1.00628	I N D	-0.6881924
-1.056591	I N G
-1.00628	I N S	-0.7291968
-0.07686075	M N D	-0.6951653
-0.003302636	N N </s>
-0.30103	O N </s>
-0.90309	O N A	-0.6288506
-0.7269987	O N D	-0.8653001
-1.280981	O N E
-1.280981	O N T
-0.3521825	P N </s>
-0.4034353	P N B	-0.6554185
-0.5251116	R N I	-0.5650638
-0.8897741	S N </s>
-0.07255067	S N B	-0.06845736
-0.5631362	T N </s>
-0.5118834	T N T	-0.6225871
-0.8897741	T N U	-0.5941718
-0.02177977	U N </s>
-2.040648	U N E	-0.5262716
-2.09096	U N H	-0.545589
-0.07686075	Y N C	-0.7000769
-0.06694679	a N e	-0.1426891
-0.2942909	c N a	-0.6703592
-0.07686075	s N e	0.2433359
-0.07686075	' O r	-0.701377
-1.441649	<s> O '	-0.01487739
-2.472095	<s> O .	0.0197974
-2.472095	<s> O A	-1.78748
-2.748959	<s> O C	-0.7393697
-2.371068	<s> O E	-0.3096201
-2.799269	<s> O N	-0.334222
-1.404926	<s> O P	-1.273081
-2.799269	<s> O T	-0.311627
-1.769008	<s> O a	0.01201045
-2.018885	<s> O b	-0.9478497
-1.859185	<s> O c	-0.2893634
-0.886768	<s> O f	0
-1.496007	<s> O g	-0.03970253
-1.2097	<s> O h	0.006084484
-1.672098	<s> O i	0
-1.650909	<s> O k	0
-1.004645	<s> O l	-0.1538602
-1.467978	<s> O m	-0.1399278
-1.558154	<s> O n	-0.1847734
-1.329675	<s> O p	0.1588442
-0.6853261	<s> O r	-0.1149465
-1.194977	<s> O s	-0.2174878
-1.931735	<s> O t	-0.5452062
-1.541764	<s> O u	-0.1368355
-1.404926	<s> O v	0.1171062
-1.630705	<s> O w	-0.03463774
-2.422321	<s> O z	0.01694115
-1.002233	A O </s>
-0.09691001	A O L	-0.2108534
-0.1383027	B O </s>
-0.8172234	B O E	-0.5786079
-0.1702617	C O </s>
-1.344033	C O K	0.04182308
-1.394343	C O N	-0.3211202
-0.9661418	C O R	-0.5533405
-0.6690068	D O N	-0.8331154
-0.1684044	D O T	-0.4164234
-0.3032629	F O R	-0.5997273
-1.45961	G O </s>
-0.07716595	G O P	-1.272763
-1.45961	G O R	-0.3043826
-0.7300733	H O </s>
-0.7803841	H O M	-0.511055
-0.7300733	H O U	-0.3930197
-0.39794	I O </s>
-0.951922	I O C	0.3980077
-0.6750578	I O N	-0.06880479
-0.2839966	L O </s>
-1.224082	L O A	-0.6299937
-0.8969066	L O N	-0.5963898
-0.7596679	M O E	-0.4678786
-0.2825466	M O F	0
-0.5835766	M O R	-0.3707581
-0.5251116	N O R	-0.5997273
-0.4748008	N O V	0.04182308
-0.01703334	R O C	-0.7346855
-0.553982	S O </s>
-0.6042929	S O C	-0.6274672
-0.04042866	T O </s>
-1.479354	T O N	-0.334222
-0.003826408	V O A	-1.004876
-0.06694679	& P </s>
-0.09691001	. P .	0.09732482
-2.253863	<s> P &	0
-2.520131	<s> P .	0.1271283
-3.460216	<s> P </s>
-2.855923	<s> P F	-0.2890473
-3.460216	<s> P G
-3.133041	<s> P I	-1.665516
-2.04301	<s> P L	-0.5698754
-2.634074	<s> P M	-0.2632414
-3.083267	<s> P N	-0.448534
-3.409905	<s> P P	-0.7349273
-1.660946	<s> P R	-1.753391
-3.083267	<s> P S	0.1783406
-0.4226865	<s> P a	-0.0286958
-0.7544048	<s> P e	-0.1207127
-3.460216	<s> P f	-0.3364435
-1.398546	<s> P h	-0.149477
-1.348517	<s> P i	-0.02779316
-1.592681	<s> P l	0.2283037
-3.409905	<s> P n	0.04182308
-0.9945875	<s> P o	-0.1534857
-0.9629012	<s> P r	0.001848978
-3.460216	<s> P s	-0.3364435
-1.149774	<s> P u	-0.5453311
-3.133041	<s> P y	0.0197974
-0.7403627	A P </s>
-1.118253	A P A	-0.7189863
-0.1962947	A P E	0.539912
-0.07686075	B P </s>
-1.173771	C P 4	0.04182308
-0.1674911	C P </s>
-1.173771	C P C	-0.1740891
-1.224082	C P P	-0.6235217
-0.4913617	D P </s>
-1.618533	D P I	-0.4591607
-0.2013271	D P P	-0.69897
-0.04139268	E P A	-0.3786349
-0.02632894	F P </s>
-0.09691001	G P A	0.006754983
-0.2218488	I P </s>
-0.7758307	I P P
-0.252952	J P M	-0.6828041
-0.3778907	M P </s>
-0.5136381	N P </s>
-0.8381492	N P C	-0.4259687
-0.2738777	N P R	-1.401993
-0.3192548	O P </s>
-0.3070204	O P E	0.1478016
-0.05799195	P P </s>
-1.57433	P P C	-0.5897419
-1.524019	P P L	-0.7304391
-0.3521825	R P </s>
-0.3521825	R P A	0.006754983
-0.4905855	S P </s>
-0.4393327	S P N	-0.4007303
-0.02996322	U P G	-0.4993976
-0.04575749	W P P	-0.09691001
-0.09691001	a P o	-0.6528771
-0.07686075	i P o
-0.07686075	& Q </s>
-0.4848081	<s> Q a	-0.0402908
-0.3579348	<s> Q i	0.05856423
-0.6419315	<s> Q u	-0.1089598
-0.07686075	A Q </s>
-0.07686075	H Q </s>
-0.3032629	I Q 9	-0.3364435
-0.252952	S Q U
-0.4282016	- R e	-0.2998436
-0.09691001	. R .	-0.2957012
-0.7758307	. R </s>
-1.963788	<s> R .	-0.04256554
-3.258132	<s> R </s>
-3.258132	<s> R D	-0.512372
-3.308443	<s> R E	-0.5333725
-2.102091	<s> R I	-0.9874108
-2.981268	<s> R J	-1.536849
-2.440909	<s> R M	-0.3946777
-1.601488	<s> R O	-0.4658402
-2.368358	<s> R T	-0.05146115
-1.047733	<s> R a	-0.3604062
-0.5290254	<s> R e	-0.4277628
-2.306211	<s> R h	0
-0.8923522	<s> R i	-0.02229988
-0.6892102	<s> R o	-0.3716104
-0.6795281	<s> R u	-0.1508891
-2.160083	<s> R w	0
-2.528059	<s> R y	0.008620225
-0.5371192	A R </s>
-1.267192	A R D
-1.267192	A R I	-0.7304391
-0.8893017	A R P	-0.4007303
-1.317503	A R S	-0.3307884
-0.9903283	A R T	-0.0937302
-0.2218488	C R </s>
-0.7758307	C R I	-0.65635
-0.05115252	D R </s>
-0.8109207	E R </s>
-0.8109207	E R A	-0.5576416
-1.187869	E R M	-0.03319198
-1.137559	E R R	-0.4493119
-1.137559	E R S
-1.187869	E R T	-0.08123647
-0.09691001	G R E	-0.1838814
-0.252952	H R G	-0.3930197
-1.57433	I R </s>
-0.9700368	I R A	-1.038258
-0.0854302	I R S	-0.5417641
-0.3440646	J R </s>
-0.01703334	K R </s>
-0.1918855	M R </s>
-0.544068	M R T	-0.3927614
-1.054584	O R B	-0.3930197
-1.104895	O R C	1.333231
-1.054584	O R E	-0.5590641
-1.104895	O R N	-0.4813035
-0.6766936	O R P	-0.4007303
-0.7279465	O R T	-0.617259
-0.588696	P R </s>
-0.1627273	P R C	0.01909296
-1.329059	P R I	-1.042375
-0.3032629	R R I	-0.3267966
-0.03778856	S R </s>
-0.4748008	T R E	-0.6462408
-0.4748008	T R I	-0.7304391
-0.553982	U R Y	-0.4493119
-0.3778907	V R E	-0.703055
-0.3778907	V R S	0.3822134
-0.243038	' S </s>
-1.002233	- S e	-0.2233779
-0.5740313	- S o	-0.5159519
-0.951922	- S t	-0.3688626
-0.5740313	- S y	-0.3230511
-0.001491568	. S .	-0.5047632
-2.76815	. S </s>
-2.750766	<s> S &	-0.02020204
-2.261745	<s> S .	0.5998257
-3.328913	<s> S </s>
-2.716003	<s> S A	0.1077018
-2.217163	<s> S C	-0.9138139
-2.367549	<s> S E	-0.8625818
-2.875704	<s> S H	-0.1010614
-3.605778	<s> S I
-3.227887	<s> S K	-0.1701519
-3.605778	<s> S M
-3.605778	<s> S P
-3.656088	<s> S Q	0.01062278
-3.656088	<s> S T
-0.8299467	<s> S a	-0.2334227
-1.33026	<s> S c	0.007456087
-0.9150749	<s> S e	-0.02060066
-0.7901362	<s> S h	0.0003994251
-1.338585	<s> S i	-0.1648955
-2.653855	<s> S k	-0.02779325
-1.804641	<s> S l	0.582475
-2.081759	<s> S m	0.01062278
-2.574674	<s> S n	0.3028927
-0.9241508	<s> S o	0.01395461
-1.442557	<s> S p	0.05926875
-2.338585	<s> S q	0
-3.328913	<s> S r	-0.2377669
-0.7599089	<s> S t	0.06245169
-1.236661	<s> S u	0.3612576
-3.051795	<s> S v	-0.2890473
-1.991098	<s> S w	-0.2346784
-1.747161	<s> S y	-0.1587913
-3.227887	<s> S z	0.04182315
-0.07686075	@ S W	0.04182308
-0.7871061	A S </s>
-0.3679768	A S A	-0.503817
-1.088136	A S D	0.04182315
-1.189163	A S E	-1.764647
-1.466027	A S S	-0.7402242
-1.088136	A S T	-0.170833
-1.466027	A S U	-0.6684735
-0.02227639	B S </s>
-1.39794	B S B	0.01300394
-0.4282016	C S </s>
-0.03476211	D S </s>
-0.4259687	E S </s>
-0.9799507	E S C	-0.7367781
-0.9799507	E S E	-0.6811736
-0.60206	E S P	-0.4597082
-0.4748008	H S </s>
-0.5251116	H S B	-0.5863011
-0.8261416	I S </s>
-0.7758307	I S A
-0.1481628	J S P	-0.4972449
-0.2942909	K S </s>
-0.4393327	L S I	-0.4008106
-0.4905855	L S U	0.03221259
-0.3679768	M S </s>
-0.2808266	M S N	-0.2662679
-1.319899	N S </s>
-1.319899	N S A	-0.1943651
-1.043035	N S B	-1.12972
-0.2218488	N S C	-1.162978
-1.37021	N S T
-0.06694679	P S </s>
-0.03342376	R S </s>
-1.508224	R S H
-1.508224	R S U	-0.04915037
-0.07085586	S S </s>
-1.744314	S S O	-0.6239234
-0.9270903	S S R	0
-0.5781478	T S </s>
-0.855012	T S A	-0.1943651
-0.855012	T S M	-0.512372
-0.1014876	U S </s>
-1.451161	U S A	-0.5458238
-2.658355	U S E	-0.6811736
-0.9331346	U S S	-0.4628806
-1.391163	U S T	-0.6456029
-1.979435	U S X	0.04575749
-0.3440646	W S J	-1.536849
-0.252952	Y S E	-0.6811736
-0.252952	a S y	-0.5581305
-0.1249387	o S p	-0.9173856
-0.855012	o S r	-0.6586502
-0.06694679	y S t	-0.7548876
-0.02802872	& T </s>
-0.1014576	. T .	-0.1326256
-0.8294041	. T </s>
-2.764674	<s> T .	0.1918855
-3.545058	<s> T </s>
-2.127852	<s> T C	-0.8868449
-3.545058	<s> T H	-0.4324662
-2.572789	<s> T I	-1.001884
-2.572789	<s> T M	0.1585316
-3.168109	<s> T N	-0.2643736
-3.494747	<s> T R	-0.5708642
-3.494747	<s> T S	-0.6828041
-1.591812	<s> T V	0.1050502
-3.116857	<s> T W	-0.1701519
-0.4454524	<s> T a	0.02009143
-0.9532481	<s> T e	0.1516785
-0.7250398	<s> T h	0
-1.087473	<s> T i	-0.1754527
-1.065704	<s> T o	-0.1687443
-1.115772	<s> T r	-0.07089081
-1.750434	<s> T s	-0.7152179
-1.572789	<s> T u	0.05147374
-2.357189	<s> T w	-0.1701519
-2.718917	<s> T y	-0.03167396
-2.718917	<s> T z	0.04182301
-0.5642715	A T &	0
-0.9622114	A T I	-1.073448
-0.3089989	A T O	-0.3960055
-1.566504	A T T	-0.4161261
-1.319899	C T B	-0.3930197
-0.2218488	C T I	-1.077605
-0.9420081	C T S	-0.5227916
-0.7659168	C T V	0.7551563
-0.09691001	D T </s>
-0.6789207	E T </s>
-0.6789207	E T A	-0.4470904
-0.7292316	E T o	-0.6117709
-0.6209288	F T </s>
-0.2942909	F T V	1.222544
-0.03778856	G T E	-0.3802112
-0.3778907	H T </s>
-0.3778907	H T S	-0.6828041
-1.030262	I T </s>
-0.9799507	I T A
-0.6533128	I T N	-0.5280282
-0.9799507	I T T	-0.5289945
-0.9799507	I T V	1.141181
-0.09691001	L T V	1.233299
-0.01128101	M T </s>
-1.667925	M T V	1.141181
-1.130434	N T </s>
-1.457072	N T N	-0.6881924
-1.457072	N T T	-0.5289945
-0.1371732	N T U	-0.2891311
-0.06069784	O T </s>
-1.137559	O T S	-0.6149091
-0.3424227	R T </s>
-0.9677068	R T C	-0.4764257
-0.9677068	R T G	-0.127735
-0.916454	R T Z	0.04296716
-0.4293485	S T </s>
-0.4030195	S T C	-1.064941
-1.45961	S T I	-0.3301551
-1.409299	S T O
-1.409299	S T R	-0.5708642
-0.4020566	T T </s>
-0.02996322	W T O	-0.1249387
-0.07686075	Z T </s>
-0.3032629	e T o	-0.6117709
-0.03778856	l T a	-1.073392
-0.07686075	o T i	-0.4791311
-0.3778907	- U .	0.4462293
-0.3778907	- U n	0.5937685
-0.4899753	<s> U .	-0.1692072
-2.412842	<s> U </s>
-2.175481	<s> U A	-0.1975113
-3.230066	<s> U B	0.04182308
-3.230066	<s> U C	0.04182308
-2.953202	<s> U D	-1.651106
-2.074024	<s> U K	0
-3.230066	<s> U L	-0.3930197
-1.196556	<s> U N	-0.4465052
-2.308107	<s> U P	0
-0.5820786	<s> U S	-0.5916947
-3.230066	<s> U V	0.04182308
-2.903428	<s> U d	-0.127735
-3.230066	<s> U g	0.04182308
-3.230066	<s> U i	0.04182308
-2.676084	<s> U k	-0.2890473
-2.551145	<s> U l	0.08664415
-0.5452141	<s> U n	0.1014497
-2.375054	<s> U p	-0.08085775
-1.874451	<s> U r	0.1442862
-2.022871	<s> U t	-0.6086141
-3.230066	<s> U z	0.04182308
-0.252952	D U S	-0.7301069
-0.01336396	E U </s>
-0.5251116	H U D	-0.4389573
-0.3032629	L U </s>
-0.5251116	N U </s>
-0.252952	O U S	-0.7471656
-0.09691001	S U </s>
-0.7758307	S U R	-0.6058954
-0.1879905	T U </s>
-0.526809	T U S	-1.061168
-0.1760913	. V .	-0.1341454
-0.7300733	. V a	-0.7133583
-2.743122	<s> V .	0.364748
-2.743122	<s> V A	0.4439293
-1.638226	<s> V D	-0.2798407
-2.692811	<s> V F
-2.692811	<s> V H	0.04182308
-1.837799	<s> V I	0
-0.8639016	<s> V O	0
-2.692811	<s> V R	-0.512372
-0.9083799	<s> V a	-0.01041084
-0.9438522	<s> V e	-0.1473451
-0.4145529	<s> V i	-0.3735001
-1.439859	<s> V l	0
-0.845098	<s> V o	0.009170028
-2.31492	<s> V r	-0.1701519
-0.07686075	C V </s>
-0.07686075	D V D	-0.7120072
-0.553982	E V </s>
-0.553982	E V R	-0.512372
-0.09691001	H V </s>
-0.252952	M V </s>
-0.07686075	O V A	0.3310609
-0.005640267	T V </s>
-1.966162	T V A	0.3310609
-0.07686075	U V A	0.3310609
-0.2273441	- W a	-0.5480938
-0.3032629	. W .	0.595197
-1.773451	<s> W .	0.03695174
-2.175939	<s> W </s>
-3.280834	<s> W A
-3.230523	<s> W B
-3.230523	<s> W C
-3.280834	<s> W F	0.01062278
-2.852633	<s> W G	0.04296716
-3.280834	<s> W H	0.01062278
-2.454692	<s> W P	0
-2.953659	<s> W S	-1.536849
-2.308564	<s> W T	0
-2.454692	<s> W W	-0.1277351
-0.4101527	<s> W a	0.2116378
-0.7353612	<s> W e	0.399561
-1.065526	<s> W h	0.1120681
-1.028181	<s> W i	-0.04167017
-0.893591	<s> W o	-0.6369545
-2.074481	<s> W r	0
-1.204272	<s> W u	0.1162685
-2.454692	<s> W y	0.0804987
-0.02482358	A W </s>
-0.07686075	C W A	-0.4470904
-0.3032629	I W </s>
-0.4282016	M W </s>
-0.07686075	S W I	-0.6586502
-0.4282016	T W </s>
-0.4491929	W W </s>
-0.4491929	W W I	-0.448534
-0.1139434	e W e	-1.018859
-0.940085	e W i	-0.3145147
-2.070038	<s> X </s>
-2.447929	<s> X X	0.04182308
-2.49824	<s> X e	-0.3364435
-0.059314	<s> X i	-0.2258138
-0.9731278	<s> X u	-0.07755899
-0.07686075	F X </s>
-0.07686075	M X </s>
-0.04575749	S X </s>
-0.07686075	X X </s>
-0.07686075	Z X </s>
-0.09691001	. Y .	0
-1.002233	. Y </s>
-3.006024	<s> Y L	0.04182308
-0.781487	<s> Y a	0.03331492
-0.5937055	<s> Y e	-0.4561443
-1.385095	<s> Y i	-0.01189327
-0.4720387	<s> Y o	-0.2639383
-0.7077491	<s> Y u	-0.2636872
-3.006024	<s> Y v	0.04182308
-0.3778907	L Y N	0.04182308
-0.252952	N Y S	-0.3930197
-0.3032629	R Y </s>
-1.813655	<s> Z </s>
-1.199696	<s> Z a	-0.06480438
-0.7467083	<s> Z e	-0.2334788
-0.2936814	<s> Z h	0
-1.144648	<s> Z i	0.08165995
-0.9617177	<s> Z o	0.1963875
-2.543728	<s> Z s	0.04182308
-1.369958	<s> Z u	-0.05769772
-0.07686075	A Z T	0.04182308
-0.07686075	E Z </s>
-0.09691001	T Z </s>
-0.07686075	o Z X	0.04182308
-0.07686075	<s> ] </s>
-0.07686075	L _ A	0.04182308
-1.975361	<s> ` </s>
-0.009340026	<s> ` `	0
-0.003135714	` ` </s>
-0.8893017	' a b	-0.6482009
-1.267192	' a i	-0.6709219
-0.2360892	' a n	-1.009843
-0.9405546	' a o	-0.2051483
-1.267192	' a t	-0.7267546
-1.781102	<s> a .	-1.109916
-0.8587071	<s> a </s>
-1.047978	<s> a b	-2.093438
-1.868253	<s> a c	-1.113984
-2.521465	<s> a d	-0.3724732
-1.324184	<s> a f	-1.690704
-1.801306	<s> a g	-0.641537
-2.169282	<s> a i	-0.6002262
-0.7068845	<s> a l	-2.066653
-1.868253	<s> a m	-0.6568679
-0.429798	<s> a n	-1.92363
-2.345374	<s> a p	-0.4504294
-1.761797	<s> a r	-0.864412
-1.424555	<s> a s	-1.471846
-1.646404	<s> a t	-1.439391
-2.345374	<s> a w	-1.030761
-0.03778856	A a r	-1.061025
-2.886084	B a '	-0.5595605
-1.748525	B a </s>
-2.508193	B a a	-0.2068767
-2.508193	B a b
-1.788034	B a c	-0.3675475
-2.110253	B a d	-0.4174471
-0.9284093	B a g	-1.732206
-2.06886	B a h	-1.386494
-1.964125	B a i	-0.2809135
-1.36989	B a k	-0.9891448
-1.223762	B a l	-1.003391
-0.5281895	B a n	-1.251474
-2.508193	B a o
-2.886084	B a q
-0.5385441	B a r	-1.04348
-1.346825	B a s	-1.140004
-1.45704	B a t	-0.3845228
-1.99631	B a u	-0.5258396
-2.886084	B a v	-0.7141833
-2.207163	B a w	-0.850858
-1.69528	B a y	-0.5764986
-2.852675	C a </s>
-1.579375	C a b	-1.1923
-2.026533	C a d	-0.5592282
-2.072291	C a f	-0.8069134
-1.194024	C a i	-1.144354
-0.7255033	C a l	-0.8446618
-1.128906	C a m	-1.050743
-0.785984	C a n	-1.571745
-2.5255	C a o	-1.337118
-1.067492	C a p	-1.702888
-0.7022508	C a r	-0.6752425
-1.044262	C a s	-0.8533382
-1.181435	C a t	-1.134585
-2.802364	C a u
-1.985141	C a v	-0.8030059
-2.852675	C a w
-1.513638	D a d	-1.008625
-1.889302	D a e	-0.6417766
-0.9862117	D a i	-1.001531
-2.241585	D a k	-0.6533476
-0.905901	D a l	-1.111869
-1.6163	D a m	-0.3051331
-0.8629727	D a n	-0.9677961
-1.889302	D a o	-0.2851612
-1.129634	D a r	-0.4832519
-2.291358	D a s	-1.75024
-1.678448	D a t	-0.620814
-2.241585	D a u	-0.4165649
-0.4402092	D a v	-1.851398
-2.291358	D a w	-0.3702855
-1.30103	D a y	-0.3438225
-0.9787163	E a g	-1.334586
-0.8932861	E a r	-1.024335
-0.1256003	E a s	-2.259715
-2.116275	E a u	-0.7451321
-1.78533	F a b	-0.3470515
-1.08636	F a c	-1.664614
-1.433147	F a h	-0.5068205
-0.7853298	F a i	-1.565333
-1.065171	F a l	-0.8647957
-1.108636	F a m	-1.065064
-0.9102685	F a n	-0.6298095
-0.6165378	F a r	-0.8407655
-1.78533	F a s	-0.5601392
-1.08636	F a t	-0.9835309
-2.163221	F a u
-2.163221	F a v	-0.739287
-1.886356	F a y	-1.789413
-1.836583	F a z	-0.5677486
-2.403197	G a .	-0.4108782
-2.403197	G a </s>
-1.724276	G a b	-0.5088733
-2.025306	G a d	-0.360952
-1.513422	G a i	-0.7554665
-1.047582	G a l	-0.7752503
-1.229426	G a m	-1.319849
-1.164968	G a n	-0.2534626
-0.964608	G a o	-0.9001188
-0.6496422	G a r	-0.9211267
-1.724276	G a s	-0.8375333
-1.423246	G a t	-0.9349079
-2.076559	G a u	-0.3719281
-2.025306	G a v	-0.6536648
-2.403197	G a y
-0.5339442	G a z	-1.748551
