
\data\
ngram 1=127
ngram 2=2124
ngram 3=7847
ngram 4=21542
ngram 5=35167
ngram 6=41360

\1-grams:
-4.013244	!	-2.569642
-3.091719	"	-3.486866
-5.90441	#	-0.05487237
-4.080501	$	-2.50814
-3.560018	%	-2.81759
-5.039108	&	-1.261857
-2.32106	'	-3.900955
-3.532112	(	-3.056521
-3.524802	)	-3.063825
-4.28116	*	-1.028079
-5.381531	+	-1.097209
-2.022265	,	-4.560866
-2.643941	-	-1.955453
-1.961823	.	-2.840432
-4.078335	/	-1.92926
-4.240081	0	-1.544781
-4.348107	1	-1.168888
-4.475735	2	-1.903942
-4.614375	3	-1.196828
-4.657255	4	-1.282805
-4.552227	5	-1.319971
-4.695789	6	-1.569472
-4.578757	7	-1.583415
-4.753142	8	-0.6705676
-4.733171	9	-0.7405187
-3.489436	:	-2.167268
-3.732683	;	-2.850198
-5.30235	<	-0.7335185
-0.7098362	</s>
-99	<s>	-4.497174
-4.856486	=	-1.70591
-5.267588	>	-1.337125
-3.19008	?	-3.278786
-4.718773	@	-1.797118
-2.915331	A	-1.929668
-3.240866	B	-3.132368
-3.548065	C	-1.840119
-3.521193	D	-1.745813
-3.546793	E	-1.917184
-3.571971	F	-1.95841
-3.715013	G	-1.781037
-3.249432	H	-2.479014
-2.564925	I	-3.060712
-4.191199	J	-2.14765
-4.561987	K	-1.689057
-3.759835	L	-1.745753
-3.140982	M	-2.065062
-3.498438	N	-2.116754
-3.498722	O	-1.544104
-3.32903	P	-1.773522
-4.926686	Q	-0.9860892
-3.563305	R	-2.858802
-3.149043	S	-1.55488
-2.684433	T	-2.404769
-3.658486	U	-2.45254
-4.043075	V	-2.316975
-3.07254	W	-3.267402
-5.320833	X	-1.253191
-3.593009	Y	-2.787899
-5.019803	Z	-0.7327304
-4.876381	[	-1.712591
-5.682561	\	-1.04137
-4.863017	]	-1.698438
-5.682561	^	-1.000715
-4.561987	_	-1.08035
-2.957303	`	-3.629437
-1.219808	a	-2.957885
-1.973478	b	-3.283076
-1.63422	c	-3.836867
-1.540078	d	-3.585534
-1.023725	e	-3.749518
-1.782352	f	-2.828619
-1.794775	g	-3.588285
-1.411901	h	-4.119923
-1.258026	i	-3.851467
-2.968567	j	-3.334232
-2.233484	k	-3.260972
-1.511572	l	-3.748808
-1.743406	m	-2.74497
-1.260043	n	-3.807593
-1.224853	o	-3.880382
-1.786002	p	-2.546641
-3.207908	q	-3.286995
-1.337733	r	-3.839504
-1.294117	s	-3.921024
-1.13934	t	-3.296228
-1.673072	u	-3.694916
-2.077579	v	-4.264609
-1.865869	w	-2.830365
-2.850947	x	-3.290357
-1.859061	y	-3.568675
-3.241337	z	-3.019481
-4.911709	{	-1.5369
-4.90441	}	-1.691094
-4.850052	~	-1.744296
-5.90441	Ä	-0.845097
-5.20544	É	-1.491359
-6.080501	Ü	-0.6989697
-6.682561	à	-0.3010299
-6.682561	â	-0.2067946
-6.381531	ä	-0.382792
-5.983591	å	-0.7781489
-5.983591	è	-0.6824145
-6.20544	ê	-0.5071684
-6.381531	ë	-0.3828858
-6.080501	í	-0.6047346
-5.983591	ñ	-0.7781507
-5.983591	ó	-0.7990909
-6.381531	ô	-0.3741439
-6.682561	ö	-0.2067946
-6.682561	õ	-0.3008992
-5.983591	†	-0.682225
-6.682561	°	-0.2067946
-6.682561	≤	-0.2962619
-6.20544	∂	-0.6020541
-5.779471	∑	-0.8600071
-6.682561	∏	-0.3010294
-5.20544	ª	-1.397126
-5.983591	º	-0.7781507
-5.779471	¬	-0.9542418
-5.641168	√	-1.141513
-6.682561	À	-0.3010298
-6.682561	Ÿ	-0.3010297
-5.50647	‚	-0.9751806
-5.151082	„	-1.544065
-6.682561	‰	-0.3010299
-5.983591	Ô	-0.7990909

\2-grams:
-0.7894323	! !	0.2667853
-2.369216	! *	-0.4001454
-2.068186	! .	1.232262
-0.09505801	! </s>
-1.716003	! ?	1.341227
-0.0002228294	" </s>
-3.590953	" m
-0.5367069	# </s>
-0.03847831	$ </s>
-1.399024	$ >	-0.1001152
-1.399024	$ B	-1.224439
-2.603144	$ W
-3.122871	% 9
-2.168628	% </s>
-3.122871	% B
-3.122871	% E
-1.330479	% a	-1.789642
-1.178388	% e	-1.943685
-0.9325392	% h	-3.043324
-1.352019	% m	-1.767095
-3.122871	% o
-2.520811	% p	-1.551501
-0.1474391	% u	-2.947861
-0.6532125	& </s>
-1.653213	& B
-0.69897	& D	-0.9588768
-1.653213	& I
-1.051152	& L	-0.5431125
-1.176091	& M	-0.2738281
-1.352183	& P
-1.653213	& a
-1.653213	& c
-1.352183	& e	-0.5606417
-1.176091	& o
-1.051152	& p	-0.4950141
-1.653213	& r
-1.653213	& t
-1.653213	& u
-0.939404	' '	-3.354069
-0.8386659	' </s>
-3.88438	' I	-0.2882496
-3.759441	' N	-1.544153
-3.737643	' S	-0.7674232
-4.060471	' T
-3.361501	' a	-1.207096
-4.361501	' b
-4.361501	' c
-1.949881	' d	-2.049674
-4.361501	' i
-1.562161	' l	-2.736033
-1.440335	' m	-2.848795
-3.88438	' n	-0.2356127
-4.361501	' o
-1.269834	' r	-2.962831
-0.3781005	' s	-3.718594
-0.7864289	' t	-3.449106
-1.555321	' v	-2.27968
-0.0003070304	( </s>
-0.0003019079	) </s>
-0.3407027	* *	0.1912873
-1.799341	* ,	1.994756
-2.100371	* .	0.9984744
-0.4983106	* </s>
-1.924279	* A	-0.3772005
-2.100371	* D	-0.4676073
-2.401401	* E
-2.100371	* M	-0.5121421
-2.100371	* Y
-1.924279	* \	0.4994561
-2.159956	* a	-0.400057
-2.100371	* b
-2.401401	* c
-2.100371	* d	-0.5446277
-2.401401	* j
-2.401401	* l
-1.401401	* o	-0.9519026
-1.924279	* p
-2.401401	* r
-2.159956	* s	-0.3198436
-1.924279	* t	-0.1522449
-2.100371	* u
-1.021189	+ +
-0.3679768	+ </s>
-1.322219	+ S
-1.322219	+ b
-1.021189	+ c	-0.4674335
-1.322219	+ h
-1.322219	+ i
-1.322219	+ r
-1.322219	+ u
-1.322219	+ w
-3.757216	, ,	3.358859
-4.660306	, 0
-4.660306	, 7
-0.0001234479	, </s>
-4.359276	, ^	-0.3290039
-0.8038499	- -	-2.626696
-3.561499	- 0	-0.2544407
-4.03862	- 3
-0.1591802	- </s>
-4.03862	- ?
-3.561499	- A
-3.797176	- B	-0.3917268
-3.561499	- C	-0.2171424
-4.03862	- D
-3.73759	- E	-0.5631487
-4.03862	- F
-4.03862	- G
-4.03862	- H
-4.03862	- K
-3.43656	- L	-1.549526
-3.43656	- M	-0.2762299
-3.414762	- P	-0.2281167
-2.997227	- R	-0.7370499
-3.43656	- S	-0.319719
-4.03862	- W
-2.33965	- a	-0.6833181
-2.759866	- b	-0.4685602
-2.084378	- c	-0.7776947
-2.33105	- d	-1.202733
-2.114341	- e	-1.13084
-2.64068	- f	-0.6840875
-2.576222	- g	-0.6041152
-1.208673	- h	-2.377371
-2.482318	- i	-0.5314507
-3.13553	- j	-0.941214
-2.716401	- l	-0.5944481
-2.458837	- m	-1.055181
-2.658409	- n	-1.041971
-1.918046	- o	-1.096598
-2.23244	- p	-0.795304
-3.43656	- q	0.491829
-2.507141	- r	-0.7318183
-2.009236	- s	-0.9263157
-2.43656	- t	-0.7050432
-3.084378	- u	-0.6433511
-2.808171	- v	-1.143362
-2.696198	- w	-0.7473281
-3.73759	- x
-4.03862	- y
-4.03862	- √
-3.720738	. !	0.8458376
-4.720738	. -
-1.702454	. .	-0.3679405
-4.096879	. 0	0.0257418
-3.516618	. 1	-0.3066272
-4.243617	. 2
-4.479294	. 3	-0.2697126
-4.243617	. 4	-0.2546007
-4.479294	. 5	-0.07680915
-4.096879	. 6	-0.1901242
-4.118678	. 7	-0.182042
-3.87564	. 8	-0.149339
-3.766495	. 9	-0.334657
-0.01200273	. </s>
-4.720738	. =
-4.720738	. >
-4.118678	. ?	0.449653
-3.720738	. @	-0.2972082
-4.720738	. C
-4.096879	. D	-0.7999521
-4.419708	. J
-4.720738	. N
-4.720738	. O
-4.243617	. R	-0.5409454
-3.817648	. S	-0.9529693
-3.378315	. a	-0.8646789
-4.419708	. b
-2.50855	. c	-1.965965
-4.243617	. d	-0.5205469
-3.606795	. e	-0.8128981
-4.419708	. f	-0.5415412
-4.118678	. g	-0.1599937
-3.606795	. h	-1.104334
-4.118678	. i	-0.04802965
-4.720738	. k
-3.766495	. m	-0.7650452
-3.766495	. n	-0.3670273
-4.720738	. o
-3.87564	. p	-0.3924385
-4.720738	. q
-3.465466	. s	-0.4788361
-4.720738	. t
-4.720738	. v
-4.118678	. w	-0.388523
-0.8048855	/ /	-0.9102372
-2.303196	/ 0
-1.980368	/ 1
-1.701136	/ 2	-0.1720824
-2.303196	/ 4	-0.5319377
-2.604226	/ 5
-2.604226	/ 6
-0.3186688	/ </s>
-2.303196	/ >	0.5643163
-2.127105	/ A	-0.5385087
-2.303196	/ B	-0.5585718
-2.604226	/ L
-2.604226	/ S
-1.759128	/ a	-0.3253688
-2.002166	/ b	-0.5106204
-1.525045	/ c	-0.5004829
-2.303196	/ d
-2.604226	/ e
-2.303196	/ f	-0.5215943
-2.604226	/ g
-2.127105	/ h
-2.127105	/ i
-2.604226	/ j
-1.282007	/ m	-0.7871584
-2.303196	/ n	-0.5355071
-2.303196	/ o
-1.759128	/ p	-0.5898203
-1.649984	/ r	-0.9112774
-1.649984	/ s	-0.5154601
-2.604226	/ u
-2.303196	/ v	-0.4789308
-1.141828	/ w	-0.9821432
-2.44248	0 &
-2.44248	0 -
-1.363299	0 .	1.710046
-0.4786919	0 0	-0.188193
-1.12026	0 1	-0.2951627
-1.818622	0 2	-0.06984516
-1.818622	0 3	-0.06630625
-1.84042	0 4
-1.163726	0 5	-0.2469521
-1.296352	0 6	-0.1293537
-1.328536	0 7	-0.441591
-1.488237	0 8	-0.0702092
-2.14145	0 9
-1.84042	0 :	-0.331744
-0.6643285	0 </s>
-2.201035	0 @	0.05637352
-1.84042	0 _	-0.1826051
-2.14145	0 s	-0.301211
-1.965358	0 z	-0.5312716
-1.732394	1 &	-0.1769241
-2.334454	1 ,
-1.710595	1 -	0.2706596
-1.158363	1 .	1.313855
-2.334454	1 /
-0.9920311	1 0	0.05458095
-1.104005	1 1	-0.04660552
-0.9920311	1 2	-0.4729477
-1.334454	1 3	-0.1830346
-1.293061	1 4	-0.02164495
-1.293061	1 5	-0.07898229
-1.293061	1 6	-0.08350385
-2.093009	1 7	-0.109156
-2.093009	1 8	-0.02387307
-1.104005	1 9	-0.08298253
-2.033424	1 :
-0.7216699	1 </s>
-2.334454	1 ?
-1.732394	1 @	-1.303822
-2.334454	1 N
-1.710595	1 _	-0.1153521
-2.334454	1 h
-2.334454	1 j
-2.334454	1 s
-1.905796	2 &
-1.905796	2 -	-0.05296035
-0.7754621	2 .	1.111692
-2.206826	2 /
-0.6270423	2 0	-0.8120603
-1.303736	2 1	-0.1222858
-1.165433	2 2	0.01070699
-1.582968	2 3	-0.1420782
-1.206826	2 4	-0.3498122
-1.729705	2 5
-1.206826	2 6	-0.1581673
-1.582968	2 7
-1.729705	2 8	-0.2783396
-1.729705	2 9
-2.206826	2 :
-0.7754621	2 </s>
-2.206826	2 @
-2.206826	2 R
-1.729705	2 _	-0.2544664
-2.068186	3 &
-2.068186	3 -
-1.165096	3 .	1.009524
-2.068186	3 /
-0.9542425	3 0	-0.5739976
-1.466126	3 1	-0.1500162
-1.591065	3 2
-1.165096	3 3	-0.2378507
-1.444328	3 4	-0.1065316
-1.591065	3 5
-1.767156	3 6
-1.826742	3 7	-0.1429344
-1.466126	3 8	-0.1480629
-1.165096	3 9	-0.1223395
-1.767156	3 :
-0.4771213	3 </s>
-2.068186	3 @
-1.767156	3 D	-0.5248942
-2.068186	3 _
-1.767156	3 b	-0.5220374
-2.068186	3 n
-1.767156	3 r	-0.557743
-2.025306	4 &
-2.025306	4 -
-0.9839132	4 .	1.352243
-2.025306	4 /
-1.025306	4 0	-0.0177992
-1.423246	4 1	-0.2408139
-1.025306	4 2	-0.2572062
-1.180208	4 3	-0.07057295
-1.548185	4 4
-1.122216	4 5	-0.4092938
-1.783862	4 6	-0.2478832
-1.180208	4 7	-0.05822643
-1.122216	4 8	-0.2695032
-1.548185	4 9	-0.5063604
-0.7030866	4 </s>
-2.025306	4 @
-1.724276	4 _
-1.724276	4 u	-0.5560548
-1.829304	5 &
-2.130334	5 ,
-2.130334	5 -
-1.176091	5 .	1.343925
-1.506475	5 0	-0.1363775
-1.088941	5 1	-0.2890148
-1.285236	5 2	-0.02161123
-0.7879111	5 3	-0.6554999
-1.528274	5 4	-0.1536336
-1.01639	5 5	-0.1825244
-1.528274	5 6
-1.888889	5 7
-1.829304	5 8
-1.285236	5 9	-0.2024877
-1.528274	5 :	-0.1958322
-0.7879111	5 </s>
-1.088941	5 @	-0.8313968
-1.528274	5 _	-0.1624541
-1.986772	6 -
-1.141674	6 .	1.303906
-1.362913	6 /	-0.7925214
-1.362913	6 0
-1.083682	6 1	-0.2684166
-0.9453791	6 2	-0.1408553
-1.50965	6 3
-1.685742	6 4
-1.083682	6 5	-0.2520911
-1.384712	6 6	-0.2087808
-1.685742	6 7
-1.141674	6 8	-0.1735559
-1.685742	6 9
-0.6065605	6 </s>
-1.986772	6 @
-1.384712	6 _	-0.1730043
-1.986772	6 e
-1.986772	6 f
-1.986772	6 t
-2.103804	7 &
-1.626683	7 -	-0.2885613
-1.024622	7 .	1.313373
-1.501744	7 /	-0.3223961
-0.9277124	7 0	-0.3013695
-1.479945	7 1	-0.1183086
-1.501744	7 2	-0.1169471
-2.103804	7 3
-1.479945	7 4	-0.6051583
-1.501744	7 5	-0.1194129
-1.479945	7 6	-0.02611736
-0.6566457	7 7	-1.348704
-1.501744	7 8
-0.5986537	7 </s>
-1.626683	7 _
-2.103804	7 t
-1.929419	8 -
-1.026329	8 .	-0.08722105
-1.305561	8 0	-0.1352213
-1.628389	8 1
-1.327359	8 2
-1.628389	8 3
-1.687975	8 4	-0.02489614
-1.026329	8 5	-0.1266876
-1.687975	8 6	-0.08340135
-1.452298	8 7	-0.2455746
-0.9751764	8 8	-0.1831403
-1.305561	8 9	-0.6064405
-1.929419	8 :
-0.69897	8 </s>
-1.628389	8 @
-1.687975	8 _	-0.08656897
-1.94939	9 -
-0.9079973	9 .	1.306341
-1.707946	9 0	0.05688931
-1.104292	9 1	-0.1034093
-1.325532	9 2	-0.5730195
-1.472269	9 3
-1.472269	9 4
-1.707946	9 5	-0.09765928
-1.64836	9 6
-1.0463	9 7	-0.2605931
-1.104292	9 8	-0.09233107
-1.34733	9 9
-1.64836	9 :
-0.9951475	9 </s>
-1.34733	9 @	-1.303822
-1.94939	9 A
-1.64836	9 _
-1.64836	9 b
-1.94939	9 d
-1.94939	9 f
-1.94939	9 i
-1.64836	9 l	-0.528312
-1.94939	9 t
-2.95168	: -	-0.9233724
-1.393784	: /	-1.732154
-2.95168	: 0	-0.1876201
-2.716003	: 1	-0.2659806
-2.892095	: 2
-2.716003	: 4	-0.2719748
-2.892095	: 5	-0.4887621
-0.02521679	: </s>
-2.892095	: O	-0.5408424
-3.193125	: „
-2.950365	; .
-0.0009748477	; </s>
-0.1760913	< $	-1.212765
-1.380211	< E
-1.380211	< M
-1.138767	< h	-0.9879824
-3.396384	<s> !	-0.7049637
-2.381994	<s> "	-0.3009186
-5.73128	<s> #	-0.8484838
-3.426182	<s> $	-1.474877
-2.851165	<s> %	-0.6514269
-4.826597	<s> &	-0.5926737
-1.754426	<s> '	-2.7465
-2.822275	<s> (	0
-2.814966	<s> )	0
-4.086234	<s> *	-1.240965
-4.742276	<s> +	0.0647708
-1.312581	<s> ,	-0.6525886
-2.111071	<s> -	-3.100831
-1.286071	<s> .	-2.556973
-3.689424	<s> /	-2.001477
-4.319512	<s> 0	-0.4498326
-4.097663	<s> 1	-0.1825464
-4.282529	<s> 2	-0.05920397
-4.495604	<s> 3	-0.105837
-4.510327	<s> 4	-0.1023275
-4.541361	<s> 5	-0.02991082
-4.630302	<s> 6	-0.04225596
-4.416422	<s> 7	-0.1861213
-4.768605	<s> 8	-0.09497584
-4.826597	<s> 9	-0.144289
-2.808372	<s> :	-1.701995
-3.022847	<s> ;	-0.3005428
-4.610997	<s> <	-0.5728171
-5.127627	<s> =	-0.3665959
-5.671695	<s> >
-2.485728	<s> ?	-0.720655
-5.069635	<s> @	-0.9147339
-2.226948	<s> A	-0.9694765
-2.559425	<s> B	-0.8714566
-2.882114	<s> C	-0.5305881
-2.930543	<s> D	-1.155426
-2.954857	<s> E	-0.9979628
-2.885653	<s> F	-0.7839223
-3.031213	<s> G	-0.8592973
-2.550299	<s> H	-0.8676418
-1.864025	<s> I	-1.159371
-3.499968	<s> J	-0.4858009
-4.075098	<s> K	-0.402386
-3.112387	<s> L	-0.8910887
-2.448718	<s> M	-0.2987551
-2.855122	<s> N	-0.998765
-2.872699	<s> O	-1.112213
-2.649885	<s> P	-0.6748531
-4.309967	<s> Q	-0.5258355
-2.956109	<s> R	-1.203283
-2.484738	<s> S	-0.645971
-1.985953	<s> T	-1.025367
-2.981942	<s> U	-0.7672471
-3.667373	<s> V	-1.00955
-2.365699	<s> W	-0.5150911
-4.826597	<s> X	-0.08749556
-2.896813	<s> Y	-0.3784724
-4.510327	<s> Z	-0.09276626
-4.166545	<s> [	-0.1693579
-5.127627	<s> \	0.1277404
-4.173384	<s> ]	-0.2811352
-5.348866	<s> ^	-0.2503793
-5.348866	<s> _	0.008944712
-2.544914	<s> `	-0.003475017
-1.023891	<s> a	-1.857015
-1.443102	<s> b	-2.664749
-1.40504	<s> c	-3.307534
-1.624459	<s> d	-2.65363
-1.702465	<s> e	-1.802725
-1.509728	<s> f	-2.982602
-1.82728	<s> g	-3.59679
-1.45964	<s> h	-2.966864
-1.248564	<s> i	-2.908997
-2.44755	<s> j	-0.5748471
-2.292389	<s> k	-2.70995
-1.733901	<s> l	-3.458008
-1.571807	<s> m	-3.369885
-1.698221	<s> n	-3.513547
-1.257993	<s> o	-3.494581
-1.480286	<s> p	-3.515413
-2.839825	<s> q	-1.023946
-1.640751	<s> r	-3.297203
-1.275748	<s> s	-3.316741
-0.8893583	<s> t	-2.847056
-1.997201	<s> u	-3.184416
-2.232915	<s> v	-0.09621452
-1.319136	<s> w	-3.647954
-4.768605	<s> x	-0.690457
-2.019449	<s> y	-3.930741
-3.739729	<s> z	-0.5887725
-4.201873	<s> {	-0.00802045
-4.240331	<s> }	0.04496714
-4.972725	<s> ~	-0.3486716
-5.069635	<s> ¬	0
-5.495604	<s> √	-0.07942013
-5.972725	<s> Ÿ
-4.826597	<s> ‚	-0.1554991
-4.454211	<s> „	-0.0392615
-5.495604	<s> Ô	0.2571547
-0.8325089	= 1	-0.2091721
-1.531479	= 4
-1.832509	= 5
-1.832509	= 6
-1.531479	= 8
-1.531479	= 9	-0.5251125
-0.9874108	= </s>
-0.2414443	= =	-2.050524
-1.832509	= c
-1.832509	= m
-1.832509	= p
-0.03342376	> </s>
-1.431364	> >
-3.015499	? !	-0.2117207
-3.191591	? .	-0.5573143
-3.191591	? 1	-0.5193654
-3.492621	? 2
-0.004352107	? </s>
-2.538378	? ?	1.341227
-3.492621	? @
-3.191591	? I
-3.191591	? S	-0.549035
-3.492621	? i
-3.492621	? s
-3.191591	? t	-0.5183852
-3.015499	? }	1.243393
-3.492621	? √
-1.486667	@ .	-0.2886661
-1.963788	@ 1
-1.963788	@ 2
-1.963788	@ 9
-1.060698	@ </s>
-1.662758	@ @
-1.963788	@ H
-1.662758	@ a	-0.5659426
-1.361728	@ c	-1.551552
-0.9223952	@ g	-1.078557
-0.3617278	@ h	-1.580541
-1.963788	@ l
-1.33993	@ m	-0.4594693
-1.963788	@ s
-1.009545	@ y	-0.9989685
-1.662758	@ z	-0.5657029
-3.16517	A '	-1.316009
-3.4662	A .
-3.76723	A 2
-2.76723	A :	0.2072492
-0.8327317	A </s>
-3.4662	A A
-2.86414	A B	-0.2874297
-2.688049	A C	-0.2571816
-2.688049	A D	-0.480399
-3.76723	A F
-3.290109	A G	-0.2878637
-3.76723	A H
-1.947686	A I	-1.35968
-3.143372	A K	-0.618794
-2.235751	A L	-0.7884581
-2.725837	A M	-0.3577664
-2.154446	A N	-0.7886937
-2.424807	A P	-0.8663701
-3.76723	A Q
-2.114017	A R	-0.6920618
-2.725837	A S	-0.2780993
-2.26208	A T	-1.06804
-3.4662	A V	-0.2872638
-3.143372	A W	-0.2406885
-3.16517	A X	-1.347486
-3.16517	A Y	-0.1859443
-2.653287	A Z	-0.914734
-3.4662	A a	-0.5659426
-2.104472	A b	-0.7869419
-1.260725	A c	-1.973683
-1.853416	A d	-0.740106
-3.4662	A e	-0.5091317
-1.294474	A f	-2.207131
-2.176166	A g	-1.012317
-2.114017	A h	-1.608971
-2.511958	A i	-0.8068864
-1.036448	A l	-1.445545
-1.56311	A m	-0.9318023
-0.5007632	A n	-2.004343
-2.123777	A p	-1.088908
-3.76723	A q
-1.618011	A r	-1.398001
-1.06826	A s	-1.628233
-1.091452	A t	-2.072274
-2.133762	A u	-0.8783399
-2.275868	A v	-0.06418636
-3.525786	A w	-0.106638
-3.76723	A y
-3.76723	A z
-3.441695	B '
-2.362514	B -	-0.07577264
-3.441695	B 0
-2.487453	B :	0.4496553
-1.670843	B </s>
-2.237575	B A	-0.3557904
-1.769597	B B	-1.673476
-2.441695	B C	-0.5940189
-2.817837	B E	-0.2372843
-3.140665	B I	-0.5656198
-2.964574	B L	-0.2834605
-2.327752	B O	-0.5838327
-2.964574	B R	-0.2800143
-1.751499	B S	-1.617565
-2.964574	B T	-0.5418057
-2.964574	B U	-0.5390509
-1.408271	B a	-0.6563968
-0.8782141	B e	-1.07469
-3.441695	B f
-1.788483	B i	-0.6297179
-3.441695	B j
-1.861912	B l	-1.586518
-1.31459	B o	-0.7206945
-1.635515	B r	-2.432482
-0.2324483	B u	-2.055915
-1.257004	B y	-1.324311
-3.134496	C $
-3.134496	C %
-2.893052	C .	-0.1913762
-1.342104	C </s>
-2.134496	C A	-0.3958805
-3.134496	C B
-2.289398	C C	-0.3821301
-1.259435	C D	-1.825296
-1.418493	C E	-0.8313022
-1.855742	C F	-1.33507
-2.289398	C H	-0.543349
-1.958405	C I	-0.8843345
-2.833466	C J	-0.5618078
-2.510638	C K
-2.657375	C L
-2.180253	C N	-0.9971484
-1.615982	C O	-0.5836733
-2.093103	C P	-0.6250209
-2.093103	C R	-0.2692688
-3.134496	C S
-2.134496	C T	-0.4478175
-2.532436	C U	-0.326439
-3.134496	C V
-3.134496	C Y
-1.030692	C a	-0.7520247
-1.687338	C e	-0.9339003
-0.8185255	C h	-1.458477
-1.792073	C i	-0.8666437
-1.378621	C l	-1.560438
-3.134496	C n
-0.498008	C o	-1.377668
-1.590428	C r	-0.9565302
-1.879223	C s	-1.013947
-1.210217	C u	-1.205737
-2.532436	C y	-0.5621071
-2.684247	D '
-3.161368	D -
-2.258278	D .	1.091052
-1.044097	D </s>
-2.919924	D =	-0.05170216
-2.258278	D A	-0.3183044
-3.161368	D C
-2.53751	D D	-0.2378814
-1.930919	D E	-0.418894
-3.161368	D G
-3.161368	D H
-1.985277	D I	-0.1235245
-2.53751	D J	-0.2381878
-3.161368	D L
-3.161368	D M
-1.818945	D N	-1.554773
-2.31627	D O	-0.3488741
-1.71421	D P	-1.43268
-2.919924	D R	-0.5143766
-1.328859	D S	-1.797577
-1.818945	D T	-1.354249
-3.161368	D U
-1.957248	D V	-1.21425
-2.559308	D Y	-1.540882
-1.41318	D a	-0.4603438
-0.768671	D e	-1.435839
-0.8433047	D i	-1.339512
-0.6930207	D o	-1.288175
-1.19758	D r	-1.099589
-1.5279	D s	-1.378646
-1.044097	D u	-1.162948
-3.161368	D √
-2.658647	E -
-1.249278	E </s>
-1.931648	E A	-0.4613704
-3.135768	E B
-2.232678	E C	-0.08248945
-1.544704	E D	-0.9026441
-2.533709	E E	-0.3070508
-2.533709	E F	-0.1959943
-2.658647	E G	-0.2877435
-3.135768	E H
-2.533709	E I	-0.3319977
-2.658647	E L
-2.232678	E M	-0.2519143
-1.90532	E N	-0.5187013
-1.567567	E O	-1.758531
-2.232678	E P	-0.6051608
-3.135768	E Q
-1.350439	E R	-0.682083
-1.5917	E S	-0.9304677
-2.232678	E T	-0.4280035
-2.533709	E U	-0.3293439
-2.834738	E V
-2.29067	E W	-0.6239871
-2.658647	E X	-0.2508919
-2.658647	E Y	-0.5312127
-2.834738	E _	-0.5593868
-1.20635	E a	-1.668544
-2.51191	E b	-0.746765
-1.644407	E c	-1.637066
-2.021825	E d	-0.234353
-2.834738	E e	-0.5556378
-2.834738	E f	-0.5378426
-3.135768	E g
-1.880496	E h	-1.224966
-2.094376	E i	-0.9847481
-3.135768	E j
-1.544704	E l	-0.7791081
-1.737828	E m	-0.2990849
-0.6901643	E n	-1.208968
-3.135768	E p
-2.658647	E q	1.501498
-1.720795	E r	-0.9559241
-1.579466	E s	-0.8842889
-2.51191	E t	-0.516305
-2.181526	E u	-0.9408812
-0.7011996	E v	-1.565127
-3.135768	E w
-0.9896405	E x	-1.081962
-2.658647	E y	-0.5205669
-3.11059	F %
-2.486732	F '	-0.5667576
-3.11059	F .
-1.679226	F </s>
-2.156347	F A	-0.1485009
-1.90647	F C	-1.198346
-2.11059	F E	-0.4047722
-2.486732	F F	-0.2390178
-2.2075	F I	-0.4774034
-3.11059	F M
-2.069197	F O	-0.7323253
-3.11059	F P
-1.730379	F R	-1.36167
-2.80956	F S	-0.5310858
-2.869145	F T	-0.4487876
-2.633468	F U	-0.5361459
-1.318198	F a	-0.5960415
-1.339738	F e	-0.8223014
-0.9738691	F i	-1.096153
-1.71265	F l	-0.5357477
-0.3147097	F o	-2.062922
-0.8775936	F r	-1.922806
-1.202105	F u	-1.003364
-2.967548	G .
-1.737099	G </s>
-2.490427	G A
-1.449034	G D	-1.722714
-2.726104	G E	-0.4282129
-2.967548	G G
-2.365488	G H	-0.1921594
-2.666518	G I
-2.967548	G L
-1.50515	G N	-1.505953
-1.712276	G O	-2.175708
-2.666518	G P	-0.5652471
-2.34369	G R	-0.2310296
-2.967548	G S
-2.666518	G U	-0.5642859
-2.967548	G Y
-2.967548	G _
-1.666518	G a	-0.3642918
-0.7448315	G e	-2.041174
-2.666518	G h	-0.5337747
-1.411245	G i	-1.150919
-1.737099	G l	-1.197229
-0.31627	G o	-1.464784
-1.028029	G r	-1.894317
-2.967548	G s
-1.60582	G u	-0.7528787
-3.43313	H 2
-3.43313	H 9
-2.154376	H </s>
-2.956008	H A
-2.071402	H D	-1.355088
-1.985971	H E	-0.6631827
-3.43313	H H
-1.985971	H I	-0.3645773
-2.353948	H O	-0.2311212
-3.1321	H Q	-0.5344185
-3.191685	H R	-0.1732144
-3.43313	H S
-3.43313	H T
-2.956008	H U
-2.956008	H Y	-0.2779566
-1.33622	H a	-0.9357351
-0.2037037	H e	-2.331189
-1.03519	H i	-1.654057
-3.1321	H m	-0.5549614
-0.7518883	H o	-1.756888
-2.071402	H u	-0.4308878
-2.956008	H y	-0.2868836
-4.117636	I "
-3.640515	I '
-4.117636	I -
-0.211786	I </s>
-3.003692	I A	-0.9957026
-3.640515	I B	-0.5398899
-2.913516	I C	-0.5037928
-2.266377	I D	-1.35086
-3.003692	I E	-0.5943304
-3.493778	I F	-0.5394633
-3.272538	I G	-0.3943701
-3.876192	I I	-0.1122592
-4.117636	I K
-3.038455	I L	-0.6560169
-3.003692	I M	-0.3731204
-2.670478	I N	-0.5615133
-2.971508	I O	-0.677443
-3.163393	I P	-0.3728106
-3.640515	I Q	-0.5284443
-3.272538	I R	-0.08996445
-2.862363	I S	-0.5818865
-2.640515	I T	-0.6398383
-4.117636	I U
-2.775213	I V	-1.115061
-3.640515	I Z	-0.2593911
-3.003692	I d	-0.08242741
-1.34239	I f	-2.574623
-4.117636	I g
-3.515576	I l	-0.1571023
-2.561333	I m	-1.086803
-0.7976974	I n	-1.892776
-2.913516	I r	-0.9180715
-1.82538	I s	-1.53206
-0.860918	I t	-2.862177
-3.640515	I v	-0.2870598
-2.19173	J .	0.9984744
-1.451368	J </s>
-2.19173	J A
-2.015639	J I	-0.5415058
-2.49276	J M
-2.015639	J P	-0.2883448
-1.8907	J U	-0.1937825
-1.131033	J a	-0.5112678
-1.214007	J e	-0.4585672
-1.378817	J i	-0.3217163
-0.6539113	J o	-0.906575
-2.015639	J r	-0.5385388
-0.2968607	J u	-1.232606
-2.123852	K '
-0.544068	K </s>
-1.123852	K E	-0.6065239
-2.123852	K H
-2.123852	K O
-1.822822	K S	-0.5310858
-2.123852	K U
-1.220762	K a	-0.4436333
-0.9777236	K e	-0.5316195
-1.822822	K h	-0.4767377
-0.5797836	K i	-1.343835
-1.169609	K n	-0.9763977
-1.278754	K o	-0.08948237
-2.123852	K r
-1.822822	K u
-1.309942	L </s>
-1.692276	L A	-0.7118231
-2.077627	L B	-0.9116056
-2.077627	L D	-0.1172171
-1.776597	L E	-0.4168893
-1.881333	L I	-0.2655697
-2.621696	L K
-1.692276	L L	-0.7741275
-2.922725	L M
-1.922725	L O	-0.1403684
-2.320665	L R	-1.546293
-2.681281	L S	-0.9626599
-2.922725	L T
-2.922725	L U
-2.922725	L V
-2.298867	L Y	-0.6420167
-0.9227254	L a	-0.7620769
-0.6304694	L e	-1.343616
-0.6195294	L i	-1.097721
-2.922725	L l
-0.6821762	L o	-1.268054
-2.621696	L s	-0.301211
-2.320665	L t	-1.551596
-1.843544	L u	-0.8181275
-2.621696	L y
-3.541579	M &
-3.541579	M -
-1.793391	M </s>
-2.500186	M A	-0.4180974
-2.110215	M B	-2.368968
-3.541579	M D
-2.199157	M E	-0.61612
-2.939519	M F	-1.54242
-3.541579	M G
-2.541579	M I	-0.4542058
-2.696481	M M	-0.6373191
-2.541579	M O	-0.4218329
-2.500186	M P	-0.3389036
-3.300135	M R	-0.5146992
-2.587337	M S	-0.9645962
-3.300135	M T	-0.9567857
-3.064458	M U
-3.064458	M V	-0.263183
-0.9330532	M a	-0.6882622
-3.064458	M c
-1.303533	M e	-0.6474757
-2.917721	M h	-0.800904
-0.9172971	M i	-1.582473
-3.541579	M m
-1.055858	M o	-1.463436
-0.3167873	M r	-3.366561
-1.473393	M s	-2.067337
-1.939519	M u	-0.5443069
-1.39236	M y	-1.75958
-3.184123	N %
-2.883093	N '
-2.883093	N .	0.9984744
-1.512025	N </s>
-3.184123	N =
-1.822396	N A	-0.7548346
-2.582063	N B	-1.550032
-2.281033	N C	-0.4597115
-1.953674	N D	-1.269723
-2.037995	N E	-0.3310784
-2.942679	N F	-0.9884052
-1.736965	N G	-1.129432
-2.582063	N I	-0.1962374
-2.339025	N K	-0.6622494
-2.582063	N L	-1.549418
-3.184123	N M
-2.184123	N N	-1.027824
-2.07018	N O	-0.6423239
-1.76915	N P	-1.416886
-3.184123	N R
-2.104942	N S	-0.5671284
-1.707002	N T	-0.8259107
-2.883093	N U
-2.707002	N V	-0.529844
-2.560265	N Y	-0.791631
-1.405972	N a	-0.8037682
-3.184123	N c
-0.8852703	N e	-1.662607
-1.76915	N i	-0.8723647
-3.184123	N l
-0.2059428	N o	-2.054369
-1.90537	N u	-0.6088066
-3.183839	O .
-1.314607	O </s>
-2.706718	O A	-0.472894
-2.882809	O B	-0.5646015
-2.142446	O C	-0.3426078
-2.942395	O D	-0.3536696
-2.882809	O E
-2.104658	O F	-0.6898762
-3.183839	O G
-3.183839	O I
-1.736681	O K	-1.31627
-2.142446	O L	-0.4329767
-1.581779	O M	-1.177947
-1.752475	O N	-0.6037917
-2.882809	O O
-2.559981	O P	-0.1487959
-1.736681	O R	-0.6811903
-2.280749	O S	-0.5719163
-1.803628	O T	-0.5970148
-2.007748	O U	-0.5244503
-2.706718	O V	-0.2816675
-2.280749	O W	-0.6837019
-3.183839	O X
-2.581779	O Y	-0.3311691
-1.822111	O b	-1.57188
-2.338741	O c	-0.6610082
-2.280749	O d	-0.9504723
-2.706718	O e	-0.509723
-0.8960373	O f	-2.119765
-1.320516	O h	-1.809536
-1.979719	O i	-1.207814
-1.581779	O k	-1.604223
-1.979719	O l	-0.7310469
-2.882809	O m	-0.4876678
-0.578534	O n	-2.413331
-3.183839	O o
-1.752475	O p	-1.245425
-1.364295	O r	-1.368678
-1.785899	O s	-1.150167
-1.249341	O t	-2.040226
-1.03462	O u	-1.711027
-1.303025	O v	-1.359313
-2.706718	O w	-0.2722381
-3.353532	P .
-2.751472	P 3	-1.375515
-1.4843	P </s>
-3.353532	P =
-1.938558	P A	-0.8970031
-3.052502	P C
-2.87641	P D	-0.2862777
-2.149412	P E	-0.7071734
-2.399289	P F	-0.52044
-3.052502	P G
-3.353532	P H
-2.751472	P I	0.2168171
-2.87641	P L
-2.27435	P O	-0.4834885
-2.751472	P P	-0.1935785
-2.098259	P R	-0.8542048
-2.751472	P S	-1.516674
-3.112087	P T	-0.3919703
-3.112087	P U	-0.3777799
-1.223198	P a	-0.4583114
-1.056866	P e	-1.44628
-2.031312	P h	-0.7558795
-2.031312	P i	-0.1819977
-1.590104	P l	-1.639773
-1.138688	P o	-1.274427
-3.052502	P p	-0.515554
-0.2049289	P r	-2.906957
-2.052502	P s	-1.135983
-3.353532	P t
-1.848382	P u	-0.453235
-3.353532	P y
-1.514431	Q </s>
-1.454845	Q Q	-0.5525253
-1.153815	Q U	-0.1949366
-1.278754	Q a	-0.2885577
-0.1326256	Q u	-1.277515
-2.119256	R &	-0.90309
-3.119256	R '
-2.642135	R .	1.022555
-3.119256	R 9
-1.386862	R </s>
-1.587777	R A	-0.7246542
-1.915136	R B	-0.9298693
-2.274158	R C	-0.6352674
-2.818226	R D
-1.575188	R E	-0.5636774
-3.119256	R F
-3.119256	R G
-1.704283	R I	-0.1032692
-2.818226	R K
-2.818226	R L
-1.642135	R M	-1.172833
-2.818226	R N
-1.378893	R O	-0.9495698
-3.119256	R P
-2.119256	R R	-0.9946874
-1.496007	R S	-1.588318
-1.915136	R T	-0.2716498
-2.119256	R U	-0.3219645
-3.119256	R V
-2.642135	R Y	-0.5312127
-1.355828	R a	-0.7214642
-0.3757461	R e	-1.422451
-0.6911211	R i	-1.591057
-1.517196	R o	-0.6526183
-2.495398	R s	-0.5375484
-1.704283	R u	-0.4239786
-2.931458	S $	-0.4799406
-2.90966	S &	-0.6123119
-2.533518	S .	1.227564
-3.232488	S 3
-1.111914	S </s>
-2.08636	S A	-0.744835
-3.232488	S B
-2.90966	S C	-0.2317533
-3.056397	S D	-0.2841644
-2.329398	S E	-0.4005348
-3.292073	S H	-0.2862708
-2.68842	S I	-0.1573454
-3.232488	S J	-0.5503783
-3.533518	S L
-2.533518	S M	-0.384791
-3.292073	S N	-0.3823609
-2.90966	S O	-0.2412584
-3.292073	S P	-0.1875454
-2.492125	S S	-0.3413967
-2.357427	S T	-0.567654
-2.579275	S U	-0.3942382
-3.232488	S V	-0.445364
-1.546746	S a	-0.454565
-1.920734	S c	-0.8819793
-0.8200273	S e	-1.721422
-0.8803053	S h	-1.323063
-1.261676	S i	-1.155651
-3.292073	S k	-0.1140563
-2.579275	S l	-0.5097297
-2.211298	S m	-1.457538
-2.630428	S n	-0.5685996
-0.4724425	S o	-1.790575
-1.609239	S p	-0.9359657
-1.080199	S t	-1.933789
-1.416247	S u	-1.020717
-2.931458	S w	-0.25798
-2.68842	S y	-0.39958
-2.956736	T $	-0.007515763
-3.998128	T -
-3.756684	T .	1.038747
-1.976939	T </s>
-2.918947	T A	-0.3215667
-2.998128	T C	-0.9797814
-2.396069	T E	-0.9504451
-3.998128	T F
-3.998128	T G
-2.566765	T H	-0.6418786
-2.675909	T I	-0.3286452
-3.697098	T J	-0.5503783
-3.697098	T L	-0.5586919
-3.998128	T M
-3.697098	T N
-3.095038	T O	-0.2291568
-3.521007	T P	-0.5274587
-2.697098	T R	-1.010927
-2.998128	T S	-1.006461
-3.756684	T T	-0.2868447
-3.998128	T U
-1.76768	T V	-1.928423
-3.521007	T W	-0.5402276
-3.697098	T Y	-0.5552936
-1.972823	T a	-0.9695499
-2.048738	T e	-0.9800078
-0.05172537	T h	-3.148304
-2.374879	T i	-0.6661469
-1.560378	T o	-0.9723456
-1.976939	T r	-1.303252
-3.697098	T s	-0.301211
-2.742856	T u	-0.4959531
-3.756684	T w	-0.2560343
-2.956736	T y	-1.039596
-2.178977	U .	-0.9135863
-1.745321	U </s>
-2.400217	U A	-0.5485641
-2.723045	U C
-2.723045	U D
-3.024075	U E
-2.546954	U G
-2.723045	U H	-0.562963
-2.723045	U I
-2.400217	U L	-0.3631545
-1.877947	U N	-0.5778427
-3.024075	U O
-2.546954	U P	-0.2742026
-2.178977	U R	-0.2934534
-1.723045	U S	-0.5667948
-2.178977	U T	-0.6197755
-2.120985	U V	-0.2088061
-3.024075	U g
-0.2932927	U h	-2.675971
-3.024075	U l
-1.060287	U m	-1.896112
-0.660463	U n	-1.177655
-1.361317	U p	-1.254798
-2.069833	U r	-0.5838389
-1.592711	U s	-1.622821
-2.723045	U t	-0.5183852
-2.723045	U y	-0.006667058
-2.640481	V '
-0.3245111	V </s>
-2.16336	V A	-0.2196379
-1.737391	V C	-0.8153721
-1.436361	V D	-1.213418
-1.795383	V E	-0.2888586
-1.5613	V I	-0.3021105
-2.640481	V K
-1.46439	V a	-0.646006
-1.193323	V e	-0.7176244
-0.6151755	V i	-1.271202
-1.339451	V o	-1.525133
-1.5613	V s	-0.8491369
-3.610021	W .
-2.405901	W </s>
-3.1329	W A
-3.308991	W E
-2.568628	W H	-0.874958
-3.1329	W I	-0.2882828
-3.308991	W M
-3.308991	W O	-0.5579801
-2.986163	W S	-0.3443376
-3.610021	W Y
-1.482916	W a	-1.020563
-0.3140143	W e	-1.898514
-0.4543814	W h	-2.392658
-1.079821	W i	-1.817131
-1.489447	W o	-1.096533
-2.568628	W r	-0.7027609
-3.1329	W s	-0.2771301
-3.610021	W u
-0.4259687	X -	-0.9986469
-0.4259687	X </s>
-1.380211	X D
-1.380211	X E
-1.079181	X P
-1.380211	X i
-1.612784	Y </s>
-3.089905	Y A
-2.612784	Y B	-0.5412754
-3.089905	Y D
-2.788875	Y E
-3.089905	Y M
-3.089905	Y N
-3.089905	Y O
-3.089905	Y S
-2.612784	Y a	-0.2003846
-3.089905	Y b
-0.5384551	Y e	-1.816607
-2.186815	Y i	-0.4705122
-0.178215	Y o	-2.338514
-2.487845	Y u
-1.361728	Z </s>
-1.662758	Z E
-1.185637	Z I	-0.287752
-0.3840042	Z T	-1.296426
-1.662758	Z X
-1.662758	Z a
-1.662758	Z e
-1.421314	Z h	-0.2678745
-0.6627578	Z o	-0.9275483
-1.662758	Z r
-1.662758	Z z
-1.812913	[ .
-0.02052167	[ </s>
-1.812913	[ E
-0.04139268	\ *	-0.5921369
-0.01316145	] </s>
-1.826075	] o
-0.69897	^ ,	-0.5659415
-0.3761417	^ </s>
-0.5228788	^ _	-0.5319523
-1.819544	_ 0
-1.87913	_ 1	-0.09808319
-2.120574	_ 2
-1.496716	_ 3	-0.1336668
-1.819544	_ 4
-2.120574	_ 6
-2.120574	_ 7
-2.120574	_ 8
-2.120574	_ 9
-1.496716	_ </s>
-1.120574	_ A	-1.04065
-1.275476	_ B	-0.9122364
-1.819544	_ S	-0.5310858
-1.643453	_ ^	-0.304923
-0.3571459	_ _	-1.551488
-1.166331	_ a	-0.5728523
-2.120574	_ c
-1.819544	_ f	-0.5349172
-2.120574	_ g
-1.819544	_ p	-0.5157644
-1.166331	_ s	-0.7945416
-1.819544	_ t
-2.120574	_ w
-0.2976914	` </s>
-3.72534	` T
-0.304724	` `	-3.116386
-5.221309	a '	-0.9974026
-5.462753	a +
-3.738477	a -	-0.2875848
-4.258633	a .	-0.5006983
-4.383572	a /	-0.6583952
-4.985631	a 1	-0.4952846
-5.462753	a 2
-5.462753	a 3
-5.221309	a 4	-0.8806989
-5.161723	a 9
-1.154231	a </s>
-4.985631	a @
-5.462753	a N
-4.860693	a _	-0.5282289
-3.763783	a a	-0.523565
-1.666456	a b	-1.066244
-1.374723	a c	-0.837424
-1.421281	a d	-0.02215194
-3.548939	a e	-0.7047703
-2.1235	a f	-1.096955
-1.699849	a g	-1.301169
-2.199827	a h	-1.559101
-1.426803	a i	-2.508462
-2.757745	a j	-1.846411
-1.835694	a k	-1.408687
-0.987663	a l	-0.748306
-1.659227	a m	-0.7647859
-0.735244	a n	-2.145153
-3.670361	a o	-0.8183886
-1.773888	a p	-2.235891
-3.944239	a q	1.479164
-1.016837	a r	-1.969149
-1.063425	a s	-1.722377
-0.8106709	a t	-1.021576
-1.904885	a u	-1.912014
-1.608022	a v	-0.8181886
-2.204834	a w	-1.932242
-2.700074	a x	-2.201214
-1.518517	a y	-0.9869412
-2.99886	a z	-0.511476
-5.462753	a }
-3.709092	b -	0.04433962
-3.863994	b .	-0.3116468
-4.709092	b /
-4.709092	b 5
-4.709092	b 6
-1.93824	b </s>
-4.107032	b @	-1.303822
-4.408062	b I	-0.5636593
-4.709092	b _
-1.016333	b a	-1.862346
-2.285846	b b	-0.6057781
-3.453819	b c	-0.5282293
-3.246694	b d	-1.002464
-0.5004624	b e	-2.25683
-3.709092	b f	-0.5013642
-4.709092	b g
-4.709092	b h
-1.240154	b i	-1.406874
-2.332515	b j	-2.290172
-0.9408978	b l	-3.432974
-2.717866	b m	-1.813508
-3.667699	b n	-1.267166
-0.9202873	b o	-2.213584
-3.430338	b p	-0.8254805
-1.351729	b r	-3.003449
-1.729999	b s	-1.764128
-2.277728	b t	-1.42965
-0.9383134	b u	-2.08679
-2.595148	b v	-1.244502
-3.311152	b w	-1.313167
-1.079275	b y	-1.967744
-4.048345	c -	-0.09375276
-2.797925	c .	-0.8984733
-5.048345	c /
-1.513557	c </s>
-5.048345	c C
-5.048345	c D
-5.048345	c I
-5.048345	c T
-5.048345	c U
-0.899742	c a	-1.892184
-1.674881	c c	-2.650157
-4.747314	c d	-0.5446277
-0.8297567	c e	-2.426389
-4.747314	c f	-0.5660065
-5.048345	c g
-0.9335669	c h	-0.5640781
-1.165024	c i	-1.672855
-1.37745	c k	-0.251505
-1.430715	c l	-3.282582
-5.048345	c m
-3.902217	c n	-0.4185705
-0.6923379	c o	-2.133431
-4.747314	c p	-0.5157644
-2.889982	c q	-0.1179329
-1.407764	c r	-3.286484
-2.265872	c s	-2.179569
-0.9688379	c t	-2.977863
-1.395518	c u	-2.22224
-1.93008	c y	-1.828862
-4.203247	c z	-0.3282173
-5.142487	d '
-3.762275	d -	-0.1931564
-4.540426	d .	-0.1966104
-5.142487	d /
-5.142487	d 1
-4.841456	d 2	-0.4862964
-4.665365	d 4	-0.2590098
-4.841456	d 5
-0.2476168	d </s>
-4.297389	d =	-0.2287077
-5.142487	d ?
-4.665365	d @	-0.4972268
-1.70268	d a	-1.287074
-3.540426	d b	-0.6026195
-3.169358	d c	-1.260399
-2.063305	d d	-2.16537
-0.8016657	d e	-0.4511268
-3.426483	d f	-1.135513
-2.262817	d g	-2.119283
-3.410093	d h	-0.5569023
-1.027976	d i	-0.8778986
-3.081789	d j	-0.9719927
-4.239397	d k	-0.3420339
-2.115953	d l	-2.77855
-2.343836	d m	-2.361574
-3.125453	d n	-2.05903
-1.31823	d o	-1.953595
-3.912038	d p	-0.523507
-3.394298	d q	0.2875602
-1.855357	d r	-2.933254
-1.604793	d s	-1.984079
-3.841456	d t	-0.660648
-1.540101	d u	-1.197167
-2.342457	d v	-0.6238669
-3.021913	d w	-1.69952
-1.950477	d y	-1.528527
-4.841456	d z
-4.755747	e $	-0.9365588
-5.357807	e '
-5.181716	e *	-0.0240005
-3.284089	e -	-0.5597108
-4.454717	e .	1.059342
-5.034979	e /
-5.658837	e 0
-5.357807	e 1	-0.5304168
-5.658837	e 6
-0.469229	e </s>
-5.357807	e =	-0.4969365
-5.658837	e ?
-5.658837	e @
-5.658837	e A
-5.658837	e K
-4.755747	e T	-0.9524067
-5.181716	e W	-0.2741557
-1.310688	e a	-3.172076
-2.784355	e b	-0.295719
-1.477337	e c	-1.153698
-1.145753	e d	-2.409879
-1.626783	e e	-1.790918
-2.007947	e f	-0.3013662
-2.114769	e g	-2.529157
-2.736112	e h	-1.935813
-1.931052	e i	-2.502129
-3.538263	e j	0.1643647
-3.082496	e k	-1.416331
-1.456485	e l	-1.557365
-1.684003	e m	-1.220116
-1.06397	e n	-2.093931
-2.161216	e o	-1.644925
-1.957356	e p	-0.7690664
-2.717823	e q	-0.8980764
-0.9109129	e r	-2.167996
-1.071575	e s	-1.892614
-1.535182	e t	-1.019556
-3.136393	e u	-1.554832
-1.784761	e v	-0.7608616
-2.109466	e w	-0.618724
-1.910029	e x	-0.4605441
-1.89183	e y	-1.266881
-3.750352	e z	-0.6078779
-5.181716	e ~	-0.5226314
-4.658764	f -	-0.4845345
-4.599179	f .	0.9984744
-4.900208	f 7
-0.4306223	f </s>
-4.900208	f ?
-4.900208	f @
-1.261221	f a	-1.887194
-4.900208	f b
-4.298149	f c	-1.493134
-1.136332	f e	-2.088119
-1.201934	f f	-2.237664
-4.423088	f g	-0.5000296
-4.599179	f h
-1.012198	f i	-2.356127
-4.599179	f k
-1.738541	f l	-2.525424
-4.599179	f m	-0.5660074
-4.599179	f n	-0.565891
-0.7405813	f o	-2.839994
-4.423088	f p
-1.160478	f r	-3.197223
-2.789619	f s	-1.258192
-1.50998	f t	-1.711712
-1.43871	f u	-2.448318
-4.658764	f w	-0.4409716
-2.584238	f y	-1.527051
-4.887786	g *
-3.846393	g -	-0.5283356
-3.933543	g .	-0.3899038
-4.887786	g /
-4.887786	g 1
-0.3958783	g </s>
-3.683666	g B	-1.213145
-4.586756	g I	-0.5636593
-4.887786	g _
-1.272573	g a	-1.611151
-4.263928	g b	-0.15827
-4.410665	g c	-0.2348729
-3.565567	g d	-0.8237084
-0.8355539	g e	-2.093999
-3.846393	g f	-1.063071
-2.030453	g g	-1.838284
-1.036283	g h	-1.488967
-1.322765	g i	-1.766758
-4.887786	g k
-1.912354	g l	-2.640652
-2.842463	g m	-1.408131
-1.519313	g n	-2.671091
-1.091628	g o	-2.502642
-4.042688	g p	-0.8952183
-4.887786	g q
-1.186391	g r	-3.347331
-1.716645	g s	-2.673309
-2.476166	g t	-2.086311
-1.553131	g u	-2.146708
-3.984696	g w	-0.1681557
-2.096797	g y	-1.653527
-5.27066	h !
-4.6686	h *	-1.286926
-2.429927	h -	-1.793761
-4.124532	h .	0.8594429
-5.27066	h /
-5.27066	h 1
-0.9337204	h </s>
-4.646802	h @	-0.2669958
-5.27066	h A
-5.27066	h C
-4.96963	h D
-0.7309068	h a	-1.348568
-3.069263	h b	-1.484164
-4.094569	h c	-0.4977348
-3.213755	h d	-1.653617
-0.3420596	h e	-2.637409
-3.627208	h f	-1.50654
-4.040211	h h	-0.2160967
-0.9569617	h i	-1.447644
-5.27066	h j
-5.27066	h k
-2.888643	h l	-1.688709
-2.47687	h m	-1.436976
-2.499073	h n	-2.283038
-1.145374	h o	-2.560612
-3.928237	h p	-0.3397281
-3.109292	h q	-0.1209178
-2.103343	h r	-3.106709
-3.010589	h s	-1.437636
-1.659894	h t	-2.014024
-1.990993	h u	-0.6797721
-3.233234	h w	-1.219927
-2.317868	h y	-1.599695
-5.123507	i '
-3.181499	i -	-0.6646199
-4.310594	i .	-0.812806
-5.424537	i /
-5.424537	i :
-2.982057	i </s>
-5.123507	i @	-0.5213077
-5.123507	i _	-0.5353487
-1.64711	i a	-2.041555
-2.153625	i b	-1.914725
-1.188605	i c	-1.338108
-1.349721	i d	-1.760292
-1.414619	i e	-2.744614
-1.773744	i f	-2.314495
-1.486217	i g	-1.090181
-3.906023	i h	-0.7992731
-4.310594	i i	-0.5118621
-4.194088	i j	-2.16332
-2.02073	i k	-2.236533
-1.294268	i l	-1.03198
-1.489635	i m	-1.882582
-0.5378546	i n	-0.9499316
-1.120801	i o	-3.102731
-2.02991	i p	-2.243959
-3.179024	i q	-0.2045382
-1.550287	i r	-1.434222
-0.928064	i s	-1.751787
-0.9126403	i t	-1.560115
-3.053469	i u	-1.887805
-1.594398	i v	-0.7412253
-4.521447	i w	-0.8694696
-3.100255	i x	-1.84624
-4.822477	i y	-0.31086
-2.148765	i z	-1.605098
-3.236957	j -	-0.02887946
-3.714078	j .
-3.714078	j </s>
-1.529387	j a	-0.9475511
-3.714078	j d
-0.7437313	j e	-2.526393
-2.090829	j i	-0.8199192
-3.714078	j n
-0.5254309	j o	-2.184489
-0.3168336	j u	-2.660258
-4.449092	k .
-0.5355436	k </s>
-3.546003	k A	-0.951039
-3.546003	k D	-0.9371372
-4.449092	k H
-4.449092	k T
-1.70952	k a	-1.254514
-3.017729	k b	-0.8255291
-2.847033	k d	-1.668363
-0.4686346	k e	-2.675644
-2.880891	k f	-1.152014
-2.741522	k g	-1.686767
-2.917614	k h	-0.8048422
-0.857138	k i	-2.613462
-3.19382	k k	-0.4728149
-2.003488	k l	-1.877908
-3.603995	k m	-0.5617236
-0.9715372	k n	-3.34836
-2.700905	k o	-1.002741
-2.971971	k p	-1.323373
-2.568279	k r	-1.455008
-1.153086	k s	-2.333114
-2.693218	k t	-0.9722603
-3.10667	k u	-0.9903131
-2.930579	k w	-1.442865
-2.287724	k y	-0.6026116
-4.449092	k z
-5.170989	l '
-5.170989	l *
-3.708591	l -	-0.2843969
-3.378597	l .	0.1255726
-5.170989	l /
-4.547131	l 9	-0.5210974
-0.7417374	l </s>
-4.693868	l >	0.5883972
-4.869959	l Q	0.01376614
-4.170989	l _	-1.081627
-1.080096	l a	-1.560629
-3.602787	l b	-0.820702
-2.787174	l c	-1.62334
-1.242388	l d	-1.847048
-0.8021072	l e	-1.171557
-2.23649	l f	-1.423228
-3.558205	l g	-1.518876
-4.057045	l h	-0.6409761
-0.9332692	l i	-0.7849591
-2.096904	l k	-1.734605
-0.8632361	l l	-2.750942
-2.494295	l m	-1.549575
-3.184217	l n	-1.337318
-1.132886	l o	-2.452945
-2.377897	l p	-1.543438
-2.506347	l r	-2.392312
-1.485785	l s	-2.279228
-1.742045	l t	-1.475182
-1.706648	l u	-1.541393
-2.277227	l v	-0.9818991
-2.601615	l w	-1.95496
-1.060096	l y	-2.357633
-3.966869	l z	-1.226659
-4.315296	m -	-0.2892978
-3.326371	m .	1.1932
-3.683882	m /	-0.1555962
-4.939155	m 1
-4.939155	m <
-0.8139012	m </s>
-4.939155	m >
-4.638124	m ?
-4.315296	m @	-0.5108349
-4.939155	m I
-4.638124	m _	-0.5353487
-0.7823331	m a	-1.53673
-1.571054	m b	-2.09094
-4.697711	m c	-0.1218538
-4.638124	m d	-0.4913901
-0.5517115	m e	-2.49123
-2.999635	m f	-1.40654
-4.939155	m g
-2.374489	m h	-2.26103
-1.03126	m i	-2.019809
-3.081822	m l	-0.8219359
-1.599703	m m	-2.553964
-2.863608	m n	-1.641354
-1.018979	m o	-2.435518
-1.111269	m p	-2.067367
-3.708706	m r	-1.21424
-1.589683	m s	-1.714301
-3.984912	m t	-0.3623566
-1.544878	m u	-2.370374
-4.939155	m v
-4.462033	m w	-0.2144308
-1.709217	m y	-2.231764
-4.939155	m z
-1.846639	n '	-3.415781
-3.325609	n -	-0.5285525
-3.536029	n .	-0.2751602
-4.945398	n /
-4.577421	n 2	-0.7967316
-5.422519	n 3
-5.422519	n 5
-5.422519	n 9
-5.422519	n :
-0.6119171	n </s>
-5.422519	n =
-5.422519	n N
-5.422519	n T
-5.422519	n _
-1.475723	n a	-1.153936
-3.637189	n b	-0.3077711
-1.42031	n c	-3.113603
-0.8306425	n d	-1.803954
-1.168503	n e	-0.9920233
-2.17849	n f	-3.180559
-0.8763345	n g	-1.534281
-3.336159	n h	-1.412655
-1.515215	n i	-0.08595143
-3.004218	n j	-1.013375
-1.932561	n k	-1.141595
-2.15184	n l	-2.953537
-2.255793	n m	-2.744411
-2.155348	n n	-2.739175
-1.276577	n o	-2.125454
-3.519429	n p	-1.084374
-3.565187	n q	0.1861026
-3.339734	n r	-1.682473
-1.310887	n s	-2.129834
-0.9392173	n t	-1.994943
-2.104874	n u	-1.279762
-1.973813	n v	-0.7105635
-3.130263	n w	-1.252682
-3.714949	n x	-1.483123
-1.88069	n y	-2.018915
-3.960121	n z	-0.2049074
-5.422519	n Ô
-4.980588	o '	-0.05308325
-5.156679	o *	-0.3013375
-3.049469	o -	-0.693091
-3.844925	o .	-0.00631526
-5.156679	o /	-0.5583885
-5.457709	o 1
-0.8605849	o </s>
-5.457709	o ?
-5.156679	o @
-5.457709	o Z
-2.190538	o a	-2.503537
-2.105527	o b	-1.713148
-1.885186	o c	-1.883552
-1.772416	o d	-1.11408
-2.387302	o e	-1.688209
-1.001116	o f	-2.46953
-2.141529	o g	-0.4909447
-2.591422	o h	-0.9063979
-1.879643	o i	-2.141431
-2.763104	o j	-2.30717
-2.04913	o k	-2.006532
-1.481772	o l	-1.302483
-1.195163	o m	-1.132558
-0.8134579	o n	-2.527862
-1.653843	o o	-2.174332
-1.506615	o p	-1.144587
-4.378528	o q	0.9294918
-0.877446	o r	-2.354671
-1.56998	o s	-1.743026
-1.359793	o t	-0.3698447
-0.9794893	o u	-2.810028
-1.655894	o v	-0.5512621
-1.380596	o w	-0.6413237
-3.382162	o x	-1.936458
-2.491568	o y	-0.9231274
-3.733433	o z	-0.7290112
-5.156679	o }	1.219312
-5.457709	o √
-4.896559	p *
-4.655115	p -	-0.4845345
-2.613258	p .	-0.4177794
-3.855167	p 5	-1.001926
-3.097219	p :	-1.788277
-1.146514	p </s>
-4.655115	p ?	-0.5651785
-0.9615057	p a	-1.898819
-3.617806	p b	-0.4858338
-3.855167	p c	-0.9428087
-3.391409	p d	-1.739606
-0.7461406	p e	-2.285941
-3.481586	p f	-1.169005
-3.352491	p g	-1.59268
-1.775656	p h	-1.144216
-1.381348	p i	-1.297274
-4.272701	p k	-0.472343
-0.9597943	p l	-3.196136
-2.012898	p m	-2.590505
-3.942317	p n	-0.5666093
-0.8330383	p o	-2.474194
-1.267456	p p	-2.99992
-0.7582566	p r	-3.815091
-1.721048	p s	-1.345579
-1.65651	p t	-1.188474
-1.438677	p u	-2.665409
-3.617806	p w	-0.7884055
-4.896559	p x
-2.416552	p y	-1.239629
-3.474799	q .
-2.298707	q </s>
-3.474799	q @
-3.474799	q a
-2.629701	q i	-0.1637523
-0.003947494	q u	-3.426424
-3.474799	q v
-4.441741	r $	-0.9365588
-5.344831	r *
-3.604468	r -	0.01570391
-2.108293	r .	-1.371015
-5.344831	r 2
-0.7213019	r </s>
-5.0438	r P	-0.5656325
-1.119185	r a	-1.368996
-2.654634	r b	-1.515129
-1.947238	r c	-2.46257
-1.724174	r d	-1.399515
-0.5895578	r e	-2.328733
-2.595867	r f	-1.417201
-1.913627	r g	-2.301841
-2.910261	r h	-1.482851
-1.081241	r i	-2.328029
-4.022611	r j	-1.036438
-1.818362	r k	-0.883929
-2.026976	r l	-2.328248
-1.721891	r m	-2.082056
-1.635391	r n	-2.548973
-1.025974	r o	-0.6998752
-2.221632	r p	-1.68553
-4.74277	r q	0.491829
-1.85207	r r	-2.469769
-1.307603	r s	-2.027052
-1.290026	r t	-0.4053392
-1.838596	r u	-1.660347
-2.143706	r v	-1.024278
-2.836974	r w	-1.83808
-4.867709	r x	-0.2431149
-1.487317	r y	-1.032183
-5.0438	r z
-5.388446	s '
-4.388446	s *	-0.7767127
-3.469368	s -	-0.3956096
-2.973472	s .	-0.2295763
-4.212355	s /	-0.5496208
-5.388446	s 2
-4.911325	s 4	-0.2804079
-0.3405521	s </s>
-5.388446	s ?
-5.388446	s I
-5.388446	s _
-1.438519	s a	-1.262679
-3.168338	s b	-1.220186
-1.91423	s c	-2.447388
-3.355022	s d	-1.589129
-1.010976	s e	-1.661106
-2.808662	s f	-2.324567
-3.648083	s g	-1.293475
-1.485899	s h	-0.4437113
-1.202649	s i	-1.685152
-5.388446	s j
-2.314361	s k	-1.753401
-2.235241	s l	-2.817988
-2.202338	s m	-2.384179
-3.01923	s n	-1.762028
-1.355465	s o	-2.075968
-1.664498	s p	-2.135083
-3.39722	s q	0.04779989
-3.392811	s r	-1.702143
-1.377849	s s	-2.355706
-0.8850365	s t	-1.998349
-1.466188	s u	-2.846354
-2.660905	s w	-2.317381
-2.345083	s y	-1.953494
-5.543221	t &
-5.0661	t '	-0.05308325
-3.890008	t -	-0.06590918
-4.640131	t .	0.7732572
-4.919363	t /	-0.5337706
-5.543221	t 3
-0.5989901	t </s>
-5.242191	t ?	-0.565738
-5.242191	t @
-5.543221	t B
-5.543221	t C
-5.543221	t E
-5.543221	t G
-5.543221	t N
-4.919363	t _	-0.1429357
-1.355503	t a	-1.72516
-3.446311	t b	-1.263307
-2.535473	t c	-1.862428
-4.242191	t d	-1.27964
-1.035095	t e	-2.00974
-3.310225	t f	-1.975775
-3.624143	t g	-1.453165
-0.5692899	t h	-1.10838
-0.9834819	t i	-1.986767
-2.085642	t l	-3.387288
-2.403972	t m	-2.455266
-3.092972	t n	-2.109188
-0.9973698	t o	-1.815602
-3.225158	t p	-1.24515
-5.543221	t q
-1.427178	t r	-4.019259
-1.470677	t s	-2.184282
-1.856585	t t	-2.617817
-1.766157	t u	-2.345917
-5.301777	t v	-0.9974514
-2.508192	t w	-2.20531
-1.838213	t y	-2.133436
-4.221002	t z	-0.2634004
-4.532372	u '	-0.2766122
-3.968101	u -	-0.5283356
-5.009493	u /
-1.210015	u </s>
-4.708463	u @	-0.5107147
-4.532372	u A	-0.5385087
-5.009493	u I
-1.525478	u a	-2.154046
-1.721244	u b	0.5657091
-1.266768	u c	-2.21688
-1.64438	u d	-1.223353
-1.405159	u e	-1.764552
-2.296003	u f	-2.380236
-1.468289	u g	-1.796552
-1.592853	u h	-3.10355
-1.588219	u i	-1.925998
-3.667071	u j	-1.338885
-4.164395	u k	-0.4377331
-1.061178	u l	-1.630139
-1.432002	u m	-1.247523
-0.9818584	u n	-2.049248
-2.587889	u o	-1.495863
-1.340456	u p	-1.328246
-0.8952829	u r	-1.884451
-0.8902375	u s	-1.903293
-0.843004	u t	-0.9079126
-4.407434	u u	-1.53524
-3.465425	u v	-0.3379681
-3.396709	u x	-1.014209
-2.277905	u y	-1.908386
-3.301923	u z	-1.429806
-4.604981	v '
-3.157824	v .	0.1173338
-4.604981	v /
-3.491038	v </s>
-1.191012	v a	-2.271417
-0.1530724	v e	-2.655933
-0.7406486	v i	-2.094755
-1.35383	v o	-2.238625
-4.604981	v p
-4.604981	v r
-3.243254	v s	-0.8951527
-2.951769	v u	-1.394947
-3.981123	v v	-0.2407768
-2.42889	v y	-1.618218
-3.862449	w -	-0.1776853
-3.285213	w .	-0.5559058
-4.816692	w /
-0.8548439	w </s>
-4.816692	w _
-0.7512243	w a	-2.410885
-3.586243	w b	-0.7673729
-3.298178	w c	-1.448592
-2.712888	w d	-0.6754411
-0.8036861	w e	-3.083961
-3.272624	w f	-1.527958
-4.515662	w g
-0.7873487	w h	-3.521274
-0.748766	w i	-2.901216
-3.436481	w k	-0.7295482
-2.328141	w l	-1.623521
-2.977843	w m	-1.588765
-1.430015	w n	-2.202381
-1.004313	w o	-2.531034
-4.575248	w p	-0.4567548
-1.929638	w r	-2.811964
-1.753359	w s	-1.412499
-2.317005	w t	-2.363251
-4.339571	w u	-0.2408597
-2.924597	w w	-1.76629
-2.593976	w y	-1.145106
-2.38452	x -	0.2073507
-3.530648	x .
-3.831678	x 6
-1.001731	x </s>
-1.124108	x a	-2.111692
-0.9921998	x c	-2.088892
-0.9601049	x e	-2.230066
-3.831678	x f
-1.86789	x h	-1.811213
-1.169865	x i	-1.23908
-3.831678	x l
-2.433738	x o	-0.9940232
-0.4276999	x p	-2.974911
-3.831678	x q
-0.8707317	x t	-1.723664
-1.923193	x u	-1.302902
-2.489255	x y	-0.7824809
-3.530648	x z	-0.5657029
-3.831678	x À
-4.823507	y &
-4.221447	y '	-0.1964792
-3.481084	y *	-1.097048
-3.677379	y -	-0.6630341
-3.869264	y .	-0.4974435
-4.823507	y /
-4.823507	y 1
-0.1401626	y </s>
-4.522477	y =
-3.978409	y @	-0.5056781
-4.823507	y _
-2.62485	y a	-0.9323992
-2.217125	y b	-1.776314
-2.53795	y c	-2.036353
-3.267204	y d	-1.091654
-1.318628	y e	-1.883663
-3.568234	y f	-1.011594
-3.425567	y g	-0.5761263
-3.782114	y h	-1.046939
-1.633736	y i	-2.933018
-4.823507	y j
-2.452439	y l	-1.558868
-2.205459	y m	-1.037061
-2.774289	y n	-1.302038
-0.9673219	y o	-2.641042
-2.384174	y p	-1.261093
-2.915022	y r	-0.8105878
-1.264918	y s	-2.134951
-2.141362	y t	-2.108894
-3.304993	y u	-0.6989424
-2.473259	y w	-1.244089
-3.709563	y x	-1.068378
-3.142266	y z	-1.202861
-2.964103	z *	-0.2772566
-1.884921	z </s>
-3.140194	z @	-0.5564721
-0.7737707	z a	-1.653952
-3.140194	z b	-0.5131676
-0.2904672	z e	-1.828477
-2.061013	z h	-0.5647309
-0.8087664	z i	-1.68102
-3.441224	z k
-1.978826	z l	-1.118112
-3.441224	z m
-3.441224	z n
-1.198186	z o	-1.240061
-3.441224	z p
-2.486981	z u	-0.3536885
-2.817365	z v	-0.5014374
-2.964103	z w	-0.4966557
-3.140194	z x
-1.615149	z y	-0.8099391
-1.477436	z z	-0.3042595
-0.05387538	{ </s>
-1.778151	{ a
-1.778151	{ h
-1.778151	{ o
-1.30103	{ t	-0.2426297
-0.007178585	} </s>
-0.8388491	~ </s>
-1.361728	~ B	-0.524633
-0.0984864	~ ~	-0.5113988
-0.544068	Ä ê	-0.2649875
-0.544068	Ä ë	-0.08889619
-0.845098	Ä ô
-0.845098	Ä Ô
-0.01424044	É ª	0
-0.09691001	Ü í	-0.852636
-0.30103	à ‰
-0.30103	â </s>
-0.4771213	ä </s>
-0.4771213	ä L
-0.1760913	å √	-0.1939269
-0.7781513	å ‚
-0.30103	è </s>
-0.7781513	è S
-0.7781513	è T
-0.30103	ê </s>
-0.60206	ê A
-0.1760913	ë </s>
-0.09691001	í </s>
-0.1760913	ñ †	-0.02057694
-0.7781513	ñ °
-0.07511172	ó è	0.05863248
-0.4771213	ô </s>
-0.4771213	ô g
-0.30103	ö </s>
-0.30103	õ D
-0.7781513	† -
-0.4771213	† </s>
-0.7781513	† B
-0.7781513	† C
-0.30103	° </s>
-0.30103	≤ .
-0.1249387	∂ ]	1.236364
-0.05115252	∑ </s>
-0.30103	∏ Ä
-0.01424044	ª </s>
-0.7781513	º à
-0.7781513	º â
-0.4771213	º ä
-0.7781513	º ö
-0.05115252	¬ ∑	0
-0.4175344	√ å	-0.1756193
-1.041393	√ õ
-1.041393	√ †
-1.041393	√ ≤
-0.5642715	√ ∂	0.06012343
-0.30103	À ô
-0.30103	Ÿ ê
-1.176091	‚ Ä
-0.5740313	‚ Ü	-0.852636
-0.552233	‚ ñ	-0.1756193
-0.552233	‚ ó	-0.003263561
-0.9420081	„ Ä	-0.1980406
-0.06694679	„ É	0
-0.30103	‰ ∏
-0.07511172	Ô º	0.02652501

\3-grams:
-0.4494498	! ! !	-0.5047926
-1.291123	! ! .	-0.1245291
-0.2787536	! ! </s>
-1.256342	! ! ?	0.07536338
-0.8366197	. ! !
-0.2114058	. ! </s>
-0.9231288	<s> ! !	-0.09003498
-0.0617936	<s> ! </s>
-1.986651	<s> ! ?	-2.075983
-0.313741	? ! !
-0.000111429	<s> " </s>
-0.04602592	<s> # </s>
-0.02632894	< $ B	0
-0.001235547	<s> $ </s>
-0.01236939	S $ </s>
-0.03778856	T $ </s>
-0.05115252	e $ >	0.2762064
-0.05115252	r $ >	0.2762064
-2.167317	<s> % </s>
-1.329168	<s> % a	0
-1.177077	<s> % e	0
-0.9312282	<s> % h	-1.023298
-1.350708	<s> % m	0
-2.531869	<s> % p	-1.023169
-0.146128	<s> % u	0
-0.4386798	1 & e	-0.01402289
-0.146128	<s> & </s>
-0.9827478	<s> & o
-0.04575749	R & D	0
-0.1092794	S & L	-0.01402288
-0.0001643499	' ' </s>
-0.7962019	<s> ' '	0
-1.387069	<s> ' </s>
-4.054919	<s> ' I	-0.2913599
-3.628608	<s> ' N	-1.023169
-3.628608	<s> ' S	-1.77242
-4.054919	<s> ' a	0.1189297
-1.810059	<s> ' d	0.001686608
-1.421032	<s> ' l	0.002069704
-1.297654	<s> ' m	0.000521019
-4.054919	<s> ' n	-0.2913599
-1.126984	<s> ' r	0.0003515262
-0.2358018	<s> ' s	0.0009033823
-1.413478	<s> ' v	0.001357195
-0.01236939	A ' s	1.408626
-0.07449828	F ' s	3.399797
-0.04602592	a ' a	-0.146128
-2.621753	n ' </s>
-0.001154425	n ' t	0.0001155637
-0.313741	o ' s	3.40336
-0.313741	t ' s	3.40336
-0.313741	u ' l	2.219989
-0.4386798	y ' a	-0.5116643
-0.0003070304	<s> ( </s>
-0.0003019079	<s> ) </s>
-0.1376497	! * </s>
-0.8846066	* * *	-0.8676981
-1.471007	* * ,	-1.023169
-1.897318	* * .	-0.01402289
-0.3886	* * </s>
-1.73056	* * A	-0.3360256
-1.897318	* * D	-0.01402289
-1.897318	* * M	-0.01402289
-1.897318	* * Y
-1.328573	* * a	-0.01402297
-1.897318	* * b
-1.897318	* * d	-0.01402289
-1.060698	* * o	0
-1.73056	* * p
-1.328573	* * s	-0.09699106
-1.73056	* * t	-0.004884912
-1.897318	* * u
-0.1622149	<s> * *	-0.548515
-0.5247629	<s> * </s>
-0.2114058	\ * </s>
-0.6698623	\ * \	-0.3360256
-0.313741	e * *
-0.01236939	h * *	-2.346586
-0.1376497	o * *	-0.3518514
-0.04139268	s * *	-0.7718111
-0.01930515	y * *	-1.489507
-0.1469836	z * *	-0.6497732
-0.4418547	<s> + </s>
-1.067069	<s> + c	-0.01402289
-0.01236939	* , </s>
-0.7397097	, , ,
-0.3133994	, , </s>
-0.7397097	, , ^	-0.01402289
-4.070463	<s> , ,	-0.1677556
-4.749242e-05	<s> , </s>
-0.1376497	^ , ,	-0.4927449
-0.7323432	- - -	-0.04717306
-0.09081918	- - </s>
-2.502645	- - R	-0.1047354
-0.3688323	1 - </s>
-0.1376497	2 - </s>
-0.313741	7 - 0	-0.2913599
-0.04602592	: - -	-0.8437309
-0.7177027	<s> - -	-0.6876458
-0.09257209	<s> - </s>
-3.531516	<s> - L	0.6736439
-0.3470559	B - </s>
-0.7490435	B - c	-0.8675175
-0.915801	B - x
-0.04575749	X - r	-0.69897
-0.111492	a - </s>
-1.560896	a - o	-0.5593333
-1.560896	a - p
-1.560896	a - s
-0.4103094	b - </s>
-0.8366197	b - c
-0.8366197	b - s
-0.2678747	c - </s>
-0.6698623	c - R	-0.1375995
-0.4259687	d - </s>
-0.4259687	d - b	-0.7212464
-1.216831	d - s
-0.8976271	e - </s>
-1.750277	e - a	-0.6561531
-2.044611	e - b
-0.9768083	e - c	-0.5129612
-1.333356	e - d	-0.6128328
-0.6845523	e - e	-0.7801396
-1.785058	e - f	0.05218615
-1.333356	e - g	-0.2796136
-1.586154	e - i	0.3381198
-2.211368	e - l
-1.052529	e - m	-0.6220354
-1.750277	e - o	-0.2985339
-1.198657	e - p	-0.7403627
-1.785058	e - q	-1.023169
-1.750277	e - r	-0.4138523
-1.198657	e - s	0.1793331
-1.295567	e - t	-0.7260644
-2.211368	e - u	-0.5033572
-2.211368	e - w
-0.04602592	f - </s>
-0.04139268	g - </s>
-1.498311	h - </s>
-0.01921971	h - h	-0.8953114
-2.677353	h - p
-2.251043	h - u	-2.32915
-0.7659168	i - </s>
-2.079658	i - C
-2.079658	i - M	-0.2478107
-0.9208187	i - a	-0.5097639
-1.9129	i - b
-1.201645	i - c	-0.3659038
-1.201645	i - d	-0.5405157
-2.079658	i - e
-1.243038	i - f	-0.2700482
-1.653347	i - g	-0.2953908
-1.339948	i - i	-0.1561939
-1.454444	i - l	0.003084786
-1.653347	i - m	-0.03481558
-1.129095	i - n	-0.6368221
-2.079658	i - o
-1.288796	i - p	-0.3512471
-1.201645	i - s	0.1573035
-1.066947	i - t	-0.2246416
-1.510913	i - w	-0.4569179
-0.1469836	j - </s>
-0.2863067	l - </s>
-1.299018	l - a	-0.5671993
-0.559308	l - j	0
-0.07449828	m - </s>
-0.89279	n - </s>
-1.766772	n - a
-1.142668	n - c	0.3279571
-0.9829667	n - d	0.3311803
-1.19382	n - e	-0.1913345
-1.507219	n - f	0.05218615
-1.93353	n - g	-0.4186723
-1.364785	n - i	0.1864416
-1.507219	n - l	-0.2848499
-1.472438	n - m	0.08445144
-1.364785	n - n	-0.3685205
-0.8664611	n - p	-0.5755797
-1.472438	n - r	-0.5246188
-1.472438	n - s	0.003672175
-1.766772	n - t	-0.2306234
-1.766772	n - u	-0.7601298
-0.950782	n - v	0.08432089
-1.232149	o - </s>
-1.818549	o - B	-2.121383
-1.262112	o - a	-0.5759869
-0.9610819	o - c	-2.720903
-1.262112	o - d	-0.9156791
-1.294297	o - e	-0.7945077
-1.619646	o - f	-0.5932861
-1.818549	o - g	-0.1663558
-2.24486	o - h	-0.5765594
-1.818549	o - i	0.1453012
-2.24486	o - m	-0.176348
-0.3400541	o - o	-0.7576675
-1.619646	o - p	0.1377345
-2.24486	o - r
-1.40824	o - s	-0.9897325
-1.818549	o - t	0.004494158
-1.818549	o - w	-0.3345315
-0.04602592	p - </s>
-0.6611814	r - </s>
-1.576982	r - E	-0.01402289
-1.115891	r - a	-0.6081837
-1.410225	r - c
-1.410225	r - e
-1.410225	r - g	-0.2602954
-1.115891	r - i	0.01845665
-1.410225	r - l	-0.7275856
-1.576982	r - n
-1.576982	r - o
-1.576982	r - p
-1.410225	r - r
-1.410225	r - s	0.08260588
-1.410225	r - t	-0.0894454
-0.9648356	s - </s>
-1.755698	s - b	-0.5281793
-1.294606	s - c	-0.4960023
-1.58894	s - g	-0.6708366
-1.755698	s - n	-0.1029191
-1.755698	s - o
-1.755698	s - p	-0.514223
-0.1948022	s - s	-3.186137
-0.5392691	t - </s>
-1.489832	t - S	-0.2478107
-1.489832	t - c	-0.5493215
-1.028741	t - e	-0.2556891
-1.323075	t - i	-0.2759021
-1.028741	t - p	-0.2306126
-1.063522	t - s	-0.06917047
-1.028741	t - w	-0.1954232
-0.04139268	u - </s>
-0.2221172	w - </s>
-0.6241048	w - h	-0.8744811
-1.283778	x - </s>
-1.11702	x - P	-0.2252215
-1.283778	x - g
-0.8226863	x - h	1.343253
-1.283778	x - p	-0.116283
-0.7150327	x - r	-0.544068
-1.283778	x - w	-0.5502871
-0.02996322	y - </s>
-0.2719223	! . </s>
-0.1376497	* . </s>
-2.018284	. . !	-0.09599322
-0.3489674	. . .	0.1470586
-0.278712	. . </s>
-2.428594	. . ?	-1.023169
-2.018284	. . @	0.04734058
-0.4894907	0 . .	-2.316913
-0.7490435	0 . 6	-0.6355646
-0.915801	0 . </s>
-0.4439659	1 . </s>
-0.8459536	1 . c	0.6352555
-1.101226	2 . 1	-0.1726727
-1.267984	2 . 9	-0.462208
-0.3521825	2 . </s>
-1.101226	2 . h	0.2359812
-0.7397097	3 . 1
-0.7397097	3 . 8
-0.7397097	3 . </s>
-0.7397097	3 . h	0.533903
-0.8780124	4 . 1
-0.8780124	4 . 9
-0.8780124	4 . </s>
-0.7908623	5 . 4	-0.2913599
-0.6241048	5 . </s>
-0.6817178	6 . </s>
-0.5149603	6 . c	0.6352555
-0.915801	7 . 1
-0.4894907	7 . </s>
-0.7397097	8 . 9
-0.711255	9 . 1	-0.1726727
-0.8780124	9 . </s>
-0.8780124	9 . h	0.533903
-1.939251	<s> . .	-0.9474354
-0.005032958	<s> . </s>
-0.1376497	? . .
-0.313741	@ . 3	-0.4592572
-0.4480135	C . D	-0.07560726
-0.7397097	D . </s>
-0.3133994	D . s	-2.469101
-0.1376497	J . </s>
-0.1376497	N . </s>
-0.1469836	R . </s>
-0.2678747	S . </s>
-0.1536795	T . </s>
-0.0565038	U . S	-0.2933341
-1.04074	a . .	-0.3221785
-0.4719946	a . c	0.6681195
-0.5796483	a . m	-0.08481117
-0.5149603	b . c	0.6352555
-0.6817178	b . w	-0.3833722
-0.004907335	c . </s>
-2.08704	c . c	0.9331773
-0.4386798	d . p	-0.1802602
-0.1627273	e . </s>
-0.1376497	f . </s>
-0.3645519	g . c	-1.061557
-0.7908623	g . i	-0.3833722
-0.9827478	h . </s>
-0.8159903	h . a	-0.7557348
-0.243038	h . c	0.5589751
-0.07255067	i . e	-0.2662679
-0.8381492	l . </s>
-0.08482151	l . c	-0.2027857
-1.449404	m . .	-0.5758563
-0.3823349	m . </s>
-0.5713912	m . c	0.3133816
-0.6585413	m . s	-0.6478175
-0.08591463	n . </s>
-0.7781513	n . c	0.3670896
-0.1180993	o . </s>
-0.6690068	o . c	0.5132176
-0.004547628	p . </s>
-0.0005041144	r . </s>
-2.251593	s . 8	-0.4217001
-0.07651685	s . </s>
-0.8964594	s . c	-0.01826131
-1.825283	s . n	-2.177238
-0.1709647	t . </s>
-0.7397097	t . c
-0.01579427	v . </s>
-1.201341	w . 1	-0.815648
-0.4175356	w . a	-0.7579479
-1.368099	w . d	-0.03810377
-1.368099	w . e
-1.368099	w . i
-1.368099	w . m	-0.5033572
-1.201341	w . p
-1.368099	w . w	-0.3833722
-0.1656483	y . c	0.6681195
-1.469203	/ / A	-0.3360256
-1.469203	/ / a	-0.1922331
-1.20965	/ / b	-0.01402288
-0.520587	/ / m	-0.2575643
-1.63596	/ / p	0.060033
-0.3521825	/ / w	-0.206596
-0.07449828	6 / r	0.3706391
-0.2719223	7 / r	0.07628038
-0.006839424	: / /	-0.07786995
-0.00225608	<s> / </s>
-0.1760913	a / c	-0.4771212
-0.915801	a / d
-1.091892	m / >	-0.01402289
-1.091892	m / B	-0.01402289
-1.091892	m / a	-0.478708
-1.091892	m / v	-0.01402289
-0.1376497	o / a	-0.478708
-0.5864006	s / 1
-0.5516195	s / 2	0.1373161
-1.012711	s / 4	-0.01402289
-1.012711	s / s
-0.3688323	t / p	0.346508
-0.5355898	t / s	-0.5033572
-0.313741	- 0 1	-0.5488182
-0.5355898	. 0 0	-0.5731087
-1.374097	0 0 .	-2.404739
-0.7085153	0 0 0	-0.4995847
-1.374097	0 0 1
-1.800408	0 0 4
-1.175194	0 0 5	-0.6999899
-1.175194	0 0 6	-0.1705959
-0.9637879	0 0 7	-0.05124893
-0.5013898	0 0 </s>
-1.339316	0 0 @	-0.1278299
-1.800408	0 0 _
-0.3881802	1 0 0	-0.2111106
-1.179042	1 0 7	-0.3020396
-1.179042	1 0 </s>
-0.0884219	2 0 0	-1.063298
-1.416403	2 0 1
-1.249646	2 0 z	-0.3360256
-0.3253491	3 0 1	-0.6368221
-0.5242528	3 0 5	-2.465936
-0.8366197	4 0 0	-0.4854842
-0.3755283	4 0 </s>
-0.3688323	5 0 </s>
-0.5864006	7 0 .	-0.3715144
-0.8459536	7 0 3	-0.6355646
-0.8459536	7 0 </s>
-1.012711	7 0 s	-0.01402289
-0.5355898	8 0 8	-0.5033572
-0.614771	9 0 0	-0.4155931
-0.614771	9 0 </s>
-0.4480135	: 0 0	-0.1291181
-0.614771	: 0 6	-0.5080468
-0.3744589	<s> 0 0	-1.370657
-1.063522	<s> 0 5	-0.1477648
-0.4490925	<s> 0 </s>
-1.04074	. 1 1	-0.5411337
-0.8739823	. 1 2	-0.6816675
-0.6144294	. 1 4	-0.1379302
-1.04074	. 1 5
-1.04074	. 1 7
-1.158839	0 1 -
-0.6977476	0 1 2	-0.1229463
-0.4191293	0 1 </s>
-1.067069	1 1 2	-0.3837457
-0.9003112	1 1 9	-0.235175
-1.067069	1 1 </s>
-1.067069	1 1 @	0.9715657
-1.067069	1 1 _
-0.7397097	2 1 1
-0.7397097	2 1 9	-0.5411337
-0.4386798	3 1 2
-0.2719223	4 1 </s>
-0.711255	5 1 .	-0.8111578
-0.4517021	5 1 6	-0.4081507
-0.3133994	6 1 3	-2.360981
-0.5355898	7 1 .	-0.3863713
-0.6817178	9 1 .
-0.6817178	9 1 </s>
-0.313741	: 1 5
-1.711681	<s> 1 -	-0.3376428
-1.285371	<s> 1 .	-0.2630897
-0.8336686	<s> 1 0	0.03363256
-1.285371	<s> 1 1
-1.711681	<s> 1 2
-1.544924	<s> 1 3
-1.285371	<s> 1 4	-0.1057335
-1.142936	<s> 1 5	-0.02854395
-1.250589	<s> 1 6
-1.544924	<s> 1 8
-0.9719713	<s> 1 9	-0.117981
-0.5740313	<s> 1 </s>
-0.8366197	= 1 &	-0.3833722
-0.8366197	= 1 0
-0.6698623	= 1 1	-0.235175
-0.1376497	? 1 2	-0.5502871
-0.614771	_ 1 6
-0.1469836	a 1 0	-0.06508604
-0.1376497	e 1 1	-0.5411337
-0.3133994	/ 2 0	0.2779268
-0.5355898	0 2 </s>
-0.4393327	1 2 0	0.2207945
-0.7527321	1 2 2	-0.3628665
-0.7527321	1 2 6	-0.1312498
-1.179042	1 2 8	-0.2913599
-1.179042	1 2 </s>
-0.711255	2 2 0	-0.1432766
-0.711255	2 2 </s>
-0.2678747	4 2 .	0.1328363
-0.6817178	5 2 </s>
-0.4517021	6 2 .	-0.2014863
-0.8780124	6 2 0
-0.8780124	6 2 2
-0.4386798	7 2 .	-0.555953
-0.1092794	9 2 .	-0.2014863
-1.526816	<s> 2 -	-0.01402289
-1.360058	<s> 2 .	-0.6226896
-0.6488034	<s> 2 0	-0.3067071
-1.100505	<s> 2 1	-0.1123304
-1.526816	<s> 2 2	-0.486148
-0.9016019	<s> 2 4	-0.1903053
-1.360058	<s> 2 6	-0.07977141
-1.526816	<s> 2 7
-0.5762527	<s> 2 </s>
-0.1376497	d 2 .	-0.5442014
-0.0565038	n 2 0	-0.5128911
-0.614771	. 3 2
-0.614771	. 3 b	-0.01402289
-0.3688323	0 3 </s>
-0.4103094	1 3 3	-2.285772
-0.5355898	2 3 :
-0.3133994	3 3 0	-2.420461
-0.6817178	4 3 .	-0.4927449
-1.179042	5 3 6
-1.179042	5 3 7
-0.1383027	5 3 </s>
-1.313741	<s> 3 .	-0.4927449
-0.744996	<s> 3 0	-0.5670972
-1.313741	<s> 3 7
-1.146984	<s> 3 9
-0.5228788	<s> 3 </s>
-1.313741	<s> 3 D	-0.01402289
-0.01236939	P 3 </s>
-0.5355898	_ 3 4
-0.313741	. 4 8	-0.4927449
-0.1376497	/ 4 5	-0.4927449
-0.8780124	1 4 2	-0.2431131
-0.711255	1 4 </s>
-0.4103094	2 4 0	-0.2192994
-0.6698623	2 4 6	-0.6865512
-0.5355898	3 4 2	-0.2431131
-0.4386798	5 4 0	-0.342581
-0.1092794	7 4 .	-0.1379302
-0.614771	8 4 </s>
-0.313741	: 4 1	-0.2478107
-1.299018	<s> 4 .	-0.5183447
-1.13226	<s> 4 2
-1.13226	<s> 4 3
-1.299018	<s> 4 5
-1.13226	<s> 4 8	-0.1584738
-1.299018	<s> 4 9	-0.03810377
-0.462398	<s> 4 </s>
-0.614771	a 4 0	-0.5116643
-0.1884606	a 4 5	-2.285772
-0.313741	d 4 3	-0.478708
-0.313741	s 4 u	-0.01402289
-0.614771	. 5 5	-0.5284257
-0.9486159	0 5 1	-0.1041839
-0.6542819	0 5 </s>
-0.5466283	0 5 @	0.2340832
-0.8780124	1 5 :	-0.3833722
-0.711255	1 5 </s>
-0.3133994	4 5 5	-2.420461
-0.7397097	4 5 9	-0.4217001
-0.9505631	5 5 </s>
-0.5242528	5 5 @	-1.495594
-0.9505631	5 5 _
-0.3133994	6 5 1	-0.01024438
-0.4386798	7 5 3	-0.5502871
-0.7397097	8 5 .
-0.7397097	8 5 3	-0.01576891
-0.7397097	8 5 </s>
-0.614771	9 5 2
-0.1376497	: 5 3	-0.01576891
-1.267984	<s> 5 .	-0.462208
-0.8416731	<s> 5 0	0.04277168
-1.101226	<s> 5 1	-0.7840698
-1.267984	<s> 5 2	-0.478708
-1.267984	<s> 5 3
-1.267984	<s> 5 4	-0.3833722
-1.267984	<s> 5 5
-1.101226	<s> 5 7
-0.8416731	<s> 5 </s>
-0.03778856	p 5 3	-0.5149098
-0.3688323	. 6 2	-0.6885807
-0.5216563	0 6 /	0.2187515
-0.9827478	0 6 2
-0.8159903	0 6 </s>
-0.8780124	1 6 .	-0.4217001
-0.8780124	1 6 2
-0.8780124	1 6 8
-0.711255	1 6 </s>
-0.8366197	2 6 5
-0.4103094	2 6 </s>
-0.614771	4 6 0
-0.4480135	4 6 </s>
-0.2719223	6 6 </s>
-0.5355898	7 6 </s>
-0.614771	8 6 5	-0.2910372
-1.179042	<s> 6 .	-0.478708
-0.7527321	<s> 6 1	-2.285772
-1.179042	<s> 6 5
-1.012285	<s> 6 8
-0.7179509	<s> 6 </s>
-0.4386798	. 7 1
-0.9505631	0 7 -	-0.2913599
-0.7838057	0 7 /	-0.5457325
-0.3253491	0 7 </s>
-0.614771	1 7 0
-0.614771	1 7 7	-0.5568367
-0.614771	3 7 4	0.07270024
-0.614771	3 7 </s>
-0.6817178	4 7 .
-1.283778	7 7 .
-0.30103	7 7 7	-0.1014488
-0.3679768	7 7 </s>
-0.313741	8 7 .
-0.7397097	9 7 0	-0.5356725
-0.7397097	9 7 5	-0.3833722
-0.7397097	9 7 _
-1.392922	<s> 7 .	-0.4100041
-0.6532125	<s> 7 0	-0.0863131
-1.226165	<s> 7 2	-0.09689718
-1.392922	<s> 7 4	0.07270024
-1.392922	<s> 7 6
-0.5149098	<s> 7 7	-0.286215
-0.8241771	<s> 7 </s>
-0.5149603	. 8 6	-0.1727823
-0.7908623	0 8 5	-0.4927449
-0.6241048	0 8 </s>
-0.614771	1 8 </s>
-0.313741	2 8 @
-0.4386798	3 8 8
-0.5729523	4 8 5	-0.20627
-0.7397097	4 8 </s>
-0.7397097	4 8 _
-0.6817178	6 8 5	-0.4927449
-0.6817178	6 8 7
-0.6241048	8 8 .
-0.6241048	8 8 8
-0.6817178	9 8 _
-0.8739823	<s> 8 0	-0.1439991
-0.5796483	<s> 8 </s>
-0.6241048	. 9 2	-0.2252215
-0.6241048	. 9 7	-0.20627
-0.7908623	. 9 8	-0.478708
-1.067069	1 9 .	-0.486148
-1.067069	1 9 5
-1.067069	1 9 7	-0.4927449
-0.9003112	1 9 8
-1.067069	1 9 9
-0.7397097	3 9 .
-0.7397097	3 9 3
-0.1469836	4 9 1
-0.5149603	5 9 .	-0.2318697
-0.6817178	5 9 </s>
-0.1092794	8 9 </s>
-0.8159903	<s> 9 .
-0.8159903	<s> 9 0	-0.1727823
-0.9827478	<s> 9 4
-0.1376497	= 9 7	-0.4927449
-0.3688323	l 9 @	0.6736439
-0.5355898	l 9 l	-0.01402289
-0.2719223	0 : 0	-0.1727823
-0.4386798	5 : 4
-2.432228	<s> : -	0.1524935
-0.002087242	<s> : </s>
-0.04139268	A : </s>
-0.1656483	B : </s>
-0.7908623	B : O	-0.01402289
-0.006839424	p : /	0
-0.0004876974	<s> ; </s>
-0.1576079	<s> < $	0
-0.6296025	<s> < h	0.1524935
-0.5149603	<s> = </s>
-0.2554075	<s> = =	-1.58577
-1.001374	= = </s>
-0.04699656	= = =	-0.9761798
-0.614771	D = 1
-0.5149603	d = 1	-0.1890631
-0.6817178	d = 9	-0.01402289
-0.1376497	e = 1	-0.5116643
-0.02632894	$ > </s>
-0.1376497	/ > </s>
-0.1469836	l > </s>
-0.1656483	! ? </s>
-0.7908623	! ? ?	-0.08124816
-0.01236939	. ? </s>
-3.156859	<s> ? !	-0.004884912
-3.323617	<s> ? .	-0.01402289
-0.001559407	<s> ? </s>
-2.862525	<s> ? ?	0.07536338
-0.1656483	? ? </s>
-0.7908623	? ? ?	-0.08124816
-0.614771	p ? I
-0.614771	p ? S	-0.01402289
-0.614771	p ? t	-0.01402289
-0.1376497	t ? 1	-0.01402289
-0.3755283	. @ g	0.4955779
-0.8366197	. @ z	-0.01402289
-0.4480135	0 @ h	0.7348217
-0.01236939	1 @ h	-0.9619913
-0.03778856	5 @ h	0.5336026
-0.01236939	9 @ h	-0.9619913
-0.05115252	<s> @ </s>
-0.01236939	b @ h	-0.9619913
-0.1469836	d @ y	0.1220379
-0.3688323	h @ h	0.7348217
-0.5355898	h @ m	-0.3376428
-0.1376497	i @ y	0.4199597
-0.3688323	m @ c	0.6736439
-0.5355898	m @ m	-0.4304741
-0.1376497	u @ g	0.4991409
-0.5149603	y @ g	0.2012191
-0.2554075	y @ h	-0.9619913
-0.1376497	z @ a	-0.01402289
-0.1469836	* A n	-0.1139224
-0.1469836	/ A b	-0.8572864
-3.41564	<s> A '	0.6736439
-0.8346196	<s> A </s>
-3.013652	<s> A B	-0.1858119
-3.013652	<s> A C	-0.5856802
-3.013652	<s> A D	-0.1727823
-1.967626	<s> A I	-0.6647559
-3.121305	<s> A M	-0.0577948
-2.569686	<s> A N	-0.8021133
-2.666596	<s> A P	-0.4084589
-3.156087	<s> A S	-2.365134
-3.582397	<s> A V	-0.01402289
-2.631834	<s> A Z	0
-2.143717	<s> A b	-0.3717162
-1.239272	<s> A c	-0.09699102
-1.831963	<s> A d	-0.05483425
-3.582397	<s> A e	-0.01402289
-1.273021	<s> A f	-0.004885052
-2.154713	<s> A g	0.07375725
-2.092565	<s> A h	0
-2.490505	<s> A i	-0.1145003
-1.015803	<s> A l	0.03264436
-1.54438	<s> A m	-0.1572133
-0.4802519	<s> A n	-0.07773453
-2.102324	<s> A p	0
-1.596558	<s> A r	-0.2777739
-1.049421	<s> A s	-0.06235221
-1.069999	<s> A t	-0.002957576
-2.201709	<s> A u	0.08571596
-2.254416	<s> A v	0.08567177
-3.013652	<s> A w	-0.05560163
-0.6144294	B A </s>
-0.4155257	B A N	-0.7838049
-0.6698623	C A L	-0.7913704
-0.4103094	C A T	0.006998522
-0.5729523	D A </s>
-0.7397097	D A X	0.9715657
-0.7397097	D A s	0.4199597
-0.5796483	E A D	-0.5243337
-0.8739823	E A N	-0.8346964
-0.5796483	E A R	-0.2731827
-0.6241048	F A </s>
-0.7908623	F A R
-0.5242528	I A </s>
-0.2108534	I A L	-0.3258536
-1.067069	L A N
-0.6059772	L A R	-0.3421874
-0.6407583	L A T	0.006998522
-0.6059772	L A W	-0.0768434
-0.8780124	M A L
-0.3092673	M A N	-0.07536048
-0.1576079	N A </s>
-1.03159	N A L	-0.6017557
-1.198348	N A T	-0.4998265
-0.1469836	O A </s>
-0.8252828	P A </s>
-1.251593	P A C
-0.8252828	P A N	-0.1839145
-0.5118834	P A P	-0.7257631
-1.084836	P A R	-0.250887
-0.8252828	P A Y	-0.002957628
-1.201341	R A I	-0.8636563
-0.7993536	R A L	-0.1394119
-0.9070072	R A M	-0.5197598
-0.3273589	R A T	-0.4393327
-0.0854302	S A R	-1.1291
-0.4547095	T A L	-0.312521
-0.7490435	T A N	-0.8308864
-0.5355898	U A K	0.07270024
-0.3688323	U A L
-0.313741	V A </s>
-0.04139268	_ A :	0
-0.05115252	k A u	-0.1658721
-0.1469836	u A b	-0.8572864
-0.02632894	$ B l	-0.7967933
-0.1884606	- B e	-2.562744
-0.1376497	/ B B	1.101201
-1.90815	<s> B </s>
-2.681175	<s> B A	-0.03650412
-1.769847	<s> B B	0.0280287
-3.249919	<s> B E
-3.249919	<s> B I	-0.01402289
-3.249919	<s> B L	-0.2913599
-3.083162	<s> B O	-0.799903
-3.083162	<s> B R	-0.004884912
-3.083162	<s> B T	-0.3360256
-3.083162	<s> B U	-0.3360256
-1.468817	<s> B a	-0.1154305
-0.8545912	<s> B e	-0.1772601
-1.760087	<s> B i	-0.04466827
-2.070877	<s> B l	0.1504253
-1.286195	<s> B o	-0.01191309
-1.613959	<s> B r	-1.016329
-0.2043213	<s> B u	-0.2716306
-1.228608	<s> B y	0
-0.3133994	A B C	0.04024781
-0.00914338	B B S	0.00407526
-0.1469836	I B O	-0.799903
-0.0565038	L B O	-0.3338276
-0.06963593	M B </s>
-0.8416731	M B A	-0.3358661
-0.01236939	N B C	-2.160684
-0.1376497	O B :	-0.5033572
-0.1249387	R B -	-0.1942158
-0.8739823	R B A	-0.6674536
-0.1469836	Y B E	-0.6355646
-0.0565038	_ B :	-0.7487845
-0.02632894	g B a	-0.9213011
-0.1469836	~ B a	-0.8620405
-0.313741	- C h
-2.466139	<s> C .	-0.1278299
-1.534308	<s> C </s>
-2.466139	<s> C A	-0.2147386
-1.227288	<s> C D	0.01158213
-1.488551	<s> C E	-1.396185
-1.811857	<s> C F	-0.3360256
-2.760473	<s> C H	-0.1352251
-2.50092	<s> C I	-0.3899544
-2.92723	<s> C J	-0.01402289
-2.136368	<s> C N	0
-1.789581	<s> C O	-0.451872
-2.049218	<s> C P	0.1463306
-2.760473	<s> C R
-2.760473	<s> C T
-2.760473	<s> C U	-0.5457325
-0.986807	<s> C a	0.03016391
-1.643453	<s> C e	-0.2464624
-0.7788569	<s> C h	-0.3342046
-1.748188	<s> C i	-0.2464621
-1.342423	<s> C l	-0.328337
-0.4571423	<s> C o	-0.09939688
-1.546543	<s> C r	-0.05788376
-1.171533	<s> C u	-0.3136659
-2.50092	<s> C y	-0.01402288
-0.3470559	A C C	-0.467867
-0.2114058	B C </s>
-0.8366197	B C s	0.6987132
-0.5149603	C C E	-0.8597229
-0.5149603	C C O	-0.8004098
-0.7397097	E C I	-0.5356725
-0.02802872	F C s	0.07463362
-0.6144294	I C A	-0.2429648
-1.04074	I C E	-0.5618011
-0.8739823	I C O	-0.8488632
-0.6144294	I C T	-0.09512351
-0.3133994	N C E	-0.4385196
-0.7397097	N C H
-0.416921	O C </s>
-0.711255	O C O	-0.8488632
-0.1129727	R C I	-0.5141048
-0.3688323	S C O	-0.8004098
-0.04575749	T C </s>
-0.7397097	V C D	-0.2674285
-0.1709647	V C R	-0.7595425
-0.04575749	& D </s>
-0.1376497	* D o	-0.568059
-0.07449828	. D .	-0.03023772
-0.1376497	3 D </s>
-2.878801	<s> D '
-2.878801	<s> D .
-1.786909	<s> D </s>
-2.41771	<s> D A	-0.4744265
-2.41771	<s> D E	-0.2608505
-2.253587	<s> D I	-0.182879
-2.452491	<s> D J	-0.2143613
-1.838062	<s> D N	-0.6661775
-2.41771	<s> D R	-0.05785882
-1.838062	<s> D V	0
-1.36094	<s> D a	0.03972996
-0.6494846	<s> D e	-0.04284014
-0.7262112	<s> D i	-0.214488
-0.5782886	<s> D o	-0.01752505
-1.078394	<s> D r	0.05532021
-0.9249103	<s> D u	-0.07684334
-0.915801	A D D
-0.915801	A D O
-0.915801	A D S
-0.4894907	A D Y	-1.023169
-0.3245111	C D </s>
-0.289749	C D s	0.04139267
-0.3688323	D D I	-0.2491975
-0.1286666	E D </s>
-0.9665929	E D E	-0.3887433
-1.427684	E D I
-0.7863886	G D N	-0.7228707
-0.08715018	G D P	0
-0.01930515	H D T	0
-1.687878	I D </s>
-1.119133	I D =	-0.001653172
-1.687878	I D E
-0.0731071	I D S	0.04717908
-0.5149603	L D </s>
-0.1512677	N D </s>
-0.6059772	N D S	1.248906
-0.614771	O D </s>
-0.4480135	O D O	-0.5259482
-0.313741	P D A	-0.4927449
-0.313741	S D I	-0.513236
-0.09017663	V D </s>
-0.8739823	V D s	0.7654905
-0.05115252	k D a	-0.859267
-0.1376497	- E u	0.4199597
-2.68773	<s> E -
-1.813748	<s> E </s>
-2.854487	<s> E A	-0.4473664
-2.428177	<s> E M	-0.3216672
-2.854487	<s> E N
-2.428177	<s> E S	-2.519091
-2.68773	<s> E U	-0.5457325
-2.68773	<s> E X	-0.004884912
-1.088449	<s> E a	-0.01402297
-2.393396	<s> E b	0.2187515
-1.526506	<s> E c	-0.01402297
-1.903924	<s> E d	0.003388409
-2.854487	<s> E f	-0.01402289
-1.762595	<s> E h	0
-1.976475	<s> E i	0
-1.426803	<s> E l	-0.08046129
-1.619928	<s> E m	3.955766e-05
-0.5722635	<s> E n	-0.01432021
-2.68773	<s> E q	-0.3360256
-1.602894	<s> E r	-0.02142337
-1.4738	<s> E s	-0.04711883
-2.393396	<s> E t	-0.04162932
-2.229274	<s> E u	-0.2475766
-0.5832988	<s> E v	-0.3339235
-0.8748529	<s> E x	0.0873202
-2.68773	<s> E y	-0.3360256
-0.3688323	B E A	-0.815648
-1.385866	C E </s>
-0.1478016	C E O	0.2078587
-1.385866	C E P	-0.7428705
-1.385866	C E R	-0.8624626
-1.385866	C E S	-0.2369841
-1.067069	D E D	0.01102427
-0.9003112	D E P	-0.5889589
-0.4418547	D E R	-0.2857939
-1.067069	D E S
-0.2719223	E E </s>
-0.3755283	F E D	-0.5339702
-0.6698623	F E R	-0.8468901
-0.1884606	G E </s>
-0.3332147	H E </s>
-0.8226863	H E N	-0.4177373
-0.7150327	H E R	-0.1292888
-0.4894716	I E D	-0.1033053
-0.9505631	I E F	-0.3833722
-0.4894716	I E S	0.05737472
-0.4103094	K E </s>
-0.4103094	K E R	-2.442658
-0.9827478	L E A
-0.4140027	L E D	0.1754463
-0.8159903	L E S	-0.2369841
-0.6102973	M E </s>
-1.179042	M E N	-0.4672709
-0.3881802	M E R	-0.4368923
-1.179042	M E T	-0.4927449
-0.9827478	N E R
-0.5216563	N E W	-0.107461
-0.8159903	N E Y	-0.3360256
-0.09017663	P E R	-0.2267314
-0.9543774	R E </s>
-0.7554738	R E A	-0.2337641
-0.9195963	R E C	-0.06439169
-0.8119427	R E D	0.1754463
-1.21393	R E G	-0.004884912
-1.21393	R E I	-0.5457325
-1.380688	R E N
-1.380688	R E S
-0.4155257	S E </s>
-0.6144294	S E T	-0.3216672
-0.5606673	T E </s>
-0.9775883	T E D	0.007461259
-0.60206	T E R	-0.3188296
-0.5606673	T E S	-0.4004146
-0.6817178	V E D	0.01102427
-0.5149603	V E S	-0.2369841
-2.4626	<s> F </s>
-2.354946	<s> F A	-0.04575317
-2.298477	<s> F E	-0.08856347
-2.087071	<s> F O	0.04139268
-1.70686	<s> F R	0
-2.4626	<s> F T	-0.2409782
-2.756933	<s> F U	-0.3360256
-1.29468	<s> F a	-0.02873191
-1.316219	<s> F e	-0.1031595
-0.9503506	<s> F i	-0.01242919
-1.689131	<s> F l	-0.0810718
-0.2918866	<s> F o	-0.004388923
-0.8540751	<s> F r	0
-1.178586	<s> F u	-0.1087924
-0.9486159	C F A	-0.7601298
-0.07463362	C F C	0
-0.4386798	E F S	-0.01402289
-0.3688323	F F E	-0.7734598
-0.5355898	I F </s>
-0.3688323	I F I	-0.5889589
-0.01236939	M F </s>
-0.04602592	N F </s>
-0.3470559	O F </s>
-0.4547095	O F F	-0.0768434
-0.3297708	P F '	0.2187515
-0.6241048	P F </s>
-2.209386	<s> G </s>
-1.422997	<s> G D	0.2064749
-2.778131	<s> G E
-1.526538	<s> G N	-0.446087
-2.778131	<s> G P	-0.01402289
-2.351821	<s> G R	-0.2143613
-1.640481	<s> G a	-0.1037542
-0.7187949	<s> G e	-0.3384247
-2.778131	<s> G h	-0.01402289
-1.385209	<s> G i	-0.096991
-1.711063	<s> G l	0
-0.2912039	<s> G o	-0.06706679
-1.007013	<s> G r	-0.009001915
-1.579784	<s> G u	-0.04162927
-0.313741	A G E
-0.313741	E G U	-0.01402289
-0.5149603	I G H	-0.09689718
-0.5149603	I G N	-0.8446921
-0.4929155	N G </s>
-0.2167091	N G O	0.5735292
-2.343244	<s> H </s>
-2.060698	<s> H D	0
-2.042214	<s> H I	-0.4052439
-3.092288	<s> H O
-3.092288	<s> H R	-0.6865512
-3.092288	<s> H U
-1.329004	<s> H a	-0.2836403
-0.193256	<s> H e	-0.00270116
-1.024486	<s> H i	-0.08242497
-3.259045	<s> H m	-0.01402289
-0.7429978	<s> H o	-0.2063826
-2.060698	<s> H u	-0.03801864
-3.092288	<s> H y	-0.004884912
-0.6817178	C H </s>
-0.6817178	C H E
-0.5149603	C H I	-0.2703617
-0.4386798	G H E	-0.4870549
-0.614771	S H A
-0.614771	S H O
-0.1760913	T H E	-0.2432537
-1.267984	T H Q	-0.01402289
-1.267984	T H R
-0.1376497	U H </s>
-0.416921	W H E	-0.6235728
-0.4517021	W H O	-2.404739
-0.8780124	W H Y	-0.2913599
-0.313741	' I d	-0.5019812
-3.778563	<s> I '
-0.2038225	<s> I </s>
-3.778563	<s> I E	-0.7079168
-3.94532	<s> I F	-0.4304741
-3.484229	<s> I I	-0.1686254
-3.778563	<s> I L	-0.7079259
-3.51901	<s> I M	-0.3786996
-3.154458	<s> I N	-0.410911
-3.778563	<s> I Q	-0.3360256
-3.94532	<s> I R	-0.478708
-3.20561	<s> I S	-0.69897
-3.029519	<s> I T	-0.6782148
-3.067308	<s> I d	-0.09721553
-1.333454	<s> I f	0
-3.51901	<s> I l	-0.002957628
-2.552398	<s> I m	0.1381983
-0.789386	<s> I n	-0.225115
-2.90458	<s> I r	-0.2050247
-1.816444	<s> I s	0.009425705
-0.8524638	<s> I t	-0.1756101
-3.778563	<s> I v	-0.004884912
-0.0342141	A I D	-0.9754642
-1.489406	A I N	-0.8434554
-0.1376497	B I L	-0.392294
-0.2730013	C I A	-0.3432805
-1.012711	C I O	-0.5080468
-1.012711	C I P
-0.8459536	C I T	-0.2278645
-0.8459536	D I </s>
-1.012711	D I A
-1.012711	D I N	-0.4116359
-0.5516195	D I S	-0.5786037
-1.012711	D I T	-0.5143394
-0.2719223	E I G	-0.7196218
-0.3133994	F I C	-0.3358661
-0.7397097	F I T	-0.1443118
-1.283778	H I </s>
-1.283778	H I G	-0.4217001
-1.283778	H I L	-0.5238342
-0.1684044	H I V	-0.4357286
-0.1536795	I I </s>
-0.1469836	J I A	-0.7236477
-0.711255	L I B	-0.3360256
-0.8780124	L I E
-0.8780124	L I N
-0.6698623	M I N	-0.2590587
-0.8366197	M I P
-0.8366197	M I S
-0.8366197	M I T
-0.4386798	N I E	-0.409995
-0.4386798	P I </s>
-0.8252828	R I </s>
-0.8252828	R I C	-0.3944446
-1.084836	R I E	-0.2419507
-0.6263791	R I M	-0.6121589
-1.084836	R I N	-0.1251609
-0.5149603	S I T	-0.4422336
-0.9920816	T I F	-0.6355646
-1.158839	T I N	-0.4116359
-0.5336251	T I O	-0.8004186
-1.158839	T I V	-0.5356266
-0.4894907	V I C	-2.453882
-0.7490435	V I P	-0.04794082
-0.313741	W I L	-0.392294
-0.313741	Z I N	-0.4116359
-0.1376497	b I D	-0.5457079
-0.1376497	g I D	-0.5457079
-1.740631	<s> J </s>
-2.309376	<s> J A
-1.883066	<s> J U	-0.002957628
-1.111029	<s> J a	-0.05243166
-1.194003	<s> J e	-0.04483454
-1.358813	<s> J i	-0.06947322
-0.6339074	<s> J o	-0.03759825
-2.142619	<s> J r	-0.3360256
-0.2768568	<s> J u	-0.1610958
-0.1376497	C J P	-0.2913599
-0.3688323	D J I	-0.3360256
-0.1376497	S J </s>
-0.1376497	T J </s>
-1.734247	<s> K </s>
-0.9945371	<s> K a	-0.1145003
-0.7836837	<s> K e	0.01280298
-1.734247	<s> K h	-0.01402289
-0.353559	<s> K i	-0.3360261
-0.9433846	<s> K n	0
-1.165502	<s> K o	-0.02110394
-1.734247	<s> K u
-0.1092794	A K E	-0.2429648
-0.2554075	N K </s>
-0.5149603	N K E	-0.6641682
-0.01523997	O K </s>
-0.4386798	& L </s>
-0.4386798	& L s	-0.01402289
-0.01236939	- L R	-1.023169
-1.957248	<s> L </s>
-1.957248	<s> L A	-0.4734563
-2.071744	<s> L B	-0.3339243
-2.235866	<s> L I	-0.2253486
-2.128213	<s> L O	-0.05406018
-0.860338	<s> L a	0.002435178
-0.5680819	<s> L e	-0.02447901
-0.5614849	<s> L i	0.07902855
-0.6197888	<s> L o	-0.1738555
-2.270647	<s> L t	-1.023169
-1.781157	<s> L u	0.0150672
-2.696958	<s> L y
-0.3273589	A L </s>
-1.368099	A L I
-1.368099	A L K
-0.7428847	A L L	0.001336105
-0.9417883	A L S	-1.577183
-0.313741	B L O
-0.4894907	I L </s>
-0.915801	I L D
-0.4547095	I L L	-0.3189531
-0.2762064	L L </s>
-0.6407583	L L A	-2.451134
-1.067069	L L S	0.4175512
-0.01236939	N L Y	-1.922035
-0.8780124	O L D
-0.8780124	O L E	-0.3685792
-0.416921	O L L	-0.5816005
-0.1376497	T L E	-0.3685792
-0.5355898	U L A
-0.5355898	U L E	-0.5080468
-0.313741	& M s	-0.5745991
-0.1376497	* M a
-0.2719223	- M i	-0.8664639
-2.245253	<s> M </s>
-2.899535	<s> M A	-0.02629492
-3.193869	<s> M B	-0.8104419
-2.899535	<s> M E	-0.1219339
-2.791881	<s> M I	-0.01793394
-2.620916	<s> M O	-0.3167277
-2.791881	<s> M P	-0.2854337
-3.193869	<s> M R	-0.6865512
-2.934316	<s> M S	-2.300701
-3.360626	<s> M T	-0.4592572
-3.360626	<s> M U
-3.193869	<s> M V	-0.3360256
-0.9187014	<s> M a	-0.135417
-3.193869	<s> M c
-1.288478	<s> M e	0.001220951
-2.899535	<s> M h	0.2187515
-0.9028302	<s> M i	0.05939811
-1.038285	<s> M o	-0.08546871
-0.2992145	<s> M r	-0.01402253
-1.498701	<s> M s	-1.036301
-1.921946	<s> M u	-0.03374109
-1.374787	<s> M y	-0.01402297
-0.711255	A M </s>
-0.711255	A M T	-0.4245704
-0.711255	A M s	-0.83916
-0.7397097	E M </s>
-0.5729523	E M R	-0.6865512
-0.381818	I M E	-0.7228707
-0.7838057	I M F	0.6736439
-0.1129727	M M E	-0.6166187
-0.1870866	O M </s>
-0.8134658	O M M	-0.2050247
-1.012369	O M P	-0.3628665
-1.43868	O M s	-0.5412382
-1.146984	R M </s>
-1.313741	R M A
-0.1153934	R M B	-0.5509074
-1.313741	R M E	-0.351561
-0.6698623	S M S	-0.6323376
-0.4103094	S M s	-2.535973
-0.01236939	' N i	-2.504436
-2.954222	<s> N .	-0.01402289
-2.493131	<s> N </s>
-2.787465	<s> N A	-0.2651491
-2.493131	<s> N E	-0.4281764
-1.887154	<s> N G	-0.8495072
-2.117603	<s> N O	-0.2839966
-1.971475	<s> N T	-0.3885409
-1.339451	<s> N a	-0.04816709
-0.8253466	<s> N e	0.01345674
-1.77518	<s> N i	-0.1881015
-0.1394222	<s> N o	0.05547087
-1.838849	<s> N u	-0.0143645
-0.8806585	A N </s>
-0.9883121	A N C	-0.4053667
-0.4988405	A N D	-0.0591198
-1.449404	A N E
-1.449404	A N I	-0.3833722
-0.8806585	A N K	-0.02127999
-1.023093	A N S	-1.972715
-0.04575749	C N N	0.0413927
-0.1383027	D N A	-0.7138191
-0.6102973	D N F	0.1524935
-0.4983236	E N </s>
-1.067069	E N E
-1.067069	E N S
-0.6407583	E N T	-0.001258174
-1.13226	G N </s>
-0.04742465	G N P	0
-0.8226863	I N </s>
-1.283778	I N A
-0.4929155	I N G	-0.40638
-1.11702	I N O	-0.2155062
-1.11702	I N S	-0.2759021
-1.11702	I N T	-0.8458432
-0.04139268	N N </s>
-0.4771213	O N </s>
-1.267984	O N A	-0.5376551
-1.101226	O N E	-0.8059686
-1.267984	O N G	-0.4116359
-0.8416731	O N L	-1.023169
-1.267984	O N S
-1.267984	O N V	-0.03810377
-0.614771	S N </s>
-0.4480135	S N B	0.6736439
-0.8159903	U N D	-0.7543213
-0.3575338	U N T	-0.6467304
-0.8159903	U N Y	-0.07560726
-0.1376497	: O t	-0.5726209
-1.895906	<s> O </s>
-2.936646	<s> O B	-0.01402289
-2.100026	<s> O F	-2.272202
-1.652868	<s> O K	0
-2.936646	<s> O L	-0.5183447
-2.311431	<s> O N	-0.952688
-2.196936	<s> O T	-0.7781513
-2.936646	<s> O U	-0.4497538
-1.738298	<s> O b	0.2009571
-2.311431	<s> O c	0.1381982
-2.196936	<s> O d	0
-0.812224	<s> O f	0.2187518
-1.236703	<s> O h	0
-1.895906	<s> O i	0
-1.497966	<s> O k	0
-1.895906	<s> O l	-0.002957645
-2.936646	<s> O m	-0.01402289
-0.4947207	<s> O n	0
-1.668662	<s> O p	-0.4125863
-1.280482	<s> O r	0
-1.175746	<s> O t	-0.2959505
-0.9508066	<s> O u	0
-1.219212	<s> O v	0
-2.769888	<s> O w	-0.004884912
-0.4894716	B O </s>
-0.7838057	B O R	-0.6860766
-0.7838057	B O T	-0.05948217
-0.9505631	B O s	0.834933
-1.188376	C O A	-0.3360256
-1.188376	C O C	-0.7840698
-0.4771213	C O M	-1.306916
-1.188376	C O N	-0.2694781
-0.7863886	C O U	-0.6514289
-1.188376	C O e	-0.3360256
-0.2554075	D O L	-2.365134
-0.07684003	E O </s>
-0.8360764	E O s	0.5698753
-0.08715018	F O R	-0.4505306
-0.6655819	G O </s>
-0.1091445	G O s	0.2388821
-0.4894907	H O </s>
-0.915801	H O L	-0.5183447
-0.1918855	I O N	-0.1582704
-0.8159903	I O U	-0.1632788
-0.8366197	L O S	-0.2910372
-0.8366197	L O T
-0.3755283	M O N	-0.283402
-0.6698623	M O R	-0.2005799
-0.7838057	N O R
-0.2108534	N O T	-0.5241706
-0.4894907	P O S	-0.3216672
-0.4547095	P O W	-0.0478754
-0.7403627	R O </s>
-1.008237	R O C	-0.2059778
-1.410225	R O D	-0.6865512
-0.2779647	R O M	-0.7751927
-1.576982	R O V
-1.576982	R O s	0.834933
-0.3688323	S O Y	-0.5457325
-0.7397097	T O </s>
-0.5729523	T O R
-0.1376497	W O R
-0.1092794	- P r	-2.051485
-2.698368	<s> P </s>
-2.146748	<s> P A	-0.6768243
-3.159459	<s> P D	-0.2913599
-2.992702	<s> P E	0.4334334
-2.534245	<s> P O	-0.1382765
-2.09239	<s> P R	-0.3458307
-1.192505	<s> P a	-0.1357205
-1.026174	<s> P e	-0.04612405
-2.00062	<s> P h	-0.04716846
-2.00062	<s> P i	-0.08905141
-1.559411	<s> P l	0
-1.110652	<s> P o	-0.06997208
-0.1754722	<s> P r	-0.3327147
-2.146748	<s> P s	-0.60206
-1.817689	<s> P u	-0.0730249
-1.012285	A P </s>
-0.3881802	A P E	-0.2272438
-0.4393327	A P F	-0.1411563
-0.416921	C P A	-0.6240308
-0.416921	C P U	-0.3365037
-0.01579427	D P </s>
-0.3133994	E P O	-0.2867226
-0.5729523	E P T	-0.6865512
-0.1376497	G P S	0.9715657
-0.3645519	I P </s>
-0.7908623	I P s	-0.4773419
-0.313741	J P T	-0.4592572
-0.4517021	M P 3	-1.023169
-0.711255	M P A	-0.8076231
-0.01639042	N P </s>
-0.5355898	O P P	-0.3833722
-0.4386798	P P E	0.1469584
-0.4480135	S P s	-0.7752637
-0.1469836	T P </s>
-0.313741	U P </s>
-0.1376497	r P p	-0.01402289
-1.499378	<s> Q Q	-0.01402289
-1.33262	<s> Q a	-0.004884912
-0.06069784	<s> Q u	-0.9200273
-0.1376497	H Q U	-0.3833722
-0.1469836	I Q </s>
-0.1376497	Q Q </s>
-0.1376497	l Q u	-0.5647098
-0.08715018	- R R	0
-0.1469836	. R .	-0.3360256
-2.016616	<s> R &	0
-2.113526	<s> R </s>
-1.840524	<s> R A	-0.8998848
-1.812496	<s> R E	-0.3315428
-2.392144	<s> R I	-0.2489018
-1.654888	<s> R M	-0.748188
-2.016616	<s> R O	-0.1571782
-2.686478	<s> R T	-0.2521074
-2.853235	<s> R U	-0.5116643
-1.253188	<s> R a	-0.02813373
-0.2738904	<s> R e	-0.09561084
-0.5901043	<s> R i	-0.09618659
-1.425551	<s> R o	-0.2162926
-2.853235	<s> R s	0.2223145
-1.601642	<s> R u	-0.05434566
-0.8646182	A R </s>
-1.489832	A R I
-0.2552725	A R S	0.2082759
-1.028741	A R T	-0.1983482
-0.313741	B R I	-0.5427622
-0.4517021	C R </s>
-0.8780124	C R s	0.2223145
-0.1536795	D R A	-0.5261681
-0.6092386	E R </s>
-1.053205	E R A	-0.3405561
-1.455192	E R B	-0.815648
-1.053205	E R C	-0.2050247
-1.160858	E R E	-0.599737
-0.5812098	E R S	0.4191293
-1.455192	E R T	-0.815648
-0.01848341	F R O	-1.054822
-0.3688323	G R A	-0.8497475
-0.4480135	H R </s>
-0.6817178	I R A
-0.01236939	L R B	0.1453012
-0.4480135	M R </s>
-0.4480135	M R I	-0.8076231
-0.447158	O R </s>
-0.7150327	O R E	-0.4120304
-1.283778	O R I
-1.11702	O R M	-0.2719478
-0.8574674	O R T
-0.9251348	P R </s>
-1.091892	P R E	-0.5243561
-0.3521825	P R I	-0.4849342
-0.6308008	P R O	-0.1400293
-0.04575749	R R B	-0.39794
-0.2218488	T R O	-1.25675
-0.5124357	T R U	-0.152644
-0.5149603	U R O	-0.8607377
-0.6817178	U R Y	-0.03810377
-0.07449828	' S </s>
-0.2719223	- S a	-0.2758008
-0.05115252	. S .	-0.2651327
-2.863515	<s> S &	-0.04162932
-2.283866	<s> S </s>
-2.090046	<s> S A	-0.348722
-3.324606	<s> S D	-0.2913599
-2.699392	<s> S E	-0.1559295
-3.157849	<s> S H	-0.1727823
-3.324606	<s> S I
-2.755861	<s> S M	-0.1425103
-3.157849	<s> S O	-0.6355646
-2.755861	<s> S S	-0.2854337
-2.898296	<s> S T	-0.4862508
-2.699392	<s> S U	-0.4475604
-1.514858	<s> S a	-0.1753161
-1.885926	<s> S c	-0.08626674
-0.7744958	<s> S e	-0.09649274
-0.83574	<s> S h	-0.06522363
-1.216145	<s> S i	-0.1082359
-2.755861	<s> S k	-0.09699106
-2.533744	<s> S l	-0.02776865
-2.165767	<s> S m	-0.01402296
-2.584896	<s> S n	-0.1466783
-0.4272885	<s> S o	-0.2216413
-1.563707	<s> S p	-0.01131632
-1.0362	<s> S t	0.001533138
-1.377397	<s> S u	-0.1081945
-2.898296	<s> S w	-0.1245291
-2.699392	<s> S y	-0.008637143
-0.1376497	? S u	-0.5617702
-0.8780124	A S </s>
-0.416921	A S S	-0.2253486
-1.526816	B S .
-0.03698356	B S </s>
-1.526816	B S V	-0.01402289
-0.00643411	D S </s>
-0.1127043	E S </s>
-0.9195963	E S P	-0.1278299
-0.1376497	F S </s>
-0.3521825	I S </s>
-0.6308008	I S C	-0.0768434
-1.091892	I S U
-0.1376497	K S </s>
-0.04602592	L S </s>
-0.3645519	M S </s>
-0.3297708	M S N	-0.1278299
-0.1249387	N S </s>
-0.3133994	O S </s>
-0.5729523	O S I	-0.7196218
-0.01236939	P S </s>
-0.01046543	R S </s>
-0.711255	S S E	-0.7570694
-0.4517021	S S M	-2.360981
-0.04139268	T S </s>
-0.7113394	U S $	-1.023169
-0.9708923	U S </s>
-0.3467875	U S T	-0.1854088
-0.5355898	W S </s>
-0.5355898	W S J	-0.01402289
-0.1376497	_ S </s>
-3.254646	<s> T .	0.1101262
-2.731499	<s> T </s>
-3.656634	<s> T A	-0.1058191
-3.656634	<s> T E
-2.664552	<s> T H	-0.2211321
-3.397081	<s> T O	-0.1123304
-2.756323	<s> T R	0.1650098
-1.828409	<s> T V	0.07208564
-1.961466	<s> T a	-0.1155817
-2.042289	<s> T e	0.009938991
-0.04041774	<s> T h	3.886329e-05
-2.468258	<s> T i	0.04021944
-1.549021	<s> T o	-0.05139671
-1.965582	<s> T r	-0.4653041
-2.731499	<s> T u	0.04445661
-3.254646	<s> T w	-0.09699106
-2.945379	<s> T y	0
-1.34177	A T </s>
-0.1829307	A T E	-0.975432
-0.7730246	A T I	-0.2652418
-1.34177	A T T	-0.4592572
-0.1469836	B T W	-0.3360256
-0.6698623	C T I
-0.8366197	C T O	-0.4449487
-0.8366197	C T S	0.4613523
-0.8366197	C T V	0.5712273
-0.01930515	D T V	0.4871845
-0.7397097	E T </s>
-0.7397097	E T A	-0.392294
-0.5729523	E T S	0.1634306
-0.1884606	F T </s>
-0.1983677	I T </s>
-0.8526495	I T I
-0.1884606	M T </s>
-0.614771	M T P	-0.03810377
-0.4357286	N T $	0
-0.4357286	N T </s>
-1.146984	N T E	-0.7530234
-1.313741	N T S	0.4613523
-0.3802112	O T </s>
-0.4771213	O T C	0.04575749
-0.614771	P T </s>
-0.4480135	P T A	-0.7927177
-0.6144294	R T H	-0.02623595
-0.8739823	R T I	-0.8313158
-1.04074	R T J	-0.01402289
-0.5516195	S T </s>
-1.012711	S T A
-0.5864006	S T E	-0.1513052
-1.012711	S T R	-0.4205848
-0.614771	T T E
-0.614771	T T L	-0.01402289
-0.2554075	U T </s>
-0.6817178	U T E	-0.4551016
-0.02227639	Z T </s>
-0.05115252	e T i	-0.6097468
-2.202188	<s> U .	-0.3339243
-1.911601	<s> U </s>
-2.660645	<s> U P	-0.004884912
-2.202188	<s> U S	-0.2725661
-0.2600004	<s> U h	0
-1.026995	<s> U m	0
-0.6271707	<s> U n	-0.05948982
-1.328025	<s> U p	0
-2.03654	<s> U r	-0.1481958
-1.610572	<s> U s	-0.5583343
-2.827402	<s> U t	-0.01402289
-2.827402	<s> U y	-0.01402289
-0.1469836	B U T	-0.5259482
-0.2719223	C U N	-0.8059686
-0.2719223	E U R	-0.7196218
-0.1469836	F U N	-0.8059686
-0.1376497	G U L	-0.4304741
-0.4386798	J U R	-0.478708
-1.012711	O U </s>
-0.4439659	O U N	-0.5940596
-0.5864006	O U S	-0.2265107
-0.4480135	P U </s>
-0.614771	P U s	-0.5125201
-0.4386798	Q U A	-0.4304741
-0.8366197	R U L	-0.4304741
-0.4103094	R U S	-2.315138
-0.2221172	S U V	-0.3575384
-1.026598	<s> V </s>
-1.402261	<s> V C	-0.3384232
-1.516757	<s> V I	-0.0762791
-1.12926	<s> V a	-0.1283927
-0.8581933	<s> V e	-0.003684477
-0.288318	<s> V i	0.1512176
-1.004321	<s> V o	-0.01402297
-0.1376497	A V </s>
-0.02632894	D V D	-0.3360256
-0.06366908	I V </s>
-1.012285	I V E	-0.1352251
-0.1469836	M V </s>
-0.1469836	N V I	-0.1235292
-0.313741	O V E
-0.1376497	S V i	-0.5540999
-0.03179184	T V </s>
-1.189056	T V s	0.03476212
-0.1709647	U V </s>
-3.276888	<s> W A
-2.565633	<s> W H	0.1055441
-3.276888	<s> W I	-0.004884912
-3.443646	<s> W O	-0.01402289
-3.276888	<s> W S	-0.1439991
-1.489755	<s> W a	-0.2538792
-0.3112389	<s> W e	0.01823941
-0.4516898	<s> W h	0.0002996186
-1.076826	<s> W i	-0.002957576
-1.486452	<s> W o	-0.006240439
-2.565633	<s> W r	0
-0.3688323	A W </s>
-0.2554075	E W </s>
-0.6817178	E W S	-0.4304741
-0.2786183	O W </s>
-0.5729523	O W s	-0.3360256
-0.1469836	T W </s>
-0.313741	e W a	-0.5752932
-0.1918855	<s> X -	0
-0.8159903	<s> X </s>
-0.01236939	A X </s>
-0.313741	E X P
-2.912532	<s> Y </s>
-2.745774	<s> Y a	-0.004884912
-0.5244617	<s> Y e	-0.001653213
-2.172822	<s> Y i	-0.1145003
-0.1642216	<s> Y o	-0.07599236
-2.745774	<s> Y u
-0.4386798	A Y </s>
-0.01236939	D Y </s>
-0.1469836	E Y </s>
-0.313741	H Y </s>
-0.1092794	L Y </s>
-0.07449828	N Y </s>
-0.2719223	O Y B	-0.3360256
-0.1469836	R Y </s>
-0.1376497	T Y </s>
-1.299018	<s> Z </s>
-0.7302727	<s> Z T	0.455932
-0.7302727	<s> Z h	-0.09699106
-0.462398	<s> Z o	0
-0.03218468	A Z T	0.154902
-0.313741	I Z I	-0.2913599
-0.01378828	<s> [ </s>
-0.1469836	* \ *	-0.4638712
-0.0565038	<s> \ *	-0.4688026
-0.006839424	<s> ] </s>
-0.313741	∂ ] </s>
-0.1376497	, ^ </s>
-0.5355898	<s> ^ ,	-0.01402289
-0.3688323	<s> ^ _	-0.3360256
-0.1469836	_ ^ </s>
-0.4386798	0 _ 3
-0.5355898	1 _ A	0.4613523
-0.313741	2 _ A	0.4613523
-0.4386798	5 _ A	0.4613523
-0.4386798	6 _ B	0.333612
-0.614771	8 _ A	0.4613523
-0.3688323	<s> _ _	0.4083446
-0.1376497	E _ S	-0.01402289
-0.1469836	^ _ ^	-0.3360256
-1.43329	_ _ </s>
-0.0230653	_ _ _	-0.3129604
-0.4386798	a _ a	-0.5033572
-0.4386798	a _ f	-0.01402289
-0.1376497	i _ a	-0.5033572
-0.4103094	l _ a	-2.300701
-0.2678747	l _ s	-0.3463059
-0.1376497	m _ s	-0.5033572
-0.5355898	t _ p	-0.01402289
-1.794342	<s> ` </s>
-0.007194802	<s> ` `	0
-0.0001648489	` ` </s>
-0.007061854	% a h	-0.8619047
-0.8366197	' a l	-0.4381761
-0.09691001	' a m	-0.6863978
-0.614771	* a i
-0.614771	* a n	-0.2833804
-0.614771	* a r	-0.559545
-0.552842	- a b	-0.9488171
-0.69897	- a c	-1.063486
-1.074498	- a d	-0.6898065
-1.53559	- a g
-1.53559	- a l	-0.5800192
-1.368832	- a p	-0.8504369
-0.7447275	- a u	-0.9085547
-0.2284793	. a l	-0.5116506
-0.6102973	. a r	-0.8329205
-1.179042	. a s	-0.5781835
-0.6817178	/ a l	-0.5337007
-0.6817178	/ a r	-0.5712728
-0.6817178	/ a w	-0.5686204
-3.869652	<s> a -	-0.4340866
-4.324362	<s> a .	-0.4509294
-0.6926209	<s> a </s>
-1.441787	<s> a b	-1.012919
-1.457192	<s> a c	-2.029292
-1.618217	<s> a d	-2.580954
-3.33605	<s> a e	-1.320707
-1.763008	<s> a f	-1.97934
-1.615185	<s> a g	-1.762483
-2.514264	<s> a h	-0.8010018
-2.113143	<s> a i	-2.508341
-4.216708	<s> a k	-0.7888486
-1.183016	<s> a l	-2.177564
-1.891548	<s> a m	-1.469436
-0.4856573	<s> a n	-2.652811
-1.751002	<s> a p	-2.095736
-3.994591	<s> a q	-0.7602397
-1.088975	<s> a r	-3.010792
-1.164644	<s> a s	-2.765725
-1.236942	<s> a t	-2.898994
-2.146744	<s> a u	-1.779103
-2.315365	<s> a v	-0.8993098
-2.233666	<s> a w	-1.592141
-4.359143	<s> a x	-0.1554489
-4.785453	<s> a y
-0.1376497	@ a a	-0.5671993
-0.1376497	A a a
-0.2930611	B a c	-1.653109
-1.408952	B a d	-0.6745009
-1.443733	B a l	-0.3148945
-0.9542425	B a n	-0.6198387
-1.301298	B a r	-0.2686613
-0.7546701	B a s	-0.943799
-1.870044	B a t
-1.479332	C a </s>
-0.9277124	C a l	-1.062256
-1.149561	C a m	-0.5020754
-0.5723248	C a n	-0.5749804
-0.6724399	C a p	-3.299423
-0.7815844	C a r	-0.3350824
-1.479332	C a s	-0.2783051
-1.371678	C a t	-0.4799027
-1.940423	C a u
-0.4259687	D a d	-1.493996
-1.41805	D a f	-0.1398549
-1.41805	D a l	-0.2906467
-1.41805	D a n	-0.2154305
-1.123716	D a r	-0.1426814
-0.7067953	D a t	-0.9546509
-1.41805	D a v	-0.8410608
-1.123716	D a y	-0.3168072
-0.3612172	E a c	-1.515212
-0.4980552	E a r	-3.382265
-0.69897	E a s	-1.190539
-1.766039	E a t
-1.766039	E a v	0.2042834
-0.6163004	F a c	-0.9231811
-1.060266	F a i	-0.3657233
-1.003797	F a m	-0.3854527
-0.750999	F a r	-0.5497909
-1.16792	F a s	-0.1422164
-0.7923917	F a t	-0.4586332
-1.629011	F a x	-0.2519307
-1.13765	G a i
-1.13765	G a l
-0.7113394	G a m	-0.1859631
-0.9708923	G a r	-0.2730701
-0.5689046	G a s	-0.01025582
-1.017729	H a </s>
-1.09691	H a d	-0.8121049
-1.766772	H a h	0.6369216
-1.507219	H a l	-0.4553603
-1.364785	H a n	-0.1682967
-1.308316	H a p	-0.9768475
-1.017729	H a r	-1.047135
-1.142668	H a s	-0.54888
-0.326058	H a v	-0.6964748
-0.4586379	J a c	-0.6631751
-1.198348	J a d	-0.4711947
-0.5731336	J a n	-0.7669631
-1.198348	J a p	-0.5525151
-1.198348	J a s
-0.1709647	K a r	-0.3354534
-1.83662	L a c	-0.4849616
-1.09691	L a d	-1.115324
-1.375528	L a m	-0.3457937
-1.669862	L a n	-0.5813021
-1.045758	L a r	-0.9757872
-0.8538719	L a s	-1.136182
-0.79588	L a t	-1.143707
-1.09691	L a u	-0.4023273
-0.5086383	L a w	-0.8276715
-2.278388	M a '	0.1196294
-2.445146	M a </s>
-2.278388	M a c	-0.2895397
-1.567133	M a d	-1.318755
-1.819932	M a g	-0.755031
-1.462398	M a i	-0.7952889
-1.117164	M a j	0.4732836
-1.404406	M a k	-0.1615325
-1.984054	M a l	-0.6782804
-1.984054	M a m	-0.5571421
-0.4382643	M a n	-1.970503
-1.131405	M a r	-0.7775627
-1.404406	M a s	-0.6567432
-1.876401	M a t	-0.2047035
-0.5832202	M a y	-1.616627
-1.046026	N a m	-0.6643046
-0.7367586	N a s	-1.041219
-0.2596373	N a t	-1.390607
-1.188461	N a v	-0.4460698
-1.966954	P a </s>
-1.398208	P a c	-0.1165334
-1.966954	P a i	-0.3748716
-0.69897	P a l	-1.443434
-1.800196	P a n
-1.398208	P a p	-0.7905092
-1.800196	P a q	-0.6382018
-0.3594818	P a r	-1.334637
-1.01639	P a s	-0.6007964
-1.505862	P a t	-0.2654462
-1.398208	P a y	0.1305501
-0.313741	Q a e	-0.5462049
-1.600048	R a c	-0.5650688
-1.43329	R a d	-0.838181
-0.8091855	R a i	-0.5595995
-0.2071255	R a t	-0.8486964
-1.600048	R a w	-0.3717275
-1.397081	S a d	-0.4294716
-1.823391	S a f	-0.5424687
-1.198177	S a g	-1.238409
-1.3623	S a i	-0.1792429
-0.9453791	S a l	-0.7242731
-1.254646	S a m	-0.6643046
-1.656634	S a n	0.003094614
-1.656634	S a r	-0.2833829
-1.254646	S a t	-0.4858701
-1.397081	S a u	-0.4327899
-1.656634	S a v
-0.3847117	S a y	-1.038925
-1.861926	T a b
-1.435615	T a c	-0.4417872
-1.861926	T a g	-0.5740771
-1.071063	T a i	-0.5745386
-0.412522	T a k	-0.6960288
-0.7030866	T a l	-1.286309
-1.293181	T a m	-0.8186368
-1.025306	T a n	-1.077168
-1.861926	T a r
-1.236712	T a x	-0.2302974
-1.012711	V a c	-0.5760146
-0.8459536	V a l	-0.8713969
-1.012711	V a n
-0.2730013	V a r	-0.9337472
-1.963724	W a d	-0.3921452
-1.963724	W a g	-0.232611
-1.127105	W a i	-0.9853636
-0.5038555	W a l	-1.0812
-0.9229848	W a n	-1.18185
-1.172862	W a r	-0.3566431
-0.5589031	W a s	-3.111055
-1.127105	W a t	-2.881471
-1.537414	W a y	-2.197212
-0.313741	Y a n
-0.7908623	_ a l	-0.5771217
-0.7908623	_ a m	-0.5799409
-0.3297708	_ a r	-0.6821923
-1.53559	a a .
-1.53559	a a 1	-0.03810377
-0.3565473	a a a	-0.3249958
-1.53559	a a b	-0.5755044
-0.9103758	a a h	0.5740768
-1.368832	a a l	-0.2906467
-1.53559	a a m
-1.368832	a a r	-0.2730701
-1.53559	a a t
-1.53559	a a w	-0.5796909
-3.529379	b a 9
-3.529379	b a </s>
-1.100582	b a b	-2.113111
-0.6014436	b a c	-1.797933
-1.33865	b a d	-1.940306
-3.362621	b a f	-0.7242516
-1.952396	b a g	-1.202209
-2.904165	b a h	0.2763065
-2.294819	b a i	-1.348045
-2.516668	b a k	-0.3531722
-1.035703	b a l	-1.278474
-3.103068	b a m	-0.443096
-0.7592715	b a n	-1.06677
-3.529379	b a o
-1.253426	b a r	-1.033315
-0.7123009	b a s	-2.494467
-1.082099	b a t	-0.7580109
-2.651366	b a y	-0.3628
-1.612044	c a </s>
-1.972511	c a b	-1.319142
-2.768391	c a c	-1.303159
-2.055181	c a d	-1.319231
-2.869849	c a f	-0.9401519
-3.069421	c a g	-2.683798
-3.19436	c a i	-0.3161677
-3.524131	c a k	-0.06171431
-0.5997221	c a l	-1.855963
-1.226396	c a m	-2.157037
-0.7511841	c a n	-1.852236
-1.2466	c a p	-1.908299
-1.043433	c a r	-1.447857
-1.130735	c a s	-2.441682
-0.9757079	c a t	-1.139157
-0.8705353	c a u	-2.77592
-2.918154	c a v	-0.7790642
-3.985222	c a y	-0.2024776
-1.723803	d a </s>
-1.871604	d a b	-1.360513
-2.263715	d a c	-1.460821
-1.860023	d a d	-1.362742
-2.536716	d a g	-0.2546306
-1.594708	d a i	-1.151571
-1.353446	d a l	-0.8900773
-1.0542	d a m	-1.899205
-0.9096065	d a n	-1.193082
-1.977408	d a p	-1.448303
-2.439806	d a q	-0.7781513
-0.9569326	d a r	-1.667292
-2.235686	d a s	-0.6588882
-0.6682187	d a t	-2.516838
-1.431206	d a u	-1.586648
-3.109668	d a v	-0.8410608
-2.360625	d a w	-1.060562
-0.5612844	d a y	-1.657664
-3.109668	d a z	-0.8581139
-4.184769	e a -	0.06505428
-1.501194	e a </s>
-2.714681	e a b	-0.9353481
-1.15308	e a c	-2.816049
-0.882915	e a d	-1.787121
-3.005726	e a f	0.1757626
-2.279963	e a g	-1.704782
-1.213016	e a h	-2.204964
-1.473667	e a k	0.5231258
-0.9172681	e a l	-2.132177
-1.641431	e a m	-1.396614
-1.267523	e a n	-2.222614
-1.931509	e a p	-1.715135
-0.7569731	e a r	-2.032622
-0.8740785	e a s	-1.826666
-0.9512526	e a t	-1.509822
-1.967938	e a u	-1.627407
-1.642285	e a v	0.4191387
-3.348149	e a w	-0.8536801
-4.184769	e a z
-3.475608	f a </s>
-1.906594	f a b	-1.4964
-0.4969117	f a c	-2.71336
-2.19183	f a d	-0.6747206
-0.8869397	f a i	-2.724964
-2.49286	f a k	-0.6542022
-1.227368	f a l	-1.717371
-0.8234104	f a m	-1.959975
-1.605564	f a n	-1.459522
-0.8725753	f a r	-2.049105
-1.294596	f a s	-2.295154
-1.253382	f a t	-0.4466232
-1.832808	f a u	-1.315259
-1.445864	f a v	-2.178125
-2.597595	f a x	-0.6296064
-3.475608	f a z	-0.5123467
-3.285076	g a -
-2.50127	g a </s>
-3.451833	g a b
-2.384764	g a c	-3.177084
-2.359941	g a d	-0.7912784
-3.451833	g a e	-0.55714
-1.459877	g a g	-1.546336
-0.5371192	g a i	-2.872926
-1.161895	g a l	-1.915755
-1.384764	g a m	-1.426706
-0.7865534	g a n	-1.548631
-1.782704	g a p	-1.244082
-1.123852	g a r	-0.8496052
-1.350396	g a s	-0.605714
-0.7459816	g a t	-2.598627
-2.573821	g a u	-0.7506285
-1.465994	g a v	-1.367965
-2.469085	g a y	-0.7685654
-1.50127	g a z	-1.373533
-3.42581	h a -	-0.5010334
-3.062632	h a </s>
-3.807628	h a a	-0.007246753
-2.713679	h a b	-0.9947794
-3.309304	h a c	-1.13537
-1.232685	h a d	-2.578798
-3.309304	h a e	-0.6720227
-3.950063	h a f	-0.07892724
-3.915282	h a g	-0.1405244
-2.840783	h a h	-0.1506447
-1.849557	h a i	-1.694353
-2.886541	h a k	-0.5697377
-2.019925	h a l	-1.013898
-2.352233	h a m	-1.215598
-1.016527	h a n	-1.260749
-3.284481	h a o	-0.6959975
-1.606266	h a p	-1.753347
-1.276354	h a r	-1.82877
-0.8988746	h a s	-2.889319
-0.3442412	h a t	-2.33325
-2.700904	h a u	-1.256471
-0.825256	h a v	-2.079932
-3.335633	h a w	-0.8036433
-3.915282	h a y	-0.3168072
-3.363662	h a z	-0.8473309
-1.223544	i a </s>
-1.604241	i a b	-1.89633
-2.777427	i a c	-0.5969929
-3.187736	i a d	-0.2688637
-1.971247	i a g	-1.44674
-2.988832	i a i	-1.232319
-0.2283009	i a l	-1.900008
-1.691067	i a m	-1.63672
-1.09982	i a n	-2.32072
-3.187736	i a o	-0.4172091
-3.152955	i a p	-0.5290145
-1.469931	i a r	-3.658279
-1.858349	i a s	-0.7953007
-0.7951556	i a t	-1.637083
-1.56022	j a </s>
-0.6661775	j a c	-1.208269
-2.021311	j a d	-0.4711947
-1.854554	j a g	-0.8667995
-0.4857214	j a i	-1.657675
-2.021311	j a l
-0.9542425	j a m	-0.7797843
-0.9059379	j a r	-0.9273268
-1.854554	j a s
-2.021311	j a u	-0.5593616
-1.070748	j a z	-0.5259097
-1.4843	k a </s>
-1.058331	k a b	-1.482507
-1.4843	k a d	-1.169908
-2.149882	k a f	-0.3030483
-0.722539	k a g	-1.624148
-2.576192	k a h
-2.409435	k a l
-1.836482	k a n	-0.7437819
-2.576192	k a r	-0.559545
-2.576192	k a t	-0.4932985
-2.576192	k a x	-0.4457507
-0.2171281	k a y	-2.144881
-3.927512	l a -
-2.252043	l a </s>
-3.501202	l a a	-0.3997978
-1.593963	l a b	-0.5552301
-1.083999	l a c	-2.361886
-2.069703	l a d	-1.370828
-1.719825	l a g	-1.820565
-2.768673	l a h	-0.2052238
-1.262878	l a i	-1.671863
-2.976949	l a k	-0.9884409
-3.760755	l a l	-0.08253745
-1.828442	l a m	-0.7501217
-0.7598705	l a n	-1.837529
-2.073859	l a p	-1.003739
-3.760755	l a q
-0.8390112	l a r	-2.150088
-1.063135	l a s	-1.517559
-0.6584044	l a t	-1.705591
-1.701727	l a u	-1.682974
-2.467643	l a v	0.5425297
-1.211797	l a w	-2.050152
-2.418795	l a x	-0.4748653
-1.204966	l a y	-0.6377951
-2.789863	l a z	0.08451048
-3.826684	m a '	0.1196294
-3.567131	m a 4	-2.121383
-1.977845	m a </s>
-3.993441	m a a
-2.834602	m a b	-1.3862
-1.709664	m a c	-1.565099
-1.301302	m a d	-1.662824
-1.412529	m a g	-1.637974
-3.993441	m a h	-0.5764698
-1.107216	m a i	-2.132908
-1.487505	m a j	-1.005702
-0.9801517	m a k	-2.490421
-1.195875	m a l	-1.358262
-3.010694	m a m	-0.319882
-0.6017272	m a n	-1.235509
-2.533572	m a p	-1.272919
-0.8884777	m a r	-2.199938
-1.661277	m a s	-1.207618
-0.9064016	m a t	-1.644253
-3.993441	m a u
-3.993441	m a v	0.2042834
-2.612754	m a x	-1.516684
-1.193979	m a y	-2.036742
-2.408634	m a z	-1.130831
-3.322324	n a .	-0.5156925
-2.107947	n a </s>
