
\data\
ngram 1=129
ngram 2=2296
ngram 3=9615
ngram 4=25182
ngram 5=38987
ngram 6=44394

\1-grams:
-4.040566	!	-2.351923
-3.101678	"	-4.335409
-5.019687	#	-1.604813
-3.52947	$	-3.615315
-3.226438	%	-2.828391
-5.002313	&	-0.3897015
-2.338796	'	-2.974057
-3.556678	(	-3.059352
-3.549414	)	-3.066611
-4.29995	*	-0.7180358
-5.278519	+	-0.6545875
-2.038275	,	-4.515965
-2.622421	-	-1.280147
-1.971395	.	-2.958889
-3.88316	/	-0.9664059
-2.813081	0	-2.830214
-2.921856	1	-3.135397
-3.183285	2	-2.811391
-3.328587	3	-2.522888
-3.428622	4	-2.555366
-3.27055	5	-2.808582
-3.461664	6	-2.884567
-3.441305	7	-2.738967
-3.341038	8	-2.419304
-3.170305	9	-2.343328
-3.511226	:	-2.058161
-3.759518	;	-3.681495
-5.329671	<	-0.7801924
-0.7101577	</s>
-99	<s>	-4.722306
-4.883808	=	-1.083005
-5.294909	>	-2.1519
-3.216704	?	-2.419278
-4.746095	@	-0.9788194
-2.866152	A	-1.748649
-3.199606	B	-2.275671
-3.363334	C	-2.214936
-3.420517	D	-1.667151
-3.392237	E	-1.125456
-3.408636	F	-1.721001
-3.601995	G	-1.567137
-3.219503	H	-2.456988
-2.584466	I	-2.738743
-3.820581	J	-1.886613
-4.291582	K	-0.9019397
-3.591287	L	-1.552421
-3.055706	M	-2.137666
-3.374024	N	-1.86649
-3.383547	O	-0.9177566
-3.266463	P	-1.615013
-4.746095	Q	-1.004566
-3.470583	R	-2.019697
-3.000613	S	-1.811072
-2.660859	T	-2.473949
-3.523491	U	-1.801992
-3.967158	V	-2.775572
-3.059672	W	-2.258838
-5.15358	X	-1.180247
-3.571264	Y	-2.399567
-4.714248	Z	-0.8602791
-4.903703	[	-2.236058
-5.709883	\	-1.041371
-4.890339	]	-2.523448
-5.709883	^	-0.7067153
-4.579549	_	-0.6663297
-2.967629	`	-4.17612
-1.221702	a	-3.119711
-1.980305	b	-2.977867
-1.650725	c	-3.133086
-1.546161	d	-2.936386
-1.026929	e	-3.416085
-1.788951	f	-2.571179
-1.809379	g	-2.563656
-1.417988	h	-3.802053
-1.264783	i	-3.483364
-2.986017	j	-3.337786
-2.241757	k	-3.354539
-1.508882	l	-3.475572
-1.74886	m	-2.560877
-1.265107	n	-3.676698
-1.229502	o	-3.177701
-1.803839	p	-2.729948
-3.203513	q	-3.049589
-1.337291	r	-3.320135
-1.299671	s	-3.244532
-1.14367	t	-3.227605
-1.678442	u	-3.331824
-2.088592	v	-4.282377
-1.871267	w	-2.624776
-2.830787	x	-2.649376
-1.837534	y	-2.882953
-3.22887	z	-2.280265
-4.931732	{	-1.595781
-4.924553	}	-1.698234
-4.877374	~	-2.100425
-5.931732	Ä	-0.3708872
-5.232761	É	-1.491359
-6.107823	Ü	-0.887158
-6.709883	à	-0.8310872
-6.709883	â	-0.7369298
-6.408853	ä	-0.7367914
-6.010913	å	-0.8753478
-6.010913	è	-0.7402639
-6.232761	ê	-0.275996
-6.408853	ë	-0.1539545
-6.107823	í	-0.7930008
-6.010913	ñ	-0.8753495
-6.010913	ó	-0.7781508
-6.408853	ô	-0.7284812
-6.709883	ö	-0.7369298
-6.709883	õ	-0.8309224
-6.010913	†	-0.406438
-6.709883	°	-0.7369298
-6.408853	•	-0.7365758
-6.709883	≤	-0.8264238
-6.232761	∂	-0.8395379
-5.806793	∑	-0.860085
-6.709883	∏	-0.8310868
-5.232761	ª	-1.397204
-6.010913	º	-0.5024603
-6.408853	ø	-0.2481119
-5.806793	¬	-0.9542418
-5.66849	√	-1.098535
-6.709883	À	-0.8310872
-6.709883	Ÿ	-0.8310871
-5.533792	‚	-1.35247
-5.178404	„	-1.816574
-6.709883	‰	-0.8310872
-5.864785	Ô	-0.7921795

\2-grams:
-0.7885033	! !	0.6002689
-2.729589	! *	-0.2907862
-2.127573	! .	0.9160353
-0.09412903	! </s>
-1.715074	! ?	1.463861
-0.0001070614	" </s>
-3.677531	" m
-0.008773924	# </s>
-3.249739	$ 6
-0.009857574	$ </s>
-1.976293	$ >	0.1845244
-1.976293	$ B	-1.221368
-3.249739	$ W
-3.543717	% -
-3.552771	% 9
-0.2479162	% </s>
-3.552771	% B
-3.552771	% E
-1.691053	% a	-1.789756
-1.538962	% e	-1.943718
-1.293113	% h	-2.09781
-1.712593	% m	-1.767221
-3.552771	% o
-2.941701	% p	-0.6988676
-0.505721	% u	-2.950907
-0.5936268	& </s>
-1.776897	& B
-0.7533277	& D	-0.9666297
-1.776897	& I
-1.165827	& L	-0.4425919
-1.298328	& M	-0.2359764
-1.767843	& P
-1.776897	& a
-1.776897	& c
-1.767843	& e	-0.4522811
-1.767843	& i	-0.3146116
-1.165827	& o	-0.1268324
-1.165827	& p	-0.3859944
-1.776897	& r
-1.767843	& t
-1.776897	& u
-0.934129	' '	-3.367899
-4.431359	' 0	-0.45264
-4.440413	' 4
-4.440413	' 5
-3.829343	' 6	-0.2420242
-4.431359	' 7	-0.4018235
-3.672116	' 8	-0.6384764
-2.939723	' 9	-0.4418765
-0.8326383	' </s>
-4.440413	' H
-3.961845	' I	-0.2469035
-3.829343	' N	-0.6863632
-3.672116	' S	-0.4266803
-4.431359	' T
-3.257143	' a	-0.4896132
-4.440413	' b
-4.431359	' c	-0.4414805
-1.957787	' d	-2.063586
-4.440413	' i
-1.571746	' l	-2.731874
-1.4494	' m	-2.852174
-3.291905	' n	-0.7794157
-4.440413	' o
-1.279419	' r	-2.966321
-0.3770333	' s	-3.42802
-0.795783	' t	-3.44914
-1.564906	' v	-2.270787
-0.0003050892	( </s>
-0.0003000307	) </s>
-0.3417473	* *	0.01554437
-1.868189	* ,	0.9602225
-2.470206	* .	0.773085
-0.4961193	* </s>
-2.000691	* A	-0.3677002
-2.470206	* D	-0.3772938
-2.47926	* E
-2.470206	* M	-0.3824876
-2.470206	* Y
-2.000691	* \	0.5364232
-2.01685	* a	-0.2868614
-2.470206	* b
-2.47926	* c
-2.470206	* d	-0.4357008
-2.47926	* j
-2.47926	* l
-1.36854	* o	-0.9931375
-2.000691	* p
-2.47926	* r
-2.01685	* s	-0.2765197
-2.000691	* t	-0.1082434
-2.470206	* u
-1.022122	+ +	0.07002863
-0.2852357	+ </s>
-1.491636	+ S
-1.50069	+ b
-1.491636	+ c	-0.3593078
-1.50069	+ h
-1.50069	+ i
-1.50069	+ r
-1.50069	+ u
-1.50069	+ w
-3.768518	, ,	0.9042413
-1.787379	, 0	-1.874026
-3.240244	, 1	-0.4536211
-3.273668	, 2	-0.6291816
-3.194487	, 3	-0.5053176
-3.166458	, 4	-0.5583851
-3.069548	, 5	-0.7020848
-3.392854	, 6	-0.1939081
-3.392854	, 7	-0.3608412
-3.018395	, 8	-0.457002
-3.467488	, 9	-0.1252714
-0.009624882	, </s>
-4.73188	, ^	-0.1566513
-4.156788	- $
-0.8521861	- -	-2.381326
-3.694379	- 0	-0.2375318
-2.5961	- 1	-1.366458
-3.67822	- 3
-4.156788	- 8
-4.156788	- 9
-0.1435719	- </s>
-4.156788	- ?
-3.388492	- A	-0.09375124
-3.242364	- B	-0.5112911
-3.67822	- C	-0.165897
-4.147734	- D
-4.147734	- E	-0.4322918
-4.156788	- F
-4.156788	- G
-4.156788	- H
-4.147734	- J
-4.156788	- K
-3.694379	- L	-0.8442802
-3.694379	- M	-0.2019056
-3.008281	- O	-1.062919
-3.694379	- P	-0.02388909
-2.973519	- R	-0.8098992
-3.184372	- S	-0.3637731
-4.156788	- T
-4.156788	- W
-2.388492	- a	-0.6226205
-2.808708	- b	-0.4127943
-2.133219	- c	-0.7397978
-2.347099	- d	-1.161376
-2.163183	- e	-1.121706
-2.656098	- f	-0.7924485
-2.625064	- g	-0.5901125
-1.256873	- h	-2.467782
-2.531159	- i	-0.5050191
-3.184372	- j	-0.9411706
-4.156788	- k
-2.765243	- l	-0.4231681
-2.485402	- m	-1.038346
-2.707251	- n	-1.050898
-1.960357	- o	-1.075403
-2.274549	- p	-0.7751941
-3.545718	- q	1.227616
-2.555983	- r	-0.7028345
-2.050035	- s	-0.8571182
-2.485402	- t	-0.6802579
-3.133219	- u	-0.6102642
-2.857013	- v	-1.145603
-2.707251	- w	-0.6830445
-4.147734	- x
-4.156788	- y
-4.156788	- z
-4.156788	- √
-3.738487	. !	0.9351754
-4.807814	. -
-1.720203	. .	-1.13562
-2.717298	. 0	-0.7589005
-2.464329	. 1	-1.06282
-2.483215	. 2	-0.6683859
-2.492975	. 3	-0.9520373
-2.542588	. 4	-0.7867607
-2.274594	. 5	-1.355689
-2.485634	. 6	-0.6060647
-2.553796	. 7	-0.7995288
-2.418341	. 8	-1.384742
-2.510601	. 9	-0.6154185
-0.02630911	. </s>
-4.807814	. =
-4.807814	. >
-4.196743	. ?	1.317088
-3.738487	. @	-0.2132773
-4.196743	. C
-3.784245	. D	-0.9934826
-4.798759	. J
-4.807814	. N
-4.807814	. O
-4.196743	. R	-0.3140882
-3.358276	. S	-1.395558
-3.508038	. T	-1.229595
-4.807814	. W
-3.396065	. a	-0.9610099
-4.798759	. b
-2.523643	. c	-1.902862
-4.329246	. d	-0.482989
-3.624544	. e	-0.8128989
-4.798759	. f	-0.4341788
-4.196743	. g	-0.1328722
-3.624544	. h	-1.103995
-4.196743	. i	-0.02807939
-4.807814	. k
-3.784245	. m	-0.6582989
-3.784245	. n	-0.4442383
-4.807814	. o
-3.893389	. p	-0.2775408
-4.807814	. q
-3.483215	. s	-0.4728035
-4.807814	. t
-4.807814	. v
-4.196743	. w	-0.2806318
-1.027382	/ /	-0.933697
-2.417481	/ 0
-1.034331	/ 1	-1.123666
-1.013809	/ 2	-0.7275095
-1.258521	/ 3	-1.090189
-1.136526	/ 4	-1.223746
-2.896049	/ 5
-2.886995	/ 6
-1.213939	/ 8	-1.421131
-0.4823302	/ </s>
-2.886995	/ >	0.9572921
-2.417481	/ A	-0.4996468
-2.886995	/ B	-0.4513312
-2.896049	/ L
-2.896049	/ S
-1.981624	/ a	-0.2506858
-2.284979	/ b	-0.4044861
-1.747541	/ c	-0.475383
-2.886995	/ d
-2.896049	/ e
-2.886995	/ f	-0.4059931
-2.896049	/ g
-2.417481	/ h
-2.417481	/ i
-2.896049	/ j
-1.504503	/ m	-0.7583916
-2.886995	/ n	-0.4247983
-2.886995	/ o
-1.981624	/ p	-0.7941915
-1.87248	/ r	-0.9130761
-1.87248	/ s	-0.4748841
-2.896049	/ u
-2.886995	/ v	-0.3728355
-1.364325	/ w	-0.9528182
-3.966128	0 %
-3.966128	0 &
-2.817621	0 '	-0.8775759
-3.957074	0 +	-0.1402609
-1.275625	0 ,	-2.082792
-2.942559	0 -	-0.2533152
-1.666353	0 .	0.4090467
-3.957074	0 /	-0.433048
-0.4546356	0 0	-0.1277678
-1.81762	0 1	-0.1213827
-2.140927	0 2	-0.6167019
-2.140927	0 3	-0.5581522
-2.243589	0 4	-0.4835774
-1.923674	0 5	-0.259824
-2.039469	0 6	-0.3499465
-1.93776	0 7	-0.05552106
-2.391652	0 8	-0.1797607
-2.273552	0 9	-0.6308833
-3.355058	0 :	-0.3140509
-0.3386934	0 </s>
-3.503719	0 @	0.06489678
-3.355058	0 _	-0.1547587
-1.587172	0 s	-2.046751
-2.148614	0 t	-1.616727
-3.48756	0 z	-0.4952488
-3.246283	1 &	-0.163673
-1.626659	1 ,	-1.663744
-3.089057	1 -	0.3195904
-1.20144	1 .	-0.3490503
-1.762721	1 /	-1.818719
-0.8953758	1 0	-0.5155194
-1.393575	1 1	0.06902817
-1.328634	1 2	-0.3000338
-1.330145	1 3	-0.309032
-1.415115	1 4	0.4834262
-1.22812	1 5	0.03613218
-1.459647	1 6	-0.3446097
-1.47416	1 7	0.9622856
-1.497992	1 8	1.021155
-0.5632349	1 9	-0.9156615
-3.848299	1 :
-0.8658206	1 </s>
-3.857353	1 ?
-3.246283	1 @	-0.4511855
-3.857353	1 N
-3.089057	1 _	-0.09067003
-3.857353	1 h
-3.857353	1 j
-1.664175	1 s	-2.062743
-2.674083	1 t	-1.00698
-3.595924	2 %
-3.58687	2 &
-1.567556	2 ,	-1.337085
-2.984854	2 -	0.09448659
-1.090435	2 .	-0.2482286
-2.447417	2 /	-0.3584683
-0.6175768	2 0	-0.3896385
-1.393059	2 1	-0.219536
-1.336266	2 2	-0.08178367
-1.368235	2 3	-0.3600493
-1.429688	2 4	-0.5461644
-1.120058	2 5	-0.664369
-1.451051	2 6	-0.2676228
-1.493174	2 7	-0.1953107
-1.577208	2 8	-0.2161043
-1.640107	2 9	-0.5189944
-3.117356	2 :	-0.2460153
-0.5699492	2 </s>
-3.595924	2 @
-3.595924	2 R
-3.117356	2 _	-0.2069631
-2.146386	2 n	-1.328828
-3.595924	2 s
-2.184175	2 t	-1.222579
-3.450622	3 &
-1.610444	3 ,	-1.016265
-3.450622	3 -
-1.046842	3 .	-0.4946411
-1.728083	3 /	-1.302248
-0.7073537	3 0	-0.4115342
-1.270706	3 1	-0.9145286
-1.368458	3 2	-0.1647562
-1.555221	3 3	-0.1969236
-1.595966	3 4	-0.1239959
-1.287874	3 5	-0.2809147
-1.512064	3 6	-0.2889565
-1.489201	3 7	-0.1725669
-1.625421	3 8	-0.2159345
-1.523963	3 9	-0.7031526
-3.441568	3 :
-0.5050778	3 </s>
-3.450622	3 @
-3.450622	3 B
-3.441568	3 D	-0.424311
-3.450622	3 _
-3.441568	3 b	-0.4149809
-3.450622	3 n
-1.682326	3 r	-1.698491
-1.837228	3 t	-1.417154
-3.350587	4 &
-1.533073	4 ,	-0.8938991
-3.350587	4 -
-1.110999	4 .	-0.5845333
-2.739517	4 /	-0.1290438
-0.7434416	4 0	-0.5848642
-1.455186	4 1	-1.027906
-1.312778	4 2	0.04382123
-1.517833	4 3	-0.2268828
-1.495931	4 4	-0.4465208
-1.268423	4 5	-0.285872
-1.455186	4 6	-0.4087165
-1.495931	4 7	-0.4888488
-1.442412	4 8	-0.2960015
-1.600019	4 9	-0.7626671
-0.4361627	4 </s>
-3.350587	4 @
-3.341533	4 _
-3.350587	4 s
-1.919533	4 t	-1.241063
-3.341533	4 u	-0.4480539
-3.499605	5 &
-3.508659	5 +
-1.363786	5 ,	-1.198109
-3.508659	5 -
-1.290114	5 .	-0.07350822
-2.024359	5 /	-0.9032922
-0.6604582	5 0	-0.5272734
-1.740363	5 1	-0.6178375
-1.646941	5 2	-0.4635732
-1.691145	5 3	-0.5001562
-1.740363	5 4	-0.1410277
-1.435011	5 5	-0.1620244
-1.758091	5 6	-0.2791816
-1.706939	5 7	-0.284219
-1.767235	5 8	-0.2114404
-1.871131	5 9	-0.6617965
-2.897589	5 :	-0.1704432
-0.3273984	5 </s>
-2.39794	5 @	-0.8313968
-3.508659	5 B
-2.897589	5 _	-0.1307204
-3.508659	5 k
-3.508659	5 m
-1.859549	5 t	-1.451916
-1.646159	6 ,	-0.8664119
-3.317545	6 -
-1.141009	6 .	0.09618154
-2.169037	6 /	-0.3625876
-0.8120559	6 0	-0.4562005
-1.585461	6 1	-0.5508453
-1.492344	6 2	-0.3695853
-1.680017	6 3	-0.4435748
-1.680017	6 4	-0.1480671
-1.265947	6 5	-0.3228228
-1.585461	6 6	-0.3129091
-1.585461	6 7	-0.3689083
-1.549249	6 8	-0.2055159
-1.657154	6 9	-0.8195357
-0.3375942	6 </s>
-3.317545	6 @
-2.706475	6 _	-0.1480253
-3.317545	6 e
-3.317545	6 f
-3.317545	6 s
-1.635435	6 t	-1.473635
-3.337904	7 &
-1.837214	7 ,	-0.6775086
-2.726834	7 -	-0.1710613
-0.922225	7 .	-0.2706409
-1.888367	7 /	-0.9838299
-0.91833	7 0	-0.4292744
-1.688794	7 1	-0.5472159
-1.544302	7 2	-0.6495589
-1.625125	7 3	-0.6518705
-1.60582	7 4	-0.6855505
-1.138244	7 5	-0.5310304
-1.625125	7 6	-0.2917155
-1.442503	7 7	-0.403222
-1.615366	7 8	-0.573591
-1.512703	7 9	-0.8947448
-0.3742619	7 </s>
-3.337904	7 A
-3.32885	7 B	-0.4446106
-2.859336	7 _
-1.72451	7 t	-1.417154
-1.812542	8 ,	-0.8209845
-3.438171	8 -
-1.128295	8 .	-1.924947
-2.959603	8 /	-0.2227585
-0.885971	8 0	-0.2720634
-1.678648	8 1	-0.5909902
-1.620656	8 2	-0.3179425
-1.652841	8 3	-0.6187754
-1.536336	8 4	-0.6597266
-1.296962	8 5	-0.5253188
-1.319626	8 6	-0.682512
-1.282485	8 7	-0.9187814
-1.115991	8 8	-0.6036492
-1.228965	8 9	-1.033498
-3.438171	8 :
-0.4293253	8 </s>
-3.429117	8 @
-2.975762	8 _	-0.06588482
-2.959603	8 s	-0.2399665
-1.725392	8 t	-1.514064
-2.09242	9 ,	-0.784889
-3.608904	9 -
-1.571095	9 .	0.2224391
-2.260824	9 /	-1.209427
-1.133038	9 0	-0.3376787
-1.585335	9 1	-0.6732872
-1.548352	9 2	-0.5719759
-1.610159	9 3	-0.4343618
-1.467696	9 4	-0.2865953
-1.366392	9 5	0.1844141
-1.284305	9 6	-0.4957995
-1.109826	9 7	-0.5675722
-0.6932408	9 8	-1.675127
-0.7122086	9 9	-0.9388744
-3.59985	9 :
-0.7273332	9 </s>
-2.997834	9 @	-0.4511855
-3.59985	9 A
-3.608904	9 B
-3.59985	9 _
-3.59985	9 b
-3.608904	9 d
-3.608904	9 f
-3.608904	9 i
-3.59985	9 l	-0.4177428
-3.59985	9 s	-0.1926783
-1.983275	9 t	-1.429053
-2.805574	: -	-0.7793214
-1.399317	: /	-1.763361
-2.805574	: 0	-0.1634176
-2.499687	: 1	-0.2253905
-3.258929	: 2
-2.789415	: 4	-0.231892
-3.258929	: 5	-0.4487462
-0.02547082	: </s>
-3.258929	: O	-0.4390553
-3.267984	: „
-3.019691	; .
-0.0004871503	; </s>
-0.1760913	< $	-1.225838
-1.449538	< E
-1.449538	< M
-0.9871284	< h	-0.8351498
-3.423384	<s> !	-0.685175
-2.391628	<s> "	0
-4.30953	<s> #	0
-2.871327	<s> $	-1.479466
-2.516995	<s> %	-0.8134565
-4.677506	<s> &	-0.6074904
-1.771351	<s> '	-2.429036
-2.846521	<s> (	0
-2.839257	<s> )	0
-4.107631	<s> *	-1.245589
-4.744453	<s> +	0.100651
-1.337781	<s> ,	-2.999373
-2.071125	<s> -	-2.656642
-1.312911	<s> .	-3.285971
-3.657303	<s> /	-2.170882
-3.801069	<s> 0	-0.4908715
-2.3174	<s> 1	-1.556059
-2.689033	<s> 2	-0.7658647
-2.900391	<s> 3	-1.152284
-3.09501	<s> 4	-0.4016076
-3.064723	<s> 5	-0.3085841
-3.23257	<s> 6	-0.05275997
-3.237798	<s> 7	-0.06803206
-3.245378	<s> 8	-0.1125003
-3.429183	<s> 9	-0.3531845
-2.830051	<s> :	-1.913164
-3.049361	<s> ;	0
-4.637998	<s> <	-0.7240694
-5.154628	<s> =	-0.3690908
-6.059998	<s> >
-2.512163	<s> ?	-0.6087848
-5.096636	<s> @	-0.9147339
-2.176904	<s> A	-0.8383594
-2.522894	<s> B	-0.8193918
-2.690309	<s> C	-0.2978114
-2.803273	<s> D	-1.051663
-2.759426	<s> E	-1.034594
-2.713719	<s> F	-0.539615
-2.912655	<s> G	-0.7187445
-2.520151	<s> H	-0.8199338
-1.884515	<s> I	-1.148835
-3.118912	<s> J	-0.4421414
-3.730213	<s> K	-0.6401072
-2.922358	<s> L	-0.8497896
-2.364343	<s> M	-0.119536
-2.717104	<s> N	-1.016187
-2.743008	<s> O	-0.9354827
-2.582587	<s> P	-0.7091519
-4.124665	<s> Q	-0.6134025
-2.841967	<s> R	-1.326595
-2.370622	<s> S	-0.6442323
-1.9659	<s> T	-1.243573
-2.83746	<s> U	-0.6389939
-3.534343	<s> V	-0.9990263
-2.352539	<s> W	-0.2353404
-4.601786	<s> X	-0.02452515
-2.873919	<s> Y	-0.4015248
-4.107631	<s> Z	-0.1973992
-4.193546	<s> [	0
-5.154628	<s> \	0.2254491
-4.200385	<s> ]	0.01336394
-5.300756	<s> ^	-0.3025789
-5.300756	<s> _	0.01290853
-2.554901	<s> `	0.2974424
-1.039793	<s> a	-1.748651
-1.456938	<s> b	-2.52502
-1.427842	<s> c	-3.156999
-1.624337	<s> d	-2.598243
-1.712462	<s> e	-1.814854
-1.501995	<s> f	-3.012558
-1.853009	<s> g	-3.551319
-1.479426	<s> h	-2.96214
-1.274599	<s> i	-2.855583
-2.467099	<s> j	-0.4834237
-2.31184	<s> k	-2.629825
-1.732601	<s> l	-3.369153
-1.55476	<s> m	-3.120476
-1.710248	<s> n	-3.481736
-1.265142	<s> o	-3.53122
-1.498694	<s> p	-3.494272
-2.821901	<s> q	-1.079515
-1.663066	<s> r	-3.293845
-1.291399	<s> s	-3.37012
-0.8880702	<s> t	-2.741946
-2.021271	<s> u	-2.89237
-2.258574	<s> v	0.4028526
-1.338377	<s> w	-3.752016
-4.769277	<s> x	-0.5054862
-1.904208	<s> y	-3.705684
-3.649478	<s> z	-0.7178988
-4.221575	<s> {	0.05945216
-4.259363	<s> }	0.04420365
-4.999726	<s> ~	-0.3228271
-5.096636	<s> ¬	0
-5.590484	<s> √	0.01584964
-6.069052	<s> Ÿ
-4.853598	<s> ‚	0.3624645
-4.481212	<s> „	0.2702149
-5.300756	<s> Ô	0.306748
-0.8260748	= 1	-0.1931015
-1.886347	= 4
-1.895401	= 5
-1.895401	= 6
-1.886347	= 8
-1.886347	= 9	-0.4225743
-0.9809768	= </s>
-0.2350102	= =	-1.098204
-1.895401	= c
-1.895401	= m
-1.895401	= p
-0.01703334	> </s>
-1.4843	> >
-3.083937	? !	-0.1702517
-3.553452	? .	-0.44933
-3.553452	? 1	-0.4368103
-3.562506	? 2
-0.004205596	? </s>
-2.538937	? ?	1.463861
-3.562506	? @
-3.553452	? I
-3.553452	? S	-0.4346005
-3.562506	? i
-3.562506	? s
-3.553452	? t	-0.4118228
-3.083937	? }	1.287422
-3.562506	? √
-1.554546	@ .	-0.2459938
-2.033114	@ 1
-2.033114	@ 2
-2.033114	@ 9
-1.060698	@ </s>
-2.02406	@ @
-2.033114	@ H
-2.02406	@ a	-0.4576022
-1.422044	@ c	-0.6989169
-0.9223952	@ g	-1.078498
-0.3617278	@ h	-1.581194
-2.033114	@ l
-1.264818	@ m	-0.3968983
-2.033114	@ s
-1.009545	@ y	-0.9989148
-2.02406	@ z	-0.4575564
-3.913058	A $
-3.301987	A '	-0.4626025
-2.564977	A .	0.182958
-3.904003	A 1	-0.3940941
-3.913058	A 2
-3.904003	A 3
-2.843731	A :	0.2030219
-0.8664647	A </s>
-3.434489	A A
-2.66764	A B	-0.4685758
-2.697603	A C	-0.3163071
-2.639611	A D	-0.5380195
-3.913058	A F
-3.434489	A G	-0.2465535
-3.144761	A H	-0.6957285
-2.017656	A I	-1.354773
-2.940641	A K	-0.6503159
-2.287428	A L	-0.8636554
-2.729788	A M	-0.3540613
-2.230947	A N	-0.805485
-2.501308	A P	-0.8579667
-3.913058	A Q
-2.171633	A R	-0.6121766
-2.76455	A S	-0.1934755
-2.338581	A T	-1.118624
-3.301987	A V	-0.1072999
-3.144761	A W	-0.2288889
-3.301987	A X	-0.5406075
-3.144761	A Y	-0.2207153
-2.66764	A Z	-1.100579
-3.904003	A a	-0.4576022
-1.914312	A b	-1.181356
-1.279065	A c	-1.782637
-1.848096	A d	-0.3603987
-3.144761	A e	-0.2596067
-1.294728	A f	-2.475143
-2.153535	A g	-1.081505
-2.144761	A h	-0.9034269
-1.899248	A i	-1.432737
-3.301987	A k	-0.6904026
-1.084063	A l	-1.150446
-1.470819	A m	-1.148286
-0.5670394	A n	-1.822499
-1.626247	A p	-1.561111
-3.904003	A q
-1.549265	A r	-1.323143
-1.04439	A s	-1.644323
-1.122745	A t	-1.821972
-1.459916	A u	-1.849898
-2.241671	A v	-0.4510329
-2.843731	A w	-0.3091243
-3.904003	A y
-3.904003	A z
-3.579603	B '
-2.306157	B -	-0.1189192
-3.579603	B .
-3.579603	B 0
-3.579603	B 1
-2.556034	B :	0.5415361
-1.528006	B </s>
-3.579603	B ?
-2.033156	B A	-0.5038289
-1.838179	B B	-1.674619
-2.468884	B C	-0.7934943
-3.117194	B E	-0.1793202
-2.665179	B I	-0.07347555
-3.101035	B L	-0.244074
-2.607187	B M	-0.580249
-3.579603	B N
-2.396333	B O	-0.4517858
-3.101035	B R	-0.2346922
-1.820081	B S	-1.48365
-3.101035	B T	-0.5048344
-3.101035	B U	-0.5029857
-1.114077	B a	-0.9491547
-0.8658382	B e	-1.474221
-3.579603	B f
-1.641045	B i	-0.337669
-3.579603	B j
-1.684202	B l	-1.246675
-1.298089	B o	-0.6148751
-1.449579	B r	-1.537347
-0.2891235	B u	-1.887745
-1.325585	B y	-1.362258
-2.501451	C $	0.8329901
-3.415875	C %
-3.415875	C +
-2.346549	C .	0.8919659
-3.415875	C 6
-3.415875	C 8
-1.483226	C </s>
-2.346549	C A	-0.4004835
-3.415875	C B
-2.443459	C C	-0.2928763
-1.465735	C D	-1.842637
-1.630545	C E	-0.8358907
-2.067795	C F	-1.300922
-2.443459	C H	-0.3688259
-2.142429	C I	-0.6791954
-3.406821	C J	-0.456241
-2.346549	C K	-0.3861789
-2.937307	C L
-3.415875	C M
-2.045519	C N	-1.31799
-1.590674	C O	-0.7705178
-2.232605	C P	-0.4135993
-3.415875	C Q
-2.267367	C R	-0.3214586
-3.415875	C S
-2.346549	C T	-0.3865304
-2.501451	C U	-0.2722532
-2.937307	C V	-0.03996076
-3.415875	C Y
-0.9556134	C a	-0.6508914
-1.465735	C e	-1.535662
-0.7667649	C h	-1.794304
-1.656353	C i	-1.194876
-1.41713	C l	-1.67095
-3.415875	C n
-0.4680268	C o	-1.460218
-1.448921	C r	-1.5626
-2.091276	C s	-1.013751
-1.350913	C u	-0.9207804
-2.501451	C y	-0.348877
-3.358692	D $
-2.880124	D '
-3.358692	D -
-1.826968	D .	0.07414612
-1.131003	D </s>
-2.896283	D =	-0.03611353
-2.247973	D A	-0.227127
-3.349638	D C	-0.443167
-2.590396	D D	-0.2273508
-2.058917	D E	-0.3925154
-3.358692	D G
-3.358692	D H
-2.085246	D I	-0.0629057
-2.590396	D J	-0.2294942
-3.349638	D L
-3.358692	D M
-1.946943	D N	-1.356593
-2.444268	D O	-0.3657175
-1.826968	D P	-1.450021
-2.896283	D R	-0.3491348
-1.450517	D S	-1.779498
-1.946943	D T	-1.355082
-3.358692	D U
-2.034093	D V	-1.264382
-2.747622	D Y	-0.6887509
-1.232461	D a	-0.7427979
-0.5869354	D e	-1.704713
-3.349638	D h	-0.4524742
-0.8563967	D i	-1.168586
-0.7721701	D o	-1.159483
-1.255942	D r	-1.000168
-1.655897	D s	-1.37845
-1.13403	D u	-0.6748464
-3.349638	D w	-0.3796158
-2.444268	D y	-0.8443399
-3.358692	D √
-2.908404	E -
-1.388227	E </s>
-2.087197	E A	-0.3099267
-3.386972	E B
-2.317646	E C	-0.1736332
-1.726581	E D	-0.8229442
-2.775902	E E	-0.2965927
-2.775902	E F	-0.1709601
-2.908404	E G	-0.2470968
-3.386972	E H
-2.775902	E I	-0.3145031
-2.775902	E L
-2.087197	E M	-0.5496024
-2.087197	E N	-0.5397187
-1.749444	E O	-1.553173
-2.414556	E P	-0.6134909
-3.386972	E Q
-1.525254	E R	-0.7119601
-1.749444	E S	-0.8427646
-2.363403	E T	-0.3955519
-2.775902	E U	-0.3127472
-3.377918	E V
-2.472548	E W	-0.6128345
-2.908404	E X	-0.2367623
-2.908404	E Y	-0.4947503
-3.377918	E Z	-0.3965445
-3.377918	E _	-0.4548721
-0.7900156	E a	-1.917692
-2.618675	E b	-0.4290965
-1.664433	E c	-1.318191
-1.684177	E d	-0.9066498
-3.377918	E e	-0.4460239
-2.908404	E f	-0.4779937
-3.386972	E g
-2.062373	E h	-1.22398
-1.737862	E i	-1.065156
-3.386972	E j
-1.601642	E l	-0.6335754
-1.812496	E m	-0.4174117
-0.6596342	E n	-1.326629
-3.377918	E p	-0.439249
-2.908404	E q	1.421617
-1.799132	E r	-0.5810698
-1.715586	E s	-0.862693
-2.924563	E t	-0.7364994
-1.245764	E u	-2.14459
-0.8522627	E v	-1.520603
-3.386972	E w
-1.11082	E x	-0.8370355
-2.775902	E y	-0.6596091
-3.370574	F %
-2.602277	F '	-0.2496641
-3.370574	F .
-3.36152	F 1
-1.677998	F </s>
-2.301247	F A	-0.2035825
-2.602277	F B	-0.4850917
-2.097127	F C	-1.200586
-2.301247	F E	-0.3183774
-2.908164	F F	-0.1807119
-2.259854	F I	-0.5474574
-3.370574	F M
-2.259854	F O	-0.7343808
-3.370574	F P
-1.903307	F R	-1.382915
-3.36152	F S	-0.39833
-2.908164	F T	-0.4723232
-2.892005	F U	-0.4992774
-1.263821	F a	-0.7249585
-1.024785	F e	-1.448323
-0.8226806	F i	-1.297238
-1.553059	F l	-0.8966964
-0.4403105	F o	-2.212318
-0.747364	F r	-2.01374
-3.370574	F s
-2.759503	F t	-0.6988155
-1.305612	F u	-1.006426
-3.177215	G .
-1.765465	G </s>
-2.698646	G A
-1.576409	G D	-1.532541
-2.714805	G E	-0.458983
-3.177215	G G
-2.566144	G H	-0.1670579
-3.16816	G I
-3.177215	G L
-1.64549	G N	-1.470777
-1.852615	G O	-1.252143
-3.16816	G P	-0.4568983
-2.408918	G R	-0.2223393
-3.177215	G S
-3.16816	G U	-0.4562652
-3.177215	G Y
-3.177215	G _
-1.112253	G a	-1.110718
-0.8178534	G e	-2.171212
-2.408918	G h	-0.4481918
-1.43579	G i	-0.9126891
-1.709948	G l	-1.035845
-0.408918	G o	-1.510394
-0.9405707	G r	-1.872377
-3.16816	G s	-0.1926783
-1.004084	G u	-1.341798
-3.16816	G y	-0.4552212
-2.259931	H .	-0.02450627
-3.559706	H 2
-3.559706	H 9
-2.128652	H </s>
-3.081138	H A
-2.128652	H D	-1.356793
-2.027982	H E	-0.6759685
-3.559706	H H
-2.027982	H I	-0.2708381
-2.645282	H K	-0.7612505
-2.411199	H O	-0.2303651
-3.550652	H Q	-0.4334127
-2.645282	H R	-0.1373079
-3.559706	H S
-3.559706	H T
-3.081138	H U
-3.081138	H Y	-0.2371726
-1.124892	H a	-1.039256
-0.2498307	H e	-1.917315
-1.046335	H i	-1.592861
-3.550652	H m	-0.4467512
-0.723224	H o	-1.660488
-2.448987	H s	-1.051372
-1.633047	H u	-0.5654799
-2.536137	H y	-0.4655378
-3.559706	H z
-4.194743	I "
-3.716174	I '
-4.194743	I -
-4.194743	I .
-0.2183274	I </s>
-3.011473	I A	-1.047857
-3.716174	I B	-0.5032223
-2.512632	I C	-0.9284748
-2.268084	I D	-1.42292
-2.949325	I E	-0.3163683
-3.426446	I F	-0.473774
-3.280318	I G	-0.3751972
-3.171174	I I	-0.5509664
-4.194743	I K
-3.046235	I L	-0.5329611
-2.979288	I M	-0.3647925
-2.678258	I N	-0.4767106
-2.979288	I O	-0.6691931
-3.125416	I P	-0.4528201
-3.732333	I Q	-0.4519879
-3.171174	I R	-0.1284676
-2.824386	I S	-0.4572173
-2.648295	I T	-0.5887744
-4.194743	I U
-2.745205	I V	-0.9469919
-3.716174	I Z	-0.2359872
-4.185688	I a	-0.3704006
-4.194743	I c
-2.949325	I d	-0.1092267
-1.35017	I f	-2.578285
-4.185688	I g
-3.125416	I l	-0.4126941
-2.491948	I m	-0.9367765
-0.7897577	I n	-1.737234
-2.648295	I r	-0.7104184
-1.724016	I s	-1.644153
-0.8677377	I t	-2.687769
-3.716174	I v	-0.2457684
-4.194743	I z
-2.958628	J '
-2.949574	J .	0.773085
-1.775358	J </s>
-2.949574	J A
-2.958628	J D
-2.48006	J I	-0.5045463
-2.958628	J M
-2.48006	J P	-0.2470048
-2.347558	J U	-0.1691653
-0.5351933	J a	-1.778517
-1.39794	J e	-0.3124559
-1.39794	J i	-0.5416908
-0.9302603	J o	-0.7298504
-2.48006	J r	-0.5017792
-0.3293951	J u	-1.346481
-2.487628	K $
-2.487628	K '
-0.7555435	K </s>
-2.487628	K C
-1.376909	K E	-0.4492855
-2.478574	K H
-2.487628	K I
-2.478574	K O
-1.573203	K S	-0.7565924
-2.487628	K U
-0.9269396	K a	-0.3939363
-1.03809	K e	-0.5647611
-2.025218	K h	-0.7579309
-0.7848328	K i	-1.078253
-2.487628	K l
-1.464059	K n	-0.9773728
-1.020361	K o	-0.2919877
-1.376909	K r	-0.3051929
-2.478574	K s	-0.1926783
-0.8742332	K u	-1.175643
-2.478574	K y	-0.4135864
-3.187922	L '
-1.475143	L </s>
-1.888146	L A	-0.5268696
-2.273497	L B	-0.8141965
-2.215505	L D	-0.2676598
-1.972467	L E	-0.4601862
-2.077203	L I	-0.2383487
-2.709354	L K
-1.863323	L L	-0.8028596
-3.187922	L M
-2.118595	L O	-0.1244933
-2.725513	L R	-0.8400627
-2.725513	L S	-0.7857468
-3.187922	L T
-3.187922	L U
-3.187922	L V
-2.419625	L Y	-0.6887509
-3.178868	L _	-0.4172526
-0.5388117	L a	-1.030388
-0.7171948	L e	-1.110707
-0.6840265	L i	-1.055059
-3.187922	L l
-0.7922595	L o	-1.306326
-3.178868	L s	-0.1926783
-2.576852	L t	-0.6988155
-1.600081	L u	-0.4046041
-3.178868	L y
-3.723503	M &
-3.723503	M -
-3.723503	M /
-3.244935	M 1	-0.4413823
-1.796844	M </s>
-2.540233	M A	-0.353464
-1.815327	M B	-1.520582
-3.112433	M C	-0.1706471
-3.723503	M D
-2.273965	M E	-0.5319723
-3.112433	M F	-0.6897573
-3.723503	M G
-2.612784	M I	-0.4080767
-2.809078	M M	-0.8427808
-2.612784	M O	-0.4693121
-2.540233	M P	-0.3458944
-2.654176	M R	-0.6940747
-2.654176	M S	-0.9813601
-3.261094	M T	-0.9299039
-3.244935	M U
-3.244935	M V	-0.2975385
-3.714449	M X	-0.2993188
-0.7986574	M a	-0.9647403
-2.751086	M c	-0.3010168
-1.235875	M e	-0.9174199
-2.955207	M h	-0.4846011
-0.8479966	M i	-1.579001
-3.723503	M m
-0.8811219	M o	-1.550891
-0.4293846	M r	-3.249692
-1.585991	M s	-1.958836
-2.450057	M t	-1.230294
-1.890749	M u	-0.5676737
-1.492809	M y	-1.555924
-3.405185	N %
-3.396131	N '
-3.396131	N .	0.773085
-1.49701	N </s>
-3.405185	N =
-1.974131	N A	-0.7328025
-2.636889	N B	-0.4845537
-2.432769	N C	-0.4602853
-2.080586	N D	-0.7845344
-2.189731	N E	-0.2694987
-2.942776	N F	-0.8358854
-1.888701	N G	-1.132362
-2.794115	N I	-0.1706608
-2.490761	N K	-0.7663988
-2.794115	N L	-0.6973143
-3.405185	N M
-2.01364	N N	-1.328369
-2.159768	N O	-0.6035306
-1.920886	N P	-1.418986
-3.405185	N R
-2.256678	N S	-0.5427088
-1.218588	N T	-1.440294
-3.396131	N U
-2.926617	N V	-0.4954416
-2.942776	N Y	-0.3475108
-1.232055	N a	-1.134773
-3.405185	N c
-0.8689913	N e	-1.899708
-1.543467	N i	-0.6837795
-3.405185	N l
-0.2452482	N o	-1.968081
-1.723075	N u	-0.8488576
-3.395662	O '
-3.395662	O .
-1.33511	O </s>
-2.784592	O A	-0.6354843
-3.386608	O B	-0.4564725
-2.180208	O C	-0.52467
-2.933253	O D	-0.3222985
-3.386608	O E
-2.247155	O F	-0.6489989
-3.386608	O G	-0.4501638
-3.395662	O I
-1.863938	O K	-1.378551
-2.284943	O L	-0.3266412
-1.724276	O M	-1.139503
-1.879178	O N	-0.5877662
-3.386608	O O
-2.627366	O P	-0.1305537
-1.863938	O R	-0.6464319
-2.423246	O S	-0.5557284
-1.946125	O T	-0.5968695
-2.150245	O U	-0.4516182
-2.627366	O V	-0.2230092
-2.423246	O W	-0.4907407
-3.395662	O X
-2.784592	O Y	-0.3139203
-3.386608	O a	-0.4515887
-1.863938	O b	-1.468174
-0.955268	O c	-2.301932
-2.423246	O d	-0.9500819
-2.917094	O e	-0.4740429
-0.9979563	O f	-1.849985
-1.463013	O h	-1.808549
-1.946125	O i	-1.372218
-1.724276	O k	-1.604216
-1.794857	O l	-0.9211792
-3.386608	O m	-0.382139
-0.5249321	O n	-2.603509
-3.395662	O o
-1.863938	O p	-1.278348
-1.391837	O r	-0.9388514
-1.879178	O s	-0.9428169
-1.376946	O t	-1.944788
-1.15315	O u	-1.733767
-1.402057	O v	-1.438915
-2.917094	O w	-0.2316626
-3.395662	O x
-3.386608	O z
-3.503692	P .
-3.512746	P 1
-2.901676	P 3	-0.5362099
-3.503692	P 4	-0.4417102
-1.551325	P </s>
-3.512746	P =
-2.028446	P A	-0.9213012
-3.503692	P C
-3.034178	P D	-0.2449312
-2.2393	P E	-0.7138437
-2.489177	P F	-0.3911654
-3.034178	P G	-0.2470968
-3.512746	P H
-2.901676	P I	0.232127
-3.034178	P L
-2.364238	P O	-0.4100456
-2.901676	P P	-0.1686387
-2.188147	P R	-0.68668
-2.744449	P S	-0.4266803
-3.050337	P T	-0.3520892
-3.050337	P U	-0.3429857
-1.00251	P a	-0.6258498
-0.9520578	P e	-1.408123
-1.952058	P h	-0.5905051
-1.938269	P i	-0.13539
-1.398096	P l	-1.918581
-1.052484	P o	-1.152255
-3.503692	P p	-0.4077194
-0.2705248	P r	-2.875304
-2.14239	P s	-0.8195991
-3.512746	P t
-1.735849	P u	-0.4005876
-3.512746	P y
-2.033114	Q 0
-2.033114	Q 4
-1.554546	Q 9	-0.4698625
-1.060698	Q </s>
-2.02406	Q Q	-0.4181727
-1.264818	Q U	-0.230235
-1.570705	Q a	-0.2310801
-0.9637879	Q i	-0.898323
-2.033114	Q o
-0.2234251	Q u	-1.261705
-2.2393	R &	-0.9156791
-3.308626	R '
-2.830058	R .	0.7257968
-3.308626	R 9
-1.491111	R </s>
-1.707821	R A	-0.7045563
-1.938269	R B	-1.007487
-2.394202	R C	-0.841958
-3.299572	R D
-1.648235	R E	-0.6337319
-3.308626	R F
-3.308626	R G
-1.540329	R I	-0.402637
-3.299572	R K
-3.299572	R L
-1.475871	R M	-1.378163
-3.299572	R N
-1.468447	R O	-0.929083
-3.299572	R P	-0.4572797
-2.160118	R R	-1.074146
-1.595847	R S	-1.584101
-1.938269	R T	-0.3272508
-2.2393	R U	-0.1867026
-3.308626	R V
-2.830058	R Y	-0.4947503
-1.205876	R a	-0.6118624
-0.4164778	R e	-1.067947
-0.6746334	R i	-1.844368
-1.243664	R o	-0.9195448
-2.540329	R s	-0.2210286
-1.531729	R u	-0.6154989
-2.347542	S $	0.2687225
-3.0103	S &	-0.6682642
-2.262112	S .	0.4533886
-3.769542	S 3
-0.8936922	S </s>
-2.20412	S A	-0.6875395
-3.769542	S B
-3.316187	S C	-0.1715964
-3.0103	S D	-0.127515
-2.50515	S E	-0.4008678
-2.864172	S H	-0.2001511
-2.864172	S I	-0.1505795
-3.769542	S J	-0.4503345
-3.316187	S K	-0.3391024
-3.778596	S L
-2.70927	S M	-0.3923314
-2.864172	S N	-0.6002789
-3.0103	S O	-0.2302207
-3.316187	S P	-0.1797475
-3.769542	S Q
-1.75988	S S	-1.29224
-2.50515	S T	-0.4163735
-2.70927	S U	-0.3951033
-3.769542	S V	-0.3256163
-1.347542	S a	-0.8156996
-1.916878	S c	-1.423363
-0.7545452	S e	-1.814636
-0.9587616	S h	-1.662855
-1.323664	S i	-1.021667
-2.70927	S k	-0.2090012
-2.453997	S l	-0.6712543
-2.31133	S m	-0.9776941
-2.563142	S n	-0.3877154
-0.6058083	S o	-1.690249
-1.633723	S p	-1.019232
-2.533179	S q	0.7224661
-1.07986	S t	-1.848501
-1.286024	S u	-1.403786
-2.80618	S w	-0.2369146
-2.755028	S y	-0.5493301
-2.027835	T $	-0.3763721
-4.118351	T -
-2.706601	T .	-0.1116564
-1.959119	T </s>
-2.969843	T A	-0.25675
-3.049024	T C	-0.9854857
-2.446964	T E	-0.886913
-4.118351	T F
-4.118351	T G
-2.601866	T H	-0.636152
-2.706601	T I	-0.3353749
-4.109296	T J	-0.4503345
-4.109296	T L	-0.4530292
-4.109296	T M
-4.109296	T N
-3.145934	T O	-0.2102046
-3.639782	T P	-0.4925919
-2.747994	T R	-0.9675536
-3.049024	T S	-0.9820415
-3.655941	T T	-0.2458034
-4.118351	T U
-1.818575	T V	-2.006237
-3.507281	T W	-0.3126854
-4.109296	T Y	-0.4474621
-1.691089	T a	-0.9133573
-1.83418	T e	-1.258567
-0.08007441	T h	-3.182309
-2.156929	T i	-0.6222854
-1.443719	T o	-0.9800833
-1.850367	T r	-1.829013
-4.109296	T s	-0.1926783
-1.973477	T u	-1.458143
-1.966239	T w	-1.825109
-2.969843	T y	-0.7765049
-3.639782	T z	-0.5025235
-1.864172	U .	-1.342232
-1.824663	U </s>
-2.793308	U A	-0.354611
-3.246664	U C
-2.777149	U D
-3.255718	U E
-2.777149	U G
-3.246664	U H	-0.4544397
-3.246664	U I
-2.487421	U L	-0.3094096
-1.885361	U N	-0.658361
-3.255718	U O
-2.777149	U P	-0.2350143
-2.341293	U R	-0.2688937
-0.5610788	U S	-1.981741
-2.341293	U T	-0.6089987
-2.186391	U V	-0.3435598
-3.255718	U g
-0.4556089	U h	-2.675068
-3.255718	U l
-1.222603	U m	-1.89897
-0.7534219	U n	-0.921166
-1.478821	U p	-1.124641
-2.10721	U r	-0.8115692
-1.755027	U s	-0.9936141
-2.777149	U t	-0.2015333
-3.246664	U y	0.06372189
-2.812052	V '
-0.4205058	V </s>
-1.596597	V A	-1.082642
-1.839635	V C	-1.042184
-1.487453	V D	-1.239267
-1.742725	V E	-0.3047786
-1.663544	V I	-0.3038866
-2.812052	V K
-2.812052	V O
-1.079967	V a	-1.365306
-1.070627	V e	-0.9595624
-0.5813571	V i	-1.451604
-1.311361	V o	-1.547417
-1.628782	V s	-0.881125
-3.710483	W .	0.773085
-2.327991	W </s>
-3.240969	W A
-3.710483	W E
-2.608818	W H	-0.6678749
-3.240969	W I	-0.2470012
-3.710483	W M
-3.240969	W O	-0.24141
-2.95124	W S	-0.2603424
-3.719537	W W
-3.719537	W Y
-1.321831	W a	-1.28494
-0.3199996	W e	-1.967944
-0.4773157	W h	-2.435079
-1.080836	W i	-1.517131
-1.404698	W o	-1.098134
-2.394938	W r	-0.9173774
-3.240969	W s	-0.2399665
-3.257128	W u	-0.1749972
-0.60206	X -	-0.998791
-0.5149098	X </s>
-1.625629	X D
-1.625629	X E
-1.625629	X I
-1.616575	X P
-0.5563025	X i	-0.2366172
-1.625629	X u
-1.633469	Y </s>
-3.207945	Y A
-2.729377	Y B	-0.5046378
-3.207945	Y C
-3.207945	Y D
-3.198891	Y E
-3.207945	Y M
-3.207945	Y N
-3.207945	Y O
-3.207945	Y S
-1.406225	Y a	-0.8598093
-3.207945	Y b
-0.5343924	Y e	-1.815097
-1.99249	Y i	-0.4367967
-0.2076694	Y o	-2.337491
-2.235528	Y u	-0.06112498
-0.8816918	Z </s>
-2.064962	Z E
-1.586393	Z I	-0.2464798
-0.6734159	Z T	-1.337625
-2.064962	Z X
-2.055907	Z a
-1.602552	Z e	-0.2951258
-0.5806618	Z h	-0.2484117
-1.296665	Z i	-0.4859802
-0.7403627	Z o	-0.9367114
-2.064962	Z r
-2.064962	Z u
-2.064962	Z z
-1.875507	[ .
-0.01378828	[ </s>
-1.875507	[ E
-0.04139268	\ *	-0.5240723
-0.006630579	] </s>
-1.88887	] o
-1.060272	^ ,	-0.4576073
-0.30103	^ </s>
-0.5907582	^ _	-0.4966355
-2.190606	_ 0
-1.737251	_ 1	-0.09097496
-2.19966	_ 2
-1.431364	_ 3	-0.1199459
-2.190606	_ 4
-2.19966	_ 6
-2.19966	_ 7
-2.19966	_ 8
-2.19966	_ 9
-1.737251	_ </s>
-1.051152	_ A	-1.232145
-1.285236	_ B	-0.8147348
-2.190606	_ S	-0.39833
-1.721092	_ ^	-0.2039395
-0.3669058	_ _	-1.533261
-1.176091	_ a	-0.3604618
-2.19966	_ c
-2.190606	_ f	-0.427517
-2.19966	_ g
-2.190606	_ p	-0.4067747
-1.176091	_ s	-0.6929251
-2.190606	_ t
-2.19966	_ w
-3.81158	` 9
-0.2977405	` </s>
-3.81158	` T
-0.3046616	` `	-3.133406
-4.643083	a '	-0.8157033
-5.557508	a +
-3.763905	a -	-0.2250193
-4.284061	a .	-0.4676402
-4.409	a /	-0.6398593
-5.078939	a 1	-0.4458642
-5.557508	a 2
-5.557508	a 3
-5.095098	a 4	-0.8187862
-5.548453	a 9
-1.154794	a </s>
-5.078939	a @
-5.557508	a G
-5.557508	a N
-5.557508	a S
-4.946437	a _	-0.4247075
-3.739993	a a	-0.2159281
-1.663145	a b	-1.105075
-1.393815	a c	-0.9390944
-1.436681	a d	-0.1648961
-3.558762	a e	-0.6401151
-2.1432	a f	-1.120337
-1.684587	a g	-1.326179
-2.218201	a h	-1.023942
-1.438924	a i	-2.433149
-2.783173	a j	-1.831277
-1.856028	a k	-1.038805
-0.9975907	a l	-0.8032312
-1.670616	a m	-0.7655895
-0.739776	a n	-2.128266
-3.50591	a o	-0.9660725
-1.790081	a p	-2.166979
-3.886121	a q	1.60328
-0.9717119	a r	-1.903316
-1.057961	a s	-1.751618
-0.8274769	a t	-0.9287242
-1.924819	a u	-1.548622
-1.631694	a v	-0.9287313
-2.21518	a w	-0.626393
-2.720284	a x	-2.245205
-1.435718	a y	-1.166605
-2.98439	a z	-0.3470366
-5.557508	a }
-3.650397	b -	0.2291408
-3.729578	b .	0.9141691
-4.798904	b /
-4.798904	b 5
-4.798904	b 6
-1.937186	b </s>
-4.187834	b @	-0.4511855
-4.78985	b I	-0.4553323
-4.798904	b _
-1.028528	b a	-1.612722
-2.287098	b b	-0.519781
-3.474305	b c	-0.4964944
-3.26718	b d	-0.9624916
-0.5009978	b e	-2.151921
-3.729578	b f	-0.6071642
-4.798904	b g
-4.798904	b h
-1.14423	b i	-1.056222
-2.353001	b j	-2.292098
-0.9581373	b l	-3.43389
-2.716741	b m	-1.441437
-3.688185	b n	-1.160095
-0.9105606	b o	-2.239397
-3.450824	b p	-0.8491354
-1.348643	b r	-3.04064
-1.745501	b s	-1.78547
-2.296608	b t	-1.339515
-0.9569628	b u	-2.013643
-2.615634	b v	-1.140009
-3.298214	b w	-1.350022
-1.098947	b y	-1.944243
-4.059158	c -	-0.160503
-2.758128	c .	-1.204205
-5.128485	c /
-1.503338	c </s>
-5.128485	c A
-5.128485	c C
-4.517415	c D	-0.6185825
-5.128485	c I
-5.128485	c M
-5.128485	c T
-5.128485	c U
-0.9006448	c a	-1.509112
-1.683677	c c	-2.483669
-5.119431	c d	-0.4357008
-0.8200589	c e	-2.229913
-5.119431	c f	-0.4576767
-5.128485	c g
-0.9355677	c h	-0.4905511
-1.169184	c i	-1.696965
-1.381642	c k	-0.1456041
-1.436323	c l	-3.285419
-4.517415	c m	-0.2452183
-3.91303	c n	-0.3722795
-0.6931649	c o	-2.213131
-5.119431	c p	-0.4067747
-2.900796	c q	-0.2347819
-1.414917	c r	-3.303744
-2.263278	c s	-2.118243
-0.9679485	c t	-2.993515
-1.401338	c u	-2.258732
-1.936942	c y	-1.879206
-4.21406	c z	-0.5209375
-4.75448	d '	-0.1783332
-3.306389	d -	-0.1913438
-4.621978	d .	-0.1710936
-5.233048	d /
-5.233048	d 1
-5.223994	d 2	-0.4209015
-4.75448	d 4	-0.2340065
-5.223994	d 5
-0.2572574	d </s>
-4.318624	d =	-0.2077016
-5.233048	d ?
-4.75448	d @	-0.4602597
-1.453181	d a	-1.376258
-3.324873	d b	-0.8274716
-3.185998	d c	-1.12723
-2.020707	d d	-2.198199
-0.8126602	d e	-0.7626104
-3.439446	d f	-1.286542
-2.270515	d g	-2.134639
-3.378392	d h	-0.6271546
-1.04407	d i	-0.9192429
-3.09184	d j	-0.8127121
-4.260632	d k	-0.1938253
-2.068204	d l	-2.848588
-2.351477	d m	-2.365801
-2.918209	d n	-2.1818
-1.306691	d o	-1.927583
-3.933273	d p	-0.4360153
-3.415534	d q	0.1707113
-1.818152	d r	-3.005284
-1.586805	d s	-1.9855
-3.821299	d t	-0.657061
-1.559928	d u	-1.111419
-2.363693	d v	-0.6832144
-2.99346	d w	-1.736644
-1.962052	d y	-1.490425
-5.223994	d z
-4.779863	e $	-0.9496315
-5.273712	e '	-0.01102429
-5.14121	e *	0.1888239
-3.299138	e -	-0.3857619
-4.478833	e .	0.7256163
-4.983984	e /
-5.75228	e 0
-5.743226	e 1	-0.4397697
-5.75228	e 6
-0.4702678	e </s>
-5.743226	e =	-0.3874813
-5.75228	e ?
-5.75228	e @
-5.75228	e A
-5.75228	e K
-4.779863	e T	-0.951206
-5.273712	e W	-0.226183
-1.266429	e a	-3.162648
-2.745937	e b	-0.2515619
-1.477939	e c	-0.8333853
-1.162824	e d	-2.169152
-1.577	e e	-1.764521
-2.026855	e f	-0.07271942
-2.119828	e g	-2.565108
-2.754557	e h	-1.506693
-1.931443	e i	-2.551016
-3.559102	e j	0.04686118
-2.631415	e k	-1.456349
-1.473277	e l	-1.306941
-1.683257	e m	-1.140999
-1.063996	e n	-2.064891
-2.18039	e o	-1.457561
-1.958186	e p	-0.6522859
-2.740945	e q	-1.015918
-0.9143818	e r	-0.1908024
-1.082198	e s	-1.75217
-1.544366	e t	-0.854376
-3.138885	e u	-1.235956
-1.780244	e v	-0.9626828
-2.100095	e w	-0.5930486
-1.908072	e x	-0.4805877
-1.912249	e y	-1.189228
-3.719166	e z	-0.2580676
-5.273712	e ~	-0.4882646
-4.527849	f -	-0.2945731
-4.981204	f .	0.773085
-4.990258	f 7
-0.4369024	f </s>
-4.990258	f ?
-4.990258	f @
-1.278368	f a	-1.892008
-4.990258	f b
-4.379188	f c	-0.6406276
-1.136814	f e	-2.078174
-1.220228	f f	-2.151943
-4.527849	f g	-0.8018665
-4.981204	f h
-0.9499807	f i	-2.373195
-4.981204	f k
-1.756281	f l	-2.526103
-4.981204	f m	-0.4576771
-4.981204	f n	-0.4575378
-0.7431644	f o	-2.76874
-4.51169	f p
-1.173287	f r	-3.177403
-2.810342	f s	-1.145821
-1.502796	f t	-1.699708
-1.455549	f u	-2.267225
-4.527849	f w	-0.2763884
-2.602868	f y	-1.53294
-4.96983	g '
-4.96983	g *
-3.859111	g -	-0.4908677
-3.578285	g .	0.3626628
-4.96983	g /
-4.96983	g 1
-4.96983	g 2
-0.4026621	g </s>
-3.696384	g B	-1.195698
-4.96983	g C
-4.960776	g I	-0.4553323
-4.96983	g _
-1.277875	g a	-1.461328
-4.507421	g b	-0.1390218
-3.997414	g c	-0.4956026
-3.48553	g d	-0.7702333
-0.8415844	g e	-2.10004
-3.78656	g f	-0.7974268
-2.038969	g g	-1.725835
-1.02342	g h	-2.055267
-1.3252	g i	-1.698177
-3.946261	g k	-0.3866377
-1.850511	g l	-2.71287
-2.803594	g m	-1.461896
-1.529621	g n	-2.665816
-1.073846	g o	-2.390792
-3.859111	g p	-0.528239
-4.960776	g q	-0.4557824
-1.18971	g r	-3.370309
-1.724702	g s	-2.669093
-2.414782	g t	-2.17183
-1.525939	g u	-2.069111
-3.997414	g w	-0.1497962
-4.960776	g x	-0.42868
-2.103929	g y	-1.590991
-4.35876	g z	-0.3089537
-5.361221	h !
-4.750151	h *	-0.4351649
-2.451162	h -	-1.752435
-4.061446	h .	0.5804853
-5.361221	h /
-5.361221	h 1
-0.9263132	h </s>
-4.592925	h @	-0.1937421
-5.361221	h A
-5.361221	h C
-4.592925	h D	-0.6655998
-0.7402862	h a	-1.27878
-3.090498	h b	-1.46032
-4.115804	h c	-0.4173445
-3.198473	h d	-1.622648
-0.3471506	h e	-2.359162
-3.648442	h f	-1.546588
-4.061446	h h	-0.2371694
-0.9547351	h i	-1.402404
-5.361221	h j
-4.750151	h k	-0.1625817
-2.841646	h l	-1.607651
-2.483009	h m	-1.490842
-2.515193	h n	-2.236502
-1.15394	h o	-2.562433
-3.949472	h p	-0.1991933
-3.130527	h q	-0.2377667
-1.920088	h r	-2.815431
-2.547602	h s	-2.039632
-1.645001	h t	-1.970138
-1.923794	h u	-0.5015791
-3.194985	h w	-1.030221
-2.335246	h y	-1.571037
-4.403707	i '	-0.7401409
-3.194679	i -	-0.4819868
-4.331156	i .	-0.8128102
-5.514426	i /
-5.514426	i :
-2.80761	i </s>
-5.505372	i @	-0.4129715
-5.035858	i G	-0.497452
-5.514426	i P
-5.505372	i _	-0.427718
-1.642121	i a	-1.9777
-2.162251	i b	-1.743641
-1.198921	i c	-1.352913
-1.353996	i d	-1.919389
-1.423001	i e	-2.773668
-1.771802	i f	-2.282938
-1.486536	i g	-1.483469
-3.729096	i h	-0.7193277
-4.298972	i i	-0.4471362
-3.926586	i j	-1.497078
-2.037029	i k	-2.689209
-1.240274	i l	-0.9974992
-1.504782	i m	-1.799166
-0.5518095	i n	-0.4709036
-1.090453	i o	-3.140295
-2.041636	i p	-2.22662
-3.189827	i q	-0.3286864
-1.489845	i r	-1.41603
-0.9350106	i s	-1.682868
-0.927653	i t	-1.803478
-3.010531	i u	-1.628448
-1.57964	i v	-1.015022
-3.575868	i w	-1.78789
-2.673512	i x	-2.055627
-4.298972	i y	-0.8182498
-2.160669	i z	-1.430851
-3.314624	j -	0.04555549
-3.793192	j .
-3.793192	j </s>
-1.527966	j a	-0.8744573
-3.793192	j d
-0.7525901	j e	-2.780751
-1.73264	j i	-1.154538
-3.793192	j n
-0.534095	j o	-2.167547
-0.3174961	j u	-2.529934
-4.537452	k -
-4.537452	k .
-0.5224602	k </s>
-3.565036	k A	-0.9389136
-3.565036	k D	-0.928039
-4.537452	k H
-4.537452	k T
-1.709214	k a	-1.119402
-3.036762	k b	-0.8087129
-2.834657	k d	-1.597803
-0.4813987	k e	-2.658287
-2.888342	k f	-0.8033128
-2.719938	k g	-1.267416
-2.866066	k h	-0.9681872
-0.8662829	k i	-2.500029
-4.537452	k j
-3.212853	k k	-0.4792443
-1.992455	k l	-2.108991
-3.264006	k m	-0.7286496
-0.9904258	k n	-3.238492
-2.623028	k o	-0.8858312
-2.976764	k p	-1.339
-2.549048	k r	-1.437109
-1.116329	k s	-2.215822
-2.712251	k t	-0.8582994
-2.814913	k u	-0.7733316
-2.834657	k w	-1.098622
-2.292034	k y	-0.6635823
-4.537452	k z
-5.270328	l '
-5.270328	l *
-3.738603	l -	-0.232657
-3.408609	l .	-0.2378856
-5.270328	l /
-4.502031	l 9	-0.4848862
-0.757691	l </s>
-4.791759	l >	0.9100039
-5.261273	l Q	-0.06209516
-4.201001	l _	-0.9792448
-1.056209	l a	-1.574997
-3.598941	l b	-0.6782795
-2.813611	l c	-1.859927
-1.255532	l d	-1.944235
-0.8148588	l e	-1.396149
-2.142955	l f	-1.132871
-3.557548	l g	-1.453991
-4.087058	l h	-0.9878418
-0.9035687	l i	-1.503302
-2.117498	l k	-1.554102
-0.8379157	l l	-2.762182
-2.478367	l m	-1.694868
-3.192401	l n	-1.225466
-1.153103	l o	-1.671478
-2.405816	l p	-1.524694
-2.534483	l r	-2.40316
-1.511514	l s	-2.191524
-1.763409	l t	-1.630245
-1.726785	l u	-1.586413
-2.287717	l v	-0.5660536
-2.61329	l w	-1.803601
-1.068709	l y	-2.322567
-3.996881	l z	-1.224672
-4.262052	m -	0.06449337
-3.348238	m .	0.256889
-3.70575	m /	-0.1421789
-5.030349	m 1
-5.030349	m <
-0.8300134	m </s>
-5.030349	m >
-5.021295	m ?
-4.262052	m @	-0.4434279
-5.030349	m I
-5.021295	m _	-0.427718
-0.7968181	m a	-1.477634
-1.510465	m b	-2.155477
-4.567939	m c	-0.1116237
-4.55178	m d	-0.4323727
-0.5640213	m e	-2.497644
-3.011632	m f	-1.347724
-5.030349	m g
-2.396356	m h	-2.244209
-0.9829787	m i	-1.8997
-3.074532	m l	-0.6524596
-1.604614	m m	-2.569319
-2.847079	m n	-1.631894
-0.9753712	m o	-2.475614
-1.129857	m p	-1.859736
-3.70575	m r	-0.8903181
-1.606146	m s	-1.699852
-4.00678	m t	-0.3280357
-1.556531	m u	-2.291233
-4.419279	m v	-0.1628987
-4.567939	m w	-0.1999561
-1.72828	m y	-2.22558
-5.030349	m z
-1.868664	n '	-3.416929
-3.340971	n -	-0.3560437
-3.480988	n .	-0.7150074
-5.035533	n /
-4.599677	n 2	-0.6960564
-5.514102	n 3
-5.514102	n 5
-5.514102	n 9
-5.514102	n :
-0.6035723	n </s>
-5.514102	n =
-5.514102	n N
-5.514102	n T
-5.514102	n _
-1.482738	n a	-1.134224
-3.652384	n b	-0.1092201
-1.43473	n c	-2.972628
-0.8323305	n d	-1.652982
-1.137151	n e	-0.868421
-2.197539	n f	-3.068357
-0.8896688	n g	-1.398839
-3.314441	n h	-1.0735
-1.513928	n i	-0.8702993
-3.013412	n j	-0.9223402
-1.951457	n k	-1.048066
-2.143528	n l	-2.98111
-2.275395	n m	-2.723107
-2.132598	n n	-2.370225
-1.294418	n o	-2.098042
-3.530962	n p	-1.241121
-3.575544	n q	0.1002756
-3.36199	n r	-1.742296
-1.319782	n s	-1.916191
-0.9354383	n t	-2.031112
-2.071863	n u	-1.237484
-1.992835	n v	-1.042842
-3.145922	n w	-1.328821
-3.673923	n x	-1.260071
-1.893081	n y	-1.996661
-3.853711	n z	-0.7185778
-5.514102	n Ô
-4.938637	o '	-0.2212861
-5.540653	o *	-0.1938762
-3.070447	o -	-0.6454987
-3.799139	o .	-0.4367201
-5.540653	o /	-0.4531268
-5.549707	o 1
-0.8562327	o </s>
-5.549707	o ?
-5.540653	o @
-5.549707	o D
-5.549707	o H
-5.549707	o T
-4.304289	o V	-1.097059
-5.549707	o Z
-2.198666	o a	-2.526944
-2.094953	o b	-1.581539
-1.901055	o c	-1.890832
-1.730799	o d	-0.7675253
-2.402649	o e	-1.551209
-1.013187	o f	-2.340002
-2.156098	o g	-0.4368232
-2.601859	o h	-0.9462891
-1.897069	o i	-2.092128
-2.783151	o j	-2.01069
-2.064907	o k	-1.659649
-1.460351	o l	-1.177439
-1.209353	o m	-1.062905
-0.7864516	o n	-2.356817
-1.668203	o o	-2.061807
-1.521244	o p	-0.7969612
-4.401199	o q	0.8126428
-0.8866074	o r	-2.090168
-1.585179	o s	-1.703417
-1.377535	o t	-0.3654053
-0.9781448	o u	-2.751179
-1.659392	o v	-0.6718735
-1.393487	o w	-0.5446036
-3.353276	o x	-1.976987
-2.5022	o y	-0.7556417
-3.404834	o z	-0.8129589
-5.540653	o }	1.33471
-5.549707	o √
-4.97537	p *
-4.512961	p -	-0.2945731
-2.618242	p .	-0.7560055
-3.864651	p 5	-1.070246
-3.106704	p :	-1.788509
-1.151466	p </s>
-4.512961	p ?	-0.4573168
-0.956215	p a	-1.878603
-3.605014	p b	-0.5372494
-3.864651	p c	-0.9430192
-3.400894	p d	-1.623424
-0.7439278	p e	-2.414019
-3.491071	p f	-1.096672
-3.349741	p g	-1.081671
-1.777322	p h	-1.300738
-1.381388	p i	-1.281151
-4.207074	p k	-0.5250018
-0.963887	p l	-3.173701
-2.017303	p m	-2.523877
-3.951802	p n	-0.6671721
-0.8366349	p o	-2.575047
-1.273485	p p	-3.088513
-0.7587388	p r	-3.836693
-1.725918	p s	-1.351251
-1.605014	p t	-1.235626
-1.445898	p u	-2.439637
-3.62729	p w	-0.8163858
-4.97537	p x
-2.416085	p y	-1.277952
-3.566642	q .
-2.251097	q </s>
-3.575696	q @
-3.575696	q a
-2.360242	q i	-0.4656547
-3.575696	q s
-0.005173475	q u	-3.454105
-3.575696	q v
-4.469501	r $	-0.9496315
-5.441918	r '
-5.441918	r *
-3.616717	r -	0.1388311
-2.135551	r .	-1.753835
-5.441918	r 1
-4.673622	r 2	-0.1865803
-0.7103534	r </s>
-4.673622	r C	-0.4350501
-5.432864	r P	-0.4575451
-1.135249	r a	-1.273094
-2.667584	r b	-1.528226
-1.932155	r c	-2.005355
-1.684261	r d	-1.655835
-0.5997934	r e	-2.391122
-2.607669	r f	-1.446869
-1.932943	r g	-2.021401
-2.934841	r h	-1.469913
-1.089471	r i	-2.25884
-4.050373	r j	-1.037054
-1.832387	r k	-1.015834
-1.979368	r l	-2.414933
-1.745738	r m	-2.138283
-1.650122	r n	-2.534421
-1.043662	r o	-0.8216611
-2.229577	r p	-1.699318
-4.830848	r q	1.227616
-1.853946	r r	-2.381833
-1.225317	r s	-2.231345
-1.292868	r t	-0.4568302
-1.844061	r u	-2.085817
-2.16415	r v	-1.090928
-2.859374	r w	-1.8379
-4.96335	r x	-0.1861256
-1.484918	r y	-1.135898
-5.432864	r z
-5.479538	s '
-4.368819	s *	-0.8153762
-3.475713	s -	-0.238274
-2.990256	s .	-0.5664565
-4.23412	s /	-0.3346795
-5.479538	s 2
-5.00097	s 4	-0.2471939
-0.3403182	s </s>
-5.479538	s ?
-5.479538	s I
-5.470484	s N	-0.394592
-5.470484	s _
-1.442056	s a	-1.245795
-3.177216	s b	-1.136721
-1.924916	s c	-2.464975
-2.844364	s d	-2.06686
-1.015953	s e	-1.805395
-2.827013	s f	-2.319896
-3.646784	s g	-1.467336
-1.493495	s h	-0.6596884
-1.207424	s i	-1.9637
-5.479538	s j
-2.323852	s k	-1.480577
-2.23995	s l	-2.832759
-2.222127	s m	-2.384812
-3.01576	s n	-1.746546
-1.370758	s o	-2.155295
-1.682508	s p	-2.129138
-3.254876	s q	-0.2287499
-3.401612	s r	-1.717169
-1.392344	s s	-2.313145
-0.8609388	s t	-1.932058
-1.482841	s u	-2.713016
-5.470484	s v	-0.4294219
-2.677015	s w	-2.310521
-2.36177	s y	-1.984437
-5.479538	s z
-5.635539	t &
-5.156971	t '	-0.01102429
-3.884971	t -	0.05868026
-3.448941	t .	-1.020447
-4.867242	t /	-0.4749509
-5.635539	t 3
-0.598407	t </s>
-5.626485	t ?	-0.4575598
-5.626485	t @
-5.635539	t B
-5.635539	t C
-5.635539	t E
-5.635539	t G
-5.635539	t N
-4.867242	t _	-0.1282895
-1.369318	t a	-1.71084
-3.465842	t b	-1.323941
-2.555065	t c	-1.898995
-4.243993	t d	-0.9992088
-1.034184	t e	-2.059938
-3.333216	t f	-1.984244
-3.641933	t g	-1.596386
-0.5620243	t h	-1.481267
-0.9990918	t i	-2.047744
-5.635539	t k
-2.097865	t l	-3.287517
-2.413618	t m	-2.24026
-3.111367	t n	-1.91402
-1.00461	t o	-1.757043
-3.248149	t p	-1.100159
-5.635539	t q
-1.44344	t r	-3.931884
-1.486127	t s	-1.914509
-1.873277	t t	-1.611697
-1.769153	t u	-2.456478
-5.17313	t v	-0.8449318
-2.123262	t w	-2.575489
-1.822311	t y	-2.100032
-3.82585	t z	-0.7145745
-4.622199	u '	-0.2355906
-3.990048	u -	-0.4908677
-5.100767	u /
-1.224786	u </s>
-5.091713	u @	-0.4023785
-4.622199	u A	-0.4996468
-5.100767	u I
-1.439709	u a	-2.321796
-1.733899	u b	0.6093554
-1.281473	u c	-2.492619
-1.659081	u d	-0.7158764
-1.409123	u e	-1.817788
-2.317111	u f	-2.366307
-1.46195	u g	-1.577058
-1.612974	u h	-3.02392
-1.602658	u i	-1.766307
-3.323871	u j	-1.398427
-3.526291	u k	-0.6994729
-1.071494	u l	-1.545295
-1.437601	u m	-1.317865
-0.9751077	u n	-2.009046
-2.595278	u o	-1.417837
-1.350652	u p	-1.263577
-0.8822217	u r	-1.923232
-0.8888636	u s	-2.03926
-0.8485698	u t	-0.8917762
-4.489697	u u	-0.6828177
-3.487373	u v	-0.2834366
-3.397972	u x	-1.138679
-2.295044	u y	-2.027543
-3.283253	u z	-0.8142112
-4.690617	v '
-2.795216	v .	-0.5953086
-4.690617	v /
-3.417171	v </s>
-1.200675	v a	-2.099303
-4.690617	v d
-0.1493684	v e	-2.759369
-0.7508867	v i	-2.200177
-1.367226	v o	-2.208214
-4.690617	v p
-4.690617	v r
-3.223351	v s	-0.865822
-2.968078	v u	-1.355745
-3.922321	v v	-0.2293111
-2.428166	v y	-1.422779
-3.884374	w -	-0.336481
-3.294548	w .	-0.4866489
-4.907943	w /
-0.8554411	w </s>
-4.907943	w _
-0.7675077	w a	-1.883249
-3.608167	w b	-0.8691767
-3.320102	w c	-1.132688
-2.731406	w d	-0.620901
-0.7837734	w e	-3.126279
-3.258832	w f	-1.269007
-4.898889	w g
-0.8084619	w h	-3.440185
-0.7688371	w i	-2.880059
-3.440676	w k	-0.7169135
-2.343072	w l	-1.575713
-2.999767	w m	-1.599034
-1.448919	w n	-2.256146
-0.9309361	w o	-2.646864
-4.445533	w p	-0.2893565
-1.951562	w r	-2.716629
-1.759797	w s	-1.320544
-2.336189	w t	-2.363279
-4.445533	w u	-0.2787873
-2.935526	w w	-1.993469
-2.6159	w y	-1.094944
-2.431938	x -	0.2787668
-3.939368	x .
-3.948422	x 6
-0.8808365	x </s>
-1.165605	x a	-1.972525
-1.034619	x c	-2.051891
-1.00694	x e	-2.209445
-3.939368	x f	-0.3711512
-1.910613	x h	-1.818002
-1.189787	x i	-1.182682
-3.948422	x l
-2.416698	x o	-1.042997
-0.4723854	x p	-2.870975
-3.939368	x q	1.468905
-0.7624881	x t	-1.040433
-1.965282	x u	-1.231472
-2.536673	x y	-0.8205353
-3.939368	x z	-0.4575564
-3.948422	x À
-4.941675	y &
-4.330605	y '	-0.1709088
-3.529926	y *	-1.097923
-4.941675	y +
-3.726221	y -	-0.6255663
-3.918106	y .	-0.4658815
-4.941675	y /
-4.941675	y 1
-0.1555359	y </s>
-4.932621	y =
-4.027251	y @	-0.5219423
-4.479266	y S	-0.8073711
-4.941675	y _
-2.602836	y a	-0.8154244
-2.254301	y b	-1.776538
-2.584547	y c	-1.881094
-3.270289	y d	-1.071237
-1.062251	y e	-2.075009
-3.617076	y f	-0.9033657
-3.474409	y g	-0.4876292
-3.830956	y h	-1.047592
-1.679502	y i	-3.10069
-4.941675	y j
-2.484959	y l	-1.253933
-2.248066	y m	-1.106755
-2.758405	y n	-1.505987
-1.015257	y o	-2.614026
-2.4221	y p	-1.137401
-2.958535	y r	-0.8128725
-1.262328	y s	-1.892961
-2.189301	y t	-2.108922
-2.454047	y u	-1.083718
-2.51824	y w	-1.079454
-3.758405	y x	-1.052677
-3.191107	y z	-1.199795
-3.071771	z *	-0.2411644
-1.732824	z </s>
-3.541285	z @	-0.4535528
-0.7943761	z a	-1.523268
-3.541285	z b	-0.4070131
-0.2790694	z e	-1.783773
-1.878952	z h	-0.7128593
-0.8415259	z i	-1.696136
-3.550339	z k
-2.018615	z l	-1.320923
-3.550339	z m
-3.550339	z n
-1.213841	z o	-1.105093
-3.550339	z p
-2.250563	z u	-0.4677324
-2.782043	z v	-0.4368041
-3.071771	z w	-0.4508137
-3.541285	z x
-1.654938	z y	-0.8364618
-1.489786	z z	0.09358211
-0.04575749	{ </s>
-1.847478	{ a
-1.847478	{ h
-1.847478	{ o
-1.368909	{ t	-0.2021435
-0.007061854	} </s>
-0.8325089	~ </s>
-1.423267	~ B	-0.4702185
-0.09214623	~ ~	-0.3928004
-0.8384236	Ä ê	-0.3088545
-0.8384236	Ä ë	-0.2095692
-0.8474777	Ä ô
-0.8474777	Ä Ô
-0.01424044	É ª	0
-0.06031637	Ü í	0.1881883
-0.06932649	à ‰
-0.06932649	â </s>
-0.3703565	ä </s>
-0.3703565	ä L
-0.1572264	å √	-0.1993764
-0.7682965	å ‚
-0.2897282	è </s>
-0.7682965	è S
-0.7682965	è T
-0.5373936	ê </s>
-0.5464478	ê A
-0.3613024	ë </s>
-0.06031637	í </s>
-0.1572264	ñ †	-0.08808521
-0.7682965	ñ °
-0.07918125	ó è	0.08169924
-0.3703565	ô </s>
-0.3703565	ô g
-0.06932649	ö </s>
-0.06932649	õ D
-0.7682965	† -
-0.7592424	† </s>
-0.7682965	† B
-0.7682965	† C
-0.06932649	° </s>
-0.3703565	• 2
-0.3703565	• </s>
-0.06932649	≤ .
-0.06787949	∂ ]	1.572152
-0.05115252	∑ </s>
-0.06932649	∏ Ä
-0.01424044	ª </s>
-0.7682965	º à
-0.7682965	º â
-0.7592424	º ä
-0.7682965	º ö
-0.3613024	ø •
-0.05115252	¬ ∑	0
-0.3424227	√ å	-0.181467
-1.110719	√ õ
-1.110719	√ †
-1.110719	√ ≤
-0.6321509	√ ∂	0.334574
-0.06932649	À ô
-0.06932649	Ÿ ê
-1.245418	‚ Ä
-0.6343476	‚ Ü	0.1881883
-0.4771213	‚ ñ	-0.181467
-0.4771213	‚ ó	0.2921197
-0.9897353	„ Ä	-0.3088545
-0.05435766	„ É	0
-0.06932649	‰ ∏
-0.146128	Ô º	-0.04803483
-0.9053704	Ô ø	-0.2095692

\3-grams:
-0.4494498	! ! !	-0.5047926
-1.278754	! ! .	-0.1393725
-0.2787536	! ! </s>
-1.353547	! ! ?	0.007889667
-0.8851176	. ! !
-0.2269039	. ! </s>
-0.9231288	<s> ! !	-0.1605723
-0.0617936	<s> ! </s>
-1.974281	<s> ! ?	-1.339528
-0.3622389	? ! !
-0.0001070614	<s> " </s>
-0.008773924	<s> # </s>
-0.02632894	< $ B	0
-0.000323256	<s> $ </s>
-0.07200197	C $ </s>
-0.01848341	S $ </s>
-0.004116566	T $ </s>
-0.05115252	e $ >	0.2762064
-0.05115252	r $ >	0.2762064
-0.2472022	<s> % </s>
-1.690339	<s> % a	0
-1.538248	<s> % e	0
-1.292399	<s> % h	-1.201884
-1.711879	<s> % m	0
-2.880671	<s> % p	-1.107742
-0.5050071	<s> % u	0
-0.4871776	1 & e	-0.06989723
-0.2082759	<s> & </s>
-1.207337	<s> & i	-0.06989723
-1.007907	<s> & o	-0.1036086
-1.207337	<s> & t
-0.04575749	R & D	0
-0.09691001	S & L	-0.06989723
-0.0001588204	' ' </s>
-0.03476211	0 ' s	2.57908
-0.7914174	<s> ' '	0
-4.113492	<s> ' 0	-0.06989723
-3.626315	<s> ' 6	-0.1393725
-4.113492	<s> ' 7	-0.06989723
-3.701108	<s> ' 8	0.02629765
-2.797011	<s> ' 9	-0.1665394
-1.380186	<s> ' </s>
-4.113492	<s> ' I	-0.2801867
-3.626315	<s> ' N	-1.107742
-3.626315	<s> ' S	-1.32068
-4.113492	<s> ' a	-0.1126052
-1.818442	<s> ' d	0.001680054
-1.431107	<s> ' l	0.002069704
-1.307209	<s> ' m	0.0005204319
-4.113492	<s> ' n	-0.4776668
-1.13706	<s> ' r	0.0003515262
-0.2358212	<s> ' s	-0.2995304
-1.423554	<s> ' v	0.001357195
-0.09691001	A ' s	1.886311
-0.1717037	F ' s	3.109455
-0.07200197	a ' a	-0.425862
-0.3622389	d ' </s>
-0.3622389	e ' s
-0.08715018	i ' n	-0.39794
-2.621984	n ' </s>
-0.001153812	n ' t	0.0001154884
-0.4871776	o ' c	-0.06989723
-0.4871776	o ' s	3.165445
-0.3622389	t ' s	3.165445
-0.3622389	u ' l	2.272451
-0.4871776	y ' a	-0.4817165
-0.0003050892	<s> ( </s>
-0.0003000307	<s> ) </s>
-0.1861476	! * </s>
-0.8920946	* * *	-2.846256
-1.466126	* * ,	-1.107742
-1.953303	* * .	-0.06989723
-0.3869446	* * </s>
-1.753874	* * A	-0.3637253
-1.953303	* * D	-0.06989723
-1.953303	* * M	-0.06989723
-1.953303	* * Y
-1.290035	* * a	-0.06989723
-1.953303	* * b
-1.953303	* * d	-0.06989723
-1.026793	* * o	0
-1.753874	* * p
-1.290035	* * s	-0.1198828
-1.753874	* * t	-0.02736594
-1.953303	* * u
-0.1597008	<s> * *	-0.5321946
-0.5303668	<s> * </s>
-0.2269039	\ * </s>
-0.6856881	\ * \	-0.3637253
-0.4871776	e * *
-0.4871776	e * </s>
-0.09691001	h * *	-1.577375
-0.1861476	o * *	-0.2982417
-0.03778856	s * *	-0.8120559
-0.01930515	y * *	-1.478724
-0.1628094	z * *	-0.639358
-0.3622389	+ + </s>
-0.1861476	0 + </s>
-0.4821764	<s> + </s>
-1.14039	<s> + S
-1.14039	<s> + c	-0.06989723
-0.09691001	* , </s>
-0.7882076	, , ,
-0.30103	, , </s>
-0.7882076	, , ^	-0.06989723
-0.006279066	0 , 0	-1.074144
-2.506294	0 , 4
-2.506294	0 , 7
-0.3832167	1 , 0	0.6027781
-1.119975	1 , 1	0.0279705
-1.047425	1 , 2	0.103732
-1.047425	1 , 3	-0.1852179
-1.258278	1 , 4	-0.2988934
-1.207126	1 , 5	-0.1013816
-1.388272	1 , 6	-0.154988
-1.388272	1 , 7	-0.1385327
-1.01524	1 , 8	-0.05395442
-1.847056	1 , 9	-0.1721381
-0.2514712	2 , 0	0.575927
-1.356981	2 , 1	-0.2531886
-1.356981	2 , 2	-1.487953
-1.844159	2 , 3
-1.431775	2 , 4	-0.01666121
-1.185945	2 , 5	0.1621076
-1.356981	2 , 6
-1.844159	2 , 7	-0.3627683
-1.18089	2 , 8	0.03205898
-1.18089	2 , 9
-0.1273993	3 , 0	-0.1016466
-1.168792	3 , 1
-1.65597	3 , 4
-1.45654	3 , 5	0.2133589
-1.45654	3 , 8	-0.1266952
-0.3168243	4 , 0	-0.08959488
-1.633306	4 , 1	-0.3266636
-1.633306	4 , 2	-0.490192
-1.633306	4 , 3
-1.220922	4 , 4	-0.2732407
-0.845098	4 , 5	0.122122
-1.433876	4 , 6
-1.633306	4 , 7
-1.433876	4 , 8
-1.633306	4 , 9
-0.09327573	5 , 0	-0.4404652
-1.960665	5 , 2
-1.761235	5 , 4
-1.761235	5 , 5	0.2133589
-1.473487	5 , 6	-0.1573173
-1.761235	5 , 7
-1.761235	5 , 8	-0.240981
-1.761235	5 , 9
-0.2596373	6 , 0	0.1993834
-1.487178	6 , 1	-0.4930744
-1.487178	6 , 2	-0.4518578
-1	6 , 4	-0.1398809
-1.287748	6 , 5	-0.3805782
-1	6 , 8	-0.04010416
-0.2272438	7 , 0	0.3113572
-1.117052	7 , 5
-0.9040975	7 , 8
-0.2138798	8 , 0	0.1800783
-1.44142	8 , 1
-1.241991	8 , 3
-1.44142	8 , 4
-0.9542425	8 , 8	-0.1260188
-0.243038	9 , 0	0.3113572
-0.9198918	9 , 3	-0.1125196
-1.132846	9 , 5	-0.3805782
-1.132846	9 , 8
-4.059895	<s> , ,	-0.1530734
-4.729589e-05	<s> , </s>
-0.1861476	^ , ,	-0.4503809
-0.7331013	- - -	-0.1133589
-0.09095424	- - </s>
-2.457377	- - R	-1.971199
-0.3521825	0 - d	-1.756545
-0.3846581	1 - </s>
-0.4871776	2 - </s>
-0.4871776	2 - R	0.2853349
-0.4871776	7 - 0	-0.421265
-0.06694679	: - -	-2.782595
-0.7840264	<s> - -	-0.7544544
-0.07838342	<s> - </s>
-3.401334	<s> - L	0.2615296
-1.089238	B - 0	-0.421265
-0.30103	B - </s>
-0.8898081	B - c	-0.8586283
-1.089238	B - x
-0.04575749	X - r	-0.69897
-0.111492	a - </s>
-1.609393	a - o	-0.5079192
-1.609393	a - p
-1.609393	a - s
-0.4771213	b - </s>
-0.9642988	b - c
-0.9642988	b - s
-0.2218488	c - </s>
-0.6856881	c - R	-0.05578146
-0.4101745	d - 1	0.04275196
-0.90309	d - </s>
-1.74245	d - J
-0.8159398	d - O	0.03476212
-0.90309	d - b	-0.7212464
-1.74245	d - s
-2.268933	e - 1	0.9775715
-0.9066941	e - </s>
-1.856549	e - a	-0.642394
-2.069504	e - b
-0.9858754	e - c	-0.4990866
-1.342423	e - d	-0.6737064
-0.6936193	e - e	-0.7212991
-1.781755	e - f	0.09706902
-1.342423	e - g	-0.212117
-1.610719	e - i	0.3495492
-2.268933	e - l
-1.061596	e - m	-0.3591973
-1.856549	e - o	-0.2980319
-1.207724	e - p	-0.7529345
-1.781755	e - q	-1.107742
-1.856549	e - r	-0.4138174
-1.179695	e - s	0.1229127
-1.304634	e - t	-0.7379611
-2.268933	e - u	-0.459668
-2.268933	e - w
-0.06694679	f - </s>
-0.04139268	g - </s>
-1.498311	h - </s>
-0.01921971	h - h	-0.9458219
-2.725851	h - p
-2.238673	h - u	-1.551439
-0.7732987	i - </s>
-2.135538	i - C
-2.135538	i - M	-0.3446908
-0.9282007	i - a	-0.5098988
-1.936108	i - b
-1.209027	i - c	-0.3659038
-1.209027	i - d	-0.4976056
-2.135538	i - e
-1.25042	i - f	-0.2526405
-1.64836	i - g	-0.2927354
-1.34733	i - i	-0.07345561
-1.477324	i - l	-0.006729755
-1.723154	i - m	-0.1306046
-1.136477	i - n	-0.6368221
-2.135538	i - o
-1.296178	i - p	-0.3337284
-1.209027	i - s	0.1681112
-1.074329	i - t	-0.1762109
-1.472269	i - w	-2.403901
-0.1628094	j - </s>
-0.2863067	l - </s>
-1.347516	l - a	-0.5161124
-0.559308	l - j	0
-0.1717037	m - </s>
-0.8996837	n - </s>
-1.789492	n - a
-1.149561	n - c	0.3355598
-0.9898604	n - d	0.3677744
-1.200714	n - e	-0.1829905
-1.501744	n - f	0.09706902
-1.988921	n - g	-0.3662105
-1.325652	n - i	0.1864614
-1.501744	n - l	-0.2736288
-1.576537	n - m	0.05391987
-1.325652	n - n	-0.3508011
-0.8733548	n - p	-0.5037446
-1.576537	n - r	-0.5029213
-1.576537	n - s	0.03786848
-1.789492	n - t	-0.2041766
-1.789492	n - u	-0.7556797
-0.9576757	n - v	0.08432089
-1.233842	o - </s>
-1.807873	o - B	-1.438735
-1.263805	o - a	-0.5759671
-0.9627751	o - c	-1.952841
-1.263805	o - d	-0.9372443
-1.29599	o - e	-0.75999
-1.636837	o - f	-0.5555996
-1.807873	o - g	-0.1561323
-2.295051	o - h	-0.5237123
-1.807873	o - i	0.1479566
-2.295051	o - m	-0.1559674
-0.3380511	o - o	-0.7865391
-1.636837	o - p	0.1251764
-2.295051	o - r
-1.409933	o - s	-0.9907379
-1.807873	o - t	0.01595328
-1.807873	o - w	-0.3291647
-0.06694679	p - </s>
-0.6766936	r - </s>
-1.640993	r - E	-0.06989723
-1.228609	r - a	-0.5864862
-1.441563	r - c
-1.441563	r - e
-1.640993	r - f	-0.2423428
-1.441563	r - g	-0.2427233
-1.228609	r - i	0.01849153
-1.441563	r - l	-0.7245725
-1.640993	r - n
-1.640993	r - o
-1.640993	r - p
-1.441563	r - r
-1.441563	r - s	0.1094563
-1.441563	r - t	-0.07063774
-0.980256	s - </s>
-1.819616	s - A	-0.3964798
-1.819616	s - b	-0.4776842
-1.407232	s - c	-0.4743047
-1.620187	s - g	-0.6615693
-1.819616	s - n	-0.05045724
-1.819616	s - o
-1.819616	s - p	-0.4628532
-0.2102226	s - s	-2.410012
-0.5672979	t - </s>
-1.566359	t - S	-0.2265485
-1.566359	t - c	-0.4979741
-1.153975	t - e	-0.2272169
-1.366929	t - i	-0.2666348
-1.153975	t - p	-0.2214868
-1.079181	t - s	-0.008665969
-0.90309	t - w	-2.403901
-0.04139268	u - </s>
-0.1760913	w - </s>
-0.6399306	w - h	-0.8648286
-1.332276	x - </s>
-1.132846	x - P	-0.5109648
-1.332276	x - g
-0.9198918	x - h	1.292778
-1.332276	x - p	-0.07639298
-0.6690068	x - r	-2.483083
-1.332276	x - w	-0.5033393
-0.02996322	y - </s>
-0.2877481	! . </s>
-0.1861476	* . </s>
-2.018284	. . !	-0.08357178
-0.3489674	. . .	0.1479042
-0.278712	. . </s>
-2.416224	. . ?	-1.107742
-2.018284	. . @	-0.03671654
-1.628389	0 . .	-1.54885
-1.151268	0 . 0	-0.06498427
-0.8502377	0 . 1	-0.2007485
-0.8687211	0 . 2	-0.09524263
-0.9751764	0 . 3	-0.5209621
-1.276206	0 . 4	-0.1606096
-0.9082296	0 . 5	-0.1288784
-0.9516953	0 . 6	-0.7477909
-1.151268	0 . 7	-0.2235485
-1.452298	0 . 8	-0.134772
-1	0 . 9	-0.2931933
-1.916137	0 . </s>
-1.224859	1 . 0	-0.1920127
-1.155223	1 . 1	-0.06223387
-0.9531189	1 . 2	-0.01980889
-1.055108	1 . 3	-0.4538731
-1.139429	1 . 4	-0.1847958
-0.8963912	1 . 5	-0.2455852
-0.9955227	1 . 6	-0.2364374
-1.109466	1 . 7	-0.05515206
-0.8462246	1 . 8	-0.2673133
-1.206376	1 . 9	-0.1564818
-1.139429	1 . </s>
-2.272275	1 . c	0.647179
-1.48192	2 . 0	-0.03919429
-1.021189	2 . 1	-0.2673168
-1.09374	2 . 2	-0.4004254
-1.232043	2 . 3	-0.1695205
-0.9046837	2 . 4	-0.3601768
-0.7549214	2 . 5	-0.1316475
-1.135133	2 . 6	-0.0560094
-1.290035	2 . 7	-0.03168267
-0.9737647	2 . 8	-0.4361258
-1.290035	2 . 9	-0.07728552
-0.8920946	2 . </s>
-2.121851	2 . h	0.2452485
-1.561358	3 . 0	-0.1210751
-0.9727259	3 . 1	-0.4009361
-0.9920311	3 . 2	0.1298723
-1.22051	3 . 3	-0.3155887
-1.130334	3 . 4	-0.5880039
-0.8872957	3 . 5	-1.028716
-1.079181	3 . 6	-0.644275
-1.255273	3 . 7	-0.2235485
-0.8293038	3 . 8	-0.064851
-0.9365137	3 . 9	-0.4109956
-1.079181	3 . </s>
-2.219571	3 . h	0.5863649
-1.395035	4 . 0	-0.04420426
-1.027058	4 . 1	-0.3816207
-1.131794	4 . 2	-0.2583889
-1.218944	4 . 3	-0.203453
-1.173186	4 . 4	0.1147279
-0.6680363	4 . 5	-0.08302885
-1.059243	4 . 6	-0.6740037
-0.9690663	4 . 7	-0.3102476
-1.027058	4 . 8	-0.1750813
-1.218944	4 . 9	-0.05460162
-1.027058	4 . </s>
-1.376123	5 . 0	-0.1262763
-1.194977	5 . 1	0.03027344
-1.246129	5 . 2	0.03670233
-0.8704655	5 . 3	-0.1794506
-1.070038	5 . 4	-0.2306925
-0.7690079	5 . 5	-0.07973642
-0.9187702	5 . 6	-0.01235801
-0.9450991	5 . 7	-0.2042685
-1.149219	5 . 8	-0.15229
-1.246129	5 . 9	-0.1162077
-1.194977	5 . </s>
-1.20412	6 . 0	-0.06460451
-0.90309	6 . 1	-0.06186686
-0.9311187	6 . 2	-0.2022304
-1.028029	6 . 3	-0.1558879
-1.152967	6 . 4	0.08547752
-0.876761	6 . 5	0.01596011
-1.028029	6 . 6	0.1739932
-1.334114	6 . 7	-0.4623238
-1.152967	6 . 8	-0.1948691
-0.9311187	6 . 9	-0.3135988
-1.579944	6 . </s>
-1.792898	6 . c	0.647179
-1.443263	7 . 0	-0.2194198
-1.00393	7 . 1	-0.115682
-1.23241	7 . 2	-0.2075192
-1.142233	7 . 3	0.07425711
-1.170262	7 . 4	0.06601911
-0.802285	7 . 5	-0.1193744
-0.9661418	7 . 6	0.1065019
-1.067599	7 . 7	-0.038891
-0.9313796	7 . 8	0.05117903
-0.802285	7 . 9	0.030691
-1.573257	7 . </s>
-0.91833	8 . 0	-0.3044666
-1.126606	8 . 1	0.2350497
-0.91833	8 . 2	0.08006673
-0.9395192	8 . 3	0.1149807
-1.0101	8 . 4	-0.2974833
-0.7353992	8 . 5	-0.07952248
-1.286307	8 . 6	0.2169844
-1.126606	8 . 7	0.2695715
-1.161368	8 . 8	-0.3212334
-1.094421	8 . 9	0.07450033
-1.654171	9 . 0
-0.9270903	9 . 1	-0.2119253
-1.853601	9 . 2
-0.764363	9 . 3	-0.1047354
-1.190332	9 . 4	0.06916758
-1.366423	9 . 5	0.2800911
-1.065393	9 . 6	-0.1599837
-0.8223549	9 . 7	0.2100118
-0.8223549	9 . 8	0.07735839
-1.065393	9 . 9	0.0894471
-1.441217	9 . </s>
-1.853601	9 . h	0.5863649
-1.939403	<s> . .	-0.8037782
-0.005031188	<s> . </s>
-0.1861476	? . .
-0.3622389	@ . 3	-0.5243517
-0.07463362	A . </s>
-1.163871	A . D	0.4724215
-0.4727337	C . </s>
-0.6856881	C . D	0.1313052
-0.6842467	D . </s>
-0.2319491	D . T	0
-0.860338	D . s	-1.697567
-0.02482358	H . </s>
-0.1861476	J . </s>
-0.1861476	N . </s>
-0.1628094	R . </s>
-0.146128	S . </s>
-1.332276	S . R
-1.132846	S . S	0.5292452
-0.02020339	T . </s>
-0.02020339	U . S	0.05551733
-0.1861476	W . </s>
-1.089238	a . .	-0.2697167
-0.4259687	a . c	-1.268239
-0.6768537	a . m	-0.1163844
-0.6856881	b . </s>
-0.6856881	b . c	0.647179
-0.8851176	b . w	-0.3564294
-0.004364805	c . </s>
-2.186148	c . c	0.9882953
-0.4871776	d . p	-0.2427244
-0.1627273	e . </s>
-0.1861476	f . </s>
-0.2082759	g . </s>
-0.7201593	g . c	-0.2908381
-1.207337	g . i	-0.3564294
-1.115566	h . </s>
-0.916137	h . D	0.1313052
-0.916137	h . a	-0.7303921
-0.3273589	h . c	0.5616313
-0.07255067	i . e	-0.2662679
-0.8381492	l . </s>
-0.08482151	l . c	-0.2001295
-1.497901	m . .	-0.5233945
-0.3823349	m . </s>
-0.5713912	m . c	0.3138421
-0.6585413	m . s	-0.6478175
-0.07085586	n . </s>
-0.8545396	n . c	0.3697458
-0.09913147	o . </s>
-0.7359536	o . c	0.5158738
-0.004500501	p . </s>
-0.000755514	r . </s>
-3.122159	r . c	0.9882953
-2.305073	s . 8	-0.5107106
-0.07556348	s . </s>
-0.9014418	s . c	-0.01560509
-1.817896	s . n	-1.329591
-0.006681585	t . </s>
-2.002389	t . c
-0.006530867	v . </s>
-1.229756	w . 1	-0.8325831
-0.4301247	w . a	-0.7579479
-1.429186	w . d	-0.02260903
-1.429186	w . e
-1.429186	w . i
-1.429186	w . m	-0.459668
-1.229756	w . p
-1.429186	w . w	-0.3564294
-0.1811464	y . c	0.6750385
-1.485029	/ / A	-0.3637253
-1.485029	/ / a	-0.1853201
-1.197281	/ / b	-0.06989723
-0.520587	/ / m	-0.2575643
-1.684458	/ / p	0.3175195
-0.3521825	/ / w	-0.2133075
-0.1861476	0 / 3	0.4385632
-0.663578	1 / 1	-0.2668806
-0.3263358	1 / 2	-1.019448
-1.247155	1 / 3	0.3196025
-0.794857	1 / 4	-0.04219767
-1.071063	1 / 8	0.6232493
-0.551915	2 / 1	-0.5523785
-0.9642988	2 / 2
-0.7648693	2 / 3	0.691384
-0.9642988	2 / 6
-1.53833	3 / 1
-1.53833	3 / 2
-0.8750613	3 / 3	-1.817971
-0.1908145	3 / 4	-0.2640464
-0.8750613	3 / 8	-1.160863
-0.4871776	4 / 1	-0.4072847
-1.100662	5 / 1
-0.8877071	5 / 3	0.3825732
-0.1597008	5 / 8	0.3444957
-0.4771213	6 / 2	0.2126819
-0.551915	6 / r	0.370674
-0.60206	7 / 1	-0.1003282
-0.60206	7 / 3	-1.817971
-0.4771213	7 / 8	0.6690068
-1.065899	7 / r	0.08554769
-0.3622389	8 / 3	0.4385632
-0.1326256	9 / 1	-0.531584
-0.6766936	9 / 3	-0.8405702
-0.006839424	: / /	-0.0799503
-0.001969593	<s> / </s>
-0.1760913	a / c	-0.4771212
-0.9642988	a / d
-1.14039	m / >	-0.06989723
-1.14039	m / B	-0.06989723
-1.14039	m / a	-0.4381409
-1.14039	m / v	-0.06989723
-0.1861476	o / a	-0.4381409
-0.5740313	s / 1
-0.648825	s / 2	-0.1018967
-1.061209	s / 4	-0.5158752
-1.061209	s / s
-0.3846581	t / p	0.5703403
-0.5840876	t / s	-0.459668
-0.1861476	' 0 7	9.913072e-05
-0.01265583	, 0 0	-2.70816
-2.282169	, 0 1
-2.769346	, 0 2
-2.569917	, 0 4	-0.2619987
-2.282169	, 0 5	-0.1785334
-2.769346	, 0 6
-2.569917	, 0 7
-2.769346	, 0 9
-0.6632689	- 0 1	-0.5228377
-0.6632689	- 0 2	-0.5175369
-1.118099	. 0 0	-0.09668445
-1.243038	. 0 1	-2.412502
-1.066947	. 0 2	-0.312311
-1.243038	. 0 3	0.2507088
-1.248093	. 0 4	-0.2568918
-0.8750613	. 0 5	-0.5831746
-0.8170693	. 0 6	-0.6255411
-1.118099	. 0 7	-0.07224575
-1.243038	. 0 8	-0.07256678
-0.9420081	. 0 9	-0.2688453
-0.9420081	. 0 </s>
-1.289878	0 0 ,	-0.312311
-2.9149	0 0 -	0.1118252
-2.840106	0 0 .	-1.796371
-0.5036464	0 0 0	-1.260017
-1.910687	0 0 1	-0.6827466
-2.328223	0 0 2	-0.4720118
-2.238046	0 0 3	-0.4896378
-2.141136	0 0 4	-0.2498775
-1.840106	0 0 5	-2.890176
-1.885864	0 0 6	-0.3739184
-1.760925	0 0 7	-0.7948465
-2.840106	0 0 8	-0.0628968
-2.442166	0 0 9	-0.4906941
-0.2620402	0 0 </s>
-2.9149	0 0 @	-0.1348035
-3.327284	0 0 _
-3.127854	0 0 s	1.443059
-3.327284	0 0 t	1.228296
-1.047553	1 0 ,	0.298957
-1.279867	1 0 .	0.09302977
-2.777769	1 0 /	-0.06989723
-0.5404685	1 0 0	-0.9527759
-1.637379	1 0 1	-0.4342958
-1.688531	1 0 2	-0.5621885
-1.613897	1 0 3	-0.2632414
-2.1145	1 0 4	0.3345239
-1.892651	1 0 5	-0.1060534
-2.119555	1 0 6	0.06165177
-1.892651	1 0 7	-0.1712924
-2.365385	1 0 8	0.07351542
-2.290591	1 0 9	0.3211392
-0.3637343	1 0 </s>
-2.119555	1 0 t	0.7488605
-1.246263	2 0 ,	0.1802672
-1.82984	2 0 .	-0.2930845
-0.3091378	2 0 0	-0.2174174
-1.586802	2 0 1	0.1074373
-2.135925	2 0 2	0.3197369
-2.594709	2 0 3	-0.1542126
-2.594709	2 0 4	0.4753648
-2.306961	2 0 5	0.4047499
-2.594709	2 0 7
-2.794138	2 0 8
-0.4649761	2 0 </s>
-2.13087	2 0 s	-0.4723587
-1.52881	2 0 t	0.3579348
-2.594709	2 0 z	-0.3637253
-1.258969	3 0 ,	0.4116613
-2.55906	3 0 -	-0.272306
-1.7197	3 0 .	-0.2582425
-0.6569086	3 0 0	-0.7538584
-1.632549	3 0 1	-0.6697816
-2.35963	3 0 3	0.4397245
-2.071882	3 0 5	-1.213795
-2.071882	3 0 9	0.05520251
-0.217576	3 0 </s>
-1.900846	3 0 s	1.304739
-1.632549	3 0 t	0.6766936
-1.259066	4 0 ,	0.5642714
-1.634729	4 0 .	-0.03249924
-0.5646912	4 0 0	-0.6039741
-1.935759	4 0 1	0.1834444
-2.223507	4 0 5
-0.2303231	4 0 </s>
-1.764723	4 0 s	1.304739
-1.935759	4 0 t	-0.0508371
-0.9527997	5 0 ,	0.01695022
-2.251608	5 0 .
-0.620512	5 0 0	-1.103586
-2.663992	5 0 1
-2.663992	5 0 2	0.114353
-2.663992	5 0 4	0.222544
-2.663992	5 0 8
-0.2310998	5 0 </s>
-1.574754	5 0 s	1.081305
-2.251608	5 0 t	1.172306
-1.290035	6 0 ,	0.6669338
-2.32128	6 0 .
-0.6879746	6 0 0	-0.6891491
-2.32128	6 0 3	-0.5011343
-1.834103	6 0 5	-0.1785334
-0.2213188	6 0 </s>
-1.038223	6 0 s	0.8967805
-2.32128	6 0 t	1.228296
-1.174157	7 0 ,	0.638905
-1.447158	7 0 .	-0.1778509
-0.845098	7 0 0	-0.2682923
-2.235366	7 0 1
-2.035936	7 0 3	-0.1542126
-0.2933432	7 0 </s>
-0.6874902	7 0 s	0.639656
-1.880814	8 0 '	-0.6927686
-1.36893	8 0 ,	0.696897
-2.168562	8 0 .
-0.8016323	8 0 0	-1.057606
-2.367991	8 0 1
-2.168562	8 0 5	-0.2757782
-2.168562	8 0 8	-0.2458289
-2.168562	8 0 9	0.2345482
-0.2733586	8 0 </s>
-0.7120216	8 0 s	0.5336026
-1.628389	9 0 '	-1.670169
-1.628389	9 0 ,	1.427426
-2.291658	9 0 .
-1.127787	9 0 0	-0.2242168
-2.291658	9 0 3	0.1869037
-2.291658	9 0 5	0.06533813
-2.092228	9 0 8	0.1164489
-1.80448	9 0 9	0.3211392
-0.1710117	9 0 </s>
-0.8624721	9 0 s	0.7554514
-0.4638394	: 0 0	0.06911085
-0.6632689	: 0 6	0.0510004
-0.3235958	<s> 0 .	0.05366674
-0.8369293	<s> 0 0	0.02143227
-1.198657	<s> 0 1	0.239771
-1.884345	<s> 0 2	0.3671738
-1.596597	<s> 0 5	-0.1785334
-1.596597	<s> 0 6
-1.084714	<s> 0 7	0.404578
-2.083775	<s> 0 8
-2.083775	<s> 0 9
-0.9199035	<s> 0 </s>
-0.4313638	, 1 0	-0.8938165
-0.8293038	, 1 2	-0.3749222
-1.316481	, 1 4
-1.117052	, 1 5
-1.117052	, 1 6
-1.316481	, 1 7
-0.01378828	- 1 9	-0.3281478
-1.160215	. 1 0	-0.867696
-1.672098	. 1 1	-0.2720519
-1.098067	. 1 2	-0.7315215
-1.496007	. 1 3	-0.1160792
-1.274158	. 1 4	-0.2730315
-1.12803	. 1 5	-0.3786131
-1.319915	. 1 6	-0.1153849
-1.501062	. 1 7	0.1443216
-1.501062	. 1 8	-0.2265155
-1.194977	. 1 9	-0.6347328
-0.3151165	. 1 </s>
-1.01424	/ 1 1	-0.3771728
-1.190332	/ 1 2	-0.4489959
-1.677509	/ 1 3
-0.6163004	/ 1 4	-1.112809
-0.2872417	/ 1 6	-1.109212
-1.964299	0 1 -
-1.477121	0 1 .
-1.964299	0 1 /
-1.124939	0 1 0	-0.2784391
-1.764869	0 1 1	-0.6172579
-1.037789	0 1 2	-0.1901706
-1.964299	0 1 3	-0.2280591
-1.551915	0 1 4	-0.3345081
-1.964299	0 1 6	-0.118277
-1.964299	0 1 8	-0.2152675
-1.764869	0 1 9	-0.8515372
-0.2403322	0 1 </s>
-1.867185	1 1 ,	-0.4407233
-0.9320537	1 1 .	-0.1706699
-1.072232	1 1 /	-1.409953
-1.280508	1 1 0	-1.01955
-1.491362	1 1 1	-0.4240787
-1.621356	1 1 2	-0.1578803
-1.792392	1 1 3	-1.507192
-2.08014	1 1 4	-0.2281816
-1.792392	1 1 5	-1.516318
-1.792392	1 1 6	-0.0448019
-1.792392	1 1 7	-0.1367506
-1.6163	1 1 8	-0.1032876
-1.31527	1 1 9	-0.2277247
-0.3570252	1 1 </s>
-2.279569	1 1 @	0.1713915
-2.279569	1 1 _
-1.280508	1 1 t	0
-1.606273	2 1 ,	-0.08574211
-0.9874108	2 1 .	-0.03023009
-1.819227	2 1 /	-0.2494518
-1.819227	2 1 0	-0.02851041
-2.018656	2 1 1
-2.018656	2 1 3	-0.2280591
-1.819227	2 1 6	0.1345438
-1.819227	2 1 7
-1.819227	2 1 8	-0.2613444
-1.606273	2 1 9	-0.1398086
-0.3776641	2 1 </s>
-0.615025	2 1 s	0.5956259
-1.2075	3 1 ,	-0.2225072
-1.337494	3 1 .	-0.06591827
-1.796278	3 1 0	-0.6224475
-1.50853	3 1 2	-0.1590638
-1.50853	3 1 5	-0.159739
-1.995707	3 1 8	-0.2152675
-0.4203936	3 1 </s>
-0.4384919	3 1 s	0.4458635
-0.464347	4 1 .	-0.3892905
-1.224015	4 1 0	-0.2078561
-1.511763	4 1 2	-0.5736552
-0.2945959	4 1 </s>
-0.6197888	5 1 .	-0.1807307
-1.384658	5 1 0	-0.02851041
-1.384658	5 1 2	0.02028192
-1.584088	5 1 3
-1.09691	5 1 6	-0.0317078
-0.3565473	5 1 </s>
-0.8846066	6 1 .
-1.547875	6 1 0	-0.2813312
-1.547875	6 1 1	-0.4735709
-1.060698	6 1 3	-1.801587
-1.547875	6 1 4
-0.2648178	6 1 </s>
-1.052517	7 1 .	-0.110743
-0.1648103	7 1 </s>
-1.575314	8 1 ,
-1.375884	8 1 .
-1.575314	8 1 9
-0.1104125	8 1 </s>
-1.426976	9 1 .	-0.1167666
-1.83936	9 1 0
-1.426976	9 1 1	-0.4212355
-1.83936	9 1 5
-1.83936	9 1 8	-0.2152675
-0.1153934	9 1 </s>
-0.5840876	: 1 5
-0.5840876	: 1 </s>
-1.595966	<s> 1 ,	0.01338759
-3.567443	<s> 1 -	-0.296644
-1.239846	<s> 1 .	-0.6356099
-1.790231	<s> 1 /	-1.044636
-0.8316794	<s> 1 0	-0.2605423
-1.366355	<s> 1 1	-0.2191546
-1.32249	<s> 1 2	-0.309048
-1.265685	<s> 1 3	-0.296125
-1.394524	<s> 1 4	0.0655884
-1.161188	<s> 1 5	-0.2581001
-1.506234	<s> 1 6	0.04297717
-1.419875	<s> 1 7	-0.2834066
-1.451877	<s> 1 8	-0.05309546
-0.4760396	<s> 1 9	-0.1064361
-1.305749	<s> 1 </s>
-1.966322	<s> 1 s	0.4028289
-0.8851176	= 1 &	-0.3564294
-0.8851176	= 1 0
-0.6856881	= 1 1	-0.253218
-0.1861476	? 1 2	-0.522471
-0.1861476	A 1 </s>
-0.1628094	M 1 </s>
-0.6632689	_ 1 6
-0.1628094	a 1 0	-0.1271815
-0.1861476	e 1 1	-0.525291
-0.2839966	, 2 0	-0.5198426
-1.283058	, 2 2
-1.083628	, 2 4
-0.79588	, 2 5	-0.3697825
-1.283058	, 2 7
-1.079181	. 2 0	-1.021826
-2.14039	. 2 1
-1.728006	. 2 2	-0.2740504
-1.21388	. 2 3	-0.2360801
-1.728006	. 2 4	-0.1856285
-0.8402991	. 2 5	-0.9693062
-1.653213	. 2 6	-1.438735
-1.477121	. 2 7	0.03931724
-1.352183	. 2 8	-0.001031385
-1.482176	. 2 9	-0.4858235
-0.2962311	. 2 </s>
-1.698031	/ 2 /
-1.039817	/ 2 0	-0.03293828
-1.698031	/ 2 4
-0.1053432	/ 2 </s>
-1.640993	0 2 ,
-1.640993	0 2 -	-0.3564294
-1.640993	0 2 3
-0.1124222	0 2 </s>
-1.50515	1 2 ,	-0.3225226
-1.20412	1 2 .	-0.3816992
-1.932126	1 2 /	-0.4851325
-0.7781513	1 2 0	-0.563473
-1.681241	1 2 2	-0.2109228
-2.34451	1 2 3
-1.932126	1 2 4	0.0802488
-1.313264	1 2 5	-0.04738797
-1.932126	1 2 6	-0.2612812
-1.932126	1 2 7	-0.3874366
-1.932126	1 2 8	-0.3356967
-0.3071041	1 2 </s>
-1.11697	1 2 t	0
-1.417236	2 2 ,	-0.1984843
-1.111151	2 2 .	-0.2436203
-2.075449	2 2 /
-1.111151	2 2 0	0.1290855
-1.87602	2 2 1	-0.0388459
-2.075449	2 2 2	-0.2180604
-1.87602	2 2 3
-1.41218	2 2 4	-2.386173
-1.148939	2 2 5	-0.2783052
-2.075449	2 2 6
-1.87602	2 2 9	-0.2515899
-0.2927046	2 2 </s>
-1.190332	2 2 n	0.3565473
-1.897955	3 2 ,
-1.058595	3 2 .	-0.02502529
-1.410777	3 2 0	-1.624418
-1.897955	3 2 1	-0.2916667
-1.897955	3 2 2	-0.2180604
-1.485571	3 2 5	-0.121511
-1.897955	3 2 6	-0.1596017
-1.897955	3 2 7
-1.698525	3 2 9	-0.513683
-0.1739881	3 2 </s>
-1.853601	4 2 ,	-0.1705971
-0.764363	4 2 .	-0.0892771
-1.654171	4 2 0	-0.09246408
-1.654171	4 2 3	-0.6134223
-1.441217	4 2 4	-0.2747324
-1.441217	4 2 5	-0.2106148
-1.366423	4 2 6	-1.438735
-0.9270903	4 2 7	-0.756157
-1.441217	4 2 8	-0.4045236
-1.853601	4 2 9	-0.1725667
-0.437004	4 2 </s>
-1.019296	5 2 .	-0.1392062
-1.265125	5 2 2	-0.3631542
-1.677509	5 2 3
-1.47808	5 2 5	-0.2484288
-0.2013271	5 2 </s>
-1.640993	6 2 ,
-0.5517549	6 2 .	-0.2575488
-1.441563	6 2 0
-1.441563	6 2 2
-1.640993	6 2 3
-1.153815	6 2 5	-1.344654
-0.3579348	6 2 </s>
-0.9461246	7 2 .	-0.205951
-1.609393	7 2 5	-0.5218056
-1.609393	7 2 6	-0.1596017
-0.1444923	7 2 </s>
-1.433876	8 2 ,	-0.5117134
-1.220922	8 2 .
-1.146128	8 2 0	0.2511085
-1.633306	8 2 4	-0.1296385
-0.1918855	8 2 </s>
-1.389166	9 2 .	-0.3945177
-1.46396	9 2 0	-0.3144662
-1.676914	9 2 5	-0.4066373
-1.876344	9 2 6	-0.1596017
-1.876344	9 2 7	-0.2423428
-1.876344	9 2 8	-0.2594297
-1.389166	9 2 9	-1.4517
-0.1161648	9 2 </s>
-1.511353	<s> 2 ,	0.1302586
-3.195811	<s> 2 -	-0.3564294
-1.065181	<s> 2 .	-0.7494179
-2.996382	<s> 2 /	-0.1928706
-0.4762726	<s> 2 0	-0.3801917
-1.210323	<s> 2 1	-0.242789
-1.210323	<s> 2 2	-0.1505823
-1.246235	<s> 2 3	-0.1675514
-1.337565	<s> 2 4	-0.3509794
-1.065181	<s> 2 5	-0.1125914
-1.34221	<s> 2 6	-0.05884559
-1.441462	<s> 2 7	-0.1826404
-1.491149	<s> 2 8	-0.2878923
-1.603123	<s> 2 9	-0.06132537
-3.195811	<s> 2 :
-1.055421	<s> 2 </s>
-2.19675	<s> 2 n	0.251812
-0.1861476	d 2 .	-0.5242856
-0.07200197	n 2 0	-0.7139436
-0.5840876	r 2 0
-0.5840876	r 2 9
-0.5740313	, 3 0	-0.8461483
-1.362239	, 3 1
-0.8750613	, 3 2	-0.1793837
-0.8750613	, 3 5	-0.1321715
-1.362239	, 3 6
-0.8750613	, 3 7	-0.1808515
-1.162809	, 3 8	-0.2647161
-1.20412	. 3 0	-0.6369637
-1.467361	. 3 1	-2.576613
-1.099385	. 3 2	0.03420028
-1.342423	. 3 3	-0.4176425
-1.342423	. 3 4	-0.2917148
-1.20412	. 3 5	-0.7261223
-1.643453	. 3 6	-1.53954
-1.472417	. 3 7	-0.4802196
-1.342423	. 3 8	-0.5785789
-1.718246	. 3 9	-0.2447499
-0.2817248	. 3 </s>
-2.13063	. 3 b	-0.06989723
-0.04968778	/ 3 2	-1.050121
-1.25389	/ 3 </s>
-1.640993	0 3 .
-1.228609	0 3 0	-0.2682433
-0.09311702	0 3 </s>
-1.684786	1 3 ,	-0.2460746
-0.9665202	1 3 .	-0.2760254
-1.855822	1 3 /	-0.5016742
-1.096154	1 3 0	-0.7922813
-1.930616	1 3 1	-0.1101915
-1.679731	1 3 2	0.2354398
-1.930616	1 3 3	-0.5869603
-1.855822	1 3 4	-0.1676658
-1.930616	1 3 5	-0.3687504
-1.679731	1 3 6	-0.1966017
-1.554792	1 3 7	-0.1865943
-1.855822	1 3 9	-0.1370142
-0.3025458	1 3 </s>
-0.9138138	1 3 t	0
-1.556303	2 3 ,	0.1406573
-0.9542425	2 3 .	-0.1762708
-1.385266	2 3 0	-0.1562247
-1.844051	2 3 1	-0.06725799
-2.04348	2 3 3
-1.380211	2 3 4	-0.1068844
-2.04348	2 3 5
-2.04348	2 3 7
-2.04348	2 3 9
-2.04348	2 3 :
-0.3521825	2 3 </s>
-0.6670008	2 3 r	0.2024202
-1.511763	3 3 ,	0.320003
-1.052979	3 3 .
-0.7468936	3 3 0	-0.02514775
-1.711192	3 3 4
-1.711192	3 3 6	-0.2604068
-1.711192	3 3 8	-0.1519149
-1.711192	3 3 9	-0.476426
-0.3489535	3 3 </s>
-1.711192	3 3 r	1.179992
-1.648546	4 3 ,	0.06718224
-0.9903319	4 3 .	-0.1598704
-1.449116	4 3 0	-0.8440877
-1.648546	4 3 2
-1.449116	4 3 5	-0.5534244
-1.648546	4 3 6
-1.648546	4 3 7
-1.161368	4 3 8	0.1874969
-0.258278	4 3 </s>
-1.433876	5 3 .	-0.2281057
-1.633306	5 3 2
-1.633306	5 3 5
-1.633306	5 3 6
-1.633306	5 3 7
-0.146128	5 3 </s>
-1.633306	5 3 r	1.179992
-0.9661418	6 3 .
-1.453319	6 3 0
-1.25389	6 3 1	-0.2469534
-0.1702617	6 3 </s>
-0.6434527	7 3 .	-0.2669226
-1.329141	7 3 0
-0.1962947	7 3 </s>
-1.601121	8 3 .
-0.9429073	8 3 5	-0.211634
-1.601121	8 3 8
-1.601121	8 3 9	-0.18876
-0.1597008	8 3 </s>
-1.814537	9 3 .
-0.7832909	9 3 0	-0.6122244
-1.615107	9 3 2	-0.3873365
-1.615107	9 3 4
-1.615107	9 3 6	-0.007585978
-1.026329	9 3 7	-0.3148999
-1.327359	9 3 9	-1.467893
-0.2859662	9 3 </s>
-1.486551	<s> 3 ,	0.01392205
-0.9787614	<s> 3 .	-1.414136
-1.497275	<s> 3 /	-0.4322341
-0.5195517	<s> 3 0	-0.4312845
-1.069952	<s> 3 1	-0.07261294
-1.555267	<s> 3 2	-0.08967166
-1.446123	<s> 3 3	-0.1064566
-1.580821	<s> 3 4	-0.2341718
-1.154853	<s> 3 5	-0.13518
-1.383332	<s> 3 6	-0.1360027
-1.497275	<s> 3 7	-0.0450112
-1.555267	<s> 3 8	-0.1446951
-1.418094	<s> 3 9	-0.1037129
-0.8844914	<s> 3 </s>
-2.984453	<s> 3 D	-0.06989723
-1.953207	<s> 3 r	0.5314789
-0.09691001	P 3 </s>
-0.5840876	_ 3 4
-0.30103	, 4 0	-1.092304
-1.390268	, 4 1
-0.90309	, 4 4	-1.782052
-1.390268	, 4 6
-0.9778837	, 4 8	-0.2781827
-1.422804	. 4 0	-0.6214836
-1.417748	. 4 1	-0.1080378
-1.1959	. 4 2	-0.2354857
-1.29281	. 4 3	-0.327061
-1.59384	. 4 4	-0.08374693
-0.9654507	. 4 5	-0.7739142
-1.422804	. 4 6	-0.4918818
-1.59384	. 4 7	-0.1872875
-1.417748	. 4 8	-0.6095197
-1.422804	. 4 9	-0.4719012
-0.2874146	. 4 </s>
-1.575314	/ 4 5	-0.5220502
-0.02743825	/ 4 </s>
-1.53833	0 4 0	-0.1420478
-0.08501079	0 4 </s>
-1.469822	1 4 ,	-0.6965119
-0.9927008	1 4 .	-0.4234923
-1.226784	1 4 0	-0.7605973
-1.050693	1 4 1	-0.293781
-0.867762	1 4 2	-0.7224693
-2.0586	1 4 3	-0.5202401
-2.0586	1 4 4	-0.2137038
-1.594761	1 4 5	0.04093611
-1.770852	1 4 6	0.1607868
-2.25803	1 4 7
-2.0586	1 4 8	-0.5349957
-1.770852	1 4 9	0.08100979
-0.3600748	1 4 </s>
-1.469822	1 4 t	0.4259687
-1.19382	2 4 .	-0.2672466
-0.8181564	2 4 0	0.001710915
-1.782598	2 4 3	-0.5202401
-1.982028	2 4 4	-0.157222
-1.49485	2 4 6	-0.1051499
-1.982028	2 4 7
-0.2218488	2 4 </s>
-1.318759	2 4 t	-1.403901
-1.258064	3 4 ,	0.1423428
-1.670447	3 4 .
-1.258064	3 4 0	-0.2871416
-1.18327	3 4 2	-0.3721112
-1.670447	3 4 4
-1.18327	3 4 5	-1.350177
-1.471018	3 4 7	-0.007941828
-1.18327	3 4 8	-1.473013
-0.2939681	3 4 </s>
-1.012234	4 4 ,	0.1162053
-0.8822398	4 4 .	-0.06522102
-1.258064	4 4 0	-0.1980377
-1.670447	4 4 1
-1.670447	4 4 4	-0.157222
-0.2412618	4 4 </s>
-1.171704	5 4 ,	-0.3868823
-0.9208187	5 4 .
-1.09691	5 4 0	-1.421181
-1.584088	5 4 3
-1.384658	5 4 4
-0.3372422	5 4 </s>
-1.25389	6 4 .	-0.8385233
-1.25389	6 4 0	-0.4831641
-1.040935	6 4 4	-0.3023159
-1.453319	6 4 7
-0.2671717	6 4 </s>
-1.547875	7 4 ,
-0.8846066	7 4 .	-0.07315106
-1.060698	7 4 7	-1.539896
-0.1856366	7 4 </s>
-1.717627	8 4 ,	-0.4606317
-1.230449	8 4 .	-0.1611085
-1.717627	8 4 4
-1.717627	8 4 5
-1.054358	8 4 7	-0.3204648
-0.1512677	8 4 </s>
-1.75757	9 4 ,
-0.7931284	9 4 0	-0.5121425
-1.469822	9 4 1	-1.499151
-1.469822	9 4 2
-1.75757	9 4 3	-0.5202401
-1.957	9 4 4	-0.157222
-1.957	9 4 5	-0.07104378
-1.75757	9 4 6	-0.5197413
-1.469822	9 4 7	-0.1872875
-1.293731	9 4 8	-2.450413
-1.544616	9 4 9	-0.1375591
-0.2725415	9 4 </s>
-0.3622389	: 4 1	-0.2200177
-1.562293	<s> 4 ,	-0.2798183
-0.9702171	<s> 4 .	0.7055277
-0.5137804	<s> 4 0	0.08518742
-1.473352	<s> 4 1	0.1515347
-1.313651	<s> 4 2	-0.4197141
-1.373237	<s> 4 3	-0.0006113368
-1.413354	<s> 4 4	-0.1403791
-1.105375	<s> 4 5	0.001714483
-1.291932	<s> 4 6	-0.1928522
-1.413354	<s> 4 7	-0.1229253
-1.324932	<s> 4 8	0.01819172
-1.473352	<s> 4 9	0.09012721
-0.8753318	<s> 4 </s>
-1.950473	<s> 4 t	0.3802112
-0.1861476	P 4 8	-0.4885483
-0.6632689	a 4 0	-0.3894331
-0.1760913	a 4 5	-1.780646
-0.3622389	d 4 3	-0.4807334
-0.3622389	s 4 u	-0.06989723
-0.1706962	, 5 0	-1.108802
-1.487178	, 5 4
-1.287748	, 5 5	-0.2484773
-1	, 5 8	-0.415474
-0.958743	. 5 0	-1.120727
-1.936627	. 5 1	-0.06587923
-1.287802	. 5 2	-0.7454274
-1.685742	. 5 3	-2.240045
-1.861833	. 5 4	0.07943955
-1.4225	. 5 5	-0.8512991
-1.560803	. 5 6	-0.1739547
-1.861833	. 5 7	0.1292537
-1.560803	. 5 8	0.1724688
-1.685742	. 5 9	-0.05151686
-0.1805918	. 5 </s>
-1.858245	0 5 .
-1.658816	0 5 0	-0.484272
-1.658816	0 5 1	-0.2385455
-1.858245	0 5 2
-1.658816	0 5 5	0.1275037
-0.1280298	0 5 </s>
-1.194977	0 5 @	-1.704931
-1.198179	1 5 ,	-0.3468787
-1.128543	1 5 .	-0.09565833
-2.245595	1 5 /	-0.214523
-0.6568167	1 5 0	-0.2152963
-2.445024	1 5 1
-2.245595	1 5 2	-0.2310922
-2.445024	1 5 3	0.01648956
-1.957847	1 5 4	-0.1864972
-1.656817	1 5 5	0.1980816
-2.03264	1 5 6	-0.298621
-1.781755	1 5 7	-0.04587718
-2.245595	1 5 8	-0.2625493
-2.445024	1 5 :	-0.3564294
-0.3119334	1 5 </s>
-1.355787	1 5 t	0.3606157
-1.230449	2 5 ,	-0.4622721
-1.879274	2 5 .	-0.1114995
-0.7533277	2 5 0	-0.2945833
-2.092228	2 5 2	0.1559061
-2.092228	2 5 5	-0.4664334
-2.291658	2 5 6	-0.1016098
-1.80448	2 5 9	-0.09002167
-0.1838237	2 5 </s>
-1.452298	2 5 t	0.5910646
-1.093422	3 5 ,	-0.3275736
-1.77911	3 5 .
-0.9173304	3 5 0	-0.8814439
-1.978539	3 5 1
-1.77911	3 5 3	-0.3246267
-1.491362	3 5 4	-0.1578884
-1.01424	3 5 5	0.053745
-1.491362	3 5 6
-1.491362	3 5 7	0.1292537
-0.2872417	3 5 </s>
-1.485571	4 5 ,	0.1302507
-1.485571	4 5 .	-0.1048179
-0.8988939	4 5 0	0.225371
-1.897955	4 5 2
-1.234686	4 5 5	-0.9063389
-1.897955	4 5 9	-0.4217748
-0.1867624	4 5 </s>
-1.101231	5 5 ,	0.1138958
-1.231225	5 5 .
-1.231225	5 5 0	-0.04562555
-1.889439	5 5 2
-1.690009	5 5 4	-0.007151467
-1.889439	5 5 5	-0.1253171
-1.690009	5 5 8
-0.2189915	5 5 </s>
-1.402261	5 5 @	-0.7275307
-1.889439	5 5 _
-1.209175	6 5 ,	-0.1270162
-1.380211	6 5 .	-0.1071334
-1.079181	6 5 0	0.08019144
-1.455005	6 5 1	-0.04034578
-1.667959	6 5 3	-0.2584637
-1.867389	6 5 8	-0.08592956
-0.1760913	6 5 </s>
-1.357238	7 5 ,	-0.2931952
-1.603068	7 5 .
-0.9542425	7 5 0	-1.85955
-2.015451	7 5 3	-0.5173554
-2.015451	7 5 6	-0.1016098
-0.1260124	7 5 </s>
-1.293731	8 5 .	-0.06020613
-1.168792	8 5 0	-0.5698197
-1.75757	8 5 3	0.2693104
-1.957	8 5 5
-1.544616	8 5 7	-0.2897296
-1.957	8 5 9	-0.1634967
-0.1176395	8 5 </s>
-1.40009	9 5 ,	0.3547863
-1.858874	9 5 .
-0.997095	9 5 0	-0.9892533
-1.858874	9 5 1	-0.6168829
-1.858874	9 5 2
-2.058304	9 5 3	0.01648956
-1.858874	9 5 4	-0.6010886
-1.395035	9 5 5	-0.01333722
-1.571126	9 5 6	-1.380743
-1.858874	9 5 7	-0.5512744
-1.395035	9 5 8	-2.342464
-1.395035	9 5 9	-0.05151686
-0.233667	9 5 </s>
-0.1861476	: 5 3	0.01648956
-1.390935	<s> 5 ,	0.3012773
-1.07168	<s> 5 .	0.5931028
-1.573275	<s> 5 /	-0.3570469
-0.4138651	<s> 5 0	-0.1806813
-1.487845	<s> 5 1	-0.3194567
-1.443641	<s> 5 2	-0.2327659
-1.65625	<s> 5 3	0.05743533
-1.487845	<s> 5 4	-0.07373702
-1.291551	<s> 5 5	-0.3454342
-1.633973	<s> 5 6	-0.1632721
-1.457882	<s> 5 7	0.06346206
-1.65625	<s> 5 8	-0.2350447
-1.89361	<s> 5 9	0.2738644
-0.7503117	<s> 5 </s>
-1.89361	<s> 5 t	0.5118834
-0.03778856	p 5 3	-0.5351132
-0.2877481	' 6 0	-0.8269839
-0.7514873	, 6 0	-0.4838656
-0.6766936	, 6 4
-1.163871	, 6 5
-1.163871	, 6 8
-0.9740995	. 6 0	-0.7838766
-1.474702	. 6 1	-0.1232349
-1.298611	. 6 2	-0.1920011
-1.938541	. 6 3	0.2142628
-1.21146	. 6 5	-0.60206
-1.725587	. 6 6	-0.1238579
-1.725587	. 6 8	-0.2270212
-1.725587	. 6 9	-0.1230004
-0.1959482	. 6 </s>
-1.330066	0 6 /	-0.44054
-1.74245	0 6 0
-1.74245	0 6 1
-1.543021	0 6 2
-1.74245	0 6 4	-0.1898257
-0.1330566	0 6 </s>
-1.42529	1 6 ,	0.07760734
-1.152288	1 6 .	-0.1266043
-1.152288	1 6 0	-2.470161
-1.72632	1 6 2	-0.04507571
-1.550228	1 6 3	-0.2961585
-2.014068	1 6 4	-0.8272564
-1.801113	1 6 5	-0.1955511
-2.213497	1 6 6	0.02123597
-1.72632	1 6 8	0.1683806
-0.2144362	1 6 </s>
-1.12426	1 6 t	0.3823349
-0.9294189	2 6 .	-0.05513583
-1.548281	2 6 0	-0.1848323
-1.960665	2 6 3
-1.960665	2 6 4
-1.075547	2 6 5	0.2841614
-1.761235	2 6 6	-0.2622801
-1.473487	2 6 8
-0.243038	2 6 </s>
-1.302451	2 6 t	0.6057695
-1.55492	3 6 ,	0.07202978
-0.9149892	3 6 .	-0.1348821
-0.8692317	3 6 0	-0.6012638
-1.754349	3 6 1
-1.55492	3 6 6	-0.241744
-1.55492	3 6 7
-1.09108	3 6 8	-0.4683008
-1.754349	3 6 9
-0.3377528	3 6 </s>
-1.298809	4 6 ,	-0.09768979
-1.052979	4 6 .	-0.04327961
-0.7468936	4 6 0	-0.2033238
-1.711192	4 6 1	-0.4668807
-1.711192	4 6 2
-0.2578731	4 6 </s>
-1.566359	5 6 ,	-0.180791
-1.366929	5 6 .	-0.2541547
-1.366929	5 6 6	-0.3198803
-1.566359	5 6 7
-1.566359	5 6 8
-1.566359	5 6 9	0.02209341
-0.20412	5 6 </s>
-1.135492	6 6 .
-1.547875	6 6 0
-1.547875	6 6 1	-0.18704
-1.547875	6 6 2	-0.3844875
-0.1442439	6 6 </s>
-1.329141	7 6 ,	0.07202978
-1.116186	7 6 .	-0.2647318
-1.52857	7 6 0
-1.52857	7 6 1
-0.1663314	7 6 </s>
-1.146128	8 6 .	-0.09799007
-1.271067	8 6 2	-0.1648737
-1.934336	8 6 3	-0.03855801
-1.934336	8 6 5	-0.5120721
-0.1096988	8 6 </s>
-2.14039	9 6 ,
-0.7928745	9 6 0	-0.9652378
-1.352183	9 6 1	-0.613704
-1.482176	9 6 2	-0.5901104
-1.482176	9 6 3	-0.5179939
-1.728006	9 6 4	-0.2458157
-1.653213	9 6 5	-1.329591
-1.477121	9 6 6	-2.235298
-1	9 6 7	-0.6159958
-2.14039	9 6 8	-0.1710312
-1.477121	9 6 9	-2.234441
-0.3258536	9 6 </s>
-1.536707	<s> 6 ,	0.08653435
-0.981826	<s> 6 .	0.4396861
-2.23989	<s> 6 /	-0.1415999
-0.5496719	<s> 6 0	-0.2604477
-1.536707	<s> 6 1	0.04097112
-1.466126	<s> 6 2	-0.0494492
-1.591065	<s> 6 3	-0.04076215
-1.563036	<s> 6 4	-0.06252063
-1.011281	<s> 6 5	-0.1653294
-1.444937	<s> 6 6	-0.07671335
-1.511883	<s> 6 7	0.06330302
-1.424733	<s> 6 8	-0.1450948
-1.466126	<s> 6 9	0.1070843
-0.7140774	<s> 6 </s>
-1.536707	<s> 6 t	0.3575113
-0.1861476	' 7 0
-0.5006024	, 7 0	-2.717166
-1.163871	, 7 3
-1.163871	, 7 5	-0.476426
-0.9644417	, 7 7
-1.163871	, 7 8
-1.163871	, 7 9
-1.411595	. 7 0	-0.698159
-1.411595	. 7 1	0.1415695
-1.582631	. 7 2	0.09408121
-1.87038	. 7 3	-0.4293621
-0.9542425	. 7 5	-0.6564177
-2.069809	. 7 6	-0.03025387
-1.582631	. 7 7	-1.412001
-1.184691	. 7 8	-0.4607309
-1.230449	. 7 9	-0.1983676
-0.2353014	. 7 </s>
-1.844159	0 7 -	-0.3564294
-1.844159	0 7 .
-1.644729	0 7 /	-0.8296784
-1.356981	0 7 0	-0.1452481
-1.644729	0 7 2	-0.3205102
-1.844159	0 7 4	-0.06894066
-1.644729	0 7 5	-0.26984
-1.844159	0 7 6	-0.03025387
-1.844159	0 7 7
-1.844159	0 7 8
-0.1528614	0 7 </s>
-1.535716	1 7 ,	-0.02562753
-0.9521394	1 7 .	-0.1472602
-1.786601	1 7 /	-0.4586298
-1.272475	1 7 0	-0.06147703
-1.786601	1 7 1	-0.05557854
-2.198985	1 7 2	0.02060612
-2.198985	1 7 3
-2.198985	1 7 4	-0.06894066
-1.313867	1 7 5	-0.1001152
-1.786601	1 7 6	0.1796334
-1.999555	1 7 7	-0.2611811
-1.786601	1 7 8	-0.0002394179
-1.786601	1 7 9	0.08320252
-0.2607888	1 7 </s>
-1.359625	1 7 t	0.5563025
-1.918541	2 7 ,
-1.033424	2 7 .	-0.2168509
-1.719112	2 7 /
-0.8293038	2 7 0	-1.13754
-1.719112	2 7 1	0.2258446
-1.918541	2 7 2
-1.431364	2 7 5	0.1545216
-1.719112	2 7 6	-0.240182
-1.918541	2 7 9
-0.3174204	2 7 </s>
-1.130334	2 7 t	0.60206
-1.290035	3 7 ,	-0.1303185
-0.8129134	3 7 .	-0.1619288
-1.577783	3 7 0	-0.2589634
-1.577783	3 7 4	-0.2140599
-1.777212	3 7 5	0.07127634
-1.777212	3 7 9
-0.2486419	3 7 </s>
-1.577783	3 7 t	0.6876077
-0.8310874	4 7 .	-0.1458887
-0.7061486	4 7 0	-0.5042933
-1.012234	4 7 5	-0.2419805
-1.670447	4 7 6
-0.3381718	4 7 </s>
-0.9542425	5 7 .	-0.08979686
-1.617511	5 7 2	0.02060612
-0.9542425	5 7 5	-2.185258
-1.205127	5 7 8	-0.04429933
-0.2852357	5 7 </s>
-1.348446	6 7 .
-1.547875	6 7 0
-0.1064553	6 7 </s>
-1.511763	7 7 .	-0.2002463
-1.711192	7 7 0	-0.2187232
-0.6499835	7 7 7	-0.5911138
-1.711192	7 7 8
-0.2240148	7 7 </s>
-1.313264	8 7 .	-0.2845214
-1.772048	8 7 1	-0.3680925
-1.772048	8 7 2	-0.3205102
-1.007179	8 7 5	-0.5150885
-0.1086362	8 7 </s>
-1.827692	9 7 .	-0.1764071
-0.7307823	9 7 0	-1.0395
-2.11544	9 7 1	-0.3680925
-1.315809	9 7 2	-0.5979434
-1.315809	9 7 3	-0.7067953
-1.225632	9 7 4	-0.7718111
-1.526662	9 7 5	-0.5066572
-1.429752	9 7 6	-0.544068
-1.656656	9 7 7	-0.6123033
-1.47551	9 7 8	-0.4607309
-1.08733	9 7 9	-0.605853
-0.3844293	9 7 </s>
-2.31487	9 7 _
-1.682747	<s> 7 ,	0.1011773
-0.6065918	<s> 7 .	-1.38143
-1.647985	<s> 7 /	-0.6183306
-0.7285041	<s> 7 0	-0.81611
-1.585837	<s> 7 1	-0.07342894
-1.419505	<s> 7 2	0.2961739
-1.460898	<s> 7 3	-0.006172629
-1.531479	<s> 7 4	0.1503552
-0.9695361	<s> 7 5	-0.00876796
-1.557808	<s> 7 6	0.006440432
-1.284807	<s> 7 7	0.04250928
-1.858838	<s> 7 8	0.2449643
-1.647985	<s> 7 9	0.1190528
-0.8428497	<s> 7 </s>
-2.647045	<s> 7 B	-0.06989723
-1.682747	<s> 7 t	0.4423591
-0.09691001	' 8 0	-0.3603959
-0.5392691	, 8 0	-0.8334337
-1.125946	, 8 2
-1.125946	, 8 3	-0.09085682
-1.125946	, 8 4	-0.1350459
-1.051152	, 8 5	-0.1833451
-1.53833	, 8 6
-1.53833	, 8 7
-0.8750613	, 8 8	-0.1061886
-1.53833	, 8 9
-1.322219	. 8 0	-0.3046839
-1.367977	. 8 1	-0.3054391
-1.367977	. 8 2	-0.5070845
-1.419129	. 8 3	0.2719938
-1.367977	. 8 4	-0.1321581
-0.845098	. 8 5	-0.5751114
-1.419129	. 8 6	0.2335168
-1.243038	. 8 7	-0.02095606
-1.544068	. 8 8	-1.978418
-1.419129	. 8 9	0.1633335
-0.3222193	. 8 </s>
-0.01046543	/ 8 </s>
-1.390268	0 8 .
-1.390268	0 8 0
-1.190838	0 8 5	-0.2439708
-1.190838	0 8 8	0.5309373
-0.2263964	0 8 </s>
-1.511883	1 8 ,	-0.05359895
-1.386945	1 8 .	-0.03040282
-0.8920946	1 8 0	-0.34651
-2.175152	1 8 1
-1.762768	1 8 2	0.1353121
-2.175152	1 8 3
-2.175152	1 8 4
-1.516939	1 8 5	0.2987149
-1.762768	1 8 6	0.4113599
-1.762768	1 8 7	0.5115488
-2.175152	1 8 8
-1.516939	1 8 9	0.6235459
-0.2900346	1 8 </s>
-1.975723	1 8 s	-0.3637253
-1.113943	1 8 t	0.4490925
-1.834508	2 8 ,	-0.117404
-1.422124	2 8 .	-0.120382
-1.635078	2 8 0
-1.635078	2 8 2	0.1724003
-1.834508	2 8 4
-1.834508	2 8 5	0.09714548
-0.803262	2 8 8	-0.3703963
-0.3366061	2 8 </s>
-1.834508	2 8 @
-0.94939	2 8 t	0.6118199
-1.441563	3 8 ,
-0.9827788	3 8 .	-0.1287651
-1.640993	3 8 5	0.09714548
-1.441563	3 8 6	-0.2174168
-1.640993	3 8 7	-0.5059366
-1.640993	3 8 8
-1.640993	3 8 9	0.3112706
-0.2373609	3 8 </s>
-1.723967	4 8 ,	-0.117404
-1.060698	4 8 .	-0.1772233
-1.060698	4 8 0	-0.08501339
-1.524537	4 8 5	-0.2671011
-1.065753	4 8 6	0.2317846
-1.723967	4 8 8
-0.2706474	4 8 </s>
-1.723967	4 8 _
-1.557215	5 8 ,
-1.557215	5 8 .	-0.4911492
-1.070038	5 8 0	-1.476127
-1.557215	5 8 6
-1.557215	5 8 8
-1.557215	5 8 9
-0.1949766	5 8 </s>
-0.9258739	6 8 .	-0.2607767
-1.584088	6 8 0
-1.584088	6 8 1
-1.384658	6 8 5	-0.2520937
-1.384658	6 8 7	-0.2531157
-0.251812	6 8 </s>
-1.051152	7 8 .
-1.53833	7 8 2
-1.53833	7 8 4	0.003900409
-1.53833	7 8 8
-0.1480625	7 8 </s>
-1.479757	8 8 .	-0.06637689
-1.650793	8 8 0	-0.1552946
-1.938541	8 8 4	0.2567212
-2.137971	8 8 6	0.1236995
-1.650793	8 8 8
-2.137971	8 8 9	0.3112706
-0.07387608	8 8 </s>
-0.8463371	9 8 0	-1.00086
-1.484609	9 8 1	-0.7129245
-1.545307	9 8 2	-0.853872
-1.414973	9 8 3	-0.9352747
-1.383939	9 8 4	-0.9456424
-1.165096	9 8 5	-1.056517
-1.053945	9 8 6	-1.148063
-0.9378521	9 8 7	-1.258818
-0.7971191	9 8 8	-1.247383
-0.8778542	9 8 9	-0.8286038
-0.8293038	9 8 </s>
-2.731455	9 8 _
-1.499076	<s> 8 ,	-0.07667322
-0.6574383	<s> 8 .	0.329103
-0.6437587	<s> 8 0	-0.6982611
-1.800106	<s> 8 1	0.3477207
-1.754348	<s> 8 2	0.2095309
-1.851258	<s> 8 3	0.2175786
-1.712956	<s> 8 4	-0.02994807
-1.60822	<s> 8 5	-0.4034931
-1.523899	<s> 8 6	0.3403785
-1.712956	<s> 8 7	0.6763767
-1.411926	<s> 8 8	0.3684091
-1.453318	<s> 8 9	0.423441
-0.5696569	<s> 8 </s>
-1.499076	<s> 8 t	0.3744589
-0.6532125	' 9 0	-0.8851438
-1.117052	' 9 4	-0.5371755
-1.316481	' 9 6	-0.2500296
-0.6532125	' 9 7	-2.553017
-0.6532125	' 9 8	-2.714477
-1.117052	' 9 9	-0.8237982
-0.6768537	, 9 0	-0.6390442
-1.089238	, 9 2
-1.089238	, 9 3
-1.089238	, 9 6	-0.4512829
-1.089238	, 9 8
-1.148705	. 9 0	-0.5917192
-1.449735	. 9 1	0.2164246
-1.70062	. 9 2	-0.299593
-1.148705	. 9 3	-0.2854249
-1.186494	. 9 4	-0.4747173
-1.148705	. 9 5	-0.3973567
-1.273644	. 9 6	-0.5406999
-1.324797	. 9 7	-0.5604299
-1.081759	. 9 8	-0.8731814
-2.113004	. 9 9	-0.4826819
-0.3357921	. 9 </s>
-1.095983	0 9 ,	0.1519008
-1.308937	0 9 4	0.05676159
-0.1608513	0 9 </s>
-2.078664	1 9 .	-0.09538518
-1.863064	1 9 0	0.02203811
-2.321702	1 9 1	0.2538173
-1.969519	1 9 2	-0.4271138
-1.793428	1 9 3	-0.9234729
-1.591323	1 9 4	-0.6483562
-1.534596	1 9 5	0.1099604
-1.285273	1 9 6	-1.165608
-1.05453	1 9 7	-1.288358
-0.4532045	1 9 8	-0.6289432
-0.4546767	1 9 9	-1.829239
-1.411879	1 9 </s>
-2.145611	1 9 t	0.4542584
-1.284431	2 9 ,	-0.08612663
-1.572179	2 9 .
-1.572179	2 9 /	0.3050259
-1.284431	2 9 0	0.2992954
-1.572179	2 9 1
-1.771608	2 9 5
-1.771608	2 9 9	-0.4826819
-0.2530223	2 9 </s>
-1.771608	2 9 s	-0.06989723
-1.108339	2 9 t	-1.215911
-1.543021	3 9 ,	-0.500718
-0.9542425	3 9 .	-0.09438522
-1.330066	3 9 0	0.1697709
-1.255273	3 9 3	-0.1374683
-1.084236	3 9 5	-0.7500855
-1.74245	3 9 6
-0.2662679	3 9 </s>
-1.079181	4 9 .
-1.566359	4 9 0	-0.04011641
-1.366929	4 9 1
-1.566359	4 9 5
-0.1497623	4 9 </s>
-0.6651117	5 9 .	-0.0987635
-1.453319	5 9 0
-1.453319	5 9 5
-0.2459824	5 9 </s>
-1.476182	6 9 ,
-0.9890046	6 9 .	-0.3916045
-1.476182	6 9 4	-0.1960592
-0.1439066	6 9 </s>
-1.228609	7 9 .	-0.07259142
-1.640993	7 9 6	-0.2500296
-0.083777	7 9 </s>
-1.366783	8 9 .	-0.1665682
-1.537819	8 9 0	0.2992954
-2.024997	8 9 1
-0.06799708	8 9 </s>
-2.712487	9 9 ,
-1.924279	9 9 .	-0.149435
-0.8020634	9 9 0	-1.304085
-1.137173	9 9 1	-1.066947
-1.034978	9 9 2	-1.169842
-1.465641	9 9 3	-1.063576
-1.225309	9 9 4	-1.281265
-1.119799	9 9 5	-1.335209
-1.028029	9 9 6	-1.528631
-0.8779793	9 9 7	-1.723147
-0.9700368	9 9 8	-1.793687
-1.225309	9 9 9	-1.567887
-1.007825	9 9 </s>
-1.6163	<s> 9 ,	-0.2993352
-1.079181	<s> 9 .	-0.2040578
-1.394452	<s> 9 /	-0.2889112
-0.6514648	<s> 9 0	-0.836138
-1.491362	<s> 9 1	0.3078615
-1.792392	<s> 9 2	-2.154614
-1.424415	<s> 9 3	-0.1449338
-1.52915	<s> 9 4	0.07742115
-1.208815	<s> 9 5	-0.4340102
-1.570543	<s> 9 6	-0.7224511
-1.491362	<s> 9 7	-0.4230564
-1.366423	<s> 9 8	-0.6411189
-1.093422	<s> 9 9	-0.707319
-0.6620579	<s> 9 </s>
-1.31527	<s> 9 t	0.2894481
-0.1861476	= 9 7	-0.5144667
-0.1628094	Q 9 7	-0.6375996
-0.3846581	l 9 @	-0.1697248
-0.5840876	l 9 l	-0.06989723
-0.2877481	0 : 0	-0.1684442
-0.3622389	2 : 1	-0.3964798
-0.4871776	5 : 4
-2.391523	<s> : -	-1.939015
-0.002061761	<s> : </s>
-0.04139268	A : </s>
-0.1811464	B : </s>
-0.8393601	B : O	-0.06989723
-0.006839424	p : /	0
-0.0004871503	<s> ; </s>
-0.1576079	<s> < $	0
-0.5835766	<s> < h	-1.939015
-0.5307862	<s> = </s>
-0.243038	<s> = =	-0.903622
-1	= = </s>
-0.05799195	= = =	-1.146662
-0.6632689	D = 1
-0.5307862	d = 1	-0.1744628
-0.7302157	d = 9	-0.06989723
-0.1861476	e = 1	-0.4669573
-0.02632894	$ > </s>
-0.1861476	/ > </s>
-0.1628094	l > </s>
-0.1811464	! ? </s>
-0.8393601	! ? ?	-0.06039444
-0.09691001	. ? </s>
-3.173251	<s> ? !	-0.02736594
-3.37268	<s> ? .	-0.06989723
-0.001557374	<s> ? </s>
-2.960296	<s> ? ?	0.007889667
-0.1811464	? ? </s>
-0.8393601	? ? ?	-0.06039444
-0.6632689	p ? I
-0.6632689	p ? S	-0.06989723
-0.6632689	p ? t	-0.06989723
-0.1861476	t ? 1	-0.06989723
-0.4727337	. @ g	0.4956128
-0.8851176	. @ z	-0.06989723
-0.4638394	0 @ h	0.7440891
-0.09691001	1 @ h	-0.1939281
-0.03778856	5 @ h	0.5336026
-0.09691001	9 @ h	-0.1939281
-0.05115252	<s> @ </s>
-0.09691001	b @ h	-0.1939281
-0.1628094	d @ y	0.1313052
-0.3846581	h @ h	0.7440891
-0.5840876	h @ m	-0.296644
-0.1861476	i @ y	0.4724215
-0.3846581	m @ c	-0.1697248
-0.5840876	m @ m	-0.3964798
-0.1861476	u @ g	0.5516027
-0.5307862	y @ g	0.2104864
-0.243038	y @ h	-0.1939281
-0.1861476	z @ a	-0.06989723
-0.1628094	* A n	-0.1335825
-0.5840876	- A l	-0.5207271
-0.1628094	/ A b	-0.836903
-3.50851	<s> A '	-0.1697248
-2.567549	<s> A .	-0.4327967
-3.707939	<s> A 1	-0.06989723
-3.707939	<s> A 3
-0.8823051	<s> A </s>
-3.707939	<s> A A
-2.708878	<s> A B	-0.2032882
-2.919732	<s> A C	-0.3568853
-2.822822	<s> A D	-0.2569302
-3.220762	<s> A H	0.2448666
-2.037492	<s> A I	-0.6652869
-3.220762	<s> A K	-0.3564294
-3.295555	<s> A M	-0.06843747
-2.64673	<s> A N	-0.7903286
-2.74364	<s> A P	-0.3997929
-3.707939	<s> A R
-3.220762	<s> A S	-1.663683
-3.50851	<s> A V	0.03997322
-2.64673	<s> A Z	0
-1.925195	<s> A b	-0.2141267
-1.258156	<s> A c	-0.1718491
-1.827186	<s> A d	-0.0808019
-3.295555	<s> A e	-0.03932618
-1.273818	<s> A f	-1.203425
-2.150724	<s> A g	0.01809828
-2.123852	<s> A h	-0.01701762
-1.878339	<s> A i	0.001425564
-3.220762	<s> A k	-1.107742
-1.065426	<s> A l	-0.07790706
-1.451754	<s> A m	0.003270031
-0.5470498	<s> A n	-0.05803571
-1.607978	<s> A p	0.002639982
-3.707939	<s> A q
-1.528355	<s> A r	-0.08333099
-1.026247	<s> A s	-0.03025981
-1.101836	<s> A t	-0.0640567
-1.453606	<s> A u	-0.1217359
-2.220762	<s> A v	0.03031087
-2.822822	<s> A w	-0.04265078
-3.707939	<s> A y
-3.707939	<s> A z
-0.2730013	B A </s>
-0.7040252	B A N	-0.7721195
-0.6856881	C A L	-0.7595503
-0.39794	C A T	0.009653888
-0.7270808	D A </s>
-0.9265103	D A M	-0.3973886
-0.9265103	D A X	0.1713915
-0.9265103	D A s	0.03371593
-0.7031826	E A D	-0.5477336
-0.916137	E A N	-0.8241127
-0.7031826	E A R	-0.263374
-0.6856881	F A </s>
-0.8851176	F A L
-0.8851176	F A R
-0.5118834	I A </s>
-0.2108534	I A L	-0.3446509
-1.115566	L A N
-0.7031826	L A R	-0.3429972
-0.6283889	L A T	0.009653888
-0.7031826	L A W	-0.08675668
-0.999061	M A L
-0.3357921	M A N	-0.07878646
-0.1576079	N A </s>
-1.047416	N A L	-0.6134223
-1.246845	N A T	-0.4374019
-0.09691001	O A </s>
-0.8129134	P A </s>
-1.300091	P A C
-0.8129134	P A N	-0.1741426
-0.5118834	P A P	-0.7257631
-1.100662	P A R	-0.2424731
-0.8129134	P A Y	0.04276781
-1.217167	R A I	-0.8551182
-0.7533277	R A L	-0.1603261
-1.004213	R A M	-0.4644027
-0.3273589	R A T	-0.4393327
-0.9778837	S A </s>
-0.1434221	S A R	-1.122179
-0.551915	T A L	-0.2790232
-0.7648693	T A N	-0.8314777
-0.6632689	U A K	-0.2265485
-0.4638394	U A L
-0.03218468	V A </s>
-0.07918125	_ A :	0
-0.9642988	_ A g	-0.3688613
-0.05115252	k A u	-0.8736232
-0.1628094	u A b	-0.8580289
-0.02632894	$ B l	-0.9606766
-0.7302157	- B a
-0.243038	- B e	-1.788614
-0.1861476	/ B B	1.153663
-0.1861476	7 B </s>
-1.897048	<s> B </s>
-2.703736	<s> B A	-0.1054074
-1.833379	<s> B B	0.0280287
-3.361949	<s> B E
-3.361949	<s> B I	-0.4381409
-3.361949	<s> B L	-0.2801867
-3.16252	<s> B O	-0.793685
-3.16252	<s> B R	-0.02736594
-3.16252	<s> B T	-0.3637253
-3.16252	<s> B U	-0.3637253
-1.118897	<s> B a	-0.07312799
-0.8363502	<s> B e	0.006093562
-1.6076	<s> B i	-0.07274608
-1.769261	<s> B l	0.04599104
