
\data\
ngram 1=86
ngram 2=1810
ngram 3=7739
ngram 4=16495
ngram 5=18956
ngram 6=16312

\1-grams:
-3.634738	"	-2.06137
-5.464042	%	-0.3925414
-3.270918	&	-1.507831
-2.669206	'	-1.824203
-4.259922	(	-1.446345
-4.287951	)	-1.419193
-5.163012	+	-0.6077459
-3.51956	,	-2.175581
-2.495326	-	-1.856376
-2.183919	.	-2.019368
-4.152288	/	-1.55075
-3.361952	0	-1.472273
-3.395856	1	-1.591224
-3.615853	2	-0.8191797
-3.778301	3	-0.9854604
-3.861982	4	-0.5689251
-3.861982	5	-1.045375
-4.163012	6	-1.075274
-4.083831	7	-1.358454
-4.040796	8	-1.633928
-3.938998	9	-0.5378991
-3.651129	:	-1.549034
-0.8150191	</s>
-99	<s>	-2.906392
-4.986921	?	-0.4818567
-5.163012	@	-0.6853262
-2.000971	A	-1.483127
-2.058269	B	-2.722036
-1.780635	C	-2.50237
-2.323534	D	-1.877419
-2.448892	E	-1.540881
-2.42582	F	-2.086027
-2.362811	G	-1.941811
-2.276663	H	-1.846665
-2.17624	I	-1.540363
-2.288385	J	-2.477638
-2.420483	K	-1.861354
-2.28449	L	-2.104403
-2.135968	M	-1.833704
-2.164426	N	-2.343668
-2.661268	O	-1.404876
-2.127682	P	-1.882329
-3.238733	Q	-2.126539
-2.267866	R	-1.983325
-1.850729	S	-1.950725
-2.046404	T	-2.30447
-2.317139	U	-2.189139
-2.787806	V	-2.088151
-2.334191	W	-2.09027
-3.081125	X	-2.075306
-2.542616	Y	-2.472305
-3.018438	Z	-2.392081
-5.765072	[	-0.2288611
-5.464042	]	-0.4049523
-3.90774	`	-1.791091
-1.074026	a	-2.867919
-2.196518	b	-2.023997
-1.755706	c	-1.980428
-1.816464	d	-2.376814
-1.115095	e	-2.619974
-2.238991	f	-2.718467
-1.737763	g	-3.227909
-1.500798	h	-2.847236
-1.176632	i	-3.521983
-2.835653	j	-2.375951
-2.204687	k	-2.621701
-1.525322	l	-2.740606
-1.776915	m	-2.233972
-1.148334	n	-3.531819
-1.324289	o	-3.385388
-2.053518	p	-2.222057
-2.759034	q	-2.727429
-1.342121	r	-3.310749
-1.396637	s	-3.330441
-1.374049	t	-2.866004
-1.622339	u	-2.870086
-2.254527	v	-2.697249
-2.132109	w	-2.007729
-2.754772	x	-1.907931
-1.98562	y	-2.269242
-2.578116	z	-1.867138
-5.287951	{	0.02319251
-5.287951	}	0.02319251
-5.765072	Å	-0.3010292
-5.765072	Æ	-0.2832468
-5.765072	„	-0.3010292

\2-grams:
-0.00320514	" </s>
-0.4771213	% </s>
-0.4771213	% u
-0.1049885	& </s>
-2.989089	& B	-0.7237212
-2.494155	& D
-2.494155	& E
-1.113943	& G	-1.386084
-1.591065	& L	-0.9405283
-2.989089	& M	-0.7190002
-1.858211	& P	-0.8260703
-2.193125	& Q	-0.5122392
-2.494155	& S
-1.318063	& T	-1.18986
-2.494155	& Y
-2.494155	& o
-2.494155	& v
-1.664503	' '	-1.413121
-1.122739	' </s>
-2.396896	' A	-0.2342324
-1.949738	' B	-1.118136
-2.396896	' C	-0.6862386
-2.396896	' D	-0.5285616
-3.095866	' E
-3.590801	' G	-0.1945739
-3.095866	' H
-3.095866	' M
-3.590801	' N	-0.07341702
-2.794837	' O	-0.4494912
-2.250768	' S	-0.2765893
-1.633469	' a	-0.9041029
-3.095866	' b
-2.095866	' c	-1.039177
-2.794837	' e	-0.4529765
-3.095866	' g
-2.396896	' i	-0.2507263
-2.794837	' n
-3.095866	' r
-0.08514259	' s	-2.829555
-2.794837	' t	-0.4426653
-3.095866	' v
-0.01336396	( </s>
-0.01424044	) </s>
-0.69897	+ </s>
-0.69897	+ B
-0.69897	+ F
-0.69897	+ u
-2.247973	, 0
-0.004935218	, </s>
-2.228354	- -	0.05384458
-3.269746	- 9
-0.03320911	- </s>
-2.014474	- A	-0.4298459
-3.269746	- B
-2.228354	- C	0.1724399
-3.269746	- D
-2.968716	- F
-3.269746	- G
-3.764681	- H	-0.165082
-2.633803	- I	-0.1524776
-2.315504	- J	-0.7643614
-3.269746	- K
-2.968716	- L	-0.4334828
-2.859618	- M	-0.2345919
-2.570776	- N	-0.09663886
-2.859618	- R	-0.2797454
-2.123618	- S	-0.3803431
-2.968716	- T
-2.859618	- U	-0.1199251
-3.269746	- V
-2.633803	- W	-0.3265405
-3.269746	- Z
-3.269746	- c
-2.968716	- d
-3.269746	- e
-2.315504	- h	-1.201448
-3.269746	- m
-2.570776	- n	-0.5666105
-2.315504	- o	-0.9459797
-3.269746	- s
-3.581153	. .
-3.171024	. 0	-0.1814884
-3.280123	. 1
-3.581153	. 2
-3.280123	. 3
-3.581153	. 4
-3.581153	. 5
-3.280123	. 6
-3.280123	. 7
-3.581153	. 8
-3.581153	. 9
-0.160702	. </s>
-2.089791	. A	-1.46745
-3.280123	. B	-0.5157273
-1.979093	. C	-0.8428853
-4.076087	. D	-0.7156181
-4.076087	. E	-0.7240592
-3.581153	. F
-4.076087	. G	-0.7259367
-2.94521	. H	-0.5370865
-4.076087	. I	-0.2706301
-2.32588	. J	-1.247524
-2.104032	. K	-1.47059
-4.076087	. L	-0.7245124
-3.171024	. M	-0.4064979
-2.149789	. N	-1.422783
-3.171024	. P	-1.073582
-2.62691	. R	-0.9485381
-0.6471598	. S	-3.084607
-2.736055	. T	-0.8771518
-2.62691	. V	-0.6983398
-3.280123	. W	-0.5097382
-2.405062	. Y	-1.421641
-2.882183	. b	-0.5025774
-2.53976	. c	-1.211657
-1.84079	. m	-1.678951
-2.678063	. o	-0.877954
-4.076087	. p	-0.2335943
-1.322219	/ 1
-1.322219	/ 2	-0.4100388
-0.05504757	/ </s>
-2.898055	0 .	-0.2708214
-0.545788	0 0	-0.1243111
-1.403121	0 1	-0.578098
-1.992992	0 2	-0.9673598
-2.102091	0 3
-1.558022	0 4	0.01960037
-1.361728	0 5	-0.7075701
-2.102091	0 6	-0.2960165
-2.898055	0 7	-0.1339412
-1.704151	0 9	-0.7340749
-1.323939	0 :	-0.05720342
-0.3349347	0 </s>
-1.704151	0 t	-0.742414
-1.959087	1 .	-0.4075957
-2.068186	1 /	-0.4966759
-0.8251478	1 0	-0.8910284
-0.7894323	1 1	-1.336619
-1.165096	1 2	-0.3196735
-1.369216	1 3	-0.4186206
-1.959087	1 4	0.0450676
-1.165096	1 5	-0.8325089
-1.670246	1 6	-0.3511803
-1.369216	1 7	0.2242824
-1.524118	1 8	-0.2014411
-1.255273	1 9	-0.3536213
-1.138767	1 :	-0.1917249
-0.756432	1 </s>
-1.369216	1 s	-0.9728564
-1.733273	1 t	-0.7516382
-1.848189	2 .
-0.6868211	2 0	-1.046964
-0.9731278	2 1	-0.8591788
-2.644153	2 2	-0.163288
-1.513276	2 3	-0.3573282
-0.9450991	2 4	-0.6720979
-1.513276	2 5	-0.2805857
-2.644153	2 6	-0.248838
-2.644153	2 7	-0.0370312
-1.304121	2 8	-0.4918574
-2.644153	2 9	-0.7266186
-1.070038	2 :	0.03664897
-0.6578574	2 </s>
-1.73909	2 n	-1.055023
-2.149219	2 t
-1.685742	3 .
-0.5096505	3 0	-0.9777014
-1.986772	3 1
-1.350829	3 3	-0.4321217
-1.685742	3 4	-0.4937301
-1.986772	3 5
-1.141674	3 7	-0.6110148
-2.481706	3 8	-0.07019957
-2.481706	3 9
-0.9453791	3 :	0.1770766
-0.7314993	3 </s>
-1.986772	3 M
-1.986772	3 a
-0.9453791	3 r	-1.067395
-1.90309	4 ,
-1.492961	4 .
-1.267147	4 0	-0.2065239
-2.398024	4 1	-0.2383583
-1.20412	4 2	-0.4652026
-1.60206	4 3
-1.60206	4 4	-0.503678
-1.267147	4 5	-0.473487
-1.90309	4 6
-2.398024	4 7	-0.0370312
-2.398024	4 8	-0.07019957
-1.60206	4 9
-1.267147	4 :	-0.3675402
-0.3845761	4 </s>
-2.398024	4 t	-0.6352376
-0.90309	5 0	-0.2835367
-1.492961	5 1	-0.4040523
-1.90309	5 2
-1.60206	5 3
-1.90309	5 4
-1.60206	5 6	-0.2960165
-2.398024	5 7	-0.1339412
-1.60206	5 8
-1.60206	5 9	-0.3638883
-1.267147	5 :	-0.3329737
-0.2403322	5 </s>
-1.90309	5 t
-1.60206	6 .
-2.096994	6 1	-0.7097296
-1.60206	6 2
-1.60206	6 5
-1.60206	6 6
-1.30103	6 7	-0.283782
-1.60206	6 9
-0.5228788	6 :	0.3046944
-0.39794	6 </s>
-1.30103	6 t	-0.4244054
-1.681241	7 .
-1.380211	7 0
-1.380211	7 2	-0.5098727
-1.681241	7 3
-1.681241	7 6
-1.681241	7 7
-1.681241	7 8
-0.5672979	7 :	0.1816571
-0.3802112	7 </s>
-1.045298	7 t	-0.7516382
-1.732394	8 .
-1.732394	8 /
-1.732394	8 2
-1.732394	8 5
-1.732394	8 6
-1.732394	8 8
-1.431364	8 9	-0.3638883
-0.3706659	8 :	-0.1099297
-0.4313638	8 </s>
-1.431364	8 t	-0.4244054
-1.525045	9 .
-1.826075	9 /
-1.415946	9 0	-0.1392691
-1.525045	9 2
-1.826075	9 3
-2.321009	9 4
-2.321009	9 5	0.1004967
-2.321009	9 6	-0.248838
-1.525045	9 7
-1.525045	9 8
-1.190132	9 9	-0.2463411
-0.6799468	9 :	0.07185456
-0.5250448	9 </s>
-1.826075	9 a
-2.321009	9 t	-0.6352376
-0.3896675	: 0	-0.8889565
-1.478	: 1	-0.0443734
-1.159701	: 2	-0.1109232
-0.5954294	: 3	-0.7086295
-1	: 4	-0.5715502
-1.034762	: 5	-0.161816
-1.703815	: </s>
-2.819719	<s> "	0
-4.649023	<s> %
-2.557356	<s> &	-1.423587
-1.899673	<s> '	-1.180684
-3.444903	<s> (	0
-3.472932	<s> )	0
-5.444987	<s> +
-2.707015	<s> ,	-0.2985694
-1.713768	<s> -	-2.067161
-2.995811	<s> .	-1.444603
-3.381851	<s> /	-0.6555043
-4.104955	<s> 0	-0.186805
-2.779791	<s> 1	-0.7303022
-3.030975	<s> 2	-0.0009136181
-3.444903	<s> 3	0.2465052
-3.472932	<s> 4	-0.06986313
-3.60763	<s> 5	0.2477851
-3.671299	<s> 6	-0.466136
-3.870872	<s> 7	-0.09041204
-3.53508	<s> 8	-0.2878703
-3.53508	<s> 9	-0.0881624
-4.539925	<s> :	-1.066511
-4.31411	<s> ?	-0.2910725
-4.539925	<s> @	0.03592423
-1.247192	<s> A	-0.621315
-1.298678	<s> B	-0.9928678
-1.013891	<s> C	-0.05540015
-1.547276	<s> D	-0.4927711
-1.694539	<s> E	-1.054554
-1.629491	<s> F	-1.088871
-1.570929	<s> G	-0.5935817
-1.473511	<s> H	-0.4203742
-1.412738	<s> I	-0.4323961
-1.481558	<s> J	-0.9018808
-1.629907	<s> K	-0.6788996
-1.496429	<s> L	-0.5438414
-1.347342	<s> M	-0.4634656
-1.425138	<s> N	-1.281961
-2.025257	<s> O	-0.8252788
-1.355329	<s> P	-0.6454167
-2.434179	<s> Q	-0.8359547
-1.506947	<s> R	-1.218363
-1.15237	<s> S	-0.7158939
-1.268902	<s> T	-1.380402
-1.519978	<s> U	-0.1786927
-2.066392	<s> V	-1.279558
-1.530263	<s> W	-0.2233678
-2.285411	<s> X	-0.5578912
-1.73627	<s> Y	-0.8423664
-2.211272	<s> Z	-0.4740814
-4.950053	<s> [
-4.649023	<s> ]	-0.04074395
-3.381851	<s> `	0.07828616
-1.980637	<s> a	-1.543786
-2.924747	<s> b	-1.153306
-2.562663	<s> c	-1.423854
-2.958827	<s> d	-0.8881524
-2.70454	<s> e	-1.043889
-2.609609	<s> f	-2.104498
-3.393751	<s> g	-0.7108739
-2.265208	<s> h	-1.371168
-3.041568	<s> i	-0.8921269
-3.111204	<s> j	-0.4910234
-3.225777	<s> k	-1.069041
-2.687602	<s> l	-1.948469
-2.384205	<s> m	-1.099235
-2.548653	<s> n	-2.187254
-1.998716	<s> o	-1.999933
-2.779791	<s> p	-1.19884
-4.950053	<s> q
-3.393751	<s> r	-1.408778
-2.640423	<s> s	-0.8544701
-1.355329	<s> t	-2.193715
-3.671299	<s> u	-0.7651305
-3.773962	<s> v	-1.111359
-3.041568	<s> w	-1.246012
-5.444987	<s> x	-0.6116042
-2.924747	<s> y	-1.332141
-4.31411	<s> z	-0.3494033
-5.444987	<s> {	-0.679721
-5.444987	<s> }	-0.679721
-0.1422081	? </s>
-0.69897	@ A
-0.69897	@ N
-0.39794	@ S	-0.5177594
-4.259036	A &	-0.7282518
-1.938027	A .	-0.8351741
-1.145008	A </s>
-2.617973	A A	-0.903317
-1.77733	A B	-1.955966
-2.015913	A C	-0.9025139
-2.809859	A D	-0.2340122
-3.128158	A E	-0.4402263
-2.38389	A F	-1.371981
-2.207799	A G	-1.145618
-2.919003	A I	-0.3441531
-3.463071	A K
-2.27274	A L	-1.107315
-2.58801	A M	-0.9582956
-2.232622	A N	-0.5750582
-2.58801	A O	-1.39242
-2.421679	A P	-0.8466338
-3.463071	A Q	-0.5122392
-2.28698	A R	-0.4701437
-2.073905	A S	-0.7778608
-2.023739	A T	-1.071801
-3.764101	A U
-2.533653	A W	-1.247637
-3.764101	A X
-3.764101	A Y
-2.68492	A a	-1.041926
-1.437765	A b	-0.7752623
-1.925252	A c	-0.7343395
-1.543993	A d	-0.8593362
-2.220033	A e	-1.716805
-1.303204	A f	-2.069473
-1.267172	A g	-1.758328
-2.073905	A h	-1.090198
-1.667191	A i	-1.25073
-2.441882	A k	-0.7232062
-1.043116	A l	-0.6182836
-0.7623677	A m	-0.6089348
-1.177514	A n	-0.6711888
-2.485348	A o	-1.227459
-2.073905	A p	-1.281717
-3.463071	A q
-0.9140681	A r	-1.471864
-1.122627	A s	-1.551659
-1.861011	A t	-0.6629496
-1.425645	A u	-1.54409
-2.366161	A v	-0.5301928
-2.919003	A w	-0.6624278
-2.68492	A x	-1.035101
-3.065131	A y	-0.5973428
-2.316943	A z	-0.5922543
-3.405773	B &	-0.5150723
-2.308863	B .	-0.3534491
-3.706803	B 9
-1.943375	B </s>
-2.476354	B A	-0.7264733
-1.84348	B B	-1.305592
-1.281922	B C	-2.607596
-3.706803	B D
-2.476354	B E	-1.679207
-3.296674	B H	-1.071788
-1.900623	B I	-1.572523
-3.706803	B J
-3.706803	B L
-2.06335	B M	-2.106614
-2.665411	B N	-1.040302
-2.665411	B O	-0.8019894
-3.405773	B P	-0.4988375
-3.706803	B R
-1.706803	B S	-1.828008
-3.706803	B T
-3.296674	B U
-3.706803	B W
-0.6200874	B a	-1.289052
-0.8387467	B e	-1.661928
-3.405773	B h
-1.215441	B i	-1.491596
-1.627622	B l	-2.235952
-0.9966857	B o	-0.7346596
-0.903346	B r	-2.47296
-0.7861581	B u	-1.53583
-2.59286	B y	-0.9691989
-3.984437	C &
-2.303196	C .	-1.171602
-1.143704	C </s>
-2.260161	C A	-1.091451
-2.006714	C B	-1.762143
-2.428135	C C	-1.392517
-2.943045	C D	-0.5724397
-3.984437	C E
-2.838309	C H	-0.2108311
-1.927532	C I	-1.460547
-4.479372	C K
-3.139339	C L	-0.3922158
-3.984437	C M
-1.870494	C N	-1.271318
-2.870494	C O	-0.3256284
-2.62271	C P	-0.999298
-3.030195	C R	-0.7284402
-3.574309	C S	-0.3636219
-2.440369	C T	-1.05723
-3.984437	C U
-3.683407	C W	-0.5165751
-0.9905604	C a	-1.501413
-1.731584	C e	-1.86387
-0.4556491	C h	-3.122394
-1.632255	C i	-0.9933652
-1.355028	C l	-2.31306
-4.479372	C n	-0.2399612
-0.535422	C o	-1.170034
-1.947011	C r	-1.496012
-1.656058	C u	-1.035666
-2.984437	C y	-0.2802341
-2.905256	C z	-1.034536
-3.936472	D &	-0.7282518
-3.031409	D '	-1.073441
-1.527724	D .	-1.601806
-3.441538	D 1
-1.950176	D </s>
-1.873336	D A	-0.8961983
-2.487296	D C	-0.9676283
-2.538448	D E	-0.5256103
-3.140508	D F	-0.5128652
-3.441538	D H
-2.538448	D I	-0.6734456
-3.441538	D K
-2.805595	D L	-0.8313839
-3.140508	D M	-0.5178326
-2.327595	D N	-0.5958431
-1.99438	D O	-0.9511667
-1.656208	D P	-2.010708
-2.487296	D R	-0.9371871
-2.362357	D S	-1.068714
-3.031409	D T	-1.060926
-3.936472	D U	-0.1519687
-3.441538	D X
-3.441538	D Y
-3.441538	D Z
-0.6729	D a	-1.127659
-0.4245047	D e	-0.9493721
-2.538448	D h	-0.8911464
-1.07047	D i	-1.275928
-2.59644	D j	0.3253302
-2.742568	D m	-0.7760097
-1.011786	D o	-0.9139922
-1.369656	D r	-0.9467446
-1.277185	D u	-0.56466
-3.031409	D w	-0.3864412
-2.211089	D y	-0.4131962
-3.31618	E -
-1.973757	E .	-0.3556623
-1.361938	E </s>
-2.037426	E A	-0.3916586
-3.811115	E B
-1.352392	E C	-1.737673
-2.236999	E D	-0.6456009
-3.01515	E E
-3.01515	E F	-0.5128652
-2.906051	E G	-0.3969945
-2.906051	E I	-0.1840175
-2.471082	E L	-0.308104
-2.170052	E M	-0.6465511
-2.471082	E N	-0.09527942
-3.01515	E O
-2.274787	E P	-1.039084
-1.954452	E R	-0.4959568
-2.170052	E S	-0.5043881
-2.471082	E T	-0.3068959
-1.81103	E U	-1.505469
-2.680237	E V	-0.187293
-3.31618	E W
-3.01515	E X
-0.9981168	E a	-1.830705
-3.01515	E b	-0.4356003
-1.259275	E c	-1.735468
-1.192328	E d	-0.7718287
-1.347697	E g	-1.21085
-1.31618	E h	-2.011239
-1.644082	E i	-1.038229
-3.01515	E k	-0.5073415
-1.042022	E l	-0.4493558
-1.736397	E m	-0.8957316
-1.145918	E n	-1.056795
-2.41309	E p	-0.6653727
-2.085731	E q	-1.181787
-1.418553	E r	-1.167783
-1.736397	E s	-1.095298
-1.747978	E t	-1.234023
-1.145918	E u	-2.347846
-1.591904	E v	-1.467553
-3.01515	E w	-0.4954557
-0.9432681	E x	-2.116184
-3.811115	E z	-0.2628473
-2.260071	F .	-0.5695422
-1.941313	F </s>
-1.795185	F A	-1.093158
-1.561101	F B	-1.779836
-1.834103	F D	-1.521894
-2.436163	F E	-0.7870394
-2.70331	F H	-0.8432605
-2.929124	F I	-0.5097304
-2.38501	F K	-0.9914705
-2.29786	F L	-1.065467
-3.339253	F N
-3.834187	F O	-0.722498
-2.135133	F P	-1.211421
-3.339253	F R
-2.494155	F T	-0.6913381
-3.339253	F W
-3.038223	F X	-0.497619
-1.021189	F a	-0.8615423
-0.9078889	F e	-1.267464
-0.8592457	F i	-0.8386731
-0.9988085	F l	-2.05167
-3.038223	F m	-0.517776
-0.7722263	F o	-1.471258
-0.6928489	F r	-2.23238
-3.339253	F t
-1.202532	F u	-0.8331231
-3.402261	G &
-2.198141	G .	-0.4805241
-1.569752	G </s>
-1.72102	G A	-1.047655
-2.402261	G B	-1.467928
-3.897196	G D	-0.269698
-1.858193	G E	-1.313694
-2.402261	G I	-0.8331791
-2.123508	G M	-1.269056
-1.768793	G O	-1.243015
-2.992133	G P	-1.072878
-2.703291	G R	-0.5710896
-3.101231	G S
-2.32308	G T	-1.077934
-3.101231	G Y
-0.8224778	G a	-0.9291506
-3.897196	G b	-0.6464325
-0.6043018	G e	-1.11365
-2.402261	G h	-0.2185553
-1.385228	G i	-1.029895
-1.789477	G l	-1.559261
-0.8145504	G o	-1.282159
-0.7916012	G r	-2.30826
-0.953555	G u	-0.4350912
-3.897196	G w	-0.2702034
-3.101231	G y	-0.5132219
-2.145987	H .	-0.5317536
-2.108198	H </s>
-2.374466	H A	-0.5238049
-2.58532	H B	-0.9533031
-3.983344	H C	-0.728292
-2.534167	H E	-0.3190365
-3.48841	H H
-2.852467	H I
-3.983344	H K	-0.7201679
-3.48841	H L
-3.48841	H N
-2.534167	H O	-0.3463577
-3.18738	H Q	-0.5122392
-3.983344	H R	-0.2710702
-2.78944	H S	-0.5857469
-3.078281	H T	-0.5025748
-2.78944	H U	-0.2891274
-3.078281	H V	-0.9927897
-3.48841	H W
-0.6642839	H a	-0.9318856
-0.9859826	H e	-0.4525844
-1.15195	H i	-1.271707
-3.48841	H m
-3.18738	H n	-0.4763497
-0.5260404	H o	-1.430265
-1.042805	H s	-2.405101
-0.7657757	H u	-1.022232
-2.643312	H w	-0.4890869
-2.209656	H y	-0.6308694
-3.588832	I '
-2.952888	I .	0.1000376
-1.217764	I </s>
-1.669754	I A	-1.674391
-1.775918	I B	-1.501611
-2.358383	I C	-0.3601585
-3.287802	I D	-0.5159756
-2.952888	I E	-0.2487387
-2.743734	I F	-0.5875883
-4.083766	I G	-0.7168412
-4.083766	I H	-0.7252989
-1.872828	I I	-2.155754
-4.083766	I L	-0.270745
-2.889862	I M	-0.1416238
-2.358383	I N	-0.2246697
-2.41274	I O	-0.4126745
-2.634589	I P	-0.723312
-1.856438	I R	-1.512242
-2.634589	I S	-0.09208971
-2.384712	I T	-0.4652922
-3.588832	I V
-4.083766	I W	-0.7210623
-3.588832	I a
-2.333559	I b	-0.5139439
-2.889862	I c	-0.487951
-2.384712	I d	-1.384632
-3.287802	I f	-0.4995055
-2.743734	I g	-0.8223707
-3.178703	I h	-0.183008
-3.287802	I i	-0.5152245
-3.588832	I j
-2.743734	I k	-0.1347367
-1.997767	I l	-1.799322
-1.634589	I m	-0.7288939
-0.558637	I n	-1.519376
-2.41274	I o	-1.167636
-0.6203488	I r	-2.671533
-0.6070131	I s	-1.918043
-1.7196	I t	-1.224586
-2.246409	I v	-0.8575951
-3.287802	I w	-0.3144929
-3.588832	I y
-3.588832	I z
-3.175657	J &	-0.5065842
-1.752411	J .	-0.6125768
-2.397506	J </s>
-2.840744	J A	-0.2672093
-2.476687	J D	-0.9981104
-2.522444	J F	-0.9982066
-2.573597	J I	-0.9469053
-3.476687	J N
-3.971621	J P	-0.2699116
-2.631589	J R	-0.1943363
-2.777717	J S	-0.8352916
-0.378043	J a	-1.521355
-0.8670923	J e	-1.145947
-0.9096604	J i	-1.265681
-0.6759697	J o	-1.132726
-1.920384	J r	-1.755219
-1.216615	J u	-0.6093146
-1.826075	K .	-1.02184
-1.71112	K </s>
-3.344589	K B
-3.839523	K E	-0.2662643
-2.645619	K G	-0.8341504
-3.043559	K H
-2.93446	K I	-0.5109831
-1.946649	K K	-1.409836
-3.344589	K L
-1.49333	K M	-1.843227
-3.344589	K P
-1.929615	K R	-1.397918
-3.043559	K S
-3.344589	K T
-3.344589	K U
-0.7870815	K a	-1.008386
-3.344589	K b
-1.014175	K e	-0.948027
-1.672491	K h	-0.9571716
-1.063555	K i	-1.211434
-2.022369	K l	-0.8647986
-2.93446	K m	-1.013114
-1.982861	K n	-1.02148
-0.4458636	K o	-1.282138
-1.247679	K r	-1.791045
-1.157068	K u	-1.047829
-2.708646	K w	-0.1821869
-1.620313	K y	-1.569026
-3.179552	L '	-0.5171681
-2.018184	L .	-0.7478569
-1.507454	L </s>
-2.401401	L A	-0.7458803
-3.179552	L B
-2.082642	L C	-1.382602
-2.100371	L D	-1.243291
-2.844639	L E	-0.09544057
-3.480582	L F
-3.480582	L G
-2.401401	L I	-0.3956101
-3.480582	L J
-3.070453	L L	-0.3951365
-3.179552	L M	-0.5167416
-2.082642	L O	-0.4717442
-3.480582	L P
-2.439189	L S	-0.5539157
-2.781612	L T	-0.5599685
-3.975516	L U	-0.7156526
-3.070453	L Y	-0.1854038
-0.7441853	L a	-1.366537
-0.7530406	L e	-1.34687
-3.480582	L h
-0.5321688	L i	-0.8382542
-1.732394	L l	-1.726604
-0.8774374	L o	-1.12552
-1.502858	L t	-1.980591
-1.20874	L u	-0.5430837
-3.480582	L v
-1.764578	L y	-1.143585
-2.267376	M .	-0.3749675
-1.655976	M </s>
-2.248892	M A	-0.560172
-4.124038	M B
-2.398655	M C	-1.079338
-2.784006	M D	-0.2064933
-2.587711	M E	-0.5304484
-3.328074	M F	-0.5128652
-3.328074	M G	-0.5145849
-2.674861	M I	-0.4632916
-2.726014	M J	-0.9530817
-3.629104	M L
-4.124038	M M
-3.328074	M N	-0.5165561
-2.306884	M O	-1.280197
-3.328074	M P
-2.674861	M R	-0.9829445
-2.35035	M S	-1.255096
-1.737009	M T	-2.081167
-3.328074	M U
-4.124038	M V	-0.1887179
-3.218975	M W	-0.4012156
-3.328074	M Y
-0.4808095	M a	-1.413012
-3.629104	M b
-1.376251	M c	-1.362473
-2.629104	M d	-0.606016
-1.007927	M e	-1.469565
-3.328074	M f
-0.6129063	M i	-1.745616
-3.629104	M n
-0.8747553	M o	-0.9055129
-4.124038	M r	-0.2703594
-3.629104	M s
-1.263616	M u	-0.6568331
-1.921533	M y	-1.147241
-3.600646	N '
-1.708552	N .	-0.8864776
-1.045552	N </s>
-1.781102	N A	-1.34852
-1.514286	N B	-1.354512
-2.396526	N C	-0.1428454
-2.521465	N D	-0.7338459
-2.600646	N E	-0.4222454
-2.521465	N F	-0.8704674
-2.600646	N G	-0.2015716
-2.697556	N H	-0.2828303
-2.600646	N I	-0.5925437
-3.299616	N K
-2.600646	N L	-1.027678
-3.600646	N M
-1.517861	N N	-2.041806
-3.190518	N O	-0.4026513
-1.815316	N P	-1.758255
-3.600646	N R
-2.056578	N S	-0.7041807
-1.919405	N T	-0.8879315
-2.901676	N U	-0.2776337
-4.095581	N Y	-0.2710311
-3.299616	N Z
-0.6566573	N a	-1.344764
-0.4368887	N e	-1.646755
-4.095581	N g	-0.2436779
-1.270232	N i	-1.2384
-3.600646	N j
-1.00515	N o	-1.499938
-2.044344	N u	-0.3064507
-2.901676	N y	-0.621354
-3.103804	O &
-1.58529	O '	-0.7409195
-2.258706	O .	-0.3761215
-1.184726	O </s>
-1.013899	O A	-1.282804
-3.103804	O B
-1.195319	O C	-1.528203
-3.103804	O D
-2.062411	O E	-0.5351222
-2.024622	O F	-1.106927
-3.103804	O K
-1.899684	O L	-0.8893758
-2.46786	O M	-0.2255405
-1.612442	O N	-0.8835189
-1.240481	O P	-1.537793
-1.848531	O R	-0.6571011
-3.103804	O S
-1.742076	O T	-1.140431
-3.598738	O U	-0.1519687
-3.103804	O V
-1.957676	O a	-0.8165557
-3.598738	O b	-0.1976886
-1.98986	O c	-0.2412926
-1.090966	O f	-2.029035
-1.626683	O g	-1.881748
-1.340376	O h	-1.242675
-1.927712	O i	-1.184633
-1.781584	O k	-1.010298
-1.211709	O l	-1.196826
-1.598654	O m	-0.9489029
-2.149561	O n	-0.6904821
-1.470335	O p	-1.1653
-0.836632	O r	-1.017562
-1.347929	O s	-0.6149758
-2.200714	O t	-0.1655594
-1.82505	O u	-0.5985532
-1.612442	O v	-0.3018147
-1.761381	O w	-1.767707
-3.598738	O z	-0.1828018
-2.257178	P &	-1.363178
-2.43327	P .	-0.4817924
-1.367877	P </s>
-2.275662	P A	-0.9184186
-3.63739	P B
-2.461298	P C	-0.9487609
-3.63739	P D
-1.921386	P E	-1.696269
-3.001446	P F	-0.8419047
-2.382117	P G	-0.7698159
-4.132324	P H	-0.270504
-2.558208	P I	-0.2988325
-3.63739	P J
-2.01414	P L	-1.185924
-2.558208	P M	-1.222612
-2.683147	P N	-0.8706376
-1.889202	P P	-1.222473
-1.533586	P R	-2.073748
-2.93842	P S	-0.790645
-3.33636	P T
-3.63739	P U
-3.63739	P V
-3.63739	P W
-3.33636	P X
-0.449587	P a	-1.160854
-0.8023335	P e	-1.393563
-4.132324	P f	-0.6863466
-1.425202	P h	-1.348438
-1.372572	P i	-1.158711
-1.804881	P l	-0.8407833
-3.33636	P n	-0.4448353
-1.056465	P o	-1.02208
-1.034245	P r	-2.299678
-4.132324	P s	-0.7275431
-1.181024	P u	-1.786982
-2.792292	P y	-0.8724312
-1.890396	Q </s>
-2.526339	Q U
-0.4810163	Q a	-1.027484
-0.353153	Q i	-0.9512724
-0.6874902	Q u	-1.206169
-1.884422	R .	-0.4730714
-1.414421	R </s>
-2.293086	R A	-0.2835497
-3.992141	R B	-0.2696618
-1.528723	R C	-1.936111
-3.087078	R D	-0.1856102
-2.351078	R E	-0.4321938
-3.992141	R G	-0.2528478
-2.218453	R I	-0.5078825
-2.652108	R J	-0.2103762
-3.497206	R L
-2.293086	R M	-1.007531
-2.798236	R N	-0.2895878
-1.627975	R O	-1.53958
-2.594116	R P	-1.053747
-3.992141	R R	-0.7260632
-1.781203	R S	-1.585286
-2.034808	R T	-0.6790269
-3.992141	R Y	-0.7260875
-1.14118	R a	-1.108238
-0.5897948	R e	-1.916365
-2.321115	R h	-1.149008
-0.9482029	R i	-1.318797
-0.7375383	R o	-1.381324
-0.7041146	R u	-1.103905
-2.174987	R w	-1.13905
-2.542964	R y	-0.4616147
-2.835162	S &	-1.09644
-0.9644654	S .	-0.6127792
-3.914343	S 4
-1.004787	S </s>
-2.108163	S A	-1.218704
-2.768215	S B	-1.369146
-2.108163	S C	-1.561598
-3.504215	S D	-0.5070471
-2.291094	S E	-0.8069084
-3.613313	S F
-2.8004	S H	-0.6478685
-3.011253	S I	-0.3042913
-3.069245	S J	-0.2096493
-4.409277	S K	-0.2706091
-3.504215	S M	-0.1841867
-2.835162	S N	-1.240182
-3.2784	S O	-0.3821895
-2.872951	S P	-0.5348459
-3.914343	S Q
-2.835162	S R	-1.062126
-2.738252	S S	-0.7590914
-2.280875	S T	-0.9266242
-2.960101	S U	-0.2494857
-3.613313	S W	-0.5164135
-2.960101	S X	-0.9797538
-0.9343398	S a	-1.062371
-1.438672	S c	-1.830104
-1.026164	S e	-0.7845336
-0.909592	S h	-1.867689
-1.454951	S i	-1.130747
-2.872951	S k	-0.4137298
-1.927571	S l	-1.597477
-2.19834	S m	-1.283061
-2.8004	S n	-0.2550675
-1.028417	S o	-1.252116
-1.550731	S p	-2.187375
-2.710223	S q	-1.156964
-2.960101	S r	-0.6091661
-0.8845537	S t	-2.313477
-1.3678	S u	-1.023534
-3.2784	S v	-0.6542835
-2.088268	S w	-1.775913
-1.817433	S y	-1.507737
-3.504215	S z	-0.4002069
-2.514548	T &	-1.182722
-2.639487	T .	-0.2685122
-1.490781	T </s>
-2.815578	T A	-0.399469
-4.213602	T B	-0.2661383
-1.926276	T C	-1.320656
-3.718668	T D
-2.542577	T E	-0.94815
-3.019698	T G	-0.8275384
-3.308539	T H	-0.4075794
-2.065455	T I	-1.206073
-3.718668	T K
-3.718668	T L
-2.57254	T M	-0.8363387
-2.604724	T N	-0.5015523
-2.065455	T O	-1.419157
-3.019698	T R	-0.34922
-2.639487	T S	-0.2160264
-2.815578	T T	-0.1643614
-2.150466	T U	-1.130781
-1.528336	T V	-2.320322
-3.308539	T W	-0.4012156
-3.718668	T Y
-3.308539	T Z	-1.071284
-0.4545586	T a	-1.270248
-3.718668	T b
-0.986274	T e	-1.516612
-0.824906	T h	-2.243668
-1.117695	T i	-1.07678
-1.090279	T o	-1.283852
-1.172125	T r	-2.117138
-1.74554	T s	-1.09981
-1.598094	T u	-1.077793
-2.639487	T w	-1.243522
-2.718668	T y	-0.3458534
-2.87357	T z	-0.6014429
-0.489369	U .	-1.604158
-1.528855	U </s>
-2.169179	U A	-1.037426
-3.146903	U B	-0.5092497
-3.146903	U C	-0.51755
-2.447933	U D	-0.306157
-3.447933	U E
-3.447933	U F
-3.447933	U I
-2.067722	U K	-1.389411
-3.942867	U L	-0.2693876
-3.447933	U M
-1.197513	U N	-1.49402
-2.301805	U P	-1.174286
-2.81199	U R	-0.114692
-0.6199178	U S	-2.356375
-3.447933	U T
-2.748963	U d	-0.7734175
-3.146903	U g	-0.4904287
-3.447933	U h
-3.146903	U i	-0.5080876
-2.81199	U k	-0.8423406
-2.544843	U l	-0.2564029
-3.447933	U m
-0.5591919	U n	-2.107015
-2.40654	U p	-0.3915272
-1.879731	U r	-0.9625689
-3.447933	U s
-2.016569	U t	-0.3567854
-3.146903	U z	-0.5026354
-2.023024	V .	-0.4903609
-0.7624224	V </s>
-2.074176	V A	-0.1463502
-2.977266	V B
-2.977266	V C
-1.698513	V D	-1.296608
-2.676236	V F
-2.676236	V H	-0.5144668
-1.898085	V I	-0.7687601
-2.977266	V L
-0.9280482	V O	-2.008838
-2.567137	V R	-0.5086454
-1.004138	V a	-0.4744479
-1.085172	V e	-0.9030512
-0.5074442	V i	-1.33195
-1.500145	V l	-1.424187
-0.9319432	V o	-1.029028
-2.567137	V r	-0.3221995
-2.977266	V t
-2.977266	V y
-1.731911	W .	-0.9799961
-1.758783	W </s>
-2.527791	W A	-0.39955
-3.129851	W B
-3.129851	W C
-3.430881	W E
-3.925815	W F	-0.2679211
-3.020752	W G	-1.073463
-3.925815	W H	-0.2698431
-2.476639	W I	-0.4242856
-3.430881	W L
-2.430881	W P	-0.9943584
-2.585783	W S	-0.2110213
-2.284753	W T	-1.17234
-3.430881	W U
-2.476639	W W	-0.9173594
-0.4105197	W a	-1.689022
-0.7190737	W e	-1.550465
-1.159039	W h	-1.870265
-1.038184	W i	-1.460234
-0.9163332	W o	-1.517318
-2.200432	W r	-1.190752
-3.430881	W s
-1.190332	W u	-1.731653
-2.430881	W y	-0.5651363
-1.341524	X </s>
-2.683947	X B
-2.683947	X E
-2.683947	X I
-2.382917	X X	-0.497619
-3.178881	X e	-0.6638086
-0.07864209	X i	-1.189379
-0.9849771	X u	-1.025156
-2.921426	Y '	-0.5154204
-2.108513	Y .	-0.6043043
-2.222456	Y </s>
-2.921426	Y E	-0.5130151
-2.921426	Y L	-0.5172437
-2.921426	Y N	-0.5161189
-3.222456	Y O
-3.222456	Y P
-3.222456	Y R
-3.717391	Y S	-0.268887
-0.8159162	Y a	-0.9027702
-3.222456	Y b
-0.5889879	Y e	-1.307582
-1.402912	Y i	-0.6086582
-3.222456	Y k
-0.4852637	Y o	-1.405183
-0.7026283	Y u	-0.7880161
-2.921426	Y v	-0.3270507
-2.048442	Z </s>
-2.747412	Z D
-2.747412	Z E
-2.747412	Z I
-2.446382	Z X	-0.497619
-1.17921	Z a	-0.2748179
-2.747412	Z b
-0.7388116	Z e	-0.8220582
-0.2956254	Z h	-1.831804
-1.167628	Z i	-0.7994018
-0.9765598	Z o	-1.291274
-2.446382	Z s	-0.5070595
-1.367201	Z u	-0.5286154
-2.747412	Z v
-2.747412	Z w
-0.30103	[ </s>
-0.1760913	] </s>
-0.2951211	` </s>
-0.3192548	` `	-1.249282
-3.736804	a '	-0.2512153
-5.18598	a -
-3.00085	a .	-1.168584
-0.9020298	a </s>
-3.845948	a B	-0.7115905
-4.390016	a L	-0.4560817
-4.055103	a N	-0.6474006
-4.280918	a P	-1.035272
-4.691046	a R
-4.390016	a S	-0.5112021
-4.691046	a T
-4.691046	a V
-4.691046	a W
-2.674013	a a	-1.035222
-1.940538	a b	-1.008683
-1.742144	a c	-0.3610723
-1.584855	a d	-0.6414462
-1.68117	a e	-1.553404
-2.144503	a f	-0.7949347
-1.805685	a g	-1.00889
-2.03113	a h	-0.6156742
-1.240335	a i	-1.46399
-2.920194	a j	-0.2381122
-1.93365	a k	-1.197846
-1.046214	a l	-0.9262274
-1.479125	a m	-0.8993255
-0.5620333	a n	-0.8096578
-2.012528	a o	-1.094455
-1.688017	a p	-1.627781
-1.852827	a q	-0.9719196
-1.085095	a r	-0.7764761
-1.440138	a s	-0.9778419
-1.128991	a t	-1.327877
-1.766767	a u	-0.8123099
-1.831308	a v	-0.3044
-2.2678	a w	0.05898611
-2.878133	a x	-0.2474395
-1.922408	a y	-0.8171795
-2.148221	a z	-0.735491
-2.869584	b .	-0.3262348
-1.071624	b </s>
-2.723456	b H	-0.1296925
-0.7630529	b a	-1.293794
-1.65474	b b	-0.9938733
-2.527161	b c	-1.103176
-1.925101	b d	-1.082677
-0.8081312	b e	-0.90399
-4.063488	b h	-0.2080183
-0.8393889	b i	-1.15233
-3.568554	b j
-0.8801339	b l	-2.261294
-4.063488	b m	-0.666625
-2.45461	b n	-0.9774932
-0.976377	b o	-0.9331622
-1.461344	b r	-0.8690097
-1.504096	b s	-1.063986
-3.568554	b t
-1.203066	b u	-0.9478868
-2.932611	b w	-0.8104876
-1.53917	b y	-0.9833513
-1.607965	c .	-1.893481
-1.08716	c </s>
-4.5043	c A	-0.2298936
-4.5043	c B	-0.670742
-2.158108	c C	-1.300111
-2.224036	c D	-1.721737
-3.708336	c E	-0.4765354
-3.106276	c G	-0.2704621
-3.310396	c I	-0.6954392
-3.106276	c K	-0.7046552
-3.310396	c L	-0.4867238
-3.373423	c M	-0.365942
-3.164268	c N	-0.3008308
-4.009366	c V
-0.6636002	c a	-1.772674
-2.465298	c c	-0.5417812
-4.5043	c d	-0.2159347
-0.972737	c e	-1.372918
-3.310396	c f	-0.785319
-0.7557856	c h	-0.4573138
-1.106819	c i	-1.576876
-1.187852	c k	-0.9667058
-2.293363	c l	-0.6864346
-3.599237	c m	-0.3489867
-4.009366	c n
-1.113391	c o	-1.136114
-2.805246	c q	-0.9740444
-1.408393	c r	-1.364805
-2.009366	c s	-1.793711
-1.497483	c t	-1.372967
-1.481736	c u	-1.383944
-4.009366	c v
-1.505575	c y	-2.412573
-3.373423	c z	-0.7622873
-3.647578	d '
-4.443543	d -	-0.2668934
-1.999219	d .	-1.444603
-3.647578	d 2	-0.4178641
-0.3969146	d </s>
-2.907216	d C	-0.929546
-0.8730616	d a	-1.196417
-3.045519	d b	-0.5181821
-2.501451	d c	-1.110161
-1.501451	d d	-0.9827998
-0.9233027	d e	-1.007545
-3.103511	d f	-0.3521481
-2.009089	d g	-1.141167
-2.045519	d h	-1.504728
-1.018169	d i	-1.095339
-3.249639	d j	-0.2982882
-3.249639	d k	-0.5593101
-2.170457	d l	-0.7026039
-1.880423	d m	-1.428472
-2.267367	d n	-1.571576
-1.211416	d o	-1.201628
-4.443543	d q	-0.1976292
-1.769632	d r	-1.404337
-1.665307	d s	-0.9852326
-2.501451	d t	-0.4641859
-1.632638	d u	-1.551799
-2.606186	d v	0.170023
-2.170457	d w	-1.283203
-1.749951	d y	-0.9563667
-2.626389	d z	-0.5955373
-4.649977	e '
-3.608584	e -	-0.479558
-5.144911	e .	-0.2698594
-0.5855565	e </s>
-3.649977	e B	-0.1160631
-4.348947	e C	-0.36823
-5.144911	e F	-0.6713867
-4.649977	e K
-3.649977	e L	-0.9550874
-4.649977	e P
-4.649977	e S
-5.144911	e T	-0.6919038
-4.649977	e V
-3.536034	e W	-1.221319
-1.458806	e a	-1.800677
-2.073636	e b	-1.530855
-1.768022	e c	-1.207141
-1.549607	e d	-0.7403575
-1.636297	e e	-1.599128
-2.378135	e f	-0.4638928
-1.9958	e g	-1.039267
-2.223466	e h	-0.4733357
-1.56863	e i	-2.056069
-2.811128	e j	-0.5222141
-2.553067	e k	-0.4335025
-1.200499	e l	-0.5410012
-1.5472	e m	-0.781039
-0.9401137	e n	-0.3089387
-2.144827	e o	-1.191578
-1.798719	e p	-1.327363
-3.746887	e q	-0.1992151
-0.8576554	e r	-0.4178643
-0.9814979	e s	-1.309149
-1.565043	e t	-0.8731524
-2.513257	e u	-1.049509
-1.811128	e v	0.06903532
-1.444502	e w	-1.229375
-2.067914	e x	-1.481174
-2.014493	e y	-0.7859356
-2.479715	e z	-0.7147097
-4.649977	e „
-2.203861	f .	-0.8327836
-0.5111403	f </s>
-1.046074	f a	-0.957063
-2.827111	f c	-0.8010657
-3.526081	f d
-0.9590544	f e	-1.18005
-0.9578789	f f	-1.282608
-1.439721	f g	-1.737483
-1.031926	f i	-0.9068569
-2.680983	f k	-0.8101467
-2.063683	f l	-0.8792084
-2.203861	f m	-1.28035
-3.115952	f n	-0.1547713
-0.9111835	f o	-1.756502
-1.383066	f r	-0.9359102
-2.379953	f s	-0.005080073
-1.358763	f t	-1.3483
-1.863323	f u	-0.3521836
-3.225051	f y	0.04278896
-3.32838	g '	-0.8256547
-3.72632	g .
-0.3775281	g </s>
-1.213102	g a	-1.261162
-2.70513	g b	-0.7887935
-2.364592	g c	-1.208393
-1.944564	g d	-1.922298
-0.9715891	g e	-1.701028
-2.881222	g f	-0.2001273
-2.129723	g g	-1.111373
-0.9816356	g h	-0.4195174
-1.472255	g i	-1.32483
-2.42529	g j	-1.435802
-2.684927	g k	-1.029349
-1.755508	g l	-1.851529
-2.772077	g m	-1.340196
-1.881222	g n	-1.580829
-1.29255	g o	-1.433048
-2.796901	g p	-0.7076336
-2.073107	g q	-0.9852431
-1.426377	g r	-2.297512
-1.83145	g s	-1.069982
-1.418824	g t	-2.329258
-1.707203	g u	-1.149075
-2.851258	g w	-0.801356
-2.214436	g x	-1.702451
-1.647138	g y	-0.9222596
-2.07796	g z	-1.389765
-3.264275	h .	-0.5317536
-0.8786684	h </s>
-4.264275	h D
-3.963245	h K	-0.5137206
-0.8689482	h a	-1.541978
-3.222882	h b	-0.2924827
-3.033826	h c	-1.393702
-2.12126	h d	-1.684298
-0.520373	h e	-1.577275
-3.033826	h f	-0.6006235
-4.759209	h h
-0.6847197	h i	-1.39817
-4.264275	h j
-2.620822	h k	-1.95725
-2.324755	h l	-0.3271805
-2.130736	h m	-1.280712
-1.635886	h n	-1.448281
-1.218561	h o	-0.882956
-3.628331	h p	-0.8092306
-2.849301	h q	-1.357879
-1.80943	h r	-1.604856
-2.17437	h s	-0.8659935
-1.572309	h t	-1.619057
-1.245158	h u	-1.212862
-3.419177	h v	-0.623919
-2.478945	h w	-1.30158
-2.425426	h y	-0.4442016
-4.264275	h z
-3.509259	i '	-0.8739663
-2.997375	i -	-0.5490766
-4.58844	i 2
-1.056068	i </s>
-4.178311	i C	-0.2592155
-4.58844	i G
-4.58844	i L
-4.58844	i P
-0.9276692	i a	-1.461419
-2.210042	i b	-0.1747479
-1.00343	i c	-2.746533
-1.676218	i d	-0.578458
-1.388959	i e	-1.813052
-2.084649	i f	-0.6522611
-1.652429	i g	-1.536897
-2.318927	i h	-1.502444
-3.008656	i i	-1.203451
-2.217372	i j	-1.116143
-2.1819	i k	-0.8169587
-1.357736	i l	-0.77709
-1.718622	i m	-1.291022
-0.6570836	i n	-0.8792652
-1.288715	i o	-1.908571
-1.842585	i p	-1.350834
-3.069926	i q	0.04466167
-1.638562	i r	-0.5041025
-1.171966	i s	-0.9701263
-1.146902	i t	-1.368565
-2.132074	i u	-1.29677
-1.841806	i v	-1.651748
-1.510709	i w	-2.874359
-2.615312	i x	-1.064609
-2.749591	i y	-1.321575
-2.099889	i z	-0.9757355
-2.230449	j </s>
-1.230449	j a	-0.5410119
-2.51929	j b	-0.9929213
-2.929419	j d
-1.189056	j e	-0.5587382
-0.1491016	j i	-1.578457
-2.628389	j n	-0.5114466
-1.060187	j o	-0.7453936
-2.628389	j r	-0.431214
-1.213416	j u	-0.8082632
-2.628389	j y
-0.3225899	k </s>
-3.560385	k A
-1.167688	k a	-0.9230062
-3.259355	k b	-0.4897661
-3.560385	k c
-0.7910076	k e	-1.227352
-2.560385	k f	-0.2494434
-1.620866	k h	-0.7507728
-1.111679	k i	-1.155774
-1.926916	k k	-1.639094
-1.606142	k l	-1.69066
-2.356265	k m	-0.7468721
-2.518992	k n	-0.336937
-1.507306	k o	-0.6829502
-3.560385	k p
-2.198657	k r	-0.2616903
-1.436533	k s	-1.002507
-3.259355	k t	-0.4837469
-1.591902	k u	-0.5754486
-2.924442	k v	-0.623919
-2.259355	k w	-0.8044826
-1.423664	k y	-1.507102
-4.734684	l -	-0.728097
-3.829621	l .	-0.5655472
-0.6239049	l </s>
-4.23975	l B
-3.93872	l M	-0.3436064
-3.198357	l T	-0.8913532
-0.9402425	l a	-1.292966
-2.280708	l b	-0.9116538
-2.549554	l c	-0.9074629
-1.446658	l d	-0.7584766
-0.8433761	l e	-0.9434345
-2.13254	l f	-1.049477
-2.235428	l g	-1.161149
-2.878022	l h	-0.9321674
-0.7415771	l i	-1.939369
-2.461599	l k	-0.01895897
-0.9825514	l l	-1.850227
-2.109416	l m	-1.187442
-2.762629	l n	-1.163533
-1.185903	l o	-1.228547
-2.515474	l p	-0.9945741
-2.824776	l q	-1.403704
-3.198357	l r	-1.135647
-1.897327	l s	-0.8716093
-1.662258	l t	-0.6942328
-1.897327	l u	-0.4573679
-2.198357	l v	-1.111796
-3.394652	l w	-0.4890869
-1.668041	l y	-0.9640315
-3.285507	l z	-0.170548
-2.289187	m .	-1.439061
-0.8470214	m </s>
-3.988158	m B
-3.033915	m C	-0.9803878
-3.687128	m H	-0.5160277
-4.483092	m J	-0.671636
-0.8755525	m a	-1.429449
-1.48847	m b	-1.008826
-2.908976	m c	-0.7467881
-2.874214	m d	-1.268075
-0.5795783	m e	-1.31948
-3.578029	m f
-3.687128	m g
-3.687128	m h
-0.8902064	m i	-1.060673
-3.687128	m k
-2.607946	m l	-1.227414
-1.14182	m m	-2.145921
-2.842029	m n	-0.05257541
-1.046646	m o	-1.472704
-1.341754	m p	-1.304905
-3.687128	m q	-0.5170086
-3.578029	m r
-1.489847	m s	-1.360927
-2.946765	m t	-0.8443891
-1.647713	m u	-1.159689
-3.988158	m v
-3.578029	m w	-0.2054783
-1.67429	m y	-2.189956
-3.988158	m z
-3.537557	n '	-0.6521129
-4.616738	n +
-3.201765	n -	-0.3139153
-3.537557	n .	-0.5695422
-4.616738	n 1
-3.980795	n 2	-0.7450969
-4.616738	n 9
-0.4924295	n </s>
-3.917768	n K	-0.7916632
-4.616738	n P
-1.104454	n a	-1.220026
-2.64361	n b	-1.35418
-1.374943	n c	-1.726458
-1.343274	n d	-1.854454
-1.159765	n e	-1.142033
-2.467519	n f	-1.207833
-0.8102867	n g	0.1036537
-2.06407	n h	-1.679026
-1.040166	n i	-1.52486
-2.383742	n j	-1.034368
-1.929209	n k	-0.864824
-2.599705	n l	-1.69684
-2.69766	n m	-1.721323
-1.784868	n n	-1.716166
-1.833549	n o	-0.6947215
-3.537557	n p	-0.6080552
-3.201765	n q	-1.07968
-2.845886	n r	-1.459756
-1.337984	n s	-1.668977
-1.257282	n t	-1.50815
-2.333437	n u	-0.7789074
-2.496164	n v	-1.116658
-3.060436	n w	-0.4995396
-2.95398	n x	-1.278346
-1.945565	n y	-0.6984315
-2.320073	n z	-1.357409
-3.440783	o '	-1.037896
-3.098361	o -	-0.4859183
-1.990534	o .	-1.942147
-1.161801	o </s>
-3.361602	o S	-0.8602896
-4.440783	o T
-4.139753	o Z	-0.5163086
-2.129029	o a	-0.7771311
-1.810355	o b	-1.406095
-1.529093	o c	-1.38075
-1.77333	o d	-0.5983617
-2.291564	o e	-0.7811317
-1.459871	o f	-2.071516
-2.080948	o g	-0.7600921
-1.749702	o h	-1.617871
-2.18793	o i	-1.442021
-2.467655	o j	-1.099393
-2.086675	o k	-0.5913484
-1.306606	o l	-0.113351
-1.264113	o m	-0.5188299
-0.5836317	o n	-1.133595
-1.629208	o o	-1.53819
-1.72478	o p	-0.9019914
-4.030654	o q	0.02327399
-0.7929114	o r	-1.251194
-1.338007	o s	-0.8819353
-1.779918	o t	-0.75227
-1.072496	o u	-1.290963
-1.661909	o v	-1.29523
-1.714872	o w	-0.2045049
-2.655453	o x	-1.119098
-2.210334	o y	-0.5255228
-2.963662	o z	-0.63433
-1.190416	p .	-1.990751
-1.082145	p </s>
-2.757312	p A	-0.9659538
-3.711554	p Q
-0.5685394	p a	-1.662311
-2.632373	p b	-1.223852
-3.301425	p c	-0.1511164
-3.711554	p d
-0.826193	p e	-1.851754
-2.866456	p f	-0.6850666
-1.406203	p h	-0.9117187
-1.299935	p i	-1.124825
-4.206489	p j	-0.6891402
-2.757312	p k	-0.9650486
-1.594283	p l	-1.096112
-1.621649	p m	-1.087494
-3.711554	p n
-1.166247	p o	-1.280783
-1.532577	p p	-1.191058
-1.249156	p r	-2.172431
-1.625194	p s	-1.309434
-1.578015	p t	-0.8802546
-1.100894	p u	-1.971496
-2.808464	p y	-0.5260152
-3.301425	p z	-1.027794
-0.3821839	q </s>
-1.927285	q a	-0.1082378
-3.006466	q b
-3.006466	q d
-1.591493	q e	-1.367111
-0.4176343	q i	-1.261484
-2.307496	q t	-0.800072
-0.8078089	q u	-1.565412
-2.705436	q v	-0.2966862
-4.422951	r '
-4.012822	r -	-0.1817035
-2.760193	r .	-1.162459
-0.9490261	r </s>
-4.422951	r C
-4.422951	r J
-4.422951	r L
-4.422951	r S
-0.7426153	r a	-0.9715002
-1.956083	r b	-1.603831
-1.999705	r c	-0.8717591
-1.572304	r d	-1.035039
-0.9700915	r e	-0.02689765
-2.706947	r f	-1.399105
-1.586627	r g	-1.771631
-3.061223	r h	-1.611301
-0.8599446	r i	-1.650064
-1.546156	r k	-0.8047881
-1.620177	r l	-1.457355
-1.594291	r m	-1.54029
-1.429074	r n	-1.957637
-1.202059	r o	-0.5785727
-1.75737	r p	-0.9181779
-3.309007	r q	-0.2538745
-1.729224	r r	-1.671082
-1.340165	r s	-1.091622
-1.179417	r t	-0.5779954
-1.855924	r u	-0.9256079
-2.192502	r v	-1.168057
-2.553719	r w	-1.53381
-3.381558	r x	-0.6232694
-1.512326	r y	-1.360864
-2.667076	r z	-0.3473395
-4.368436	s -
-2.937072	s .	-1.134489
-4.067406	s 2	-0.4100388
-0.4663239	s </s>
-1.609524	s a	-0.8942722
-2.505113	s b	-0.9060818
-1.935466	s c	-1.706985
-2.696338	s d	-1.13252
-0.9370719	s e	-1.782866
-2.439017	s f	-1.156805
-3.732492	s g	-0.3947095
-1.162961	s h	-0.9487249
-1.137221	s i	-1.737488
-4.368436	s j
-2.192344	s k	-1.545194
-1.708519	s l	-2.053787
-2.487622	s m	-0.8973862
-2.481945	s n	-1.801717
-1.439017	s o	-1.609357
-2.189459	s p	-2.057053
-3.006708	s q	-1.306726
-1.43647	s r	-2.480776
-1.128386	s s	-1.736266
-0.8356813	s t	-1.587452
-1.792094	s u	-1.055017
-3.164316	s v	-0.8455182
-3.327043	s w	-0.6053715
-2.576044	s y	-0.6204472
-2.921278	s z	-0.8032308
-3.27708	t -	-0.2791869
-2.872509	t .	-1.02184
-0.7986245	t </s>
-4.391023	t C
-4.391023	t E
-4.391023	t N
-1.101657	t a	-1.365096
-2.885873	t b	-0.7494118
-2.189626	t c	-2.075011
-2.4133	t d	-1.752413
-0.848696	t e	-1.140771
-3.244895	t f	-1.257498
-3.010812	t g	-0.9015065
-0.7130516	t h	-1.273528
-0.8283737	t i	-1.60287
-3.75508	t k	-0.5052494
-2.195124	t l	-1.331831
-1.97605	t m	-1.491993
-2.498929	t n	-1.822615
-1.121744	t o	-1.410262
-4.885958	t p
-1.385414	t r	-2.674866
-1.659435	t s	-1.361146
-1.528296	t t	-1.031752
-1.68516	t u	-1.192194
-3.11227	t v	-1.057575
-2.47721	t w	-1.623273
-1.346484	t y	-1.875838
-2.353597	t z	-0.9497801
-3.841703	u '	-0.5171681
-0.938885	u </s>
-4.637668	u C	-0.1214792
-1.085448	u a	-1.35204
-1.346853	u b	-0.6539039
-1.854932	u c	-0.9603882
-1.383822	u d	-0.5651191
-1.539589	u e	-0.8656726
-2.350342	u f	-0.6405517
-1.617689	u g	-1.405842
-2.267672	u h	-0.2459716
-1.567546	u i	-1.244928
-2.183692	u j	-1.023059
-2.291475	u k	-0.3953371
-1.459687	u l	-0.1320815
-1.448128	u m	-1.385875
-0.9372585	u n	-0.9510257
-2.006013	u o	-1.004432
-1.575707	u p	-1.317284
-2.966642	u q	1.046731
-0.8776797	u r	-0.3188699
-0.7878571	u s	-1.76771
-1.16001	u t	-0.7860376
-4.142734	u u
-2.912285	u v	0.3842879
-2.509265	u w	-1.373417
-2.800311	u x	-1.298028
-2.71137	u y	0.3626621
-2.343393	u z	-0.3102367
-3.510545	v .
-1.164192	v </s>
-1.042198	v a	-1.335235
-2.811575	v c	-0.7520778
-2.811575	v d	-0.7734175
-0.4490925	v e	-1.286663
-3.510545	v f
-0.3989465	v i	-1.612376
-3.209515	v k
-2.874602	v l	-0.7173161
-3.510545	v n
-1.561155	v o	-1.005989
-2.469152	v r	-0.1520065
-2.396602	v s	-1.568067
-3.510545	v t
-2.510545	v u	-0.07479057
-1.38344	v y	-1.56968
-0.6011509	w </s>
-0.4272176	w a	-1.596211
-4.127898	w b	-0.222651
-2.59157	w c	-1.188102
-2.787865	w d	-0.1996425
-1.115767	w e	-1.516912
-4.127898	w f	-0.1110829
-2.933993	w h	-0.2275824
-1.298509	w i	-1.301316
-3.222835	w k	-0.1092695
-1.877088	w l	-0.7671722
-2.99702	w m	-0.5841669
-1.557416	w n	-1.554095
-1.428843	w o	-1.603045
-2.271235	w p	-1.331053
-2.235023	w r	-0.8716073
-0.8483459	w s	-1.731469
-2.331933	w t	-0.6224605
-2.787865	w u	-0.7919871
-2.678721	w y	-0.2443421
-3.0103	x -
-2.10721	x .	-0.9533301
-0.8256086	x </s>
-0.779851	x a	-1.410656
-1.070781	x c	-1.855723
-0.964977	x e	-1.421398
-2.600171	x h	-0.9746394
-0.6264846	x i	-1.475694
-3.0103	x l
-2.70927	x m	-0.4557928
-1.152967	x o	-1.732063
-1.146977	x p	-1.38697
-3.505234	x q	-0.6552122
-2.70927	x s	-0.5017664
-1.347542	x t	-1.403802
-1.896357	x u	-0.2113602
-2.70927	x v	-0.2966862
-2.165202	x w	-0.1767813
-1.595327	x x	-1.558796
-3.0103	x y
-3.080482	y .	-0.3262348
-0.139667	y </s>
-1.267569	y a	-1.592509
-2.457233	y b	-0.7154141
-2.633324	y c	-0.4397235
-1.844954	y d	-0.9692278
-1.652347	y e	-0.4249047
-3.080482	y f	-0.5670387
-3.779452	y g
-4.274386	y h	-0.6656013
-1.946943	y i	-0.7483103
-3.478422	y j	-0.4915363
-3.478422	y k
-1.703905	y l	-0.7814255
-1.973272	y m	-0.8125008
-1.693092	y n	-0.09972135
-1.649118	y o	-0.872501
-1.801729	y p	-1.456523
-3.779452	y q
-1.655601	y r	-0.7331227
-1.645913	y s	-1.09111
-2.417724	y t	-0.7172961
-1.746028	y u	-0.8215977
-4.274386	y v	-0.5075184
-2.348089	y w	-1.414876
-3.779452	y x
-2.43703	y z	-1.035136
-2.551013	z .	-0.335459
-0.7604451	z </s>
-0.7351699	z a	-0.8249236
-1.46268	z b	-0.8031722
-3.186956	z c
-2.186956	z d	-0.7090407
-0.7770232	z e	-1.023705
-2.487986	z g	-0.7868417
-0.803141	z h	-1.764095
-0.9855592	z i	-0.4180141
-2.776828	z k	-1.040235
-2.885926	z l	-0.4885944
-2.776828	z m	-1.013114
-2.885926	z n	-0.4823029
-1.454563	z o	-0.5961207
-3.186956	z r
-1.844534	z s	-0.9728564
-1.153533	z u	-1.306993
-3.186956	z v
-2.232714	z w	-0.3343704
-1.908203	z y	-0.9525477
-1.724558	z z	-0.386607
-0.9720556	{ </s>
-0.9720556	} </s>
-0.30103	Å Æ
-0.30103	Æ s
-0.30103	„ Å

\3-grams:
-0.00320514	<s> " </s>
-0.003530869	<s> & </s>
-0.08978558	A & M	0.1017723
-0.1570685	B & Q	-0.1824836
-0.08978558	D & B	0.1017723
-0.1570685	J & L	0.2538937
-0.01772877	P & G	0
-0.3357921	S & L	0.1091445
-0.3357921	S & P	0
-0.02802872	T & T	0
-0.01579427	' ' </s>
-1.619016	<s> ' '	0
-1.230836	<s> ' </s>
-0.0400798	<s> ' s	0.000423489
-0.03815357	D ' A	0.06860019
-0.1570685	L ' O	-0.1824836
-0.3723859	O ' B	0
-0.9546075	O ' C	0.2019652
-0.8880473	O ' D	0.1594566
-1.131178	O ' G	-0.06027228
-1.374552	O ' N	-0.4292344
-1.374552	O ' S
-0.1570685	Y ' S	-0.3785306
-0.5232578	a ' a	-0.3948983
-0.810281	a ' i
-0.06850339	g ' a	-0.05790909
-0.1760913	i ' a	-0.5332372
-0.6918456	i ' i	-0.04070826
-0.1760913	n ' a	0.04587761
-0.9352197	n ' t	-0.1824836
-0.04139268	o ' c	0
-0.1570685	u ' e	-0.1824836
-0.01336396	<s> ( </s>
-0.01424044	<s> ) </s>
-0.002474619	<s> , </s>
-0.03778856	- - </s>
-2.195145	<s> - -	0
-0.003033501	<s> - </s>
-0.3331597	d - A
-0.8974311	e - C	-0.5781574
-0.2632414	e - h	-0.3679768
-0.6368221	i - A	-0.544068
-1.203729	i - C	-0.2224832
-1.447103	i - I	-0.4736846
-0.6368221	i - J	0
-1.447103	i - N
-1.16008	i - S	-0.03093897
-1.203729	i - U	-0.1454622
-0.08978558	l - M	-0.2180744
-1.027638	n - A	-0.2964045
-1.271012	n - C
-1.027638	n - H	-0.06027228
-1.271012	n - S
-1.027638	n - h	-0.4896065
-0.8510669	n - n	-0.06087952
-1.198461	o - I	-0.5856126
-1.198461	o - N
-1.198461	o - R	-0.2914981
-1.198461	o - S
-1.198461	o - W	-0.160148
-0.4393327	o - o	0
-0.4580985	r - A	-0.2901743
-0.9699818	t - C	-0.5781574
-0.7266077	t - S	-0.1996285
-0.7266077	t - W	0.2088141
-0.3331597	0 . 0
-0.2147243	1 . c	0.1134376
-0.004852503	<s> . </s>
-0.07788678	A . </s>
-1.682113	A . C	-0.001378764
-1.438739	A . H	-0.0867243
-1.195608	A . T	-0.09175429
-0.1426675	B . </s>
-0.8340336	B . A	0.02614335
-0.00914338	C . </s>
-0.157939	D . </s>
-0.552086	D . C	-0.5159853
-1.769852	D . c	-0.6415424
-0.06366908	E . </s>
-0.03778856	F . </s>
-0.1249387	G . </s>
-0.8167843	G . m	0.2761649
-0.04139268	H . </s>
-0.2142448	I . </s>
-0.03407979	J . </s>
-0.01296498	K . </s>
-0.1836444	L . </s>
-0.6842467	L . A	0.149213
-1.075062	L . L	0.1017723
-0.06069784	M . </s>
-0.3869446	N . </s>
-0.9890046	N . C	-0.4248177
-1.504759	N . H	0.2088141
-0.8129134	N . J	0.1760913
-1.748133	N . M
-1.261628	N . V	0.06354883
-0.7160034	N . Y	0.1017722
-0.2811916	O . </s>
-0.4577624	O . J	0.6283474
-0.09017663	P . </s>
-1.060158	P . J	0.5549238
-0.1076339	R . </s>
-1.225448	R . C	0.07204492
-1.225448	R . I	-0.06027228
-0.02097001	S . </s>
-1.694605	S . A	0.1796021
-2.805916	S . C
-2.518893	S . R	0.1091445
-2.518893	S . S	1.520202
-2.805916	S . b	-0.5585209
-2.562542	S . p	-0.06027228
-0.07918125	T . </s>
-2.571228	U . </s>
-1.511406	U . K	0.02996323
-1.5272	U . N	0
-0.02914496	U . S	0.1063463
-0.04575749	V . </s>
-0.02687215	W . </s>
-1.555009	W . V	-0.6273178
-0.03476211	Y . </s>
-0.2676062	a . </s>
-0.3565473	a . m	-0.4393327
-0.06850339	b . </s>
-0.00171998	c . </s>
-0.004852503	d . </s>
-0.3331597	e . c	0.04001391
-0.02020339	f . </s>
-0.04139268	h . </s>
-0.03815357	l . </s>
-0.02687215	m . </s>
-1.311634	m . b	-0.3362466
-0.03778856	n . </s>
-0.001537327	o . </s>
-0.04257159	p . </s>
-1.044017	p . m	0.2007915
-0.009340026	r . </s>
-0.03342376	s . </s>
-1.287402	s . c	0.04001391
-0.01296498	t . </s>
-0.05115252	x . o	0
-0.06850339	y . </s>
-0.06694679	z . </s>
-0.1570685	1 / 2	-0.1824836
-0.01158187	<s> / </s>
-0.4580985	. 0 2	0.3748375
-1.079181	0 0 0	-0.2887955
-1.713371	0 0 1	-0.4584745
-1.713371	0 0 2	0.3748375
-1.426348	0 0 5	0.1425109
-1.469997	0 0 :
-0.1413292	0 0 </s>
-1.156732	1 0 .	-0.06027228
-0.9801616	1 0 1	-0.4357521
-0.7659168	1 0 4	-0.6337063
-0.5898255	1 0 :	-0.2808139
-0.4648868	1 0 </s>
-0.31627	2 0 0	-0.7059999
-0.3484547	2 0 </s>
-1.318437	2 0 t	0.1355251
-1.089786	3 0 5	0.4522561
-0.06214791	3 0 </s>
-0.6341897	4 0 0	-0.1440463
-0.2142448	4 0 </s>
-0.8560385	5 0 0
-0.2218488	5 0 </s>
-0.8560385	5 0 t	0.1355251
-0.2147243	9 0 </s>
-0.09080742	: 0 0	-1.077166
-1.580314	: 0 1	-0.4584745
-1.580314	: 0 6	-0.1824836
-1.580314	: 0 7
-1.580314	: 0 9	0.1355251
-0.7011365	<s> 0 0	-0.6853777
-0.4577624	<s> 0 9	0.2089487
-0.3695334	0 1 </s>
-0.4360936	0 1 s	0.4074841
-0.8016323	1 1 1	-0.2512615
-0.6255411	1 1 :	-0.1482268
-0.3756636	1 1 </s>
-0.8016323	1 1 t	0
-0.7887556	2 1 :	-0.2942563
-0.1346986	2 1 </s>
-0.3331597	4 1 :	-0.4241424
-0.2147243	5 1 .	-0.2180744
-0.08978558	6 1 3	-0.5054644
-0.6341897	: 1 0
-2.0263	<s> 1 /	-0.1824836
-0.6651117	<s> 1 0	-0.02488794
-0.6789	<s> 1 1	0.3209777
-0.9941704	<s> 1 2	0.09532996
-1.39211	<s> 1 3	-0.1485112
-1.606355	<s> 1 4	-0.03615372
-1.024134	<s> 1 5	0.05799195
-1.606355	<s> 1 6	0.2035245
-1.170262	<s> 1 7	0.0100981
-1.606355	<s> 1 8	0.1920934
-1.09108	<s> 1 9	-0.06180811
-1.267172	<s> 1 </s>
-1.539795	<s> 1 s	0.2721476
-0.1570685	/ 2 </s>
-0.03815357	0 2 </s>
-1.060158	1 2 .
-0.8167843	1 2 0	-0.07310868
-0.8167843	1 2 9	0.1017723
-0.6402135	1 2 :	0.07895174
-0.8167843	1 2 </s>
-0.3331597	2 2 </s>
-0.1350636	4 2 </s>
-0.1570685	7 2 n	0.3748375
-0.810281	: 2 1	-0.1263175
-0.810281	: 2 7	-0.4292344
-0.7149581	<s> 2 0	0.2245604
-0.8398969	<s> 2 1	0.1362561
-1.140927	<s> 2 3	0.09821265
-0.7429869	<s> 2 4	-0.2730013
-1.288612	<s> 2 5	0.1486412
-1.775117	<s> 2 6	-0.4292344
-1.488093	<s> 2 8	-0.02931919
-1.488093	<s> 2 :	0.05024606
-0.9190781	<s> 2 </s>
-0.1570685	d 2 0	-0.414042
-0.06694679	n 2 0	-0.5587913
-0.1570685	s 2 </s>
-0.6126643	1 3 3	-0.400261
-0.8560385	1 3 :
-0.4360936	1 3 </s>
-0.2142448	2 3 r	0.4452727
-0.3908156	3 3 0	-0.5900878
-0.3908156	3 3 </s>
-0.1962947	: 3 0	-0.4673615
-1.374552	: 3 3	-0.4736846
-1.374552	: 3 4	-0.1824836
-0.8880473	: 3 7	0.4315256
-1.374552	: 3 9
-0.8746834	<s> 3 0	0.4614888
-1.361188	<s> 3 7	0.1447493
-1.074165	<s> 3 :	-0.03862789
-0.7269987	<s> 3 </s>
-0.7269987	<s> 3 r	0.2340832
-0.4141133	0 4 </s>
-0.4580985	1 4 </s>
-0.05799195	2 4 </s>
-0.1570685	3 4 :	-0.2907473
-0.1570685	4 4 .
-0.9699818	: 4 1	-0.4292344
-0.4834767	: 4 2	0.1594566
-0.4834767	: 4 5	0.07585295
-0.8466547	<s> 4 0	0.1486412
-1.33316	<s> 4 4	-0.1824836
-1.089786	<s> 4 8	-0.06027228
-1.33316	<s> 4 :
-0.5228788	<s> 4 </s>
-0.03778856	0 5 </s>
-0.02802872	1 5 </s>
-0.6341897	2 5 0
-0.2142448	2 5 </s>
-0.06694679	4 5 </s>
-0.3331597	9 5 </s>
-0.9352197	: 5 3
-0.9352197	: 5 7	-0.4292344
-0.9352197	: 5 8
-0.9114379	<s> 5 0	0.1057537
-0.955087	<s> 5 1	-0.2180744
-0.7119561	<s> 5 :	-0.003970928
-0.7119561	<s> 5 </s>
-0.1570685	0 6 </s>
-0.1350636	1 6 </s>
-0.3331597	2 6 t	-0.1824836
-0.1570685	5 6 </s>
-0.3331597	9 6 7	-0.1824836
-0.8914179	<s> 6 1	0.1017723
-0.2373609	<s> 6 :	-0.3540317
-0.7148472	<s> 6 </s>
-0.3331597	0 7 :
-0.8560385	1 7 :
-0.6126643	1 7 </s>
-0.6126643	1 7 t	0.218173
-0.3331597	2 7 </s>
-0.06694679	3 7 </s>
-0.3331597	4 7 </s>
-0.3331597	5 7 :
-0.1570685	6 7 </s>
-0.30103	<s> 7 :	-0.2667813
-0.6918456	<s> 7 </s>
-0.9352197	<s> 7 t	0.1447493
-0.4577624	1 8 :	0.1272511
-0.2811916	1 8 </s>
-0.2146314	2 8 </s>
-0.7011365	2 8 t	-0.1824836
-0.3331597	3 8 </s>
-0.3331597	4 8 </s>
-0.1362197	<s> 8 :	-0.421389
-0.7845067	<s> 8 </s>
-0.06850339	0 9 :	-0.1221356
-0.9699818	1 9 4
-0.9699818	1 9 6	-0.4292344
-0.9699818	1 9 7
-0.9699818	1 9 8
-0.7266077	1 9 9	-0.2166505
-0.08978558	2 9 t	0.1017723
-0.1570685	5 9 </s>
-0.1570685	8 9 </s>
-0.6341897	9 9 9	-0.4736846
-0.3908156	9 9 </s>
-0.8510669	<s> 9 0	0.03934613
-0.9839886	<s> 9 :	-0.2219059
-0.4149733	<s> 9 </s>
-0.30103	0 : 0	0.412887
-0.6918456	0 : 3	0.107946
-0.3273589	1 : 0	0.5139703
-1.086487	1 : 1
-0.5999823	1 : 3	0.02576026
-0.30103	2 : 0	0.213437
-0.9352197	2 : 3	-0.2610161
-0.9352197	2 : 5	-0.6467587
-0.8974311	3 : 0	0.0239271
-0.8974311	3 : 3
-0.4109261	3 : 4	-0.09333067
-0.2142448	4 : 5
-0.2142448	5 : 0	0.09036728
-0.6341897	5 : 3
-0.9352197	6 : 0
-0.9352197	6 : 2
-0.6481965	6 : 3	0.152245
-0.5500369	7 : 0	0.5021976
-0.5500369	7 : 3	0.06982811
-0.9699818	7 : 4
-0.9699818	7 : 5
-0.1856366	8 : 0	-0.4798441
-1.217766	8 : 1
-1.217766	8 : 2
-1.217766	8 : 3	-0.2610161
-1.217766	8 : 4	-0.5274007
-0.5156614	9 : 0	-0.04496922
-0.5156614	9 : 3	0.02576026
-1.002167	9 : 5
-0.03815357	<s> : </s>
-0.06694679	<s> ? </s>
-0.4580985	<s> @ S	-0.1824836
-0.3116343	' A r	-0.3239627
-0.2138798	- A m	-0.06421924
-1.111311	- A r	-0.4137966
-1.111311	- A s	-0.5227677
-0.10721	. A .	-0.4317042
-0.7269987	. A </s>
-3.315526	<s> A &	0.1017723
-2.079612	<s> A .	-0.1601874
-2.661469	<s> A </s>
-1.716089	<s> A B	0
-3.138955	<s> A C	-0.2111383
-3.315526	<s> A D	-0.4896065
-3.315526	<s> A E	-0.400261
-3.315526	<s> A F	-0.1552954
-2.22574	<s> A G	-0.8190843
-3.072395	<s> A I	-0.3104104
-2.62368	<s> A M	-0.1128988
-3.072395	<s> A N	-0.3292516
-2.62368	<s> A O	-0.4149733
-2.472412	<s> A P	-0.5570056
-3.315526	<s> A R	-0.2945494
-2.661469	<s> A S	-0.4972141
-2.498741	<s> A T	-1.065817
-2.62368	<s> A a	0
-1.376525	<s> A b	-0.6593069
-1.864012	<s> A c	0.03483433
-1.482753	<s> A d	0.01893523
-2.158793	<s> A e	0.1017726
-1.241963	<s> A f	0
-1.207317	<s> A g	0.03711556
-2.012665	<s> A h	0.06208604
-1.609439	<s> A i	0.07107724
-2.380642	<s> A k	-0.02582521
-0.9835299	<s> A l	-0.2833758
-0.7067875	<s> A m	-0.3384789
-1.116274	<s> A n	-0.154153
-2.424108	<s> A o	0.1485184
-2.012665	<s> A p	-0.01224918
-3.5589	<s> A q
-0.8565241	<s> A r	0.08612915
-1.072433	<s> A s	0.07580153
-1.805234	<s> A t	-0.2277585
-1.366401	<s> A u	0.03117113
-2.304921	<s> A v	-0.06027237
-3.271876	<s> A w	0.2615403
-2.62368	<s> A x	0
-3.072395	<s> A y	-0.02302489
-2.255703	<s> A z	-0.03615376
-0.1047354	A A </s>
-1.002167	A A C
-0.4522977	B A </s>
-1.086487	B A C	-0.6894088
-0.8431132	B A N
-0.5999823	B A R	-0.7283239
-0.7242759	C A </s>
-0.2057619	C A C	-0.8246836
-1.33694	C A L	-0.5723049
-1.160369	C A N
-0.136838	D A </s>
-1.42424	D A Q	-0.1824836
-0.9377351	D A R	-0.3570078
-0.648287	E A </s>
-0.8477688	E A N	-0.6604639
-0.7148472	E A S	-0.6530461
-1.134792	E A T
-0.39794	F A </s>
-1.400107	F A A	-0.03134198
-0.3136191	F A W	0
-0.3590219	G A </s>
-0.50515	G A F	-0.7781513
-1.050775	G A G	-0.7144074
-1.53728	G A O	-0.6232576
-1.293906	G A T	-0.6072202
-0.2108534	H A </s>
-0.9699818	H A D
-0.04984637	I A </s>
-1.140927	I A F	-0.6690068
-1.775117	I A T	-0.6501821
-0.6341897	J A P	-0.6719401
-0.6341897	J A R	-0.6796993
-0.07918125	L A </s>
-0.3388186	M A </s>
-0.9492265	M A C	-0.229875
-0.7497447	M A N
-1.189077	N A </s>
-1.675582	N A D
-1.255638	N A L	0.07930187
-0.4393327	N A S	-1.10812
-0.3424227	N A T	-1.228985
-0.04068709	O A </s>
-1.702569	O A N	-0.3507187
-1.65892	O A S	-0.8592581
-0.1064553	P A </s>
-0.9743922	P A N	-0.05518028
-0.7731352	R A </s>
-0.5736533	R A L	-0.05603463
-1.060158	R A N
-0.1529675	S A </s>
-1.418844	S A A	0.0420817
-1.242274	S A C	-0.3501596
-1.662218	S A L
-0.90309	S A R	-0.7993405
-0.3391836	T A </s>
-0.7591285	T A L	0.01286169
-0.648287	U A A	-0.1002383
-0.1648103	U A L	-0.4329176
-0.4721052	V A </s>
-0.3391836	W A </s>
-0.7591285	W A R
-0.3331597	c A l	-0.6505359
-0.04575749	p A s	-0.8224189
-0.08978558	& B </s>
-0.02996322	' B r	-0.8982911
-0.1570685	. B .	-0.1475068
-3.507413	<s> B &	-0.1824836
-2.289647	<s> B .	0.1072464
-3.264039	<s> B </s>
-2.748285	<s> B A	-0.3329998
-1.845195	<s> B B	-0.903833
-3.264039	<s> B C	-0.3291063
-3.087469	<s> B M	-0.5961532
-2.609982	<s> B N	0
-3.507413	<s> B P	-0.1824836
-3.020908	<s> B S	-0.3973629
-3.087469	<s> B U
-0.569308	<s> B a	0.08308107
-0.7833186	<s> B e	-0.273999
-3.507413	<s> B h
-1.161416	<s> B i	0.2229368
-1.572194	<s> B l	0.4412737
-0.9446571	<s> B o	-0.03352149
-0.8624998	<s> B r	0.0145678
-0.7307299	<s> B u	-0.3560987
-2.537431	<s> B y	0.1594567
-1.213075	A B </s>
-1.213075	A B B	-0.4194154
-0.06180715	A B C	0.1893532
-1.232856	B B </s>
-0.05714289	B B C	0.3109383
-1.719361	B B I	-0.6907914
-1.833762	C B O	-0.6415424
-0.01393578	C B S	-0.6674529
-0.007178585	F B I	-0.4562711
-0.2218488	G B </s>
-0.4360936	G B H	0.4412777
-0.05115252	H B O	-0.3899711
-0.7715207	I B </s>
-0.69897	I B E	-0.5177391
-0.2218488	I B M	-0.5606673
-1.655375	N B </s>
-1.455893	N B A	-0.5801889
-0.04496714	N B C	0.07852866
-0.3331597	R B A	-0.6632183
-0.1047354	S B </s>
-0.7587923	S B C	1.496927
-0.3331597	T B </s>
-0.1570685	U B S	0.6006812
-0.4577624	a B a	-0.4691171
-0.2811916	a B o	-0.5977332
-0.08978558	c B r	-0.3491249
-0.5690153	e B a	-0.838648
-0.6126643	e B r	-0.5031211
-0.06850339	' C o	-0.6872128
-0.654057	- C h	0.1046809
-0.6104079	- C o	-0.4525654
-0.09691001	. C .	0.1627273
-1.171075	. C </s>
-2.760071	<s> C .	0.50515
-3.15801	<s> C </s>
-3.505177	<s> C A	-0.2996237
-1.963034	<s> C B	-0.0556765
-2.574434	<s> C C	-0.8651934
-3.033072	<s> C D	-0.2369074
-3.7922	<s> C H	-0.6548313
-2.14377	<s> C I	-1.076548
-3.7922	<s> C L	-0.6039787
-1.835791	<s> C N	-0.5825778
-2.936162	<s> C O	0.009022146
-3.15801	<s> C P	-0.3753196
-3.305695	<s> C R	0.09341241
-3.372255	<s> C S	0.03934613
-2.473764	<s> C T	-0.3476454
-3.7922	<s> C W	-0.1824836
-0.9616501	<s> C a	-0.3146774
-1.685742	<s> C e	-0.05783935
-0.4080167	<s> C h	0.1024725
-1.583979	<s> C i	0.006486526
-1.333017	<s> C l	0.02626463
-3.548826	<s> C n	-0.06027228
-0.4943096	<s> C o	-0.3264819
-1.902738	<s> C r	0.03336431
-1.611879	<s> C u	-0.1709263
-2.936162	<s> C y	0.02439966
-2.856981	<s> C z	0
-0.09497552	A C </s>
-1.604226	A C H	-0.6548313
-1.604226	A C L	-0.6039787
-1.360852	A C a	-0.6257352
-0.00327771	B C </s>
-2.28092	B C C	-0.5057741
-0.4423591	C C </s>
-1.412341	C C A	-0.6095414
-0.3521825	C C P	-0.6468723
-0.9258359	C C T	-0.687575
-0.04575749	D C </s>
-0.01930515	E C </s>
-1.576452	E C D	-0.5180216
-0.08978558	H C R	-0.1498038
-0.6665425	I C </s>
-0.8431132	I C A	-0.3002784
-0.7994642	I C C	-0.7420956
-1.086487	I C H
-0.01703334	L C </s>
-0.8431132	M C </s>
-0.5999823	M C A	-0.6784377
-0.2762064	M C I	-0.7560085
-0.7731352	N C </s>
-1.060158	N C H	-0.6073897
-1.060158	N C N	-0.6912419
-0.03342376	O C </s>
-1.521149	O C I	-0.006875609
-1.764524	O C N	-0.6956699
-0.1346986	P C </s>
-0.7887556	P C C	-0.4323504
-0.004695121	R C </s>
-0.4637573	S C </s>
-0.2151154	S C I	-1.358068
-1.662218	S C O	-0.6511241
-0.449969	T C </s>
-0.2738777	T C A	-1.108233
-1.161925	T C H	-0.676286
-0.1570685	U C L	-0.6039787
-0.2714747	c C a	-0.5922034
-0.6471384	c C l	-1.108895
-0.6751671	c C o	-0.7930289
-0.03778856	d C o	-0.9501044
-0.1570685	e C o
-0.2147243	i C o	-0.3251646
-0.04575749	m C l	-0.9812506
-0.3331597	u C o	-0.7001336
-0.1350636	' D o	-0.391677
-0.08978558	. D .	-0.1110512
-3.015441	<s> D &	0.1017723
-2.838871	<s> D '	0.4412777
-1.50515	<s> D .	-0.166295
-2.838871	<s> D </s>
-2.499687	<s> D A	-0.2643009
-2.971792	<s> D C	0.06332971
-3.258816	<s> D E	-0.6172609
-3.258816	<s> D M	-0.1824836
-3.258816	<s> D O
-1.789993	<s> D P	-1.268633
-3.015441	<s> D R	0.6228558
-0.6341389	<s> D a	-0.1583966
-0.3861615	<s> D e	-0.1621873
-2.499687	<s> D h	0
-1.031709	<s> D i	0.0556538
-2.971792	<s> D j	-0.7252786
-2.77231	<s> D m	0.06662874
-1.064321	<s> D o	-0.1578527
-1.330895	<s> D r	-0.3502527
-1.282203	<s> D u	-0.07247087
-3.015441	<s> D w	-0.2180744
-2.172328	<s> D y	-0.3508131
-0.810281	A D </s>
-0.5669068	A D N	0.009897015
-0.654057	C D </s>
-0.8974311	C D C	0.2996512
-0.4109261	C D L	0.07585295
-0.9352197	E D </s>
-0.4487146	E D E	-0.4378196
-0.5152748	E D T	0.4412777
-0.09017663	F D A	-0.863162
-1.361188	F D I	-0.6172609
-0.9412436	F D R	0.3203339
-0.3331597	G D R	0.2538937
-0.1570685	I D S	0.4135946
-0.04575749	J D S	0.1139434
-0.8163048	L D I	-0.3679493
-0.1014576	L D P	-1.13895
-0.4141133	M D </s>
-0.6918456	N D </s>
-0.30103	N D O	-0.7403627
-0.9352197	N D U	-0.4292344
-0.4580985	R D F	-0.1824836
-0.4580985	S D </s>
-0.4580985	S D A	-0.683682
-0.6126643	U D </s>
-0.5690153	U D N	-0.2998482
-0.02227639	V D O	-0.8081145
-0.1202938	c D o	-1.128836
-0.6462637	c D u	-1.108648
-0.08978558	. E .	0.5339147
-1.97676	<s> E .	-0.1124222
-3.111552	<s> E A	-0.607319
-2.352424	<s> E C	0.4074853
-2.625047	<s> E D	-0.2553704
-3.111552	<s> E I	-0.5144243
-2.255514	<s> E M	-0.3664151
-2.691607	<s> E N	-0.1257082
-2.255514	<s> E P	0
-2.625047	<s> E S	-0.2818143
-2.477362	<s> E T	-0.1100744
-1.750364	<s> E U	0
-2.868178	<s> E V	-0.2166505
-0.9374503	<s> E a	-0.03615374
-3.111552	<s> E b	-0.1824836
-1.198609	<s> E c	0.02936186
-1.131662	<s> E d	-0.2989425
-1.287031	<s> E g	-0.466816
-1.255514	<s> E h	0.2615403
-1.583416	<s> E i	0.01386382
-3.111552	<s> E k	-0.1824836
-0.9860008	<s> E l	-0.1126695
-1.67573	<s> E m	0.02439966
-1.085252	<s> E n	-0.2872699
-2.352424	<s> E p	0.0468017
-2.025065	<s> E q	0
-1.357887	<s> E r	-0.02582516
-1.67573	<s> E s	0.1549639
-1.687312	<s> E t	0.03934624
-1.085252	<s> E u	0.1017721
-1.531238	<s> E v	0
-3.111552	<s> E w	-0.1824836
-0.8862979	<s> E x	0.2652335
-2.868178	<s> E z	-0.06027228
-0.3908156	A E G	-0.2180744
-0.6341897	A E L	-0.3785306
-0.1165056	B E </s>
-0.6665425	B E R	-0.3208063
-0.7591285	D E A	-0.5897867
-0.2726234	D E R	-0.6800462
-0.2726234	F E D	-0.5782219
-0.5157543	F E M	-0.5437663
-0.03891807	G E </s>
-1.400107	G E R	-0.6516505
-0.5669068	H E </s>
-0.5669068	H E V	-0.2166505
-0.6341897	I E </s>
-0.6341897	I E S	-0.5685906
-0.3331597	K E R	-0.6111498
-0.6341897	L E </s>
-0.4109261	M E </s>
-0.4774863	M E R	-0.1949442
-0.8560385	N E </s>
-0.8560385	N E R
-0.4360936	N E S	-0.6039787
-0.4109261	O E </s>
-0.8974311	O E A	-0.5897867
-0.654057	O E C	-0.6152528
-0.008433168	P E C	-0.3542755
-0.5822216	R E </s>
-0.5156614	R E A	-0.3099242
-1.002167	R E C	0.6613791
-0.845098	S E </s>
-1.192265	S E A	-0.870167
-0.2082759	S E C	-0.06963591
-1.479288	S E F	-0.1824836
-0.09691001	T E </s>
-1.03213	T E D	-0.6467587
-0.1570685	Y E R
-0.1570685	c E l	-0.6971188
-2.279169	<s> F .	0.03778853
-2.041808	<s> F A	-0.6889281
-1.54971	<s> F B	0.007178592
-1.815412	<s> F D	0.1485185
-2.417472	<s> F E	0.08224468
-2.54241	<s> F H	0
-3.1766	<s> F I	-0.5144243
-2.690095	<s> F T	-0.3602491
-3.1766	<s> F X	-0.1824836
-1.002498	<s> F a	-0.1757324
-0.8940504	<s> F e	0.01871605
-0.8405547	<s> F i	-0.2989784
-0.9801176	<s> F l	0.2615396
-3.1766	<s> F m	-0.1824836
-0.7535353	<s> F o	-0.02008756
-0.6761231	<s> F r	0.08421326
-1.183841	<s> F u	0.05744608
-0.20412	A F </s>
-0.4771213	A F P	0.2762064
-0.1570685	D F </s>
-0.1570685	E F </s>
-0.7011365	I F A	-0.4785
-0.4577624	I F O	0.1017723
-0.7011365	I F T	-0.6039787
-0.04575749	J F K	0
-0.1570685	M F </s>
-0.9352197	N F I	-0.5144243
-0.1249387	N F L	0.07918123
-0.03476211	O F A	-0.8920946
-0.06694679	P F P	0.3853509
-0.3331597	W F P	0.5301002
-0.08978558	e F e	-0.3416893
-0.01772877	& G </s>
-0.3331597	' G r	-0.490026
-0.08978558	. G .	-0.02486508
-2.265181	<s> G .	0.1295227
-2.379124	<s> G </s>
-1.964151	<s> G A	-0.6016622
-2.991788	<s> G D	-0.06027228
-1.916726	<s> G E	-0.5236558
-2.748657	<s> G I	-0.5273709
-2.175004	<s> G M	0.07463362
-1.777064	<s> G O	-0.39503
-2.815218	<s> G P	0.4412777
-2.991788	<s> G R	-0.05389602
-2.337731	<s> G T	0
-0.800485	<s> G a	0.08433099
-2.991788	<s> G b	0.1017723
-0.5825498	<s> G e	-0.1417299
-2.379124	<s> G h	-0.5055567
-1.370524	<s> G i	0.1278184
-1.777064	<s> G l	0.1124963
-0.7925369	<s> G o	0.04944151
-0.7738191	<s> G r	0.005341127
-0.9350793	<s> G u	-0.2377689
-2.991788	<s> G w	-0.06027228
-3.235162	<s> G y	-0.1824836
-0.1583625	A G </s>
-0.9258359	A G E	0.2977017
-0.9258359	A G I	-0.5273709
-0.2147243	E G </s>
-0.08978558	I G </s>
-0.06850339	K G B	-0.3713051
-0.1570685	M G M	0.5784048
-0.6126643	N G O	-0.6015579
-0.8560385	N G R
-0.07918125	P G A	-0.9542425
-0.3331597	R G i	-0.5918005
-0.06850339	T G A	-0.7287796
-0.03815357	W G B	-0.4357521
-0.5157543	c G r	-0.5323977
-0.5157543	c G u	-0.5761588
-0.3331597	- H a
-0.1476846	. H .	0.2721476
-2.246093	<s> H .	0.1119738
-3.33258	<s> H </s>
-3.33258	<s> H A
-2.573452	<s> H B	0
-3.33258	<s> H I
-3.33258	<s> H K	0.02834862
-2.69839	<s> H O	-0.2135059
-3.33258	<s> H Q	-0.1824836
-3.33258	<s> H R	-0.4292344
-3.089206	<s> H S	-0.3362466
-2.846075	<s> H U	0.02439969
-0.6543737	<s> H a	-0.1889642
-0.9741147	<s> H e	-0.1533486
-1.142088	<s> H i	0.002043403
-3.33258	<s> H n	-0.1824836
-0.5141725	<s> H o	0.0476517
-1.030938	<s> H s	0
-0.7597041	<s> H u	0.01239425
-3.045557	<s> H w	-0.02931919
-2.197788	<s> H y	-0.04519401
-0.03815357	B H </s>
-0.7151433	C H </s>
-1.002167	C H E	-0.5630302
-1.002167	C H T	-0.5144243
-0.06694679	F H A	-0.4301247
-0.08978558	I H </s>
-0.5157543	N H C	0.1017723
-0.7591285	N H T	-0.5144243
-0.3331597	P H I
-0.5500369	S H </s>
-0.9699818	S H E
-0.9699818	S H I
-0.5500369	S H V	0.4412777
-0.2147243	T H E	-0.4896065
-0.1570685	V H </s>
-0.3331597	W H O	-0.6273178
-0.4141133	b H u	-0.9164669
-0.1570685	m H A	-0.2853754
-0.6341897	- I r	0.2813624
-0.3908156	- I s	0.5535219
-0.3331597	. I .	-0.2907473
-2.973409	<s> I .	0.1875233
-2.194893	<s> I </s>
-2.759164	<s> I A	-0.8125107
-1.935255	<s> I B	-1.20412
-3.393354	<s> I G	0.02834862
-1.924531	<s> I I	0.5444965
-3.14998	<s> I M	-0.1895588
-2.973409	<s> I N	-0.1849478
-3.393354	<s> I O	-0.6580188
-1.838345	<s> I R	-0.5772365
-2.973409	<s> I S
-2.583073	<s> I T	-0.4846587
-2.282043	<s> I b	-0.4668159
-2.906849	<s> I c	-0.02302489
-2.333195	<s> I d	0.1017722
-3.393354	<s> I f	-0.1824836
-3.106331	<s> I g	0
-2.973409	<s> I h	-0.03615372
-3.393354	<s> I i	-0.1824836
-3.106331	<s> I k	-0.7252786
-1.946251	<s> I l	0.441278
-1.583073	<s> I m	-0.2493109
-0.5095581	<s> I n	0.0615275
-2.361224	<s> I o	0
-0.5697673	<s> I r	0.0009313001
-0.5568574	<s> I s	0.008805007
-1.668084	<s> I t	0.01386382
-2.194893	<s> I v	-0.06027236
-3.393354	<s> I w	-0.1824836
-0.7011365	A I D	-0.1824836
-0.4577624	A I W	0.1017723
-0.02085014	B I </s>
-1.662218	B I E	-0.5856126
-0.3667088	C I </s>
-0.2787536	C I A	-1.139603
-1.912943	C I C	-0.5949389
-0.3391836	D I </s>
-0.7591285	D I A
-0.7591285	D I C	-0.5949389
-0.4580985	E I N	-0.6253074
-0.4580985	F I B	-0.6198292
-0.4580985	F I F	-0.6039787
-0.3695334	G I O	-0.5473964
-0.3695334	G I P	-0.2921238
-0.03476211	I I </s>
-1.152097	I I I	0.4800348
-0.05115252	J I B	-0.8737229
-0.4580985	K I I	0.4135946
-0.4580985	K I P	-0.6273178
-0.9352197	L I </s>
-0.6918456	L I F	-0.4408208
-0.5152748	L I N	-0.5588672
-0.3903361	M I </s>
-0.5669068	M I T	-0.2595361
-0.8560385	N I </s>
-0.6126643	N I A	0.3379105
-0.8560385	N I C
-0.6126643	N I H	0.1017723
-0.5152748	P I </s>
-0.6481965	P I C	-0.8616289
-0.3756636	R I </s>
-1.134792	R I C	-0.6330703
-1.134792	R I E	-0.5856126
-1.134792	R I L	-0.4292344
-1.134792	R I R	-0.6802705
-0.2726234	S I </s>
-0.3309932	T I </s>
-0.5392691	T I B	-1.049218
-1.265877	T I N
-0.8750613	T I O	-0.7589951
-0.07918125	V I A	-0.07655712
-0.810281	W I F	-0.6039787
-0.3237759	W I I	0.3446983
-0.06850339	c I n	-0.5457945
-0.04575749	- J a	-0.5950832
-0.02482358	. J .	-0.1330566
-3.324533	<s> J &	-0.1824836
-1.912193	<s> J .	0.1679734
-3.324533	<s> J </s>
-2.690344	<s> J A	-0.06027231
-2.468495	<s> J D	0
-2.514252	<s> J F	0
-3.081159	<s> J P	-0.06027228
-2.838028	<s> J S	0.06662874
-0.3733257	<s> J a	-0.2655747
-0.8589006	<s> J e	-0.3483472
-0.9050139	<s> J i	-0.02282446
-0.667778	<s> J o	-0.3421738
-1.912193	<s> J r	0.1017726
-1.208424	<s> J u	-0.3670114
-0.05115252	M J I	0
-0.4141133	R J R	-0.7252786
-0.4141133	S J </s>
-0.08978558	m J i	-0.6137818
-0.01472326	. K .	0.05435768
-2.75624	<s> K .	0.8975704
-3.176185	<s> K </s>
-2.68968	<s> K G	0.06662874
-3.176185	<s> K H
-3.176185	<s> K I	-0.5144243
-1.922206	<s> K K	0
-1.475048	<s> K M	0.006160303
-0.7626391	<s> K a	0.03349254
-1.010516	<s> K e	-0.08479327
-1.648048	<s> K h	-0.03615375
-1.045988	<s> K i	-0.07469959
-2.064874	<s> K l	0.2279271
-2.75624	<s> K m	0.4412777
-1.958418	<s> K n	0.1658145
-0.4214211	<s> K o	0.09989353
-1.223236	<s> K r	0.1485188
-1.132626	<s> K u	-0.01224903
-2.541995	<s> K w	-0.01224914
-1.59587	<s> K y	-0.02931928
-0.04575749	F K </s>
-0.08978558	H K </s>
-0.01703334	K K R	0
-0.3331597	S K I	-0.5144243
-0.01772877	U K </s>
-0.2726234	c K e	-0.197102
-0.5157543	c K i	-0.0956763
-0.1570685	h K l	-0.5542207
-0.06850339	n K e	-0.6989027
-0.05115252	& L </s>
-0.1570685	- L e
-0.08978558	. L .	-0.1645271
-3.309663	<s> L '	-0.1824836
-2.038651	<s> L .	0.08677101
-2.550534	<s> L </s>
-3.022639	<s> L A	-0.06694679
-2.091896	<s> L D	-0.1393061
-3.309663	<s> L E
-2.889718	<s> L I	-0.06387626
-3.309663	<s> L M	-0.1824836
-2.412231	<s> L O	-0.5087988
-2.453624	<s> L S	-0.001156631
-3.066288	<s> L T	0.2416424
-3.066288	<s> L Y	-0.1454622
-0.7285296	<s> L a	0.1290489
-0.7285296	<s> L e	-0.02383407
-0.5057005	<s> L i	-0.1285752
-1.705436	<s> L l	0
-0.853741	<s> L o	-0.3332274
-1.4759	<s> L t	0
-1.181782	<s> L u	-0.2597175
-1.737621	<s> L y	-0.02582521
-0.09342168	A L </s>
-0.9274553	A L I	-0.270795
-0.7011365	C L A	0.07780249
-0.7011365	C L T	-0.1273197
-0.7011365	C L U	0.02834862
-0.06694679	D L </s>
-0.2811916	E L </s>
-0.03778856	F L </s>
-0.3331597	I L L	-0.2914981
-0.2147243	L L </s>
-0.04139268	N L </s>
-0.05799195	O L </s>
-1.479288	P L </s>
-0.2253093	P L C	0
-0.509306	P L O	-0.8273693
-0.3331597	U L I	-0.6467587
-0.1570685	Y L E	-0.5856126
-0.1570685	a L o	-0.4899014
-0.1350636	c L a	-0.5885935
-0.04139268	e L a	-1.030091
-0.08978558	& M </s>
-0.2147243	- M a	-0.4694137
-0.2147243	. M .	0.2576815
-2.301681	<s> M .	0.06069783
-2.602711	<s> M </s>
-2.699621	<s> M A	-0.5502764
-2.456583	<s> M C	-0.5576187
-3.215375	<s> M E	-0.1554778
-3.45875	<s> M G	-0.1824836
-3.038805	<s> M I	-0.0847597
-2.699621	<s> M J	0
-3.45875	<s> M N	-0.1824836
-2.280492	<s> M O	0.2226225
-3.45875	<s> M P
-2.602711	<s> M S	-0.7403627
-3.45875	<s> M T	-0.6925224
-0.4581367	<s> M a	0.003712428
-1.349858	<s> M c	0.002075532
-2.602711	<s> M d	0.0666287
-0.9815347	<s> M e	0.05110987
-3.45875	<s> M f
-0.5869322	<s> M i	-0.01966967
-0.8506625	<s> M o	-0.1198101
-3.215375	<s> M r	-0.06027228
-1.239099	<s> M u	-0.133828
-1.895141	<s> M y	0.1017719
-0.39794	A M </s>
-1.03213	A M E
-0.39794	A M R	0.154902
-0.04139268	B M </s>
-1.079546	B M W	0.03934613
-0.1570685	D M V	-0.4292344
-0.7587923	E M A	-0.3606572
-0.7587923	E M R	0.3730749
-0.3679768	E M S	-0.5854607
-0.0234811	G M </s>
-0.5550085	I M F	-0.1824836
-0.006160309	K M T	-0.2601938
-0.1570685	L M E	-0.4869466
-0.3908156	O M E	-0.4135229
-0.07918125	P M </s>
-0.9352197	P M o	-0.5992129
-0.1249387	R M A	-0.6718139
-0.8167843	R M I	-0.3999321
-0.4580985	S M C	-0.6330703
-0.3679768	T M D	-0.6337063
-0.3679768	T M T	0.7459666
-0.1476846	c M a	-0.7570371
-0.1570685	l M a	-0.6781861
-0.3331597	' N e
-0.5550085	- N o	0.05629838
-0.01639042	. N .	-1.202027
-1.808912	<s> N .	0.1850982
-2.961009	<s> N </s>
-1.76904	<s> N A	-0.5390918
-1.524915	<s> N B	-0.8720732
-2.894449	<s> N C	-0.3160768
-2.483522	<s> N F	-0.5675368
-3.137579	<s> N G	-0.5054644
-3.137579	<s> N H	-0.2482988
-2.961009	<s> N I	-0.2480439
-2.961009	<s> N O	0.03934613
-1.746764	<s> N P	0.00706234
-2.033553	<s> N S	-0.5992156
-1.922855	<s> N T	-0.6753515
-3.380954	<s> N U
-3.380954	<s> N Y	-0.4292344
-0.5834037	<s> N a	-0.2949409
-0.3644466	<s> N e	-0.3200363
-3.137579	<s> N g	-0.06027228
-1.194501	<s> N i	-0.03782689
-0.9316291	<s> N o	0.1990196
-1.993436	<s> N u	-0.1275217
-2.894449	<s> N y	-0.02302489
-0.3273589	A N </s>
-0.7533277	A N C	-0.2311974
-1.144143	A N E	-0.1332302
-1.387517	A N K
-0.04139268	B N L	0
-1.969982	C N </s>
-1.682959	C N B	0.3693465
-0.03476211	C N N	0.003604128
-0.1139434	D N </s>
-0.7011365	E N I	-0.6351989
-0.7994642	I N </s>
-1.086487	I N D	-0.6467587
-0.8431132	I N G
-1.086487	I N S	-0.6689692
-0.1570685	M N D	-0.6016392
-0.003604124	N N </s>
-0.3152704	O N </s>
-0.9274553	O N A	-0.6091065
-0.7132105	O N D	-0.544068
-1.3474	O N E
-1.3474	O N T
-0.3903361	P N </s>
-0.3237759	P N B	-0.7595343
-0.3116343	R N I	-0.5054644
-0.9352197	S N </s>
-0.07918125	S N B	-0.03421411
-0.4834767	T N </s>
-0.5500369	T N T	-0.593443
-0.9699818	T N U	-0.4096703
-0.0225333	U N </s>
-2.106458	U N E	-0.5021923
-1.863084	U N H	-0.4689336
-0.1570685	Y N C	-0.6607888
-0.06694679	a N e	0.1633234
-0.2146314	c N a	-0.6485039
-0.1570685	' O r	-0.650661
-1.406282	<s> O '	0.03191511
-2.493811	<s> O .	0.2615403
-2.493811	<s> O A	-0.9270393
-2.780834	<s> O C	-0.6928148
-2.36089	<s> O E	-0.2606011
-2.53746	<s> O N	-0.3396834
-1.356594	<s> O P	-1.273081
-2.53746	<s> O T	-0.3042527
-1.778668	<s> O a	0.143199
-2.53746	<s> O b	-0.06027228
-1.810853	<s> O c	-0.2493108
-0.9119588	<s> O f	0.1017722
-1.447675	<s> O g	0.441277
-1.161368	<s> O h	-0.03615369
-1.748705	<s> O i	0
-1.602577	<s> O k	0
-1.032701	<s> O l	-0.00834425
-1.419646	<s> O m	-0.0122491
-1.970554	<s> O n	-0.06027231
-1.291328	<s> O p	0.09821264
-0.6623449	<s> O r	0.01646798
-1.168921	<s> O s	-0.2309467
-2.021706	<s> O t	-0.4668159
-1.646042	<s> O u	0.07559018
-1.433434	<s> O v	-0.07162242
-1.582373	<s> O w	0.4412771
-2.53746	<s> O z	-0.06027228
-0.7887556	A O </s>
-0.09691001	A O L	-0.2108534
-0.1383027	B O </s>
-0.8974311	B O E	-0.4869466
-0.9699818	C O </s>
-0.7266077	C O N	-0.3114189
-0.5500369	C O R	-0.5350766
-0.6690068	D O N	-0.5578563
-0.1684044	D O T	-0.4164234
-0.08978558	F O R	-0.5636706
-1.246133	G O </s>
-0.07716595	G O P	-1.272763
-1.246133	G O R	-0.2964045
-0.810281	H O </s>
-0.5669068	H O M	-0.400261
-0.810281	H O U	-0.4292344
-0.39794	I O </s>
-1.03213	I O C	0.429985
-0.7451065	I O N	-0.07793809
-0.2839966	L O </s>
-1.010604	L O A	-0.6182243
-0.9669552	L O N	-0.7516764
-0.7583129	M O E	-0.3862196
-0.243038	M O F	0
-0.6917527	M O R	-0.6516311
-0.2147243	N O R	-0.5636706
-0.01189922	R O C	-0.7329891
-0.6341897	S O </s>
-0.3908156	S O C	-0.6136432
-0.04042866	T O </s>
-1.265877	T O N	-0.3396834
-0.003860421	V O A	-1.004566
-0.06694679	& P </s>
-0.03815357	. P .	0.09309016
-2.214513	<s> P &	0
-2.515543	<s> P .	0.06466639
-3.450763	<s> P </s>
-2.816573	<s> P F	0
-3.207388	<s> P G
-3.163739	<s> P I	-0.826082
-2.003659	<s> P L	-0.5698754
-2.594724	<s> P M	-0.2632414
-2.964257	<s> P N	-0.4898287
-3.450763	<s> P P	-0.6894088
-1.621596	<s> P R	-1.401993
-2.964257	<s> P S	0.06662874
-0.4072032	<s> P a	0.05002753
-0.7603033	<s> P e	-0.1844347
-3.207388	<s> P f	0.1017723
-1.382536	<s> P h	0.04680164
-1.329906	<s> P i	0.05601226
-1.762215	<s> P l	-0.2493107
-3.450763	<s> P n	-0.1824836
-1.019536	<s> P o	-0.2083815
-0.992664	<s> P r	0.001081224
-3.207388	<s> P s	0.1017723
-1.138358	<s> P u	0.02936208
-3.163739	<s> P y	0.2615403
-0.7785163	A P </s>
-1.198461	A P A	-0.6516505
-0.1962947	A P E	0.539912
-0.1570685	B P </s>
-0.1312789	C P </s>
-1.217766	C P C	-0.1263175
-0.9743922	C P P	-0.6075801
-0.5065762	D P </s>
-1.397994	D P I	-0.4687231
-0.1942652	D P P	-0.69897
-0.04139268	E P A	-0.3786349
-0.02632894	F P </s>
-0.03815357	G P A	0.02884924
-0.1760913	I P </s>
-0.810281	I P P
-0.3331597	J P M	-0.6467587
-0.5136381	N P </s>
-0.8381492	N P C	-0.4259687
-0.2738777	N P R	-1.401993
-0.3192548	O P </s>
-0.3070204	O P E	0.1478016
-0.05799195	P P </s>
-1.360852	P P C	-0.549834
-1.604226	P P L	-0.6857
-0.3391836	R P </s>
-0.3391836	R P A	0.02884924
-0.4109261	S P </s>
-0.4774863	S P N	-0.4069156
-0.02996322	U P G	-0.39794
-0.04575749	W P P	-0.09691001
-0.03815357	a P o	-0.6308227
-0.1570685	& Q </s>
-0.4718729	<s> Q a	-0.2803576
-0.3440096	<s> Q i	0.06615497
-0.684687	<s> Q u	0.006340248
-0.1570685	A Q </s>
-0.1570685	H Q </s>
-0.2147243	- R e	-0.284912
-0.05115252	. R .	-0.2957012
-1.924592	<s> R .	0.1243899
-3.299145	<s> R </s>
-3.299145	<s> R D	-0.5144243
-3.055771	<s> R E	-0.4688929
-3.012122	<s> R J	-0.7252786
-2.401714	<s> R M	-0.1802858
-1.579784	<s> R O	-0.2951211
-2.329163	<s> R T	-0.1118079
-1.087081	<s> R a	0.09705235
-0.5373106	<s> R e	0.05654611
-2.267015	<s> R h	0
-0.8941032	<s> R i	0.0731668
-0.6841946	<s> R o	-0.206624
-0.6507148	<s> R u	-0.1405138
-2.120887	<s> R w	0
-2.488864	<s> R y	0.0989035
-0.5228788	A R </s>
-1.33316	A R D
-1.33316	A R I	-0.6672797
-0.9132149	A R P	-0.3679493
-1.089786	A R S	-0.3195937
-1.046136	A R T	-0.1830364
-0.1760913	C R </s>
-0.810281	C R I	-0.4629878
-0.05115252	D R </s>
-0.7312612	E R </s>
-0.7312612	E R A	-0.634409
-0.9743922	E R M	-0.02486508
-1.217766	E R R	0.02834862
-1.217766	E R S
-0.9743922	E R T	-0.1242612
-0.1350636	G R E	-0.2377464
-0.3331597	H R G	-0.4292344
-1.345058	I R </s>
-0.9542425	I R A	-0.7649066
-0.08894108	I R S	-0.5392692
-0.4141133	J R </s>
-0.01703334	K R </s>
-0.04575749	M R </s>
-1.111311	O R B	-0.4292344
-0.8679368	O R C	1.341558
-0.8679368	O R N	-0.3362466
-0.6913661	O R P	-0.3679493
-0.6248059	O R T	-0.7000645
-0.588696	P R </s>
-0.1627273	P R C	0.01909296
-1.329059	P R I	-0.6077371
-0.08978558	R R I	-0.2983176
-0.03778856	S R </s>
-0.5550085	T R E	-0.5423166
-0.5550085	T R I	-0.6672797
-0.6341897	U R Y	0.02834862
-0.4580985	V R E	-0.6548313
-0.4580985	V R S	0.4135946
-0.2811916	' S </s>
-1.002167	- S e
-0.5822216	- S o	-0.4867628
-1.002167	- S t	-0.3050365
-0.5822216	- S y	-0.2928734
-0.001519399	. S .	-0.7386249
-2.546658	. S </s>
-2.718502	<s> S &	0
-2.253615	<s> S .	0.5935034
-3.366698	<s> S </s>
-2.68374	<s> S A	0.0835352
-2.195623	<s> S C	-1.19382
-2.335285	<s> S E	-0.8579742
-2.894593	<s> S H	-0.1669657
-3.653721	<s> S I
-3.410347	<s> S K	-0.06027228
-3.653721	<s> S M
-3.653721	<s> S P
-3.410347	<s> S T
-0.8181345	<s> S a	-0.2895911
-1.323467	<s> S c	0.001453816
-0.9111922	<s> S e	0.09514946
-0.7933615	<s> S h	0.000433989
-1.339801	<s> S i	0.01282021
-2.75629	<s> S k	-0.01599087
-1.810911	<s> S l	-0.1824835
-2.08168	<s> S m	0
-2.68374	<s> S n	-0.345959
-0.9140215	<s> S o	0.08919615
-1.453291	<s> S p	-0.1632655
-2.593563	<s> S q	0
-3.366698	<s> S r	-0.1385656
-0.7687052	<s> S t	0.02521363
-1.252376	<s> S u	0.1586175
-3.019532	<s> S v	0
-1.971608	<s> S w	0.1017722
-1.722136	<s> S y	0.04681528
-3.233777	<s> S z	-0.1824836
-0.1570685	@ S W	-0.1824836
-0.7871061	A S </s>
-0.3679768	A S A	-0.5025522
-1.12629	A S D	-0.1824836
-1.259211	A S E	-0.9078396
-1.546235	A S S	-0.6580188
-1.12629	A S T	-0.1673999
-1.546235	A S U	-0.6273178
-0.02227639	B S </s>
-1.436094	B S B	0.0350982
-0.2147243	C S </s>
-0.03476211	D S </s>
-0.5822216	E S </s>
-1.002167	E S C	-0.6907914
-1.002167	E S E	-0.633402
-0.5822216	E S P	-0.4579997
-0.5550085	H S </s>
-0.3116343	H S B	-0.5437663
-0.5669068	I S </s>
-0.06850339	J S P	-0.5558429
-0.4774863	L S I	-0.3024831
-0.4109261	L S U	-0.6145055
-0.3467875	M S </s>
-0.30103	M S N	-0.2632414
-1.400107	N S </s>
-1.400107	N S A	-0.1729224
-1.113083	N S B	-0.2676635
-0.2218488	N S C	-1.159492
-1.156732	N S T
-0.06850339	P S </s>
-0.03476211	R S </s>
-1.572042	R S H
-1.572042	R S U	-0.5456092
-1.03213	S S O	-0.4736846
-0.1346986	S S R	0
-0.6481965	T S </s>
-0.9352197	T S A	-0.1729224
-0.9352197	T S M	-0.5144243
-0.0534981	U S </s>
-1.447804	U S A	-0.5271997
-2.684053	U S E	-0.633402
-1.786622	U S S	-0.50515
-1.336653	U S T	-0.6470087
-1.924925	U S X	0.04575749
-0.4141133	W S J	-0.7252786
-0.3331597	Y S E	-0.633402
-0.1570685	a S y	-0.5172526
-0.1249387	o S p	-0.9219453
-0.9352197	o S r	-0.6273178
-0.02802872	& T </s>
-0.4577624	. T .	0.4467646
-0.2811916	. T </s>
-2.726908	<s> T .	-0.1760913
-2.090086	<s> T C	-0.924578
-3.293815	<s> T H	-0.2180744
-2.567207	<s> T I	-0.9980655
-2.535023	<s> T M	0
-3.050684	<s> T N	-0.2698092
-3.537189	<s> T R	-0.5585209
-3.537189	<s> T S	-0.6467587
-1.554046	<s> T V	-0.119257
-3.117244	<s> T W	0.03934613
-0.41965	<s> T a	0.1206101
-0.949562	<s> T e	0.03252406
-0.787389	<s> T h	0
-1.08236	<s> T i	-0.1369035
-1.058937	<s> T o	-0.003752286
-1.134608	<s> T r	0.1594569
-1.712668	<s> T s	-0.5372047
-1.563879	<s> T u	0.03813713
-2.601969	<s> T w	-0.1824836
-2.681151	<s> T y	-0.008827358
-3.250166	<s> T z	-0.02931919
-0.5642715	A T &	0
-0.9622114	A T I	-0.7829502
-0.3089989	A T O	-0.3960055
-1.353027	A T T	-0.4483039
-1.400107	C T B	-0.4292344
-0.2218488	C T I	-1.069421
-0.9801616	C T S	-0.5233203
-0.7659168	C T V	1.044204
-0.03815357	D T </s>
-0.7011365	E T A	-0.4343895
-0.4577624	E T o	-0.6027622
-0.7011365	F T </s>
-0.2146314	F T V	1.120057
-0.03778856	G T E	-0.3802112
-0.4580985	H T </s>
-0.4580985	H T S	-0.6467587
-0.8167843	I T </s>
-1.060158	I T A
-0.5736533	I T N	-0.596297
-1.060158	I T T	-0.5217276
-1.060158	I T V	1.188953
-0.1350636	L T V	1.255393
-0.01128101	M T </s>
-1.748133	M T V	1.188953
-1.050775	N T </s>
-1.53728	N T N	-0.6511241
-1.53728	N T T	-0.5217276
-0.1371732	N T U	-0.2891311
-0.06069784	O T </s>
-1.217766	O T S	-0.5897604
-0.4210053	R T </s>
-0.8319314	R T C	-0.5789134
-0.8319314	R T G	0.06662874
-0.8984916	R T Z	0.4412777
-0.4293485	S T </s>
-0.4030195	S T C	-1.064941
-1.246133	S T I	-0.3071789
-1.489507	S T O
-1.489507	S T R	-0.5585209
-0.4721052	T T </s>
-0.02996322	W T O	-0.1249387
-0.08978558	e T o	-0.6027622
-0.03778856	l T a	-1.074188
-0.4580985	- U .	0.4873631
-0.4580985	- U n	0.8266644
-0.4724678	<s> U .	0.04030502
-2.430075	<s> U </s>
-2.151321	<s> U A	0.02936186
-3.286114	<s> U B	-0.1824836
-3.286114	<s> U C	-0.1824836
-2.99909	<s> U D	-0.8001332
-2.049864	<s> U K	0
-3.286114	<s> U L	-0.4292344
-1.187037	<s> U N	-0.3822152
-2.283947	<s> U P	0
-0.6138338	<s> U S	-0.5902863
-2.799608	<s> U d	0.06662874
-3.286114	<s> U g	-0.1824836
-3.286114	<s> U i	-0.1824836
-2.651924	<s> U k	0
-2.526985	<s> U l	0.05565369
-0.5424578	<s> U n	0.04154442
-2.388682	<s> U p	0.02640716
-1.861873	<s> U r	0.05333982
-1.998711	<s> U t	-0.4846322
-3.286114	<s> U z	-0.1824836
-0.3331597	D U S	-0.6798687
-0.01336396	E U </s>
-0.3116343	H U D	-0.5054644
-0.08978558	L U </s>
-0.3116343	N U </s>
-0.3331597	O U S	-0.6994489
-0.5232578	S U </s>
-0.810281	S U R	-0.5856126
-0.1879905	T U </s>
-0.526809	T U S	-1.058701
-0.1760913	. V .	0.154902
-0.810281	. V a	-0.6877029
-2.496326	<s> V .	0.3730749
-2.496326	<s> V A	-0.4483039
-1.604908	<s> V D	0
-2.7397	<s> V F
-2.7397	<s> V H	-0.1824836
-1.80448	<s> V I	0
-0.8344434	<s> V O	0
-2.7397	<s> V R	-0.5144243
-0.9198736	<s> V a	-0.1430055
-0.9971707	<s> V e	-0.06974801
-0.4182786	<s> V i	-0.02938597
-1.40654	<s> V l	0
-0.8383384	<s> V o	0.05476351
-2.319755	<s> V r	0.03934613
-0.6341897	E V </s>
-0.6341897	E V R	-0.5144243
-0.03815357	H V </s>
-0.3331597	M V </s>
-0.005640267	T V </s>
-2.04637	T V A	-0.5217276
-0.1476846	- W a	-0.5348291
-0.1570685	. W .	0.5215
-1.738549	<s> W .	-0.04254368
-2.243699	<s> W </s>
-3.032455	<s> W A
-3.275829	<s> W B
-3.275829	<s> W C
-3.032455	<s> W F	-0.06027228
-2.855884	<s> W G	0.4412777
-3.032455	<s> W H	-0.06027228
-2.419791	<s> W P	0
-2.988806	<s> W S	-0.7252786
-2.273663	<s> W T	0
-2.465548	<s> W W	0.2226224
-0.4019229	<s> W a	0.1967828
-0.7164992	<s> W e	-0.3892836
-1.147949	<s> W h	0
-1.032401	<s> W i	0.06940374
-0.906573	<s> W o	-0.723948
-2.189342	<s> W r	0
-1.179241	<s> W u	-0.09050389
-2.419791	<s> W y	-0.03615372
-0.02482358	A W </s>
-0.1570685	C W A	-0.4343895
-0.08978558	I W </s>
-0.2147243	M W </s>
-0.1570685	S W I	-0.6273178
-0.2147243	T W </s>
-0.3903361	W W </s>
-0.3237759	W W I	-0.4898287
-0.1139434	e W e	-1.018894
-0.7266077	e W i	-0.3152667
-2.100736	<s> X </s>
-2.52068	<s> X X	-0.1824836
-2.277306	<s> X e	0.1017723
-0.05933693	<s> X i	-0.1368092
-0.965672	<s> X u	0.08711288
-0.1570685	F X </s>
-0.04575749	S X </s>
-0.1570685	X X </s>
-0.1570685	Z X </s>
-0.09691001	. Y .	0
-0.7887556	. Y </s>
-3.069822	<s> Y L	-0.1824836
-0.8072431	<s> Y a	0.06776072
-0.5803148	<s> Y e	-0.3292593
-1.394239	<s> Y i	0.02595022
-0.4765907	<s> Y o	-0.2433006
-0.6939553	<s> Y u	-0.1426328
-3.069822	<s> Y v	-0.1824836
-0.4580985	L Y N	-0.1824836
-0.3331597	N Y S	-0.4292344
-0.08978558	R Y </s>
-1.170579	<s> Z a	0.06033909
-0.7301804	<s> Z e	-0.1390814
-0.2869941	<s> Z h	0
-1.170579	<s> Z i	-0.09713493
-0.9679285	<s> Z o	0.2859517
-2.594819	<s> Z s	-0.1824836
-1.358569	<s> Z u	0.03249007
-0.03815357	T Z </s>
-0.1570685	o Z X	-0.1824836
-0.1570685	<s> ] </s>
-1.42424	<s> ` </s>
-0.02413368	<s> ` `	0
-0.01223446	` ` </s>
-0.8984916	' a b	-0.6245518
-0.2071255	' a n	-1.004957
-0.8984916	' a o	-0.1728741
-1.318437	' a t	-0.677621
-1.626993	<s> a .	-1.109916
-0.9280232	<s> a </s>
-1.437937	<s> a b	-1.598228
-2.825454	<s> a c
-2.58208	<s> a d	-0.6260946
-1.170075	<s> a f	-1.688961
-1.690662	<s> a g	-0.9715232
-0.5732166	<s> a l	-1.838355
-1.823288	<s> a m	-0.682007
-0.3862171	<s> a n	-1.636119
-1.928023	<s> a r	-0.6140277
-2.538431	<s> a s	-0.7955875
-1.793325	<s> a t	-1.138433
-0.03778856	A a r	-1.059817
-2.942754	B a '	-0.5456092
-1.724988	B a </s>
-2.522809	B a a	-0.1975693
-2.522809	B a b
-1.807962	B a c	-0.27137
-2.086716	B a d	-0.3979015
-0.9344273	B a g	-1.744772
-2.045323	B a h	-1.343088
-1.940588	B a i	-0.2973226
-1.36244	B a k	-1.00974
-1.235457	B a l	-0.9662704
-0.5161727	B a n	-1.74454
-2.522809	B a o
-2.942754	B a q
-0.5220496	B a r	-1.063329
-1.443263	B a s	-0.8815171
-1.542648	B a t	-0.3126681
-1.972772	B a u	-0.5160846
-2.942754	B a v	-0.6679795
-2.183626	B a w	-0.846967
-1.831443	B a y	-0.49348
-1.578904	C a b	-0.9146218
-2.215726	C a d	-0.606929
-2.562892	C a f	-0.5407252
-1.180964	C a i	-1.437035
-0.6950238	C a l	-0.8213625
-1.142619	C a m	-1.120943
-0.7952198	C a n	-1.400696
-2.215726	C a o	-0.3840636
-1.107386	C a p	-1.382695
-0.7083196	C a r	-0.8419779
-1.034836	C a s	-0.8522015
-1.155028	C a t	-1.256501
-2.849915	C a u
-1.952484	C a v	-0.7985981
-2.606541	C a w
-1.489884	D a d	-1.015697
-1.865548	D a e	-0.6198156
-1.00521	D a i	-0.8600807
-2.138171	D a k	-0.7553588
-0.9053152	D a l	-1.221426
-1.689457	D a m	-0.4135288
-0.8443588	D a n	-1.020766
-1.865548	D a o	-0.2782475
-1.177573	D a r	-0.4985894
-2.337653	D a s	-0.8871597
-1.689457	D a t	-0.7602885
-0.4183901	D a v	-1.803641
-1.990487	D a w	-0.2041133
-1.353665	D a y	-0.4855863
-0.9958441	E a g	-1.269424
-0.9378521	E a r	-1.269255
-0.1166662	E a s	-2.487972
-2.174102	E a u	-0.6972355
-1.754157	F a b	-0.3383275
-1.171935	F a c	-1.159156
-1.414973	F a h	-0.7038575
-0.7382798	F a i	-1.544046
-0.9958441	F a l	-0.863533
-1.318063	F a m	-0.8843855
-0.9563355	F a n	-1.356392
-0.5937875	F a r	-0.8283826
-1.017033	F a t	-0.7704649
-2.174102	F a u
-1.887079	F a y	-0.9261868
-1.687597	F a z	-0.6704645
-2.435822	G a .	-0.3631066
-2.435822	G a </s>
-1.676694	G a b	-0.5516533
-2.015877	G a d	-0.356385
-1.46584	G a i	-1.038164
-1.117386	G a l	-0.9348923
-1.257564	G a m	-1.245779
-1.218056	G a n	-0.2196227
-0.9170257	G a o	-0.9006934
-0.6607055	G a r	-0.8623515
-1.676694	G a s	-0.842584
-1.676694	G a t	-0.5192266
-2.015877	G a v	-0.6317054
-2.435822	G a y
-0.4898785	G a z	-1.718073
-1.921036	H a a	-0.5915546
-1.921036	H a b	-0.22146
-1.620006	H a c	-1.087727
-2.260219	H a d	-0.1754508
-2.260219	H a f	-0.6683539
-1.677998	H a g	-1.016891
-0.998051	H a i	-0.9691105
-2.43679	H a j	-0.1515993
-1.267823	H a k	-0.79443
-1.280058	H a l	-0.1846618
-0.8112886	H a m	-1.307876
-0.794742	H a n	-0.4885985
-1.392762	H a o	-0.6492389
-2.43679	H a p	-0.2982389
-0.6779978	H a r	-0.8176026
-1.376968	H a s	-0.6359823
-2.193659	H a t	-0.2659882
-2.393141	H a u	-0.01213378
-1.443915	H a v	-1.289007
-1.648035	H a w	-0.6309755
-2.393141	H a y	-0.384349
-2.260219	H a z	-0.4676601
-2.667659	J a a	-0.9019082
-2.534737	J a b	-0.6608035
-0.9813724	J a c	-1.967552
-2.711308	J a d	-0.2847592
-2.468177	J a g	-0.7007877
-1.9847	J a k	-1.07446
-2.667659	J a l	-0.3684754
-0.9196668	J a m	-2.28702
-1.700704	J a n	-0.5822591
-0.2172591	J a p	-2.257323
-1.81989	J a s	-1.030904
-2.954682	J a t	-0.677621
-2.711308	J a v	-0.3458257
-2.468177	J a w	-0.3318852
-1.68367	J a y	-1.094992
-1.134856	J a z	-1.411124
-1.235288	K a b	-1.317009
-1.993601	K a c	-0.2694075
-2.170171	K a d	-0.2922667
-1.478326	K a g	-1.068718
-1.779356	K a h	-0.5679013
-0.849937	K a i	-1.382036
-2.413546	K a k	-0.6970943
-1.779356	K a l	-0.1023514
-1.603265	K a m	-0.2508887
-0.849937	K a n	-0.7138733
-0.9664426	K a o	-1.040813
-0.7513272	K a r	-1.03885
-1.195779	K a s	-0.878575
-0.8585372	K a t	-0.9031481
-2.413546	K a u
-2.170171	K a w	-0.5196496
-1.779356	K a y	0.07885135
-1.927041	K a z	-0.4377795
-1.958245	L a </s>
-2.17249	L a B	-0.3120904
-2.592435	L a L	-0.1824836
-1.192328	L a b	-1.286314
-1.657215	L a c	-0.7018635
-1.037426	L a d	-1.362972
-1.435367	L a f	-1.008673
-2.592435	L a g
-1.695004	L a h	-0.7366273
-1.695004	L a i	-0.9178498
-1.736397	L a k	-0.9034694
-1.338457	L a m	-0.9929308
-0.9805216	L a n	-0.2455122
-1.505948	L a o	-1.196369
-1.123613	L a r	-1.431758
-1.457643	L a s	-0.5388376
-1.217883	L a t	-0.7647589
-1.004003	L a u	-1.557851
-1.532277	L a v	-0.7848766
-0.8018981	L a w	-1.402549
-1.590268	L a y	-0.7558879
-1.481124	L a z	-1.273134
-1.917845	M a </s>
-0.7217829	M a c	-0.4586263
-1.53551	M a d	-0.8795823
-1.893022	M a e	-1.242783
-1.643144	M a g	-0.2404311
-1.55723	M a h	-1.323164
-1.432291	M a i	-1.099072
-1.786566	M a j	-0.3545623
-2.370143	M a k	-0.1302441
-1.309445	M a l	-0.6841891
-0.856038	M a n	-0.765951
-1.62978	M a o	-0.8151726
-0.5168504	M a r	-1.319734
-1.55723	M a s	-0.728022
-1.303196	M a t	0.2073005
-2.194052	M a u	-0.9689274
-2.106901	M a x	-0.5738743
-1.580092	M a y	-0.01687085
-2.002166	M a z	-0.5936719
-1.943989	N a b	-0.3469323
-2.800027	N a c	-0.6788173
-1.563778	N a d	-1.253569
-2.800027	N a f	-0.6437646
-2.513004	N a g	-0.2278224
-2.556653	N a h	-0.5467924
-2.513004	N a i	-0.9075633
-2.313522	N a j	-0.4592395
-2.165838	N a k	-0.4834172
-1.943989	N a m	-0.5069147
-1.068928	N a n	-0.9929646
-2.800027	N a p
-2.800027	N a q	-0.6939993
-1.300536	N a s	-0.6384876
-0.2028373	N a t	-1.829815
-2.800027	N a u
-0.9065624	N a v	-1.495505
-1.71354	N a z	-0.6249424
-0.5822216	O a d	-0.5947886
-0.3679768	O a k	-0.8405184
-0.7587923	O a t	-0.606699
-2.623896	P a .	-0.2966664
-3.043841	P a </s>
-1.431928	P a c	-1.329638
-3.043841	P a d
-2.557336	P a e	-0.4426796
-2.284713	P a g	-0.4614082
-1.725405	P a i	-0.9714192
-3.043841	P a j	-0.4976985
-1.643735	P a k	-1.506477
-0.3179844	P a l	-2.808709
-2.800467	P a m	-0.1682957
-1.214675	P a n	-0.8742203
-2.284713	P a o	0.2099759
-2.409651	P a p	-0.1967336
-2.623896	P a q	-0.6275591
-0.6091634	P a r	-1.460175
-2.073859	P a s	-0.2031685
-1.431928	P a t	-0.9258969
-1.312741	P a u	-1.673692
-2.557336	P a w	-0.3902797
-2.23356	P a x	-0.3900102
-3.043841	P a z	-0.5341003
-0.841203	Q a e	-1.221874
-1.267172	Q a i	-0.8359252
-1.657987	Q a r	-0.61834
-1.614338	Q a s	-0.4166935
-0.1702617	Q a t	-1.862951
-1.901361	Q a y	-0.669698
-1.452936	R a b	-0.5304124
-1.792119	R a c	-0.1219812
-1.179935	R a d	-1.272013
-1.96869	R a e	-0.6183504
-0.9410525	R a f	-0.6787775
-1.276845	R a h	-1.433481
-1.401783	R a i	-0.4704159
-1.077272	R a l	-0.7998577
-0.7878242	R a m	-0.8462044
-0.9758146	R a n	-0.2538965
-2.212064	R a o	-0.6981218
-1.242082	R a p	-0.734683
-1.725559	R a s	-0.06318351
-1.792119	R a t	-0.2146337
-1.96869	R a u	-0.3193295
-2.212064	R a v	-0.4192494
-0.7539659	R a y	-0.5930836
-1.336551	S a a	-1.022263
-2.025761	S a b	-0.2387393
-1.900822	S a c	-0.4466541
-0.7419572	S a d	-1.664374
-2.592668	S a e	-0.3307949
-1.411802	S a f	-0.7640052
-2.549019	S a h	-0.8565377
-1.70125	S a i	-0.6582497
-2.549019	S a k	-0.7298049
-0.9671661	S a l	-0.3164651
-1.071518	S a m	0.8992013
-0.812686	S a n	-0.9957402
-2.349537	S a o	-0.3082106
-2.836042	S a p
-1.435935	S a r	-0.8999749
-2.416097	S a s	-0.319994
-1.749554	S a t	-0.8326977
-0.6768073	S a u	-1.831764
-1.517605	S a v	-0.5918936
-2.349537	S a w	-0.4320215
-1.900822	S a y	-0.3173886
-2.836042	S a z	-0.695002
-2.700203	T a '	-0.479169
-1.963079	T a </s>
-2.117981	T a b	-1.128622
-2.222717	T a c	-0.7025207
-2.633642	T a d	-0.04101055
-3.120148	T a e	-0.6878595
-2.876774	T a f	-0.5165451
-2.700203	T a g	-0.2077058
-2.700203	T a h	-0.553776
-0.09886483	T a i	-1.583081
-2.700203	T a j	-0.4541212
-2.309867	T a k	-0.5709372
-1.457929	T a l	-1.550998
-1.832745	T a m	-0.4597569
-1.234725	T a n	-0.5908729
-2.008837	T a o	-0.4632448
-2.150166	T a r	-0.8263986
-2.184928	T a s	-0.3867246
-3.120148	T a t	-0.5741383
-3.120148	T a u
-1.94189	T a x	-1.010945
-1.849136	T a y	-1.450488
-1.070038	V a .	-0.6170003
-1.542143	V a </s>
-1.585792	V a c
-1.829166	V a e	-0.699757
-0.5107298	V a l	-0.8542546
-0.5107298	V a n	-0.1328124
-1.585792	V a r
-1.194977	V a t	-0.6038125
-1.409221	V a u	-0.3637798
-2.456455	W a P	0.4412777
-2.8764	W a b
-2.117271	W a c	-0.8541454
-1.906418	W a d	-0.2218909
-2.633026	W a e	0.4964598
-2.456455	W a f
-2.456455	W a g	-0.6270692
-2.456455	W a h
-2.633026	W a i	-0.6166509
-2.456455	W a j	-0.6060676
-1.978969	W a k	-1.027506
-0.6740083	W a l	-0.7434621
-0.7043909	W a n	-0.874779
-0.7873652	W a r	-1.327862
-0.4850672	W a s	-2.221078
-1.529	W a t	-0.87578
-1.94118	W a y	-0.8882643
-1.628389	Y a </s>
-2.262579	Y a b	-0.6846402
-1.842634	Y a h	-0.1854113
-1.365147	Y a l	-0.4610184
-1.365147	Y a m	-0.4377636
-0.3309932	Y a n	-0.8211324
-1.20242	Y a o	-0.5165876
-0.5804654	Y a s	-1.475534
-1.842634	Y a t	-0.3318459
-1.842634	Y a w	-0.526633
-2.019205	Y a y	-0.2967479
-1.180866	Z a c	-0.2312896
-1.180866	Z a g	-0.3256947
-1.004295	Z a h	-0.2124696
-1.42424	Z a i
-1.004295	Z a k	-0.6196464
-1.180866	Z a l	-0.6263343
-1.180866	Z a m
-1.42424	Z a n
-0.6651117	Z a r	-0.6444675
-1.42424	Z a v	-0.6406395
-1.873072	a a </s>
-1.113943	a a b	-0.832123
-1.873072	a a c	-0.6889649
-0.8709053	a a d	-1.063337
-1.113943	a a f	-0.4373509
-1.453127	a a g	-0.5560824
-1.629698	a a m	-0.4638341
-0.7617608	a a n	-1.129214
-1.386567	a a r	-0.2109228
-1.238882	a a s	-0.7334396
-0.4855544	a a t	-1.649171
-0.7884675	b a </s>
-1.72632	b a b	-0.7137155
-1.133403	b a c	-1.118523
-2.418165	b a d	-0.218632
-2.241595	b a g	-0.3681228
-2.661539	b a h	-0.424248
-1.72632	b a i	-0.3227555
-1.225717	b a l	-0.7318848
-1.851258	b a m	-0.9257494
-0.427103	b a n	-1.618033
-2.02735	b a o	0.1496456
-0.9925875	b a r	-0.694309
-1.463078	b a s	-0.7126702
-1.013109	b a t	-1.031411
-2.02735	b a u	-0.5051141
-2.02735	b a y	-0.1460888
-0.6935194	c a </s>
-1.754701	c a d	-1.475417
-2.781859	c a e	-0.3684676
-1.476534	c a g	-1.737112
-2.169674	c a i	-0.4943021
-1.304373	c a l	-1.4439
-2.115317	c a m	-0.4635794
-0.3008341	c a n	-1.844274
-1.914402	c a o	-0.9861236
-2.391523	c a p	-0.5069535
-1.605403	c a r	-0.7976095
-1.754701	c a s	-0.9234907
-1.341444	c a t	-1.027214
-1.130922	c a u	-1.962662
-3.201804	c a y
-0.4724026	d a </s>
-0.9325321	d a d	-2.03026
-2.511641	d a f	-0.2167773
-2.688211	d a g	-0.2635908
-1.820274	d a h	-0.4883702
-2.511641	d a i	-0.6164343
-1.929419	d a k	-0.6963158
-1.412789	d a l	-0.7288306
-0.8226939	d a m	-1.752317
-0.9052852	d a n	-1.345524
-2.688211	d a o	-0.1658906
-2.688211	d a p	-0.6146783
-1.996366	d a q	-0.7078297
-1.598426	d a r	-1.09023
-2.688211	d a s	-0.2197282
-1.473487	d a t	-1.120027
-2.511641	d a w	-0.6154964
-0.9452132	d a y	-1.490119
-0.9011368	e a </s>
-2.149779	e a b	-1.007191
-1.537959	e a c	-1.492479
-1.71405	e a d	-0.4849541
-1.09775	e a g	-1.450399
-2.560705	e a h	-0.1638084
-1.119289	e a l	-0.9215962
-1.829444	e a m	-0.5578052
-0.6956271	e a n	-1.412344
-2.045043	e a p	-0.678423
-0.7082978	e a r	-1.255076
-1.032809	e a s	-1.17345
-1.358662	e a t	-0.460745
-1.051292	e a u	-1.34928
-1.935899	e a v	-0.4922811
-1.157788	f a </s>
-1.438614	f a c	-1.024457
-2.092671	f a e	0.4964598
-0.6411579	f a i	-1.508712
-2.092671	f a k	-0.349536
-1.916101	f a l	-0.6306495
-1.118279	f a n	-0.3702721
-1.366064	f a r	-0.643654
-1.303916	f a s	-1.092146
-0.4465832	f a t	-1.995765
-1.303916	f a v	-0.8007475
-1.400826	f a x	-0.9138138
-0.7070376	g a </s>
-2.670286	g a S	-0.1824836
-1.700304	g a d	-0.2883308
-1.860005	g a g	-0.9221738
-1.66812	g a i	-0.6638823
-1.282769	g a l	-0.5469626
-2.250341	g a m	-0.2965174
-0.4582217	g a n	-1.357668
-1.133006	g a p	-1.663517
-0.9057626	g a r	-1.265325
-1.911158	g a s	-0.4314267
-1.036096	g a t	-0.9843643
-2.250341	g a v	-0.6015393
-2.670286	g a w	-0.5930732
-2.670286	g a y	-0.3101086
-1.66812	g a z	-1.077311
-1.395326	h a </s>
-2.219235	h a a	-1.121585
-2.191206	h a b	-0.4480109
-2.617175	h a c	-0.4024005
-1.876812	h a d	-0.7908031
-1.365943	h a e	-0.5120341
-2.140054	h a f	-0.5400678
-2.353934	h a h	-0.5276614
-0.9344286	h a i	-2.057266
-3.251365	h a j
-2.395326	h a k	0.01061721
-1.350003	h a l	-0.3955751
-1.225065	h a m	0.3585192
-0.3953264	h a n	-0.4596446
-1.550228	h a o	-0.843628
-2.492236	h a p	-0.464256
-0.8821088	h a r	-1.192821
-1.839024	h a s	-0.3222848
-1.399691	h a t	-0.8435623
-2.617175	h a u	-0.6396874
-2.073107	h a v	-0.792468
-2.219235	h a w	-0.5112739
-1.890176	h a y	-0.5236928
-2.76486	h a z	-0.2052007
-0.5208915	i a </s>
-3.273435	i a b	-0.3059728
-2.456651	i a c	-0.7783265
-3.229786	i a d	-0.7323434
-2.581589	i a g	-0.6402018
-2.757681	i a h	-0.6179782
-3.096864	i a i	-0.6277109
-2.660771	i a k	-0.1564604
-1.314418	i a l	-2.028466
-1.306662	i a m	-1.589345
-0.2956572	i a n	-1.429881
-1.581589	i a o	-0.300704
-3.516809	i a p	-0.07571719
-2.318348	i a r	-0.5426097
-2.757681	i a s	-1.050196
-1.375213	i a t	-1.026346
-3.273435	i a u	-0.6250268
-2.660771	i a v	-0.6150248
-3.096864	i a x	-0.3510957
-3.516809	i a y
-2.757681	i a z	-0.6420671
-1.068503	j a </s>
-0.9208187	j a d	-0.7323434
-1.068503	j a h	-0.1188473
-1.555009	j a k	-0.4229597
-0.552842	j a m	-1.114005
-1.068503	j a n	-0.1483803
-1.135064	j a r	-0.5906071
-0.9208187	j a y	-0.4973131
-0.5062062	k a </s>
-1.489607	k a i	-0.8777299
-1.828791	k a k	-0.3196787
-1.828791	k a m	-0.6261075
-0.5601881	k a n	-1.299785
-2.005361	k a p	-0.6146783
-0.8244953	k a r	-0.7466339
-1.392697	k a s	-0.30376
-1.278754	k a t	-1.108469
-1.216606	k a y	-1.136618
-2.248735	k a z
-2.185564	l a .	-0.8088859
-1.147219	l a </s>
-2.912172	l a a	-0.6166157
-1.937779	l a b	-1.202284
-1.500167	l a c	-1.216056
-1.536079	l a d	-0.8579613
-1.977288	l a g	-0.9433631
-1.209602	l a h	-1.540716
-1.514177	l a i	-1.001605
-2.912172	l a j	-0.5803489
-2.669041	l a k	-0.1715851
-2.220326	l a l	-0.8458002
-1.278318	l a m	-0.9314315
-0.51489	l a n	-0.8792807
-2.735601	l a p	0.255127
-1.159628	l a r	-0.9554517
-1.138139	l a s	-1.494146
-1.266084	l a t	-0.5830338
-1.312736	l a u	-0.8181885
-1.018474	l a v	-2.110643
-2.020754	l a w	-0.8286356
-1.63675	l a y	-0.5690633
-0.8720558	m a </s>
-1.966477	m a c	-0.820869
-1.489356	m a d	-1.000335
-2.158362	m a g	-0.4766124
-1.811575	m a h	-0.8904464
-1.594091	m a i	-0.8920971
-2.968643	m a k	-0.6864625
-1.293061	m a l	-0.3246151
-2.482138	m a m	-0.6061541
-0.2650324	m a n	-1.708955
-2.548699	m a o	-0.1728741
-1.293061	m a r	-1.522239
-1.083221	m a s	-1.292193
-1.665447	m a t	-0.5494856
-2.033424	m a y	-0.572861
-2.334454	m a z	-0.5007678
-0.3512157	n a </s>
-2.881817	n a N	0.07585295
-3.124949	n a a	-0.5443902
-3.124949	n a b	-0.297716
-2.470891	n a c	-0.4394474
-1.366156	n a d	-1.903966
-3.124949	n a e	-0.6144359
-2.948378	n a f	-0.6162826
-1.822088	n a g	-1.062348
-2.257012	n a h	-0.4328585
-3.124949	n a i	-0.3211126
-3.368323	n a j	-0.4976985
-2.734133	n a k	-0.5238902
-0.6525455	n a l	-1.670127
-1.353922	n a m	-1.107651
-1.173828	n a n	-1.350595
-3.124949	n a p	-0.6002456
-1.734133	n a r	-1.356119
-2.132073	n a s	-0.7396325
-0.9440823	n a t	-1.495167
-2.734133	n a u	-0.1568574
-3.124949	n a v	-0.2716775
-3.368323	n a z	-0.6015681
-2.167792	o a </s>
-1.880769	o a c	-0.8365732
-0.9138138	o a d	-1.3897
-1.681287	o a l	-0.3211088
-1.747847	o a m	-0.2064136
-0.9138138	o a n	-0.8419789
-1.924418	o a p	-0.6190919
-0.3926758	o a r	-2.00301
-0.8203922	o a s	-1.393176
-1.033	o a t	-0.5330125
-1.912566	p a </s>
-2.143015	p a c	-0.9525566
-2.755679	p a d	-0.2922667
-2.579108	p a g	-0.5661128
-2.999053	p a h	-0.6858549
-1.394827	p a i	-1.407056
-1.800592	p a l	-1.028013
-0.1473796	p a n	-2.166848
-2.999053	p a o	-0.2393143
-2.239925	p a p	-0.9419957
-2.579108	p a q	-0.313916
-0.7538487	p a r	-1.756414
-2.063833	p a s	-0.491632
-2.029071	p a t	-0.6297269
-0.6481965	q a w	-0.9043595
-1.201769	r a </s>
-3.293	r a B	-0.4408208
-3.536374	r a a
-1.307423	r a b	-1.471298
-2.027123	r a c	-0.1101068
-1.337913	r a d	-1.10597
-0.7570915	r a e	-1.546132
-1.559762	r a f	-0.9948936
-1.932148	r a g	-0.8266493
-1.95606	r a h	-1.215492
-2.008238	r a i	-0.9547991
-3.249351	r a j	-0.2825271
-1.300124	r a k	-1.483843
-1.041846	r a l	-1.729847
-1.745837	r a m	-0.9727241
-0.8640942	r a n	-1.155723
-2.265362	r a p	-1.101697
-0.8634317	r a q	-1.125471
-2.638943	r a r	-0.4011782
-1.916908	r a s	-1.134442
-0.9229395	r a t	-1.106579
-2.504244	r a u	-0.3176537
-2.233177	r a v	-0.851959
-2.217937	r a w	-0.7861084
-2.534208	r a y	-0.5761477
-2.300124	r a z	-0.681232
-0.845098	s a </s>
-1.644969	s a a	-0.8986433
-1.528463	s a b	-0.9202163
-1.528463	s a c	-0.6532306
-1.804669	s a d	-0.8187134
-2.327927	s a h	-0.8196591
-0.9595714	s a i	-0.9856117
-1.758912	s a k	-0.5393158
-0.5828207	s a l	-1.432019
-1.253762	s a m	-0.8246098
-0.8612848	s a n	-0.7500134
-2.61495	s a o	-0.2393143
-2.128445	s a r	-0.241936
-1.227433	s a s	-1.273647
-1.758912	s a t	-0.509481
-1.855822	s a u	-0.5933141
-1.378701	s a w	-1.075174
-1.758912	s a y	-0.1414428
-0.8949143	t a </s>
-2.90203	t a a	-0.6087159
-2.247973	t a b	-0.08313845
-2.034093	t a c	-1.493858
-2.175423	t a d	-0.5526383
-2.335124	t a f	-0.4148784
-1.232461	t a g	-1.070835
-1.858002	t a h	-1.155263
-1.13403	t a i	-1.986795
-2.289366	t a k	-0.3771828
-0.9840146	t a l	-1.196464
-2.210185	t a m	-0.4617669
-0.7246999	t a n	-0.8784922
-2.511215	t a o	-0.3840636
-2.511215	t a p	-0.3185215
-1.175423	t a r	-1.161813
-2.113275	t a s	-1.449983
-0.5289435	t a t	-1.905331
-2.386276	t a u	-0.666244
-3.145404	t a v
-2.386276	t a w	-0.846967
-3.145404	t a x
-2.113275	t a y	-0.9069378
-0.4855768	u a </s>
-2.913324	u a b	-0.6749349
-1.525807	u a d	-0.9386546
-2.426819	u a g	-0.6914189
-2.913324	u a h	-0.424248
-1.778532	u a i	-0.901211
-1.565924	u a k	-1.408619
-1.525807	u a l	-0.5078854
-2.426819	u a m	-0.1031877
-0.3177133	u a n	-1.123667
-2.66995	u a q	-0.4014897
-1.257945	u a r	-0.9408361
-2.913324	u a s	-0.6927272
-1.881194	u a t	-0.5727596
-2.913324	u a y
-0.9769856	v a </s>
-2.324386	v a c
-0.9912261	v a d	-1.25862
-2.324386	v a g	-0.6982721
-1.565257	v a i	-0.9514645
-1.426955	v a k	-0.2631248
-0.6488034	v a l	-0.5741268
-0.544068	v a n	-0.5701298
-0.8772827	v a r	-0.9145874
-2.081012	v a s	-0.3207786
