
\data\
ngram 1=94
ngram 2=2006
ngram 3=9425
ngram 4=20396
ngram 5=23331
ngram 6=19799

\1-grams:
-3.483388	"	-2.390502
-4.318267	#	-1.564133
-2.904461	$	-2.967345
-2.716207	%	-3.143239
-3.447945	&	-2.29829
-2.706223	'	-2.661523
-4.338952	(	-1.543929
-4.360671	)	-1.52274
-5.252766	*	-0.6730452
-4.910343	+	-0.9773999
-2.810914	,	-3.041806
-2.451774	-	-3.055188
-2.173223	.	-3.551246
-3.460374	/	-2.398231
-2.056258	0	-3.734673
-2.162437	1	-3.633157
-2.427729	2	-3.323914
-2.574065	3	-3.160057
-2.676424	4	-3.11935
-2.521177	5	-3.282274
-2.717725	6	-3.078076
-2.702048	7	-3.107599
-2.588876	8	-3.206854
-2.414925	9	-3.321926
-3.775645	:	-2.085248
-5.951735	;	-0.2217099
-0.7774578	</s>
-99	<s>	-4.396273
-4.910343	?	-0.9998612
-5.349676	@	-0.6884196
-2.110627	A	-2.477051
-2.206349	B	-3.237732
-1.930298	C	-3.427999
-2.438385	D	-3.028591
-2.507379	E	-2.715901
-2.490087	F	-2.924297
-2.492494	G	-2.940698
-2.412534	H	-3.043909
-2.337155	I	-2.851391
-2.412409	J	-3.195183
-2.582334	K	-2.689238
-2.407544	L	-3.044726
-2.228526	M	-2.968836
-2.28653	N	-3.279595
-2.681523	O	-2.6349
-2.265278	P	-2.987158
-3.382362	Q	-2.358037
-2.400164	R	-3.153297
-1.955487	S	-3.164167
-2.140831	T	-3.283503
-2.435333	U	-3.072549
-2.923979	V	-2.548518
-2.461496	W	-3.012192
-3.256254	X	-2.516168
-2.69262	Y	-2.940215
-3.165694	Z	-2.431516
-5.951735	[	-0.2217099
-5.650706	]	-0.3978012
-5.474615	_	-0.51868
-3.498417	`	-2.373349
-1.128281	a	-3.839997
-2.161028	b	-3.089958
-1.836558	c	-3.266928
-1.751926	d	-3.37246
-1.102335	e	-3.84354
-2.091877	f	-3.214251
-1.839667	g	-3.282233
-1.508911	h	-3.674157
-1.23864	i	-3.837661
-2.965412	j	-2.593758
-2.261983	k	-2.896524
-1.504966	l	-3.593924
-1.798836	m	-3.291195
-1.209113	n	-3.863585
-1.318601	o	-3.736299
-2.113706	p	-3.066721
-2.858314	q	-2.77041
-1.338042	r	-3.671965
-1.396279	s	-3.730725
-1.312289	t	-3.788616
-1.668661	u	-3.468266
-2.272217	v	-3.088647
-2.065809	w	-3.156494
-2.694537	x	-2.751457
-1.807255	y	-3.360871
-2.69574	z	-2.616271
-5.349676	{	-0.6196499
-5.349676	}	-0.6196499
-5.951735	Å	-0.3010295
-5.650706	•	-0.3958497
-5.951735	Æ	-0.2832319
-5.650706	ø	-0.4771203
-5.951735	„	-0.3010295
-5.650706	Ô	-0.4771203

\2-grams:
-0.001474686	" </s>
-0.009984221	# </s>
-3.047664	$ 6
-0.0007790038	$ </s>
-2.934751	% -
-0.00227711	% </s>
-2.45763	% u	-1.095728
-0.1106983	& </s>
-2.028029	& B	-0.3186412
-2.50515	& D
-2.50515	& E
-1.124939	& G	-1.38679
-1.60206	& L	-0.9420435
-2.028029	& M	-0.3169897
-1.726999	& P	-0.827775
-2.20412	& Q	-0.6259134
-2.50515	& S
-1.329059	& T	-1.191385
-2.50515	& Y
-2.20412	& i	-0.5448277
-2.20412	& o	-0.618202
-2.50515	& t
-2.50515	& v
-1.170212	' '	-2.02235
-2.944729	' 0	-0.6308574
-3.245759	' 4
-3.245759	' 5
-2.643699	' 6	-0.1452033
-2.944729	' 7	-0.5804923
-2.546789	' 8	-0.6386861
-1.814396	' 9	-0.3608291
-0.9113056	' </s>
-2.546789	' A	-0.114802
-2.099631	' B	-1.118868
-2.546789	' C	-0.6316484
-2.546789	' D	-0.6564842
-3.245759	' E
-2.768638	' G	-0.234832
-2.944729	' H	-0.5254572
-3.245759	' M
-2.768638	' N	-0.1343928
-2.944729	' O	-0.5847555
-2.400661	' S	-0.3118518
-1.740609	' a	-1.055684
-3.245759	' b
-2.204367	' c	-1.07577
-3.245759	' d
-2.944729	' e	-0.5767536
-3.245759	' g
-2.546789	' i	-0.1344283
-3.245759	' m
-2.204367	' n	-1.012412
-3.245759	' r
-0.1440123	' s	-2.891593
-2.643699	' t	-0.6008305
-3.245759	' v
-0.01046543	( </s>
-0.01099538	) </s>
-0.4771213	* *
-0.4771213	* </s>
-0.7781513	* o
-1.079181	+ +
-0.30103	+ </s>
-1.079181	+ B
-1.079181	+ F
-1.079181	+ S
-1.079181	+ u
-0.2569073	, 0	-1.86033
-1.709772	, 1	-0.4214633
-1.743196	, 2	-0.6283221
-1.664015	, 3	-0.4996408
-1.635986	, 4	-0.6649272
-1.539076	, 5	-0.6826223
-1.862383	, 6	-0.2626515
-1.885864	, 7	-0.3538007
-1.487924	, 8	-0.6838628
-1.937016	, 9	-0.2426662
-0.5788432	, </s>
-3.500099	- $
-2.386156	- -	-0.002054722
-3.022978	- 0	-0.3087427
-2.008738	- 1	-1.36735
-3.199069	- 3
-3.500099	- 8
-3.199069	- 9
-0.03234314	- </s>
-2.199069	- A	-0.3427006
-3.199069	- B	-0.5134493
-2.458707	- C	0.1077108
-3.199069	- D
-3.199069	- F
-3.500099	- G
-3.022978	- H	-0.2019494
-2.721948	- I	-0.0384908
-2.458707	- J	-0.8040546
-3.500099	- K
-2.898039	- L	-0.5549318
-2.721948	- M	-0.306498
-2.801129	- N	-0.09102239
-2.420918	- O	-1.053816
-3.500099	- P
-2.721948	- R	-0.1885054
-2.244827	- S	-0.5355915
-3.022978	- T
-2.898039	- U	-0.3085906
-3.500099	- V
-2.721948	- W	-0.3214572
-3.500099	- Z
-3.500099	- c
-2.721948	- d	-0.4072961
-3.500099	- e
-3.199069	- f	-0.5688777
-2.500099	- h	-0.6078685
-3.500099	- k
-3.022978	- m	-0.221499
-2.801129	- n	-0.6930383
-2.458707	- o	-1.36038
-3.500099	- p
-3.022978	- s	-0.2183414
-3.199069	- w
-3.500099	- z
-3.778585	. .
-1.761552	. 0	-0.5184051
-1.538036	. 1	-1.034417
-1.528165	. 2	-0.4733204
-1.543057	. 3	-1.050159
-1.588254	. 4	-0.3341966
-1.322219	. 5	-0.7041851
-1.533073	. 6	-0.5237486
-1.599608	. 7	-0.7084211
-1.471089	. 8	-0.8440284
-1.571759	. 9	-0.7067297
-0.2957118	. </s>
-2.287224	. A	-1.466615
-3.477555	. B	-0.6333212
-2.145117	. C	-1.88313
-2.933487	. D	-0.3983336
-3.301464	. E	-0.3226723
-3.778585	. F
-3.301464	. G	-0.3236996
-3.000434	. H	-0.5133334
-3.301464	. I	-0.3111083
-2.523313	. J	-1.248574
-2.301464	. K	-1.470958
-3.301464	. L	-0.3225077
-3.176525	. M	-0.2171058
-2.347222	. N	-1.42398
-3.176525	. P	-0.6974479
-2.778585	. R	-1.313854
-0.8365773	. S	-2.687031
-2.398374	. T	-1.452108
-2.824343	. V	-0.7306857
-3.301464	. W	-0.3188984
-2.602494	. Y	-1.019072
-3.079615	. b	-0.3417735
-2.699404	. c	-1.357063
-2.038223	. m	-1.695938
-2.875495	. o	-0.8930506
-3.301464	. p	-0.2801375
-2.49276	/ 0
-0.7219084	/ 1	-0.9613107
-0.7219084	/ 2	-0.8144263
-0.9245586	/ 3	-0.9992977
-0.8206626	/ 4	-1.466224
-2.49276	/ 6
-0.8799765	/ 8	-1.416751
-0.6798471	/ </s>
-3.895533	0 %
-2.816352	0 '	-0.5645404
-3.594503	0 +	-0.334325
-1.274357	0 ,	-1.768084
-2.992443	0 -	-0.3002054
-1.688707	0 .	-2.056221
-3.594503	0 /	-0.5803452
-0.4565163	0 0	-0.9814391
-1.858106	0 1	-0.129762
-2.147345	0 2	-0.8341515
-2.163139	0 3	-0.6858166
-2.214292	0 4	-0.7868795
-1.961035	0 5	-0.5141852
-2.117382	0 6	-0.6749577
-1.987048	0 7	-0.175685
-2.533805	0 8	-0.4497821
-2.242321	0 9	-0.7530066
-2.816352	0 :	-0.06810816
-0.3306304	0 </s>
-1.590182	0 s	-2.097342
-2.110203	0 t	-1.6586
-1.631007	1 ,	-0.9652904
-1.215338	1 .	-1.721447
-1.759985	1 /	-1.373172
-0.8895487	1 0	-0.8570324
-1.359617	1 1	-0.1585574
-1.33912	1 2	-0.6220908
-1.331487	1 3	-0.1530571
-1.429534	1 4	-0.09004772
-1.223521	1 5	-0.06491673
-1.473399	1 6	-0.3013245
-1.46715	1 7	0.0712766
-1.497113	1 8	-0.1362354
-0.5656137	1 9	-0.7627558
-2.55892	1 :	-0.291159
-0.8671629	1 </s>
-1.637081	1 s	-2.06183
-2.510616	1 t	-1.167239
-3.524136	2 %
-1.565095	2 ,	-0.7325773
-3.223106	2 -	-0.6345304
-1.129685	2 .	-1.698962
-2.482744	2 /	-0.1737697
-0.619962	2 0	-0.2154297
-1.3688	2 1	-0.3456184
-1.356819	2 2	-0.1012738
-1.362768	2 3	-0.3516873
-1.406865	2 4	-0.3723427
-1.112517	2 5	-0.6408656
-1.474918	2 6	-0.4355179
-1.498831	2 7	-0.3632447
-1.555653	2 8	-0.3385674
-1.637646	2 9	-0.5891715
-2.378008	2 :	-0.096357
-0.5655725	2 </s>
-2.076978	2 n	-1.431709
-3.524136	2 s
-2.162409	2 t	-1.24642
-1.607	3 ,	-0.506519
-1.055633	3 .	-1.627045
-1.7344	3 /	-1.089222
-0.6885436	3 0	-0.3340982
-1.277482	3 1	-0.988782
-1.377852	3 2	-0.4013466
-1.564939	3 3	-0.2509596
-1.614424	3 4	-0.2520297
-1.291493	3 5	-0.1531673
-1.52052	3 6	-0.3334576
-1.480225	3 7	-0.1734391
-1.629664	3 8	-0.3885917
-1.551778	3 9	-0.7260871
-2.33646	3 :	-0.004912487
-0.513935	3 </s>
-3.377852	3 B
-3.377852	3 M
-3.377852	3 a
-1.607	3 r	-1.762953
-1.833784	3 t	-1.422511
-1.519667	4 ,	-0.4025092
-1.126323	4 .	-0.718121
-2.79842	4 /	-0.2204873
-0.7427873	4 0	-0.2339582
-1.455998	4 1	-0.9276517
-1.331059	4 2	-0.1179346
-1.551266	4 3	-0.454959
-1.49739	4 4	-0.4725642
-1.27122	4 5	-0.4916767
-1.48315	4 6	-0.5619267
-1.519667	4 7	-0.4054713
-1.469362	4 8	-0.2109006
-1.603444	4 9	-0.8206092
-2.497391	4 :	-0.4411591
-0.4230617	4 </s>
-3.275542	4 s
-1.860568	4 t	-1.297572
-3.43072	5 +
-1.358838	5 ,	-0.5774421
-1.310146	5 .	-1.426612
-2.015747	5 /	-0.8134705
-0.6482472	5 0	-0.5243977
-1.797251	5 1	-0.6706421
-1.682532	5 2	-0.6674647
-1.874417	5 3	-0.4110295
-1.758622	5 4	-0.1522708
-1.486237	5 5	-0.267793
-1.767962	5 6	-0.3594584
-1.72315	5 7	-0.630766
-1.758622	5 8	-0.3095317
-1.92557	5 9	-0.5656778
-2.652569	5 :	-0.7464127
-0.3108045	5 </s>
-3.43072	5 B
-3.43072	5 k
-3.43072	5 m
-1.839655	5 t	-1.468269
-1.632204	6 ,	-0.3854663
-1.147904	6 .	-1.238122
-2.389166	6 /	-0.276617
-0.8061293	6 0	-0.6149938
-1.62148	6 1	-0.529513
-1.562166	6 2	-0.8726056
-1.702785	6 3	-0.4355376
-1.690196	6 4	-0.2385237
-1.284874	6 5	-0.2552776
-1.600796	6 6	-0.4095468
-1.571506	6 7	-0.4867269
-1.600796	6 8	-0.4619041
-1.654481	6 9	-0.7221934
-2.155083	6 :	0.01768851
-0.3279291	6 </s>
-3.234264	6 s
-1.611015	6 t	-1.489458
-1.818568	7 ,	-0.2980321
-3.249932	7 -
-0.9256493	7 .	-1.011628
-1.948902	7 /	-1.070008
-0.9256493	7 0	-0.6674353
-1.731418	7 1	-0.6161481
-1.542362	7 2	-0.7215631
-1.606479	7 3	-0.707047
-1.637148	7 4	-0.7065853
-1.132661	7 5	-0.5866225
-1.647872	7 6	-0.6278918
-1.647872	7 7	-0.3298582
-1.626683	7 8	-0.5178803
-1.494057	7 9	-0.9883091
-2.135988	7 :	-0.2523248
-0.3623145	7 </s>
-3.249932	7 A
-2.948902	7 B	-0.6278772
-1.647872	7 t	-1.478993
-1.806745	8 ,	-0.3723077
-1.140331	8 .	-2.074704
-2.760988	8 /	-0.475033
-0.8873764	8 0	-0.3284482
-1.69095	8 1	-0.7948547
-1.638772	8 2	-0.4023381
-1.664078	8 3	-0.575207
-1.570656	8 4	-0.574613
-1.317725	8 5	-0.6918035
-1.333664	8 6	-0.7882701
-1.287501	8 7	-0.9215086
-1.130051	8 8	-0.8218287
-1.232714	8 9	-1.004385
-2.00132	8 :	-0.4590838
-0.4220333	8 </s>
-2.885926	8 s	-0.1159647
-1.70029	8 t	-1.538307
-2.089779	9 ,	-0.3400553
-1.612658	9 .	-0.5236523
-2.235907	9 /	-1.140708
-1.133816	9 0	-0.2934345
-1.617859	9 1	-0.8098198
-1.559213	9 2	-0.69739
-1.617859	9 3	-0.523085
-1.465055	9 4	-0.08165503
-1.372584	9 5	0.1733346
-1.279258	9 6	-0.4930502
-1.116981	9 7	-0.3755865
-0.6937042	9 8	-1.927334
-0.7082771	9 9	-1.518146
-2.390809	9 :	-0.07846899
-0.7173931	9 </s>
-3.536937	9 A
-3.536937	9 B
-3.536937	9 a
-3.235907	9 s	-0.4252006
-1.957153	9 t	-1.457273
-0.4547011	: 0	-0.9259683
-1.275887	: 1	-0.07701925
-1.224734	: 2	-0.1478501
-0.660463	: 3	-0.8462707
-1.065034	: 4	-0.5592636
-1.099796	: 5	-0.1884371
-0.8365543	: </s>
-0.30103	; </s>
-2.705934	<s> "	0
-3.540812	<s> #	0
-2.177769	<s> $	-0.250315
-1.939258	<s> %	-0.4766158
-2.769447	<s> &	-1.265889
-1.995016	<s> '	-0.9499946
-3.561497	<s> (	0
-3.583216	<s> )	0
-5.174281	<s> *
-4.572221	<s> +
-2.611988	<s> ,	-2.430519
-1.706673	<s> -	-2.124455
-3.140857	<s> .	-1.42598
-3.361367	<s> /	-1.717719
-3.0951	<s> 0	-0.5634227
-1.485416	<s> 1	-1.467659
-1.856426	<s> 2	-0.857817
-2.074255	<s> 3	-0.6402985
-2.269025	<s> 4	-0.1634071
-2.241807	<s> 5	0.2494115
-2.409358	<s> 6	0.08174049
-2.430771	<s> 7	0.6496671
-2.412353	<s> 8	0.500426
-2.58995	<s> 9	0.7220342
-3.831858	<s> :	-1.293341
-5.174281	<s> ;
-4.174281	<s> ?	0.03778853
-4.572221	<s> @	0.01127085
-1.387104	<s> A	-0.5188419
-1.485061	<s> B	-0.9893633
-1.199309	<s> C	-0.1250225
-1.697449	<s> D	-0.5655892
-1.776688	<s> E	-0.9459357
-1.726813	<s> F	-0.8290687
-1.736213	<s> G	-0.3599125
-1.646909	<s> H	-0.4068134
-1.613179	<s> I	-0.7179154
-1.642291	<s> J	-0.6798141
-1.832451	<s> K	-0.6575132
-1.654191	<s> L	-0.5374642
-1.47679	<s> M	-0.1862264
-1.577134	<s> N	-1.0429
-2.031891	<s> O	-0.9836118
-1.526605	<s> P	-0.616751
-2.621613	<s> Q	-0.7354524
-1.672811	<s> R	-1.242021
-1.301717	<s> S	-1.064583
-1.402767	<s> T	-1.389254
-1.67377	<s> U	-0.1701626
-2.242315	<s> V	-1.236855
-1.69413	<s> W	-0.09094594
-2.49942	<s> X	-0.2182489
-1.923617	<s> Y	-0.8313137
-2.398307	<s> Z	-0.3809795
-5.174281	<s> [
-4.873251	<s> ]	-0.1582338
-3.015918	<s> `	0.3785138
-1.664675	<s> a	-1.991087
-2.114339	<s> b	-1.940984
-2.393964	<s> c	-1.811217
-1.988172	<s> d	-2.9097
-2.210493	<s> e	-1.528176
-1.753171	<s> f	-3.030017
-3.28779	<s> g	-1.812347
-2.161444	<s> h	-2.412339
-2.875428	<s> i	-1.20481
-3.070477	<s> j	-0.9682909
-3.03756	<s> k	-1.426662
-2.043947	<s> l	-2.815816
-1.68927	<s> m	-1.736843
-2.214286	<s> n	-2.831017
-1.653274	<s> o	-2.264782
-2.288354	<s> p	-2.551532
-3.001095	<s> q	-2.021339
-2.744529	<s> r	-2.188114
-1.991866	<s> s	-1.603833
-1.091926	<s> t	-3.499086
-3.255203	<s> u	-1.025679
-3.669131	<s> v	0.3847557
-2.223429	<s> w	-2.298923
-4.572221	<s> x	-0.1482342
-1.619671	<s> y	-3.393956
-3.403429	<s> z	-1.001484
-4.572221	<s> {	0
-4.572221	<s> }	0
-4.873251	<s> Ô	-0.1582338
-0.03778856	? </s>
-0.69897	@ A
-0.69897	@ N
-0.39794	@ S	-0.6352674
-3.841172	A $
-3.36405	A &	-0.3220284
-1.916892	A .	-0.9351134
-3.540142	A 1	-0.5719791
-3.540142	A 3
-1.13788	A </s>
-2.665081	A A	-0.7478496
-1.824138	A B	-1.544431
-2.077744	A C	-0.7589986
-2.727228	A D	-0.3726248
-3.06302	A E	-0.3170478
-2.46096	A F	-1.371731
-2.284869	A G	-1.116769
-3.239112	A H	-0.2154721
-2.938082	A I	-0.2183656
-3.142202	A K	-0.4043274
-2.322658	A L	-0.9027216
-2.610723	A M	-1.053859
-2.309693	A N	-0.5429268
-2.665081	A O	-0.995442
-2.498749	A P	-0.9265847
-3.540142	A Q	-0.6259134
-2.336022	A R	-0.5389194
-2.142202	A S	-0.9634532
-2.100809	A T	-0.9989125
-3.841172	A U
-3.540142	A V
-2.610723	A W	-1.247909
-3.841172	A X
-3.540142	A Y
-3.540142	A Z	-0.6339334
-2.761991	A a	-1.016421
-1.441498	A b	-1.130783
-1.780474	A c	-0.8690006
-1.578721	A d	-0.7442461
-2.261388	A e	-1.045557
-1.302096	A f	-2.469441
-1.330627	A g	-1.714287
-2.108778	A h	-0.9864213
-1.551137	A i	-1.351714
-2.443232	A k	-0.8248276
-1.090663	A l	-0.8100203
-0.807748	A m	-0.5915192
-1.207703	A n	-1.036058
-2.562418	A o	-1.514163
-1.610723	A p	-1.520223
-3.36405	A q
-0.9580783	A r	-1.721726
-1.086823	A s	-0.8558407
-1.720598	A t	-0.7375992
-1.221036	A u	-1.780904
-2.309693	A v	-0.3708112
-2.799779	A w	-0.625584
-2.761991	A x	-1.069225
-3.06302	A y	-0.1830553
-2.378774	A z	-0.5935538
-3.444435	B &	-0.6326321
-3.143405	B -	0.5144962
-2.330492	B .	-0.5019361
-3.745465	B 1
-3.745465	B 9
-1.767742	B </s>
-3.745465	B ?
-2.254103	B A	-0.6943461
-1.882142	B B	-1.312126
-1.318954	B C	-2.729074
-3.745465	B D
-2.490193	B E	-1.322376
-3.143405	B H	-0.6954432
-1.906616	B I	-1.644575
-3.745465	B J
-3.745465	B L
-2.029462	B M	-1.706538
-2.666284	B N	-0.7772116
-2.704072	B O	-0.847717
-3.444435	B P	-0.618032
-3.745465	B R
-1.745465	B S	-1.943177
-3.745465	B T
-3.143405	B U
-3.745465	B W
-0.6112881	B a	-1.362488
-0.8353746	B e	-1.846268
-3.444435	B h
-1.215266	B i	-0.9102185
-1.572279	B l	-1.289068
-1.011466	B o	-0.5869983
-0.9085084	B r	-2.568964
-0.8019707	B u	-1.747016
-2.631522	B y	-1.105327
-3.243327	C $	1.901536
-4.021479	C &
-4.021479	C +
-2.305475	C .	-1.409589
-4.021479	C 6
-4.021479	C 8
-1.173906	C </s>
-2.297203	C A	-1.037917
-2.043755	C B	-1.803699
-2.453277	C C	-1.17466
-2.942297	C D	-0.7125965
-4.021479	C E
-2.845387	C H	-0.2879624
-1.960781	C I	-1.373293
-3.118389	C K	-0.60076
-3.176381	C L	-0.4643398
-3.720449	C M
-1.87226	C N	-1.464633
-2.453277	C O	-0.8409034
-2.623539	C P	-0.8497665
-4.021479	C Q
-3.021479	C R	-0.5877917
-3.419419	C S	-0.1628738
-2.477411	C T	-1.137842
-3.419419	C U	-0.2073419
-3.720449	C V	-0.5614331
-3.720449	C W	-0.6342303
-0.9781165	C a	-1.32982
-1.665453	C e	-1.726938
-0.4710058	C h	-2.7596
-1.620078	C i	-0.9752754
-1.364423	C l	-2.342208
-3.544358	C n	-0.2687592
-0.5252412	C o	-1.345929
-1.836787	C r	-1.918896
-1.663544	C u	-1.31953
-2.907535	C y	-0.2732925
-2.942297	C z	-0.9944274
-3.513484	D $
-3.036363	D &	-0.3220284
-2.911424	D '	-0.6977351
-1.500647	D .	-2.029023
-3.513484	D 1
-1.870031	D </s>
-1.911424	D A	-0.9393904
-2.513484	D C	-1.011273
-2.610394	D E	-0.5377823
-3.212454	D F	-0.6293147
-3.513484	D H
-2.559242	D I	-0.6271453
-3.513484	D K
-2.668386	D L	-0.4000689
-3.212454	D M	-0.6351086
-2.399541	D N	-0.5995026
-2.066326	D O	-0.9570295
-1.721092	D P	-1.617695
-2.559242	D R	-0.9389808
-2.399541	D S	-1.090003
-2.911424	D T	-0.6862348
-3.036363	D U	-0.1397041
-3.212454	D V	-0.6267223
-3.513484	D X
-3.513484	D Y
-3.513484	D Z
-0.7039242	D a	-1.020465
-0.400544	D e	-1.157372
-2.513484	D h	-1.249496
-1.039268	D i	-1.350621
-2.668386	D j	0.08174339
-2.814514	D m	-0.6951936
-1.03061	D o	-0.8771552
-1.386379	D r	-1.405505
-1.314827	D u	-0.2992457
-2.735333	D w	-0.2149841
-2.133273	D y	-1.070755
-3.444513	E -
-2.102091	E .	-0.5588872
-1.453287	E </s>
-2.143483	E A	-0.6383476
-2.967392	E B
-1.471385	E C	-1.483072
-2.365332	E D	-0.7132743
-3.143483	E E
-3.143483	E F	-0.6293147
-2.842453	E G	-0.2078488
-2.842453	E I	-0.2087813
-2.541423	E L	-0.288831
-2.082785	E M	-0.6690103
-2.599415	E N	-0.1067192
-3.143483	E O
-2.403121	E P	-1.039332
-2.064302	E R	-0.4658155
-2.240393	E S	-0.675769
-2.541423	E T	-0.3256598
-1.939363	E U	-1.506857
-2.666362	E V	-0.2359908
-3.444513	E W
-3.143483	E X
-3.143483	E Z	-0.6238499
-0.7817554	E a	-2.162001
-3.143483	E b	-0.5804158
-1.337303	E c	-1.574114
-1.232326	E d	-1.627753
-3.444513	E f
-1.47603	E g	-1.355257
-1.444513	E h	-1.802723
-1.575282	E i	-1.189771
-3.143483	E k	-0.6270262
-1.141317	E l	-0.3810337
-1.791301	E m	-1.138329
-0.9339682	E n	-1.829835
-2.490271	E p	-0.6370819
-2.214064	E q	-1.10052
-1.510015	E r	-0.9434754
-1.821264	E s	-0.7718227
-1.86473	E t	-0.8784047
-1.03458	E u	-2.034547
-1.58119	E v	-0.5527007
-3.143483	E w	-0.6200687
-1.03458	E x	-1.579626
-3.444513	E y
-2.967392	E z	-0.3033385
-2.382617	F .	-0.7727671
-3.160769	F 1
-1.859739	F </s>
-1.905496	F A	-0.9818457
-1.648885	F B	-1.814126
-1.956649	F D	-1.831684
-2.558709	F E	-0.5483018
-3.461799	F F
-2.683647	F H	-0.8434642
-2.6167	F I	-0.4588446
-2.507556	F K	-0.9904382
-2.420406	F L	-1.066982
-3.461799	F N
-2.984677	F O	-0.3216695
-2.257679	F P	-1.213126
-3.160769	F R
-2.6167	F T	-0.7135021
-3.461799	F W
-3.160769	F X	-0.6138598
-1.055258	F a	-0.9559086
-0.8597386	F e	-1.431058
-0.7934126	F i	-1.316944
-1.063859	F l	-1.699642
-3.160769	F m	-0.635294
-0.7897007	F o	-1.691777
-0.662458	F r	-2.556098
-3.461799	F s
-2.762829	F t	-0.783985
-1.271467	F u	-0.8906894
-3.459393	G &
-2.255272	G .	-0.5065157
-1.59607	G </s>
-1.778151	G A	-0.9676191
-2.459393	G B	-1.033597
-2.857332	G D	-0.209378
-1.915324	G E	-1.359326
-2.459393	G I	-0.7828973
-2.180639	G M	-1.269624
-1.825924	G O	-1.001056
-2.857332	G P	-0.6969094
-2.760422	G R	-0.6967698
-3.158362	G S
-2.380211	G T	-1.078173
-3.158362	G Y
-0.7975798	G a	-0.9873896
-2.982271	G b	-0.2711798
-0.6424887	G e	-1.136059
-2.345449	G h	-0.2620701
-1.398695	G i	-0.7148898
-1.769196	G l	-1.23345
-0.816928	G o	-1.284023
-0.7891467	G r	-2.427934
-3.459393	G s
-0.8739318	G u	-0.6357095
-2.982271	G w	-0.3113387
-2.857332	G y	-0.6967849
-1.948262	H .	-0.9836205
-2.092169	H </s>
-2.425384	H A	-0.5407739
-2.636237	H B	-0.9533832
-3.062206	H C	-0.3257056
-2.539327	H E	-0.33845
-3.539327	H H
-2.694229	H I
-2.539327	H K	-0.9904382
-3.539327	H L
-3.539327	H N
-2.585084	H O	-0.2886481
-3.238297	H Q	-0.6259134
-2.937267	H R	-0.210212
-2.840357	H S	-0.3682427
-2.937267	H T	-0.6217896
-2.840357	H U	-0.1640208
-2.937267	H V	-0.6250481
-3.539327	H W
-0.6505861	H a	-0.9330623
-0.9806185	H e	-0.541603
-1.150161	H i	-1.06339
-3.539327	H m
-3.238297	H n	-0.600856
-0.5298762	H o	-1.409235
-1.076929	H s	-2.427283
-0.7781513	H u	-0.7665372
-2.694229	H w	-0.4722773
-2.141387	H y	-0.9106818
-3.539327	H z
-3.614686	I '
-2.769588	I .	-0.06156262
-1.203067	I </s>
-1.695608	I A	-1.715611
-1.801773	I B	-1.498812
-1.991437	I C	-0.7171324
-3.137565	I D	-0.3243848
-2.711596	I E	-0.3535116
-2.769588	I F	-0.4685572
-3.137565	I G	-0.314969
-3.137565	I H	-0.3225923
-1.874324	I I	-1.713856
-3.137565	I L	-0.3112267
-2.836535	I M	-0.3106135
-2.384238	I N	-0.2812991
-2.438595	I O	-0.619389
-2.614686	I P	-0.5859545
-3.137565	I Q	-0.3226025
-1.866498	I R	-1.340934
-2.573294	I S	-0.1774226
-2.410566	I T	-0.4284042
-3.137565	I V	-0.3106244
-3.137565	I W	-0.3187556
-3.137565	I a	-0.1917376
-2.359414	I b	-0.6667367
-2.836535	I c	-0.169472
-2.359414	I d	-0.9778213
-3.313656	I f	-0.6207207
-2.711596	I g	-0.5672168
-3.012626	I h	-0.2027375
-3.313656	I i	-0.6332395
-3.614686	I j
-2.769588	I k	-0.3424585
-1.961474	I l	-1.385441
-1.627915	I m	-1.314854
-0.5543663	I n	-1.439209
-2.438595	I o	-1.167888
-0.6397144	I r	-2.465411
-0.6082203	I s	-1.438049
-1.722592	I t	-1.134829
-2.272264	I v	-0.7670519
-3.313656	I w	-0.5226465
-3.614686	I y
-3.313656	I z
-3.238422	J &	-0.6243597
-3.539453	J '
-1.815177	J .	-0.8158017
-2.393324	J </s>
-2.761301	J A	-0.3084533
-2.49806	J D	-1.368603
-2.58521	J F	-0.9986482
-2.636363	J I	-0.9473327
-3.539453	J N
-3.062331	J P	-0.3107733
-2.694355	J R	-0.3970062
-2.840482	J S	-0.7850597
-0.375695	J a	-1.659642
-0.9172385	J e	-1.188903
-0.9517415	J i	-1.346035
-0.7238747	J o	-1.222148
-1.98315	J r	-1.324898
-0.9506208	J u	-1.215602
-3.369587	K $
-1.851073	K .	-1.225065
-1.662017	K </s>
-3.369587	K B
-3.369587	K C
-2.767527	K E	-0.6158866
-2.670617	K G	-0.7840312
-2.892466	K H
-2.670617	K I	-0.4181564
-1.971647	K K	-1.410125
-3.369587	K L
-1.518329	K M	-1.844805
-3.369587	K O
-3.369587	K P
-1.954614	K R	-1.399712
-2.524489	K S	-0.338836
-3.369587	K T
-3.369587	K U
-0.7852557	K a	-0.8328611
-3.369587	K b
-1.019339	K e	-0.9662747
-1.662017	K h	-1.019841
-1.070734	K i	-1.191748
-2.027164	K l	-0.9127206
-2.767527	K m	-0.6491249
-2.007859	K n	-1.054168
-0.4611019	K o	-0.933722
-1.239253	K r	-1.696356
-3.068557	K s	-0.4252006
-1.097745	K u	-0.9943045
-2.591436	K w	-0.09209696
-1.629224	K y	-1.813752
-3.067195	L '	-0.3113537
-2.081918	L .	-0.7679155
-1.557544	L </s>
-2.465135	L A	-0.7453256
-3.243286	L B
-2.146376	L C	-1.384854
-2.146376	L D	-1.716678
-2.766165	L E	-0.1129457
-3.544316	L F
-3.544316	L G
-2.465135	L I	-0.3600515
-3.544316	L J
-3.544316	L K
-2.845346	L L	-0.686771
-3.243286	L M	-0.634286
-2.146376	L O	-0.5447842
-3.544316	L P
-3.243286	L R	-0.6345007
-2.502923	L S	-0.5904666
-2.845346	L T	-0.6884407
-3.067195	L U	-0.3144622
-2.942256	L Y	-0.2100996
-3.243286	L _	-0.334325
-0.6278622	L a	-1.337749
-0.7734641	L e	-1.171747
-3.544316	L h
-0.5624976	L i	-1.002825
-1.796128	L l	-1.733889
-0.9018516	L o	-1.248816
-1.566593	L t	-1.981314
-1.226253	L u	-0.8471298
-3.544316	L v
-1.828313	L y	-1.169317
-2.361564	M .	-0.5781924
-3.723291	M /
-3.24617	M 1	-0.2627432
-1.681899	M </s>
-2.308318	M A	-0.6332912
-2.070079	M B	-1.250345
-2.401072	M C	-0.6125731
-2.878193	M D	-0.40637
-2.609348	M E	-0.9265817
-3.422261	M F	-0.6293147
-3.422261	M G	-0.6324804
-2.723291	M I	-0.3250875
-2.820201	M J	-0.9532381
-3.723291	M L
-3.24617	M M
-3.422261	M N	-0.6341331
-2.380869	M O	-1.35183
-3.121232	M P	-0.1932549
-2.609348	M R	-1.126679
-2.422261	M S	-1.265446
-1.831197	M T	-2.202838
-3.422261	M U
-3.24617	M V	-0.2379253
-3.121232	M W	-0.2116354
-3.422261	M X	-0.6138598
-3.422261	M Y
-0.4882683	M a	-1.119145
-3.723291	M b
-1.458474	M c	-1.141452
-2.723291	M d	-0.5886477
-1.018283	M e	-0.9381741
-3.422261	M f
-0.6239561	M i	-1.754794
-3.723291	M n
-0.7913253	M o	-1.19875
-3.24617	M r	-0.3113395
-3.723291	M s
-2.519171	M t	-1.228892
-1.325351	M u	-0.595764
-1.982929	M y	-0.3629442
-3.665299	N '
-1.773205	N .	-1.003555
-1.084375	N </s>
-1.845756	N A	-1.418014
-1.575394	N B	-1.51052
-2.461179	N C	-0.2307545
-2.551356	N D	-0.5151327
-2.665299	N E	-0.5116084
-2.586118	N F	-0.9111995
-2.665299	N G	-0.1551817
-2.762209	N H	-0.213889
-2.665299	N I	-0.3823214
-3.364269	N K
-2.665299	N L	-1.029194
-3.665299	N M
-1.544726	N N	-2.083254
-2.887148	N O	-0.3209628
-1.87997	N P	-1.761656
-3.665299	N R
-2.121232	N S	-0.774928
-1.492113	N T	-1.457305
-2.96633	N U	-0.1538205
-3.06324	N Y	-0.2098603
-3.364269	N Z
-0.6894084	N a	-1.544035
-0.4744078	N e	-1.825634
-3.188178	N g	-0.2868874
-1.267359	N i	-0.8914586
-3.665299	N j
-0.8359957	N o	-1.326101
-1.901872	N u	-0.4984692
-2.96633	N y	-0.4196773
-3.270446	O &
-1.738967	O '	-0.7716786
-2.425348	O .	-0.385038
-1.241062	O </s>
-1.177024	O A	-1.345199
-3.270446	O B
-1.346167	O C	-1.423441
-3.270446	O D
-2.229053	O E	-0.4389943
-2.191265	O F	-1.108511
-3.270446	O G
-2.969416	O K	-0.6346126
-2.066326	O L	-0.890891
-2.492295	O M	-0.1320728
-1.765296	O N	-0.976474
-1.407123	O P	-1.540106
-1.991692	O R	-0.5975673
-3.270446	O S
-1.908718	O T	-1.182888
-2.793325	O U	-0.1397041
-2.793325	O V	-0.3040441
-2.066326	O a	-0.7749808
-2.316203	O b	-0.3354896
-0.8884289	O c	-1.999654
-1.184086	O f	-1.912402
-1.793325	O g	-1.411757
-1.507018	O h	-1.283675
-1.908718	O i	-1.343115
-1.948227	O k	-1.011321
-1.288175	O l	-0.8811271
-1.765296	O m	-0.872951
-0.892048	O n	-2.110348
-1.617233	O p	-1.225981
-0.9586921	O r	-0.8261912
-1.492295	O s	-0.6956211
-2.229053	O t	-0.1869312
-1.839082	O u	-0.4962879
-1.679381	O v	-0.4652532
-1.928023	O w	-1.267014
-3.270446	O x
-2.571476	O z	-0.3238696
-2.306336	P &	-1.364082
-2.456098	P .	-0.756117
-3.686547	P 1
-3.385517	P 4	-0.6203617
-1.407793	P </s>
-2.324819	P A	-0.7931078
-3.686547	P B
-2.510456	P C	-0.7612681
-3.686547	P D
-1.970544	P E	-1.701081
-2.908396	P F	-0.842692
-2.407793	P G	-0.6693944
-3.209426	P H	-0.3109682
-2.607366	P I	-0.4770586
-3.686547	P J
-2.063298	P L	-1.213143
-2.607366	P M	-1.326
-2.732304	P N	-0.9907282
-1.938359	P P	-1.136822
-1.582743	P R	-2.074425
-2.908396	P S	-0.788973
-3.385517	P T
-3.686547	P U
-3.686547	P V
-3.686547	P W
-3.385517	P X
-0.4607209	P a	-1.307847
-0.7856338	P e	-1.430348
-3.209426	P f	-0.190886
-1.448501	P h	-0.9842213
-1.396512	P i	-1.170102
-1.603762	P l	-1.755088
-3.385517	P n	-0.5753565
-1.020966	P o	-1.19229
-1.0035	P r	-2.439802
-3.209426	P s	-0.3252116
-1.202247	P u	-1.291121
-2.841449	P y	-0.6703881
-2.570543	Q 0
-2.570543	Q 4
-2.093422	Q 9	-0.2916092
-1.667453	Q </s>
-2.269513	Q U
-0.5136381	Q a	-1.204931
-0.3691458	Q i	-1.033223
-2.570543	Q o
-0.6567291	Q u	-1.429919
-1.93891	R .	-0.5337935
-1.461789	R </s>
-2.347574	R A	-0.3892108
-2.706596	R B	-0.6770839
-1.583211	R C	-1.938363
-2.949634	R D	-0.2103115
-2.296422	R E	-0.7518461
-3.074573	R G	-0.2941498
-1.918225	R I	-1.005922
-2.706596	R J	-0.4113892
-3.551694	R L
-1.908241	R M	-1.253688
-2.852724	R N	-0.1645378
-1.659599	R O	-1.394947
-2.597451	R P	-0.9347749
-2.852724	R R	-0.4189267
-1.8193	R S	-1.708366
-2.03318	R T	-0.7496769
-3.074573	R Y	-0.3232414
-1.109214	R a	-0.7568137
-0.5883784	R e	-1.909519
-2.375603	R h	-1.151834
-0.8955957	R i	-1.54771
-0.7496046	R o	-1.559833
-0.7414614	R u	-0.5721862
-2.229475	R w	-1.229714
-2.597451	R y	-0.4067326
-2.717539	S $	1.445604
-2.917111	S &	-1.094515
-1.037729	S .	-1.681816
-3.996293	S 4
-0.9163883	S </s>
-2.163784	S A	-1.201555
-2.850165	S B	-0.9659145
-2.183379	S C	-1.384525
-3.218142	S D	-0.3075944
-2.373044	S E	-0.9681318
-3.695263	S F
-2.850165	S H	-0.6807106
-3.093203	S I	-0.2930104
-3.151195	S J	-0.4105087
-3.04205	S K	-0.4175888
-3.394233	S M	-0.2088498
-2.882349	S N	-1.398182
-3.218142	S O	-0.2719745
-2.9549	S P	-0.5730947
-3.519171	S Q	-0.309506
-2.917111	S R	-1.06392
-2.02781	S S	-1.746186
-2.35284	S T	-0.817432
-2.996293	S U	-1.321853
-3.695263	S W	-0.6340895
-3.04205	S X	-0.9785048
-0.9596638	S a	-1.57644
-1.491143	S c	-1.63354
-0.9329594	S e	-0.9949411
-0.9455264	S h	-1.930287
-1.459734	S i	-1.000638
-2.820201	S k	-0.5185819
-1.970987	S l	-2.053889
-2.248105	S m	-1.320963
-2.717539	S n	-0.8045407
-1.048369	S o	-0.8950714
-1.571411	S p	-1.99812
-2.504931	S q	-1.350398
-3.04205	S r	-0.5620397
-0.9124319	S t	-2.29841
-1.309657	S u	-1.355002
-3.218142	S v	-0.5262712
-2.145034	S w	-1.096718
-1.892489	S y	-1.357574
-3.394233	S z	-0.477416
-1.837844	T $	0.7689106
-2.606851	T &	-1.18327
-2.363813	T .	-0.8397139
-1.53913	T </s>
-2.907881	T A	-0.4765483
-3.33385	T B	-0.3043694
-2.01858	T C	-1.309112
-3.810971	T D
-2.63488	T E	-0.9933029
-3.112001	T G	-0.7782426
-3.112001	T H	-0.6977137
-2.148214	T I	-0.9785962
-3.810971	T K
-3.810971	T L
-2.63488	T M	-0.6919324
-2.697028	T N	-0.5443916
-2.157759	T O	-1.236495
-3.112001	T R	-0.4067667
-2.73179	T S	-0.3533717
-2.907881	T T	-0.3210825
-2.24277	T U	-1.077586
-1.62064	T V	-2.441468
-3.112001	T W	-0.158114
-3.810971	T Y
-3.208911	T Z	-0.6874648
-0.518937	T a	-0.883799
-3.810971	T b
-1.022096	T e	-1.525289
-0.7126738	T h	-2.464014
-1.172482	T i	-1.11166
-1.067462	T o	-0.9359909
-1.203516	T r	-2.104311
-1.837844	T s	-1.2341
-1.443615	T u	-1.352161
-1.707168	T w	-1.877452
-2.769579	T y	-0.3003378
-2.810971	T z	-1.176386
-0.5513337	U .	-2.111907
-1.577016	U </s>
-2.215505	U A	-0.8478775
-3.215505	U B	-0.62748
-3.215505	U C	-0.6350656
-2.475143	U D	-0.6009067
-3.516535	U E
-3.516535	U F
-3.516535	U I
-2.136324	U K	-1.388378
-3.039414	U L	-0.3103565
-3.516535	U M
-1.251718	U N	-1.456357
-2.370407	U P	-1.17439
-2.738384	U R	-0.1281487
-0.4851269	U S	-2.494741
-3.516535	U T
-3.215505	U V	-0.6275519
-2.817565	U d	-0.6745843
-3.215505	U g	-0.6103953
-3.516535	U h
-3.215505	U i	-0.6244833
-2.738384	U k	-0.8424287
-2.613445	U l	-0.2942714
-3.516535	U m
-0.605911	U n	-1.758963
-2.312415	U p	-0.2912689
-1.914475	U r	-1.081998
-3.516535	U s
-2.069377	U t	-1.036416
-3.215505	U z	-0.6224046
-2.073922	V .	-0.6935858
-0.8054479	V </s>
-1.749411	V A	-1.245928
-3.028164	V B
-3.028164	V C
-1.705945	V D	-1.646851
-2.551043	V E	-0.2962783
-2.727134	V F
-2.727134	V H	-0.6318282
-1.948983	V I	-0.7693084
-3.028164	V L
-0.975086	V O	-2.027008
-2.426105	V R	-0.6264865
-0.9312544	V a	-0.7991263
-1.041393	V e	-1.03302
-0.504418	V i	-1.127073
-1.551043	V l	-1.416906
-0.9562824	V o	-1.073089
-2.426105	V r	-0.1596382
-3.028164	V s
-3.028164	V t
-3.028164	V y
-1.78281	W .	-1.234562
-1.774377	W </s>
-2.58729	W A	-0.4766162
-3.18935	W B
-3.18935	W C
-3.49038	W E
-3.013259	W F	-0.3094411
-2.88832	W G	-0.6974594
-3.013259	W H	-0.3107167
-2.536137	W I	-0.4314663
-3.49038	W L
-3.49038	W O
-2.49038	W P	-0.9949657
-2.645282	W S	-0.4119612
-2.344252	W T	-1.173061
-3.49038	W U
-2.49038	W W	-0.7768912
-0.438456	W a	-1.789621
-0.6597912	W e	-2.503306
-1.101214	W h	-1.616077
-1.044776	W i	-1.285612
-0.921006	W o	-1.651681
-2.110169	W r	-1.347562
-3.49038	W s
-1.237527	W u	-1.443994
-2.49038	W y	-0.5997745
-1.316145	X </s>
-2.696356	X B
-2.696356	X E
-2.395326	X I
-2.395326	X X	-0.6138598
-2.219235	X e	-0.2675177
-0.08145917	X i	-1.200218
-0.9887862	X u	-0.7998021
-2.958325	Y '	-0.6336253
-2.145411	Y .	-0.8075292
-2.180174	Y </s>
-3.259355	Y C
-2.958325	Y E	-0.6315935
-2.958325	Y L	-0.6346103
-2.958325	Y N	-0.6338506
-3.259355	Y O
-3.259355	Y P
-3.259355	Y R
-2.782234	Y S	-0.3100036
-0.7736335	Y a	-0.9057708
-3.259355	Y b
-0.5817479	Y e	-1.458083
-1.402022	Y i	-0.6867055
-3.259355	Y k
-0.4936864	Y o	-1.536481
-0.7343101	Y u	-0.6563439
-2.958325	Y v	-0.3165281
-1.582631	Z </s>
-2.786752	Z D
-2.786752	Z E
-2.786752	Z I
-2.485721	Z T	-0.6226198
-2.485721	Z X	-0.6138598
-1.206968	Z a	-0.2477849
-2.786752	Z b
-0.7573677	Z e	-0.779345
-0.3053088	Z h	-1.920791
-1.153283	Z i	-0.8282402
-0.9606766	Z o	-1.229807
-2.485721	Z s	-0.6236435
-1.388811	Z u	-0.514482
-2.786752	Z v
-2.786752	Z w
-0.30103	[ </s>
-0.1760913	] </s>
-0.60206	_ </s>
-0.30103	_ A	-0.6145819
-2.454845	` 9
-0.2995088	` </s>
-0.3087168	` `	-1.846663
-3.823461	a '	-1.325103
-4.34634	a -
-3.133265	a .	-1.384427
-0.9571148	a </s>
-3.978363	a B	-0.5122305
-4.823461	a G
-4.522431	a L	-0.5771859
-4.04531	a N	-0.6676437
-4.221401	a P	-0.6554808
-4.823461	a R
-4.34634	a S	-0.3062484
-4.823461	a T
-4.823461	a V
-4.823461	a W
-2.782068	a a	-0.6833779
-1.827388	a b	-1.205294
-1.794483	a c	-0.6485348
-1.637636	a d	-0.5305734
-1.812314	a e	-1.519985
-2.242536	a f	-0.5649925
-1.69733	a g	-1.443524
-2.135932	a h	-0.614378
-1.323637	a i	-1.647273
-3.052609	a j	-0.415417
-2.029671	a k	-0.8371695
-1.083177	a l	-0.8267353
-1.559116	a m	-0.7374761
-0.6168782	a n	-0.9475664
-2.11504	a o	-1.012523
-1.777356	a p	-1.404577
-1.980852	a q	-0.9371395
-0.8711047	a r	-0.9300082
-1.263435	a s	-1.099608
-1.165641	a t	-0.9512665
-1.876027	a u	-0.8895122
-1.946666	a v	-0.5016938
-2.306265	a w	0.3566935
-2.966129	a x	-0.3633426
-1.335475	a y	-1.07171
-2.24712	a z	-1.001217
-3.489748	b -
-2.887688	b .	-0.6478283
-1.254219	b </s>
-2.94568	b H	-0.3330867
-0.9250816	b a	-0.9737561
-1.81765	b b	-0.6479195
-2.749385	b c	-1.042827
-2.147325	b d	-1.082139
-0.6649712	b e	-1.48245
-3.313656	b h	-0.2542378
-0.6321136	b i	-1.514924
-3.790778	b j
-1.064866	b l	-1.944073
-2.887688	b m	-0.5037133
-2.676834	b n	-0.9746701
-0.8696116	b o	-1.323204
-1.384237	b r	-2.164994
-1.686974	b s	-1.093848
-3.489748	b t	-0.5372155
-1.380844	b u	-0.8804542
-2.887688	b w	-1.010587
-1.73008	b y	-1.150228
-1.67746	c .	-2.132919
-1.112613	c </s>
-3.513151	c A	-0.1822392
-3.63809	c B	-0.2688957
-2.263953	c C	-1.29315
-2.309031	c D	-1.746588
-3.814181	c E	-0.602798
-3.212121	c G	-0.06646013
-3.416241	c I	-0.6434656
-3.212121	c K	-0.4672863
-3.416241	c L	-0.5823022
-3.270113	c M	-0.2243378
-3.270113	c N	-0.2956274
-4.115211	c V
-0.7100354	c a	-1.493225
-2.452453	c c	-1.173754
-3.63809	c d	-0.2661293
-0.839209	c e	-1.852446
-3.416241	c f	-0.7449698
-0.8013437	c h	-0.4090141
-1.152842	c i	-1.399545
-1.248924	c k	-0.7869884
-2.106611	c l	-1.192388
-3.270113	c m	-0.1082661
-4.115211	c n
-0.9962852	c o	-1.250311
-2.911091	c q	-0.8452799
-1.475724	c r	-1.99428
-2.039664	c s	-1.84508
-1.300298	c t	-2.402802
-1.525261	c u	-1.227492
-4.115211	c v
-1.595383	c y	-2.132958
-3.33706	c z	-0.7698471
-3.597777	d '	-0.153747
-2.492267	d -	-0.7489296
-2.250448	d .	-1.647828
-3.898808	d 2	-0.5162233
-0.4450306	d </s>
-3.158445	d C	-0.9252878
-0.646926	d a	-1.629967
-2.631636	d b	-0.8293923
-2.737439	d c	-0.8031887
-1.52774	d d	-1.711808
-1.000357	d e	-1.0882
-3.296747	d f	-0.254632
-2.154515	d g	-1.309014
-2.260318	d h	-1.169347
-1.196808	d i	-1.250659
-3.296747	d j	-0.433857
-3.500867	d k	-0.6875559
-1.814231	d l	-1.613607
-2.063117	d m	-1.367049
-2.120656	d n	-1.962635
-1.17086	d o	-1.368854
-3.722716	d q	-0.1570952
-1.566369	d r	-1.979213
-1.485508	d s	-1.323152
-2.722716	d t	-0.5432062
-1.857415	d u	-1.334433
-2.857415	d v	0.1327167
-2.319024	d w	-1.627895
-1.91428	d y	-0.6991283
-2.877618	d z	-0.4512719
-4.548377	e '
-4.849407	e *
-3.645287	e -	-0.2606418
-4.372286	e .	-0.3109786
-0.5474227	e </s>
-3.849407	e B	-0.1851669
-4.548377	e C	-0.4814616
-4.372286	e F	-0.2615651
-4.849407	e K
-3.849407	e L	-0.9247249
-4.849407	e P
-4.849407	e S
-4.372286	e T	-0.2872493
-4.849407	e V
-3.735464	e W	-0.8023657
-1.120729	e a	-2.157729
-2.15656	e b	-1.416019
-1.643391	e c	-1.185322
-1.595827	e d	-1.089722
-1.368108	e e	-2.097998
-2.46739	e f	-0.5737829
-2.065504	e g	-1.20468
-2.405362	e h	-1.343293
-1.671582	e i	-2.464339
-3.004309	e j	-0.6340582
-1.907896	e k	-0.8281741
-1.360011	e l	-0.1923378
-1.58862	e m	-1.103941
-0.9818807	e n	-0.4287323
-2.297957	e o	-1.185735
-1.85509	e p	-1.29523
-3.849407	e q	0.03836187
-0.8988476	e r	-0.4829868
-1.079956	e s	-1.424048
-1.623839	e t	-0.4910241
-2.661886	e u	-0.8256848
-1.770226	e v	-0.5119669
-1.573175	e w	-0.9745943
-1.98668	e x	-0.986274
-2.16636	e y	-0.6188602
-2.64801	e z	-0.9797831
-4.849407	e „
-2.537699	f .	-1.036008
-0.5519948	f </s>
-1.331002	f a	-0.8649665
-3.160949	f c	-0.7393696
-3.859919	f d
-1.049686	f e	-1.303218
-1.260035	f f	-1.077248
-1.763008	f g	-1.740797
-0.5725647	f i	-1.85328
-3.01482	f k	-0.8108752
-2.268854	f l	-0.9960388
-2.537699	f m	-1.292578
-3.257859	f n	-0.1674899
-0.8479254	f o	-2.153736
-1.479707	f r	-1.61667
-2.71379	f s	-0.09000083
-1.368557	f t	-1.372044
-2.002586	f u	-0.3931324
-3.382797	f y	0.0609209
-3.333951	g '	-0.8371337
-2.965974	g .	-0.8397139
-4.112102	g 2
-0.4226156	g </s>
-4.112102	g C
-1.252964	g a	-1.195035
-2.769679	g b	-0.4979229
-2.404532	g c	-1.518496
-2.011732	g d	-1.330174
-0.9941682	g e	-1.576161
-2.907982	g f	-0.205692
-2.177604	g g	-0.9190853
-0.9240177	g h	-0.7487103
-1.461794	g i	-1.611355
-2.510042	g j	-0.9398794
-2.634981	g k	-1.242034
-1.551001	g l	-2.245389
-2.606952	g m	-1.365931
-1.927411	g n	-1.268908
-1.112972	g o	-1.459413
-2.789883	g p	-0.5615857
-2.153061	g q	-1.108218
-1.405384	g r	-2.772421
-1.874056	g s	-1.014727
-1.455046	g t	-2.37026
-1.491966	g u	-1.193943
-2.936011	g w	-0.7719553
-2.286027	g x	-1.761744
-1.71765	g y	-1.48717
-2.143619	g z	-1.261737
-3.328897	h .	-0.6555008
-0.8505524	h </s>
-3.84078	h D	-0.2131009
-4.14181	h K	-0.6312561
-0.9057771	h a	-1.889747
-3.401448	h b	-0.2465249
-3.212391	h c	-1.502142
-2.269654	h d	-1.740263
-0.5004353	h e	-1.507538
-3.212391	h f	-0.6443521
-3.965719	h h
-0.7490253	h i	-1.758067
-4.44284	h j
-2.770742	h k	-0.9602665
-2.33563	h l	-0.6605741
-2.244183	h m	-1.279009
-1.807356	h n	-1.618685
-1.265015	h o	-0.7239004
-3.664689	h p	-0.8175734
-3.027867	h q	-1.276612
-1.375026	h r	-2.305675
-1.747359	h s	-1.459024
-1.51547	h t	-1.20428
-1.274048	h u	-1.148767
-3.597742	h v	-0.6951754
-2.55635	h w	-1.13195
-2.55635	h y	-0.0471492
-4.44284	h z
-3.390885	i '	-1.159215
-3.089855	i -	-0.6234754
-4.713104	i 2
-1.161166	i </s>
-4.111044	i C	-0.06510545
-4.111044	i G	-0.2078488
-4.713104	i L
-4.412074	i P	-0.5918658
-1.019201	i a	-1.518524
-2.249211	i b	-0.2514136
-1.084	i c	-2.245587
-1.608958	i d	-0.9877856
-1.440334	i e	-1.809921
-1.967249	i f	-0.8368563
-1.606913	i g	-1.497049
-2.40135	i h	-1.271629
-3.122039	i i	-1.229254
-2.31343	i j	-0.6934248
-2.265946	i k	-0.8617812
-1.086866	i l	-1.175663
-1.784196	i m	-1.351157
-0.7254824	i n	-0.803015
-1.060181	i o	-2.189758
-1.9292	i p	-1.514035
-3.144902	i q	0.08649791
-1.328213	i r	-1.097003
-1.155837	i s	-1.461176
-1.210404	i t	-1.637273
-2.203902	i u	-1.364146
-1.659641	i v	-1.838827
-1.612045	i w	-2.687321
-2.037326	i x	-1.668039
-2.815477	i y	-0.660981
-2.174028	i z	-0.9314287
-2.287802	j </s>
-1.254378	j a	-0.4483535
-2.384712	j b	-0.6440307
-2.986772	j d
-1.230897	j e	-0.5557388
-0.1678863	j i	-1.668568
-2.685742	j n	-0.6294234
-1.094677	j o	-0.684948
-2.685742	j r	-0.5759944
-0.9655824	j u	-0.9090282
-2.685742	j y
-3.689842	k -
-0.3172976	k </s>
-3.689842	k A
-1.255273	k a	-0.7732702
-3.388811	k b	-0.6168991
-3.689842	k c
-3.21272	k d	-0.2815078
-0.828307	k e	-1.370461
-2.648449	k f	-0.2601666
-2.990871	k g	-0.5793974
-1.721358	k h	-0.7703389
-1.120468	k i	-1.305352
-3.689842	k j
-2.056373	k k	-1.60654
-1.648449	k l	-1.746682
-2.291901	k m	-1.148751
-2.61066	k n	-1.0643
-1.586038	k o	-0.6963698
-3.388811	k p
-2.21272	k r	-0.6533377
-1.08346	k s	-1.287026
-3.388811	k t	-0.6027096
-1.625383	k u	-0.6065814
-2.91169	k v	-0.6951754
-2.21272	k w	-1.03969
-1.537553	k y	-1.726612
-3.969664	l -	-0.3252945
-3.844726	l .	-0.3925558
-0.7466879	l </s>
-4.446785	l B
-4.145756	l M	-0.4647318
-3.405393	l T	-0.9225789
-0.8878372	l a	-1.318612
-2.473658	l b	-1.939267
-2.739215	l c	-0.6983951
-1.465874	l d	-0.8753342
-0.9103534	l e	-1.278718
-1.832944	l f	-1.445112
-2.429752	l g	-1.333656
-3.085058	l h	-1.004814
-0.6911394	l i	-1.999395
-2.512287	l k	-0.1617912
-0.7870595	l l	-2.196295
-2.172628	l m	-1.309955
-2.902718	l n	-0.9857405
-1.306592	l o	-1.109726
-2.698598	l p	-0.7374311
-3.031812	l q	-1.405778
-3.332842	l r	-1.162033
-2.018651	l s	-0.9808916
-1.811302	l t	-0.894096
-1.988904	l u	-0.5814562
-2.282433	l v	-0.9952891
-3.085058	l w	-1.431246
-1.436062	l y	-1.666467
-3.492543	l z	-0.1862981
-2.45396	m .	-1.240821
-0.9592491	m </s>
-4.15293	m B
-3.198688	m C	-0.980817
-3.8519	m H	-0.6337212
-3.675809	m J	-0.2746529
-0.9648458	m a	-1.413002
-1.247674	m b	-1.224057
-3.073749	m c	-0.7838082
-3.006802	m d	-0.9094373
-0.6608685	m e	-1.160128
-3.374779	m f	-0.06666441
-3.8519	m g
-3.8519	m h
-0.7262563	m i	-1.642902
-3.8519	m k
-2.690532	m l	-1.290693
-1.255853	m m	-2.162668
-2.75499	m n	-0.2211039
-0.805015	m o	-1.917294
-1.459203	m p	-1.1864
-3.8519	m q	-0.6346545
-3.45396	m r
-1.617636	m s	-1.135543
-3.111537	m t	-0.6584112
-1.708885	m u	-1.339197
-3.55087	m v	0.09982803
-3.307832	m w	-0.01879252
-1.81647	m y	-1.941123
-4.15293	m z
-3.596503	n '	-0.8361278
-4.742631	n +
-3.295473	n -	-0.229053
-3.311267	n .	-1.12495
-4.742631	n 1
-3.96448	n 2	-0.7259663
-4.742631	n 9
-0.4865388	n </s>
-4.043661	n K	-0.7418809
-4.742631	n P
-1.190084	n a	-1.136872
-2.764907	n b	-1.303885
-1.457524	n c	-1.63616
-1.166059	n d	-1.892168
-1.024794	n e	-1.42548
-2.55511	n f	-1.346107
-0.8892978	n g	-0.1189048
-2.174429	n h	-1.596086
-1.117113	n i	-1.332
-2.489778	n j	-0.8308531
-2.03421	n k	-0.8430228
-2.36242	n l	-2.042849
-2.778843	n m	-1.814964
-1.797655	n n	-1.904281
-1.86757	n o	-0.6910127
-3.596503	n p	-0.4345301
-3.295473	n q	-1.029164
-2.971779	n r	-1.519956
-1.380148	n s	-1.608692
-1.122703	n t	-1.565662
-2.066853	n u	-0.8938851
-2.55794	n v	-0.7236381
-3.151566	n w	-1.000703
-3.010237	n x	-1.343485
-2.003058	n y	-0.5929573
-2.424567	n z	-1.142659
-3.591753	o '	-1.07646
-3.271417	o -	-0.5541208
-2.172247	o .	-2.155984
-0.9857622	o </s>
-4.633145	o D
-4.633145	o H
-3.553964	o S	-0.9016915
-4.332115	o T	-0.6051329
-3.457054	o V	-0.6802984
-4.332115	o Z	-0.6339334
-2.20501	o a	-1.320495
-1.850672	o b	-0.4773854
-1.691137	o c	-1.547369
-1.540424	o d	-0.784245
-2.426319	o e	-0.7650031
-1.411992	o f	-2.154811
-2.20501	o g	-0.9322163
-1.923875	o h	-1.670238
-2.280963	o i	-1.668603
-2.646374	o j	-0.8826162
-2.206634	o k	-0.3417833
-1.257847	o l	-0.3079299
-1.362932	o m	-0.4782336
-0.5348822	o n	-1.304005
-1.746091	o o	-1.635183
-1.796188	o p	-1.01535
-4.031085	o q	-0.04417648
-0.8813273	o r	-0.9941659
-1.486707	o s	-1.10983
-1.854271	o t	-1.166268
-1.026227	o u	-1.728521
-1.685222	o v	-1.123304
-1.727889	o w	0.2859325
-2.752331	o x	-1.435824
-2.340889	o y	-0.3500571
-2.650874	o z	-1.127146
-1.314347	p .	-2.209202
-1.152351	p </s>
-2.883851	p A	-0.9628996
-3.838093	p Q
-0.6107207	p a	-1.791939
-2.72415	p b	-0.8334082
-3.236033	p c	-0.1644057
-3.838093	p d
-0.7758873	p e	-2.040522
-2.992995	p f	-0.7021006
-3.838093	p g
-1.483985	p h	-0.9406267
-1.319579	p i	-1.024529
-3.360972	p j	-0.2897122
-2.883851	p k	-0.9657772
-1.459695	p l	-2.031204
-1.717519	p m	-1.228507
-3.838093	p n
-1.131375	p o	-1.219396
-1.570921	p p	-1.0326
-1.076165	p r	-2.528524
-1.698214	p s	-0.764635
-1.23821	p t	-1.481539
-1.211753	p u	-1.848276
-2.662002	p y	-0.6130173
-3.236033	p z	-0.6570473
-3.093772	q .
-0.4664059	q </s>
-2.014591	q a	-0.190025
-3.093772	q b
-3.093772	q d
-1.678798	q e	-1.377255
-0.4971747	q i	-1.680344
-3.093772	q s
-2.394802	q t	-0.762256
-0.5232288	q u	-1.760176
-2.792742	q v	-0.4854324
-4.312675	r '	-0.08595207
-3.835553	r -	-0.3088159
-2.932463	r .	-1.374827
-4.613704	r 1
-4.011644	r 2	-0.0914462
-0.7751072	r </s>
-3.835553	r C	-0.4699951
-4.613704	r J
-4.613704	r L
-4.613704	r S
-0.8936279	r a	-0.8399625
-2.122343	r b	-1.312718
-1.894373	r c	-1.152386
-1.463562	r d	-1.509428
-0.8992909	r e	-0.3159063
-2.750381	r f	-0.6877862
-1.74506	r g	-1.765461
-3.215765	r h	-1.223333
-0.9604919	r i	-1.944478
-1.678701	r k	-0.9190404
-1.601289	r l	-1.75173
-1.761224	r m	-1.587931
-1.556038	r n	-2.029473
-1.280862	r o	-0.6841201
-1.893545	r p	-1.398112
-3.499761	r q	-0.2972073
-1.778014	r r	-1.927821
-0.9750155	r s	-1.433838
-1.22953	r t	-1.235134
-1.882922	r u	-1.201618
-2.319238	r v	-1.146334
-2.72161	r w	-1.411457
-3.572312	r x	-0.669598
-1.4892	r y	-2.083351
-2.85783	r z	-0.2848344
-4.55547	s *
-3.953409	s -
-3.078348	s .	-1.503271
-4.254439	s 2	-0.4975392
-0.416094	s </s>
-4.254439	s N	-0.4579006
-4.55547	s _
-1.575011	s a	-1.046981
-2.663375	s b	-1.131034
-2.01389	s c	-1.818315
-2.068331	s d	-1.89906
-0.9943679	s e	-1.89403
-2.610987	s f	-0.8590149
-3.601227	s g	-0.2660402
-1.283628	s h	-1.204562
-1.190918	s i	-1.687492
-4.55547	s j
-2.290652	s k	-1.848325
-1.844506	s l	-2.104189
-2.636391	s m	-1.043353
-2.596428	s n	-1.869614
-1.550289	s o	-1.717305
-2.261003	s p	-1.9237
-2.72296	s q	-1.677757
-1.621982	s r	-2.542645
-1.274209	s s	-1.864742
-0.71286	s t	-2.062819
-1.877862	s u	-1.102767
-3.300197	s v	-0.05380746
-3.300197	s w	-0.8251919
-2.680408	s y	-0.7319312
-3.093071	s z	-0.7056903
-3.435337	t -	-0.1464128
-2.446332	t .	-1.889485
-0.6940865	t </s>
-4.639457	t C
-4.639457	t E
-4.639457	t N
-1.282284	t a	-1.161666
-3.120943	t b	-0.8560976
-2.41674	t c	-2.080074
-2.657185	t d	-1.785377
-0.9144439	t e	-1.1634
-3.493329	t f	-1.251674
-3.241517	t g	-0.7823375
-0.5765364	t h	-2.389918
-1.00852	t i	-1.689587
-3.794358	t k	-0.8108752
-2.279621	t l	-1.588194
-2.158014	t m	-2.194565
-2.730972	t n	-1.833278
-1.140182	t o	-1.536426
-4.162335	t p
-1.554166	t r	-2.81701
-1.766718	t s	-1.730235
-1.736367	t t	-1.689455
-1.74183	t u	-1.390435
-3.360703	t v	-1.128831
-1.391238	t w	-2.61658
-1.439976	t y	-1.957934
-2.484121	t z	-1.310399
-3.982068	u '	-0.6348615
-1.051628	u </s>
-3.805976	u C	-0.1579538
-0.9822848	u a	-1.523827
-1.458972	u b	-0.379068
-1.825216	u c	-1.236663
-1.495637	u d	-1.096714
-1.526461	u e	-1.149633
-2.483757	u f	-0.6124203
-1.527985	u g	-1.636063
-2.348599	u h	-0.27366
-1.657785	u i	-1.301639
-2.203916	u j	-1.025221
-2.300826	u k	-0.4797175
-1.423959	u l	-0.1789951
-1.476918	u m	-1.466123
-0.9151829	u n	-0.8840842
-2.118745	u o	-0.8571894
-1.586741	u p	-1.188385
-3.107006	u q	1.046305
-0.8157855	u r	-0.2187535
-0.8074264	u s	-1.665015
-1.099828	u t	-1.297194
-4.283098	u u
-3.052649	u v	0.3530573
-2.649629	u w	-1.406641
-2.902886	u x	-0.9504076
-2.764584	u y	0.05379905
-2.450589	u z	-1.396319
-2.07755	v .	-1.30637
-1.327427	v </s>
-1.155863	v a	-1.146688
-2.980639	v c	-0.7108541
-2.901458	v d	-0.4072961
-0.2839338	v e	-1.981844
-3.67961	v f
-0.5347242	v i	-1.697634
-3.37858	v k
-2.901458	v l	-1.026908
-3.67961	v n
-1.675288	v o	-0.8890052
-2.638217	v r	-0.2454496
-2.503518	v s	-1.495339
-3.67961	v t
-2.67961	v u	-0.1713995
-1.533481	v y	-1.762179
-3.885983	w .
-0.6993089	w </s>
-0.6409639	w a	-1.501724
-3.408862	w b	-0.2488548
-2.84459	w c	-0.7981026
-2.982893	w d	0.04765507
-0.7489454	w e	-1.994185
-3.107831	w f	-0.1726645
-2.488043	w h	-0.2188021
-1.461101	w i	-1.151983
-3.187013	w k	-0.08969542
-2.093591	w l	-0.5810417
-3.107831	w m	-0.9406396
-1.752444	w n	-1.795929
-0.6422009	w o	-2.360666
-2.524255	w p	-1.328387
-2.488043	w r	-0.8622814
-1.072402	w s	-1.653068
-2.54356	w t	-0.4420664
-2.885983	w u	-0.9596177
-3.584953	w w
-2.93174	w y	-0.3259833
-3.257439	x -
-2.354349	x .	-0.9536636
-0.5825774	x </s>
-1.009465	x a	-1.341902
-1.279715	x c	-1.821077
-1.208221	x e	-1.169494
-3.257439	x f
-2.558469	x h	-0.7002934
-0.8228697	x i	-1.344311
-3.257439	x l
-2.956409	x m	-0.5855099
-1.376625	x o	-1.737177
-1.308049	x p	-0.9304489
-2.655379	x q	-0.544218
-2.956409	x s	-0.6229475
-0.6139859	x t	-1.778966
-2.11131	x u	-0.4461077
-2.956409	x v	-0.4854324
-2.412341	x w	-0.3270022
-1.842465	x x	-1.106903
-3.257439	x y
-4.144512	y +
-3.445542	y .	-0.4791276
-0.2292704	y </s>
-3.366361	y S	-0.7884244
-1.596737	y a	-1.443335
-2.639362	y b	-0.9189587
-2.968421	y c	-0.3108784
-2.190269	y d	-0.9332078
-0.6138001	y e	-2.192011
-3.445542	y f	-0.6946312
-4.144512	y g
-3.667391	y h	-0.2685097
-2.246885	y i	-0.9379261
-3.843482	y j	-0.6104788
-3.843482	y k
-2.037302	y l	-0.6908852
-2.299414	y m	-0.5182375
-1.998384	y n	-0.2624287
-1.968421	y o	-0.9001033
-2.135912	y p	-1.113119
-4.144512	y q
-2.017407	y r	-0.8121287
-1.372924	y s	-1.64954
-2.764301	y t	-0.6678578
-1.616882	y u	-1.369419
-3.667391	y v	-0.1761965
-2.682114	y w	-0.8729341
-4.144512	y x
-2.802089	y z	-1.036064
-2.478085	z .	-0.5386839
-0.7983546	z </s>
-0.7733629	z a	-0.8628224
-1.531961	z b	-0.9382572
-3.256237	z c
-2.256237	z d	-0.6146009
-0.6187468	z e	-1.280659
-2.557266	z g	-0.7391315
-0.8446168	z h	-1.851218
-1.036128	z i	-0.6023512
-2.654176	z k	-0.6647472
-2.955207	z l	-0.6133694
-2.654176	z m	-0.6491249
-2.955207	z n	-0.6063743
-1.450057	z o	-0.6111637
-3.256237	z r
-1.913814	z s	-0.9478869
-1.191779	z u	-1.255896
-3.256237	z v
-2.301994	z w	-0.2175309
-1.977483	z y	-0.7353647
-1.712168	z z	-0.5778121
-0.09691001	{ </s>
-0.09691001	} </s>
-0.30103	Å Æ
-0.4771213	• 2
-0.4771213	• </s>
-0.30103	Æ s
-0.1760913	ø •
-0.30103	„ Å
-0.1760913	Ô ø	-0.1582338

\3-grams:
-0.001474686	<s> " </s>
-0.009984221	<s> # </s>
-0.0004375764	<s> $ </s>
-0.06694679	C $ </s>
-0.02227639	S $ </s>
-0.004595752	T $ </s>
-0.001772116	<s> % </s>
-2.457125	<s> % u	0.4413081
-0.01038204	<s> & </s>
-2.218188	<s> & i	0.03912396
-2.218188	<s> & o	0.03912396
-0.2773115	A & M	-0.3594895
-0.1143844	B & Q	0.03912396
-0.2773115	D & B	-0.3594895
-0.1143844	J & L	0.3580114
-0.01772877	P & G	0
-0.3357921	S & L	0.0164912
-0.3357921	S & P	-0.09265325
-0.02802872	T & T	0
-0.003634285	' ' </s>
-0.03476211	0 ' s	1.987804
-1.103717	<s> ' '	0
-2.992619	<s> ' 0	0.03912396
-2.577204	<s> ' 6	-0.1738823
-2.992619	<s> ' 7	0.03912396
-2.558012	<s> ' 8	0.2486047
-1.747901	<s> ' 9	0.05026305
-1.210782	<s> ' </s>
-0.08270203	<s> ' s	0.004837036
-0.09691001	D ' A	-0.03747046
-0.2904757	L ' O	0.03912396
-0.3853509	O ' B	0
-0.9294189	O ' C	0.07142279
-0.910227	O ' D	0.2486047
-1.331669	O ' G	0.01276888
-1.344833	O ' H	0.03912396
-1.344833	O ' N	-0.2843839
-1.344833	O ' S
-0.1143844	Y ' S	-0.2282543
-0.09691001	a ' a	-0.01895655
-0.8133544	a ' i
-0.4154145	d ' </s>
-0.06694679	g ' a	-0.1258913
-0.4191293	i ' a	-0.5630359
-1.12241	i ' i	-0.1336008
-0.3222193	i ' n	0
-0.243038	n ' a	0.02920052
-0.544068	n ' t	-0.01514902
-0.03778856	o ' c	0
-0.1143844	r ' s	2.505516
-0.1143844	u ' e	0.03912396
-0.01046543	<s> ( </s>
-0.01099538	<s> ) </s>
-0.1143844	0 + </s>
-0.006279066	0 , 0	-1.074144
-2.434531	0 , 4
-2.434531	0 , 7
-0.3802112	1 , 0	0.5992994
-1.11697	1 , 1	0.0121594
-1.044419	1 , 2	0.06854348
-1.044419	1 , 3	-0.1669227
-1.255273	1 , 4	-0.1719094
-1.20412	1 , 5	0.03584452
-1.525817	1 , 6	-0.1056226
-1.380211	1 , 7	-0.2163767
-1.012234	1 , 8	0.01282214
-1.958553	1 , 9	-0.1675491
-0.2514712	2 , 0	0.5636715
-1.356981	2 , 1	-0.1919663
-1.356981	2 , 2	-0.3953602
-1.772396	2 , 3
-1.33779	2 , 4	0.02015342
-1.326496	2 , 5	0.09807738
-1.356981	2 , 6
-1.772396	2 , 7	-0.4201398
-1.18089	2 , 8	0.02377534
-1.18089	2 , 9
-0.1273993	3 , 0	-0.1016466
-1.168792	3 , 1
-1.584206	3 , 4
-1.571042	3 , 5	0.1890383
-1.571042	3 , 8	-0.1510158
-0.3087168	4 , 0	-0.1691017
-1.569229	4 , 1	-0.3953162
-1.569229	4 , 2	-0.5678
-1.569229	4 , 3
-1.134623	4 , 4	-0.2216549
-0.8527849	4 , 5	0.01403691
-1.556065	4 , 6
-1.569229	4 , 7
-1.556065	4 , 8
-1.569229	4 , 9
-0.0941584	5 , 0	-0.4359175
-1.885237	5 , 2
-1.872072	5 , 4
-1.872072	5 , 5	0.1890383
-1.469822	5 , 6	-0.1663157
-1.872072	5 , 7
-1.872072	5 , 8	-0.256731
-1.872072	5 , 9
-0.2596373	6 , 0	0.1993834
-1.415414	6 , 1	-0.5699711
-1.415414	6 , 2	-0.5205104
-1	6 , 4	-0.1421437
-1.40225	6 , 5	-0.1974919
-1	6 , 8	-0.05488538
-0.2272438	7 , 0	0.3113572
-1.231554	7 , 5
-0.8101119	7 , 8
-0.2138798	8 , 0	0.1800783
-1.369657	8 , 1
-1.356493	8 , 3
-1.369657	8 , 4
-0.9542425	8 , 8	-0.1408
-0.243038	9 , 0	0.3113572
-0.8259062	9 , 3	-0.1305031
-1.247348	9 , 5	-0.1974919
-1.247348	9 , 8
-0.001188221	<s> , </s>
-0.03218468	- - </s>
-0.30103	0 - d	-0.1958654
-0.1143844	2 - R	-0.4677165
-2.353665	<s> - -	0
-0.002374011	<s> - </s>
-3.280962	<s> - L	-0.3856532
-0.4154145	B - 0	-0.2843839
-0.4154145	B - </s>
-0.2604122	d - 1	0.04275196
-1.50776	d - A
-1.520925	d - J
-0.6661775	d - O	0.03476212
-1.017474	e - 1	0.9089189
-1.017474	e - C	-0.3815047
-0.5715748	e - h	-0.2186375
-0.6690068	i - A	-0.607455
-1.42344	i - C	-0.2315429
-1.436604	i - I	-0.4630893
-0.6690068	i - J	0.0413927
-1.436604	i - N
-0.7201593	i - S	-0.005640167
-1.42344	i - U	-0.0885004
-0.2773115	l - M	-0.2084873
-1.247348	n - A	-0.2643529
-1.260512	n - C
-1.247348	n - H	0.01276888
-1.260512	n - S
-1.247348	n - h	-0.610704
-0.845098	n - n	-0.01514902
-1.175082	o - I	-0.4677165
-1.175082	o - N
-1.175082	o - R	-0.4630893
-1.175082	o - S
-1.175082	o - W	-0.07797748
-0.4074853	o - o	-0.2596373
-0.5915057	r - A	-0.2494436
-0.5915057	r - f	0.03912396
-1.017474	t - C	-0.3815047
-1.00431	t - S	-0.1899338
-1.00431	t - W	0.2191753
-1.092883	0 . 0	-0.1329966
-0.8266146	0 . 1	-0.1775558
-0.845098	0 . 2	-0.09917841
-0.9280723	0 . 3	-0.369514
-1.252583	0 . 4	-0.06582573
-0.8846066	0 . 5	-0.1062775
-1.002706	0 . 6	-0.449969
-1.127645	0 . 7	-0.2224236
-1.428675	0 . 8	-0.2159912
-0.976377	0 . 9	-0.2807199
-1.212303	1 . 0	-0.02194862
-1.126873	1 . 1	0.05838583
-0.950782	1 . 2	0.02200136
-1.042552	1 . 3	-0.3560864
-1.126873	1 . 4	-0.09613016
-0.89279	1 . 5	-0.2069072
-0.9829667	1 . 6	-0.09338405
-1.09691	1 . 7	-0.0166614
-0.8336686	1 . 8	-0.2575249
-1.212303	1 . 9	-0.1561626
-1.231609	1 . </s>
-2.374222	1 . c	0.09254266
-1.441957	2 . 0	-0.05017558
-1.034472	2 . 1	-0.1455819
-1.07398	2 . 2	-0.2875531
-1.192079	2 . 3	-0.1455063
-0.8521313	2 . 4	-0.1769169
-0.7241015	2 . 5	-0.1902566
-1.095169	2 . 6	-0.03980618
-1.250071	2 . 7	-0.0375629
-0.9490413	2 . 8	-0.4380461
-1.317018	2 . 9	-0.0923539
-1.034472	2 . </s>
-1.421193	3 . 0	-0.2028038
-1.002063	3 . 1	-0.3937352
-0.9818598	3 . 2	0.099138
-1.210339	3 . 3	-0.3097787
-1.120162	3 . 4	-0.58199
-0.8771244	3 . 5	-0.5101222
-1.06901	3 . 6	-0.5626537
-1.245101	3 . 7	-0.2224236
-0.8471612	3 . 8	-0.2083442
-0.9093091	3 . 9	-0.3245842
-1.120162	3 . </s>
-1.516674	4 . 0	-0.1330251
-1.070038	4 . 1	-0.75771
-1.107826	4 . 2	-0.2583341
-1.194977	4 . 3	-0.6536528
-1.194977	4 . 4	0.05272493
-0.6440691	4 . 5	-0.1045167
-1.035276	4 . 6	-0.6608223
-0.9731278	4 . 7	-0.4506934
-1.003091	4 . 8	-0.06958168
-1.516674	4 . 9	-0.1022915
-1.070038	4 . </s>
-1.3457	5 . 0	-0.19053
-1.169609	5 . 1	0.06833224
-1.220762	5 . 2	-0.01153358
-0.845098	5 . 3	-0.1691579
-1.123852	5 . 4	-0.3700548
-0.7436404	5 . 5	-0.06068334
-0.9197317	5 . 6	-0.052029
-0.9197317	5 . 7	-0.2126312
-1.123852	5 . 8	-0.1784267
-1.220762	5 . 9	-0.1810233
-1.3457	5 . </s>
-1.18327	6 . 0	-0.07800919
-0.9102685	6 . 1	-0.009866863
-0.9102685	6 . 2	-0.1331946
-1.007179	6 . 3	-0.1500778
-1.132117	6 . 4	0.05272493
-0.8822398	6 . 5	-0.01726688
-1.007179	6 . 6	0.2488015
-1.18327	6 . 7	-0.09330297
-1.132117	6 . 8	-0.0922669
-0.9102685	6 . 9	-0.2558053
-1.88655	6 . </s>
-1.691737	7 . 0	-0.2761897
-1.023252	7 . 1	-0.09096339
-1.210339	7 . 2	-0.1773682
-1.120162	7 . 3	0.08472271
-1.148191	7 . 4	0.09073405
-0.7928035	7 . 5	-0.1211822
-0.9263424	7 . 6	0.2396836
-1.06901	7 . 7	-0.03053805
-0.9093091	7 . 8	0.08824629
-0.7928035	7 . 9	0.292286
-2.124473	7 . </s>
-0.90309	8 . 0	-0.2412198
-1.111366	8 . 1	0.2658072
-0.90309	8 . 2	0.1066889
-0.9465557	8 . 3	0.1360827
-0.9948604	8 . 4	-0.2992026
-0.7201593	8 . 5	0.02529209
-1.271067	8 . 6	0.2849107
-1.146128	8 . 7	0.2070875
-1.183917	8 . 8	-0.4457039
-1.146128	8 . 9	0.07396451
-1.737634	9 . 0
-0.9700368	9 . 1	0.03119196
-1.737634	9 . 2
-0.748188	9 . 3	-0.07089657
-1.146128	9 . 4	0.1015069
-1.322219	9 . 5	0.2849352
-1.021189	9 . 6	-0.01981838
-0.7781513	9 . 7	0.2033385
-0.7781513	9 . 8	0.1232683
-1.291734	9 . 9	-0.0002533974
-1.72447	9 . </s>
-0.00811789	<s> . </s>
-0.06694679	A . </s>
-1.737634	A . C	0.03723739
-1.72447	A . H	-0.167355
-1.303027	A . T	-0.3672417
-0.1597008	B . </s>
-0.8129134	B . A	-0.05406709
-0.008433168	C . </s>
-0.2275074	D . </s>
-0.6511094	D . C	-0.1413483
-0.7823883	D . T	-0.5492077
-1.826192	D . c	-0.5367102
-0.06366908	E . </s>
-0.03778856	F . </s>
-0.1249387	G . </s>
-1.00431	G . m	0.2174814
-0.02286288	H . </s>
-0.243038	I . </s>
-0.03407979	J . </s>
-0.01296498	K . </s>
-0.1836444	L . </s>
-0.6842467	L . A	0.1494019
-1.262588	L . L	-0.3594895
-0.06069784	M . </s>
-0.3869446	N . </s>
-0.9890046	N . C	0.508249
-1.692285	N . H	0.2191753
-0.8129134	N . J	0.1760913
-1.705449	N . M
-1.270843	N . V	0.02675601
-0.7160034	N . Y	-0.3594895
-0.243038	O . </s>
-0.6452883	O . J	0.5696639
-0.08432089	P . </s>
-1.043803	P . J	0.6590415
-0.1076339	R . </s>
-1.412974	R . C	-0.05214013
-1.412974	R . I	0.01276888
-0.02255309	S . </s>
-1.703291	S . A	0.180013
-2.758754	S . C	0.3343901
-2.055474	S . R	0.5101355
-2.004321	S . S	1.464887
-2.771918	S . b	-0.4367261
-2.758754	S . p	0.01276888
-0.03218468	T . </s>
-2.765392	U . </s>
-1.518044	U . K	0.02996323
-1.533838	U . N	0
-0.02868796	U . S	-0.353995
-0.04575749	V . </s>
-0.02632894	W . </s>
-1.520925	W . V	-0.5149078
-0.03476211	Y . </s>
-0.2676062	a . </s>
-0.3565473	a . m	-0.4393327
-0.05115252	b . </s>
-0.001582131	c . </s>
-0.004852503	d . </s>
-0.2904757	e . c	0.1819202
-0.02020339	f . </s>
-0.03218468	g . </s>
-0.1139434	h . </s>
-0.9141336	h . D	-0.2733406
-0.09691001	l . </s>
-0.02687215	m . </s>
-1.49916	m . b	-0.5201311
-0.01639042	n . </s>
-0.001500155	o . </s>
-0.04230384	p . </s>
-1.046625	p . m	0.2012024
-0.00914338	r . </s>
-0.02996322	s . </s>
-1.290476	s . c	0.1819202
-0.002775054	t . </s>
-0.01072387	v . </s>
-0.05115252	x . o	0
-0.07771811	y . </s>
-0.06694679	z . </s>
-0.1143844	0 / 3	0.3699107
-0.6716959	1 / 1	-0.1375024
-0.3174204	1 / 2	-0.8853619
-1.255273	1 / 3	0.5139724
-0.8029748	1 / 4	0.4168254
-1.079181	1 / 8	0.6232493
-0.4201408	2 / 1	-0.3327258
-0.8547471	2 / 2
-0.8415829	2 / 3	0.6670634
-1.456807	3 / 1
-0.8653014	3 / 3	0.02839044
-0.1810547	3 / 4	0.1949766
-0.8653014	3 / 8	0.685498
-0.2904757	4 / 1	-0.4785916
-1.215164	5 / 1
-0.7937214	5 / 3	0.1973075
-0.1597008	5 / 8	0.3444957
-0.243038	6 / 2	0.5998196
-0.544068	7 / 1	-0.1711618
-0.544068	7 / 3	0.02839044
-0.4191293	7 / 8	0.6690068
-0.4154145	8 / 1
-0.4154145	8 / 3	0.3699107
-0.1249387	9 / 1	-0.3283465
-0.69897	9 / 3	0.2520227
-0.006630579	<s> / </s>
-0.1143844	' 0 7	-0.04947388
-0.01265583	, 0 0	-2.709477
-2.282169	, 0 1
-2.697583	, 0 2
-2.684419	, 0 4	-0.2849452
-2.282169	, 0 5	-0.1951165
-2.697583	, 0 6
-2.684419	, 0 7
-2.697583	, 0 9
-0.2904757	- 0 2	-0.5841454
-1.238882	. 0 0	-0.1547774
-1.384488	. 0 1	-0.8794983
-0.9756407	. 0 2	-0.2932047
-1.238882	. 0 3	0.3971259
-1.113943	. 0 4	0.02802875
-0.8709053	. 0 5	-0.2415928
-0.8409421	. 0 6	-0.3290587
-1.113943	. 0 7	0.07381782
-1.395781	. 0 8	0.06626454
-0.9378521	. 0 9	-0.3290587
-0.9378521	. 0 </s>
-1.286728	0 0 ,	-0.312311
-2.817765	0 0 -	0.1469655
-0.506543	0 0 0	-1.379161
-1.933867	0 0 1	-1.114556
-2.292889	0 0 2	-0.4279032
-2.262925	0 0 3	-0.4717262
-2.183744	0 0 4	-0.2964824
-1.836957	0 0 5	-0.6782854
-1.976619	0 0 6	-0.5873368
-1.859233	0 0 7	-1.033026
-3.239207	0 0 8	-0.1689788
-2.439017	0 0 9	-0.5509074
-3.239207	0 0 :
-0.2523428	0 0 </s>
-3.239207	0 0 s	1.621887
-3.252371	0 0 t	1.196161
-1.054722	1 0 ,	0.298957
-1.266352	1 0 .	1.343957
-2.713175	1 0 /	0.03912396
-0.5633608	1 0 0	-1.22782
-1.577601	1 0 1	-0.5000404
-1.723729	1 0 2	-0.455932
-1.621067	1 0 3	-0.2453298
-1.820639	1 0 4	-0.09690998
-1.945578	1 0 5	-0.01974406
-2.121669	1 0 6	0.3644113
-1.996731	1 0 7	0.07381782
-2.29776	1 0 8	0.3136819
-2.29776	1 0 9	0.2461446
-1.945578	1 0 :	-0.1778012
-0.3582413	1 0 </s>
-2.267275	1 0 t	0.5089353
-1.241417	2 0 ,	0.1802672
-1.824993	2 0 .	-0.2117135
-0.3232494	2 0 0	-0.1518295
-1.625421	2 0 1	-0.4219725
-2.271629	2 0 2	0.4704803
-2.704365	2 0 3	0.04678518
-2.717529	2 0 4
-2.704365	2 0 5	0.6354201
-2.704365	2 0 7
-2.717529	2 0 8
-0.4402814	2 0 </s>
-2.126023	2 0 s	1.369745
-1.489201	2 0 t	0.361028
-1.274336	3 0 ,	0.4116613
-2.502663	3 0 -	-0.2952011
-1.786219	3 0 .	-0.2027668
-0.6722755	3 0 0	-0.7197442
-2.087249	3 0 1	-0.310161
-2.087249	3 0 3	0.5294458
-2.489499	3 0 5	0.2488898
-2.087249	3 0 9	0.05621137
-0.1951543	3 0 </s>
-2.056764	3 0 s	1.02404
-1.647916	3 0 t	0.7132105
-1.254001	4 0 ,	0.5642714
-1.900209	4 0 .	-0.05874433
-0.5596265	4 0 0	-0.4633787
-2.332945	4 0 1	0.1048797
-2.332945	4 0 5
-0.227403	4 0 </s>
-1.900209	4 0 s	1.02404
-1.930694	4 0 t	1.078273
-0.9563978	5 0 ,	0.01695022
-2.161221	5 0 .
-0.6211046	5 0 0	-1.050731
-2.595827	5 0 1
-2.595827	5 0 2	0.1519569
-2.595827	5 0 4	0.3860402
-0.2310226	5 0 </s>
-1.578353	5 0 s	1.077047
-2.149927	5 0 t	0.5089353
-1.282007	6 0 ,	0.6669338
-2.241489	6 0 .
-0.6877721	6 0 0	-0.3622242
-2.241489	6 0 3	-0.5628073
-2.228325	6 0 5	-0.2912469
-0.2132909	6 0 </s>
-1.030195	6 0 s	0.8925227
-2.241489	6 0 t	1.196161
-1.148191	7 0 ,	0.638905
-1.722222	7 0 .	-0.1360011
-0.8329208	7 0 0	-0.1844799
-0.2750644	7 0 </s>
-0.6808298	7 0 s	0.6542835
-2.137637	7 0 t	1.196161
-1.873611	8 0 '	0.3998243
-1.361728	8 0 ,	0.696897
-2.275862	8 0 .
-0.8035733	8 0 0	-1.1271
-2.275862	8 0 5	0.2488898
-2.275862	8 0 9	0.1500142
-0.2661562	8 0 </s>
-0.7048192	8 0 s	0.5293448
-1.624969	9 0 '	0.176192
-1.624969	9 0 ,	1.332375
-2.216475	9 0 .
-1.147848	9 0 0	-0.05209278
-2.216475	9 0 3	0.1361627
-2.216475	9 0 5	0.3382674
-2.203311	9 0 8	0.2175515
-2.203311	9 0 9	0.1500142
-0.1650744	9 0 </s>
-0.8590525	9 0 s	0.7511935
-0.09080742	: 0 0	-1.277596
-1.53763	: 0 1	-0.192273
-1.53763	: 0 6	0.2788302
-1.53763	: 0 7
-1.53763	: 0 9	-0.5538838
-0.2099495	<s> 0 .	0.9815739
-1.30103	<s> 0 0	-0.2972437
-1.037789	<s> 0 1	0.2857331
-1.892536	<s> 0 2	0.1519569
-1.477121	<s> 0 6
-0.9330532	<s> 0 7	0.457538
-1.477121	<s> 0 9	-0.3505339
-1.879372	<s> 0 </s>
-0.4313638	, 1 0	-0.902748
-0.8293038	, 1 2	-0.32103
-1.244718	, 1 4
-1.231554	, 1 5
-1.231554	, 1 6
-1.244718	, 1 7
-0.01378828	- 1 9	-0.4071038
-1.161368	. 1 0	-0.8634577
-2.053904	. 1 1	-0.3308316
-1.161368	. 1 2	-0.9377901
-1.619297	. 1 3	-0.4601714
-1.462398	. 1 4	-0.6817195
-1.161368	. 1 5	-0.7661864
-1.240549	. 1 6	-0.2638133
-1.619297	. 1 7	0.06821489
-1.337459	. 1 8	-0.4847701
-1.199157	. 1 9	-0.8329971
-0.2815078	. 1 </s>
-0.9927008	/ 1 1	-0.4753494
-1.571042	/ 1 2	-0.6791219
-0.624724	/ 1 4	-1.115109
-0.265702	/ 1 6	-1.083357
-1.837617	0 1 .
-1.850781	0 1 /
-1.134336	0 1 0	-0.5176457
-1.850781	0 1 1	-0.3308316
-1.259275	0 1 2	-0.630517
-1.850781	0 1 3	-0.2875683
-1.416175	0 1 4	-0.5128024
-1.850781	0 1 6	-0.1610743
-1.850781	0 1 8	-0.2771029
-1.837617	0 1 9	-0.6684092
-0.2178826	0 1 </s>
-1.435367	0 1 s	1.441217
-1.8085	1 1 ,	-0.216282
-0.9825943	1 1 .	-0.06434439
-1.107533	1 1 /	-1.481624
-1.283624	1 1 0	-0.6434524
-1.283624	1 1 1	-0.6277709
-1.8085	1 1 2	-0.143131
-1.827692	1 1 3	-0.4054562
-2.243107	1 1 4
-1.827692	1 1 5	-0.4011242
-1.827692	1 1 6	0.04227557
-2.229943	1 1 7	-0.2487006
-1.8085	1 1 8	-0.449706
-1.47551	1 1 9	-0.4076906
-1.47551	1 1 :	-0.1961944
-0.3398472	1 1 </s>
-1.150999	1 1 t	0
-1.534084	2 1 ,	-0.04679335
-1.041393	2 1 .	-0.04464885
-1.955526	2 1 /	-0.2742547
-1.968691	2 1 0	-0.3457454
-1.968691	2 1 3	-0.2875683
-1.955526	2 1 6	0.1360784
-1.955526	2 1 7
-1.955526	2 1 8	-0.289465
-1.955526	2 1 9
-1.955526	2 1 :	-0.257926
-0.3292612	2 1 </s>
-0.6238571	2 1 s	0.611268
-1.197281	3 1 ,	-0.2084319
-1.197281	3 1 .	-0.1197488
-1.900561	3 1 0	-0.4351229
-1.913725	3 1 2	-0.2889968
-1.498311	3 1 5	-0.1749192
-1.913725	3 1 8	-0.2771029
-0.4191293	3 1 </s>
-0.4282727	3 1 s	0.4740948
-0.4578161	4 1 .	-0.2576344
-1.217484	4 1 0	-0.1423955
-1.619734	4 1 2	-0.3783743
-1.632898	4 1 :	-0.3200246
-0.3281823	4 1 </s>
-0.5542872	5 1 .	-0.1823994
-1.433659	5 1 0	-0.04859266
-1.446823	5 1 2	-0.2889968
-1.446823	5 1 3
-0.3112492	5 1 </s>
-0.991532	6 1 .
-1.426138	6 1 0	-0.3457454
-1.426138	6 1 1	-0.5484958
-1.412974	6 1 3	-0.6795131
-1.426138	6 1 4
-0.2325726	6 1 </s>
-1.318704	7 1 .
-0.1205739	7 1 </s>
-1.485452	8 1 ,
-1.472288	8 1 .
-0.09231426	8 1 </s>
-1.719268	9 1 .	-0.2715897
-1.732432	9 1 0
-1.317018	9 1 1	-0.4487196
-1.732432	9 1 5
-0.09300329	9 1 </s>
-0.7164444	: 1 0
-0.7164444	: 1 </s>
-1.606079	<s> 1 ,	-0.1504046
-1.252702	<s> 1 .	-0.3408442
-1.785775	<s> 1 /	-1.071835
-0.8255417	<s> 1 0	0.005689021
-1.319649	<s> 1 1	0.09861402
-1.305049	<s> 1 2	0.09219924
-1.267261	<s> 1 3	-0.2501008
-1.401063	<s> 1 4	0.04473222
-1.157386	<s> 1 5	-0.1704752
-1.515678	<s> 1 6	0.07634699
-1.405563	<s> 1 7	0.1593011
-1.455868	<s> 1 8	-0.1881568
-0.4814995	<s> 1 9	-0.213266
-1.334756	<s> 1 </s>
-1.940677	<s> 1 s	0.3994612
-0.1143844	A 1 </s>
-0.2773115	M 1 </s>
-0.2839966	, 2 0	-0.5330211
-1.211294	, 2 2
-1.19813	, 2 4
-0.79588	, 2 5	-0.3055439
-1.211294	, 2 7
-1.074329	. 2 0	-1.008367
-2.063774	. 2 1
-1.472269	. 2 2	-0.609283
-1.209027	. 2 3	-0.2970211
-1.629168	. 2 4	-0.2850314
-0.8354467	. 2 5	-0.9592633
-1.64836	. 2 6	-0.3369989
-1.629168	. 2 7	0.02015342
-1.617875	. 2 8	-0.09365418
-1.617875	. 2 9	-0.2615657
-0.2961775	. 2 </s>
-1.571042	/ 2 0	-0.01918604
-0.04657614	/ 2 </s>
-1.561543	0 2 ,
-1.561543	0 2 -	0.03912396
-1.561543	0 2 3
-0.0854302	0 2 </s>
-1.496007	1 2 ,	-0.2057109
-1.149219	1 2 .	-0.3530062
-1.828997	1 2 /	-0.3290599
-0.8167806	1 2 0	-0.2106902
-2.263603	1 2 2
-2.263603	1 2 3
-1.828997	1 2 4	0.2029263
-1.336306	1 2 5	-0.1605441
-1.828997	1 2 7	-0.1493353
-2.250439	1 2 8	-0.2791026
-1.848189	1 2 9	-0.3388994
-1.848189	1 2 :	0.04009013
-0.2949131	1 2 </s>
-1.088521	1 2 t	0
-1.534772	2 2 ,	-0.05972804
-1.125925	2 2 .	-0.1468485
-1.980672	2 2 /
-1.213075	2 2 0	-0.5069405
-1.980672	2 2 1	-0.3217086
-1.980672	2 2 2	-0.2677628
-1.967508	2 2 3
-1.389166	2 2 4	-0.4539484
-1.167317	2 2 5	-0.5278996
-1.980672	2 2 6
-1.967508	2 2 9	-0.2759104
-0.2752227	2 2 </s>
-1.125925	2 2 n	0.3832168
-1.813354	3 2 ,
-1.09691	3 2 .	-0.03791839
-1.39794	3 2 0	-0.5183656
-1.813354	3 2 1	-0.3217086
-1.378748	3 2 5	-0.2967338
-1.813354	3 2 6	-0.2191109
-1.813354	3 2 7
-1.80019	3 2 9	-0.3305968
-0.1611509	3 2 </s>
-1.757837	4 2 ,	-0.2392497
-0.9444827	4 2 .	-0.1929273
-1.744673	4 2 0	-0.1033248
-1.757837	4 2 3	-0.3433481
-1.342423	4 2 4	0.09092167
-1.323231	4 2 5	0.02173519
-1.342423	4 2 6	-0.3369989
-0.90309	4 2 7	-0.7403627
-1.323231	4 2 8	-0.1539802
-1.757837	4 2 9	-0.2412193
-0.3762809	4 2 </s>
-0.9700368	5 2 .	-0.0860227
-1.146128	5 2 2	-0.3856508
-1.548378	5 2 5	-0.2730649
-0.1684044	5 2 </s>
-1.485452	6 2 ,
-0.5929166	6 2 .	-0.1262418
-1.070038	6 2 5	-0.2420186
-0.2571245	6 2 </s>
-1.10551	7 2 .	-0.160857
-1.520925	7 2 6	-0.2191109
-0.1277866	7 2 </s>
-1.520925	7 2 n	0.8661669
-1.524466	8 2 ,	-0.3286272
-1.122216	8 2 .
-1.524466	8 2 0	-0.1033248
-1.53763	8 2 4	-0.1124282
-0.1560742	8 2 </s>
-1.356472	9 2 0	-0.2776152
-1.777914	9 2 5	-0.2135081
-1.791078	9 2 6	-0.2191109
-1.791078	9 2 7	-0.2952011
-1.791078	9 2 8	-0.299846
-1.375664	9 2 9	-0.3591072
-0.1026623	9 2 </s>
-0.767597	: 2 1	-0.3217086
-0.767597	: 2 7	-0.2952011
-1.518514	<s> 2 ,	0.2150967
-1.079808	<s> 2 .	-0.2802056
-3.118045	<s> 2 /	-0.2315429
-0.4802661	<s> 2 0	-0.2305868
-1.19075	<s> 2 1	-0.2415063
-1.220945	<s> 2 2	-0.1270906
-1.235069	<s> 2 3	-0.1220931
-1.309254	<s> 2 4	-0.4236075
-1.060176	<s> 2 5	-0.07774985
-1.354067	<s> 2 6	0.08588939
-1.454532	<s> 2 7	-0.02255198
-1.454532	<s> 2 8	-0.1744651
-1.610284	<s> 2 9	0.09596349
-2.414764	<s> 2 :	0.01870088
-1.069881	<s> 2 </s>
-2.171726	<s> 2 n	0.2863067
-0.1143844	d 2 0	-0.3163388
-0.06694679	n 2 0	-0.657859
-0.4154145	r 2 0
-0.1143844	s 2 </s>
-0.5740313	, 3 0	-0.8503944
-1.290476	, 3 1
-0.8750613	, 3 2	-0.1960128
-0.8750613	, 3 5	-0.1459719
-1.290476	, 3 6
-0.8750613	, 3 7	-0.1944157
-1.277311	, 3 8	-0.2866153
-1.235528	. 3 0	-0.6000571
-1.457377	. 3 1	-0.7294754
-1.156347	. 3 2	-0.09342168
-1.332438	. 3 3	-0.4737319
-1.332438	. 3 4	-0.1566694
-1.194136	. 3 5	-0.7184609
-1.633469	. 3 6	-0.4365701
-1.602983	. 3 7	-0.2103121
-1.281286	. 3 8	-0.5740312
-1.457377	. 3 9	-0.5588345
-0.2764871	. 3 </s>
-0.04968778	/ 3 2	-1.022841
-1.368392	/ 3 </s>
-1.545748	0 3 .
-1.130334	0 3 0	-0.2727834
-0.08894108	0 3 </s>
-1.825337	1 3 ,	-0.02181675
-0.9527319	1 3 .	-0.218342
-2.258072	1 3 /	-0.2836373
-1.096154	1 3 0	-0.8219262
-1.855822	1 3 1	-0.1846052
-1.83663	1 3 2	0.2277618
-1.855822	1 3 3	-0.3123616
-2.258072	1 3 4	-0.2665881
-1.83663	1 3 5	-0.3126645
-1.679731	1 3 6	-0.05771898
-1.554792	1 3 7	0.07214515
-2.258072	1 3 9
-2.271236	1 3 :
-0.293529	1 3 </s>
-0.9138138	1 3 t	0
-1.559308	2 3 ,	0.2018796
-0.9852768	2 3 .	-0.1250289
-1.528823	2 3 0	0.0230414
-1.961558	2 3 1	-0.09080236
-1.974723	2 3 3
-1.383217	2 3 4	-0.06747289
-1.974723	2 3 5
-1.974723	2 3 7
-0.355188	2 3 </s>
-0.6173	2 3 r	0.2218488
-1.613104	3 3 ,	0.2956824
-1.180368	3 3 .
-0.7715207	3 3 0	0.05416962
-1.626268	3 3 4
-1.626268	3 3 6	-0.3186822
-1.626268	3 3 8	-0.1702623
-0.3077634	3 3 </s>
-1.626268	3 3 r	1.18192
-1.53763	4 3 ,	-0.001470329
-0.9461246	4 3 .	-0.06245584
-1.122216	4 3 0	-0.3691533
-1.53763	4 3 2
-1.53763	4 3 5	-0.2732992
-1.53763	4 3 6
-1.524466	4 3 8	0.1268904
-0.2329142	4 3 </s>
-1.356493	5 3 .	-0.2512577
-1.369657	5 3 2
-0.1583625	5 3 </s>
-1.331669	6 3 .
-1.344833	6 3 0
-1.344833	6 3 1	-0.5677425
-0.1335389	6 3 </s>
-0.6434527	7 3 .	-0.2294576
-1.456807	7 3 0
-0.1810547	7 3 </s>
-1.066425	8 3 5	-0.1934868
-1.512324	8 3 9	-0.2173143
-0.1426675	8 3 </s>
-0.7729501	9 3 0	-0.7639986
-1.719268	9 3 2	-0.1769703
-1.719268	9 3 4
-1.719268	9 3 6	-0.02152941
-1.015988	9 3 7	-0.361866
-1.317018	9 3 9	-0.3352022
-0.2756254	9 3 </s>
-0.1962947	: 3 0	-0.9010871
-1.331868	: 3 3	-0.3018316
-1.331868	: 3 4	-0.5845678
-0.897262	: 3 7	-0.04409986
-1.331868	: 3 9
-1.487242	<s> 3 ,	-0.01241543
-0.9860824	<s> 3 .	0.3761907
-1.497966	<s> 3 /	-0.2471171
-0.5213865	<s> 3 0	-0.18253
-1.070642	<s> 3 1	0.05162126
-1.555958	<s> 3 2	0.07025456
-1.446813	<s> 3 3	-0.07006735
-1.594876	<s> 3 4	-0.1591116
-1.150636	<s> 3 5	-0.07223
-1.384022	<s> 3 6	-0.0002833072
-1.497966	<s> 3 7	-0.005647385
-1.555958	<s> 3 8	-0.02699336
-1.446813	<s> 3 9	0.09186624
-2.46748	<s> 3 :	-0.03161451
-0.8931999	<s> 3 </s>
-1.821272	<s> 3 r	0.4771212
-0.30103	, 4 0	-1.090392
-1.318504	, 4 1
-0.90309	, 4 4	-0.682752
-1.318504	, 4 6
-0.8838981	, 4 8	-0.2515377
-1.557786	. 4 0	-0.8937168
-1.41218	. 4 1	-0.2351741
-1.236089	. 4 2	-0.3435993
-1.287242	. 4 3	-0.3862782
-1.588272	. 4 4	-0.02970327
-0.9598828	. 4 5	-0.6885256
-1.557786	. 4 6	-0.2713438
-1.56908	. 4 7	-0.1416484
-1.588272	. 4 8	-0.3393028
-1.557786	. 4 9	-0.6905397
-0.2818467	. 4 </s>
-0.009340026	/ 4 </s>
-1.494596	0 4 0	-0.2064915
-0.04777278	0 4 </s>
-1.456746	1 4 ,	-0.390534
-0.9981077	1 4 .	-0.276419
-1.213707	1 4 0	-0.7563885
-1.058805	1 4 1	-0.8558683
-0.8827142	1 4 2	-0.5605938
-2.160026	1 4 3	-0.3037554
-2.17319	1 4 4
-1.581684	1 4 5	0.03127335
-2.160026	1 4 6	0.04615535
-2.160026	1 4 8	-0.3107924
-1.757776	1 4 9	0.2000355
-0.3512353	1 4 </s>
-1.405593	1 4 t	0.4313638
-1.484726	2 4 .	-0.1671523
-0.9411801	2 4 0	0.135837
-1.917462	2 4 3	-0.3037554
-1.930626	2 4 4	-0.2330532
-0.1727886	2 4 </s>
-1.484726	2 4 t	0.1479074
-1.142176	3 4 ,	0.1394124
-1.576782	3 4 .
-1.142176	3 4 0	-0.06062568
-1.576782	3 4 2
-1.161368	3 4 5	-0.1721957
-1.576782	3 4 7	-0.2875142
-1.161368	3 4 8	-0.3393028
-1.576782	3 4 :	-0.1191098
-0.2863067	3 4 </s>
-1.145606	4 4 ,	0.1195123
-0.8239087	4 4 .	-0.2024977
-1.156899	4 4 0	-0.3790947
-1.591506	4 4 1
-1.591506	4 4 4	-0.2330532
-0.2466723	4 4 </s>
-1.050846	5 4 ,	-0.1568884
-0.8939466	5 4 .
-1.485452	5 4 0	-0.2064915
-1.485452	5 4 3
-1.472288	5 4 4
-0.31037	5 4 </s>
-1.357422	6 4 .	-0.5675859
-1.344258	6 4 0	-0.295869
-0.9228162	6 4 4	-0.08718735
-1.357422	6 4 7
-0.243038	6 4 </s>
-1.426138	7 4 ,
-1.426138	7 4 .
-1.010724	7 4 7	-0.4054022
-0.1356626	7 4 </s>
-1.605746	8 4 ,	-0.5305523
-1.592582	8 4 .	-0.2704331
-1.605746	8 4 5
-1.17114	8 4 7	-0.6661718
-0.1296339	8 4 </s>
-1.872072	9 4 ,
-0.770852	9 4 0	-0.6301713
-1.469822	9 4 1	-0.4386431
-1.872072	9 4 2
-1.872072	9 4 3	-0.3037554
-1.885237	9 4 4	-0.2330532
-1.885237	9 4 5	-0.05430771
-1.872072	9 4 6	-0.3403749
-1.469822	9 4 7	-0.4054022
-1.45063	9 4 8	-0.394018
-1.45063	9 4 9	0.1425514
-0.2725415	9 4 </s>
-0.9272978	: 4 1	-0.5859983
-0.4926915	: 4 2	-0.2134527
-0.4926915	: 4 5	-0.2269109
-1.543528	<s> 4 ,	-0.2764834
-0.9758371	<s> 4 .	0.09631584
-0.5055823	<s> 4 0	-0.1991842
-1.473892	<s> 4 1	0.1591199
-1.348954	<s> 4 2	-0.3434763
-1.400106	<s> 4 3	0.1189382
-1.386742	<s> 4 4	-0.2269499
-1.112864	<s> 4 5	0.1234421
-1.292472	<s> 4 6	0.01497116
-1.413894	<s> 4 7	-0.02841372
-1.325472	<s> 4 8	-0.1387629
-1.490283	<s> 4 9	0.09037681
-2.718611	<s> 4 :
-0.8799502	<s> 4 </s>
-1.905256	<s> 4 t	0.389971
-0.1143844	P 4 8	-0.5660918
-0.1706962	, 5 0	-1.133099
-1.415414	, 5 4
-1.40225	, 5 5	-0.2773685
-1	, 5 8	-0.3542518
-0.951216	. 5 0	-1.120617
-1.854306	. 5 1	-0.1018354
-1.280275	. 5 2	-0.6831757
-1.678215	. 5 3	-0.4228415
-2.256556	. 5 4	-0.007191695
-1.502123	. 5 5	-0.5179153
-1.823821	. 5 6	-0.1299109
-1.854306	. 5 7	0.1428944
-1.823821	. 5 8	0.1731889
-1.678215	. 5 9	-0.0468927
-0.1708087	. 5 </s>
-1.747853	0 5 .
-1.747853	0 5 0	-0.2116985
-1.747853	0 5 5	-0.1141464
-0.05368486	0 5 </s>
-1.20412	1 5 ,	-0.3505437
-1.150874	1 5 .	-0.03099396
-2.366038	1 5 /	-0.2229452
-0.6627578	1 5 0	-0.2232798
-2.379202	1 5 1
-2.379202	1 5 2
-1.963788	1 5 4	-0.1009946
-1.933303	1 5 5	0.2720852
-1.944596	1 5 6	-0.2656562
-1.787697	1 5 7	0.0264316
-2.366038	1 5 8	-0.2846395
-0.289386	1 5 </s>
-1.361728	1 5 t	0.3716111
-1.235528	2 5 ,	-0.4659371
-1.80956	2 5 .	-0.1690014
-0.7395219	2 5 0	-0.2208039
-2.21181	2 5 2	0.1938372
-2.21181	2 5 5	-0.2035239
-2.224974	2 5 6	-0.1095645
-2.21181	2 5 9	0.164679
-0.1786236	2 5 </s>
-1.457377	2 5 t	0.60206
-1.08636	3 5 ,	-0.3312385
-1.88655	3 5 .
-0.9102685	3 5 0	-0.9512707
-1.899714	3 5 1
-1.88655	3 5 3	-0.1706988
-1.4843	3 5 4	-0.1624894
-1.007179	3 5 5	0.1341125
-1.4843	3 5 6
-1.88655	3 5 7	0.04676402
-0.2801799	3 5 </s>
-1.38307	4 5 ,	-0.05868005
-1.38307	4 5 .	-0.1201179
-0.890378	4 5 0	0.3045907
-1.817676	4 5 2
-1.817676	4 5 5	-0.5548384
-0.1469889	4 5 </s>
-1.041393	5 5 ,	0.2372148
-1.166331	5 5 .
-1.311937	5 5 0	-0.1921255
-1.744673	5 5 4	-0.007191695
-1.744673	5 5 8
-0.1736307	5 5 </s>
-1.316845	6 5 ,	0.09357668
-1.74958	6 5 .	-0.2126532
-1.0463	6 5 0	-0.01049517
-1.762744	6 5 3	-0.5766864
-1.762744	6 5 8	-0.1545821
-0.14321	6 5 </s>
-1.484726	7 5 ,	-0.5733021
-1.496019	7 5 .
-0.9411801	7 5 0	-0.7681288
-1.930626	7 5 6	-0.1095645
-0.1172713	7 5 </s>
-1.443263	8 5 .
-1.142233	8 5 0	-0.5697099
-1.858677	8 5 5
-1.443263	8 5 7	-0.3557357
-1.858677	8 5 9	-0.1324738
-0.1008403	8 5 </s>
-1.531808	9 5 ,	0.4416941
-1.964543	9 5 .
-0.9882616	9 5 0	-1.058035
-1.964543	9 5 1	-0.3945628
-1.977707	9 5 3	-0.08132125
-1.964543	9 5 4	-0.393722
-1.543101	9 5 5	-0.2867495
-1.562293	9 5 6	-0.2274524
-1.964543	9 5 7	-0.3397663
-1.386202	9 5 8	-0.4961024
-1.386202	9 5 9	-0.473994
-0.2198702	9 5 </s>
-0.8925357	: 5 3
-0.8925357	: 5 7	-0.5829422
-0.8925357	: 5 8
-1.400995	<s> 5 ,	0.196529
-1.081215	<s> 5 .	1.044624
-1.570746	<s> 5 /	-0.2446998
-0.407429	<s> 5 0	-0.178513
-1.485316	<s> 5 1	-0.1721357
-1.470076	<s> 5 2	0.0519039
-1.702025	<s> 5 3	0.003684186
-1.5175	<s> 5 4	0.02376471
-1.309224	<s> 5 5	-0.2128744
-1.610255	<s> 5 6	-0.132439
-1.485316	<s> 5 7	0.06967908
-1.65372	<s> 5 8	-0.2350447
-1.891081	<s> 5 9	0.3617146
-2.311222	<s> 5 :	0.02675601
-0.744953	<s> 5 </s>
-1.891081	<s> 5 t	0.5228788
-0.4022502	' 6 0	-0.6430801
-0.6575017	, 6 0	-0.669079
-0.6766936	, 6 4
-1.092108	, 6 5
-1.092108	, 6 8
-0.9667591	. 6 0	-0.8485903
-1.624261	. 6 1	-0.06803032
-1.612967	. 6 2	-0.2600214
-2.045703	. 6 3	0.2781581
-1.20412	. 6 5	-0.5277312
-1.624261	. 6 6	0.06915985
-1.624261	. 6 8	-0.311457
-1.624261	. 6 9	0.1294183
-0.1886078	. 6 </s>
-1.591506	0 6 4	-0.2282543
-0.06214791	0 6 </s>
-1.41288	1 6 ,	0.02931661
-1.202027	1 6 .	-0.08514066
-1.139879	1 6 0	-0.5977525
-2.129325	1 6 2	-0.4682012
-1.537819	1 6 3	-0.009847268
-2.116161	1 6 4	-0.6303629
-1.71391	1 6 5	-0.162669
-2.129325	1 6 6	-0.07670596
-2.129325	1 6 8	-0.1388539
-0.1986991	1 6 </s>
-1.139879	1 6 t	0.4191293
-0.9352747	2 6 .	-0.1008884
-1.427966	2 6 0	-0.3577328
-1.146128	2 6 5	0.2913915
-1.849408	2 6 6	-0.2832716
-1.447158	2 6 8
-0.2363047	2 6 </s>
-1.094975	2 6 t	0.6232493
-1.657523	3 6 ,	0.0477092
-0.90309	3 6 .	-0.1219341
-0.8573325	3 6 0	-0.5888985
-1.670687	3 6 1
-1.657523	3 6 6	-0.2546572
-1.670687	3 6 7
-1.079181	3 6 8	0.008057764
-1.670687	3 6 9
-0.3258536	3 6 </s>
-1.17114	4 6 ,	-0.108307
-0.8893017	4 6 .	-0.03274941
-0.7923917	4 6 0	-0.5888985
-1.605746	4 6 2
-0.2609128	4 6 </s>
-1.476112	5 6 ,	-0.2494436
-1.462948	5 6 .	-0.2696233
-1.476112	5 6 6	-0.07670596
-1.476112	5 6 7
-1.476112	5 6 9	-0.01644747
-0.1713961	5 6 </s>
-1.012217	6 6 .
-1.446823	6 6 0
-1.446823	6 6 1	-0.2138961
-1.446823	6 6 2	-0.4682012
-0.1563472	6 6 </s>
-1.40225	7 6 ,	0.0477092
-1	7 6 .	-0.1696665
-1.415414	7 6 1
-0.139662	7 6 </s>
-1.396839	8 6 .	-0.1464397
-1.251233	8 6 2	-0.1607714
-1.842738	8 6 3	-0.01899464
-0.0849011	8 6 </s>
-2.071033	9 6 ,
-0.7952806	9 6 0	-0.9466134
-1.354589	9 6 1	-0.5719076
-1.479527	9 6 2	-0.5878727
-1.625133	9 6 3	-0.7062199
-1.636427	9 6 4	-0.4008574
-1.655619	9 6 5	-0.162669
-1.636427	9 6 6	-0.2493091
-0.9566486	9 6 7	-0.5625514
-2.071033	9 6 8	-0.1388539
-1.479527	9 6 9	-0.3579677
-0.3231801	9 6 </s>
-1.534474	<s> 6 ,	0.07175316
-0.9940709	<s> 6 .	0.9843414
-2.143671	<s> 6 /	0.08710023
-0.547439	<s> 6 0	-0.08326779
-1.560803	<s> 6 1	0.02367678
-1.486169	<s> 6 2	0.1105031
-1.618795	<s> 6 3	0.05733719
-1.560803	<s> 6 4	-0.0467727
-1.02456	<s> 6 5	-0.2635843
-1.463893	<s> 6 6	-0.05076144
-1.534474	<s> 6 7	0.1312789
-1.486169	<s> 6 8	-0.04096949
-1.463893	<s> 6 9	-0.0222764
-1.72353	<s> 6 :	-0.2945888
-0.715705	<s> 6 </s>
-1.534474	<s> 6 t	0.3679768
-0.1143844	' 7 0
-0.4771213	, 7 0	-0.8687413
-1.068627	, 7 3
-1.068627	, 7 5	-0.5434178
-1.055463	, 7 7
-1.068627	, 7 9
-1.275887	. 7 0	-0.6255953
-1.557725	. 7 1	0.1650587
-1.979167	. 7 2	-0.09198175
-1.979167	. 7 3	-0.2182472
-0.9485281	. 7 5	-0.6293629
-1.992331	. 7 6	-0.03556377
-1.557725	. 7 7	-0.2081669
-1.178977	. 7 8	-0.4181434
-1.224734	. 7 9	-0.1983676
-0.2344943	. 7 </s>
-1.721839	0 7 .
-1.306425	0 7 0	-0.06423392
-1.708675	0 7 2	-0.09198175
-1.721839	0 7 4	-0.02483989
-1.708675	0 7 5	-0.05969899
-1.721839	0 7 6	-0.03556377
-1.721839	0 7 7
-1.721839	0 7 :
-0.145057	0 7 </s>
-1.544068	1 7 ,	-0.1206789
-0.9604915	1 7 .	-0.16914
-1.700967	1 7 /	-0.6227062
-1.367977	1 7 0	-0.05827846
-1.720159	1 7 1	0.115032
-2.12241	1 7 2	0.2945485
-2.135574	1 7 3
-2.135574	1 7 4	-0.02483989
-1.367977	1 7 5	-0.3283329
-1.700967	1 7 6	0.2797907
-1.544068	1 7 8	0.3274616
-1.700967	1 7 9	0.3055096
-2.135574	1 7 :
-0.2577613	1 7 </s>
-1.243038	1 7 t	0.4988405
-1.83866	2 7 ,
-1.025306	2 7 .	-0.1767022
-1.83866	2 7 /
-0.8211859	2 7 0	-0.9208339
-1.83866	2 7 1	0.01919289
-1.83866	2 7 2
-1.423246	2 7 5	0.09438046
-1.83866	2 7 6	-0.5504736
-1.83866	2 7 9
-0.30103	2 7 </s>
-1.071063	2 7 t	0.6127838
-1.295567	3 7 ,	-0.1298859
-0.8562344	3 7 .	-0.1577035
-1.710981	3 7 0
-1.710981	3 7 5	0.02967853
-1.710981	3 7 9
-0.2163859	3 7 </s>
-1.697817	3 7 t	0.9271753
-1.12333	4 7 .	-0.1652643
-0.6766936	4 7 0	-0.280066
-0.9777236	4 7 5	0.1152596
-0.2934768	4 7 </s>
-0.9294189	5 7 .	-0.09666993
-1.520925	5 7 2	-0.002604234
-0.9294189	5 7 5	-0.3118417
-1.086318	5 7 8	-0.1869776
-1.520925	5 7 :
-0.2604122	5 7 </s>
-1.476112	6 7 .
-1.476112	6 7 0
-0.08297423	6 7 </s>
-1.415414	7 7 0	-0.2675838
-1.415414	7 7 8
-0.139662	7 7 </s>
-1.454295	8 7 .	-0.3740561
-1.875737	8 7 1	-0.07018463
-1.875737	8 7 2	-0.09198175
-0.9963657	8 7 5	-0.4880337
-0.09782336	8 7 </s>
-2.220146	9 7 .
-0.7387145	9 7 0	-1.167186
-2.220146	9 7 1	-0.07018463
-1.306012	9 7 2	-0.5525012
-1.273828	9 7 3	-0.7087299
-1.215836	9 7 4	-0.6590577
-1.641804	9 7 5	-0.3118417
-1.378563	9 7 6	-0.5185139
-1.78741	9 7 7	-0.722789
-1.465713	9 7 8	-0.4181434
-1.077533	9 7 9	-0.605853
-0.3785631	9 7 </s>
-1.664329	<s> 7 ,	0.1062911
-0.5942907	<s> 7 .	-0.1635017
-1.629566	<s> 7 /	-0.7066863
-0.7435098	<s> 7 0	-1.187871
-1.567418	<s> 7 1	0.04139268
-1.44248	<s> 7 2	0.3795565
-1.44248	<s> 7 3	0.01718325
-1.567418	<s> 7 4	0.3957672
-0.9511181	<s> 7 5	0.1131926
-1.597382	<s> 7 6	-0.09983185
-1.464756	<s> 7 7	0.001137007
-2.110965	<s> 7 8	0.4012827
-1.629566	<s> 7 9	0.1190528
-1.965358	<s> 7 :	-0.2706352
-0.8404198	<s> 7 </s>
-2.556864	<s> 7 B	0.03912396
-1.597382	<s> 7 t	0.4366926
-0.09691001	' 8 0	-0.2974212
-0.5392691	, 8 0	-0.858891
-1.031961	, 8 2
-1.031961	, 8 3	-0.1150974
-1.031961	, 8 4	-0.1431632
-1.051152	, 8 5	-0.1968927
-1.466567	, 8 6
-1.466567	, 8 7
-0.8750613	, 8 8	-0.1140076
-1.466567	, 8 9
-1.307496	. 8 0	-0.3838758
-1.404406	. 8 1	-0.2363871
-1.353253	. 8 2	-0.4798441
-1.404406	. 8 3	0.1812729
-1.353253	. 8 4	-0.02386095
-0.845098	. 8 5	-0.2694966
-1.686244	. 8 6	-0.01820402
-1.228315	. 8 7	0.1263632
-1.529345	. 8 8	-0.00578519
-1.674951	. 8 9	-0.4318762
-0.307496	. 8 </s>
-0.01046543	/ 8 </s>
-1.175082	0 8 .
-1.161918	0 8 8	0.6328878
-0.1576079	0 8 </s>
-1.514105	1 8 ,	0.07490659
-1.659711	1 8 .	-0.01243183
-0.8943161	1 8 0	-0.3138397
-2.105611	1 8 1
-1.671004	1 8 2	0.1704213
-1.659711	1 8 5	0.2935559
-1.671004	1 8 6	0.5204247
-1.671004	1 8 7	0.5412713
-1.659711	1 8 9	0.6125686
-2.092446	1 8 :	0.1595595
-0.2836559	1 8 </s>
-2.092446	1 8 s	-0.3594895
-1.116165	1 8 t	0.4679779
-1.781837	2 8 ,	-0.1860566
-1.347231	2 8 .	-0.1301523
-1.768673	2 8 0
-1.768673	2 8 2	0.2210776
-1.781837	2 8 4
-1.781837	2 8 5	0.08736407
-0.8223549	2 8 8	-0.2441252
-0.3057251	2 8 </s>
-0.8893017	2 8 t	0.5581545
-1.548378	3 8 ,
-0.9700368	3 8 .	-0.09210252
-1.548378	3 8 5	0.3845168
-1.548378	3 8 6	0.0650216
-1.561543	3 8 9	0.2553491
-0.20412	3 8 </s>
-1.619534	4 8 ,	-0.1860566
-1.173635	4 8 .	-0.2552027
-1.184928	4 8 0	-0.4298836
-1.173635	4 8 6	0.3664604
-1.619534	4 8 8
-0.2379782	4 8 </s>
-1.485452	5 8 ,
-1.070038	5 8 0	-0.3751684
-1.485452	5 8 6
-1.485452	5 8 8
-1.485452	5 8 9
-0.1949766	5 8 </s>
-0.8553172	6 8 .	-0.2008738
-1.446823	6 8 0
-1.446823	6 8 1
-0.1863104	6 8 </s>
-1.021189	7 8 .
-0.1318876	7 8 </s>
-1.630936	8 8 .
-1.630936	8 8 0	-0.2139816
-2.04635	8 8 4	-0.007959362
-2.04635	8 8 6	0.1543991
-0.05401916	8 8 </s>
-0.8432328	9 8 0	-0.9944487
-1.50081	9 8 1	-0.6438725
-1.564479	9 8 2	-0.7808741
-1.411869	9 8 3	-0.894316
-1.396075	9 8 4	-0.8741263
-1.161992	9 8 5	-0.9976461
-1.043892	9 8 6	-1.05555
-0.9347478	9 8 7	-1.218478
-0.7940148	9 8 8	-1.121112
-0.8747498	9 8 9	-0.8158727
-0.8303956	9 8 </s>
-1.506655	<s> 8 ,	-0.1350424
-0.6685061	<s> 8 .	0.5601685
-2.575282	<s> 8 /	-0.3856532
-0.6615573	<s> 8 0	-0.6754104
-1.807685	<s> 8 1	0.4790733
-1.807685	<s> 8 2	0.3179611
-2.129383	<s> 8 3	0.2843819
-1.720535	<s> 8 4	0.1121476
-1.6158	<s> 8 5	-0.03521469
-1.557808	<s> 8 6	0.4010744
-1.720535	<s> 8 7	0.7513303
-1.419505	<s> 8 8	0.4149168
-1.483174	<s> 8 9	0.4336326
-1.483174	<s> 8 :	-0.2652157
-0.5772364	<s> 8 </s>
-1.506655	<s> 8 t	0.3933442
-0.6532125	' 9 0	-0.5943835
-1.231554	' 9 4	-0.3540893
-1.244718	' 9 6	-0.3162761
-0.6532125	' 9 7	-0.702487
-0.6532125	' 9 8	-0.868305
-1.231554	' 9 9	-0.6394213
-0.5828681	, 9 0	-0.4183126
-1.017474	, 9 2
-1.017474	, 9 3
-1.017474	, 9 6	-0.5203961
-1.017474	, 9 8
-1.127645	. 9 0	-0.5791507
-1.428675	. 9 1	0.2043081
-2.02018	. 9 2
-1.165433	. 9 3	-0.4123492
-1.165433	. 9 4	-0.5191374
-1.092883	. 9 5	-0.4119885
-1.252583	. 9 6	-0.7058315
-1.585574	. 9 7	-0.2151009
-1.127645	. 9 8	-1.009735
-2.02018	. 9 9	-0.5500438
-0.3147313	. 9 </s>
-1.031961	0 9 ,	0.1589759
-1.453403	0 9 4	0.03244101
-1.031961	0 9 :	-0.1035625
-0.1908145	0 9 </s>
-2.144574	1 9 .	-0.08459434
-1.862028	1 9 0	-0.01541088
-2.59121	1 9 1	0.4897186
-1.993307	1 9 2	-0.3845316
-1.792392	1 9 3	-0.8156755
-1.580303	1 9 4	-0.5678482
-1.542514	1 9 5	0.1286747
-1.279273	1 9 6	-0.8709128
-1.053494	1 9 7	-1.370155
-0.4529034	1 9 8	-0.2228346
-0.4529034	1 9 9	-1.834287
-1.410842	1 9 </s>
-2.144574	1 9 t	0.4771213
-1.284431	2 9 ,	-0.02490438
-1.686681	2 9 .
-1.686681	2 9 /	0.3029817
-1.284431	2 9 0	0.2970826
-1.699845	2 9 1
-1.699845	2 9 9	-0.5500438
-0.2530223	2 9 </s>
-1.699845	2 9 s	0.03912396
-0.9322482	2 9 t	0.5910646
-1.626265	3 9 ,	-0.3176318
-1.047924	3 9 .	-0.03885701
-1.224015	3 9 0	0.2970826
-1.639429	3 9 3	-0.2682176
-1.047924	3 9 5	-0.2368634
-1.639429	3 9 6
-0.2350102	3 9 </s>
-1.050846	4 9 .
-1.485452	4 9 0	-0.09620054
-1.485452	4 9 5
-0.1280298	4 9 </s>
-0.8838981	5 9 .	-0.06863426
-0.1829307	5 9 </s>
-1.393138	6 9 ,
-1.379974	6 9 .	-0.2198971
-1.393138	6 9 4	-0.2647118
-0.1326256	6 9 </s>
-1.134623	7 9 .	-0.07488322
-1.569229	7 9 6	-0.3162761
-0.083777	7 9 </s>
-1.497789	8 9 .	-0.1889593
-1.528274	8 9 0	0.2970826
-1.943688	8 9 1
-0.06587578	8 9 </s>
-2.642014	9 9 ,
-1.92557	9 9 .	-0.180423
-0.803354	9 9 0	-1.279476
-1.138464	9 9 1	-0.9840119
-1.036268	9 9 2	-1.122647
-1.466932	9 9 3	-1.052198
-1.2266	9 9 4	-1.281265
-1.12109	9 9 5	-1.315078
-1.02248	9 9 6	-1.532958
-0.8841772	9 9 7	-1.714126
-0.9774016	9 9 8	-1.787886
-1.205411	9 9 9	-1.587281
-0.996151	9 9 </s>
-1.630089	<s> 9 ,	-0.1825076
-1.121933	<s> 9 .	-0.06397356
-1.380211	<s> 9 /	-0.1115775
-0.6600519	<s> 9 0	-0.6897599
-1.50515	<s> 9 1	0.3653023
-1.963079	<s> 9 2	-0.0921406
-1.40824	<s> 9 3	-0.1762041
-1.584331	<s> 9 4	-0.01648453
-1.222603	<s> 9 5	-0.5306823
-1.584331	<s> 9 6	-0.720045
-1.50515	<s> 9 7	-0.4402847
-1.40824	<s> 9 8	-0.8485425
-1.121933	<s> 9 9	-0.7363384
-1.951786	<s> 9 :	-0.3067093
-0.6252899	<s> 9 </s>
-1.353882	<s> 9 t	0.3357921
-0.2773115	Q 9 7	-0.4503443
-0.30103	0 : 0	0.389008
-0.8793715	0 : 3	0.1402544
-0.3273589	1 : 0	0.4999387
-1.043803	1 : 1
-0.609197	1 : 3	-0.01103257
-0.3679768	2 : 0	0.2136259
-0.9463183	2 : 1	-0.2064292
-0.9594825	2 : 3	-0.1568984
-0.9594825	2 : 5	-0.5367102
-0.8547471	3 : 0	0.1280448
-0.8547471	3 : 3
-0.4201408	3 : 4	-0.112366
-0.1760913	4 : 5
-0.1760913	5 : 0	0.01015684
-0.5915057	5 : 3
-0.8925357	6 : 0
-0.8925357	6 : 2
-0.4466361	6 : 3	0.1380571
-0.5118834	7 : 0	0.5213279
-0.5118834	7 : 3	0.04645151
-0.9272978	7 : 4
-0.9272978	7 : 5
-0.1856366	8 : 0	-0.4798441
-1.175082	8 : 1
-1.175082	8 : 2
-1.175082	8 : 3	-0.1568984
-1.175082	8 : 4	-0.4277205
-0.5248761	9 : 0	-0.04455835
-0.5248761	9 : 3	-0.01103257
-0.9594825	9 : 5
-0.01930515	<s> : </s>
-0.04139268	<s> ? </s>
-0.4154145	<s> @ S	0.03912396
-0.4991602	' A r	-0.2898865
-0.2596373	- A m	-0.07918123
-1.114384	- A r	-0.3151977
-1.114384	- A s	-0.3388124
-0.10721	. A .	-0.4788861
-0.7269987	. A </s>
-3.587367	<s> A &	-0.3594895
-2.016325	<s> A .	-0.1794551
-3.600531	<s> A 1	0.03912396
-3.600531	<s> A 3
-1.954668	<s> A </s>
-3.600531	<s> A A
-1.770144	<s> A B	-0.1899436
-3.009026	<s> A C	-0.1126239
-3.154632	<s> A D	-0.3213897
-3.587367	<s> A E	-0.5524668
-3.587367	<s> A F	-0.1229871
-2.310056	<s> A G	-0.8244209
-3.185117	<s> A H	-0.1738823
-3.009026	<s> A I	-0.4666097
-3.185117	<s> A K	-0.1819625
-2.707996	<s> A M	0.07964186
-3.165925	<s> A N	-0.3660444
-2.707996	<s> A O	-0.4149733
-2.556728	<s> A P	-0.6021453
-3.185117	<s> A R	-0.1808972
-2.745784	<s> A S	-0.5295072
-2.583057	<s> A T	-1.065817
-3.600531	<s> A Z	0.03912396
-2.707996	<s> A a	0
-1.387503	<s> A b	-0.5612407
-1.726479	<s> A c	-0.1247879
-1.524726	<s> A d	-0.2028557
-2.207393	<s> A e	-0.1317652
-1.248101	<s> A f	0.2486039
-1.280672	<s> A g	0.05865198
-2.054783	<s> A h	0.1055166
-1.499375	<s> A i	0.05597449
-2.389237	<s> A k	0.005440515
-1.039765	<s> A l	-0.08505046
-0.7590126	<s> A m	-0.3023741
-1.153709	<s> A n	0.0001582583
-2.508423	<s> A o	0.4413081
-1.55929	<s> A p	0.01533078
-3.587367	<s> A q
-0.9075078	<s> A r	0.1150245
-1.042102	<s> A s	-0.1335939
-1.669906	<s> A t	-0.1675395
-1.168084	<s> A u	0.01183855
-2.255698	<s> A v	-0.1738824
-2.745784	<s> A w	-0.3594895
-2.707996	<s> A x	0
-3.009026	<s> A y	-0.1317651
-2.324779	<s> A z	0.007630016
-0.1346986	A A </s>
-0.9894457	A A C
-0.2360892	B A </s>
-1.304716	B A C	-0.5845678
-1.291552	B A N
-0.8701098	B A R	-0.7063072
-0.7242759	C A </s>
-0.2057619	C A C	-0.8819942
-1.524466	C A L	-0.6294926
-1.122216	C A N
-0.1706962	D A </s>
-1.415414	D A L
-1.415414	D A M	-0.3200246
-1.415414	D A Q	0.03912396
-0.9808081	D A R	-0.3923733
-0.5228788	E A </s>
-0.6684848	E A N	-1.00725
-0.69897	E A S	-0.5452608
-1.114384	E A T
-0.4101745	F A </s>
-1.369657	F A A	-0.02219979
-0.3258536	F A W	0
-0.3590219	G A </s>
-0.50515	G A F	-0.7781513
-1.059989	G A G	-0.7152219
-1.494596	G A O	-0.5477564
-1.481431	G A T	-0.6729156
-0.2108534	H A </s>
-0.9272978	H A D
-0.04984637	I A </s>
-1.140927	I A F	-0.76166
-1.732432	I A T	-0.5460644
-0.5915057	J A P	-0.5647798
-0.5915057	J A R	-0.5748552
-0.07918125	L A </s>
-0.3357921	M A </s>
-0.7824281	M A C	-0.6339717
-0.7937214	M A N
-1.198292	N A </s>
-1.632898	N A D
-1.217484	N A L	-0.09869506
-0.4393327	N A S	-1.19124
-0.3424227	N A T	-1.287669
-0.04034324	O A </s>
-1.893612	O A N	-0.4094022
-1.460876	O A S	-1.19727
-0.1064553	P A </s>
-1.161918	P A N	-0.02287189
-0.5715748	R A </s>
-0.5828681	R A L	-0.1534103
-1.017474	R A N
-0.1423128	S A </s>
-1.632699	S A A	-0.1115773
-1.230449	S A C	-0.380854
-1.645863	S A L
-0.9294189	S A R	-0.8108203
-0.30103	T A </s>
-0.7164444	T A L	0.01919289
-0.6797781	U A A	-0.1948029
-0.1870866	U A L	-0.5307041
-0.0234811	V A </s>
-0.30103	W A </s>
-0.7164444	W A R
-0.1143844	_ A g	0.3580114
-0.4022502	c A l	-0.2501379
-0.04575749	p A s	-0.7425813
-0.2773115	& B </s>
-0.02996322	' B r	-0.9007957
-0.1143844	- B a
-0.1143844	. B .	-0.0843477
-0.1143844	7 B </s>
-3.502574	<s> B &	0.03912396
-2.309009	<s> B .	0.1114549
-2.734977	<s> B </s>
-2.734977	<s> B A	-0.338784
-1.88304	<s> B B	-0.903833
-3.48941	<s> B C	-0.2965712
-3.067968	<s> B M	-0.4156032
-2.647827	<s> B N	-0.2632414
-3.502574	<s> B P	0.03912396
-3.067968	<s> B S	-0.4326365
-3.08716	<s> B U
-0.5595301	<s> B a	0.1970242
-0.7791295	<s> B e	0.06175055
-3.502574	<s> B h
-1.160303	<s> B i	-0.1037241
-1.516034	<s> B l	-0.4343147
-0.9584377	<s> B o	-0.1663546
-0.8657458	<s> B r	0.01345874
-0.7457255	<s> B u	-0.01126864
-2.575277	<s> B y	0.2486047
-1.238882	A B </s>
-1.238882	A B B	-0.4152681
-0.08761442	A B C	0.1909828
-1.384488	A B M	-0.266423
-1.242071	B B </s>
-0.05714289	B B C	0.3125679
-1.676677	B B I	-0.5864483
-1.791078	C B O	-0.5308718
-0.01393578	C B S	-0.6674529
-0.006630579	F B I	-0.4578161
-0.2632414	G B </s>
-0.4393327	G B H	-0.01514902
-0.05115252	H B O	-0.3899711
-0.7715207	I B </s>
-0.69897	I B E	-0.5898256
-0.2218488	I B M	-0.5850266
-0.2060545	M B </s>
-0.5392691	M B A	-0.736525
-1.466567	M B E	-0.4814437
-1.45736	N B </s>
-1.468653	N B A	-0.3914159
-0.04458213	N B C	0.07626325
-0.243038	R B -	0.03912391
-0.6584525	R B A	-0.5741478
-0.1047354	S B </s>
-0.9463183	S B C	1.439873
-0.2904757	T B </s>
-0.1143844	U B S	0.7047989
-0.6452883	a B a	-0.5408813
-0.243038	a B o	-0.6782203
-0.2773115	c B r	-0.410313
-0.3674548	e B a	-0.5983436
-0.8001902	e B r	-0.5530281
-0.07771811	' C o	-0.6842164
-0.8415829	- C h	0.1272166
-0.4088475	- C o	-0.5060284
-0.1149545	. C .	0.1845244
-0.7303784	. C </s>
-1.446823	. C a
-3.196821	<s> C $	-0.09265325
-2.719699	<s> C .	0.4607308
-3.071882	<s> C </s>
-3.342427	<s> C A	-0.3018254
-2.001844	<s> C B	0.01736454
-2.594761	<s> C C	-0.623627
-3.071882	<s> C D	-0.2494591
-3.775162	<s> C H	-0.2521321
-2.175632	<s> C I	-1.048219
-3.35372	<s> C K	-0.1667742
-3.788327	<s> C L	-0.4885722
-1.838251	<s> C N	-0.4765703
-2.933579	<s> C O	-0.2723881
-3.071882	<s> C P	-0.3932151
-3.35372	<s> C R	-0.03910566
-3.372912	<s> C S	-0.1738823
-2.512574	<s> C T	-0.330074
-3.788327	<s> C W	0.03912396
-0.9513081	<s> C a	-0.2741736
-1.620864	<s> C e	-0.129847
-0.4252333	<s> C h	-0.3588182
-1.573571	<s> C i	-0.1039549
-1.342515	<s> C l	0.02459992
-3.775162	<s> C n	0.01276888
-0.4851541	<s> C o	-0.1927693
-1.793128	<s> C r	0.002827572
-1.620864	<s> C u	0.0844948
-2.861029	<s> C y	-0.1095631
-2.895791	<s> C z	0
-0.1102155	A C </s>
-1.576782	A C H	-0.5492849
-1.576782	A C L	-0.4885722
-1.563618	A C a	-0.6820568
-0.003265387	B C </s>
-2.239866	B C C	-0.4082406
-0.4542584	C C </s>
-1.381556	C C A	-0.5054237
-0.3640817	C C P	-0.7355989
-0.9469498	C C T	-0.6871642
-0.04139268	D C </s>
-0.02864518	E C </s>
-1.773318	E C D	-0.5095173
-1.786482	E C U	-0.3772322
-0.2773115	H C R	-0.2876686
-1.001997	I C </s>
-1.42344	I C A	-0.2649985
-0.9907041	I C C	-1.095466
-1.436604	I C H
-0.2615215	I C O	-0.8911908
-0.01703334	L C </s>
-1.12241	M C </s>
-0.7009674	M C A	-0.6780268
-0.3679768	M C I	-0.7588461
-1.135574	M C V	0.03912396
-0.5715748	N C </s>
-1.017474	N C H	-0.4498941
-1.017474	N C N	-0.5828095
-0.03218468	O C </s>
-1.72447	O C I	0.02125686
-1.737634	O C N	-0.5914713
-0.1346986	P C </s>
-0.9762815	P C C	-0.4976181
-0.004695121	R C </s>
-0.4704907	S C </s>
-0.2218488	S C I	-1.360906
-1.626268	S C O	-0.1072106
-0.449969	T C </s>
-0.2738777	T C A	-1.108233
-1.17114	T C H	-0.6224972
-0.1143844	U C L	-0.4885722
-0.2714747	c C a	-0.6028898
-0.6471384	c C l	-1.101023
-0.6751671	c C o	-0.7904434
-0.03778856	d C o	-0.9607961
-0.1143844	e C o
-0.4022502	i C o	-0.2935014
-0.04575749	m C l	-0.9764126
-0.1568993	r C a	-0.6724152
-0.2904757	u C o	-0.5960181
-0.09691001	' D o	-0.4913168
-0.2125528	. D .	-0.8938684
-3.277022	<s> D &	-0.3594895
-2.874772	<s> D '	-0.01514902
-1.49456	<s> D .	0.0696895
-2.874772	<s> D </s>
-2.476832	<s> D A	-0.2937077
-2.573742	<s> D C	0.08715019
-3.290186	<s> D E	-0.5035819
-3.290186	<s> D I
-3.290186	<s> D M	0.03912396
-3.290186	<s> D O
-1.864048	<s> D P	-1.359614
-3.277022	<s> D R	0.6551642
-3.290186	<s> D V	0.03912396
-0.6672719	<s> D a	-0.1899214
-0.3645619	<s> D e	0.007394499
-2.476832	<s> D h	0.03912409
-1.004075	<s> D i	-0.0009536927
-2.844286	<s> D j	-0.8711884
-2.85558	<s> D m	0.01670758
-1.078892	<s> D o	-0.2003742
-1.349727	<s> D r	-0.3594897
-1.318469	<s> D u	-0.02242244
-2.85558	<s> D w	-0.3286991
-2.09662	<s> D y	0
-0.3357921	A D </s>
-0.9141336	A D N	-0.04878649
-0.4771213	C D </s>
-0.8925357	C D C	0.4451616
-0.4579293	C D L	-0.3565663
-0.8925357	E D </s>
-0.4579293	E D E	-0.4477248
-0.4771213	E D T	-0.01514902
-0.09017663	F D A	-0.9432471
-1.318504	F D I	-0.5149078
-0.90309	F D R	0.2401235
-0.4154145	G D R	0.3580114
-0.2773115	I D S	0.4605195
-0.8547471	J D A
-0.08715018	J D S	0.146128
-1.211294	L D </s>
-0.79588	L D I	-0.4588465
-0.1191864	L D P	-1.131888
-0.2125528	M D </s>
-0.9141336	N D </s>
-0.3357921	N D O	-0.8330159
-0.9272978	N D U	-0.2843839
-0.4154145	R D F	0.03912396
-0.5783415	S D </s>
-0.5915057	S D A	-0.5792153
-0.4393327	U D </s>
-0.4088475	U D N	-0.6466342
-1.135574	V D </s>
-0.04346569	V D O	-0.8081145
-0.1139434	c D o	-1.233953
-0.6667853	c D u	-1.114155
-0.4022502	h D </s>
-0.2773115	. E .	0.5662231
-2.118839	<s> E .	-0.1124222
-3.210947	<s> E A	-0.499321
-2.397593	<s> E C	0.02829024
-2.77634	<s> E D	-0.274274
-3.210947	<s> E I	-0.3856532
-2.14232	<s> E M	-0.3369553
-2.795532	<s> E N	-0.09528906
-2.397593	<s> E P	0
-2.77634	<s> E S	-0.3254265
-2.619441	<s> E T	-0.2359217
-1.892442	<s> E U	0
-3.197783	<s> E V	-0.1705637
-3.210947	<s> E Z	0.03912396
-0.7348346	<s> E a	0.007629853
-3.210947	<s> E b	0.03912396
-1.290383	<s> E c	-0.1819299
-1.185405	<s> E d	0.1925335
-1.429109	<s> E g	-0.4343137
-1.397592	<s> E h	-0.007574566
-1.528361	<s> E i	0.0754455
-3.210947	<s> E k	0.03912396
-1.098739	<s> E l	-0.1012458
-1.74438	<s> E m	0.1925336
-0.8870474	<s> E n	-0.004422993
-2.44335	<s> E p	0.00441018
-2.167144	<s> E q	0
-1.463094	<s> E r	0.007629945
-1.774343	<s> E s	-0.06861345
-1.817809	<s> E t	-0.1153992
-0.9876593	<s> E u	-0.2225572
-1.53427	<s> E v	-0.1738824
-3.210947	<s> E w	0.03912396
-0.9910523	<s> E x	-0.1137673
-3.197783	<s> E z	0.01276888
-0.5783415	A E G	-0.4666097
-0.5915057	A E L	-0.2952011
-0.1413292	B E </s>
-0.6340206	B E R	-0.2512196
-0.7164444	D E A	-0.4413291
-0.2818381	D E R	-0.6857107
-0.2818381	F E D	-0.5828193
-0.7032802	F E M	-0.654615
-0.03891807	G E </s>
-1.357422	G E R	-0.5665741
-0.39794	H E </s>
-0.8001902	H E V	-0.1705637
-0.7164444	I E </s>
-0.7164444	I E S	-0.3921111
-0.7164444	I E T
-0.4154145	K E </s>
-0.4154145	K E R	-0.4712923
-0.5915057	L E </s>
-0.3357921	M E </s>
-0.5118834	M E R	-0.1742064
-0.9272978	M E S	-0.3921111
-0.8133544	N E </s>
-0.8133544	N E R
-0.39794	N E S	-0.5035819
-0.4201408	O E </s>
-0.8547471	O E A	-0.4413291
-0.8415829	O E C	-0.6782269
-0.008433168	P E C	-0.5210267
-0.4771213	R E </s>
-0.4771213	R E A	-0.1583097
-1.068627	R E C	0.5987455
-1.068627	R E S
-0.845098	S E </s>
-0.9907041	S E A	-1.178578
-0.2082759	S E C	-0.2363871
-1.436604	S E F	0.03912396
-0.09691001	T E </s>
-0.9894457	T E D	-0.5367102
-0.2904757	V E </s>
-0.1143844	Y E R
-0.1143844	c E l	-0.5928976
-2.406075	<s> F .	0.03778853
-3.260823	<s> F 1
-2.243348	<s> F </s>
-2.146438	<s> F A	-0.5463598
-1.641288	<s> F B	0.006630567
-1.942318	<s> F D	0.441308
-2.544378	<s> F E	-0.1819299
-2.669317	<s> F H	-0.09265325
-2.826216	<s> F I	-0.1438902
-3.260823	<s> F R
-2.826216	<s> F T	-0.3738732
-3.260823	<s> F X	0.03912396
-1.040928	<s> F a	-0.04835351
-0.8486776	<s> F e	0.02644636
-0.7790822	<s> F i	-0.1504767
-1.049528	<s> F l	-0.1819305
-3.260823	<s> F m	0.03912396
-0.7753703	<s> F o	0.08370405
-0.6502006	<s> F r	-0.1099852
-2.826216	<s> F t	0.01670758
-1.257136	<s> F u	0.05577528
-0.20412	A F </s>
-0.4771213	A F P	0.2762064
-0.1143844	D F </s>
-0.1143844	E F </s>
-0.6584525	I F A	-0.3823512
-0.6452883	I F O	-0.3594895
-0.6584525	I F T	-0.4885722
-0.04575749	J F K	0
-0.1143844	M F </s>
-0.8925357	N F I	-0.4885722
-0.1249387	N F L	0.07918123
-0.03476211	O F A	-0.9000635
-0.06694679	P F P	0.2926976
-0.2904757	W F P	0.6342179
-0.2773115	e F e	-0.5084302
-0.01772877	& G </s>
-0.2904757	' G r	-0.4164199
-0.2773115	. G .	-0.08354859
-2.324124	<s> G .	-0.08370575
-2.396675	<s> G </s>
-2.023094	<s> G A	-0.4225043
-2.836007	<s> G D	0.00762998
-1.97567	<s> G E	-0.378805
-2.816816	<s> G I	-0.5337029
-2.233948	<s> G M	0.07463362
-1.836007	<s> G O	-0.4930755
-2.836007	<s> G P	-0.01514902
-3.238258	<s> G R	0.01336141
-2.396675	<s> G T	0
-0.777202	<s> G a	0.1241372
-3.238258	<s> G b	-0.3594895
-0.6224897	<s> G e	-0.2336839
-2.324124	<s> G h	-0.5389194
-1.384989	<s> G i	-0.1402805
-1.756826	<s> G l	-0.3505348
-0.7965934	<s> G o	0.1344676
-0.7724864	<s> G r	0.00466434
-0.8571424	<s> G u	-0.1281665
-3.238258	<s> G w	0.01276888
-2.836007	<s> G y	-0.01514902
-0.1583625	A G </s>
-0.9350506	A G E	0.2981126
-0.9350506	A G I	-0.5337029
-0.4022502	E G </s>
-0.2773115	I G </s>
-0.07771811	K G B	-0.4264115
-0.1143844	M G M	0.6825225
-0.8001902	N G O	-0.6693062
-0.8133544	N G R
-0.1026623	P G A	-0.9542425
-0.2904757	R G i	-0.499321
-0.07771811	T G A	-0.7292581
-0.09691001	W G B	-0.5178244
-0.7032802	c G r	-0.5707383
-0.7032802	c G u	-0.6417271
-0.4022502	i G </s>
-0.1143844	' H a	-0.4776054
-0.2904757	- H a
-0.1568993	. H .	0.5212004
-2.008858	<s> H .	0.07255066
-3.327562	<s> H </s>
-3.340727	<s> H A
-2.624282	<s> H B	0
-3.340727	<s> H I
-2.57313	<s> H K	0.04575749
-2.749221	<s> H O	-0.2657433
-3.340727	<s> H Q	0.03912396
-3.340727	<s> H R	-0.3856532
-3.327562	<s> H S	-0.5201311
-2.90612	<s> H U	-0.1153991
-0.6408814	<s> H a	-0.2751082
-0.9686635	<s> H e	-0.004537841
-1.139982	<s> H i	-0.07557824
-3.340727	<s> H n	0.03912396
-0.5183464	<s> H o	-0.08635854
-1.064974	<s> H s	0
-0.7714972	<s> H u	-0.1042633
-2.894827	<s> H w	0.02493686
-2.129432	<s> H y	0.1025991
-0.4022502	A H </s>
-0.09691001	B H </s>
-0.5435461	C H </s>
-0.9894457	C H E	-0.5213265
-0.9894457	C H T	-0.3856532
-0.06694679	F H A	-0.522778
-0.2773115	I H </s>
-0.7032802	N H C	-0.3594895
-0.7164444	N H T	-0.3856532
-0.2904757	P H I
-0.544068	S H </s>
-0.9594825	S H E
-0.9463183	S H I
-0.544068	S H V	-0.01514902
-0.09691001	T H E	-0.4922703
-0.1143844	V H </s>
-0.2904757	W H O	-0.5149078
-0.2125528	b H u	-1.265006
-0.1143844	m H A	-0.1812577
-0.5915057	- I r	0.3575516
-0.5783415	- I s	0.4569677
-0.2904757	. I .	-0.2282543
-2.939849	<s> I .	0.2139123
-1.9929	<s> I </s>
-2.78295	<s> I A	-0.9051639
-1.959041	<s> I B	-1.20412
-3.374456	<s> I G	-0.270112
-1.927633	<s> I I	0.002660259
-3.361292	<s> I M	-0.1705637
-2.959041	<s> I N	-0.1617956
-3.374456	<s> I O	-0.5492849
-3.361292	<s> I Q	-0.3594895
-1.845098	<s> I R	-0.7294756
-2.959041	<s> I S
-2.606859	<s> I T	-0.4212465
-3.361292	<s> I a	0.01276888
-2.305829	<s> I b	-0.4343136
-2.78295	<s> I c	-0.3594895
-2.305829	<s> I d	-0.3594895
-3.374456	<s> I f	0.03912396
-2.658011	<s> I g	0.1291206
-2.959041	<s> I h	0.00762998
-3.374456	<s> I i	0.03912396
-2.928556	<s> I k	-0.8711884
-1.907889	<s> I l	-0.1025132
-1.57433	<s> I m	0.1418534
-0.5030552	<s> I n	0.05978745
-2.38501	<s> I o	0
-0.5870505	<s> I r	0.1465158
-0.5559209	<s> I s	-0.03532745
-1.669007	<s> I t	0.0136335
-2.218679	<s> I v	0.01276891
-3.374456	<s> I w	0.03912396
-3.374456	<s> I z
-0.7032802	A I D	-0.3594895
-0.7032802	A I W	-0.3594895
-0.01930515	B I </s>
-1.652204	B I E	-0.5035819
-0.3705018	C I </s>
-0.2825466	C I A	-1.027193
-1.860888	C I C	-0.2535422
-0.3521825	D I </s>
-0.767597	D I A
-0.767597	D I C	-0.5506949
-0.4154145	E I N	-0.469898
-0.6584525	F I B	-0.5157115
-0.6584525	F I F	-0.4885722
-0.6584525	F I V	-0.2843839
-0.3787481	G I O	-0.5469854
-0.3787481	G I P	-0.3708942
-0.04061785	I I </s>
-1.146128	I I I	0.335099
-0.05115252	J I B	-0.8737229
-0.4991602	K I I	0.3636095
-0.5123245	K I P	-0.5237606
-0.8925357	L I </s>
-0.8793715	L I F	-0.5741732
-0.4771213	L I N	-0.587786
-0.39794	M I </s>
-0.8001902	M I T	-0.2537971
-0.8133544	N I </s>
-0.8001902	N I A	0.279227
-0.8133544	N I C
-0.8001902	N I H	-0.3594895
-0.4771213	P I </s>
-0.4466361	P I C	-1.236654
-0.7303784	R I </s>
-0.2355285	R I C	-1.310835
-1.446823	R I E	-0.5035819
-1.446823	R I L	-0.2843839
-1.446823	R I R	-0.5837681
-1.446823	R I S	-0.5308718
-0.2818381	S I </s>
-0.3405385	T I </s>
-0.5488145	T I B	-1.049218
-1.462948	T I N
-0.8846066	T I O	-0.7914143
-0.07918125	V I A	-0.07655712
-0.767597	W I F	-0.4885722
-0.3329906	W I I	0.2803838
-0.07771811	c I n	-0.5278201
-0.04139268	- J a	-0.6738309
-0.02482358	. J .	-0.1330566
-3.345344	<s> J &	0.03912396
