
\data\
ngram 1=129
ngram 2=2216
ngram 3=9185
ngram 4=23881
ngram 5=37170
ngram 6=42795

\1-grams:
-4.034536	!	-2.644031
-3.112566	"	-4.168658
-5.013657	#	-1.604847
-3.52344	$	-3.46559
-3.579349	%	-2.900123
-5.0604	&	-0.5886666
-2.338103	'	-3.087268
-3.551564	(	-3.058471
-3.544286	)	-3.065745
-4.29392	*	-0.8557988
-5.288879	+	-0.6252427
-2.033663	,	-4.643077
-2.627431	-	-1.483973
-1.972046	.	-2.868555
-3.949504	/	-0.7982907
-2.884046	0	-3.081166
-2.983115	1	-3.266322
-3.261687	2	-2.814274
-3.419873	3	-2.505216
-3.526028	4	-2.649775
-3.38433	5	-2.997804
-3.569995	6	-2.987255
-3.546698	7	-2.865697
-3.44259	8	-2.558309
-3.203891	9	-2.386431
-3.510172	:	-2.275518
-3.753975	;	-3.531205
-5.323641	<	-1.069338
-0.7103001	</s>
-99	<s>	-4.503811
-4.877778	=	-0.9494285
-5.288879	>	-2.002089
-3.210953	?	-2.450098
-4.740065	@	-1.037581
-2.887346	A	-1.86843
-3.238916	B	-2.205432
-3.5074	C	-1.596217
-3.470095	D	-1.751083
-3.418071	E	-1.199958
-3.458587	F	-2.116802
-3.683077	G	-1.685933
-3.25422	H	-2.068154
-2.583773	I	-2.640582
-3.849547	J	-1.894006
-4.44858	K	-1.224753
-3.688493	L	-1.510349
-3.084968	M	-2.11266
-3.421004	N	-1.935843
-3.405218	O	-1.449178
-3.324729	P	-1.821579
-4.84652	Q	-1.222101
-3.538905	R	-1.892044
-3.057253	S	-1.813888
-2.673091	T	-2.557267
-3.564288	U	-1.639915
-4.021708	V	-2.741071
-3.075771	W	-2.411827
-5.288879	X	-0.9301725
-3.585588	Y	-2.13569
-4.947978	Z	-0.8522592
-4.897673	[	-2.086268
-5.703853	\	-1.041371
-4.884309	]	-2.373541
-5.703853	^	-0.6889582
-4.580001	_	-0.7467749
-2.978186	`	-4.009683
-1.220669	a	-3.111756
-1.977925	b	-3.036057
-1.648039	c	-3.043264
-1.54345	d	-2.820397
-1.02621	e	-3.360396
-1.785717	f	-2.856059
-1.807988	g	-2.754555
-1.416085	h	-3.595171
-1.26351	i	-3.633504
-2.984273	j	-3.143168
-2.240916	k	-2.76534
-1.508762	l	-3.39108
-1.747886	m	-2.778051
-1.264242	n	-3.220428
-1.228261	o	-3.317351
-1.800958	p	-3.022961
-3.208031	q	-3.388313
-1.336555	r	-3.364671
-1.297275	s	-3.322416
-1.142114	t	-3.388161
-1.677904	u	-3.075917
-2.085899	v	-4.241663
-1.867719	w	-2.891997
-2.831289	x	-2.735429
-1.834962	y	-3.037592
-3.239363	z	-2.25754
-4.933001	{	-1.392267
-4.925702	}	-1.691207
-4.871344	~	-1.862528
-5.925702	Ä	-0.4560775
-5.226731	É	-1.491359
-6.101793	Ü	-0.6989697
-6.703853	à	-0.6812412
-6.703853	â	-0.5871181
-6.402823	ä	-0.5870076
-6.004883	å	-1.380209
-6.004883	è	-0.5359723
-6.226731	ê	-0.3612559
-6.402823	ë	-0.2819498
-6.101793	í	-0.604847
-6.004883	ñ	-1.380211
-6.004883	ó	-2.134029
-6.402823	ô	-0.578643
-6.703853	ö	-0.5871181
-6.703853	õ	-0.6810941
-6.004883	†	-0.4368662
-6.703853	°	-0.5871181
-6.402823	•	-0.5868228
-6.703853	≤	-0.6765847
-6.226731	∂	-0.6015768
-5.800763	∑	-0.8601195
-6.703853	∏	-0.6812407
-5.226731	ª	-1.397239
-6.004883	º	-0.5327432
-6.402823	ø	-0.3760727
-5.800763	¬	-0.9542418
-5.66246	√	-0.8913882
-6.703853	À	-0.6812411
-6.703853	Ÿ	-0.681241
-5.527761	‚	-1.72618
-5.172374	„	-1.544065
-6.703853	‰	-0.6812412
-5.858755	Ô	-0.9015855

\2-grams:
-0.7885033	! !	0.6007653
-2.60535	! *	-0.3910237
-2.067257	! .	0.9764315
-0.09412903	! </s>
-1.715074	! ?	1.547086
-0.0001113147	" </s>
-3.692745	" m
-0.008773924	# </s>
-3.28187	$ 6
-0.009857574	$ </s>
-1.976293	$ >	0.1845244
-1.976293	$ B	-1.223092
-3.28187	$ W
-3.225962	% 9
-2.124504	% </s>
-3.225962	% B
-3.225962	% E
-1.332113	% a	-1.789748
-1.180022	% e	-1.943715
-0.9341725	% h	-2.097534
-1.353652	% m	-1.767274
-3.225962	% o
-2.522444	% p	-0.6988668
-0.1467806	% u	-2.950849
-0.6434527	& </s>
-1.74491	& B
-0.6892102	& D	-0.9640743
-1.74491	& I
-1.041393	& L	-0.5394389
-1.291429	& M	-0.2734167
-1.579486	& P
-1.74491	& a
-1.74491	& c
-1.579486	& e	-0.5524758
-1.291429	& o
-1.041393	& p	-0.4859849
-1.74491	& r
-1.74491	& t
-1.74491	& u
-0.9434885	' '	-3.354709
-4.301784	' 0	-0.5522261
-4.467207	' 4
-4.467207	' 5
-3.76369	' 6	-0.2993861
-4.301784	' 7	-0.5014794
-3.669981	' 8	-0.6355388
-2.934386	' 9	-0.2434741
-0.8414837	' </s>
-4.013727	' I	-0.2853509
-3.76369	' N	-0.6893542
-3.669981	' S	-0.5273505
-4.301784	' T
-3.324357	' a	-0.7937855
-4.467207	' b
-4.301784	' c	-0.5417489
-1.95413	' d	-2.060568
-4.467207	' i
-1.566409	' l	-2.731751
-1.444584	' m	-2.851465
-3.286569	' n	-0.8181249
-4.467207	' o
-1.274083	' r	-2.965883
-0.3751448	' s	-3.425043
-0.7906777	' t	-3.448647
-1.55957	' v	-2.271259
-0.0003057336	( </s>
-0.0003006539	) </s>
-0.3417473	* *	0.1178324
-1.807873	* ,	1.012179
-2.345967	* .	0.785431
-0.4961193	* </s>
-2.05791	* A	-0.4753796
-2.345967	* D	-0.4733805
-2.511391	* E
-2.345967	* M	-0.487055
-2.345967	* Y
-2.05791	* \	0.4206794
-1.761341	* a	-0.3874457
-2.345967	* b
-2.511391	* c
-2.345967	* d	-0.5358316
-2.511391	* j
-2.511391	* l
-1.36854	* o	-0.9931674
-2.05791	* p
-2.511391	* r
-1.761341	* s	-0.3407562
-2.05791	* t	-0.1465299
-2.345967	* u
-1.06295	+ +	0.01521769
-0.30103	+ </s>
-1.351007	+ S
-1.516431	+ b
-1.351007	+ c	-0.4590557
-1.516431	+ h
-1.516431	+ i
-1.516431	+ r
-1.516431	+ u
-1.516431	+ w
-3.7671	, ,	0.8565931
-1.846716	, 0	-1.864049
-3.27225	, 1	-0.5770377
-3.391437	, 2	-0.7139441
-3.193069	, 3	-0.5262194
-3.178828	, 4	-0.5824721
-3.101989	, 5	-0.7821073
-3.391437	, 6	-0.226394
-3.414918	, 7	-0.3457207
-3.079126	, 8	-0.8648276
-3.46607	, 9	-0.1750989
-0.008528899	, </s>
-4.606224	, ^	-0.2600669
-4.17788	- $
-0.8411461	- -	-2.527229
-3.380653	- 0	-0.3643877
-2.58506	- 1	-1.340473
-4.012455	- 3
-4.17788	- 8
-4.17788	- 9
-0.1475143	- </s>
-4.17788	- ?
-3.474362	- A
-3.42783	- B	-0.4159915
-3.724399	- C	-0.1982629
-4.012455	- D
-4.012455	- E	-0.5310131
-4.17788	- F
-4.17788	- G
-4.17788	- H
-4.012455	- J
-4.17788	- K
-3.42783	- L	-0.9136998
-3.380653	- M	-0.4439592
-2.997241	- O	-1.059338
-3.380653	- P	-0.3088505
-2.962479	- R	-0.809334
-3.381777	- S	-0.3495615
-4.17788	- T
-4.17788	- W
-2.377452	- a	-0.6655296
-2.797668	- b	-0.4897844
-2.12218	- c	-0.7390783
-2.336059	- d	-1.133181
-2.152143	- e	-1.198273
-2.645058	- f	-0.7069038
-2.614024	- g	-0.6311901
-1.245833	- h	-2.338721
-2.520119	- i	-0.5417006
-3.173332	- j	-0.9412097
-4.17788	- k
-2.754203	- l	-0.3729313
-2.474362	- m	-1.077143
-2.696211	- n	-1.103017
-1.955848	- o	-1.062298
-2.263509	- p	-0.7410455
-3.474362	- q	1.334454
-2.544943	- r	-0.7401946
-2.038996	- s	-0.906137
-2.474362	- t	-0.6450849
-3.12218	- u	-0.7193533
-2.845973	- v	-1.145262
-2.696211	- w	-0.597315
-4.012455	- x
-4.17788	- y
-4.17788	- z
-4.17788	- √
-3.731806	. !	0.9903147
-4.833264	. -
-1.713522	. .	-0.9489183
-2.892957	. 0	0.08046947
-2.645447	. 1	-0.4309251
-2.702422	. 2	-0.4018154
-2.745034	. 3	-0.208895
-2.758678	. 4	-0.2420461
-2.514322	. 5	-0.473709
-2.702422	. 6	-0.5799519
-2.834179	. 7	-0.3772324
-2.573444	. 8	-0.1953557
-2.772765	. 9	-0.5848058
-0.02015929	. </s>
-4.833264	. =
-4.833264	. >
-4.129746	. ?	1.316809
-3.731806	. @	-0.25256
-4.66784	. C
-4.083214	. D	-0.9132825
-4.66784	. J
-4.833264	. N
-4.833264	. O
-4.379783	. R	-0.6200446
-3.828716	. S	-0.9532615
-3.389384	. a	-0.8323871
-4.66784	. b
-2.519619	. c	-2.008778
-4.379783	. d	-0.5986261
-3.617863	. e	-0.8128988
-4.66784	. f	-0.5343433
-4.129746	. g	-0.1565143
-3.617863	. h	-1.104142
-4.129746	. i	-0.05121337
-4.833264	. k
-3.777564	. m	-0.5749643
-3.777564	. n	-0.3497872
-4.833264	. o
-4.037161	. p	-0.3195732
-4.833264	. q
-3.476534	. s	-0.4970419
-4.833264	. t
-4.833264	. v
-4.129746	. w	-0.3804637
-0.9550078	/ /	-0.9681081
-2.402325	/ 0
-1.277227	/ 1	-0.6320718
-1.141564	/ 2	-0.5057619
-1.198046	/ 3	-1.517318
-1.39262	/ 4	-0.9365828
-2.855806	/ 5
-2.690382	/ 6
-1.30719	/ 8	-1.280678
-0.4239345	/ </s>
-2.690382	/ >	0.8570546
-2.402325	/ A	-0.6164515
-2.690382	/ B	-0.5508643
-2.855806	/ L
-2.855806	/ S
-2.059704	/ a	-0.3161955
-2.152288	/ b	-0.5045689
-1.675167	/ c	-0.4984841
-2.690382	/ d
-2.855806	/ e
-2.690382	/ f	-0.5062304
-2.855806	/ g
-2.402325	/ h
-2.402325	/ i
-2.855806	/ j
-1.432129	/ m	-0.7822989
-2.690382	/ n	-0.5250272
-2.690382	/ o
-2.059704	/ p	-0.5561933
-1.800106	/ r	-0.9128314
-1.800106	/ s	-0.5302143
-2.855806	/ u
-2.690382	/ v	-0.472732
-1.29195	/ w	-0.9766772
-3.921265	0 &
-2.740626	0 '	-0.8762047
-3.921265	0 +
-1.267139	0 ,	-2.053642
-2.865565	0 -	-0.2532647
-1.870417	0 .	1.163301
-3.755841	0 /	-0.5294821
-0.4340221	0 0	-1.094866
-1.774484	0 1	-0.1891396
-2.095531	0 2	-0.615014
-2.186339	0 3	-0.6065445
-2.196558	0 4	-0.532728
-1.885309	0 5	-0.2802544
-2.020467	0 6	-0.3671335
-1.885309	0 7	-0.1892112
-2.342686	0 8	-0.2686157
-2.263505	0 9	-0.6105842
-3.217747	0 :	-0.3656786
-0.3608672	0 </s>
-3.171215	0 @	0.03999739
-3.217747	0 _	-0.1784084
-1.514456	0 s	-2.042964
-2.071619	0 t	-1.616593
-3.467784	0 z	-0.6106112
-3.118678	1 &	-0.1833356
-1.600164	1 ,	-1.373244
-3.02497	1 -	0.275976
-1.235017	1 .	-0.2656182
-1.907825	1 /	-1.433616
-0.9361207	1 0	-0.393713
-1.439705	1 1	0.2569997
-1.338721	1 2	-0.2842995
-1.353382	1 3	-0.3025181
-1.426272	1 4	0.6005517
-1.282987	1 5	0.01861824
-1.538894	1 6	-0.2953259
-1.475225	1 7	0.8595267
-1.495429	1 8	0.9965009
-0.5008916	1 9	-0.8338327
-3.656771	1 :
-0.8856819	1 </s>
-3.822196	1 ?
-3.118678	1 @	-0.4511855
-3.822196	1 N
-3.02497	1 _	-0.1143682
-3.822196	1 h
-3.822196	1 j
-1.596886	1 s	-2.062618
-2.606795	1 t	-1.006846
-3.3782	2 &
-1.528352	2 ,	-1.217795
-2.840106	2 -	-0.01564995
-1.132536	2 .	-0.1403596
-2.362985	2 /	-0.4927991
-0.5788432	2 0	-0.4344159
-1.377708	2 1	-0.1762609
-1.328223	2 2	0.03606491
-1.345256	2 3	-0.320944
-1.437845	2 4	-0.5257604
-1.152131	2 5	-0.7743262
-1.425133	2 6	-0.3353938
-1.487924	2 7	-0.1453035
-1.629253	2 8	-0.3326566
-1.642825	2 9	-0.588514
-3.090143	2 :	-0.2844301
-0.6014329	2 </s>
-3.543624	2 @
-3.543624	2 R
-3.090143	2 _	-0.2518658
-2.080438	2 n	-1.310784
-2.119947	2 t	-1.20314
-3.385437	3 &
-1.543617	3 ,	-1.163648
-3.385437	3 -
-1.163405	3 .	-0.2182565
-2.005226	3 /	-0.6209236
-0.6884831	3 0	-0.3361108
-1.208432	3 1	-0.9076294
-1.349481	3 2	-0.2831039
-1.585009	3 3	-0.2415047
-1.576409	3 4	-0.5370931
-1.254596	3 5	-0.3269764
-1.477799	3 6	-0.2857471
-1.477799	3 7	-0.3486205
-1.585009	3 8	-0.2793276
-1.484639	3 9	-0.7584257
-3.220013	3 :
-0.5250674	3 </s>
-3.385437	3 @
-3.220013	3 D	-0.5219931
-3.385437	3 _
-3.220013	3 b	-0.5155331
-3.385437	3 n
-1.593783	3 r	-1.689982
-1.739911	3 t	-1.41702
-3.279283	4 &
-1.478855	4 ,	-0.8231515
-3.279283	4 -
-1.228435	4 .	0.4959328
-2.575765	4 /	-0.1713595
-0.7291186	4 0	-0.3608278
-1.42195	4 1	-0.9984177
-1.308593	4 2	-0.1469057
-1.505727	4 3	-0.2124684
-1.429637	4 4	-0.3211013
-1.26934	4 5	-0.3197477
-1.487629	4 6	-0.3442963
-1.544356	4 7	-0.3317167
-1.406973	4 8	-0.3067318
-1.575765	4 9	-0.7509986
-0.4406323	4 </s>
-3.279283	4 @
-3.113858	4 _
-1.816097	4 t	-1.240929
-3.113858	4 u	-0.5483181
-3.255556	5 &
-3.42098	5 +
-1.290139	5 ,	-1.232889
-3.42098	5 -
-1.355735	5 .	0.4884416
-2.089073	5 /	-0.8843455
-0.6483496	5 0	-0.5957983
-1.686054	5 1	-0.6291301
-1.638281	5 2	-0.4726558
-1.638281	5 3	-0.5858952
-1.696273	5 4	-0.0497537
-1.411037	5 5	-0.02643201
-1.728458	5 6	-0.3170695
-1.67607	5 7	-0.2033053
-1.76322	5 8	-0.2925311
-1.801008	5 9	-0.5422964
-2.717463	5 :	-0.1942997
-0.3524427	5 </s>
-2.27813	5 @	-0.8313968
-2.717463	5 _	-0.160979
-3.42098	5 k
-1.751321	5 t	-1.440501
-1.58979	6 ,	-0.7926015
-3.235316	6 -
-1.21478	6 .	0.3946091
-2.054677	6 /	-0.4058912
-0.841602	6 0	-0.385177
-1.565656	6 1	-0.5770557
-1.4711	6 2	-0.2978593
-1.656737	6 3	-0.586661
-1.602379	6 4	-0.1820984
-1.253044	6 5	-0.2267038
-1.565656	6 6	-0.5669875
-1.565656	6 7	-0.3584178
-1.521074	6 8	-0.3591446
-1.58979	6 9	-0.8183289
-0.3456897	6 </s>
-3.235316	6 @
-2.531798	6 _	-0.1784519
-3.235316	6 e
-3.235316	6 f
-1.531798	6 t	-1.473501
-3.258612	7 &
-1.759214	7 ,	-0.8206341
-2.555094	7 -	-0.1947447
-1.207764	7 .	0.6105302
-1.926705	7 /	-0.5499477
-0.9141164	7 0	-0.3949853
-1.625676	7 1	-0.5218875
-1.458184	7 2	-0.6467351
-1.577371	7 3	-0.8040696
-1.555094	7 4	-0.6157596
-1.157154	7 5	-0.5002038
-1.544371	7 6	-0.367054
-1.386302	7 7	-0.6202625
-1.588953	7 8	-0.6868959
-1.416792	7 9	-0.9385158
-0.3571251	7 </s>
-3.258612	7 A
-3.258612	7 B
-2.805131	7 _
-1.613086	7 t	-1.41702
-1.769901	8 ,	-0.8004196
-3.36272	8 -
-1.455083	8 .	-0.9316577
-2.90924	8 /	-0.2573756
-0.8668112	8 0	-0.4117642
-1.627794	8 1	-0.7435647
-1.580022	8 2	-0.3428435
-1.589165	8 3	-0.676145
-1.497835	8 4	-0.6196325
-1.21987	8 5	-0.6066958
-1.248426	8 6	-0.5885665
-1.21594	8 7	-0.9252902
-1.076571	8 8	-0.6955472
-1.154053	8 9	-1.154062
-3.36272	8 :
-0.4660783	8 </s>
-3.197296	8 @
-2.612671	8 _	-0.08586017
-1.61781	8 t	-1.51393
-2.084989	9 ,	-0.8354595
-3.601419	9 -
-1.642629	9 .	0.5191174
-2.805317	9 /	-0.6001444
-1.175679	9 0	-0.3270126
-1.565463	9 1	-0.787324
-1.51319	9 2	-0.6698233
-1.619148	9 3	-0.4895229
-1.446883	9 4	-0.241769
-1.372857	9 5	0.2699293
-1.295842	9 6	-0.4071455
-1.081661	9 7	-0.6027468
-0.6598558	9 8	-1.556462
-0.6791039	9 9	-0.7549213
-3.435995	9 :
-0.7932441	9 </s>
-2.897902	9 @	-0.4511855
-3.435995	9 A
-3.601419	9 B
-3.435995	9 _
-3.435995	9 b
-3.601419	9 d
-3.601419	9 f
-3.601419	9 i
-3.435995	9 l	-0.5179693
-1.943659	9 t	-1.428919
-2.545089	: -	-0.8479613
-1.394341	: /	-1.755123
-2.545089	: 0	-0.2157852
-2.497913	: 1	-0.2879384
-3.129714	: 2
-2.841658	: 4	-0.2690557
-3.129714	: 5	-0.5478136
-0.02577322	: </s>
-3.129714	: O	-0.5387228
-3.295139	: „
-3.051335	; .
-0.0004876974	; </s>
-0.1760913	< $	-1.225838
-1.481669	< E
-1.481669	< M
-0.7316189	< h	-0.9057687
-3.417211	<s> !	-0.685175
-2.402377	<s> "	0
-4.303357	<s> #	0
-2.865153	<s> $	-1.479466
-2.870028	<s> %	-0.6010825
-4.847425	<s> &	-0.5972959
-1.770031	<s> '	-2.47675
-2.841264	<s> (	0
-2.833985	<s> )	0
-4.101458	<s> *	-1.245589
-4.73828	<s> +	0.1175548
-1.331929	<s> ,	-2.94665
-2.080534	<s> -	-2.956419
-1.3068	<s> .	-3.102029
-3.665173	<s> /	-2.125069
-3.972363	<s> 0	-0.3882484
-2.372896	<s> 1	-1.662493
-2.762338	<s> 2	-0.9863356
-2.990523	<s> 3	-1.179423
-3.212516	<s> 4	-0.3435762
-3.200461	<s> 5	-0.3766578
-3.379711	<s> 6	-0.02171499
-3.433646	<s> 7	0.2985404
-3.555802	<s> 8	0.5106192
-3.618804	<s> 9	0.3038469
-2.8292	<s> :	-1.665147
-3.043675	<s> ;	0
-4.631825	<s> <	-0.2937204
-5.298908	<s> =	-0.5252777
-5.929586	<s> >
-2.506273	<s> ?	-0.6870289
-5.090463	<s> @	-0.9147339
-2.197117	<s> A	-0.8454218
-2.561064	<s> B	-0.8335939
-2.836398	<s> C	-0.5129855
-2.861613	<s> D	-1.052132
-2.789161	<s> E	-1.029694
-2.765666	<s> F	-0.5284976
-2.995729	<s> G	-0.8395512
-2.555327	<s> H	-0.8389317
-1.882492	<s> I	-1.146553
-3.148455	<s> J	-0.5385494
-3.932855	<s> K	-0.4388414
-3.029765	<s> L	-0.8681254
-2.392689	<s> M	-0.1957029
-2.762848	<s> N	-0.9725888
-2.761319	<s> O	-1.108676
-2.643305	<s> P	-0.6374685
-4.208223	<s> Q	-0.4171072
-2.923145	<s> R	-1.200371
-2.416866	<s> S	-0.5649466
-1.977606	<s> T	-1.32005
-2.879943	<s> U	-0.8082961
-3.629941	<s> V	-0.9587548
-2.368446	<s> W	-0.5851207
-4.763103	<s> X	-0.03903411
-2.888724	<s> Y	-0.463474
-4.391493	<s> Z	-0.07623371
-4.187373	<s> [	0
-5.298908	<s> \	0.3970524
-4.194212	<s> ]	0.01336394
-5.297784	<s> ^	-0.4135226
-5.297784	<s> _	-0.01585527
-2.565256	<s> `	0.2973676
-1.035515	<s> a	-1.807499
-1.451961	<s> b	-2.662578
-1.422275	<s> c	-3.236696
-1.619979	<s> d	-2.610855
-1.707208	<s> e	-1.786003
-1.497939	<s> f	-3.044632
-1.847704	<s> g	-3.589397
-1.473935	<s> h	-3.022024
-1.269015	<s> i	-2.909937
-2.463353	<s> j	-0.6309915
-2.312855	<s> k	-2.812542
-1.727815	<s> l	-3.410303
-1.554252	<s> m	-3.277443
-1.704923	<s> n	-3.519718
-1.261304	<s> o	-3.637285
-1.494884	<s> p	-3.601408
-2.816594	<s> q	-1.12576
-1.657954	<s> r	-3.362051
-1.286255	<s> s	-3.369283
-0.8855664	<s> t	-2.809353
-2.015966	<s> u	-3.224485
-2.252953	<s> v	-0.1279634
-1.332422	<s> w	-3.620561
-4.789433	<s> x	-0.6735269
-1.898453	<s> y	-4.135669
-3.673406	<s> z	-0.6841826
-4.222701	<s> {	-0.003762594
-4.261159	<s> }	0.04496714
-4.993553	<s> ~	-0.3228271
-5.090463	<s> ¬	0
-5.64153	<s> √	-0.02522086
-6.09501	<s> Ÿ
-4.847425	<s> ‚	0.4135044
-4.475039	<s> „	-0.1180382
-5.297784	<s> Ô	0.3070897
-0.8260748	= 1	-0.2443767
-1.762108	= 4
-1.927532	= 5
-1.927532	= 6
-1.762108	= 8
-1.762108	= 9	-0.5203549
-1.13143	= </s>
-0.2350102	= =	-1.138648
-1.927532	= c
-1.927532	= m
-1.927532	= p
-0.01703334	> </s>
-1.516431	> >
-3.140877	? !	-0.2086722
-3.428934	? .	-0.5494368
-3.428934	? 1	-0.5375383
-3.594358	? 2
-0.004208313	? </s>
-2.538657	? ?	1.547086
-3.594358	? @
-3.428934	? I
-3.428934	? S	-0.5353948
-3.594358	? i
-3.594358	? s
-3.428934	? t	-0.5121447
-3.140877	? }	1.164617
-3.594358	? √
-1.611765	@ .	-0.2850304
-2.065245	@ 1
-2.065245	@ 2
-2.065245	@ 9
-1.060698	@ </s>
-1.899821	@ @
-2.065245	@ H
-1.899821	@ a	-0.5578431
-1.361728	@ c	-0.6989166
-0.9223952	@ g	-1.078557
-0.3617278	@ h	-1.581091
-2.065245	@ l
-1.268019	@ m	-0.5054666
-2.065245	@ s
-1.009545	@ y	-0.9989886
-1.899821	@ z	-0.5577461
-3.917964	A $
-3.214447	A '	-0.4612314
-2.537753	A .	0.2566964
-3.917964	A 2
-2.816506	A :	0.1980458
-0.8617817	A </s>
-3.75254	A A
-2.913416	A B	-0.2995386
-2.737325	A C	-0.2498768
-2.612386	A D	-0.5812008
-3.917964	A F
-3.464483	A G	-0.2839651
-3.120738	A H	-0.6954083
-1.990432	A I	-1.388444
-3.120738	A K	-0.6741464
-2.272438	A L	-0.8971801
-2.775114	A M	-0.4038375
-2.203722	A N	-0.7509007
-2.474084	A P	-0.8897569
-3.917964	A Q
-2.153749	A R	-0.6003745
-2.737325	A S	-0.2402733
-2.311357	A T	-1.045244
-3.75254	A V	-0.3135243
-3.120738	A W	-0.2630064
-3.214447	A X	-0.5144456
-3.120738	A Y	-0.2542689
-2.702563	A Z	-0.9700368
-3.75254	A a	-0.5578431
-2.010326	A b	-0.9556008
-1.310001	A c	-1.998849
-1.857465	A d	-0.4067129
-3.75254	A e	-0.5016136
-1.274927	A f	-2.609833
-2.193257	A g	-0.9736924
-2.153749	A h	-1.607755
-2.561234	A i	-0.78464
-1.073781	A l	-1.156829
-1.51331	A m	-0.9084141
-0.5460605	A n	-1.834998
-1.606991	A p	-1.728315
-3.917964	A q
-1.591197	A r	-1.526688
-1.031889	A s	-1.73544
-1.108086	A t	-2.098413
-1.460481	A u	-1.540246
-2.325145	A v	0.0237603
-3.167914	A w	-0.1265896
-3.75254	A y
-3.917964	A z
-3.566394	B '
-2.260816	B -	-0.2000805
-3.566394	B .
-3.566394	B 0
-3.566394	B 1
-2.510694	B :	0.6214712
-1.520454	B </s>
-3.566394	B ?
-2.234488	B A	-0.2829522
-1.792839	B B	-1.673884
-2.464936	B C	-0.4796447
-2.816344	B E	-0.2039468
-3.40097	B I	-0.5575234
-3.112913	B L	-0.2815999
-2.350993	B O	-0.5624226
-3.112913	B R	-0.2777168
-1.77474	B S	-1.586475
-3.112913	B T	-0.6205514
-3.112913	B U	-0.6191514
-1.207258	B a	-0.8702738
-0.8817376	B e	-0.9649718
-3.566394	B f
-1.811724	B i	-0.5646449
-3.566394	B j
-1.77474	B l	-1.660581
-1.337832	B o	-0.7034691
-1.626087	B r	-1.533678
-0.2535489	B u	-1.855383
-1.280245	B y	-1.363639
-2.501808	C $	1.004593
-3.29791	C %
-3.29791	C +
-2.54786	C .	-0.2077512
-1.390273	C </s>
-2.196453	C A	-0.4251733
-3.29791	C B
-2.501808	C C	-0.434112
-1.321391	C D	-1.832882
-1.480449	C E	-0.8942924
-1.917699	C F	-1.415878
-2.293363	C H	-0.4394855
-2.020361	C I	-0.9125413
-3.132486	C J	-0.5565505
-2.500684	C K
-2.844429	C L
-2.24221	C N	-0.9977298
-1.677939	C O	-0.6157221
-2.15506	C P	-0.4800011
-2.15506	C R	-0.2786386
-3.29791	C S
-2.196453	C T	-0.4626795
-2.54786	C U	-0.4105855
-3.29791	C V
-3.29791	C Y
-0.9685658	C a	-0.7968853
-1.562984	C e	-1.278323
-0.7385706	C h	-1.815094
-1.628251	C i	-1.245894
-1.433025	C l	-1.644362
-3.29791	C n
-0.5374877	C o	-1.498239
-1.464059	C r	-1.042761
-1.94118	C s	-1.014221
-1.261954	C u	-1.071634
-2.594393	C y	-0.5543745
-3.335215	D $
-2.881734	D '
-3.335215	D -
-2.279515	D .	0.8266394
-1.100218	D </s>
-2.585165	D =	-0.04960674
-2.330667	D A	-0.3379261
-3.335215	D C
-2.537989	D D	-0.260826
-2.003309	D E	-0.3897223
-3.335215	D G
-3.335215	D H
-2.057666	D I	-0.08830246
-2.537989	D J	-0.2632773
-3.335215	D L
-3.335215	D M
-1.891335	D N	-1.473581
-2.539113	D O	-0.3655683
-1.786599	D P	-1.433522
-2.585165	D R	-0.4065726
-1.394908	D S	-1.780521
-1.891335	D T	-1.354795
-3.335215	D U
-2.029637	D V	-1.215757
-2.631697	D Y	-0.6885933
-1.325272	D a	-0.588223
-0.5903047	D e	-1.665076
-3.169791	D h	-0.5527705
-0.8835093	D i	-1.362858
-0.7523147	D o	-1.143739
-1.26063	D r	-1.057541
-1.600289	D s	-1.37892
-1.109906	D u	-1.135955
-2.585165	D y	-0.9148178
-3.335215	D √
-2.933759	E -
-1.388155	E </s>
-2.055333	E A	-0.3593808
-3.38724	E B
-2.285782	E C	-0.1971891
-1.694718	E D	-0.860356
-2.683722	E E	-0.348777
-2.683722	E F	-0.1946394
-2.933759	E G	-0.2853323
-3.38724	E H
-2.683722	E I	-0.3667552
-2.933759	E L
-2.33154	E M	-0.2259099
-2.055333	E N	-0.4966414
-1.717581	E O	-1.683218
-2.382692	E P	-0.6649534
-3.38724	E Q
-1.493391	E R	-0.6768321
-1.741714	E S	-0.8519692
-2.382692	E T	-0.4465463
-2.683722	E U	-0.3653564
-3.221816	E V
-2.591138	E W	-0.6516401
-2.933759	E X	-0.2660135
-2.933759	E Y	-0.6103365
-3.221816	E _	-0.5541187
-0.7725646	E a	-1.962194
-2.590014	E b	-0.5294393
-1.72948	E c	-1.693926
-2.171839	E d	-0.2132392
-3.221816	E e	-0.5463541
-3.221816	E f	-0.5309138
-3.38724	E g
-2.03051	E h	-1.22375
-1.754303	E i	-1.323826
-3.38724	E j
-1.63257	E l	-0.7165283
-1.887842	E m	-0.2353476
-0.6462958	E n	-1.404004
-3.38724	E p
-2.933759	E q	1.412711
-1.838624	E r	-0.7093536
-1.717581	E s	-0.8383595
-2.590014	E t	-0.5596876
-1.221324	E u	-2.237282
-0.8279004	E v	-1.311083
-3.38724	E w
-1.139654	E x	-1.039377
-2.933759	E y	-0.5810615
-3.346724	F %
-2.549497	F '	-0.3479399
-3.346724	F .
-1.813902	F </s>
-2.245266	F A	-0.2459666
-2.041146	F C	-1.199118
-2.245266	F E	-0.372819
-2.596673	F F	-0.2053111
-2.291023	F I	-0.4020694
-3.346724	F M
-2.203873	F O	-0.7342055
-3.346724	F P
-1.865055	F R	-1.363558
-3.181299	F S	-0.4995908
-2.596673	F T	-0.472566
-2.893243	F U	-0.6162816
-1.381943	F a	-0.5347134
-1.00722	F e	-1.36805
-0.8253101	F i	-1.169459
-1.830292	F l	-0.4039289
-0.4257219	F o	-2.144526
-0.7189265	F r	-1.926364
-1.267542	F u	-1.003203
-3.122233	G .
-1.790327	G </s>
-2.668752	G A
-1.502262	G D	-1.643068
-2.372183	G E	-0.45898
-3.122233	G G
-2.418715	G H	-0.1904299
-2.956809	G I
-3.122233	G L
-1.558378	G N	-1.588667
-1.765503	G O	-1.256351
-2.956809	G P	-0.5571926
-2.325007	G R	-0.2544265
-3.122233	G S
-2.956809	G U	-0.5563529
-3.122233	G Y
-3.122233	G _
-1.280413	G a	-0.6889295
-0.7752628	G e	-2.262292
-2.956809	G h	-0.5262259
-1.452574	G i	-1.026773
-1.765503	G l	-1.437456
-0.3656371	G o	-1.436767
-1.020775	G r	-1.957944
-3.122233	G s
-1.112291	G u	-1.253245
-2.219184	H .	0.08807728
-3.55109	H 2
-3.55109	H 9
-2.087905	H </s>
-3.09761	H A
-2.087905	H D	-1.356114
-1.987235	H E	-0.6452374
-3.55109	H H
-2.002475	H I	-0.365199
-2.754988	H K	-0.4856312
-2.370451	H O	-0.2435125
-3.385666	H Q	-0.5330952
-2.754988	H R	-0.1546437
-3.55109	H S
-3.55109	H T
-3.09761	H U
-3.09761	H Y	-0.2754356
-1.28528	H a	-0.8117383
-0.2176536	H e	-1.940367
-1.031331	H i	-1.880477
-3.385666	H m	-0.5470415
-0.7621037	H o	-1.931523
-3.385666	H s	-0.5300878
-1.79642	H u	-0.6730185
-2.847573	H y	-0.1933014
-4.221538	I "
-3.768057	I '
-4.221538	I -
-0.2139068	I </s>
-3.006137	I A	-1.047019
-3.768057	I B	-0.6187735
-2.91596	I C	-0.5434703
-2.262748	I D	-1.343088
-3.006137	I E	-0.4780311
-3.424312	I F	-0.5855158
-3.425435	I G	-0.4443718
-3.425435	I I	-0.1972327
-4.221538	I K
-3.040899	I L	-0.5959831
-3.006137	I M	-0.375044
-2.672922	I N	-0.5391501
-2.973952	I O	-0.7025348
-3.165838	I P	-0.3861909
-3.768057	I Q	-0.5929908
-3.425435	I R	-0.09031274
-2.841326	I S	-0.4515875
-2.642959	I T	-0.6084996
-4.221538	I U
-2.758352	I V	-1.121312
-3.768057	I Z	-0.2683281
-4.221538	I c
-2.973952	I d	-0.1675833
-1.344834	I f	-2.578387
-4.221538	I g
-3.471488	I l	-0.3074625
-2.563778	I m	-0.9584339
-0.7970344	I n	-1.832154
-2.864808	I r	-0.6058167
-1.747168	I s	-1.675268
-0.8626416	I t	-2.787917
-3.768057	I v	-0.2841973
-2.790339	J .	0.785431
-1.812913	J </s>
-2.790339	J A
-2.502283	J I	-0.6202849
-2.955764	J M
-2.502283	J P	-0.2850038
-2.252246	J U	-0.1933637
-0.513862	J a	-1.65217
-1.553276	J e	-0.4130164
-1.678215	J i	-0.3796909
-0.9969736	J o	-0.7943459
-2.502283	J r	-0.6174875
-0.2980036	J u	-1.707661
-2.35673	K $
-2.35673	K '
-0.6118198	K </s>
-1.255273	K E	-0.6660408
-2.35673	K H
-2.35673	K O
-2.191306	K S	-0.4995908
-2.35673	K U
-0.8750613	K a	-0.5552499
-1.024824	K e	-0.4128777
-1.559504	K h	-0.4981725
-0.6754889	K i	-1.089235
-1.30103	K n	-0.977173
-1.255273	K o	-0.128945
-1.30103	K r	-0.4830623
-1.560628	K u	-0.2129979
-1.39211	L </s>
-1.784911	L A	-0.6041506
-2.320715	L B	-0.6424004
-2.320715	L D	-0.1353713
-1.869232	L E	-0.4261315
-1.973967	L I	-0.2746361
-2.951393	L K
-1.760087	L L	-0.8206892
-3.116817	L M
-2.01536	L O	-0.1412707
-2.366767	L R	-0.9095882
-2.366767	L S	-0.8572422
-3.116817	L T
-3.116817	L U
-3.116817	L V
-2.319591	L Y	-0.6885933
-0.587225	L a	-1.225303
-0.7143298	L e	-1.366412
-0.7036059	L i	-0.958728
-3.116817	L l
-0.7505419	L o	-1.219002
-2.951393	L s	-0.2933863
-2.4133	L t	-0.6988211
-1.693141	L u	-0.49147
-2.951393	L y
-3.720342	M &
-3.720342	M -
-1.870696	M </s>
-2.539703	M A	-0.3512971
-1.870696	M B	-1.431237
-3.720342	M D
-2.276462	M E	-0.6189225
-3.016824	M F	-0.692252
-3.720342	M G
-2.618885	M I	-0.468377
-2.92424	M M	-0.6050609
-2.618885	M O	-0.3839719
-2.577492	M P	-0.3621149
-2.970292	M R	-0.595645
-2.664642	M S	-0.7821238
-2.970292	M T	-1.030393
-3.266861	M U
-3.266861	M V	-0.3763188
-0.8223101	M a	-0.9425228
-3.016824	M c	-0.1949211
-1.344727	M e	-0.5571951
-2.923116	M h	-0.5842456
-0.8465628	M i	-1.643927
-3.720342	M m
-0.8937899	M o	-1.436783
-0.3940925	M r	-3.349807
-1.550699	M s	-2.059543
-2.442793	M t	-1.203971
-2.006101	M u	-0.4707692
-1.469665	M y	-1.799146
-3.384306	N %
-3.218882	N '
-3.218882	N .	0.785431
-1.592653	N </s>
-3.384306	N =
-1.921121	N A	-0.7775143
-2.680789	N B	-0.6974786
-2.379759	N C	-0.4790547
-2.0524	N D	-1.061802
-2.136721	N E	-0.3127128
-2.634256	N F	-0.9088523
-1.835691	N G	-1.131391
-2.680789	N I	-0.1944971
-2.588204	N K	-0.8337881
-2.680789	N L	-0.6968844
-3.384306	N M
-2.282849	N N	-1.030153
-2.136721	N O	-0.5642588
-1.867875	N P	-1.417728
-3.384306	N R
-2.203667	N S	-0.5437319
-1.165577	N T	-1.475705
-3.218882	N U
-2.930825	N V	-0.609741
-2.634256	N Y	-0.4064151
-1.469935	N a	-0.6886151
-3.384306	N c
-0.9008316	N e	-1.654812
-1.659599	N i	-0.5385548
-3.384306	N l
-0.213921	N o	-2.178906
-1.981819	N u	-0.6424617
-3.400092	O .
-1.423573	O </s>
-2.946612	O A	-0.5564858
-3.234668	O B	-0.5565768
-2.257242	O C	-0.3133297
-2.650043	O D	-0.3844593
-3.234668	O E
-2.219454	O F	-0.5903611
-3.400092	O G
-3.400092	O I
-1.851477	O K	-1.340664
-2.257242	O L	-0.3816707
-1.696575	O M	-1.084773
-1.867271	O N	-0.627103
-3.234668	O O
-2.602866	O P	-0.1475884
-1.851477	O R	-0.6869823
-2.395545	O S	-0.6090651
-1.918424	O T	-0.5970957
-2.122544	O U	-0.4100359
-2.696575	O V	-0.3587152
-2.395545	O W	-0.5966175
-3.400092	O X
-2.696575	O Y	-0.3661737
-1.936907	O b	-1.490198
-0.9275669	O c	-2.037846
-2.395545	O d	-0.9501801
-2.946612	O e	-0.5895215
-1.010833	O f	-1.909095
-1.435312	O h	-1.80832
-2.019881	O i	-1.275659
-1.696575	O k	-1.60425
-2.019881	O l	-0.8204575
-3.234668	O m	-0.4818906
-0.5090541	O n	-2.592157
-3.400092	O o
-1.851477	O p	-1.092206
-1.423573	O r	-1.431918
-1.900695	O s	-1.150441
-1.364136	O t	-2.029939
-1.149416	O u	-1.7097
-1.40654	O v	-1.362028
-2.946612	O w	-0.2700832
-3.400092	O x
-3.480582	P .
-2.777064	P 3	-0.5450026
-1.509892	P </s>
-3.480582	P =
-1.964151	P A	-0.9845583
-3.315158	P C
-3.027101	P D	-0.2837793
-2.175004	P E	-0.7128258
-2.424882	P F	-0.4667722
-3.315158	P G
-3.480582	P H
-2.777064	P I	0.2152066
-3.027101	P L
-2.299943	P O	-0.4424021
-2.777064	P P	-0.1920132
-2.123852	P R	-0.7906432
-2.777064	P S	-0.6406419
-2.730532	P T	-0.4167042
-2.730532	P U	-0.4063642
-1.102662	P a	-0.5344756
-1.008056	P e	-1.416837
-2.036701	P h	-0.6105026
-2.017396	P i	-0.1627011
-1.540275	P l	-1.715067
-1.111952	P o	-1.304492
-3.315158	P p	-0.5078274
-0.2271418	P r	-2.853348
-2.078094	P s	-0.9197195
-3.480582	P t
-1.873974	P u	-0.45607
-3.480582	P y
-1.20874	Q </s>
-1.793366	Q Q	-0.5301964
-1.255273	Q U	-0.1933596
-1.161564	Q a	-0.3589827
-0.90309	Q i	-0.8562878
-1.95879	Q o
-0.20412	Q u	-0.9188908
-2.164947	R &	-0.9006154
-3.266405	R '
-2.812924	R .	0.7226365
-3.266405	R 9
-1.424585	R </s>
-1.633469	R A	-0.6927631
-1.863917	R B	-1.060947
-2.470303	R C	-0.6032009
-3.100981	R D
-1.608645	R E	-0.6288639
-3.266405	R F
-3.266405	R G
-1.733584	R I	-0.1340681
-3.100981	R K
-3.100981	R L
-1.401519	R M	-1.486534
-3.100981	R N
-1.424585	R O	-0.9594496
-3.266405	R P
-2.085766	R R	-1.073199
-1.541698	R S	-1.564921
-1.960827	R T	-0.2844774
-2.164947	R U	-0.2199742
-3.266405	R V
-2.812924	R Y	-0.6103365
-1.365607	R a	-0.6371006
-0.4075513	R e	-1.323391
-0.6438093	R i	-1.727836
-1.448944	R o	-0.7345354
-2.469179	R s	-0.3211461
-1.608645	R u	-0.4980433
-2.284872	S $	0.2687225
-2.950831	S &	-0.6575773
-2.6466	S .	1.018097
-3.582633	S 3
-0.9007446	S </s>
-2.199442	S A	-0.7451291
-3.582633	S B
-2.950831	S C	-0.2554317
-2.950831	S D	-0.144495
-2.44248	S E	-0.3653674
-2.998008	S H	-0.2836092
-2.951955	S I	-0.1703077
-3.582633	S J	-0.5511854
-2.950831	S K	-0.5634022
-3.748057	S L
-2.6466	S M	-0.4162719
-2.998008	S N	-0.4095807
-2.950831	S O	-0.2637714
-2.998008	S P	-0.2041437
-2.605207	S S	-0.3650363
-2.44248	S T	-0.4638124
-2.692357	S U	-0.380152
-3.582633	S V	-0.4344823
-1.381782	S a	-0.6822408
-2.003147	S c	-0.9079894
-0.7182039	S e	-1.796883
-0.9680814	S h	-1.485004
-1.304177	S i	-1.030826
-2.998008	S k	-0.148332
-2.692357	S l	-0.5260974
-2.32438	S m	-1.446322
-2.692357	S n	-0.9162325
-0.5570478	S o	-1.725168
-1.664329	S p	-1.087644
-1.14967	S t	-1.807389
-1.296352	S u	-1.200188
-2.950831	S w	-0.6209753
-2.951955	S y	-0.3943682
-2.009572	T $	-0.3763721
-4.132219	T -
-3.382169	T .	0.926558
-1.981544	T </s>
-2.95158	T A	-0.2947705
-3.030761	T C	-0.9819488
-2.428702	T E	-0.9175236
-4.132219	T F
-4.132219	T G
-2.583604	T H	-0.6558826
-2.708542	T I	-0.3023281
-3.966795	T J	-0.5511854
-3.966795	T L	-0.5520099
-3.966795	T M
-3.966795	T N
-3.127672	T O	-0.2493697
-3.678738	T P	-0.6070771
-2.729732	T R	-0.8683716
-3.030761	T S	-0.9830647
-3.382169	T T	-0.2841438
-4.132219	T U
-1.800313	T V	-1.966604
-3.428702	T W	-0.3652791
-3.966795	T Y	-0.5475421
-1.782788	T a	-1.020672
-1.95158	T e	-1.033864
-0.07138626	T h	-3.173048
-2.368004	T i	-0.6154741
-1.460219	T o	-1.151306
-1.993335	T r	-1.104277
-3.966795	T s	-0.2933863
-1.989369	T u	-1.350726
-1.989369	T w	-1.92316
-2.95158	T y	-0.7765272
-2.44492	U .	-0.6442758
-1.817345	U </s>
-2.443796	U A	-0.5918401
-3.075598	U C
-3.075598	U D
-3.241022	U E
-2.787541	U G
-3.075598	U H	-0.5543571
-3.075598	U I
-2.443796	U L	-0.3621152
-1.993436	U N	-0.5054363
-3.241022	U O
-2.787541	U P	-0.2721761
-2.44492	U R	-0.3129419
-0.6184262	U S	-1.79951
-2.44492	U T	-0.6475952
-2.236474	U V	-0.2227311
-3.241022	U g
-0.408782	U h	-2.674821
-3.241022	U l
-1.175776	U m	-1.898781
-0.7740763	U n	-1.157641
-1.440594	U p	-1.116222
-2.098171	U r	-0.8122363
-1.7082	U s	-0.9940165
-2.787541	U t	-0.2400382
-3.075598	U y	-0.03789686
-2.783603	V '
-0.3661747	V </s>
-1.682145	V A	-0.9357725
-1.779055	V C	-0.770685
-1.478025	V D	-1.29978
-1.727903	V E	-0.3357092
-1.602964	V I	-0.3210772
-2.783603	V K
-1.125843	V a	-1.211798
-1.205024	V e	-0.7296283
-0.6065981	V i	-1.07134
-1.381115	V o	-1.517519
-1.602964	V s	-0.8494108
-3.72954	W .
-2.423962	W </s>
-3.276059	W A
-3.564116	W E
-2.586689	W H	-0.7671373
-3.276059	W I	-0.2854168
-3.564116	W M
-3.276059	W O	-0.2796551
-2.932314	W S	-0.316851
-3.72954	W Y
-1.460765	W a	-0.8947904
-0.3017464	W e	-1.960361
-0.4724426	W h	-2.417207
-1.086503	W i	-1.832232
-1.488203	W o	-1.106343
-2.586689	W r	-0.7035168
-3.276059	W s	-0.3561808
-3.564116	W u
-0.4607309	X -	-0.9987599
-0.4607309	X </s>
-1.516431	X D
-1.516431	X E
-1.351007	X P
-1.06295	X i	-0.2849496
-1.516431	X u
-1.626903	Y </s>
-3.219722	Y A
-2.766242	Y B	-0.6200499
-3.219722	Y C
-3.219722	Y D
-3.054298	Y E
-3.219722	Y M
-3.219722	Y N
-3.219722	Y O
-3.219722	Y S
-1.671107	Y a	-1.359984
-3.219722	Y b
-0.5172918	Y e	-1.841271
-2.118265	Y i	-0.4441245
-0.2012847	Y o	-2.323539
-2.469672	Y u	-0.1040011
-1.691908	Z </s>
-1.857332	Z E
-1.403852	Z I	-0.284889
-0.4771213	Z T	-1.296475
-1.857332	Z X
-1.691908	Z a
-1.403852	Z e	-0.229507
-0.7144822	Z h	-0.3552177
-0.6419315	Z o	-1.036969
-1.857332	Z r
-1.857332	Z z
-1.907638	[ .
-0.01378828	[ </s>
-1.907638	[ E
-0.04139268	\ *	-0.4646033
-0.006630579	] </s>
-1.921002	] o
-0.9360335	^ ,	-0.5578445
-0.3042315	^ </s>
-0.6479768	^ _	-0.613306
-2.059885	_ 0
-1.475259	_ 1	-0.1070645
-2.225309	_ 2
-1.428083	_ 3	-0.1366412
-2.059885	_ 4
-2.225309	_ 6
-2.225309	_ 7
-2.225309	_ 8
-2.225309	_ 9
-1.475259	_ </s>
-1.123852	_ A	-1.04073
-1.429207	_ B	-0.6429983
-2.059885	_ S	-0.4995908
-1.771828	_ ^	-0.3228613
-0.3604237	_ _	-1.631651
-1.169609	_ a	-0.4607155
-2.225309	_ c
-2.059885	_ f	-0.5275865
-2.225309	_ g
-2.059885	_ p	-0.5067472
-1.169609	_ s	-0.6093989
-2.059885	_ t
-2.225309	_ w
-3.827124	` 9
-0.2976939	` </s>
-3.827124	` T
-0.3047213	` `	-3.116718
-4.788539	a '	-0.6441345
-5.584641	a +
-3.758908	a -	-0.2588649
-4.279064	a .	-0.447566
-4.404002	a /	-0.6618673
-5.13116	a 1	-0.5672414
-5.584641	a 2
-5.584641	a 3
-4.834591	a 4	-0.9156412
-5.419217	a 9
-1.155049	a </s>
-5.13116	a @
-5.584641	a N
-4.881124	a _	-0.5234116
-3.758908	a a	-0.4626654
-1.66542	a b	-1.023979
-1.392326	a c	-0.7820221
-1.436298	a d	-0.1680433
-3.558904	a e	-0.5920992
-2.140958	a f	-1.019586
-1.68654	a g	-1.187577
-2.216952	a h	-1.596771
-1.439743	a i	-2.438744
-2.778176	a j	-1.787569
-1.853061	a k	-1.263346
-0.9982149	a l	-0.7472854
-1.674298	a m	-0.7428826
-0.7402542	a n	-2.179594
-3.591089	a o	-0.9310702
-1.790425	a p	-2.248683
-3.951705	a q	1.912938
-0.9728128	a r	-1.939352
-1.05599	a s	-1.735488
-0.8264243	a t	-1.158029
-1.923995	a u	-1.839192
-1.627967	a v	-0.9935304
-2.223351	a w	-1.737747
-2.719755	a x	-2.239563
-1.435364	a y	-1.072494
-2.998884	a z	-0.4397914
-5.584641	a }
-3.646747	b -	0.1955309
-3.725928	b .	0.9750816
-4.827385	b /
-4.827385	b 5
-4.827385	b 6
-1.950682	b </s>
-4.123868	b @	-0.4511855
-4.661962	b I	-0.5555407
-4.827385	b _
-1.031586	b a	-1.697781
-2.291359	b b	-0.5889409
-3.470655	b c	-0.5254998
-3.26353	b d	-0.901699
-0.4993023	b e	-2.258572
-3.725928	b f	-0.5056835
-4.827385	b g
-4.827385	b h
-1.147289	b i	-1.114236
-2.349351	b j	-2.291273
-0.9566984	b l	-3.432213
-2.734702	b m	-1.890686
-3.684535	b n	-1.260271
-0.915561	b o	-2.232599
-3.447174	b p	-0.8491197
-1.34844	b r	-3.03603
-1.745925	b s	-1.780954
-2.294564	b t	-1.334918
-0.953753	b u	-2.12363
-2.611984	b v	-0.9671447
-3.327988	b w	-1.316743
-1.095907	b y	-1.879979
-4.055814	c -	-0.06905761
-2.754784	c .	-1.184618
-5.157271	c /
-1.506811	c </s>
-5.157271	c C
-4.991848	c D	-0.4733805
-5.157271	c I
-5.157271	c T
-5.157271	c U
-0.900144	c a	-1.820642
-1.681799	c c	-2.541248
-4.991848	c d	-0.5358316
-0.8229957	c e	-2.214908
-4.991848	c f	-0.5579127
-5.157271	c g
-0.9348782	c h	-0.5026591
-1.168703	c i	-1.548323
-1.381872	c k	-0.06497288
-1.437138	c l	-3.281809
-5.157271	c m
-3.909686	c n	-0.3543392
-0.6912442	c o	-2.004542
-4.991848	c p	-0.5067472
-2.897451	c q	-0.1279442
-1.414935	c r	-3.299245
-2.264825	c s	-2.222788
-0.9677488	c t	-3.015225
-1.401445	c u	-2.17256
-1.937549	c y	-1.896736
-4.361169	c z	-0.2818092
-5.26186	d '
-3.30307	d -	-0.2113374
-4.558342	d .	-0.1948857
-5.26186	d /
-5.26186	d 1
-5.096436	d 2	-0.5246707
-4.808379	d 4	-0.2720426
-5.096436	d 5
-0.2561794	d </s>
-4.465758	d =	-0.2511708
-5.26186	d ?
-4.808379	d @	-0.5760036
-1.45471	d a	-1.517958
-3.558342	d b	-0.6204935
-3.182679	d c	-1.151169
-2.031035	d d	-2.299173
-0.8142061	d e	-0.8039134
-3.436127	d f	-1.324678
-2.280161	d g	-2.175408
-3.375073	d h	-0.6503338
-1.043761	d i	-1.002015
-3.095944	d j	-0.8936896
-4.257312	d k	-0.2597623
-2.073687	d l	-2.840246
-2.361752	d m	-2.353141
-2.919853	d n	-2.06382
-1.304641	d o	-2.030128
-3.929954	d p	-0.4685736
-3.412215	d q	0.2775489
-1.819958	d r	-2.999007
-1.591146	d s	-1.950472
-3.81798	d t	-0.5894897
-1.557692	d u	-0.9180765
-2.360373	d v	-0.6769133
-3.008114	d w	-1.718183
-1.964779	d y	-1.525761
-5.096436	d z
-4.774552	e $	-0.9496315
-5.325619	e '	-0.04807365
-5.075583	e *	0.08858633
-3.293827	e -	-0.4232508
-4.473523	e .	0.8381998
-4.981874	e /
-5.7791	e 0
-5.613676	e 1	-0.541846
-5.7791	e 6
-0.4709623	e </s>
-5.613676	e =	-0.4877189
-5.7791	e ?
-5.7791	e @
-5.7791	e A
-5.7791	e K
-4.774552	e T	-0.9523774
-5.325619	e W	-0.2705139
-1.264661	e a	-3.258802
-2.744662	e b	-0.2868401
-1.4748	e c	-0.8735809
-1.159247	e d	-2.263762
-1.58042	e e	-1.783343
-2.024333	e f	-0.1534208
-2.128271	e g	-2.545541
-2.752846	e h	-1.53658
-1.931943	e i	-2.329547
-3.557069	e j	-0.03508541
-2.629978	e k	-1.477405
-1.472167	e l	-1.33221
-1.681832	e m	-1.256881
-1.064901	e n	-2.035107
-2.179608	e o	-1.52125
-1.956905	e p	-0.7149407
-2.736628	e q	-0.9080877
-0.915084	e r	-2.161398
-1.081585	e s	-1.88271
-1.549534	e t	-0.9721956
-3.153896	e u	-1.381108
-1.778643	e v	-0.9390658
-2.102455	e w	-0.5931364
-1.904661	e x	-0.5370584
-1.90893	e y	-1.220138
-3.743144	e z	-0.7167077
-5.325619	e ~	-0.6061056
-4.269543	f -	-0.3749486
-4.854169	f .	0.785431
-5.019593	f 7
-0.4370798	f </s>
-5.019593	f ?
-5.019593	f @
-1.277058	f a	-1.913406
-5.019593	f b
-4.316075	f c	-0.6405556
-1.141071	f e	-2.00569
-1.219774	f f	-2.22681
-4.222367	f g	-0.5428367
-4.854169	f h
-0.9499793	f i	-2.414079
-4.854169	f k
-1.756468	f l	-2.523677
-4.854169	f m	-0.5579132
-4.854169	f n	-0.5577736
-0.7427104	f o	-2.813082
-4.566112	f p
-1.170957	f r	-3.214236
-2.807545	f s	-1.188159
-1.502327	f t	-1.688645
-1.45484	f u	-2.369378
-4.269543	f w	-0.3355943
-2.602165	f y	-1.570732
-4.997322	g *
-3.854472	g -	-0.500771
-3.573645	g .	0.4589771
-4.997322	g /
-4.997322	g 1
-4.997322	g 2
-0.4014871	g </s>
-3.691744	g B	-1.202629
-4.997322	g C
-4.831898	g I	-0.5555407
-4.997322	g _
-1.279494	g a	-1.60897
-4.200096	g b	-0.155683
-4.543841	g c	-0.2321774
-3.553442	g d	-0.9003605
-0.8406007	g e	-2.101035
-3.854472	g f	-1.063669
-2.037327	g g	-1.675541
-1.027161	g h	-1.922512
-1.323457	g i	-1.606841
-3.992774	g k	-0.4864441
-1.850541	g l	-2.708735
-2.842786	g m	-1.418441
-1.527392	g n	-2.66481
-1.07239	g o	-2.471752
-4.20122	g p	-0.6259353
-4.831898	g q	-0.556669
-1.193692	g r	-3.3605
-1.723261	g s	-2.666231
-2.444078	g t	-1.935224
-1.524242	g u	-2.086951
-3.992774	g w	-0.1853379
-2.102773	g y	-1.709664
-4.997322	g z
-5.389226	h !
-4.685708	h *	-0.4351649
-2.447035	h -	-1.785798
-4.14164	h .	0.5877784
-5.389226	h /
-5.389226	h 1
-0.9246076	h </s>
-4.592	h @	-0.3031456
-5.389226	h A
-5.389226	h C
-5.223802	h D
-0.7387649	h a	-1.272567
-3.086371	h b	-1.409462
-4.111677	h c	-0.458616
-3.219582	h d	-1.652883
-0.3479295	h e	-2.671796
-3.644315	h f	-1.54647
-4.057319	h h	-0.2708024
-0.9539381	h i	-1.358513
-5.389226	h j
-5.223802	h k
-2.845288	h l	-1.677755
-2.482267	h m	-1.556212
-2.513982	h n	-2.314657
-1.152572	h o	-2.561384
-3.945345	h p	-0.2682317
-3.1264	h q	-0.1309291
-1.927933	h r	-3.303184
-2.546617	h s	-2.137004
-1.651381	h t	-2.060637
-1.928692	h u	-0.5057138
-3.22331	h w	-1.177681
-2.334976	h y	-1.610049
-4.39895	i '	-0.7401381
-3.194829	i -	-0.5578862
-4.326399	i .	-0.8128086
-5.5418	i /
-5.5418	i :
-2.906316	i </s>
-5.376376	i @	-0.513209
-5.376376	i _	-0.5274888
-1.646133	i a	-1.979109
-2.164801	i b	-1.937583
-1.198398	i c	-1.408163
-1.35171	i d	-1.859706
-1.422308	i e	-2.842466
-1.771397	i f	-2.319077
-1.489393	i g	-1.077072
-3.759101	i h	-0.6988283
-4.294214	i i	-0.447136
-4.18507	i j	-1.123191
-2.033462	i k	-2.786746
-1.246078	i l	-0.9485131
-1.502524	i m	-1.770425
-0.5501672	i n	-0.9833303
-1.0935	i o	-3.135545
-2.041534	i p	-2.247517
-3.192369	i q	-0.2145495
-1.491734	i r	-1.399283
-0.9324324	i s	-1.756878
-0.9266719	i t	-1.828125
-3.047645	i u	-1.874793
-1.579585	i v	-0.9948292
-3.647951	i w	-1.711194
-2.702355	i x	-2.216691
-4.326399	i y	-0.8380417
-2.16434	i z	-1.482821
-3.367557	j -	-0.0800916
-3.821038	j .
-3.821038	j </s>
-1.529248	j a	-0.9369757
-3.821038	j d
-0.7487683	j e	-2.591984
-1.893505	j i	-1.021808
-3.821038	j n
-0.5306514	j o	-2.207344
-0.3157732	j u	-2.579725
-4.564394	k -
-4.564394	k .
-0.5237671	k </s>
-3.559847	k A	-0.9389339
-3.559847	k D	-0.9332053
-4.564394	k H
-4.564394	k T
-1.710888	k a	-1.125819
-3.031573	k b	-0.8739501
-2.829468	k d	-1.725216
-0.4784995	k e	-2.696136
-2.894735	k f	-0.89966
-2.755367	k g	-1.68727
-2.883153	k h	-0.9687632
-0.8699832	k i	-2.440878
-4.564394	k j
-3.207664	k k	-0.4778087
-1.994589	k l	-1.629589
-3.768292	k m	-0.5313367
-0.9852369	k n	-3.338779
-2.656757	k o	-0.9246019
-2.985816	k p	-1.324951
-2.570842	k r	-1.465389
-1.112883	k s	-2.283875
-2.707062	k t	-0.9087963
-3.101209	k u	-0.7718899
-2.906634	k w	-1.137444
-2.301569	k y	-0.7196251
-4.564394	k z
-5.296549	l '
-5.296549	l *
-3.732693	l -	-0.256034
-3.402699	l .	-0.1180613
-5.296549	l /
-4.499323	l 9	-0.5937873
-0.7579751	l </s>
-4.843068	l >	0.7942601
-5.131124	l Q	-0.1319501
-4.195091	l _	-1.074265
-1.056094	l a	-1.646304
-3.626889	l b	-0.8479027
-2.811276	l c	-1.618219
-1.253828	l d	-1.980842
-0.817876	l e	-1.287139
-2.143553	l f	-1.230471
-3.551639	l g	-1.282557
-4.081148	l h	-0.5968476
-0.9033672	l i	-1.231344
-2.118815	l k	-1.62995
-0.8371944	l l	-2.737124
-2.485821	l m	-1.55439
-3.208319	l n	-1.230589
-1.153975	l o	-2.278461
-2.401301	l p	-1.269797
-2.530449	l r	-2.400252
-1.508991	l s	-2.14572
-1.759565	l t	-1.628007
-1.726744	l u	-1.510358
-2.286606	l v	-1.041567
-2.625717	l w	-1.852874
-1.066014	l y	-2.282573
-3.990971	l z	-1.226707
-4.260198	m -	-0.04505691
-3.343183	m .	0.4390855
-3.700694	m /	-0.1619245
-5.057424	m 1
-5.057424	m <
-0.8289266	m </s>
-5.057424	m >
-4.892	m ?
-4.260198	m @	-0.5499787
-5.057424	m I
-4.892	m _	-0.5274888
-0.7942693	m a	-1.540316
-1.50974	m b	-2.153263
-4.307374	m c	-0.1370447
-4.892	m d	-0.4856027
-0.5643083	m e	-2.510857
-3.016447	m f	-1.393721
-5.057424	m g
-2.3913	m h	-2.29629
-0.9878574	m i	-1.901558
-3.098634	m l	-0.8001816
-1.606689	m m	-2.56278
-2.862545	m n	-1.650984
-0.9768282	m o	-2.511571
-1.127307	m p	-2.076853
-3.725518	m r	-1.296149
-1.606301	m s	-1.700728
-4.001724	m t	-0.2601488
-1.556293	m u	-2.386615
-5.057424	m v
-4.603943	m w	-0.2078176
-1.725007	m y	-2.280946
-5.057424	m z
-1.86373	n '	-3.417367
-3.33924	n -	-0.4121783
-3.475823	n .	-0.595183
-5.087587	n /
-4.744966	n 2	-0.5113784
-5.541068	n 3
-5.541068	n 5
-5.541068	n 9
-5.541068	n :
-0.6047767	n </s>
-5.541068	n =
-5.541068	n N
-5.541068	n T
-5.541068	n _
-1.486818	n a	-1.114076
-3.654281	n b	-0.2047772
-1.434301	n c	-3.068481
-0.8305073	n d	-1.731494
-1.137042	n e	-0.8479982
-2.195333	n f	-3.165622
-0.8884046	n g	-1.326775
-3.349705	n h	-0.9724351
-1.517612	n i	-0.5103837
-3.021309	n j	-1.060213
-1.948389	n k	-1.058924
-2.147354	n l	-2.972644
-2.271998	n m	-2.72226
-2.137496	n n	-2.539219
-1.2907	n o	-2.159022
-3.531126	n p	-1.017392
-3.582278	n q	0.1760913
-3.356825	n r	-1.741153
-1.321908	n s	-1.991759
-0.9364057	n t	-2.095642
-2.071138	n u	-1.283611
-1.990441	n v	-0.7921472
-3.142945	n w	-1.402263
-3.715335	n x	-1.521317
-1.888893	n y	-2.023699
-3.962489	n z	-0.2048831
-5.541068	n Ô
-4.873531	o '	-0.3201427
-5.411625	o *	-0.2941137
-3.067351	o -	-0.6262611
-3.852342	o .	-0.2601683
-5.411625	o /	-0.5541171
-5.577049	o 1
-0.8541034	o </s>
-5.577049	o ?
-5.411625	o @
-5.577049	o H
-4.329463	o V	-0.6006845
-5.577049	o Z
-2.203982	o a	-2.516411
-2.098103	o b	-1.753256
-1.899711	o c	-1.885901
-1.729892	o d	-1.138922
-2.402974	o e	-1.605202
-1.011057	o f	-2.403792
-2.157528	o g	-0.4571052
-2.60169	o h	-0.9629303
-1.896036	o i	-2.137436
-2.779235	o j	-2.133931
-2.065658	o k	-1.929811
-1.467673	o l	-1.385205
-1.207786	o m	-1.086733
-0.7893574	o n	-2.338886
-1.67043	o o	-2.142626
-1.518607	o p	-1.174702
-4.39641	o q	0.9194804
-0.8865022	o r	-2.34052
-1.582996	o s	-1.738593
-1.376152	o t	-0.4847884
-0.9783989	o u	-2.780174
-1.65935	o v	-0.6776547
-1.392447	o w	-0.6376126
-3.368381	o x	-1.958846
-2.507108	o y	-0.7921921
-3.403709	o z	-0.9783875
-5.411625	o }	1.227411
-5.577049	o √
-5.004352	p *
-4.254302	p -	-0.3749486
-2.619593	p .	-0.6389214
-3.861502	p 5	-1.069076
-3.103554	p :	-1.788301
-1.150308	p </s>
-4.254302	p ?	-0.5574333
-0.9540905	p a	-1.895285
-3.624141	p b	-0.5151002
-3.861502	p c	-0.9425296
-3.397744	p d	-1.72361
-0.7462545	p e	-2.276476
-3.487921	p f	-1.205505
-3.358826	p g	-1.376953
-1.780024	p h	-1.163203
-1.382018	p i	-1.289381
-4.207126	p k	-0.5235662
-0.9628265	p l	-3.195939
-2.016404	p m	-2.437109
-3.948652	p n	-0.5383136
-0.8381745	p o	-2.411812
-1.272568	p p	-3.186461
-0.7568906	p r	-3.83462
-1.727093	p s	-1.336808
-1.608869	p t	-1.32813
-1.444559	p u	-2.485141
-3.624141	p w	-0.8170469
-5.004352	p x
-2.422888	p y	-1.299079
-3.597279	q .
-2.291702	q </s>
-3.597279	q @
-3.597279	q a
-2.541579	q i	-0.4722174
-0.004039978	q u	-3.445149
-3.597279	q v
-4.464208	r $	-0.9496315
-5.468756	r '
-5.468756	r *
-3.611423	r -	0.0486442
-2.130761	r .	-1.592157
-5.468756	r 1
-4.67153	r 2	-0.2287099
-0.7095445	r </s>
-5.303332	r P	-0.5577086
-1.135243	r a	-1.170348
-2.674451	r b	-1.515794
-1.949993	r c	-1.814582
-1.688598	r d	-1.468477
-0.5984899	r e	-2.262603
-2.61679	r f	-1.432911
-1.932091	r g	-1.788842
-2.932729	r h	-1.504532
-1.089689	r i	-2.216081
-4.045079	r j	-1.035448
-1.833907	r k	-0.8722414
-1.986906	r l	-2.402719
-1.743326	r m	-2.020106
-1.650377	r n	-2.502924
-1.041208	r o	-0.780382
-2.2441	r p	-1.6802
-4.765238	r q	1.334454
-1.856619	r r	-2.444504
-1.227042	r s	-2.183846
-1.294828	r t	-0.5120725
-1.846946	r u	-1.888594
-2.165082	r v	-1.078402
-2.856753	r w	-1.832479
-5.015275	r x	-0.2261615
-1.484034	r y	-1.111522
-5.303332	r z
-5.508035	s '
-4.365185	s *	-0.8153762
-3.482298	s -	-0.3101322
-2.989937	s .	-0.4625586
-4.230486	s /	-0.4452466
-5.508035	s 2
-5.054554	s 4	-0.285478
-0.3408785	s </s>
-5.508035	s ?
-5.508035	s I
-5.342611	s _
-1.441235	s a	-1.167885
-3.181268	s b	-1.181612
-1.925422	s c	-2.513203
-2.84073	s d	-1.970093
-1.015607	s e	-1.738906
-2.826794	s f	-2.316738
-3.64315	s g	-1.338845
-1.492817	s h	-0.5974801
-1.207097	s i	-1.710102
-5.508035	s j
-2.332127	s k	-1.705924
-2.240444	s l	-2.829177
-2.219904	s m	-2.384437
-3.037362	s n	-1.798657
-1.369032	s o	-2.064589
-1.679525	s p	-2.14525
-3.415352	s q	0.03778858
-3.402256	s r	-1.712092
-1.392856	s s	-2.335717
-0.8601584	s t	-2.013973
-1.481008	s u	-2.784061
-5.342611	s v	-0.529814
-2.678224	s w	-2.305176
-2.361646	s y	-2.006476
-5.508035	s z
-5.663197	t &
-5.209716	t '	-0.04807365
-3.880498	t -	0.03395874
-3.464829	t .	-0.9804984
-4.865971	t /	-0.5836966
-5.663197	t 3
-0.5976305	t </s>
-5.497773	t ?	-0.557757
-5.497773	t @
-5.663197	t B
-5.663197	t C
-5.663197	t E
-5.663197	t G
-5.663197	t N
-4.865971	t _	-0.1445146
-1.371043	t a	-1.740194
-3.464829	t b	-1.117367
-2.553992	t c	-1.749804
-4.260709	t d	-1.278943
-1.036487	t e	-2.055682
-3.328743	t f	-2.100245
-3.642661	t g	-1.348632
-0.5616698	t h	-1.123086
-0.9998511	t i	-2.035808
-2.097399	t l	-3.384288
-2.413445	t m	-2.334641
-3.11149	t n	-2.142217
-1.003247	t o	-1.836799
-3.243676	t p	-1.172703
-5.663197	t q
-1.442417	t r	-4.027464
-1.484953	t s	-2.160425
-1.873141	t t	-1.651582
-1.771173	t u	-2.450076
-4.913147	t v	-0.9154237
-2.12765	t w	-2.589804
-1.826939	t y	-2.194725
-3.918287	t z	-0.6789296
-4.673925	u '	-0.2738632
-3.984556	u -	-0.500771
-5.127406	u /
-1.224476	u </s>
-4.961982	u @	-0.502616
-4.673925	u A	-0.6164515
-5.127406	u I
-1.446851	u a	-2.364296
-1.736806	u b	0.5928042
-1.280171	u c	-2.095033
-1.660274	u d	-0.9485826
-1.409999	u e	-1.668406
-2.312458	u f	-2.417545
-1.458922	u g	-1.895582
-1.608145	u h	-2.836905
-1.601884	u i	-1.920245
-3.372736	u j	-1.647627
-4.331304	u k	-0.3041461
-1.06906	u l	-1.651132
-1.439361	u m	-1.23978
-0.9768082	u n	-2.056638
-2.601067	u o	-1.460655
-1.348798	u p	-1.231797
-0.882091	u r	-1.959712
-0.8885312	u s	-1.93573
-0.8481814	u t	-0.941309
-4.423889	u u	-0.6828843
-3.481881	u v	-0.1851198
-3.402699	u x	-1.184209
-2.293555	u y	-2.124925
-3.309945	u z	-1.124937
-4.719411	v '
-2.791879	v .	-0.482725
-4.719411	v /
-3.471826	v </s>
-1.202981	v a	-2.149127
-0.1495623	v e	-2.69433
-0.7493095	v i	-2.101194
-1.366072	v o	-2.065771
-4.719411	v p
-4.719411	v r
-3.256226	v s	-0.9391634
-2.964741	v u	-1.393902
-3.922185	v v	-0.2630307
-2.430433	v y	-1.518234
-3.881892	w -	-0.1577219
-3.304655	w .	-0.5660218
-4.937592	w /
-0.8578623	w </s>
-4.937592	w _
-0.7682082	w a	-2.241761
-3.605685	w b	-0.741743
-3.31762	w c	-1.23166
-2.73233	w d	-0.6877546
-0.7841332	w e	-3.124902
-3.292066	w f	-1.528556
-4.772168	w g
-0.8061825	w h	-3.539693
-0.7669102	w i	-2.777718
-3.455923	w k	-0.7247189
-2.347584	w l	-1.646426
-2.997285	w m	-1.598452
-1.448922	w n	-2.204107
-0.9305541	w o	-2.555814
-4.187542	w p	-0.3486803
-1.94908	w r	-2.815671
-1.771676	w s	-1.365418
-2.333707	w t	-2.363145
-4.187542	w u	-0.3433728
-2.94404	w w	-1.718267
-2.613418	w y	-1.167614
-2.425406	x -	0.2540649
-3.808598	x .
-3.974022	x 6
-0.8916522	x </s>
-1.164143	x a	-2.04638
-1.032458	x c	-1.987668
-1.000408	x e	-2.232764
-3.808598	x f	-0.4712886
-1.908776	x h	-1.81279
-1.195871	x i	-1.24509
-3.974022	x l
-2.474624	x o	-1.017555
-0.4682437	x p	-2.96856
-3.808598	x q	1.475505
-0.765015	x t	-1.086504
-1.964079	x u	-1.291762
-2.530141	x y	-0.8219142
-3.808598	x z	-0.5577461
-3.974022	x À
-4.970349	y &
-4.266831	y '	-0.1947197
-3.526469	y *	-1.097923
-4.970349	y +
-3.722763	y -	-0.6354696
-3.914649	y .	-0.3981164
-4.970349	y /
-4.970349	y 1
-0.1561321	y </s>
-4.804924	y =
-4.174246	y @	-0.6376861
-4.970349	y _
-2.633363	y a	-0.8194719
-2.258231	y b	-1.803691
-2.583334	y c	-2.107724
-3.266831	y d	-1.12718
-1.059197	y e	-2.149164
-3.613619	y f	-0.81963
-3.470951	y g	-0.553264
-3.827498	y h	-1.047488
-1.67884	y i	-3.196965
-4.970349	y j
-2.495979	y l	-1.374035
-2.250843	y m	-0.8904022
-2.761681	y n	-1.198427
-1.012162	y o	-2.629434
-2.427982	y p	-1.164965
-2.960406	y r	-0.8511552
-1.261329	y s	-1.99652
-2.186746	y t	-2.108378
-2.467491	y u	-1.555828
-2.514783	y w	-1.086058
-3.754948	y x	-1.054293
-3.18765	y z	-1.193102
-3.112466	z *	-0.3569082
-1.851706	z </s>
-3.400523	z @	-0.5524144
-0.7887112	z a	-1.685156
-3.400523	z b	-0.5070723
-0.2778157	z e	-1.741753
-2.06655	z h	-0.5847955
-0.8310211	z i	-1.659187
-3.565947	z k
-2.002092	z l	-1.083792
-3.565947	z m
-3.565947	z n
-1.199672	z o	-1.092354
-3.565947	z p
-2.350546	z u	-0.4354169
-2.768721	z v	-0.5459749
-3.112466	z w	-0.5665067
-3.400523	z x
-1.638415	z y	-0.8715534
-1.496007	z z	0.3075283
-0.04657614	{ </s>
-1.87231	{ a
-1.87231	{ h
-1.87231	{ o
-1.418829	{ t	-0.240414
-0.007178585	} </s>
-0.8325089	~ </s>
-1.480486	~ B	-0.5928929
-0.09214623	~ ~	-0.3928004
-0.7141848	Ä ê	-0.3459249
-0.7141848	Ä ë	-0.1818459
-0.8796089	Ä ô
-0.8796089	Ä Ô
-0.01424044	É ª	0
-0.09691001	Ü í	0
-0.1014576	à ‰
-0.1014576	â </s>
-0.4024876	ä </s>
-0.4024876	ä L
-0.09691001	å √	-0.2675746
-0.8004276	å ‚
-0.3469468	è </s>
-0.8004276	è S
-0.8004276	è T
-0.4131548	ê </s>
-0.5785789	ê A
-0.2370635	ë </s>
-0.09691001	í </s>
-0.09691001	ñ †	-0.08043511
-0.8004276	ñ °
-0.003201505	ó è	-0.005138618
-0.4024876	ô </s>
-0.4024876	ô g
-0.1014576	ö </s>
-0.1014576	õ D
-0.8004276	† -
-0.6350035	† </s>
-0.8004276	† B
-0.8004276	† C
-0.1014576	° </s>
-0.4024876	• 2
-0.4024876	• </s>
-0.1014576	≤ .
-0.125098	∂ ]	1.533732
-0.05115252	∑ </s>
-0.1014576	∏ Ä
-0.01424044	ª </s>
-0.8004276	º à
-0.8004276	º â
-0.6350035	º ä
-0.8004276	º ö
-0.2370635	ø •
-0.05115252	¬ ∑	0
-0.3456242	√ å	0
-1.14285	√ õ
-1.14285	√ †
-1.14285	√ ≤
-0.6893694	√ ∂	-0.01913077
-0.1014576	À ô
-0.1014576	Ÿ ê
-1.277549	‚ Ä
-0.5740313	‚ Ü	0
-0.4803227	‚ ñ	0
-0.4803227	‚ ó	1.548351
-0.9420081	„ Ä	-0.345925
-0.06694679	„ É	0
-0.1014576	‰ ∏
-0.1493295	Ô º	-0.03382428
-0.7811316	Ô ø	-0.1818459

\3-grams:
-0.4494498	! ! !	-0.5047926
-1.278754	! ! .	-0.04038812
-0.2787536	! ! </s>
-1.312383	! ! ?	-0.01962218
-0.8396791	. ! !
-0.266615	. ! </s>
-0.9231288	<s> ! !	-0.1251512
-0.0617936	<s> ! </s>
-1.974281	<s> ! ?	-1.267858
-0.3168004	? ! !
-0.0001113147	<s> " </s>
-0.008773924	<s> # </s>
-0.02632894	< $ B	0
-0.000323256	<s> $ </s>
-0.111713	C $ </s>
-0.01848341	S $ </s>
-0.004116566	T $ </s>
-0.05115252	e $ >	0.2762064
-0.05115252	r $ >	0.2762064
-2.123525	<s> % </s>
-1.331133	<s> % a	0
-1.179042	<s> % e	0
-0.9331933	<s> % h	-1.062456
-1.352673	<s> % m	0
-2.521465	<s> % p	-0.9683195
-0.1458014	<s> % u	0
-0.4417391	1 & e	0.01361482
-0.146128	<s> & </s>
-0.9858071	<s> & o
-0.04575749	R & D	0
-0.09691001	S & L	0.01361483
-0.0001642877	' ' </s>
-0.03476211	0 ' s	2.575632
-0.8012605	<s> ' '	0
-4.063201	<s> ' 0	0.01361482
-3.621462	<s> ' 6	-0.04038812
-4.063201	<s> ' 7	0.01361482
-3.655091	<s> ' 8	0.03585136
-2.792158	<s> ' 9	-0.2822318
-1.385934	<s> ' </s>
-4.063201	<s> ' I	-0.2584917
-3.621462	<s> ' N	-0.9683195
-3.621462	<s> ' S	-1.081611
-4.063201	<s> ' a	0.01996747
-1.815282	<s> ' d	0.001686608
-1.426254	<s> ' l	0.002069704
-1.302877	<s> ' m	0.000521019
-4.063201	<s> ' n	-0.4885189
-1.132207	<s> ' r	0.0003515262
-0.2344282	<s> ' s	-0.2995185
-1.418701	<s> ' v	0.001357195
-0.09691001	A ' s	2.022286
-0.1305395	F ' s	3.121454
-0.111713	a ' a	-0.2808266
-0.3168004	e ' s
-0.08715018	i ' n	-0.39794
-2.621753	n ' </s>
-0.001154425	n ' t	0.0001155637
-0.4417391	o ' c	0.01361482
-0.4417391	o ' s	3.145271
-0.3168004	t ' s	3.145271
-0.3168004	u ' l	2.255725
-0.4417391	y ' a	-0.4830734
-0.0003057336	<s> ( </s>
-0.0003006539	<s> ) </s>
-0.1407091	! * </s>
-0.8920946	* * *	-0.8683279
-1.466126	* * ,	-0.9683195
-1.907865	* * .	0.01361482
-0.3869446	* * </s>
-1.70996	* * A	-0.1036973
-1.907865	* * D	0.01361482
-1.907865	* * M	0.01361482
-1.907865	* * Y
-1.346273	* * a	0.01361483
-1.907865	* * b
-1.907865	* * d	0.01361482
-1.026793	* * o	0
-1.70996	* * p
-1.346273	* * s	-0.02660026
-1.70996	* * t	0.0048999
-1.907865	* * u
-0.1597008	<s> * *	-0.5164798
-0.5303668	<s> * </s>
-0.266615	\ * </s>
-0.6417736	\ * \	-0.1036973
-0.4417391	e * *
-0.4417391	e * </s>
-0.09691001	h * *	-1.437953
-0.1407091	o * *	-0.3149672
-0.03778856	s * *	-0.8120559
-0.01930515	y * *	-1.33444
-0.1188949	z * *	-0.4950738
-0.3168004	+ + </s>
-0.5218875	<s> + </s>
-1.094952	<s> + S
-1.094952	<s> + c	0.01361482
-0.09691001	* , </s>
-0.7427691	, , ,
-0.30103	, , </s>
-0.7427691	, , ^	0.01361482
-0.0073611	0 , 0	-1.065491
-2.392347	0 , 4
-2.392347	0 , 7
-0.3723859	1 , 0	0.5936481
-1.079181	1 , 1	0.07030316
-1.166331	1 , 2	-0.1405689
-1.006631	1 , 3	-0.1799385
-1.217484	1 , 4	-0.3148183
-1.387189	1 , 5	0.1039299
-1.387189	1 , 6	-0.1228361
-1.387189	1 , 7	-0.1517684
-1.079181	1 , 8	-0.1251933
-1.762348	1 , 9	-0.1666287
-0.2703612	2 , 0	0.5783668
-1.555587	2 , 1	-0.08709237
-1.311754	2 , 2	-1.166687
-1.753493	2 , 3
-1.311754	2 , 4	0.09530377
-1.180429	2 , 5	0.169175
-1.311754	2 , 6
-1.753493	2 , 7	-0.3938174
-1.191901	2 , 8	0.02577776
-1.191901	2 , 9
-0.1068942	3 , 0	-0.1524169
-1.382136	3 , 1
-1.580042	3 , 4
-1.382136	3 , 5	0.2081081
-1.382136	3 , 8	-0.1370058
-0.3187588	4 , 0	-0.1128965
-1.538649	4 , 1	-0.350484
-1.538649	4 , 3
-1.130539	4 , 4	-0.2310366
-0.965585	4 , 5	-0.04512656
-1.340744	4 , 6
-1.538649	4 , 7
-1.538649	4 , 8
-1.538649	4 , 9
-0.1051045	5 , 0	-0.4432277
-1.869063	5 , 2
-1.671157	5 , 4
-1.671157	5 , 5	0.2081081
-1.427324	5 , 6	-0.1575479
-1.671157	5 , 7
-1.671157	5 , 8	-0.2339158
-1.671157	5 , 9
-0.2887955	6 , 0	0.225779
-1.383747	6 , 1	-0.502743
-1.383747	6 , 2	-0.4887469
-0.9420081	6 , 4	-0.1367079
-1.185842	6 , 5	-0.2353901
-1.185842	6 , 8
-0.2218488	7 , 0	0.2769316
-1.039714	7 , 5
-0.79588	7 , 8
-0.2609128	8 , 0	0.225779
-1.331041	8 , 1
-1.133135	8 , 3
-1.331041	8 , 4
-0.8893017	8 , 8	-0.1288736
-0.2688453	9 , 0	0.3049603
-0.8465428	9 , 3	-0.1118138
-1.056747	9 , 5	-0.2353901
-1.056747	9 , 8
-4.059573	<s> , ,	-0.1062765
-4.733094e-05	<s> , </s>
-0.1407091	^ , ,	-0.4576867
-0.7328488	- - -	-0.04666648
-0.09070167	- - </s>
-2.513363	- - R	-0.03218469
-0.3521825	0 - d	-1.623534
-0.3407436	1 - </s>
-0.4417391	2 - </s>
-0.4417391	2 - R	0.2686094
-0.4417391	7 - 0	-0.3959893
-0.05623797	: - -	-0.8437642
-0.7684445	<s> - -	-0.687762
-0.08146884	<s> - </s>
-3.344588	<s> - L	0.3474493
-1.043799	B - 0	-0.3959893
-0.30103	B - </s>
-0.8458936	B - c	-0.7132591
-1.043799	B - x
-0.04575749	X - r	-0.69897
-0.111492	a - </s>
-1.563955	a - o	-0.5261214
-1.563955	a - p
-1.563955	a - s
-0.4771213	b - </s>
-0.9188603	b - c
-0.9188603	b - s
-0.2780867	c - </s>
-0.6417736	c - R	0.0885028
-0.4101745	d - 1	0.04275196
-0.90309	d - </s>
-1.697012	d - J
-0.8159398	d - O	0.03476212
-0.90309	d - b	-0.7212464
-1.697012	d - s
-2.223495	e - 1	0.960846
-0.9066941	e - </s>
-1.815385	e - a	-0.6297113
-2.025589	e - b
-0.9858754	e - c	-0.5077911
-1.342423	e - d	-0.6904319
-0.6936193	e - e	-0.67992
-1.781755	e - f	0.09329776
-1.342423	e - g	-0.3231622
-1.65043	e - i	0.3588843
-2.223495	e - l
-1.061596	e - m	-1.447329
-1.815385	e - o	-0.2715541
-1.207724	e - p	-0.7529345
-1.781755	e - q	-0.9683195
-1.815385	e - r	-0.3983699
-1.179695	e - s	0.1448736
-1.304634	e - t	-0.6854547
-2.223495	e - u	-0.4682092
-2.223495	e - w
-0.05623797	f - </s>
-0.04139268	g - </s>
-1.498311	h - </s>
-0.01921971	h - h	-0.9458219
-2.680412	h - p
-2.238673	h - u	-1.412017
-0.7683914	i - </s>
-2.085192	i - C
-2.085192	i - M	-0.2796583
-0.9232934	i - a	-0.4915943
-1.887286	i - b
-1.20412	i - c	-0.3659038
-1.20412	i - d	-0.605748
-2.085192	i - e
-1.245513	i - f	-0.2713779
-1.643453	i - g	-0.2459384
-1.342423	i - i	-0.2772723
-1.512128	i - l	-0.03391508
-1.677082	i - m	-0.10265
-1.131569	i - n	-0.6368221
-2.085192	i - o
-1.29127	i - p	-0.3374528
-1.20412	i - s	0.1808392
-1.069421	i - t	-0.1851829
-1.523599	i - w	-0.4648868
-0.1188949	j - </s>
-0.2863067	l - </s>
-1.302077	l - a	-0.5315544
-0.559308	l - j	0
-0.1305395	m - </s>
-0.8962505	n - </s>
-1.742144	n - a
-1.146128	n - c	0.3383149
-0.9864272	n - d	0.3367291
-1.197281	n - e	-0.1683072
-1.498311	n - f	0.09329776
-1.94005	n - g	-0.3829359
-1.378457	n - i	0.1952727
-1.498311	n - l	-0.2971099
-1.53194	n - m	0.08187439
-1.378457	n - n	-0.3165657
-0.8699216	n - p	-0.5408089
-1.53194	n - r	-0.4933676
-1.53194	n - s	0.03030088
-1.742144	n - t	-0.2195416
-1.742144	n - u	-0.5974383
-0.9542425	n - v	0.08432089
-1.232149	o - </s>
-1.80618	o - B	-1.190168
-1.262112	o - a	-0.5671558
-0.9610819	o - c	-1.813417
-1.262112	o - d	-0.9372443
-1.294297	o - e	-0.7607116
-1.674855	o - f	-0.5598623
-1.80618	o - g	-0.1563515
-2.247919	o - h	-0.5409092
-1.80618	o - i	0.1947536
-2.247919	o - m	-0.1726929
-0.3400541	o - o	-0.7762031
-1.674855	o - p	0.13134
-2.247919	o - r
-1.40824	o - s	-0.9907379
-1.80618	o - t	0.01218203
-1.80618	o - w	-0.2996041
-0.05623797	p - </s>
-0.6766936	r - </s>
-1.595554	r - E	0.01361482
-1.187444	r - a	-0.5769325
-1.397648	r - c
-1.397648	r - e
-1.595554	r - f	-0.2590683
-1.397648	r - g	-0.245326
-1.187444	r - i	0.03393901
-1.397648	r - l	-0.5949722
-1.595554	r - n
-1.595554	r - o
-1.595554	r - p
-1.397648	r - r
-1.397648	r - s	0.1033016
-1.397648	r - t	-0.07679241
-0.9700368	s - </s>
-1.763958	s - b	-0.4887469
-1.355849	s - c	-0.464751
-1.566053	s - g	-0.517285
-1.763958	s - n	-0.0671827
-1.763958	s - o
-1.763958	s - p	-0.4795786
-0.2000034	s - s	-2.270591
-0.5672979	t - </s>
-1.52092	t - S	-0.1763272
-1.52092	t - c	-0.5173685
-1.112811	t - e	-0.236215
-1.323015	t - i	-0.1223505
-1.112811	t - p	-0.2119331
-1.079181	t - s	-0.02539147
-0.9593279	t - w	-0.4648868
-0.04139268	u - </s>
-0.2323292	w - </s>
-0.5960161	w - h	-0.7210158
-1.286837	x - </s>
-1.088932	x - P	-0.02544055
-1.286837	x - g
-0.8787275	x - h	1.308225
-1.286837	x - p	-0.09311844
-0.7252448	x - r	-0.544068
-1.286837	x - w	-0.5173065
-0.02996322	y - </s>
-0.2438336	! . </s>
-0.1407091	* . </s>
-2.018284	. . !	-0.2856091
-0.3489674	. . .	0.1633916
-0.278712	. . </s>
-2.416224	. . ?	-0.9683195
-2.018284	. . @	0.006325424
-1.34733	0 . .	-1.409428
-1.216005	0 . 0	-0.064642
-0.9079973	0 . 1	-0.1133953
-0.9079973	0 . 2	0.1011429
-0.9079973	0 . 3	-0.5166438
-1.591164	0 . 4
-0.8702087	0 . 5	-0.1236731
-0.8354467	0 . 6	-0.6821766
-1.591164	0 . 7	0.0256501
-1.789069	0 . 8
-1.216005	0 . 9	-0.09319788
-1.591164	0 . </s>
-1.206968	1 . 0	-0.1257659
-1.163502	1 . 1	-0.07918463
-0.9943597	1 . 2	-0.002246915
-1.054358	1 . 3	-0.4963869
-1.087781	1 . 4	-0.3371124
-0.8836614	1 . 5	-0.1532317
-1.054358	1 . 6	-0.1172218
-1.255273	1 . 7	-0.008853843
-0.8044802	1 . 8	-0.1681395
-1.255273	1 . 9	-0.1846289
-1.038563	1 . </s>
-2.127495	1 . c	0.7888071
-1.355388	2 . 0	-0.09285772
-1.030877	2 . 1	-0.1976819
-1.133539	2 . 2	-0.2935129
-1.40654	2 . 3	-0.07938197
-1.030877	2 . 4	-0.1829513
-0.8182685	2 . 5	-0.03900806
-1.195687	2 . 6	-0.1236861
-1.268237	2 . 7	-0.1387121
-0.8946568	2 . 8	-0.4458979
-1.230449	2 . 9	-0.07585268
-0.7655621	2 . </s>
-1.951404	2 . h	0.3895328
-1.398661	3 . 0	-0.09417992
-0.8418204	3 . 1	-0.3255682
-1.006631	3 . 2	0.1070141
-1.398661	3 . 3	0.05321488
-1.120574	3 . 4	-0.4070834
-1.006631	3 . 5	-0.3992206
-1.120574	3 . 6	-0.4507059
-1.518514	3 . 7	0.1146245
-0.7983546	3 . 8	0.09822563
-1.120574	3 . 9	0.02953095
-0.8653014	3 . </s>
-1.960253	3 . h	0.5696394
-1.227477	4 . 0	-0.05743096
-1.591164	4 . 1
-1.38096	4 . 2	-0.06653288
-1.227477	4 . 3	-0.1796241
-1.0463	4 . 4	0.1343291
-0.64836	4 . 5	-0.09977967
-1.227477	4 . 6	-0.08497372
-0.9951475	4 . 7	-0.3884069
-1.216005	4 . 8	0.0296536
-1.38096	4 . 9	-0.1202509
-0.803262	4 . </s>
-1.241875	5 . 0	-0.05013172
-1.060698	5 . 1	-0.09163588
-1.230403	5 . 2	-0.1324908
-1.060698	5 . 3	0.121644
-1.060698	5 . 4	-0.1519271
-0.9223952	5 . 5	0.1042092
-0.9223952	5 . 6	-0.02060908
-0.9637879	5 . 7	0.112711
-1.230403	5 . 8	-0.126751
-1.395357	5 . 9	-0.07181906
-1.009545	5 . </s>
-1.317018	6 . 0
-0.8776854	6 . 1	-0.0169199
-0.9648356	6 . 2	-0.08410253
-1.350648	6 . 3	0.1330358
-1.350648	6 . 4	0.1457208
-0.9648356	6 . 5	0.1987704
-0.9190781	6 . 6	0.1064415
-1.317018	6 . 7	-0.1007439
-1.015988	6 . 8	-0.03549718
-0.9190781	6 . 9	-0.4994175
-1.350648	6 . </s>
-1.560852	6 . c	0.7888071
-1.38096	7 . 0	-0.07816871
-0.9079973	7 . 1	-0.204243
-1.38096	7 . 2	-0.354196
-1.216005	7 . 3	-0.0742209
-1.227477	7 . 4	-0.6166281
-0.7732987	7 . 5	-0.1273994
-1.0463	7 . 6	-0.08048938
-1.227477	7 . 7	-0.1522632
-0.9951475	7 . 8	-0.2531338
-1.0463	7 . 9	-0.06513827
-1.216005	7 . </s>
-1.447954	8 . 0
-1.084267	8 . 1	-0.09894682
-0.8519375	8 . 2	-0.09516675
-1.20412	8 . 3
-1.237749	8 . 4
-0.7269987	8 . 5	-0.03117308
-1.20412	8 . 6
-1.237749	8 . 7
-1.237749	8 . 8	-0.4341751
-0.8519375	8 . 9	0.09157426
-1.499106	9 . 0
-0.8573325	9 . 1	-0.1504599
-1.697012	9 . 2
-0.7781513	9 . 3	-0.1979197
-1.288902	9 . 4	0.1457208
-1.288902	9 . 6	0.03207691
-0.8573325	9 . 7	0.02168135
-0.90309	9 . 8	0.0340143
-0.9542425	9 . 9	0.05751609
-1.288902	9 . </s>
-1.697012	9 . h	0.5696394
-1.93935	<s> . .	-1.049217
-0.005031812	<s> . </s>
-0.1407091	? . .
-0.3168004	@ . 3	-0.5377788
-0.07463362	A . </s>
-1.118433	A . D	0.3712663
-0.4199249	C . D	0.1911597
-0.5960161	D . </s>
-0.3521825	D . s	-1.558145
-0.02482358	H . </s>
-0.1407091	J . </s>
-0.1407091	N . </s>
-0.1188949	R . </s>
-0.2780867	S . </s>
-0.2097207	T . </s>
-0.111713	U . S	-1.140903
-1.043799	a . .	-0.2864421
-0.4822067	a . c	0.6681195
-0.6356894	a . m	-0.1686899
-0.6417736	b . </s>
-0.6417736	b . c	0.7888071
-0.8396791	b . w	-0.3493784
-0.004364805	c . </s>
-2.140709	c . c	0.9689137
-0.4417391	d . p	-0.2174632
-0.1627273	e . </s>
-0.1407091	f . </s>
-0.2082759	g . </s>
-0.7201593	g . c	-0.1540719
-1.161898	g . i	-0.3493784
-0.9858071	h . </s>
-0.7879016	h . a	-0.6054515
-0.243038	h . c	0.5589751
-0.07255067	i . e	-0.2662679
-0.8381492	l . </s>
-0.08482151	l . c	-0.2027857
-1.452463	m . .	-0.5401199
-0.3823349	m . </s>
-0.5713912	m . c	0.4891813
-0.6585413	m . s	-0.6478175
-0.07085586	n . </s>
-0.8545396	n . c	0.3670896
-0.1149545	o . </s>
-0.6792259	o . c	0.5132176
-0.004547628	p . </s>
-0.0005041144	r . </s>
-2.25632	s . 8	-0.527666
-0.07619639	s . </s>
-0.8981265	s . c	-0.01826131
-1.814581	s . n	-1.284611
-0.007004902	t . </s>
-1.936589	t . c
-0.006530867	v . </s>
-1.173253	w . 1	-0.6872687
-0.4175356	w . a	-0.7579479
-1.371158	w . d	0.0764093
-1.371158	w . e
-1.371158	w . i
-1.371158	w . m	-0.4682092
-1.173253	w . p
-1.371158	w . w	-0.3493784
-0.2208575	y . c	0.6681195
-1.441114	/ / A	-0.1036973
-1.441114	/ / a	-0.1803805
-1.197281	/ / b	0.01361483
-0.520587	/ / m	-0.2575643
-1.63902	/ / p	0.06306088
-0.3521825	/ / w	-0.1956857
-0.1407091	0 / 3	0.5348772
-0.8586708	1 / 1	-0.1760913
-0.39794	1 / 2	-0.9793382
-1.091	1 / 3	0.7394223
-0.6667853	1 / 4	-0.2914847
-0.8586708	1 / 8	0.462398
-0.5107507	2 / 1	-0.3620887
-0.9188603	2 / 2
-0.7209548	2 / 3	0.7982689
-0.9188603	2 / 6
-1.118433	3 / 1
-1.118433	3 / 2
-0.5568403	3 / 3	0.2340832
-0.5568403	3 / 4	0.03950855
-0.9205272	3 / 8	0.7379875
-0.4417391	4 / 1	-0.243274
-1.070128	5 / 1
-0.6620184	5 / 3	0.5110602
-0.2304489	5 / 8	0.4210053
-0.4771213	6 / 2	0.0593494
-0.5107507	6 / r	0.3861215
-0.5085356	7 / 3	0.2340832
-0.5085356	7 / 8	0.6173
-0.8722225	7 / r	0.229832
-0.3168004	8 / 3	0.5348772
-0.6847771	9 / 1
-0.243038	9 / 3	-0.5881083
-0.006839424	: / /	-0.01486222
-0.00203417	<s> / </s>
-0.1760913	a / c	-0.4771212
-0.9188603	a / d
-1.094952	m / >	0.01361482
-1.094952	m / B	0.01361482
-1.094952	m / a	-0.443772
-1.094952	m / v	0.01361482
-0.1407091	o / a	-0.443772
-0.5740313	s / 1
-0.6076607	s / 2	-0.08468138
-1.01577	s / 4	-0.5160938
-1.01577	s / s
-0.3407436	t / p	0.3264525
-0.5386491	t / s	-0.4682092
-0.1407091	' 0 7	-0.04116929
-0.01458836	, 0 0	-2.647375
-2.221414	, 0 1
-2.663153	, 0 2
-2.465248	, 0 4	-0.2656913
-2.221414	, 0 5	-0.1802608
-2.663153	, 0 6
-2.465248	, 0 7
-2.663153	, 0 9
-0.5386491	- 0 1	-0.5386072
-0.5386491	- 0 2	-0.5322862
-1.270419	. 0 0	-0.03019719
-1.678528	. 0 1	-0.197951
-1.116936	. 0 2	0.2035452
-1.270419	. 0 3	0.3437318
-1.116936	. 0 4	-0.06694679
-1.105464	. 0 5	-1.540858
-0.8846066	. 0 6	-0.4101744
-1.116936	. 0 7	0.04430896
-1.116936	. 0 8	-0.09564781
-1.116936	. 0 9	-0.01646657
-0.8388491	. 0 </s>
-1.29588	0 0 ,	-0.3189047
-2.817354	0 0 -	0.1091067
-2.783725	0 0 .	-1.647318
-0.507838	0 0 0	-1.229977
-1.854306	0 0 1	-0.7080047
-2.271842	0 0 2	-0.5036108
-2.181665	0 0 3	-0.5706515
-2.084755	0 0 4	-0.2218487
-1.783725	0 0 5	-0.9507942
-1.854306	0 0 6	-0.5160512
-1.704544	0 0 7	-0.7837751
-2.783725	0 0 8	-0.04412853
-2.385785	0 0 9	-0.5576409
-0.2675202	0 0 </s>
-2.817354	0 0 @	-0.08194958
-3.225464	0 0 _
-3.225464	0 0 t	1.211571
-1.028742	1 0 ,	0.3196721
-1.404406	1 0 .	-0.195107
-2.624296	1 0 /	0.01361482
-0.4968156	1 0 0	-0.9072683
-1.608526	1 0 1	-0.3834041
-1.580497	1 0 2	-0.5937875
-1.784617	1 0 3	-0.06550154
-2.062704	1 0 4	0.3713639
-1.830375	1 0 5	-0.08688402
-2.051232	1 0 6	0.04174853
-2.051232	1 0 7	0.1832892
-2.182557	1 0 8	0.17124
-2.182557	1 0 9	0.2504212
-0.3972275	1 0 </s>
-2.051232	1 0 t	-0.3392704
-1.261263	2 0 ,	0.172457
-1.960233	2 0 .	-0.1303097
-0.2823979	2 0 0	-0.2062214
-1.541104	2 0 1	0.1278
-2.129938	2 0 2	0.3129764
-2.703002	2 0 3	0.08916449
-2.703002	2 0 4	0.2338473
-2.261263	2 0 5	0.3623493
-2.505096	2 0 7
-0.507297	2 0 </s>
-2.14141	2 0 s	1.462398
-1.483112	2 0 t	0.3579348
-2.505096	2 0 z	-0.1036973
-1.253074	3 0 ,	0.4127891
-2.435175	3 0 -	-0.2890314
-1.862111	3 0 .	-0.1885964
-0.655977	3 0 0	-1.129686
-1.595496	3 0 1	-0.653647
-2.23727	3 0 3	0.3525561
-1.993436	3 0 5	-1.113002
-1.993436	3 0 9	0.03505271
-0.2281403	3 0 </s>
-1.862111	3 0 s	0.2123508
-1.554103	3 0 t	0.6766936
-1.244586	4 0 ,	0.570397
-1.880276	4 0 .
-0.5192874	4 0 0	-1.989074
-2.09048	4 0 1	0.0654406
-2.09048	4 0 5
-0.2583746	4 0 </s>
-1.715321	4 0 s	0.2123508
-1.846646	4 0 t	0.08858532
-0.9229848	5 0 ,	0.02632893
-2.312947	5 0 .
-0.5883875	5 0 0	-1.077212
-2.510852	5 0 1
-2.510852	5 0 8
-0.2578731	5 0 </s>
-1.467053	5 0 s	1.077047
-2.102742	5 0 t	1.187754
-1.213075	6 0 ,	0.6605736
-2.131935	6 0 .
-0.6690068	6 0 0	-0.6176755
-2.131935	6 0 3	-0.5019001
-1.690196	6 0 5	-0.1802608
-0.2794189	6 0 </s>
-0.8943161	6 0 s	0.8925227
-2.131935	6 0 t	1.211571
-1.129095	7 0 ,	0.6283889
-1.339948	7 0 .	-0.1499299
-0.7516764	7 0 0	-0.25625
-2.082717	7 0 1
-1.884812	7 0 3	-0.09094209
-0.4105291	7 0 </s>
-0.5802802	7 0 s	0.6353982
-1.792392	8 0 '	-0.5533462
-1.31527	8 0 ,	0.6605736
-2.036225	8 0 .
-0.7816678	8 0 0	-1.224822
-2.234131	8 0 1
-2.036225	8 0 5	-0.1701233
-2.036225	8 0 8	-0.2465604
-2.036225	8 0 9	0.1614468
-0.3299937	8 0 </s>
-0.6235996	8 0 s	0.5293448
-1.602369	9 0 '	0.2688453
-1.602369	9 0 ,	1.36773
-2.163962	9 0 .
-1.06901	9 0 0	-0.672557
-2.163962	9 0 5	0.00998326
-1.966056	9 0 8	0.08226552
-1.722222	9 0 9	0.2504212
-0.2070112	9 0 </s>
-0.7802144	9 0 s	0.7511935
-0.4199249	: 0 0	0.05643078
-0.6178303	: 0 6	-0.0002359006
-0.6594614	<s> 0 .	-0.3218248
-0.6594614	<s> 0 0	-0.1042003
-1.021189	<s> 0 1	0.214296
-1.662963	<s> 0 2	0.3294201
-1.419129	<s> 0 5	-0.1802608
-1.419129	<s> 0 6
-0.9072459	<s> 0 7	0.3911447
-1.860868	<s> 0 8
-1.860868	<s> 0 9
-0.7659168	<s> 0 </s>
-0.4436975	, 1 0	-0.8334308
-0.79588	, 1 2	-0.315324
-1.237619	, 1 4
-1.039714	, 1 5
-1.039714	, 1 6
-1.237619	, 1 7
-0.01378828	- 1 9	-0.4614359
-1.132117	. 1 0	-0.7319181
-1.728133	. 1 1	-0.2776108
-1.08636	. 1 2	-0.3423074
-1.364447	. 1 3	-0.1328531
-1.132117	. 1 4	-0.3878467
-1.364447	. 1 5	0.02707245
-1.352975	. 1 6	-0.001324782
-1.517929	. 1 7
-1.364447	. 1 8	-0.6305172
-1.044967	. 1 9	-0.5932004
-0.3873898	. 1 </s>
-0.9086907	/ 1 1	-0.5556367
-0.8750613	/ 1 2	-0.4005836
-1.3168	/ 1 3
-0.30103	/ 1 4	-1.101733
-1.885002	0 1 -
-1.443263	0 1 .
-1.885002	0 1 /
-1.09108	0 1 0	-0.4188468
-1.687097	0 1 1	-0.468683
-1.00393	0 1 2	-0.1692204
-1.885002	0 1 3	-0.2703697
-1.443263	0 1 4	-1.433521
-1.885002	0 1 6	-0.2257832
-1.885002	0 1 8	-0.243274
-1.687097	0 1 9	-0.7092267
-0.2599931	0 1 </s>
-1.678973	1 1 ,	-0.1675461
-0.9800034	1 1 .	-0.2154452
-1.547648	1 1 /	-0.4535226
-1.326791	1 1 0	-0.8606687
-1.377943	1 1 1	-0.6236048
-1.547648	1 1 2	-0.1627915
-1.922807	1 1 3	-0.4504763
-2.120713	1 1 4	-0.5216793
-1.922807	1 1 5	-0.4713514
-1.922807	1 1 6	0.03760834
-1.678973	1 1 7	-0.1586129
-1.55912	1 1 8	-0.1057573
-1.239641	1 1 9	-0.3549379
-0.3516144	1 1 </s>
-2.120713	1 1 @	0.154666
-2.120713	1 1 _
-1.16709	1 1 t	0
-1.496027	2 1 ,	-0.04997635
-1.706232	2 1 .
-1.706232	2 1 /	-0.2441825
-1.706232	2 1 0	-0.05858796
-1.904137	2 1 1
-1.904137	2 1 3	-0.2703697
-1.706232	2 1 6	0.03760834
-1.706232	2 1 7
-1.706232	2 1 8	-0.2666907
-1.496027	2 1 9	-0.143013
-0.3832167	2 1 </s>
-0.545944	2 1 s	0.5956259
-1.342162	3 1 ,	-0.261436
-1.353634	3 1 .
-1.717321	3 1 0	-0.5020861
-1.473487	3 1 2	-0.1358791
-1.473487	3 1 5	-0.1624274
-1.915226	3 1 8	-0.243274
-0.4522977	3 1 </s>
-0.4034491	3 1 s	0.4458635
-0.4134522	4 1 .	-0.3741874
-1.153815	4 1 0	-0.184982
-1.397648	4 1 2	-0.4529832
-0.3579348	4 1 </s>
-0.6334684	5 1 .	-0.2156651
-1.473148	5 1 0
-1.275242	5 1 2	-0.009485054
-1.473148	5 1 3
-1.031408	5 1 6	-0.1406116
-0.3781959	5 1 </s>
-0.9661418	6 1 .
-1.407881	6 1 0	-0.3219795
-1.407881	6 1 1	-0.4962667
-0.9661418	6 1 3	-1.659769
-1.407881	6 1 4
-0.2894481	6 1 </s>
-0.9630484	7 1 .	-0.1044892
-0.1890562	7 1 </s>
-1.473148	8 1 ,
-1.473148	8 1 9
-0.07716595	8 1 </s>
-1.366068	9 1 .	-0.1183263
-1.366068	9 1 1	-0.4073911
-1.774178	9 1 5
-0.1084237	9 1 </s>
-0.5386491	: 1 5
-0.5386491	: 1 </s>
-1.575333	<s> 1 ,	-0.7945296
-3.460335	<s> 1 -	-0.2796583
-1.268474	<s> 1 .	-0.6465366
-1.913086	<s> 1 /	-0.7289974
-0.8818759	<s> 1 0	-0.4044464
-1.435965	<s> 1 1	-0.1194113
-1.348815	<s> 1 2	-0.2579261
-1.30051	<s> 1 3	-0.2797474
-1.416536	<s> 1 4	0.1180957
-1.219256	<s> 1 5	-0.2953518
-1.523746	<s> 1 6	0.03404536
-1.427532	<s> 1 7	-0.3106831
-1.456304	<s> 1 8	-0.1352634
-0.4189863	<s> 1 9	-0.106757
-1.304686	<s> 1 </s>
-1.904653	<s> 1 s	0.4028289
-0.8396791	= 1 &	-0.3493784
-0.8396791	= 1 0
-0.6417736	= 1 1	-0.2551515
-0.1407091	? 1 2	-0.5375811
-0.6178303	_ 1 6
-0.1188949	a 1 0	-0.1143432
-0.1407091	e 1 1	-0.5410024
-0.1648103	, 2 0	-0.4924159
-1.118433	, 2 2
-0.9205272	, 2 5	-0.1840024
-1.075141	. 2 0	-0.8382451
-1.869063	. 2 1
-1.460953	. 2 2	-0.2866865
-0.9879911	. 2 3	-0.3427208
-1.427324	. 2 4	-1.275752
-0.8832557	. 2 5	-0.7891467
-1.671157	. 2 6	-0.3605897
-1.460953	. 2 7	0.1359789
-1.295999	. 2 8	-0.06129512
-1.427324	. 2 9	-1.299313
-0.3959153	. 2 </s>
-1.452463	/ 2 /
-0.8793989	/ 2 0	0.0006519068
-1.452463	/ 2 4
-0.1814201	/ 2 </s>
-1.563955	0 2 ,
-1.563955	0 2 -	-0.3493784
-1.563955	0 2 3
-0.1222159	0 2 </s>
-1.478927	1 2 ,	-0.036542
-1.478927	1 2 .	-0.3151932
-1.813586	1 2 /	-0.3998241
-0.7192592	1 2 0	-0.5062398
-1.660104	1 2 2	-0.1875903
-2.221696	1 2 3
-1.813586	1 2 4	0.1018008
-1.340624	1 2 5	-0.04632571
-1.813586	1 2 6	-0.2804882
-1.813586	1 2 7	-0.380974
-1.813586	1 2 8	-0.3322646
-0.332799	1 2 </s>
-1.059798	1 2 t	0
-1.380558	2 2 ,	-0.2268461
-1.39203	2 2 .	-0.1726793
-1.953622	2 2 /
-1.072551	2 2 0	-0.2238448
-1.953622	2 2 1
-1.953622	2 2 2	-0.2628695
-1.755717	2 2 3
-1.39203	2 2 4	-0.4535605
-1.072551	2 2 5	-0.3534181
-1.953622	2 2 6
-1.755717	2 2 9	-0.2708245
-0.3215517	2 2 </s>
-1.113943	2 2 n	0.3388186
-1.774178	3 2 ,
-1.031408	3 2 .	-0.02624055
-1.576272	3 2 0	-0.5626556
-1.774178	3 2 1	-0.3123549
-1.366068	3 2 5	-0.1811764
-1.774178	3 2 6	-0.1804831
-1.774178	3 2 7
-1.576272	3 2 9	-0.3564337
-0.1863104	3 2 </s>
-0.6931404	4 2 .	-0.1659692
-1.511005	4 2 0	-0.1191575
-1.511005	4 2 3	-0.4787589
-1.267172	4 2 4	-0.01576892
-1.300801	4 2 5	-0.276174
-1.267172	4 2 6	-1.303469
-0.827839	4 2 7	-0.759248
-1.300801	4 2 8	-0.3687192
-1.708911	4 2 9	-0.1763272
-0.5904781	4 2 </s>
-0.9593279	5 2 .	-0.07567035
-1.112811	5 2 2	-0.3816842
-1.52092	5 2 3
-1.323015	5 2 5	-0.2485563
-0.2498775	5 2 </s>
-1.502437	6 2 ,
-0.5835766	6 2 .	-0.1910705
-1.304531	6 2 0
-1.304531	6 2 2
-1.502437	6 2 3
-1.502437	6 2 5	-0.1573593
-0.3617278	6 2 </s>
-1.130539	7 2 .	-0.1198369
-1.538649	7 2 5	-0.5353027
-1.538649	7 2 6	-0.1804831
-0.1307683	7 2 </s>
-1.52092	8 2 ,	-0.2102737
-1.323015	8 2 .
-1.323015	8 2 0	-0.1191575
-1.52092	8 2 4	-0.1527665
-0.1627273	8 2 </s>
-1.384712	9 2 .	-0.325563
-1.418341	9 2 0	-0.2865893
-1.628545	9 2 5	-0.3374659
-1.826451	9 2 6	-0.1804831
-1.826451	9 2 7	-0.2621593
-1.826451	9 2 8	-0.2499045
-1.384712	9 2 9	-1.299313
-0.11754	9 2 </s>
-1.47534	<s> 2 ,	0.1462429
-3.070894	<s> 2 -	-0.3493784
-1.107363	<s> 2 .	-1.842421
-2.872988	<s> 2 /	-0.189329
-0.4437542	<s> 2 0	-0.3277929
-1.201831	<s> 2 1	-0.1222006
-1.222615	<s> 2 2	-0.1678239
-1.244443	<s> 2 3	-0.2123015
-1.361983	<s> 2 4	-0.2559786
-1.10411	<s> 2 5	-0.1395405
-1.333588	<s> 2 6	0.002781372
-1.453063	<s> 2 7	-0.1427225
-1.578002	<s> 2 8	-0.1665966
-1.618431	<s> 2 9	-0.148296
-3.070894	<s> 2 :
-1.081995	<s> 2 </s>
-2.117271	<s> 2 n	0.2340832
-0.1407091	d 2 .	-0.5394195
-0.111713	n 2 0	-1.774648
-0.5386491	r 2 0
-0.5386491	r 2 9
-0.5740313	, 3 0	-0.8458846
-1.3168	, 3 1
-0.8750613	, 3 2	-0.1802608
-0.8750613	, 3 5	-0.126342
-1.3168	, 3 6
-0.8750613	, 3 7	-0.1820095
-1.118895	, 3 8	-0.2681628
-1.418341	. 3 0	-0.2744483
-1.418341	. 3 1	-0.3790647
-1.253387	. 3 2	0.2718019
-1.628545	. 3 3	-0.5025618
-1.384712	. 3 4	-0.1147096
-1.253387	. 3 5	-0.5791423
-1.628545	. 3 6	-0.4367445
-1.384712	. 3 7	-1.308268
-1.253387	. 3 8	-1.738598
-1.384712	. 3 9	-1.373099
-0.3240139	. 3 </s>
-1.826451	. 3 b	0.01361482
-0.03778856	/ 3 2	-1.074102
-1.198076	/ 3 </s>
-1.473148	0 3 .
-1.031408	0 3 0	-0.01863608
-0.1149545	0 3 </s>
-1.633971	1 3 ,	-0.1839166
-1.288175	1 3 .	-0.1615573
-1.765296	1 3 /	-0.4725646
-1.005628	1 3 0	-0.8342419
-1.798925	1 3 1	-0.1006804
-1.645443	1 3 2	0.2313905
-1.765296	1 3 3	-1.570379
-1.765296	1 3 4	-0.1791565
-1.798925	1 3 5	-0.3598325
-1.645443	1 3 6	-0.1711597
-1.464266	1 3 7	-0.179952
-1.765296	1 3 9	-0.1329601
-0.3299294	1 3 </s>
-0.8232879	1 3 t	0
-1.936589	2 3 ,	0.1168775
-1.055517	2 3 .	-0.1460854
-1.363525	2 3 0	-0.173249
-1.936589	2 3 1	-0.3552477
-1.936589	2 3 3
-1.374997	2 3 4	-0.08320321
-1.936589	2 3 5
-1.936589	2 3 7
-1.936589	2 3 9
-1.936589	2 3 :
-0.3645163	2 3 </s>
-0.6055483	2 3 r	0.1938201
-1.538649	3 3 ,	0.1168775
-1.09691	3 3 .
-0.69897	3 3 0	-0.263522
-1.538649	3 3 4
-1.538649	3 3 6	-0.2566379
-1.538649	3 3 8	-0.1877566
-1.538649	3 3 9	-0.4853261
-0.39794	3 3 </s>
-1.538649	3 3 r	1.154666
-1.511777	4 3 ,	0.1168775
-1.103667	4 3 .	-0.3177642
-1.313872	4 3 0	-0.6994573
-1.511777	4 3 2
-1.313872	4 3 5	-0.4584548
-1.511777	4 3 6
-1.511777	4 3 7
-1.070038	4 3 8	0.1646094
-0.31037	4 3 </s>
-1.323015	5 3 .	-0.2358854
-1.52092	5 3 2
-1.52092	5 3 5
-1.52092	5 3 6
-1.52092	5 3 7
-0.1627273	5 3 </s>
-1.52092	5 3 r	1.154666
-1.118895	6 3 .
-1.118895	6 3 1	-0.2606966
-0.154902	6 3 </s>
-0.6766936	7 3 .	-0.1265635
-1.419463	7 3 0
-0.1648103	7 3 </s>
-0.9387128	8 3 5	-0.2238663
-1.511777	8 3 8
-0.1406189	8 3 </s>
-1.720493	9 3 .
-0.7668703	9 3 0	-0.5795733
-1.522587	9 3 2	-0.2670333
-1.522587	9 3 6	0.006753634
-0.9777236	9 3 7	-0.5203103
-1.278754	9 3 9	-1.373099
-0.30103	9 3 </s>
-1.40097	<s> 3 ,	0.08413117
-1.094544	<s> 3 .	0.2177241
-1.856901	<s> 3 /	-0.3753527
-0.5047189	<s> 3 0	-0.5197716
-1.007394	<s> 3 1	-0.2113819
-1.571666	<s> 3 2	0.0620979
-1.458961	<s> 3 3	-0.01858076
-1.525908	<s> 3 4	-0.1220439
-1.127968	<s> 3 5	-0.2459534
-1.359577	<s> 3 6	-0.1064295
-1.511668	<s> 3 7	0.05405034
-1.540631	<s> 3 8	-0.1752846
-1.37978	<s> 3 9	0.001733568
-0.8924398	<s> 3 </s>
-2.842709	<s> 3 D	0.01361482
-1.889086	<s> 3 r	0.552842
-0.09691001	P 3 </s>
-0.5386491	_ 3 4
-0.3152704	, 4 0	-1.04767
-1.331041	, 4 1
-0.8893017	, 4 4	-1.637587
-1.331041	, 4 6
-0.9229311	, 4 8	-0.2490914
-1.614901	. 4 0	-0.3760748
-1.371068	. 4 1	-0.1565816
-1.371068	. 4 2
-1.251215	. 4 3	-0.1149007
-1.371068	. 4 4	-0.05705842
-1.070038	. 4 5	-0.5023262
-1.239743	. 4 6	-0.455932
-1.812807	. 4 7	-0.3421993
-1.404697	. 4 8	-0.2444203
-1.404697	. 4 9	-0.112189
-0.31037	. 4 </s>
-1.201407	/ 4 5	-0.5364782
-0.06069784	/ 4 </s>
-1.462928	0 4 0	-0.1959682
-0.07918125	0 4 </s>
-1.726036	1 4 ,	-0.257854
-1.294466	1 4 .	-0.2278313
-1.148338	1 4 0	-0.7977923
-0.9722469	1 4 1	-0.3701356
-0.8031045	1 4 2	-0.5784938
-1.93624	1 4 3	-0.4325239
-1.93624	1 4 4	-0.236769
-1.572553	1 4 5	-0.02978121
-1.692406	1 4 6	0.1972281
-2.134145	1 4 7
-1.93624	1 4 8	-0.3514985
-1.692406	1 4 9	0.04862553
-0.3806524	1 4 </s>
-1.391376	1 4 t	0.4259687
-1.646095	2 4 .	-0.2624615
-0.7490489	2 4 0	-0.5469288
-1.844	2 4 3	-0.2524174
-1.402261	2 4 6	-0.01814036
-1.844	2 4 7
-0.2261701	2 4 </s>
-1.282408	2 4 t	0.5351132
-1.10551	3 4 ,	0.09205871
-1.10551	3 4 0	-1.318954
-1.10551	3 4 2	-0.3089267
-1.547249	3 4 4
-1.10551	3 4 5	-1.290283
-1.547249	3 4 7
-1.10551	3 4 8	-1.294378
-0.3096302	3 4 </s>
-1.014803	4 4 ,	0.12284
-1.014803	4 4 .	-0.07503433
-1.179757	4 4 0	-0.2197852
-1.587867	4 4 1
-1.587867	4 4 4	-0.194056
-0.2568263	4 4 </s>
-1.054819	5 4 ,	-0.379122
-1.054819	5 4 .
-1.021189	5 4 0	-1.318954
-1.462928	5 4 3
-1.265023	5 4 4
-0.4191293	5 4 </s>
-1.173253	6 4 .	-0.6835055
-1.173253	6 4 0	-0.3760748
-0.9630484	6 4 4	-0.3128706
-1.371158	6 4 7
-0.30103	6 4 </s>
-1.441739	7 4 ,
-0.8801467	7 4 .	-0.1068504
-0.154902	7 4 </s>
-1.603107	8 4 .
-1.603107	8 4 4
-1.603107	8 4 5
-1.041515	8 4 7	-0.2784688
-0.1401787	8 4 </s>
-1.694852	9 4 ,
-0.797806	9 4 0	-0.7570201
-1.451018	9 4 1	-1.416565
-1.451018	9 4 2
-1.694852	9 4 3	-0.4325239
-1.892758	9 4 4	-0.194056
-1.892758	9 4 5	-0.1672979
-1.694852	9 4 6	-0.3352445
-1.451018	9 4 7	-0.2052017
-1.331165	9 4 8	-0.472186
-1.484648	9 4 9	-0.2071867
-0.2822264	9 4 </s>
-0.3168004	: 4 1	-0.2935791
-1.458818	<s> 4 ,	-0.2316795
-1.073467	<s> 4 .	-0.02597634
-0.5022833	<s> 4 0	-0.1058608
-1.502283	<s> 4 1	0.3394216
-1.333879	<s> 4 2	-0.3331497
-1.366064	<s> 4 3	0.1174973
-1.349673	<s> 4 4	-0.3497021
-1.073467	<s> 4 5	-0.03669635
-1.419309	<s> 4 6	0.01979143
-1.480007	<s> 4 7	0.1222238
-1.275887	<s> 4 8	0.04525297
-1.458818	<s> 4 9	0.1552829
-0.8567576	<s> 4 </s>
-1.826794	<s> 4 t	0.3802112
-0.6178303	a 4 0	-0.3878537
-0.1760913	a 4 5	-1.638065
-0.3168004	d 4 3	-0.5086744
-0.3168004	s 4 u	0.01361482
-0.1702617	, 5 0	-0.9673164
-1.407881	, 5 4
-1.209975	, 5 5	-0.2508783
-0.9661418	, 5 8	-0.3561539
-1.138303	. 5 0	-0.7302277
-1.615424	. 5 1	0.0435905
-1.263241	. 5 2	-0.5952206
-1.859258	. 5 3	-0.2192606
-1.859258	. 5 4
-1.495571	. 5 5	-0.6266375
-1.484099	. 5 6	0.06709912
-1.859258	. 5 7	0.0008124433
-1.484099	. 5 8	-0.003512031
-1.649053	. 5 9	-0.320696
-0.1921781	. 5 </s>
-1.774178	0 5 .
-1.576272	0 5 0	-0.375457
-1.576272	0 5 1	-0.2385085
-1.774178	0 5 2
-1.576272	0 5 5	0.03650802
-0.1421068	0 5 </s>
-1.212585	0 5 @	0.2340832
-1.182478	1 5 ,	-0.2865866
-1.261659	1 5 .	-0.1268612
-2.079524	1 5 /	-0.1742514
-0.6182066	1 5 0	-0.1816993
-2.27743	1 5 1
-2.079524	1 5 2	-0.2303914
-2.27743	1 5 3	-0.03915398
-2.079524	1 5 4	-0.07263645
-1.534661	1 5 5	0.09589875
-1.835691	1 5 6	-0.3811264
-1.715837	1 5 7	-0.09041147
-2.079524	1 5 8	-0.2631018
-2.27743	1 5 :	-0.3493784
-0.3549652	1 5 </s>
-1.233631	1 5 t	0.3493347
-1.143907	2 5 ,	-0.4784721
-1.687975	2 5 .	-0.1656061
-0.69897	2 5 0	-0.2421969
-1.931808	2 5 2	0.07810956
-1.931808	2 5 5	-0.4069901
-2.129714	2 5 6	-0.1573593
-1.687975	2 5 9	-0.06488376
-0.2293368	2 5 </s>
-1.335792	2 5 t	0.5797836
-1.029384	3 5 ,	-0.3737367
-1.671157	3 5 .
-0.8532925	3 5 0	-0.9357132
-1.869063	3 5 1
-1.671157	3 5 3	-0.2192606
-1.427324	3 5 4	-0.1518653
-0.9502025	3 5 5	-0.01421632
-1.427324	3 5 6
-1.671157	3 5 7	0.0008124433
-0.3391877	3 5 </s>
-1.340055	4 5 ,	0.09953496
-1.306425	4 5 .	-0.1524294
-0.8293038	4 5 0	0.1501939
-1.748164	4 5 2
-1.186572	4 5 5	-0.9068252
-1.748164	4 5 9	-0.4665049
-0.2363872	4 5 </s>
-1.1751	5 5 ,	0.3478104
-1.1751	5 5 .
-1.1751	5 5 0	-0.0775297
-1.748164	5 5 2
-1.550259	5 5 4	-0.07263645
-1.748164	5 5 5	-0.2268836
-1.550259	5 5 8
-0.2852357	5 5 </s>
-1.306425	5 5 @	-0.5881083
-1.748164	5 5 _
-1.1589	6 5 ,	0.2608686
-1.278754	6 5 .	-0.1366351
-1.147429	6 5 0	-0.0775297
-1.312383	6 5 1	-0.05685345
-1.522587	6 5 3	-0.2597628
-1.720493	6 5 8	-0.1921214
-0.2180558	6 5 </s>
-1.278087	7 5 ,	-0.1774421
-1.431569	7 5 .
-0.8538719	7 5 0	-1.727707
-1.839679	7 5 3	-0.531015
-1.839679	7 5 6	-0.1573593
-0.1674911	7 5 </s>
-1.439333	8 5 .
-1.138303	8 5 0	-0.605289
-1.683166	8 5 3	0.2242376
-1.881072	8 5 5
-1.472962	8 5 7	-0.251568
-1.881072	8 5 9	-0.2018813
-0.1171134	8 5 </s>
-1.39372	9 5 ,	0.3119614
-1.966784	9 5 .
-0.9510136	9 5 0	-1.035994
-1.768878	9 5 1	-0.4888821
-1.768878	9 5 2
-1.966784	9 5 3	-0.03915398
-1.768878	9 5 4	-0.5161346
-1.405192	9 5 5	-0.0893669
-1.525045	9 5 6	-1.280345
-1.768878	9 5 7	-0.4426857
-1.558674	9 5 8	-0.2159385
-1.405192	9 5 9	-0.06436463
-0.2578731	9 5 </s>
-0.1407091	: 5 3	-0.03915398
-1.287942	<s> 5 ,	0.3330784
-1.180308	<s> 5 .	-0.141682
-1.646964	<s> 5 /	-0.2391829
-0.4039255	<s> 5 0	-0.07340926
-1.450669	<s> 5 1	-0.2538
-1.431364	<s> 5 2	-0.3612723
-1.617	<s> 5 3	0.1379891
-1.450669	<s> 5 4	-0.04240851
-1.330694	<s> 5 5	-0.2590329
-1.679148	<s> 5 6	-0.1068512
-1.450669	<s> 5 7	0.09248686
-1.793092	<s> 5 8	-0.1626318
-1.890002	<s> 5 9	0.3448633
-0.7438736	<s> 5 </s>
-1.793092	<s> 5 t	0.5383909
-0.03778856	p 5 3	-0.5740312
-0.2438336	' 6 0	-0.6651506
-0.710323	, 6 0	-0.4633856
-0.6766936	, 6 4
-1.118433	, 6 5
-1.118433	, 6 8
-0.9502025	. 6 0	-0.6714426
-1.427324	. 6 1	0.1209913
-1.126294	. 6 2	-0.1079221
-1.869063	. 6 3
-1.075141	. 6 5	-0.5963076
-1.427324	. 6 6	0.1608953
-1.460953	. 6 8	-0.2563671
-1.460953	. 6 9	-0.1604433
-0.2811958	. 6 </s>
-1.23091	0 6 /	-0.4079158
-1.63902	0 6 0
-1.441114	0 6 2
-1.63902	0 6 4	-0.243274
-0.146128	0 6 </s>
-1.45993	1 6 ,	0.08763244
-1.0679	1 6 .	-0.1778945
-1.102662	1 6 0	-0.7417846
-1.579784	1 6 2	-0.06065902
-1.613413	1 6 3	-0.1402399
-1.823617	1 6 4	-0.6743463
-1.579784	1 6 5	-0.003614087
-2.021523	1 6 6	0.02389776
-1.579784	1 6 8	0.1198159
-0.2842165	1 6 </s>
-0.9777236	1 6 t	0.3823349
-1.017033	2 6 .	-0.0643934
-1.414973	2 6 0	-1.343516
-1.856712	2 6 3
-1.856712	2 6 4
-1.062791	2 6 5	0.1945098
-1.658807	2 6 6	-0.2635929
-1.414973	2 6 8
-0.2461813	2 6 </s>
-1.283648	2 6 t	-0.4823614
-1.447954	3 6 ,	0.03270674
-1.20412	3 6 .	-0.3455608
-0.90309	3 6 0	-0.6304694
-1.645859	3 6 1
-1.447954	3 6 6	-0.2312246
-1.447954	3 6 7
-1.084267	3 6 8	-0.5116739
-1.645859	3 6 9
-0.3148183	3 6 </s>
-1.121765	4 6 ,	-0.09345943
-1.121765	4 6 .
-1.088136	4 6 0
-1.529875	4 6 1	-0.4946162
-1.529875	4 6 2
-0.2277981	4 6 </s>
-1.232838	5 6 .	-0.2594614
-1.232838	5 6 6	-0.1562088
-1.430744	5 6 7
-1.430744	5 6 8
-1.430744	5 6 9	-0.04162861
-0.2293368	5 6 </s>
-0.9661418	6 6 .
-1.407881	6 6 2	-0.4130251
-0.136838	6 6 </s>
-1.254557	7 6 ,	0.03270674
-1.044353	7 6 .	-0.2552045
-1.452463	7 6 0
-1.452463	7 6 1
-0.1814201	7 6 </s>
-1.279452	8 6 .	-0.1495061
-1.444407	8 6 2	-0.4153342
-1.852516	8 6 3	-0.02142523
-1.852516	8 6 5	-0.522617
-0.1043522	8 6 </s>
-0.741722	9 6 0	-1.017374
-1.30103	9 6 1	-0.6413133
-1.635689	9 6 2	-0.4153342
-1.470735	9 6 3	-1.572267
-1.635689	9 6 4	-0.267091
-1.60206	9 6 5	-1.263597
-1.482207	9 6 6	-0.2768963
-1.162727	9 6 7	-0.465222
-2.043799	9 6 8	-0.2325501
-1.482207	9 6 9	-0.3424227
-0.3290587	9 6 </s>
-1.409722	<s> 6 ,	0.02096735
-1.12248	<s> 6 .	-0.07191633
-2.045411	<s> 6 /	-0.1136454
-0.5685188	<s> 6 0	-0.2288963
-1.534661	<s> 6 1	-0.1313544
-1.499898	<s> 6 2	0.06801846
-1.613842	<s> 6 3	0.05997301
-1.499898	<s> 6 4	-0.004384727
-1.001058	<s> 6 5	-0.2214263
-1.499898	<s> 6 6	-0.06862037
-1.409722	<s> 6 7	0.01189923
-1.467714	<s> 6 8	-0.08602579
-1.409722	<s> 6 9	0.1548724
-0.7000279	<s> 6 </s>
-1.383393	<s> 6 t	0.3575113
-0.1407091	' 7 0
-0.5333592	, 7 0	-0.7604225
-1.094952	, 7 3
-1.094952	, 7 5	-0.4788024
-1.094952	, 7 7
-1.094952	, 7 8
-1.094952	, 7 9
-1.295567	. 7 0	-1.453635
-1.329197	. 7 1	0.3061319
-1.295567	. 7 2	0.1777202
-1.737306	. 7 3	-0.04370163
-1.175714	. 7 5	-0.350248
-1.737306	. 7 6	-0.07764813
-1.737306	. 7 7	-0.1536632
-1.329197	. 7 8	-0.1740981
-0.9433846	. 7 9	-0.2138798
-0.2955671	. 7 </s>
-1.774178	0 7 -	-0.3493784
-1.774178	0 7 .
-1.576272	0 7 /	-0.6618243
-1.332438	0 7 0	-0.1936522
-1.576272	0 7 2	-0.1393839
-1.774178	0 7 4	-0.02142523
-1.576272	0 7 5	-0.2295605
-1.774178	0 7 6	-0.07764813
-1.774178	0 7 7
-1.774178	0 7 8
-0.1636464	0 7 </s>
-1.677082	1 7 ,	-0.2651787
-1.131569	1 7 .	-0.2756346
-1.677082	1 7 /	-0.4069239
-1.20412	1 7 0	-0.2196161
-1.643453	1 7 1	-0.3572422
-2.085192	1 7 2	0.04072268
-2.085192	1 7 3
-2.085192	1 7 4	-0.02142523
-1.245513	1 7 5	-0.20412
-1.677082	1 7 6	0.1769191
-1.887286	1 7 7	-0.2701321
-1.677082	1 7 8	0.02189469
-1.677082	1 7 9	0.07724404
-0.2677891	1 7 </s>
-1.29127	1 7 t	0.5563025
-1.793922	2 7 ,
-1.596016	2 7 .
-1.596016	2 7 /
-0.7781513	2 7 0	-1.061156
-1.596016	2 7 1	0.1713853
-1.793922	2 7 2
-1.596016	2 7 5	0.2139376
-1.596016	2 7 6	-0.2398147
-1.793922	2 7 9
-0.320774	2 7 </s>
-1.051152	2 7 t	0.60206
-1.20412	3 7 ,	-0.1162172
-0.90309	3 7 .	-0.08764599
-1.447954	3 7 0	-0.2605908
-1.447954	3 7 4	-0.2195416
-1.645859	3 7 9
-0.2498775	3 7 </s>
-1.447954	3 7 t	0.831892
-1.065038	4 7 .	-0.08887038
-0.5920758	4 7 0	-1.014756
-0.9115552	4 7 5	0.0880627
-1.473148	4 7 6
-0.4293485	4 7 </s>
-1.041393	5 7 .	-0.1734871
-1.483132	5 7 2	0.04072268
-1.075022	5 7 5	-0.07327098
-1.075022	5 7 8	-0.0791005
-0.3212334	5 7 </s>
-1.407881	6 7 .
-1.407881	6 7 0
-0.1210437	6 7 </s>
-1.610531	7 7 .
-0.5947608	7 7 7	-1.609527
-1.610531	7 7 8
-0.226784	7 7 </s>
-1.32341	8 7 .	-0.1458284
-1.687097	8 7 1	-0.2721129
-1.687097	8 7 2	-0.1393839
-1.687097	8 7 5	-0.2295605
-0.07219513	8 7 </s>
-1.816241	9 7 .	-0.1646901
-0.7193313	9 7 0	-1.110413
-2.060075	9 7 1	-0.2721129
-1.304358	9 7 2	-0.5611014
-1.304358	9 7 3	-0.6455257
-1.214181	9 7 4	-0.7075702
-1.515211	9 7 5	-0.6314249
-1.418301	9 7 6	-0.5747369
-1.684916	9 7 7	-1.704504
-1.464059	9 7 8	-0.5109795
-1.075879	9 7 9	-0.6213652
-0.4012679	9 7 </s>
-2.25798	9 7 _
-1.518514	<s> 7 ,	-0.03533034
-0.9578466	<s> 7 .	-0.03031784
-1.837993	<s> 7 /	-0.683901
-0.7469932	<s> 7 0	-0.6982507
-1.413779	<s> 7 1	-0.09177038
-1.281153	<s> 7 2	0.2865406
-1.383815	<s> 7 3	-0.06751876
-1.480725	<s> 7 4	0.3420978
-0.8523365	<s> 7 5	-0.01595057
-1.413779	<s> 7 6	0.06262337
-1.144933	<s> 7 7	-0.1027517
-1.991476	<s> 7 8	0.3428547
-1.518514	<s> 7 9	0.1760913
-0.7890546	<s> 7 </s>
-1.480725	<s> 7 t	0.4423591
-0.09691001	' 8 0	-0.2893166
-0.5496719	, 8 0	-0.7618892
-0.9890046	, 8 2
-0.9890046	, 8 3	-0.1388046
-0.9890046	, 8 4	-0.1809694
-0.9890046	, 8 5	-0.1861891
-1.430744	, 8 6
-1.430744	, 8 7
-0.8691514	, 8 8	-0.1066236
-1.430744	, 8 9
-1.255273	. 8 0	-0.1558528
-1.20412	. 8 1	-0.1658721
-1.424978	. 8 2	-0.3399481
-1.424978	. 8 3	-0.2667122
-1.424978	. 8 4	0.1716969
-0.7269987	. 8 5	-0.4762803
-1.424978	. 8 6	0.07422116
-1.556303	. 8 7	0.4075676
-1.589932	. 8 8	0.2015971
-1.556303	. 8 9	0.4957835
-0.3875105	. 8 </s>
-0.01523997	/ 8 </s>
-1.3168	0 8 .
-1.3168	0 8 0
-1.118895	0 8 5	-0.0979912
-1.118895	0 8 8	0.4888057
-0.2466723	0 8 </s>
-1.623249	1 8 ,	0.1532957
-1.491924	1 8 .	-0.05515164
-0.9242793	1 8 0	-0.3069666
-2.064988	1 8 1
-1.656879	1 8 2	0.1810874
-2.064988	1 8 3
-2.064988	1 8 4
-1.491924	1 8 5	0.3065738
-1.656879	1 8 6	0.3823298
-1.656879	1 8 7	0.6687083
-2.064988	1 8 8
-1.491924	1 8 9	0.7280744
-0.30103	1 8 </s>
-1.049218	1 8 t	0.4490925
-1.244483	2 8 .	-0.1181371
-1.454687	2 8 0
-1.454687	2 8 2	0.2242376
-1.652592	2 8 4
-1.652592	2 8 5	0.08211538
-0.3077634	2 8 </s>
-1.652592	2 8 @
-0.8129134	2 8 t	0.6118199
-1.340744	3 8 ,
-0.9770567	3 8 .	-0.1823026
-1.538649	3 8 5	0.08211538
-1.538649	3 8 6	0.1261106
-1.538649	3 8 7	-0.5231741
-1.538649	3 8 8
-1.538649	3 8 9	0.358786
-0.251812	3 8 </s>
-1.168792	4 8 .
-1.048939	4 8 0	-0.1329096
-1.412626	4 8 5	-0.2718099
-1.412626	4 8 6	-0.7009682
-1.610531	4 8 8
-0.2393731	4 8 </s>
-1.610531	4 8 _
-1.395982	5 8 ,
-1.395982	5 8 .	-0.4784867
-0.9542425	5 8 0	-1.393412
-1.395982	5 8 6
-1.395982	5 8 8
-1.395982	5 8 9
-0.2552725	5 8 </s>
-0.8793989	6 8 .	-0.2153126
-1.452463	6 8 1
-1.254557	6 8 5	-0.2648256
-1.254557	6 8 7	-0.2597825
-0.2905646	6 8 </s>
-0.9661418	7 8 .
-1.407881	7 8 2
-1.407881	7 8 4	0.01500403
-1.407881	7 8 8
-0.1702617	7 8 </s>
-1.462778	8 8 .
-1.582631	8 8 0	-0.2290336
-1.826465	8 8 4	0.2783956
-2.02437	8 8 6	0.1261106
-1.582631	8 8 8
-2.02437	8 8 9	0.358786
-0.08088771	8 8 </s>
-0.8444709	9 8 0	-1.243824
-1.478378	9 8 1	-0.5733574
-1.539076	9 8 2	-0.79588
-1.408742	9 8 3	-0.8890035
-1.377708	9 8 4	-0.9178132
-1.158865	9 8 5	-1.054822
-1.054776	9 8 6	-1.121977
-0.9316211	9 8 7	-1.09894
-0.7908881	9 8 8	-1.28336
-0.8716232	9 8 9	-0.764363
-0.8578349	9 8 </s>
-2.679785	9 8 _
-1.207302	<s> 8 ,	-0.1029841
-1.136721	<s> 8 .	-0.2907417
-0.5083317	<s> 8 0	-0.6477315
-1.835691	<s> 8 1	0.5964324
-1.715837	<s> 8 2	0.3870212
-1.86932	<s> 8 3	0.2684178
-1.86932	<s> 8 4	0.2695713
-1.483508	<s> 8 5	-0.01046721
-1.261659	<s> 8 6	0.233864
-1.483508	<s> 8 7	0.6849276
-1.358569	<s> 8 8	0.6033643
-1.291623	<s> 8 9	0.3406546
-0.7217472	<s> 8 </s>
-1.182478	<s> 8 t	0.3744589
-0.7094505	' 9 0	-0.8684964
-1.073137	' 9 4	-0.4037259
-1.271043	' 9 6	-0.2696029
-0.7094505	' 9 7	-0.6254538
-0.7094505	' 9 8	-0.7802382
-1.073137	' 9 9	-0.683149
-0.6356894	, 9 0	-0.6243935
-1.043799	, 9 2
-1.043799	, 9 3
-1.043799	, 9 6	-0.4574553
-1.043799	, 9 8
-1.390611	. 9 0	-0.1469285
-1.390611	. 9 1	-0.007373793
-1.390611	. 9 2	-0.2714479
-1.237128	. 9 3	0.07504329
-1.055951	. 9 4	-0.08319423
-1.004799	. 9 5	-0.605289
-1.237128	. 9 7	-0.3094249
-1.055951	. 9 8	-1.080449
-0.3908397	. 9 </s>
-0.9878719	0 9 ,	0.1278947
-1.198076	0 9 4	0.03977228
-0.1945747	0 9 </s>
-2.140665	1 9 .	-0.1963022
-1.858119	1 9 0	-0.04901921
-2.316756	1 9 1	0.342556
-1.964574	1 9 2	-0.4236375
-1.804873	1 9 3	-0.9893288
-1.586378	1 9 4	-0.6058023
-1.52965	1 9 5	0.09004249
-1.316756	1 9 6	-1.12843
-1.049585	1 9 7	-1.332918
-0.4482589	1 9 8	-0.6518999
-0.450469	1 9 9	-1.787375
-1.463971	1 9 </s>
-2.140665	1 9 t	0.4542584
-1.63902	2 9 ,
-1.441114	2 9 .
-1.441114	2 9 /	-0.1803805
-1.197281	2 9 0	0.2292545
-1.441114	2 9 1
-1.63902	2 9 9	-0.5030425
-0.243038	2 9 </s>
-1.077427	2 9 t	0.7231037
-1.441114	3 9 ,	-0.3886184
-0.8962505	3 9 .	-0.09592026
-1.197281	3 9 0	0.2292545
-1.197281	3 9 3	-0.1062765
-1.065956	3 9 5	-0.6408961
-1.63902	3 9 6
-0.3079789	3 9 </s>
-1	4 9 .
-1.441739	4 9 0	-0.1231115
-1.243834	4 9 1
-1.441739	4 9 5
-0.1870866	4 9 </s>
-0.785129	5 9 .	-0.1380835
-1.358193	5 9 0
-1.358193	5 9 5
-0.2632414	5 9 </s>
-1.383747	6 9 ,
-0.9420081	6 9 .	-0.4112474
-1.383747	6 9 4	-0.2236193
-0.1638568	6 9 </s>
-1.171932	7 9 .	-0.08122497
-1.580042	7 9 6	-0.2696029
-0.08715018	7 9 </s>
-1.385297	8 9 .	-0.2337862
-1.50515	8 9 0	0.2292545
-0.05799195	8 9 </s>
-2.660537	9 9 ,
-2.098945	9 9 .	-0.05318799
-0.7955521	9 9 0	-1.358314
-1.130662	9 9 1	-1.043225
-1.028466	9 9 2	-1.174297
-1.45913	9 9 3	-1.079181
-1.218798	9 9 4	-1.292099
-1.113288	9 9 5	-1.36705
-1.021517	9 9 6	-1.531479
-0.871468	9 9 7	-1.734598
-0.9695997	9 9 8	-1.792473
-1.229793	9 9 9	-1.560799
-1.042707	9 9 </s>
-1.420506	<s> 9 ,	-0.3306582
-1.170628	<s> 9 .	-0.3020868
-2.016522	<s> 9 /	-0.3564337
-0.7026505	<s> 9 0	-0.8412761
-1.374748	<s> 9 1	0.2578048
-1.652835	<s> 9 2	-0.2200541
-1.260805	<s> 9 3	-0.2332184
-1.374748	<s> 9 4	0.007555079
-1.295567	<s> 9 5	-0.1600402
-1.652835	<s> 9 6	-0.1320862
-1.374748	<s> 9 7	-0.3590974
-1.260805	<s> 9 8	-0.5719622
-1.013021	<s> 9 9	-0.5430715
-0.7726883	<s> 9 </s>
-1.119476	<s> 9 t	0.2894481
-0.1407091	= 9 7	-0.5308364
-0.3407436	l 9 @	-0.02544055
-0.5386491	l 9 l	0.01361482
-0.2438336	0 : 0	-0.1611057
-0.3168004	2 : 1	-0.3959893
-0.4417391	5 : 4
-2.44244	<s> : -	0.07047223
-0.002087242	<s> : </s>
-0.04139268	A : </s>
-0.2208575	B : </s>
-0.7939216	B : O	0.01361482
-0.006839424	p : /	0
-0.0004876974	<s> ; </s>
-0.1576079	<s> < $	0
-0.6398146	<s> < h	0.07047223
-0.4868717	<s> = </s>
-0.243038	<s> = =	-0.7641996
-1	= = </s>
-0.05799195	= = =	-1.007238
-0.6178303	D = 1
-0.4868717	d = 1	-0.1684435
-0.6847771	d = 9	0.01361482
-0.1407091	e = 1	-0.4764474
-0.02632894	$ > </s>
-0.1407091	/ > </s>
-0.1188949	l > </s>
-0.2208575	! ? </s>
-0.7939216	! ? ?	-0.1448728
-0.09691001	. ? </s>
-3.129053	<s> ? !	0.0048999
-3.326959	<s> ? .	0.01361482
-0.00155839	<s> ? </s>
-2.918849	<s> ? ?	-0.01962218
-0.2208575	? ? </s>
-0.7939216	? ? ?	-0.1448728
-0.6178303	p ? I
-0.6178303	p ? S	0.01361482
-0.6178303	p ? t	0.01361482
-0.1407091	t ? 1	0.01361482
-0.4315695	. @ g	0.5110602
-0.8396791	. @ z	0.01361482
-0.4199249	0 @ h	0.8883733
-0.09691001	1 @ h	-0.05450569
-0.03778856	5 @ h	0.5336026
-0.09691001	9 @ h	-0.05450569
-0.05115252	<s> @ </s>
-0.09691001	b @ h	-0.05450569
-0.1188949	d @ y	0.2755895
-0.3407436	h @ h	0.8883733
-0.5386491	h @ m	-0.2796583
-0.1407091	i @ y	0.455696
-0.3407436	m @ c	-0.02544055
-0.5386491	m @ m	-0.3959893
-0.1407091	u @ g	0.5348772
-0.4868717	y @ g	0.3547707
-0.243038	y @ h	-0.05450569
-0.1407091	z @ a	0.01361482
-0.1188949	* A n	0.02620737
-0.1188949	/ A b	-0.7086457
-3.438209	<s> A '	-0.02544055
-2.541163	<s> A .	-0.4111017
-0.8690652	<s> A </s>
-3.074522	<s> A B	-0.1577957
-3.074522	<s> A C	-0.5938514
-2.796436	<s> A D	-0.246282
-3.194376	<s> A H	0.2916636
-2.011106	<s> A I	-0.6652869
-3.228005	<s> A M	-0.04521332
-2.620344	<s> A N	-0.7890341
-2.717254	<s> A P	-0.3955074
-3.636115	<s> A R
-3.194376	<s> A S	-1.507084
-3.636115	<s> A V	0.01361482
-2.682492	<s> A Z	0
-2.033008	<s> A b	-0.3846059
-1.289931	<s> A c	-0.02660017
-1.837394	<s> A d	-0.1089018
-3.636115	<s> A e	0.01361482
-1.254856	<s> A f	-0.1036976
-2.173186	<s> A g	0.00699534
-2.133678	<s> A h	0
-2.541163	<s> A i	-0.1349344
-1.054497	<s> A l	-0.438587
-1.495406	<s> A m	-0.09375788
-0.5269226	<s> A n	-0.07593046
-1.58961	<s> A p	0.002689373
-1.571126	<s> A r	-0.1706858
-1.013963	<s> A s	0.02545575
-1.088015	<s> A t	0.002987572
-1.455991	<s> A u	0.02353512
-2.305074	<s> A v	0.02561299
-3.074522	<s> A w	-0.01819959
-3.636115	<s> A y
-0.6283889	B A </s>
-0.4970639	B A N	-0.7853321
-0.6417736	C A L	-0.6117063
-0.39794	C A T	0.05645087
-0.5448636	D A </s>
-0.7427691	D A X	0.154666
-0.7427691	D A s	0.04441368
-0.6620184	E A D	-0.5381799
-0.8722225	E A N	-0.6798284
-0.6620184	E A R	-0.272203
-0.6417736	F A </s>
-0.8396791	F A L
-0.8396791	F A R
-0.5118834	I A </s>
-0.2108534	I A L	-0.3367456
-1.070128	L A N
-0.6620184	L A R	-0.3225801
-0.6283889	L A T	0.05645087
-0.6620184	L A W	-0.02509103
-0.9188603	M A L
-0.357268	M A N	-0.07703108
-0.1576079	N A </s>
-1.003501	N A L	-0.4590961
-1.201407	N A T	-0.4661327
-0.1188949	O A </s>
-0.8129134	P A </s>
-1.254653	P A C
-0.8129134	P A N	-0.1763389
-0.5118834	P A P	-0.7257631
-1.056747	P A R	-0.2444749
-0.8129134	P A Y	0.07270769
-1.173253	R A I	-0.709364
-0.8095657	R A L	-0.1414729
-0.9630484	R A M	-0.4105037
-0.3273589	R A T	-0.4393327
-0.0854302	S A R	-1.135025
-0.5107507	T A L	-0.2946434
-0.7209548	T A N	-0.6833128
-0.5386491	U A K	0.154666
-0.3407436	U A L
-0.04575749	V A </s>
-0.04139268	_ A :	0
-0.05115252	k A u	-0.87925
-0.1188949	u A b	-0.7086457
-0.02632894	$ B l	-0.8190064
-0.1760913	- B e	-1.653465
-0.1407091	/ B B	1.136937
-1.927338	<s> B </s>
-2.699103	<s> B A	-0.01912211
-1.789036	<s> B B	0.0280287
-3.272167	<s> B E
-3.272167	<s> B I	0.01361482
-3.272167	<s> B L	-0.2584917
-3.074262	<s> B O	-0.6406
-3.074262	<s> B R	0.0048999
-3.074262	<s> B T	-0.1036973
-3.074262	<s> B U	-0.1036973
-1.225662	<s> B a	-0.01668583
-0.8538491	<s> B e	-0.1978515
-1.779276	<s> B i	-0.1118813
-1.913974	<s> B l	0.1294661
-1.305383	<s> B o	0.007066383
-1.599979	<s> B r	-1.052635
-0.2213677	<s> B u	-0.4344529
-1.247797	<s> B y	0
-0.30103	A B C	-0.04139306
-0.00914338	B B S	0.03171306
-0.1188949	I B O	-0.6406
-0.111713	L B O	-0.3421934
-0.04921802	M B </s>
-1.146128	M B A	-0.2908009
-0.09691001	N B C	-1.328881
-0.1407091	O B :	-0.4682092
-0.09691001	R B -	-0.01842355
-0.9428036	R B A	-0.5579574
-0.1188949	Y B E	-0.5166234
-0.111713	_ B :	-1.695714
-0.02632894	g B a	-1.073141
-0.1188949	~ B a	-0.6598566
-0.3168004	- C h
-2.423769	<s> C $	-1.450805
-2.588724	<s> C .	-0.08194958
-1.600852	<s> C </s>
-2.588724	<s> C A	-0.1772678
-1.293832	<s> C D	0.01158213
-1.555094	<s> C E	-1.237781
-1.878401	<s> C F	-0.1036974
-2.555094	<s> C H	-0.04612772
-2.555094	<s> C I	-0.33565
-2.996834	<s> C J	0.01361482
-2.202912	<s> C N	0
-1.856124	<s> C O	-0.407855
-2.115762	<s> C P	0.012746
-2.798928	<s> C R
-2.798928	<s> C T
-2.798928	<s> C U	-0.5166234
-0.9292678	<s> C a	-0.03991714
-1.523686	<s> C e	-0.04038826
-0.7038361	<s> C h	-0.09913556
-1.588953	<s> C i	-0.201882
-1.40128	<s> C l	-0.09614514
-0.5010563	<s> C o	-0.05207691
-1.424761	<s> C r	0.02561317
-1.227736	<s> C u	-0.1974408
-2.555094	<s> C y	0.01361483
-0.357268	A C C	-0.266157
-0.266615	B C </s>
-0.8396791	B C s	0.7344496
-0.4868717	C C E	-0.7049249
-0.4868717	C C O	-0.648827
-0.8396791	E C I	-0.5002639
-0.6417736	E C U	-0.1611057
-0.02802872	F C s	0.07463362
-0.60206	I C A	-0.1854577
-1.043799	I C E	-0.5248184
-0.8458936	I C O	-0.6932962
-0.60206	I C T	-0.0794691
-0.30103	N C E	-0.3878208
-0.7427691	N C H
-0.4729621	O C </s>
-0.6831663	O C O	-0.6932962
-0.1231848	R C I	-0.5141048
-0.3407436	S C O	-0.648827
-0.04575749	T C </s>
-0.7427691	V C D	-0.2316921
-0.1811767	V C R	-0.6636456
-0.04575749	& D </s>
-0.1407091	* D o	-0.5312086
-0.05623797	. D .	0.07156745
-0.1407091	3 D </s>
-2.971618	<s> D '
-2.971618	<s> D .
-1.876667	<s> D </s>
-2.563509	<s> D A	-0.3707543
-2.563509	<s> D E	-0.2271504
-2.398554	<s> D I	-0.1967577
-2.529879	<s> D J	-0.1426608
-1.927819	<s> D N	-0.6661775
-2.563509	<s> D R	-0.1513292
-1.927819	<s> D V	0
-1.268616	<s> D a	0.04687724
-0.4894748	<s> D e	-0.00630336
-2.971618	<s> D h	0.01361482
-0.7836344	<s> D i	-0.2411144
-0.6562681	<s> D o	-0.1453583
-1.158811	<s> D r	0.0115226
-1.008088	<s> D u	-0.04038807
-2.410026	<s> D y	0.07047223
-0.60206	A D </s>
-1.043799	A D D
-1.043799	A D O
-1.043799	A D S
-0.60206	A D Y	-0.9683195
-0.3245111	C D </s>
-0.289749	C D s	0.04139267
-0.3407436	D D I	-0.2368723
-0.1286666	E D </s>
-1.022634	E D E	-0.4016679
-1.430744	E D I
-0.7966006	G D N	-0.7261389
-0.08715018	G D P	0
-0.01930515	H D T	0
-1.697012	I D </s>
-1.135419	I D =	0.001677895
-1.697012	I D E
-0.07200266	I D S	0.04645739
-0.4868717	L D </s>
-0.1512677	N D </s>
-0.6620184	N D S	1.270728
-0.6178303	O D </s>
-0.4199249	O D O	-0.3564337
-0.3168004	P D A	-0.4576867
-0.5386491	S D I	-0.4726475
-0.09017663	V D </s>
-0.8458936	V D s	0.9190421
-0.1407091	c D o	-0.5312086
-0.05115252	k D a	-0.8908555
-0.1407091	- E u	1.219124
-2.846165	<s> E -
-2.000271	<s> E </s>
-3.04407	<s> E A	-0.437643
-3.04407	<s> E C	-0.4318351
-2.602331	<s> E M	-0.2803342
-3.04407	<s> E N
-2.602331	<s> E S	-1.618739
-2.846165	<s> E U	-0.3574922
-2.846165	<s> E X	0.0048999
-0.6911737	<s> E a	0.007206262
-2.635961	<s> E b	0.01755758
-1.648089	<s> E c	0.01361483
-2.090448	<s> E d	-0.006174752
-3.04407	<s> E f	0.01361482
-1.949119	<s> E h	0
-1.672912	<s> E i	0.01755757
-1.551179	<s> E l	-0.03248435
-1.806451	<s> E m	-0.005488223
-0.5649049	<s> E n	0.01264186
-2.846165	<s> E q	-0.1036973
-1.757233	<s> E r	0.009244139
-1.648089	<s> E s	-0.09611959
-2.635961	<s> E t	0.03585136
-1.147486	<s> E u	0.02116778
